1352 50
， 0.07153119 0.19712904 0.07866577 0.041267768 -0.008835962 0.08976163 -0.102593474 0.038924016 0.16809745 0.04426533 -0.06729229 -0.008521967 -0.24399659 0.15770842 -0.48346514 -0.044136792 -0.39062914 -0.37114957 0.21782902 0.1403592 0.18296087 -0.016084984 0.14338316 -0.8736805 -0.13997708 -0.23701906 0.022046879 0.010464543 -0.07496033 0.2213035 -0.14409395 0.3672925 -0.03728102 0.050455343 -0.021933837 0.14264819 0.21136872 0.08284736 0.31514248 0.022283584 0.1583871 -0.054412913 -0.047076453 0.009892593 -0.005578222 -0.2893981 -0.24847601 0.20258757 -0.05718723 -0.16592018
子 -0.04640534 -0.16075335 0.20521604 0.14777713 0.03801597 -0.16514498 0.083326705 -0.07581798 0.16908795 0.10696413 -0.062076975 -0.30316746 0.110475875 0.12876369 0.10029926 0.008277971 0.20597003 0.22804871 -0.09024647 0.19821118 0.82892007 0.30013683 0.31039476 0.07129461 0.09574582 -0.30159134 -0.07641267 0.2508032 -0.06556138 0.11492059 -0.09422875 0.4850011 -0.3415754 0.21141137 0.22437565 0.20214197 0.11233296 -0.052529965 0.07789107 -0.07125303 -0.07255793 0.11165179 -0.15399557 0.07271318 0.18779454 -0.13015538 0.18957844 -0.077489406 -0.12254857 0.07538158
。 0.051191974 0.17671753 -0.04191799 0.20619817 0.23339874 0.028541919 0.3178103 0.045326844 0.037902936 0.19630566 0.09152141 0.15497209 -0.23348394 0.2051453 -0.2955941 -0.065760836 -0.37501267 0.10344537 0.025200875 -0.21822396 0.4282287 -0.14444335 6.0467515e-05 -0.22441223 0.06747319 -0.06343403 0.11143664 0.037717868 -0.11804108 0.12761933 0.07329926 -0.042839058 -0.36864385 0.11984715 0.06588285 0.19976406 0.114100136 -0.21322528 -0.031632673 0.37515154 0.25311372 0.38343436 -0.21268234 -0.21676171 0.35525876 -0.34085068 -0.0660601 0.02655944 0.012729656 -0.098462656
： -0.23135594 -0.02900745 0.047676954 0.030322837 -0.094712496 0.057578154 0.028301934 -0.022662468 0.12106335 0.31264505 0.05069885 0.06618385 0.3019657 0.20736651 -0.12017259 0.02994661 -0.11285769 0.16676845 -0.015091866 0.23327658 0.88276064 0.10465377 0.25656977 0.057914086 0.097385615 0.022113219 0.12076746 -0.18923989 0.08369049 0.18394126 -0.012552164 0.3190602 0.01851889 0.32925415 0.2390887 0.2773288 0.24626467 -0.004671566 -0.11028612 -0.117539816 0.16595702 0.09543724 -0.028319158 -0.20792095 -0.17090447 -0.026113331 0.045361374 -0.06013651 -0.18753004 -0.23956789
曰 -0.07955958 0.04714361 0.02202892 0.062125333 -0.09784248 0.00075004436 -0.10923478 -0.29329166 -0.13784297 0.2083677 0.18933631 0.11667711 0.13647184 0.019886205 -0.11736917 0.34871992 0.25860345 0.020800823 0.15093794 0.26477683 1.0570009 0.06098036 0.21218693 0.16276275 0.20879875 0.053467903 0.16330811 -0.09342198 -0.051039517 0.07789619 0.08465879 0.27096337 -0.1101483 0.1467305 0.063181445 0.25355446 0.25272876 0.15697603 0.0012914927 -0.027993776 -0.18659373 0.04674966 0.10997983 -0.19868459 -0.066649795 -0.14156145 -0.01302916 0.0029274768 0.13808556 0.0017790874
之 -0.007812336 -0.086267136 -0.02092641 -0.08323176 -0.28354412 -0.5154211 -0.14202714 0.121175304 0.24656281 0.094079815 0.008861369 -0.015051956 -0.23842968 0.19547452 -0.10265909 -0.08300009 -0.038640697 -0.04182861 -0.18877995 0.3348961 0.2228351 -0.2694947 -0.18044958 -0.51719725 0.04476839 -0.11408607 0.15012513 -0.03059591 -0.25592458 0.034396794 0.0019219762 0.13105997 0.10082954 0.13919857 -0.21325631 0.0089521725 0.5304117 -0.37107477 -0.17492288 -0.17256144 0.058248013 0.34789404 -0.09141908 -0.06265331 0.07181554 0.03271844 0.14835237 0.16713303 -0.007047645 -0.21855102
不 0.285298 -0.17625849 0.28280222 0.24852812 -0.16510028 -0.16141681 0.17193143 0.23007624 0.38102603 0.19171117 0.18088196 0.009292979 0.25969443 0.24156867 -0.24941243 -0.20906775 -0.025788344 0.22459084 -0.16942507 0.25922355 0.39228866 0.20400941 0.08455034 -0.4942753 -0.20247363 -0.11460493 -0.1839388 -0.13015422 -0.15741192 0.42387983 -0.18040411 0.19361688 -0.09538256 0.28584883 0.03135945 0.28812113 0.23038213 -0.0013675392 0.099345185 0.082165085 0.17393121 0.11588038 -0.044986196 -0.0743723 -0.006091714 -0.32951114 0.26830512 -0.06558152 -0.1353257 -0.14603364
也 0.07087934 -0.06816854 -0.22290766 -0.15649639 -0.16225502 -0.0046063825 -0.026204022 -0.1898657 -0.04866849 -0.2274783 0.24470086 -0.015538627 -0.10964828 0.19697475 0.11324165 0.0714102 0.21433377 0.14949654 0.11619787 -0.31376615 0.36997658 -0.018439222 -0.12978089 -0.5177561 -0.29324093 0.23510121 0.17824548 0.04055557 0.10589843 0.2990088 -0.064186595 -0.14409757 -0.2939272 0.019944824 -0.13482592 0.22026786 0.4739132 -0.035446182 0.0031977138 -0.1480126 -0.12679663 0.18079096 -0.27533904 -0.3814567 -0.1990156 0.006328787 0.066595346 0.0042704297 0.19219348 0.031783614
而 0.1602943 -0.07852676 0.03204294 0.046885002 -0.2932501 -0.18999003 -0.007425251 -0.09171048 0.3604995 -0.16204123 0.30012298 -0.06915657 0.5501799 0.26003963 -0.27635565 0.033807144 0.35110486 -0.05221604 -0.19120921 0.20435968 0.349164 0.20847212 0.20133363 -0.5388553 0.14219953 0.0638142 -0.15715967 0.0010675434 -0.32808378 0.17560144 -0.22725588 0.29438686 0.044728898 0.40042746 0.14013824 0.18218924 0.06477132 -0.13686518 0.14460559 0.105010115 0.069895044 0.37987575 -0.27372155 -0.07090278 -0.027401391 -0.13837343 0.05599163 0.22997911 0.06520355 -0.33261216
？ 0.010648638 -0.10494174 -0.11368723 0.26584476 0.033693273 -0.004045638 -0.07748067 0.13660178 -0.046518352 -0.073453374 0.05265824 -0.05554733 0.11298494 0.3417204 0.0020981575 0.11752011 -0.059938766 -0.0030992576 -0.10398123 0.17456608 0.7040483 -0.2470719 0.6261293 -0.13023 0.32150757 -0.14828987 -0.095919184 -0.002787693 -0.23873489 -0.057931323 -0.3238975 0.3974021 -0.037108086 0.09318769 -0.031294975 0.12490019 0.1297206 0.08104708 0.012300827 -0.094010785 0.23443179 0.0027089342 0.033145465 0.04350416 -0.18916747 -0.06543152 0.2642602 0.13341358 -0.10612259 -0.37952214
其 0.16637598 0.09600225 0.034295976 -0.060961314 -0.30065587 -0.23259363 0.08894894 -0.10270709 0.2668812 -0.025703032 -0.002364296 0.13815981 -0.014618441 0.1439782 -0.1250375 -0.054717205 -0.010773113 0.0035984735 0.12066317 0.087002486 0.15255213 -0.07041371 -0.07799089 -0.55581594 -0.13180624 0.09408585 0.03402127 -0.049311105 -0.3746578 -0.099329546 -0.40177473 -0.0005772803 -0.10863668 0.19774675 -0.33911842 0.15675795 -0.18482144 -0.06498028 0.047216002 0.1332679 -0.22337489 0.14924598 -0.22197744 0.055033 -0.3802388 -0.14548749 0.28677917 -0.00017175451 0.18837258 -0.24101314
人 0.005414027 -0.009503531 -0.46866107 0.031239575 -0.06653429 0.09478842 0.048891723 0.310397 0.16901454 0.023091363 0.10365006 0.23914193 0.008327275 0.20872721 -0.13866408 -0.1341302 -0.034606468 -0.14594829 0.037736118 -0.115717135 0.39204144 -0.16389386 -0.21797983 -0.4055886 0.28378078 0.4673337 -0.116639555 0.025551058 0.09157283 0.024754196 -0.36697423 0.12557298 -0.09241052 0.07424054 -0.18260434 0.20081434 0.20647557 -0.3544819 -0.07661617 0.1966301 -0.062239323 0.104634315 0.1296266 -0.23417601 -0.022842064 -0.2960889 -0.21550626 -0.205233 0.17317945 -0.028681984
者 -0.18062812 -0.26859206 -0.041860227 0.055926565 -0.063644186 -0.065332405 -0.26819536 0.21187402 -0.120075114 -0.20610532 0.13917044 0.3464704 -0.11081491 0.21663198 0.030553447 -0.20769545 0.13152592 0.15346527 0.11940915 0.24200834 0.36735538 0.30504516 -0.011093574 -0.5716722 0.1936523 0.10395938 -0.10196333 0.18558544 -0.12971434 -0.0712291 -0.30534613 0.12776697 0.08042986 -0.017563721 -0.3659166 0.14183886 0.25827596 0.1475626 0.09406972 0.028389018 -0.2981879 -0.33474892 -0.36562052 0.04159789 -0.19666371 0.09384539 0.19099754 0.13814126 -0.0193645 -0.13441716
以 -0.10832255 -0.011064579 0.05713877 0.1371371 -0.22717121 0.19673413 -0.08492607 -0.16122115 -0.2880674 0.12969723 0.256463 -0.103757605 -0.15036833 0.1286115 -0.064173065 -0.0246564 0.13343385 -0.1677336 0.2033323 -0.18461946 0.39202857 0.022970898 0.053027544 -0.46504042 -0.057971537 -0.3240591 0.13915133 -0.1457104 0.010057265 0.05838726 0.21935348 -0.1769811 0.2557486 -0.17924027 0.10443093 0.13848366 -0.06468119 -0.02974988 0.05938903 -0.18269482 0.3045978 -0.098903276 0.027590148 0.064213455 0.2365567 -0.1464667 0.068678804 -0.06125836 0.23127435 0.036390096
有 -0.11142239 -0.22844145 -0.05790469 0.113097794 -0.28563222 -0.26091692 -0.28775102 0.400985 -0.0060457787 0.3023018 -0.013738105 0.07005505 -0.14973119 0.24948889 -0.2328183 -0.21323903 -0.28570178 0.2497823 -0.06528401 -0.027183969 0.5051155 -0.0555191 0.030249445 -0.26844722 0.012136595 -0.15532379 0.049119726 0.16541776 0.0271243 0.10044089 0.066199936 -0.20073016 0.27591527 0.18110567 0.4289377 0.24476944 0.090899356 0.0077588884 0.104657896 -0.031279515 -0.1158472 0.19135204 -0.3098693 -0.2806761 0.09242077 0.012057955 0.24472679 0.22110648 0.12768215 0.041014683
于 0.09639936 0.32488507 -0.21110575 0.28101814 0.13719448 0.20027235 0.0073001697 -0.051787794 0.19660135 -0.08289951 -0.111680575 -0.0045704157 -0.16015969 0.104009785 -0.046175603 0.047518298 0.15468736 0.29842898 0.21466711 0.29486787 0.5538723 -0.13731903 0.009046228 -0.18371975 0.2640111 0.030755546 -0.048203547 -0.19007212 0.13785098 -0.08463733 -0.19940072 -0.08727705 -0.3588977 0.16796143 0.20363423 0.12059279 -0.012138886 -0.25164992 -0.03809038 -0.5521083 0.0678104 0.27683535 -0.1211893 0.12379841 0.13428998 0.12847826 -0.16615824 0.16926812 0.02302754 -0.024386862
矣 0.3214649 -0.007377462 -0.058503397 -0.09215654 0.22430843 0.1504833 0.0663597 -0.38716772 -0.08576011 -0.10023301 0.031847686 0.043089557 0.36178583 0.027443264 -0.0016694639 0.13534318 -0.073164746 -0.30280477 0.0623283 -0.2869345 0.52703047 0.28332046 -0.3486428 -0.18145515 0.08612901 -0.31361455 0.099352255 -0.18130837 -0.17333609 0.14154615 -0.31182054 0.27903312 -0.15165311 -0.22534747 -0.04091781 0.089321814 0.22365642 -0.23590831 -0.07591038 -0.26398978 -0.057171732 -0.052088156 -0.1445346 0.39307144 -0.08572286 -0.17312454 -0.12778766 0.14394407 -0.06325013 -0.087703995
为 -0.2288169 -0.39206937 -0.005723361 -0.12567434 -0.37685198 0.19648372 -0.034082003 0.18260132 -0.34840482 -0.043716077 0.074557304 0.04768122 0.05932191 0.033106666 0.13183182 -0.17586964 0.040553823 -0.46382385 0.2142076 -0.21698391 0.4517466 -0.09506519 0.108400874 -0.27632248 0.17346999 -0.19549817 0.1284594 0.3158494 0.14467816 0.2355637 -0.16371807 -0.07970986 0.012462839 0.007877769 0.3764518 -0.005628284 -0.051505856 0.16706815 -0.029753888 -0.1408404 -0.17504844 -0.015372263 -0.014414943 0.041135695 0.20300534 0.039291218 -0.09922041 0.13903144 0.13084218 -0.039934017
君 0.15859683 -0.030372538 0.033380456 -0.009892501 -0.14397538 0.013615039 0.10549757 -0.21485178 -0.24287546 0.018966656 -0.16478473 -0.13413107 0.03719805 0.42653343 0.1902314 0.11117254 0.08455016 0.034197498 0.11846799 -0.08970361 0.61547697 0.112470075 0.17659892 -0.15521893 0.12284394 -0.228062 -0.12866929 -0.08639049 0.20484515 0.032255884 -0.15479988 0.07923781 0.11056961 -0.12122825 0.023710633 -0.0008992371 0.31774625 0.14692535 -0.029858822 0.33602807 -0.094091915 -0.05280555 0.06386239 0.29258567 -0.07144154 -0.18219902 0.11033053 -0.16768095 0.065514475 -0.2598746
乎 -0.2052557 -0.024129823 -0.051729623 -0.046373308 -0.15095863 -0.11099599 -0.13188815 -0.2392478 -0.20449816 -0.018830124 0.07228561 0.08624156 -0.04754883 0.19792554 -0.05851209 0.055144023 0.15933366 -0.17613631 -0.23139465 -0.10768193 0.6663608 0.05834318 0.1796403 -0.1378724 0.12020137 0.31088513 -0.18660808 -0.115222886 -0.3445349 0.23896493 -0.19619595 0.10239903 -0.029007245 0.38393205 0.07841719 -0.03019645 0.07923968 -0.22208302 -0.006873509 0.025982268 -0.08490849 0.14684239 -0.09141873 -0.06980976 -0.38108677 -0.123192765 0.14001927 0.08228361 -0.067031875 0.08016572
可 0.16566871 -0.14474507 -0.21745539 -0.11539857 -0.079384014 -0.037051015 -0.17167649 -0.25309286 0.14852728 -0.4232967 0.025076272 -0.04159114 -0.2669867 0.5243529 0.18786448 0.23899506 0.06985451 -0.0053555043 -0.12727478 0.19240804 0.36640322 -0.1351908 0.10590123 -0.5175327 0.12547967 -0.04210046 0.28882056 0.28293008 -0.15090472 0.27371475 -0.28717864 0.05685869 -0.08630383 0.10481256 -0.028320197 0.10522198 0.22703296 0.098274074 -0.2729263 -0.19191158 0.012060553 0.1986064 -0.14785887 0.022018196 -0.1613933 -0.1556347 -0.03178274 -0.02848167 0.24776407 -0.057360813
如 0.015448717 0.036139697 -0.3714057 -0.15158877 -0.24543203 0.028294059 0.044970557 -0.17648242 0.33040535 0.07876899 0.005213108 0.016943593 0.0037979332 0.15821636 0.02026154 0.19543144 -0.020836402 -0.107532546 0.023954723 -0.0004177997 0.5100921 0.40376455 -0.06080317 -0.41791588 0.20472401 -0.030045532 0.006466607 -0.30462196 0.007383421 0.18534549 -0.03480919 -0.04138095 -0.25255668 -0.108153485 -0.4901109 -0.03137681 -0.026862605 0.12334496 0.162201 0.16630095 0.1865209 -0.093229555 0.07068792 0.15161528 -0.028130757 -0.027557667 0.029412076 0.2718683 0.07705709 -0.11951016
与 -0.18879904 -0.018893259 -0.36572316 -0.007917861 0.059634637 -0.15702647 -0.120842785 0.1684079 0.11772412 -0.06972709 0.3940199 0.035973277 -0.24819289 0.12611957 0.018499896 0.1498546 0.20103076 -0.018029429 0.056959227 -0.049953006 0.39041758 0.14372346 -0.27150774 -0.37295642 0.23916781 -0.05863665 -0.15829359 0.10127422 0.03097906 -0.09248412 -0.21153425 0.0790762 0.06257193 -0.0019108134 -0.053067435 -0.35261726 0.13760352 0.040538132 0.042068433 0.040071186 0.08003205 -0.060825914 -0.1170172 0.19456078 0.10521783 0.2638971 -0.19761814 0.12861958 -0.028396424 0.09269039
； 0.056037426 0.17682002 -0.11401455 -0.2962809 0.104241386 -0.057365086 0.11645993 0.050064914 -0.048854284 -0.13631327 0.12611207 0.16271923 -0.17732038 0.2713551 0.054855336 -0.5308327 -0.13647734 0.15002957 -0.20703436 0.18746668 0.19149725 0.32541934 0.14428349 -0.7467147 -0.059496183 -0.0126864975 -0.11248252 -0.22892748 -0.29132456 0.14171253 -0.17466536 -0.5152613 0.081580944 -0.23374377 -0.1896424 0.24249144 0.2087179 -0.57530147 -0.23549943 -0.0065505696 -0.14222638 -0.1317992 -0.23707572 0.093700394 -0.018462362 0.2633939 -0.10264863 0.0152570885 -0.30416983 -0.007826632
言 0.20616192 0.38038826 -0.096663505 -0.3947438 -0.11698859 0.12111332 0.012237187 -0.17026864 -0.008130239 -0.061214823 -0.0090148905 0.25691855 -0.23374794 -0.03993153 -0.071054675 0.2518714 -0.026540188 -0.068567894 -0.11298209 -0.27885443 0.33172804 0.20815082 0.12487925 -0.38155138 0.23321117 -0.08392064 0.39127058 -0.19376835 0.15513524 0.30562824 -0.13291036 0.23627846 0.046677805 0.033742532 0.080524154 0.050007638 -0.05121128 0.08274881 0.26388076 -0.05790066 -0.18610018 -0.3123391 0.095152885 -0.17137797 0.14132541 -0.026920127 -0.25240532 0.050836332 -0.19738029 0.28796116
无 -0.034422714 0.21987447 0.065640345 0.013001748 -0.107843064 0.098629 -0.30379346 0.032920342 -0.1367186 0.0043296334 -0.20234485 -0.21081857 -0.0730124 0.20325427 -0.2149413 0.3266926 -0.19730793 0.04407009 0.012603318 -0.35010606 0.23152654 0.23816854 0.1591689 -0.51564056 0.075766526 -0.03826481 0.3329837 0.39716244 -0.1268274 -0.08201813 -0.13700987 -0.23385713 0.22723907 0.12429847 -0.00094995624 0.07882046 0.021469709 0.1648384 0.26020518 -0.05285707 -0.16613662 -0.21067704 -0.040637992 0.20601657 -0.15384012 -0.015195888 -0.10898188 0.16631123 -0.16200714 -0.45314175
则 0.23030595 0.13980962 -0.20777877 0.06611123 -0.03487771 0.06638537 -0.14317234 -0.016069734 -0.0944442 -0.014116423 0.03366048 0.0616043 0.3257082 -0.08994575 -0.26727444 -0.16281855 0.19640115 -0.02470792 -0.004263419 -0.33917028 0.21612106 -0.25495026 0.16135964 -0.5929963 0.09003747 -0.04679536 0.18545526 0.008720428 0.020854507 0.40697315 -0.054308645 -0.19739985 0.18203157 -0.19199257 0.10729332 0.034257933 -0.21166632 -0.25604162 -0.04897629 -0.14366044 -0.25887156 0.04606828 0.15085618 0.10841176 0.09894617 0.08682734 -0.40898743 -0.06806384 0.004210607 -0.27853197
！ -0.18287657 0.027313806 -0.2015334 -0.19066137 0.03494097 0.13050357 0.24255772 0.047207728 -0.1753121 -0.011761867 -0.12526636 0.32474685 -0.037432108 0.11515445 0.14085244 -0.04482727 0.0754757 -0.21053243 -0.21885565 -0.25281808 0.7079928 -0.09663391 -0.05838331 0.079998866 0.13817163 -0.18234454 -0.119489975 -0.20458025 -0.104139686 0.2491992 -0.12202567 -0.266593 -0.1969013 0.16397257 0.18052505 0.12331105 0.25479564 -0.14152741 -0.026864335 -0.17200667 0.072364524 0.088531926 -0.10516879 0.23656876 -0.1805436 -0.117226265 -0.10052328 0.17776908 -0.18520586 0.0060249576
问 0.17155436 -0.19385132 0.18097676 0.13305013 -0.080143504 -0.042490292 -0.32705975 -0.08201222 -0.15181817 -0.0951283 -0.09885365 -0.11804095 0.13816962 -0.19255155 -0.017220028 0.031891216 0.09920693 0.118550695 0.40825477 0.10847698 0.716711 0.07191542 0.0654527 0.08394079 0.31466225 0.16138625 -0.30520192 0.14141451 0.18745252 -0.00381395 -0.094073325 -0.17478065 -0.18897663 -0.22933699 0.3594483 -0.0006449589 0.093797274 -0.2658582 0.27556905 -0.15227616 -0.17867276 0.14893036 -0.45009008 -0.017882487 -0.20159324 0.26838776 0.109701335 0.1808527 -0.06915071 0.068338946
知 0.23728964 -0.25491902 0.08912532 -0.1143416 -0.26311335 0.065592386 0.1499339 0.0443913 0.050294302 -0.09634409 0.22950643 -0.0990789 -0.17295337 0.19059059 0.029753778 -0.0054364875 0.09307271 -0.065378666 0.0974424 0.0746905 0.38995034 0.0625339 -0.13122045 -0.45699263 0.09889445 0.11112312 -0.052302223 0.12728265 0.022944398 0.13600656 -0.1627267 -0.25409797 0.13315886 -0.089301094 -0.11485628 -0.027936347 0.12238739 0.18887635 0.13899063 0.30319026 -0.44046402 -0.228917 -0.26335818 -0.020503093 -0.118636906 -0.10707112 -0.15794636 0.115510434 -0.035404287 -0.053767007
何 -0.010027677 0.19815281 -0.28938827 -0.24842755 -0.17033125 0.19573846 -0.18614694 -0.10564447 0.2921877 -0.04402318 -0.018112566 -0.0359678 -0.10810268 -0.01100196 -0.046932932 -0.040192705 -0.16862792 -0.12734696 0.24013653 0.356262 0.5250157 0.048065946 0.24750485 -0.09242755 0.037887007 0.24261844 0.08407873 -0.12887022 0.14650482 -0.040807195 -0.34477904 0.23852427 0.13602623 -0.17688812 -0.091510326 -0.26650846 -0.12977147 0.08501788 -0.02982404 -0.029244121 0.26820692 -0.075438075 -0.042704508 -0.1425565 0.09896243 -0.18146363 0.14937222 0.09725738 -0.44479254 -0.16104294
吾 -0.12185205 0.5397206 -0.39362848 -0.2032993 0.14542647 0.18399847 0.31446657 -0.092764966 0.124723114 0.13866231 0.017583778 0.16246262 0.036815472 -0.017149113 0.21260712 -0.09845936 0.13958138 -0.23633406 0.032207087 -0.2069757 0.3829667 -0.2046723 0.06296846 -0.32776007 -0.052985396 -0.34564343 -0.14303853 -0.34185708 0.120595776 -0.07102956 0.085348554 -0.061588723 -0.045080364 0.023501504 -0.29147243 0.094888985 0.17209835 0.009678156 -0.1954263 0.095445216 -0.10479702 -0.057030514 -0.19939296 -0.1525957 -0.15533292 0.28177184 0.018224603 0.1495347 0.41528347 -0.08096015
仁 0.09913833 0.031479705 0.16776048 -0.22609304 -0.06258141 0.17361677 0.116094306 -0.024485134 0.17738776 -0.110238515 0.17701711 0.021782383 0.22599778 0.1349878 -0.10038997 -0.101901986 -0.012673499 -0.043059073 -0.01108368 -0.11613563 0.36632776 -0.24167196 0.12572569 -0.2453315 0.10854239 0.045585163 0.16559339 -0.23194022 0.21641572 0.05236956 -0.036477435 0.06710183 -0.017707672 -0.23219669 0.091389194 0.04710013 0.19908701 0.096125185 0.21313727 -0.3964333 -0.10640342 -0.09753929 -0.2230804 -0.04610538 0.15796751 -0.23962085 0.13392174 0.040186673 -0.0035277726 -0.06297552
夫 -0.25724953 0.17706244 0.071405515 0.14909768 -0.19418518 0.025070451 -0.37632674 -0.093879305 -0.054490462 0.18801163 -0.08945686 -0.14511809 -0.02636166 0.16882908 0.33198094 0.16316344 -0.1375339 0.23230462 -0.14127637 -0.013906488 0.6455754 0.17853823 0.21217756 -0.17424786 -0.1683597 0.04365318 -0.07538107 -0.13597722 0.16610076 0.0048045884 -0.36609748 0.322959 0.031011045 0.17423432 -0.06329066 -0.07858116 0.08070585 -0.035568327 -0.20501292 -0.013087409 -0.04144414 -0.24069023 0.07345931 0.07837301 0.21990782 0.3686271 -0.039011832 -0.028659599 0.18650873 -0.34726915
、 -0.14401571 0.042582143 -0.009976949 0.24884042 -0.111219265 0.37367156 0.13305116 0.27147847 -0.35662147 0.23949926 0.070508264 0.11957814 -0.019896012 -0.07116633 0.029396981 0.17032042 -0.30403602 -0.21974728 0.26249135 -0.13583192 0.72891414 0.15730788 0.4359015 -0.22553283 -0.1165084 0.24767725 -0.24097453 -0.428638 0.12616982 0.12972224 -0.38041487 -0.34270793 0.19530909 0.36207563 0.2861022 0.31384987 0.055715196 -0.43324667 -0.32182243 -0.660254 0.044589087 0.88861483 0.085088216 0.20926458 0.44895098 0.20006493 -0.27268496 0.70923054 -0.59464025 -0.055953607
道 -0.18511216 0.11992629 0.03060788 -0.08653149 -0.04681262 -0.21265492 -0.053308845 0.26926348 -0.14507806 -0.011350887 -0.16047053 0.0630368 -0.055931672 0.19643448 -0.046571437 -0.13264567 0.25029737 0.29411906 -0.05740664 0.0044660917 0.2840065 0.1224635 0.20703162 -0.47373268 -0.12312299 -0.23515569 0.017052755 0.06725387 0.2987225 0.03163116 -0.1126191 0.34674674 0.17731489 -0.16135405 0.22306821 0.029410532 0.40802243 0.046861507 0.091758385 -0.26674628 -0.09725743 -0.11281262 0.18361196 0.27783576 0.07145106 0.10214508 0.056001604 0.034208205 0.029153228 -0.023655748
焉 -0.023171987 -0.07637266 -0.117409565 0.034981087 -0.05892717 -0.09024454 -0.24017 0.20504278 -0.070107065 -0.049452934 -0.100319944 -0.060125247 0.059674792 -0.001955811 -0.021345709 0.08487928 0.2689316 -0.029195713 -0.017059261 -0.30530035 0.5213639 0.1045856 0.30452672 -0.43670335 -0.19712904 0.10570024 0.28836972 0.21236317 -0.16329865 -0.16877633 -0.0007106578 -0.20943762 -0.17251252 -0.042071845 0.19998518 -0.05623112 0.1639758 0.020364001 -0.30357173 0.063100114 0.05608155 -0.13709313 -0.08516397 0.42114455 -0.2404595 -0.11495356 0.33444002 -0.18204848 -0.008944233 -0.35869816
行 0.35845459 0.16270196 -0.123850934 -0.17026615 -0.14872448 0.11642976 -0.014181099 0.2517729 -0.032970205 0.21783766 0.21060316 -0.08208672 0.30761364 0.19995338 0.24667606 0.05862666 -0.054536182 0.030681776 0.24516213 0.063073516 0.4070417 -0.10464632 -0.10750224 -0.30113307 -0.24457055 -0.20833369 0.14062892 -0.17272234 0.1957118 -0.07177681 -0.23219663 0.13333789 0.37701756 -0.23877531 0.4291067 0.26604986 0.013221145 -0.028167745 0.16054352 -0.11914453 0.10244763 -0.0010444059 -0.18678114 0.12830755 0.061513558 0.02178996 0.017539855 -0.07018329 -0.17787924 -0.18682697
谓 0.30738676 -0.23399483 0.18133298 -0.24825326 -0.26355818 -0.24972016 -0.2998017 -0.17447875 0.14299016 0.21969293 0.41724843 0.1571261 0.10394789 -0.093302414 -0.09342188 -0.2665914 -0.17159438 0.10772146 -0.06347722 0.068354756 0.65912825 -0.24508484 -0.06643078 -0.080667034 0.0027652956 -0.06310278 0.004692957 0.13569872 0.04447052 0.23190215 -0.3969844 0.21259084 0.22782691 0.25799868 -0.15405607 -0.060020052 0.19653542 -0.27227125 -0.27890447 -0.0037298491 -0.21874385 -0.3109831 -0.11965222 -0.037102766 -0.04203377 0.008167271 0.12931195 0.2534173 -0.54261833 -0.03683138
必 -0.19130555 0.16740233 -0.12656987 0.06517097 -0.07446386 -0.14129886 -0.05386682 0.17784491 0.22194873 0.1426291 0.28267512 0.17608964 -0.11017488 -0.049797483 0.19449154 0.18906495 -0.083371595 0.15203306 -0.068627216 0.056608755 0.12650405 0.30631787 0.065889426 -0.43327048 0.034496307 0.081983425 0.05349045 0.09430431 0.07678288 -0.2721228 0.28566542 -0.08590662 0.20588414 -0.32840738 0.16923894 -0.050393365 -0.37633955 -0.2244022 -0.08632127 0.3897156 0.05453548 -0.34644243 0.14460573 0.12646084 0.024337003 0.13620313 -0.05247465 0.11966118 -0.22589651 -0.12176302
礼 0.042322535 0.13462625 -0.18454438 0.11990273 -0.06568009 0.0328787 -0.07219218 -0.25046048 0.23269267 0.13188663 -0.27573052 -0.17583653 -0.15275018 -0.19276874 0.020207701 0.06909159 0.10917844 0.5031475 0.04223844 0.08787798 0.19988543 -0.065193154 0.39602834 -0.6028598 -0.056422427 0.29478708 0.09429816 -0.38686398 -0.33205798 0.15583475 0.09243561 0.27697647 0.26932377 0.24990442 0.49079165 0.12908551 0.15278786 0.32335985 -0.14121218 0.26273778 -0.012296416 0.14788005 0.24969779 0.18145174 -0.05601637 0.1978083 -0.006217841 0.27857876 0.03930498 0.27970934
孔 0.18063475 -0.14402704 -0.08130748 0.08639949 0.07030954 -0.12898035 -0.27952248 -0.14465693 -0.0411748 0.3192079 0.15131065 0.21439104 0.24203292 -0.3304759 0.09412202 0.07211571 0.09879126 -0.007954884 -0.053024493 -0.20899838 0.75429666 0.17607804 -0.06900126 -0.023197586 -0.003613119 -0.16635454 -0.19583674 0.34302607 0.12487438 -0.4429446 -0.5405753 -0.19640774 -0.15030782 -0.3277841 -0.0046584983 -0.04758646 0.29468825 0.12961079 0.22892575 0.10311131 -0.016995125 -0.123762645 -0.26866034 -0.15794593 -0.19210377 -0.25991705 0.121614255 0.091770075 -0.2365994 -0.095398866
斯 0.008940561 -0.04584765 0.021031488 -0.28010187 0.018398976 -0.120918006 -0.16070554 -0.49666786 0.4048888 0.11104672 0.35156295 -0.017638791 -0.028031398 0.23437855 -0.017922794 0.058912195 -0.2684452 -0.39902556 -0.16932213 0.26897627 0.35994607 -0.2306325 -0.054325737 -0.45870885 0.04910406 -0.29908505 0.015301893 -0.21895719 -0.07056677 -0.1182698 0.1815736 0.046596352 0.34899858 -0.118835256 -0.14627448 -0.19450183 -0.024704106 0.2099964 -0.1568398 -0.064346865 0.0069667557 -0.053032443 -0.3662244 -0.23372275 0.04548976 -0.054565206 0.3124769 0.3044737 0.40925014 0.3448217
三 0.16273746 -0.14529535 0.47130245 -0.03576323 0.02485108 -0.37333488 -0.49538344 -0.1360119 -0.14652589 0.3389357 -0.14319023 0.0650282 -0.25674605 0.19960612 0.6414283 0.07589366 0.10485607 -0.007771981 -0.09956469 0.2097866 0.36881015 0.0836442 0.09834099 -0.23207179 0.23999733 -0.18540318 0.09076414 -0.24065624 0.23682418 -0.14242782 0.086080015 -0.14916629 -0.3365082 -0.07986793 0.13423784 0.01712514 0.13705583 0.09247238 0.036368243 -0.32371208 0.14825578 -0.034688316 0.070184626 -0.20209566 -0.36042327 0.34898385 -0.28333202 0.07369803 -0.10795178 0.11978532
能 -0.15188774 -0.04626204 -0.14870603 -0.12237197 0.20944059 -0.051269207 -0.291895 0.16497332 -0.10791901 -0.24356279 -0.0780735 -0.11818532 0.28262243 0.009596834 -0.220248 -0.12469911 0.23985258 -0.14197436 0.3660141 0.09595578 0.26692894 -0.35276628 0.22471115 -0.5750612 -0.089999266 -0.03676565 0.33264828 0.123394094 -0.19438204 0.17825946 0.22877222 0.018826446 -0.22581044 -0.21789616 -0.20408317 0.040334757 0.120983936 0.019701699 -0.019736674 0.039855402 0.1890774 -0.38586065 -0.09846046 0.138627 -0.25560498 -0.0017677261 0.21077153 -0.1982659 0.13332008 -0.3838185
见 -0.16700226 0.050047487 -0.18397987 -0.37523285 0.06623293 -0.23540269 -0.08556098 0.06719772 0.011434409 0.29584602 -0.04137404 0.21020952 0.41917062 -0.10320462 -0.23491405 0.013821628 -0.083674565 -0.19666539 -0.2763137 0.0074129514 0.3119995 0.1110174 0.016307803 -0.33388302 -0.056351934 0.124920174 -0.09216558 -0.41798848 0.13559791 -0.20203358 -0.28090712 0.00021314994 0.10258604 0.07367477 0.13703068 0.20946716 0.1977481 -0.32128176 0.0036944165 -0.29901016 -0.40020332 -0.23624523 -0.18026389 -0.07077451 0.114070036 0.08081318 -0.022407476 -0.34081173 -0.11355151 -0.18013503
学 0.049528293 -0.20856805 0.1553022 -0.16096589 0.045355413 0.11970069 0.10327353 -0.3823309 0.068205014 -0.3028611 0.025190424 0.10851146 0.31599686 0.17070024 -0.008407638 -0.28207895 -0.009758949 0.24343005 -0.37575862 0.3067595 0.40007457 0.22232725 0.39899597 -0.51686454 -0.035903268 -0.36023325 0.27716273 0.04244282 -0.03620965 -0.027571194 0.06572368 0.030207548 0.5376475 -0.41318533 0.283786 0.0029376484 -0.14348875 0.11688332 0.21759744 0.100246884 -0.13708763 -0.16163419 -0.049741924 0.3785717 -0.11320575 -0.09758764 -0.048804924 0.39587045 -0.23650867 0.14643712
事 0.0055361246 9.3416136e-05 0.079967044 0.11112335 -0.10378317 -0.24881445 0.118596375 0.5501248 0.44559377 -0.031895295 0.26759326 -0.1567517 0.03586891 0.14507139 -0.21783035 -0.08417855 0.21380998 0.17352699 0.16883025 0.11123411 0.2691091 0.03954027 0.05046277 -0.37603384 0.027741788 -0.12374922 -0.13489453 -0.38207078 -0.078375965 -0.27636573 0.08155349 -0.06393454 0.033237953 -0.48393434 0.25715694 0.11345644 -0.08628215 0.027315501 -0.018995617 -0.20113362 0.08228562 0.12603098 -0.34689593 0.027012717 0.07647152 0.33345896 -0.15284857 0.1194748 0.05419164 0.012371018
是 -0.25150093 0.0962174 -0.22517985 -0.49497396 -0.19210872 -0.23182642 0.006388698 -0.00868465 0.06303081 -0.15068138 -0.11067248 0.1539167 0.07666941 0.19403037 -0.14347361 0.096360944 0.217708 -0.15505125 0.2645668 -0.4341148 0.5368859 -0.0001533078 -0.20553365 -0.10351183 0.18737751 -0.09668814 -0.028021792 0.12647048 0.10379297 -0.08388635 0.006064615 0.3310244 -0.20666006 -0.40979272 -0.4427956 -0.21622036 0.14834118 0.04994098 0.1489982 0.081022136 -0.473803 -0.32653475 -0.16486308 -0.20271681 0.18948364 -0.30534542 -0.38086346 0.11548432 -0.062270988 0.13883872
哉 -0.05468258 -0.16297376 0.08778763 0.0049239956 0.07836573 0.070362076 -0.054683782 0.23408215 0.16905783 -0.17192279 -0.07154808 0.26645967 -0.061215833 0.29767066 0.055402864 -0.34452108 -0.15273774 -0.18139637 0.016250085 -0.33323357 0.883622 -0.21043766 -0.23423061 -0.03321245 0.20992914 0.53042734 -0.0043564327 -0.35108092 -0.14011331 0.23871246 0.08757002 0.11944902 -0.25800812 0.04876696 0.32438883 0.24262775 -0.080591984 -0.06363984 -0.31610024 0.29499096 0.17720118 -0.3058876 -0.046174575 0.15308012 -0.21439299 0.12546496 0.08603163 0.34233525 -0.21678649 0.12097241
闻 -0.2495408 0.09573178 -0.35786563 0.38191983 0.17678384 0.08685303 -0.36612174 -0.21818805 -0.20671798 -0.039766826 -0.17400716 0.3547086 -0.018515062 -0.20268567 0.20047905 0.19256978 -0.13238496 0.35181022 -0.5103874 0.11742398 0.4948356 -0.066217 0.09009713 -0.2609823 0.34137014 -0.28153446 0.39485747 -0.12054003 -0.29933316 0.02322219 0.14192511 0.14664598 0.15818892 -0.49793255 0.33682472 -0.055873178 -0.26511773 0.17900385 0.060320757 0.027095 -0.21006484 -0.26072785 0.2510118 -0.028445145 -0.27641878 0.49576357 0.2912848 -0.036692843 0.00035537907 -0.05208831
未 0.27449757 0.2767191 0.13027215 -0.04060514 -0.03328876 0.099028535 -0.13143069 -0.10223018 -0.14209661 -0.32898498 0.16329761 0.013844642 0.19812535 -0.29221126 0.22498484 0.03458014 0.17787129 0.07849312 0.09601383 -0.08284226 0.43051362 0.17279956 0.04174157 -0.27629283 0.01941713 -0.121006645 -0.21235603 -0.16285452 0.06571786 0.37300915 -0.030685347 -0.21981199 0.14273068 -0.24566907 -0.026025992 -0.26476422 0.10363813 0.09669145 0.0073182825 0.24939778 -0.46024114 -0.14077944 0.108034104 -0.22838306 0.11922696 0.32898638 0.18236458 -0.093949504 -0.068975314 -0.4191163
公 0.07279243 0.021570822 -0.21890365 0.29272673 0.14475796 -0.038806822 -0.20809932 -0.25245225 0.17888 0.6780447 -0.0011382003 -0.090904765 -0.08262274 -0.28796515 0.049453747 -0.04181419 0.016574305 0.029651374 0.119460724 0.20606977 0.78926337 -0.13896137 -0.39916006 -0.12594256 -0.17197557 0.066583954 0.35231435 0.17286842 0.019625433 -0.17748496 -0.21692711 -0.19557078 0.007496628 0.07720465 0.121621676 -0.36266154 -0.17349698 -0.29808223 -0.1807559 0.27226192 0.31836078 0.28087392 0.002084409 -0.28392467 -0.017579049 0.039903812 0.033533193 0.35025233 -0.46887985 0.03160582
好 0.23434371 -0.31819627 -0.039722744 -0.6097464 0.37166524 -0.058815498 0.29451156 0.010300696 0.06710694 -0.31531748 0.030626442 0.1696207 -0.06263331 -0.114969425 0.41844177 -0.020677585 -0.038749132 -0.08550939 0.36481887 -0.07432441 0.34900954 0.227217 -0.013570374 -0.87821853 -0.0032523568 0.1364834 -0.39196315 -0.11134957 -0.07550287 0.09556549 0.037881233 0.057322793 0.37170634 -0.47076604 -0.14298402 0.052625716 -0.06538591 -0.13235928 0.07880227 0.015100049 -0.27766603 -0.15305454 -0.106767714 0.23834288 0.40510282 0.081887506 0.17134178 0.28542888 0.39270595 -0.1922784
我 -0.27783743 0.05309564 0.00034983258 -0.08516228 0.27412117 -0.09606901 -0.036394194 0.3297497 0.13717198 -0.12866896 -0.4129979 0.06620321 0.0646791 -0.54854256 -0.1628158 0.0710232 0.3095035 -0.11687615 0.28142503 -0.053954244 0.46538246 0.11191805 0.026544668 -0.2821478 0.44326633 -0.09718844 -0.068537615 -0.29716885 0.09722003 0.050198305 -0.24220937 -0.028217811 -0.21290523 0.02176172 -0.42779288 -0.15598424 0.15985385 -0.024389483 -0.052526314 0.31249735 0.3063855 0.40747613 -0.09346861 -0.077130705 0.0891853 0.086491264 0.060285516 0.046072826 0.028641667 0.050155025
路 0.008467043 0.27451536 0.21132281 0.28084233 -0.16330673 -0.22629547 -0.16067858 -0.3266104 0.04224942 0.1475177 -0.155152 0.028826566 0.15489969 -0.34184545 -0.14047395 -0.115656905 0.5533646 -0.15104777 0.1338751 0.072744034 0.8796395 -0.006223483 0.102675945 -0.09330802 -0.29866204 -0.16283745 -0.36961475 -0.05929114 0.058358915 -0.092314154 -0.03014026 -0.35686776 -0.047816273 -0.05514162 0.034687363 0.010385983 0.25484428 -0.019285508 -0.2542538 0.2038559 0.20518215 -0.062838234 -0.22961405 0.15642592 -0.004877613 -0.08231295 -0.18508396 -0.22841796 0.24826857 -0.092184365
在 0.25107417 0.23501149 -0.09029664 0.20632924 -0.39232758 -0.022526825 0.07387111 -0.07371492 0.5940596 0.19521518 -0.12992802 0.37163907 0.10587104 -0.082501106 0.14287037 0.050937574 0.042292595 0.12217675 -0.0727014 0.10755977 0.26567078 0.11319068 -0.36860895 -0.4653508 -0.10942938 -0.011732629 0.32753205 0.3465271 -0.09417793 -0.21075284 0.056422442 0.22582617 -0.07627908 -0.1165335 -0.12394063 0.36395 0.10367693 -0.28283435 0.23630102 -0.23788296 -0.17243637 -0.05380345 -0.5386013 -0.044875737 0.33353892 0.32650933 0.062083818 0.32482 -0.1644804 -0.054256793
已 0.11856181 -0.1694349 0.30584654 -0.40357837 -0.10840365 0.19972427 0.056535143 -0.40121603 0.28111765 -0.2501775 0.13689339 -0.19934247 0.14405973 -0.20744114 0.60958016 0.13485059 -0.011085067 -0.17553256 -0.26088744 -0.26925847 0.7288577 -0.057381794 -0.23751135 -0.25423306 -0.14941159 -0.26325625 0.4065938 0.09067635 -0.15750833 0.1719021 -0.006691896 -0.045169234 0.18605295 -0.026719693 -0.25759253 -0.06930235 0.12819323 -0.056957006 -0.2902436 0.08789009 0.3495328 -0.21554606 -0.5504646 0.5419948 0.20119886 -0.08020234 0.062161643 -0.1739984 -0.25141397 0.21729885
得 0.27834615 0.2313215 0.12511419 0.003581617 -0.10247397 -0.0441391 0.10822759 -0.0727928 0.139938 -0.25654435 -0.1109885 -0.2549633 -0.02601686 -0.033159617 0.2529782 -0.04704956 -0.0116351675 0.016026065 -0.28652647 -0.13043898 0.049993467 0.007328572 0.14360079 -0.70308715 -0.07063489 0.040660694 0.107415035 0.07037209 -0.22785372 -0.14711735 0.16915059 0.01900262 0.106455155 -0.034213364 -0.28076437 -0.0009047538 0.10094954 -0.18348268 0.017813433 -0.31687668 -0.07759576 -0.07513535 -0.11481023 -0.25508857 -0.1131261 0.23885262 -0.051848523 -0.06487621 -0.038488727 -0.2956223
所 -0.044658046 0.019813988 -0.15471433 -0.12119443 0.1901514 -0.15819316 -0.18947224 -0.16791995 -0.017331425 0.19599713 -0.12043645 -0.027874172 -0.24736252 -0.08066318 0.009519665 0.15784003 -0.022351492 -0.29449692 -0.31426167 -0.2113856 0.273775 -0.03471953 0.056614213 -0.46586177 0.24319363 -0.22692224 0.5112261 -0.10839835 -0.4716477 -0.32168725 0.12783206 0.035197765 0.021689007 0.12886408 -0.2807322 0.028973669 -0.027068013 0.2367381 0.29465556 -0.029058814 0.056591313 -0.070181176 0.07705019 0.050881844 -0.12392089 -0.030293154 -0.17591634 0.17242402 -0.043262694 -0.21414635
民 -0.07081067 -0.012469404 0.5014543 -0.037247647 0.10385061 0.19124731 -0.16985808 0.2345909 0.109250516 0.06437455 -0.34679535 -0.07583495 0.10290891 -0.26550847 0.118021384 -0.11000013 -0.1401882 0.2765157 0.13811345 -0.22339727 0.26845646 0.18058567 -0.04877437 -0.4869423 -0.18607086 -0.1962108 -0.38500252 -0.16482088 -0.057266623 0.3085454 -0.22904336 -0.4041358 -0.013380205 0.14390825 -0.00337689 0.13826264 0.118936844 -0.07017597 0.030283496 -0.20009995 0.24449567 0.038767997 -0.05537455 0.37998188 -0.09687874 -0.5726083 0.16484419 0.19294143 -0.26469132 -0.029723613
小 -0.10420631 0.17273386 -0.12490187 -0.12966493 0.39316097 -0.27331752 -0.15951635 -0.24456427 0.1951608 -0.018799132 0.016375236 -0.059379663 -0.19566844 0.539638 0.0029307487 -0.12571576 0.18996164 -0.50522816 -0.054001283 0.062371276 0.44584408 -0.024146143 -0.32159764 -0.25986695 -0.057849836 0.105881765 -0.32507765 0.16821687 0.1824631 -0.115558386 -0.12175161 -0.21262978 0.1743361 0.09438497 0.36573648 0.10979666 -0.22613105 -0.20807508 0.10971584 -0.08889528 0.014295721 0.033906348 0.36670688 0.07020113 0.14041942 -0.4916865 -0.012561524 0.25327033 -0.032227226 -0.14153749
天 -0.45012042 -0.12414693 0.0035387976 -0.047473837 -0.24498571 -0.20526911 -0.044240486 0.088428 0.18118504 0.38616288 -0.29062596 0.33502886 -0.03667428 0.14078273 -0.33898726 0.21473305 0.07270477 -0.07551639 -0.22696745 0.04760471 0.39128402 0.042351987 -0.37961876 -0.4305275 0.017254297 0.10920068 0.106859356 -0.3190692 -0.15466505 -0.12570423 0.32574695 -0.13491292 -0.1801163 0.6014954 0.20067951 -0.1623832 0.38493222 -0.1288637 0.224077 0.31438634 0.17276761 -0.16752489 -0.2635747 0.18114212 -0.07900348 -0.045469936 -0.2236245 0.4212504 -0.0706835 0.1680699
乐 -0.40967828 0.106770515 -0.2746202 0.3244392 -0.049659748 0.19470967 0.006352583 -0.3589473 -0.19939744 0.07053429 -0.21284887 -0.05236184 -0.13432665 0.007706314 -0.065518975 -0.27069265 0.061832033 0.027168712 -0.12145157 -0.16729271 0.44209602 0.33228728 0.24813043 -0.74549836 -0.0006064449 0.68733776 -0.29891816 0.10265929 -0.11138049 0.10592499 0.13798681 0.21091695 0.009434023 -0.16065614 0.07304177 0.13981675 0.15438871 0.2847654 -0.47250095 0.11416357 0.1892823 -0.21590081 0.26948532 0.15337518 0.09474595 0.24646807 0.19578978 0.52684325 -0.1931712 -0.119248256
邦 -0.16225407 0.3285037 -0.21924786 -0.46981496 0.28852466 0.3443573 -0.17040174 -0.18298273 0.06764871 0.28719145 -0.024987169 0.254168 -0.016032351 0.12938134 0.28304213 -0.13791053 -0.4929943 0.13580278 -0.010779952 0.11576046 0.37137628 -0.077436246 -0.33053872 -0.3706272 0.19540697 0.1869698 -0.22596867 0.07344865 0.09583584 -0.44799873 0.18367669 0.4881372 -0.19151986 -0.12132677 0.29126576 0.06307561 0.56358206 -0.17900553 0.0666812 -0.30657047 -0.17861375 -0.20597629 0.07548293 0.43910226 0.14932479 0.16546108 -0.14606449 -0.0143500045 0.37842265 -0.5625062
亦 0.19776633 -0.28717807 0.12877873 0.004759633 -0.013679403 0.025521956 -0.03613057 0.4120187 0.12837176 -0.13253337 0.07781126 0.21965782 -0.3409427 0.43553004 0.08231629 -0.058752246 -0.146844 -0.09555172 0.38105112 0.10390382 0.42784098 -0.33155268 -0.146519 -0.45985442 -0.21729045 -0.02019662 -0.17267193 -0.36438954 0.1821995 0.11419245 -0.05340972 0.35154238 -0.10743576 0.23072763 0.34402174 -0.019266495 0.23756996 0.007871637 -0.21055208 0.22282155 -0.1789095 -0.2463923 0.33881465 -0.18257886 -0.2772923 -0.47351274 -0.44364005 -0.088623285 -0.07338378 0.23488031
使 0.4633258 0.04031793 0.27953833 -0.46460956 -0.014512193 -0.11249114 -0.01966851 0.020639915 -0.22295474 0.022261623 -0.16047417 -0.011862675 -0.13910274 0.24514897 0.07503056 -0.28428453 0.22939111 0.1781807 -0.09809429 -0.040651683 0.49891883 0.18613936 -0.027543802 -0.39931855 -0.07993906 0.20335072 -0.33387706 0.0063563893 -0.1732378 0.19394693 -0.16907215 -0.14507818 0.060237143 -0.55144835 0.18566778 -0.033897527 0.012400031 -0.14288789 -0.10260609 -0.07937061 0.23237763 -0.06400343 0.23277082 0.23148958 0.5617697 0.03514933 -0.39446834 -0.23360984 0.00078075053 -0.14456214
大 0.02667594 -0.05970296 -0.12988442 -0.18308568 -0.0025403104 -0.48446935 0.19204536 -0.020032924 -0.36861232 0.24337578 0.04925273 0.08089963 -0.16032131 0.058316447 -0.2877607 0.31631765 0.17141093 -0.18292084 -0.052142244 0.14289747 0.20829146 -0.03960443 0.035288006 -0.36674336 0.23444259 0.11052033 -0.4613273 -0.09722348 0.1565713 0.071627304 -0.28536013 0.04204957 -0.40670535 -0.2621191 -0.24678928 0.20373961 -0.3219498 0.051428583 -0.28496742 0.13837121 -0.2149328 -0.040077504 0.2566962 0.24244063 0.33350858 -0.03807093 -0.3005549 0.49294046 -0.3294001 -0.21348953
下 -0.31155407 -0.21332954 -0.17291634 -0.12624201 -0.087621324 0.05764313 -0.058997676 0.027094759 0.097471595 0.6403561 -0.058235098 0.17990686 -0.33798963 -0.13306677 0.21638246 -0.27040222 0.1513618 0.07613055 0.40878358 0.20929201 0.38306224 0.36288443 -0.41605982 -0.44521964 0.29452035 -0.08569258 0.119981825 -0.28180417 0.02929036 -0.06891156 0.09220977 -0.34709316 -0.20488991 0.25857157 0.2475974 -0.19187112 0.506072 -0.13831913 -0.23168361 0.17304982 -0.3183022 -0.097580224 0.18510543 0.14634147 0.23371194 -0.07553344 -0.018512916 0.07443089 -0.32101116 0.17212312
贡 0.33365878 0.00045078923 0.030334134 0.21221796 0.21295182 -0.11411763 -0.34081516 -0.07215729 -0.31407797 -0.25428894 -0.10316881 -0.2788333 -0.029676886 -0.15287182 0.033935264 -0.04271518 0.5641901 0.04999114 0.17248139 0.42810795 1.2058357 0.1999622 0.14374861 0.13813332 0.15510109 -0.15399022 0.02820891 0.08010153 0.42078438 0.13951962 0.031513494 0.22976142 -0.36450136 0.2724521 -0.120539784 0.20952293 -0.10458053 -0.13029093 -0.008736831 -0.18691818 0.19155477 -0.10230783 0.11824124 0.05896026 0.12132304 0.18141583 -0.062215224 0.009379666 -0.10250288 0.012810636
欲 -0.076925054 -0.008424445 0.068462566 0.28754035 -0.5126116 0.035212137 0.17805925 0.41900715 0.17035405 0.2597726 0.14831519 0.2386069 0.29624033 -0.379811 -0.37417433 -0.0350008 0.019999307 -0.32943094 -0.47705668 -0.12334857 0.43375736 -0.09610448 0.16928394 -0.37375736 -0.30701342 0.3063319 -0.2407342 -0.02353001 0.0020224073 -0.17342754 -0.13773638 0.36140445 0.023134181 -0.04523919 -0.27873114 0.18461601 0.6919302 -0.048371956 -0.10592729 -0.14192489 0.2077363 -0.23855266 0.10848122 -0.14639425 0.29948547 -0.3460333 -0.12066529 -0.05484541 -0.27913898 -0.017363517
诸 -0.0029153908 0.7160343 0.24420214 -0.014116802 0.14921282 0.25203487 0.0036016172 0.1933342 -0.020895053 0.70434463 0.2828984 0.22507381 0.12404051 0.1298888 0.4444515 -0.013903215 0.45545104 0.14023563 -0.08055356 -0.25918353 0.6107922 -0.43293267 -0.22968902 -0.13627616 -0.19219014 0.49995095 0.30027527 0.2406743 -0.07721058 -0.33111092 0.005013994 0.4734514 -0.32706916 -0.45632294 0.11239482 -0.5124858 -0.22002518 -0.16753651 0.061144635 -0.02042597 0.062239572 0.16392271 0.22226587 0.16455045 -0.15650968 -0.053713255 0.29214504 -0.182591 -0.22634509 0.12024674
从 0.1380604 -0.12162162 -0.035558507 0.5646738 -0.0227548 0.07553884 0.124389745 0.21456943 0.20055002 -0.396892 -0.056336585 -0.3956364 0.29467547 -0.023484774 0.22991784 0.033351667 0.55866975 0.1392716 0.0067298207 0.015735552 0.2549718 -0.0633278 -0.034441248 -0.45741436 0.34365118 -0.26620385 -0.29256725 -0.21644063 0.16071308 -0.020956103 0.02272694 0.19183294 -0.083619155 -0.24000736 -0.27093747 0.14062355 -0.0025995513 0.17064063 -0.37871456 0.2718055 0.17852272 -0.42194116 -0.1538797 -0.2477731 0.198473 -0.17575735 0.015831087 0.03850147 -0.27800596 0.121488646
文 0.25986356 0.11069654 -0.013406977 -0.27830014 -0.2838639 -0.037276648 0.15432857 -0.43477196 -0.057453215 0.19375509 -0.0287002 -0.019580264 0.0859391 -0.14147101 -0.3012678 -0.48334122 0.4046054 0.4972459 -0.04778906 0.015820513 0.50944865 -0.12419862 -0.3749639 -0.13642213 0.005001129 -0.29413822 -0.07354746 0.10953392 0.048429 0.2322844 -0.07854844 -0.31304404 0.036557283 -0.07412081 -0.29952303 -0.069972955 0.052168872 0.05954088 -0.08271343 -0.040610332 0.44006234 0.5213006 0.43947676 0.39433336 -0.22466204 0.039601978 0.16654444 0.25950372 -0.2636201 0.0590998
政 -0.24576771 -0.18604623 0.085625246 0.12351788 0.08414777 0.013613888 0.059181426 -0.059873886 0.006932007 -0.11057725 -0.0916288 0.111616984 0.53909016 -0.04305172 -0.19598053 0.029955585 -0.01500351 0.37666 0.25547153 0.043054238 0.5170656 -0.16620259 -0.19194983 -0.084485374 0.58239186 -0.27270654 -0.30959368 -0.19204575 0.27311066 -0.25784925 -0.048465792 0.024085203 -0.1679098 -0.28985283 -0.25402302 0.20028572 0.07918099 0.21754391 -0.0661634 -0.12369684 0.36440307 -0.016665552 -0.03869863 0.0509192 0.37680963 -0.118532725 -0.36573023 -0.29404655 0.121394545 -0.03581512
食 -0.39758727 -0.11262195 0.23835328 0.31987473 -0.11869006 -0.024401259 -0.17550847 -0.24664746 -0.330678 -0.14157538 -0.09668695 0.19620383 0.14268926 -0.08479096 0.22234046 0.14638045 -0.086550556 -0.23384422 0.12130291 0.03513069 0.59451 0.2016626 -0.2239522 -0.56317985 -0.60481024 -0.3925192 -0.24549146 0.11475982 -0.16474685 -0.012108071 0.13406837 -0.13019845 0.100810215 0.08236708 0.16020817 0.02811177 -0.073116325 -0.12548698 -0.114819884 0.25674704 0.3064434 -0.076111294 -0.020859992 -0.020894516 -0.40572923 -0.08296334 0.1264416 -0.3309644 -0.1093394 0.115470394
善 -0.38356498 -0.22169495 0.106429264 -0.067642406 0.38725126 0.38198462 0.009277271 0.04428069 0.4350355 0.15979508 -0.08050936 -0.16047728 0.21671242 0.09270501 -0.1462805 -0.23797144 0.12759951 -0.010629173 0.19682972 0.15353706 0.28551382 0.5811857 -0.11027444 -0.4720902 -0.2839912 0.14423624 0.057581138 -0.30228338 0.11845827 -0.4617042 0.3900103 0.26636153 -0.047229394 -0.078341335 -0.076406755 0.025855381 -0.053529587 -0.004841349 0.10939564 -0.20082912 0.22879562 -0.07870684 0.19041768 -0.25938204 -0.23376599 0.19655046 0.35132635 0.21519022 0.023082457 -0.35865465
后 0.0014204462 0.27147543 0.07812503 0.04220645 -0.012766689 -0.19545577 -0.30329978 0.13504651 0.16027111 -0.35099116 -0.061719496 0.05657389 -0.03619492 -0.32049492 0.17466083 0.39746848 0.03207922 0.054112457 0.021686453 0.16633767 0.19849828 -0.2569036 0.05749832 -0.3352741 -0.041485775 0.39811826 -0.6307297 0.12185781 0.040364783 -0.083570436 -0.1570743 0.04718604 0.03085492 -0.10633952 0.24672696 0.33862668 -0.23784819 0.22680165 -0.35273662 0.04304267 0.121164195 -0.18541203 0.11275705 0.19191392 0.08822768 0.33514884 -0.08496941 0.16927667 -0.43939173 0.31455702
德 0.18239771 -0.28890932 0.010562753 -0.2750495 0.13122419 -0.18504256 -0.007964946 0.103753746 -0.09478563 -0.22390644 0.19291341 -0.09678444 -0.23645563 0.22623277 0.012520403 -0.57796264 0.10124833 -0.3449717 0.17353344 0.18582152 0.42442042 -0.05512234 0.08154966 -0.20977655 0.37059546 0.023798322 0.2732211 0.25537893 0.15002179 -0.2823821 -0.31440562 0.009942469 0.10542734 -0.12654416 0.18351954 -9.12511e-05 -0.37032655 0.15828232 0.14665474 -0.047046807 -0.044277865 -0.15073651 -0.050772067 -0.23474874 0.18587926 0.007448555 -0.09471474 0.21305534 -0.21725626 -0.06950953
求 -0.27454382 0.26441833 0.09521087 -0.2565734 0.21603034 0.10730792 0.102902904 0.22145167 0.26503107 0.23218694 0.052950148 -0.24228856 0.014385535 0.27403063 -0.114387155 -0.27706468 -0.0063778334 0.03565783 -0.5193279 -0.27753547 0.47331864 0.18133676 -0.22497307 -0.09451402 0.05283836 0.13292927 0.09024864 0.5509358 0.23051864 0.1228991 -0.0026945667 0.018993046 0.1742132 -0.08585059 -0.0063450914 0.15890753 -0.6329302 0.35602078 -0.32257515 -0.3277623 0.0396975 -0.064143784 0.020319112 -0.102166876 -0.06668424 0.1101909 -0.2688683 -0.037636843 -0.13999376 -0.15654783
对 -0.18463653 -0.004720169 -0.41515058 0.35022002 -0.029495355 -0.005649925 0.185549 0.07963814 0.26644498 0.15360586 -0.12842074 -0.38741252 0.24978079 0.033481285 -0.045602378 -0.4067058 0.07527374 -0.033423256 0.24221717 -0.2519516 1.0219766 0.030470178 0.2219583 0.19888131 0.41852546 0.09885623 -0.035576295 -0.33617955 -0.4754192 0.20571925 -0.023240007 0.243886 -0.040603403 0.119075276 0.26109308 -0.0132738 0.19078045 0.34695366 -0.2542901 0.09062597 -0.4731439 0.11760507 -0.36310592 -0.18001314 -0.14707747 0.28620073 -0.21305434 -0.14777513 0.32501358 0.10183435
恶 -0.34336388 -0.20822324 0.20858884 0.027112525 -0.32250935 0.22384256 0.051383838 0.3056375 0.076663546 -0.08921066 0.2021777 -0.101030216 -0.29054543 0.14229167 -0.008335333 -0.3576436 -0.5502015 0.07249853 0.11389383 -0.1305375 0.30328774 0.063511886 -0.26291054 -0.57307595 0.15978064 0.23998955 -0.19073841 0.16424106 0.10284842 -0.22334097 -0.039411306 -0.039283343 0.025541846 0.22107515 0.3020138 0.111981966 -0.07844988 0.110293046 0.2788936 -0.093150094 0.0773657 -0.3127562 -0.20261057 0.08127162 0.18892676 -0.083527274 -0.009768004 -0.40885594 -0.21007755 -0.088596225
信 0.06882626 0.23376149 -0.2797026 -0.0148710795 0.12799993 -0.09416942 -0.076144144 0.062104855 0.17695595 -0.22930601 0.025559839 -0.10348705 0.0049295486 -0.44748348 0.07602659 -0.15584612 0.4379353 -0.0934109 0.12617867 0.007919292 0.21103808 0.5268201 0.242225 -0.616515 -0.3554015 -0.5246393 0.20439002 -0.012121513 0.14494868 -0.44015884 0.026268788 0.2657478 0.18412098 -0.03252407 0.44302773 0.08736855 -0.18524577 0.2673925 0.009758597 -0.11559117 -0.19176811 0.30052918 0.438487 -0.0557364 -0.25556102 0.07637235 0.23211825 0.13399987 0.09940511 -0.38325053
死 -0.20907187 -0.46434158 -0.17541532 -0.11060107 -0.1942774 0.009595718 -0.13765079 0.15724736 0.052329257 -0.06577142 -0.38165978 -0.08400929 0.46970737 -0.5270767 -0.23340571 0.361115 -0.04301653 0.019509885 -0.23322007 -0.01691266 0.35673985 -0.51760983 -0.056403216 -0.465782 -0.10399976 0.2889151 -0.072648995 -0.048853867 0.07170513 -0.09238991 0.28846452 -0.1766302 -0.13290876 -0.31142983 -0.11683647 0.29959747 0.47348034 -0.0014427842 0.124579675 -0.15631267 0.18848044 -0.14039491 0.0047897976 -0.12584862 -0.27079636 -0.22360419 -0.3908505 0.38175282 0.052637488 -0.08454544
然 -0.044038717 0.18845484 -0.18305627 0.10478771 0.11091013 -0.22608763 0.11948411 0.11703844 -0.092451975 -0.6096464 -0.15881455 0.1504445 0.06074245 -0.31226972 -0.33955193 0.17843857 -0.01141902 0.24372998 0.11381728 0.025002891 0.7109997 0.052275006 -0.5191532 -0.26781303 -0.1153092 0.1540357 -0.19131571 0.08434361 0.4434239 0.052600194 -0.24044482 0.030766321 -0.08254667 0.041827545 0.5384426 0.33528048 0.5117348 -0.3135073 0.006987908 -0.17284282 0.32823026 -0.5457715 0.1806202 0.024247695 -0.31003305 0.28162837 0.0061857156 0.21116275 -0.12488581 -0.29490057
《 -0.27736863 -0.19348735 0.12417293 0.3182552 -0.10772504 0.33187965 -0.027486242 -0.3982499 -0.46602866 -0.020855317 -0.13688368 0.25992644 0.012528281 -0.29106182 0.33500293 -0.060341753 -0.35362193 0.27076253 -0.054668352 0.21972945 0.6762879 0.25082397 0.30422008 -0.3594085 0.22489214 0.1962143 0.16115245 0.15747558 -0.4503002 0.39471397 -0.0050871973 -0.041871674 0.42658222 0.116902724 0.46292835 -0.2170048 0.06952959 0.36417204 -0.21025528 0.47331622 -0.32839462 -0.06634866 -0.01573467 0.4095842 0.044551834 0.24152637 -0.31900746 0.20809703 0.23978978 0.13508712
》 -0.35403207 -0.035914388 0.052031286 0.35995126 -0.5236241 0.19502176 -0.026458494 -0.083453044 -0.31729716 0.06370347 0.20346466 0.39654815 -0.12949347 -0.2054754 0.4401664 0.2567208 0.014193548 0.29446205 -0.09566245 0.24212492 0.6438173 0.028049208 0.16730273 -0.4437887 0.07609633 0.28199735 0.61141294 -0.083145194 -0.30524215 0.23579392 -0.26106906 0.20808081 0.57282376 0.060489703 0.18523021 -0.52415144 -0.16649412 0.09476118 -0.42776257 0.12992446 0.003538981 0.19735974 -0.21298045 0.3611674 0.048571013 0.025518464 -0.1068159 0.30281225 -0.087382294 -0.2556285
由 0.23994747 0.01858951 -0.11168303 -0.14932884 0.17414849 0.25111994 0.03218837 -0.1442966 0.0128938025 -0.15984502 -0.012911384 -0.14849794 0.10488705 0.2127989 -0.040834814 -0.28878722 0.13224536 -0.06877422 -0.21572822 -0.16976416 0.62711453 -0.01931171 -0.49425542 -0.2551848 0.23256736 0.5107486 -0.18982908 0.18140382 -0.17349799 0.21985076 0.2645405 0.009304002 0.14963326 0.28034502 0.00644763 -0.05515021 0.20978685 0.2576021 -0.084404185 -0.03494203 0.10736753 -0.26288432 -0.18018402 -0.2994315 0.17588411 0.06854648 0.042271666 -0.15872245 0.068165466 0.10933256
仲 0.05876358 -0.01915515 -0.20003659 0.28994536 0.23588641 0.31822598 -0.20466007 -0.057243124 -0.54198045 0.13161096 -0.21117106 -0.14848584 -0.02630813 -0.021116946 -0.048000485 0.07763843 -0.22246851 0.23477125 0.20223838 0.21279873 0.8029397 -0.0009466186 -0.012021302 -0.056091525 -0.08316789 0.20681477 0.20528126 0.0140127335 0.05054995 -0.20279676 0.059989236 -0.19978644 -0.20853946 0.1807064 -0.38016543 0.32340166 0.010673733 0.17877907 -0.44296107 -0.5959226 -0.06130707 0.32092792 -0.35269353 -0.032916233 -0.3264059 0.55958223 -0.047341105 0.22256781 -0.34354687 -0.3030781
非 0.21344744 0.15892035 -0.26689574 0.21986707 0.015151161 -0.2638163 0.009286403 0.40663096 0.28214666 -0.12752785 0.18473803 0.17565833 0.26241314 0.12067719 -0.15085156 0.11772437 0.28290427 -0.23713529 0.09978392 0.23053546 0.397051 -0.25342053 -0.03502526 -0.38827565 0.0046384 0.09428781 0.3381806 0.5357235 -0.15104495 0.40400943 0.29056278 -0.1916208 0.22303982 0.33944744 -0.16415057 0.03591776 -0.29106113 -0.14968011 0.33679482 0.07788399 0.03662544 -0.15283178 0.046997797 -0.03927498 -0.07791204 0.16807294 0.3089118 -0.42631182 -0.31537196 0.06313431
出 0.10297787 0.22908303 0.07559273 0.48712376 0.08858481 -0.36513144 -0.334295 -0.08590193 -0.21056296 0.005829345 -0.20942363 0.6779289 0.16733742 0.08178252 -0.041187573 0.10732785 0.08996127 -0.23819377 0.16825876 -0.22320399 0.47242475 -0.13573971 -0.008488015 -0.33518612 0.24556054 -0.043065082 -0.11256944 -0.24804772 0.3231855 -0.22387594 0.009807788 -0.20453113 -0.19155487 -0.030633938 -0.35078478 -0.026209451 -0.22000036 0.22525498 -0.028656116 -0.11321465 0.07707274 0.23893797 -0.16346814 -0.035002474 0.40245247 0.2310119 0.46623665 -0.27102903 -0.04661169 -0.009147201
过 0.24397267 0.015368475 -0.10493328 -0.05526741 -0.1282424 -0.24909423 0.059769295 0.011027294 0.56175405 0.08922735 0.0039185784 0.37328812 -0.3736734 -0.19564769 -0.03455642 -0.16110714 0.05540934 -0.12460485 -0.19962172 -0.73661155 0.27327645 -0.20063736 -0.063936785 -0.4863436 0.43119368 -0.10060186 0.23032427 0.36988774 0.0779333 -0.10029379 -0.21262088 0.20280896 0.10544313 0.015385622 0.07689256 0.1079082 0.27673003 -0.29913422 0.27566174 -0.06314865 -0.09328192 -0.066433534 -0.13174266 0.018455558 0.28790185 0.38605702 -0.2401964 0.023411116 -0.07065832 0.43328744
一 0.20328781 0.28995603 0.1617523 0.028925855 0.5164316 -0.21318355 0.17058282 0.03877657 -0.28110147 0.07083885 0.36777666 0.00053763296 -0.18367922 0.045924522 0.35467425 -0.084283344 0.051289618 0.08277393 0.24499328 -0.08685129 0.3583306 -0.64804935 -0.07812665 -0.46610638 0.1701767 -0.2215612 0.7026635 0.087045014 0.23460929 0.39774007 -0.13570377 -0.12529601 -0.23157355 0.3907937 0.40790123 -0.10932608 0.28220937 -0.004667431 0.030327555 -0.13485108 0.21127342 0.046174344 -0.2566165 0.17484276 -0.0051441086 0.09726433 -0.25201026 -0.035392705 0.20802855 0.44947246
虽 0.25379193 -0.06668067 -0.050383303 0.093836874 -0.17968237 0.3255013 0.5977476 0.24549305 -0.54627705 0.109197006 0.35456496 -0.02141953 -0.13732266 -0.16299069 -0.031125845 0.089863226 -0.30823922 0.1495224 0.6726636 -0.13686109 0.23748294 -0.40851825 0.06850664 -0.6336307 -0.3366642 -0.16887021 0.61077654 0.09757583 0.39602795 -0.19092996 -0.34541783 0.39495927 0.31804773 0.22726291 -0.15022737 0.47533768 0.08324217 -0.077046685 0.3518924 -0.07022788 0.096391775 0.017749276 0.19746009 -0.06132909 -0.26444682 0.122107714 0.4202605 -0.4872109 0.09038965 -0.4930203
足 -0.082654886 -0.079691894 -0.14606707 0.04417675 -0.41390526 -0.17658675 -0.14608979 0.32273868 0.16036232 0.23297453 0.30599746 0.21465978 0.24468395 0.046289492 0.35011688 -0.0032382002 0.11826368 0.10062193 -0.13881397 -0.0977817 0.39535153 0.23409256 0.3023249 -0.48681378 -0.7169097 -0.19597119 -0.29162517 -0.22264476 0.1766304 0.120520435 0.12688388 -0.030185413 0.11083431 0.11601812 -0.10422765 -0.28686756 -0.13040422 0.48296708 0.22656934 -0.29142672 -0.2730993 0.50988144 0.3222518 -0.046463005 0.28243425 -0.14538395 0.050489783 -0.27831858 -0.5747846 0.25535694
居 -0.33608368 0.18085305 -0.21102828 0.14933687 0.09626242 0.58377093 -0.21176156 -0.27806902 -0.22460543 -0.22385491 0.090984344 -0.19943292 0.041608904 0.100333154 0.5142478 0.05273921 -0.016097277 -0.18883775 0.29683828 -0.20045927 0.32209867 0.08818194 -0.0899523 -0.39829433 -0.21621217 -0.02046744 -0.18181068 -0.18781506 0.069512114 -0.47003084 0.0038459392 0.013030436 0.5132345 0.2169711 -0.014181683 0.19884127 -0.06091474 -0.057331223 0.22878487 -0.18928425 -0.0053487225 -0.074531354 -0.021594176 -0.26482108 -0.09679054 0.042283773 -0.117740154 0.19804329 0.19357005 0.2484597
尔 0.087988436 0.38669682 -0.123301275 0.1263032 -0.25211006 -0.14026737 -0.13264468 0.18791892 0.22458033 0.10827573 -0.130471 -0.12268865 -0.23525947 0.031259645 0.27520463 0.3078897 0.34967545 -0.13748991 -0.23258972 -0.21849905 0.5560173 0.36084986 -0.22626989 -0.09802008 0.3509058 0.3543466 0.40515018 0.031487852 -0.19065015 -0.178 0.008269793 0.5820519 0.30096063 0.14646554 -0.39881667 -0.35233814 0.30417442 0.14329445 0.32376713 -0.17634232 -0.09942243 0.010190917 -0.012732378 -0.0659802 -0.010548132 -0.48281008 -0.11281426 0.52499336 -0.12251875 0.27331492
夏 -0.036489744 0.17012921 -0.36063883 0.10168624 -0.21158977 -0.24918438 0.16908793 -0.17615575 0.072765775 0.13092455 -0.051979028 -0.038262125 -0.018182797 -0.049922034 -0.13599312 0.08115052 -0.13721968 -0.0868002 -0.0766865 0.1413257 1.1005781 -0.04786527 0.098337926 0.034888893 -0.3410326 0.0067491177 0.004371563 0.11260035 0.03652587 0.19323415 -0.08073266 -0.27044207 -0.025277175 -0.22679725 0.019419756 -0.03825373 0.2283361 0.06830086 0.0024095536 -0.0620236 -0.25328064 0.20551288 0.2952552 -0.1651897 -0.21657075 0.0498125 -0.06618811 -0.10259691 0.23567441 0.15270743
父 -0.3894646 0.44446954 0.14943582 0.28954127 -0.29418078 -0.42793775 0.16664244 -0.01139035 -0.058573462 -0.24729896 -0.18243028 -0.025239365 -0.46077424 0.22021656 0.02643463 0.032674763 -0.40730318 0.18351853 0.17653084 0.05738161 0.45172817 0.24402535 -0.26156896 -0.08856 0.0015858458 0.030096501 -0.324619 -0.21448235 -0.08453308 0.066142015 -0.12829798 -0.33359805 -0.00863304 -0.3333477 -0.19273666 -0.30465084 -0.01148483 -0.04878109 0.2841129 -0.1277008 0.069585666 -0.09753485 0.3489477 -0.22036667 0.28481337 0.6069212 -0.26519904 -0.016641535 0.1175163 -0.24630363
及 0.3538182 0.09330359 -0.15547654 -0.3384366 -0.03036067 -0.37736228 0.28039122 0.00066237594 0.35419077 -0.22972448 0.42727637 0.3240727 -0.09085922 -0.2771839 -0.14438574 -0.5112995 -0.06698322 -0.21454556 -0.08219764 0.112680145 0.24667497 0.23299028 -0.12424616 -0.5951795 -0.3625524 -0.01643356 -0.08136942 0.049998745 -0.15504071 0.35458285 -0.15433569 -0.14187206 -0.05722059 -0.33756664 0.07199223 0.14996643 0.5827146 0.19710426 0.21266995 -0.22108719 -0.59040827 -0.04266405 0.03865899 0.03628503 -0.39765024 0.16230837 0.12548411 0.0695066 -0.09380664 0.10576178
己 0.2230459 0.14268601 -0.21408673 0.22313692 -0.07689888 0.19806316 -0.48931062 0.112228625 -0.09760076 0.33335975 0.120737314 -0.44766477 0.07345825 0.18207349 0.1936071 -0.2478865 -0.15844212 -0.45433256 -0.14315405 -0.6517332 0.23142573 -0.008263709 0.15554717 -0.6374448 -0.0129858125 0.25197968 0.15390995 0.061887246 0.040543452 -0.051443756 0.21212967 -0.38272005 0.0080578 0.42986357 0.28832364 0.06849765 0.05002783 0.579685 -0.040401407 0.024084952 -0.11724195 0.27620244 0.22523297 -0.20774473 0.33770466 0.08482036 0.0766921 -0.3082096 -0.11130986 0.07071918
予 0.035916105 -0.14655331 -0.3736963 -0.20568287 -0.009493202 0.0155998515 0.5352566 -0.17340265 -0.44260347 -0.12630635 -0.47987634 0.007971954 -0.5508786 -0.09885222 -0.34287152 0.077309735 -0.11776225 0.09600891 -0.3265047 -0.26802936 0.44521526 -0.023693115 -0.44071084 -0.3251197 -0.027499426 -0.12728688 -0.21240821 0.17522462 0.1618329 0.63355297 0.028263832 -0.18352917 0.50581235 0.16770743 -0.2628949 -0.6909716 0.49827084 -0.12584586 0.6061773 -0.13911542 -0.16579965 0.2612035 0.2397879 -0.009557968 -0.23893821 -0.0025186369 -0.10010203 0.17838278 -0.21452051 -0.047829993
色 0.15957233 -0.26750922 -0.22035593 0.12360783 -0.35645375 -0.08184674 0.21197265 -0.01693166 0.18830779 -0.059706 0.05387605 0.4214801 0.022127442 -0.24539171 0.13200614 -0.10188288 -0.38507918 -0.14403531 0.22018977 -0.3081969 0.09067148 0.018891912 -0.21086444 -0.54536074 0.020521095 -0.424388 -0.30111527 0.14464809 0.35509163 -0.103480466 0.38251877 -0.056879617 0.31714132 0.24707413 0.54383504 0.087271534 -0.20523441 -0.3399292 -0.15101269 -0.34216374 -0.26902017 -0.24924678 -0.51850396 -0.026442615 0.32833365 0.36217028 0.11863727 0.08188115 -0.45591804 -0.3763394
友 -0.16559096 -0.21337175 0.601614 0.45092395 0.011914227 0.08967036 -0.01713853 0.13367577 -0.17565526 0.25986063 -0.34182295 0.43832332 0.47201803 -0.13197397 0.04147002 -0.16016796 0.40075266 -0.52433443 0.36208412 0.115001306 0.4360653 0.70290154 0.057916068 -0.74429715 0.4878732 0.294087 0.120461404 0.13343772 0.13120785 0.07634029 0.22853686 0.62256837 0.29932922 -0.29562208 -0.33713067 -0.0028079748 -0.20363237 0.012723974 -0.4461645 -0.29882783 -0.09707533 0.35541376 0.016675878 -0.059735294 -0.019675199 0.02304894 0.23596278 0.42875797 0.09543627 0.05537762
成 0.18870056 0.2805171 0.073370725 -0.102518566 -0.299391 -0.0050759763 0.078501746 -0.17180495 -0.037509106 0.080199555 0.018269602 -0.48435614 0.23287857 -0.21207309 -0.04940204 -0.3599453 -0.21076836 -0.06193634 0.20431331 0.03524127 0.48860723 0.08210814 -0.02611591 -0.38630715 -0.16196981 -0.110119686 0.29114586 -0.27493215 0.35677725 0.030719036 0.14513592 -0.19792674 -0.15694779 -0.44856507 -0.13237701 -0.10534663 0.13903883 0.26514837 -0.33022103 0.4516491 0.28288376 -0.37096426 0.12557471 -0.3068871 0.091767214 -0.032795973 -0.17782511 -0.08712586 -0.033046633 -0.062883385
远 -0.26300898 -0.10437462 0.20551328 -0.36185655 -0.21802914 -0.07294315 -0.33801442 0.073044695 -0.3945396 0.09773904 0.009899757 -0.023565723 -0.31207496 0.261662 -0.26744446 0.47987142 0.21169803 -0.11193674 -0.06048595 -0.14223538 0.51566505 -0.20098035 -0.24863678 -0.44840968 -0.16945878 0.077887684 0.25678185 -0.20339844 0.15619874 -0.078645475 0.3640041 -0.05146366 -0.3357852 -0.6349323 -0.22106557 0.21217184 -0.35867888 -0.15925126 -0.3708327 -0.07167734 0.15429585 0.15311818 -0.101187095 0.29050457 -0.10589619 0.15507898 0.39936718 -0.35586807 0.30199778 0.004775045
上 -0.060697105 0.00906023 0.04975892 -0.14725058 -0.052226335 -0.039989643 0.06597834 -0.10166816 -0.042815972 -0.3229528 0.09248536 -0.15002981 -0.49905258 0.05032605 0.2798172 -0.124442965 -0.07880232 0.18537928 0.11808691 0.580329 0.31432754 0.1284953 -0.20311318 -0.61581206 -0.019818638 -0.24183057 -0.2988498 0.047354504 -0.041188695 -0.2925182 -0.0901093 0.25539267 0.19393106 -0.16727024 0.089794174 0.67977786 0.095430635 0.111710586 -0.049259964 0.34837842 -0.5012387 -0.20789635 0.11829843 0.34145233 -0.20292853 -0.2146217 0.405598 -0.1070355 0.17205307 0.2629182
立 0.0008843803 0.10500528 0.13651314 -0.41986802 -0.698598 0.46652508 -0.054601643 -0.22037469 -0.41282246 0.15435742 -0.050109744 0.13793127 0.2208198 -0.25496686 0.09995937 -0.06014308 0.044630278 -0.25154483 -0.19026868 -0.17900656 -0.019149307 -0.036652576 0.30432427 -0.9772415 0.1565565 0.116044566 -0.033229694 0.32799572 -0.46285835 0.09439908 -0.23048778 -0.005391173 0.17929769 -0.25793943 0.00069348933 0.019672891 0.48081887 0.37524152 0.24168116 0.24636868 -0.05820013 0.41967344 -0.13763997 -0.21563357 0.22502726 0.21433944 -0.06726313 -0.5177229 -0.16732457 0.3793467
今 -0.11314418 -0.41066495 -0.032517433 0.090329766 0.2814583 0.5598901 -0.1580563 -0.0068391017 0.73515284 -0.053477913 -0.20876768 -0.30722347 -0.13231426 0.060782943 0.05036339 -0.06464852 0.31470495 0.030683737 0.45253417 -0.53563327 0.420308 -0.2601319 -0.5387798 -0.5243253 0.37271285 0.13388124 -0.52069837 0.46762305 -0.061927445 0.029257104 -0.35450894 -0.3869502 -0.13345852 -0.16680661 -0.23003598 -0.2756369 -0.25482085 -0.2526535 -0.3681042 -0.21570517 -0.2774456 0.059898484 -0.11412731 0.037042886 0.3389075 -0.036453024 0.06682683 0.12607762 0.42672688 0.20772533
张 -0.09082843 0.012502948 0.41816914 -0.0854263 0.487648 0.4427023 -0.0025390396 -0.60524774 0.19588725 0.04229757 0.05931387 -0.028585574 0.2984668 -0.22009413 0.2199274 -0.021905199 0.23965636 -0.0016962793 0.11319754 -0.09111764 1.0487117 0.71118367 -0.010372187 0.048114058 0.30403388 0.31242555 0.2322832 0.018049471 -0.077919126 0.4025559 0.13880865 0.2985182 -0.24110846 0.18713874 0.3253409 -0.18267696 0.0009322399 0.014045747 0.08544346 -0.2881468 -0.23099764 0.29389086 -0.43798834 0.078120194 -0.10859027 -0.072777346 0.028161522 -0.08769118 -0.064984806 0.23208585
中 0.33414748 0.48567626 -0.0829331 -0.04724605 -0.19187286 0.20539275 -0.30064246 -0.2888875 -0.14681807 -0.27750555 -0.102461174 -0.20322739 0.19844328 0.3370485 -0.15504159 0.035345305 -0.25930458 -0.0026545115 0.10537036 -0.39612705 0.38748053 -0.4139353 -0.40795293 -0.60880065 0.014119555 -0.49113685 -0.19919416 0.19837004 -0.39907393 -0.40464374 -0.23502031 0.33264488 -0.1877661 -0.5062513 -0.17371078 0.3187801 0.18706322 -0.14087509 0.051536232 -0.16243511 -0.06909791 0.33959907 -0.0045231674 0.20804814 0.40205115 0.20780231 0.16693793 0.72326183 0.186628 0.2413284
季 -0.006069768 0.21609657 -0.17350982 0.17196348 0.027322274 0.13054244 0.34796676 0.05325587 0.027158894 0.17479996 -0.42226204 -0.09092414 0.08496168 -0.16300836 -0.22238012 0.29281783 0.07600231 0.5646931 -0.13542068 0.3293572 0.61867934 -0.5229612 -0.028514896 -0.009504792 -0.29211402 0.21512836 -0.23694785 -0.2616558 0.3540563 0.010009082 0.3395329 -0.17134166 0.023837589 -0.34202635 0.22500648 -0.21154957 -0.11730648 0.08070292 -0.16626172 0.114962265 -0.41739893 0.6057206 0.1904496 0.15523382 0.4432639 0.23972815 -0.30365467 -0.126137 -0.295797 0.00080720056
臣 -0.23686475 -0.37004876 0.057959992 -0.040181305 0.08973986 -0.2486054 0.39185527 0.0734214 0.046748903 0.35208294 0.11892384 -0.27327007 -0.2014472 0.13028052 -0.54451334 0.35116956 -0.16331127 -0.014652964 -0.035990026 0.30134398 0.30767316 0.15149567 -0.33928138 -0.35221085 0.24433066 0.0059844423 0.057358585 -0.28887203 0.08790153 0.011101205 0.14718841 -0.19315708 0.0077815913 -0.22048557 -0.28917667 -0.10632817 0.16992064 0.13940541 -0.067280136 -0.054715205 -0.24958465 -0.023813192 0.19366334 0.0812561 0.24858071 0.50976026 -0.45727068 0.08220239 -0.5332197 0.25545397
贤 -0.031027718 -0.5748132 -0.3138873 0.43522388 0.37155443 0.21736796 -0.122138 -0.047873426 0.06348475 -0.0560524 -0.34137732 0.25894588 -0.16568191 0.06228445 0.31788665 -0.1128315 0.01236679 0.018259281 0.05903168 -0.086684845 0.4320463 -0.03671992 0.048357848 -0.4127216 0.29330042 -0.16606385 -0.4711871 -0.13531987 0.0665989 0.15330395 -0.09852532 -0.004940341 -0.08780882 -0.119311206 0.029254094 -0.33009726 0.26369387 0.10273935 -0.03591221 0.10060303 -0.018589012 -0.025068995 -0.12136194 -0.17050898 -0.38135028 0.06812142 0.31440932 0.053790256 -0.16487701 -0.36659372
思 0.4684449 0.28684118 -0.26685083 0.30884323 -0.117430285 -0.20547329 0.32891485 -0.18335362 0.10196498 -0.2327257 0.29023892 -0.069184266 -0.27311778 -0.23280843 0.31599036 0.14764899 0.59186137 -0.12533572 0.25838426 0.036122285 0.3285898 0.39135167 0.12554492 -0.5523123 -0.1448206 -0.0975025 -0.1542614 -0.486865 0.1747194 -0.19807677 -0.0064619323 -0.16594024 0.13803285 0.26656732 0.5548366 -0.50920695 -0.32939386 -0.18514434 0.39238927 0.48780033 -0.12535717 0.56801057 -0.2364672 -0.02688181 -0.5035675 0.74097395 0.061811328 -0.19977842 0.042416 -0.01915793
齐 -0.25068018 0.59783465 -0.2793975 0.36799002 0.23006786 -0.23690641 -0.25978544 -0.56356215 -0.44735256 0.4034999 0.08547998 -0.29556057 0.036851056 -0.5923018 -0.30107248 0.042334747 -0.20844726 -0.12687357 -0.11363008 0.23264183 0.46500537 -0.1011999 -0.16499178 -0.26243302 0.5313984 0.06825163 -0.024864834 0.2319374 -0.2293437 -0.1422555 0.0016107606 0.023605384 0.09160248 0.06615194 0.3130877 -0.28307652 0.3182931 -0.24686347 0.07590074 -0.3543514 0.45216838 0.576103 0.12108625 -0.2632197 0.28366658 0.33415192 0.101477854 -0.20837589 -0.1200382 -0.29426214
义 0.39805934 0.43764895 0.30117118 -0.53012896 -0.032824546 0.0075188996 -0.077857405 0.07125355 -0.16246714 -0.19387156 0.6160299 -0.33773234 0.0007643578 -0.18052754 -0.1476138 -0.0018905811 0.41729987 0.15026282 -0.07978981 0.0007126164 0.15701523 0.25243908 0.1960623 -0.4517924 0.022901248 0.13868743 -0.33955643 0.09515346 0.031714518 -0.20402889 -0.18864673 -0.13031569 0.0009970774 0.0014881883 0.49440145 0.4649783 -0.21360181 0.3971727 0.7730024 -0.027790774 -0.37141496 0.1483192 0.21222465 0.0517304 -0.16662753 0.15675755 0.09608702 0.28388464 -0.21579352 0.06280201
正 -0.060223207 -0.15933809 0.0068266513 -0.09780222 -0.28472462 -0.42419603 -0.070886746 -0.11032003 -0.2767985 -0.5637065 0.19691959 -0.3011107 0.35648027 -0.078905456 -0.09551187 0.097767115 -0.6885271 0.16640435 0.059371416 -0.3980287 0.47887054 -0.1764915 0.19629191 -0.3539292 -0.2872344 -0.0763309 0.18665394 0.401639 -0.47368148 0.20120223 -0.1251079 -0.04009624 -0.25849348 0.025899727 0.011529922 -0.38825107 0.19219919 0.48795968 0.11631852 -0.3899729 0.5539688 0.14084065 0.16273595 -0.033170275 0.1407299 0.19317259 0.014086419 -0.012870945 -0.25830343 -0.116658196
命 -0.11447796 -0.073329866 0.36037397 -0.48439452 0.3636869 -0.09143843 -0.13934681 0.13721667 -0.21107832 0.48384702 0.20224401 0.046245202 0.2589286 0.030537054 -0.095849596 0.36037248 0.18413083 -0.1682311 -0.0031466624 0.25536793 0.32504457 -0.09641091 -0.083863616 -0.37421528 0.052848727 -0.21475488 -0.080176346 -0.3280702 -0.041883714 -0.20516588 -0.2923191 -0.1653546 -0.10283117 0.24578942 -0.19785836 -0.09488809 -0.076162905 0.008580097 0.40272462 0.06137936 -0.48143345 0.22735529 -0.3098126 0.30056825 -0.18291695 0.2269872 -0.50495875 0.110037744 -0.057548504 -0.008394777
曾 0.3246186 0.12816773 0.15077282 0.026090901 -0.06599298 0.18813327 0.41359124 -0.11841233 -0.25197116 -0.05810464 -0.20460269 -0.481831 0.20582175 0.20499863 -0.19702849 0.053667672 0.08837028 0.2307435 0.23964727 0.21605675 1.2792169 -0.23547016 -0.35890177 0.16156258 -0.005596039 -0.27081838 -0.3047987 -0.017383395 0.7465009 -0.2687822 -0.40845445 0.046400446 -0.16017658 0.12394445 -0.44047046 -0.31122833 0.04884513 -0.20800643 0.015858065 -0.06754468 0.22433764 -0.47651964 -0.69345474 0.0016077999 0.29806638 0.032511476 0.31229812 0.2710856 -0.20496573 -0.12309464
伯 0.7615855 0.05402279 0.14503762 -0.33649984 0.08253351 0.090529524 0.35535902 0.49059832 -0.37899697 0.08334202 0.12091555 -0.14384158 -0.10817455 0.09757452 -0.14600672 -0.34784392 -0.19543542 0.39360633 0.38990405 0.5325382 0.83666843 0.26266292 -0.45960546 -0.16033368 -0.27148232 0.45505267 -0.046482608 -0.07334298 0.52010417 -0.32251298 -0.6438178 0.11163904 -0.031926483 0.021193959 0.5241641 0.22597925 -0.27526468 -0.2761923 -0.36993536 0.049643196 0.34545904 0.33368468 -0.3324648 -0.3253494 0.1937316 -0.18860324 0.019164333 0.3025732 -0.37509376 -0.029078238
门 0.11094873 0.115728185 -0.2523012 -0.16295715 0.019226288 0.14051723 -0.047911532 -0.06378408 0.24537487 -0.046150103 -0.17773174 0.16750814 -0.16132209 -0.037806634 -0.23437628 0.15893304 -0.19246897 -0.03545156 -0.23380162 0.0894553 0.4333566 -0.118633755 0.04803712 -0.24156222 -0.3268818 0.3396934 -0.52465326 0.13065921 0.091950886 -0.025844933 -0.024620345 -0.20713362 -0.14848548 -0.3611329 0.015426126 -0.2129139 0.35253498 0.16524579 0.5898584 0.038277317 -0.005897483 0.36553788 -0.27675328 -0.31583202 0.06962713 -0.4584497 -0.23298231 0.14052741 0.004305598 0.040355816
敢 0.32651874 -0.10361338 0.67444015 0.093847364 -0.13103 0.10642172 0.043860704 0.30498055 0.24246517 -0.51671076 -0.5781349 -0.4246628 0.21286155 -0.17718711 -0.42086998 -0.5197958 0.2721278 -0.1016721 0.58943385 0.07907953 0.40705985 0.7054632 -0.43237478 -0.6809858 -0.19929062 -0.089457095 -0.2190968 0.32790273 0.14043517 0.32200035 0.60366225 -0.47370398 -0.11887172 0.34713387 0.1406478 -0.19018227 -0.024193967 0.4572899 0.10210778 -0.70325243 0.67468154 -0.17423098 -0.1527878 -0.17318784 -0.41998535 0.22270685 0.110472955 -0.11625937 -0.031643484 0.39929488
犹 -0.21449909 0.39833072 -0.121840455 0.041281126 0.27144343 -0.27502495 -0.025426172 -0.4528449 0.6522577 -0.16837424 0.07467338 -0.13633515 -0.09738306 -0.102682725 0.18605508 -0.15968543 -0.2335048 -0.2878161 0.21505772 -0.059139933 0.4941987 0.35415828 -0.08337702 -0.4335564 -0.560772 -0.008853699 0.18462972 0.045905955 -0.4085572 0.41094914 0.15882668 -0.14476049 0.056673158 0.098083645 -0.7834471 -0.29651237 0.012894365 0.12549584 -0.54457307 -0.07121542 -0.23512052 0.06314949 0.60778743 -0.31971258 -0.16328739 0.33797926 0.32476813 0.17467196 -0.17239645 -0.5951739
生 0.32829675 -0.06436001 0.25248346 -0.3132077 -0.2812111 0.12705636 -0.39937332 0.08264935 -0.19474022 -0.062277436 -0.23531297 -0.016404446 0.18786028 -0.028998474 -0.0034011065 0.19630459 -0.027798157 -0.15159157 0.49252442 0.12313993 0.45096698 -0.16288298 0.038318783 -0.36329082 -0.0642687 0.1876097 0.12097446 -0.020176807 -0.2828636 -0.20362346 -0.2010259 0.21597154 0.34612688 -0.13416804 -0.42307228 -0.18870126 0.10965612 0.2419012 0.39619896 -0.29695222 0.27186275 0.144607 -0.3328855 -0.045372598 -0.07812057 0.05889368 -0.25221604 0.045428447 -0.44414705 0.07483358
日 -0.2504548 0.36242765 -0.4136689 -0.110896066 0.038249187 0.31586242 -0.3241254 -0.0358104 0.10464258 0.16727363 -0.2730216 0.031532653 0.052302726 -0.23741035 0.5849583 0.25610375 -0.061971013 -0.10591501 0.0010283802 -0.032719836 0.36060926 0.1399484 0.23321563 -0.5853817 -0.11617313 -0.19746955 0.44911686 0.22463505 -0.049678393 0.3731944 -0.18903542 -0.31075567 -0.32727763 0.05130921 0.3001041 -0.24891016 0.09594349 0.1654633 -0.39267495 -0.1705359 0.22554404 0.05751427 -0.5500302 -0.0046914173 -0.29213744 -0.4146208 -0.013497567 0.025315767 -0.027202124 0.13644935
敬 -0.21089669 -0.020302955 -0.042369436 -0.009874254 -0.2195598 0.21112198 0.3421209 0.22139384 -0.19051714 -0.3817429 -0.031873018 -0.4570559 -0.051134482 0.03915778 -0.2216773 -0.04670702 0.23970042 -0.058441013 0.21472397 0.024157759 0.21318494 0.27282146 -0.16630049 -0.5974245 -0.2018199 -0.53057396 0.032207213 -0.3087652 -0.0032597105 -0.27067763 -0.25823548 -0.3507615 0.44347572 -0.71231973 0.55515826 0.3927298 -0.16312318 0.29701534 0.30932683 0.36706468 0.102862924 0.58141786 -0.2479263 -0.48964363 -0.20976508 0.22541629 0.21998729 0.029861141 -0.08847208 0.050395582
难 0.4652247 -0.03622428 0.05735459 -0.18240598 -0.16855666 0.23148525 0.16211851 0.13693155 0.10993105 -0.0759713 -0.061060257 -0.3125592 -0.24947092 0.21695983 0.22620189 0.058677197 0.11319856 0.14614204 0.44626233 -0.36238593 0.35040274 -0.25039002 -0.20413354 -0.23749049 0.16658352 -0.081894785 0.24173814 -0.3823556 0.12781283 0.43705863 -0.26142892 -0.21873255 -0.15185422 -0.21703972 0.06681291 -0.13837631 0.13053216 0.41014728 -0.036353074 0.043280303 -0.29429698 -0.093290664 -0.5612304 0.08396748 0.18491419 -0.120299585 0.1665361 0.42360437 -0.41153783 -0.13461868
直 -0.036219347 0.112830445 0.08821648 0.07586732 0.13359244 -0.6329253 -0.13683051 -0.09809671 0.15151973 0.15459229 0.24893136 0.2635157 -0.2637337 0.17747068 0.27101988 -0.24688742 -0.11347897 -0.17097627 0.11782643 -0.6408689 0.4284894 0.14069873 0.006570385 -0.45870706 0.3330197 -0.09237185 -0.49174142 0.31357044 0.1197873 -0.18246019 0.6126457 0.42490068 0.0992267 -0.47300044 -0.05582463 0.12485353 -0.27720508 -0.027260022 0.15915318 0.33188868 0.008476142 0.0870907 0.12748854 0.08087337 -0.50687283 0.06497906 -0.029869039 0.34155416 -0.052374125 -0.0401566
丧 -0.14631388 0.23636037 0.14685954 -0.037043147 -0.29174542 -0.27415824 -0.22432709 -0.3262161 -0.27796894 -0.035614934 -0.29007444 0.10234296 -0.5043217 0.0085472325 -0.030314073 0.13950847 0.29295224 -0.27991956 -0.17835605 -0.2454474 0.3188544 0.24273893 -0.25778124 -0.40000555 0.18533875 0.06193664 0.17999516 -0.71611774 -0.17795292 0.60044324 -0.13996553 0.13705029 0.14141981 -0.063077495 0.43462408 -0.28432977 0.2297297 -0.1717629 -0.023710612 -0.38121477 0.005233787 0.26414216 -0.07152288 -0.06940022 0.09363203 -0.11771629 0.0780205 -0.24001656 -0.36397958 0.17492674
说 -0.25348818 0.25642964 -0.036098566 -0.50197107 -0.45167178 -0.34267947 0.23085181 0.22777568 0.61670744 -0.38966334 -0.06265605 -0.3135398 -0.1252316 0.41378626 0.19571923 0.30217046 0.5498863 0.6426237 -0.051411897 0.15200292 0.38011846 -0.22208416 0.121548235 -0.26726377 -0.111279845 -0.39480945 -0.29195166 0.19991736 -0.06566709 -0.13660292 0.03979879 -0.061279118 -0.061906688 -0.22179538 0.19781801 -0.09742956 0.120601974 0.37944737 -0.024434505 0.0811447 -0.58629435 -0.0691248 0.35508582 -0.14142746 0.21114057 -0.33472404 -0.15056856 -0.3666951 -0.04360799 -0.094491966
自 -0.0767704 0.6936104 0.08706347 -0.28617766 -0.12346772 0.041970957 -0.1341255 -0.28553516 0.35756248 -0.10348881 -0.26038003 0.19835773 -0.010384672 -0.018990759 -0.12787382 -0.09451128 0.028260909 0.10057689 0.41055393 -0.62104976 0.53486776 -0.5380479 0.46679223 -0.21254307 -0.40988475 0.3601587 -0.13899201 0.27777815 0.28105962 -0.2780114 -0.06682893 0.024251826 -0.3298621 0.3744881 -0.1735834 0.010408046 -0.24241501 -0.0133929 -0.3157238 0.163674 -0.23926042 0.5825332 -0.33178055 0.06595451 -0.0017446456 -0.21662904 0.18934819 0.21706021 -0.25240344 0.0040815556
用 -0.3186123 -0.22066481 -0.3246446 -0.21612327 0.15584736 -0.22482848 0.018088482 0.5696969 0.36129856 -0.12661962 -0.56876683 -0.17687355 0.3944171 -0.094010055 -0.052113727 -0.1371 -0.08952084 -0.25248206 0.17303121 -0.17295413 0.5545226 0.03618599 -0.10964829 -0.28481257 -0.01615008 0.22548132 0.4846109 0.07227513 -0.24692367 0.05427671 -0.042265058 0.2215871 0.12884685 0.019299475 -0.36060673 -0.012313757 -0.22140318 0.16380961 -0.100380555 0.30646718 0.7676742 0.04928431 0.01575888 0.27440783 0.025535801 -0.09394802 -0.09638398 0.14549227 -0.02088036 0.01955818
周 -0.001334464 0.24899039 -0.20809609 -0.15195511 0.37537697 -0.3115784 -0.054757804 -0.46648026 -0.2917396 0.25608125 0.24576972 0.056326486 -0.31688303 -0.1145006 0.046146575 -0.5561583 -0.23510773 -0.085595034 0.25246254 0.16828932 0.5597409 -0.5032131 0.08230731 -0.2481967 0.36090478 0.57962966 -0.039434526 0.024410345 -0.123549566 0.2592135 0.14999819 -0.26802212 -0.2156379 -0.1788902 0.50876206 -0.16008969 -0.4619353 0.28050327 -0.101125546 -0.18136972 -0.47211212 0.25505936 0.098074004 -0.39941877 0.30604875 0.041820124 0.18548524 -0.41192153 0.125079 0.16012524
颜 0.18157566 -0.4613631 -0.06687716 -0.09044823 0.1945455 0.20700216 0.15028115 -0.17791452 0.053952247 -0.4826859 -0.45922416 0.21245575 -0.026806233 -0.37311345 -0.13011196 -0.06727187 -0.20959453 0.11534524 0.12031277 0.064402774 0.686165 -0.10803621 -0.22678635 -0.1267194 0.2728391 -0.06888618 0.10273317 0.17485382 0.48790005 0.25245667 0.44786173 -0.048170827 0.5349609 -0.07230099 -0.039980516 0.16939078 0.39181525 0.096481144 0.08939904 0.34317976 -0.049997553 0.029205497 0.011686027 -0.07140033 0.15599273 0.12498616 -0.23685749 0.21543846 0.20833845 -0.099930055
年 0.4615767 0.4110571 0.32868966 -0.0024468375 -0.23411416 -0.038340297 0.1304509 -0.2318659 0.1280465 0.22457922 -0.4148443 0.11656443 -0.057686925 -0.02214699 -0.0008776295 -0.0010349922 0.0036820874 0.28459555 -0.086497135 0.50952846 0.46466127 -0.2341296 -0.28360316 -0.5078498 0.32962132 0.08013588 -0.058152616 -0.07919154 0.20531835 0.356189 0.010619196 -0.66389686 -0.29182056 0.37277678 0.45876843 -0.005471132 -0.08652789 0.3489117 -0.06307097 -0.13057785 -0.10120726 -0.19505134 0.25671878 -0.15263823 -0.22463256 0.03707603 -0.37368247 0.14889759 0.0008694129 0.4012752
告 0.16345327 0.105757914 0.33841544 0.622982 -0.3399153 0.12392347 -0.41626564 -0.25004485 0.117434844 -0.14368744 -0.59283227 -0.5090568 0.16774376 0.010059038 0.50027305 -0.08548363 0.11130447 -0.46843508 0.24643487 0.14493768 0.9201753 -0.3672122 0.12232609 -0.20997824 0.29975885 -0.2791811 -0.05424863 0.21965519 0.4905681 -0.08050549 -0.50681543 -0.13396159 0.5223834 0.06654674 -0.14269516 0.34376395 0.20867097 0.3398469 0.056669533 0.41227686 0.3442575 0.1419923 0.10129296 -0.2684691 -0.33280095 0.33157557 0.076575 -0.13604364 -0.23861659 0.20644656
十 -0.04964312 -0.12783007 0.031421788 -0.50630283 -0.09258175 -0.1157386 0.032123912 -0.039228022 -0.05865385 0.770003 -0.9238156 -0.76279396 0.015605878 -0.019739429 -0.40559185 -0.13340095 0.030684978 -0.6094747 0.43307385 0.5024832 0.43915892 0.4026139 -0.5181777 -0.3388906 -0.022753684 0.25192788 -0.0066352114 0.053308703 -0.08062553 0.4392488 -0.053996656 0.038027536 -0.3092222 0.31005743 0.43097618 -0.0078026555 -0.26782212 0.17591006 0.37103215 0.10321537 -0.835735 -0.21165913 0.38741067 0.2658473 0.17291085 0.88121676 0.23806933 0.19442658 -0.5598637 0.394308
怨 -0.2838702 0.19019757 0.017184433 0.2336063 -0.22677533 -0.24282795 -0.26975036 0.35453165 -0.6373111 0.1754095 -0.4615295 -0.27157322 -0.51339316 0.08741447 0.070172675 -0.20396546 -0.052067734 -0.041353498 -0.08453829 0.050352495 0.41284102 0.085340306 0.009124225 -0.2731278 0.101409815 -0.3009297 0.14775495 -0.12701605 0.0749641 -0.38390276 0.11636653 0.4878793 0.24805088 -0.4705813 -0.35979077 0.07271248 -0.28081492 0.18925533 -0.14184587 -0.083857335 0.1747796 0.2215703 -0.043315038 0.050415803 0.2502623 -0.03269332 -0.56402963 0.34973717 -0.41309988 -0.26111984
达 0.07522519 0.07227751 -0.09196531 0.08045736 0.09976584 -0.14184283 -0.04167076 0.40797025 0.22589627 -0.5382716 0.18428293 -0.1737645 0.058335748 -0.15918484 -0.0076108426 -0.092052825 0.14020118 -0.059433535 -0.2857574 0.02034 0.23294938 0.20848863 -0.43163252 -0.24287462 0.5139768 0.02768806 -0.15281206 0.05666064 -0.2160061 -0.36760324 -0.15552966 0.33209187 0.5573541 -0.5199642 0.10485518 0.73467547 0.41857618 0.32772455 -0.22071397 0.22641556 -0.32834268 0.3066716 -0.26934898 0.30129853 0.33143035 0.24808662 0.14573643 -0.35051 0.035332996 0.009077696
孝 -0.38728532 -0.3186824 -0.1995458 -0.11305906 0.06808112 0.3536025 -0.10407106 0.46604803 0.22619814 -0.13186398 0.04266703 0.042351924 -0.11004764 0.17413619 -0.057596214 0.032747474 0.14508907 0.76524615 0.094932735 -0.46578908 0.5633218 -0.22093605 0.012349663 0.09730327 0.17980695 0.34583575 0.3789603 -0.3236174 -0.07536113 -0.047581125 -0.24732412 -0.03597152 0.08637377 -0.15271878 0.4606329 -0.2779112 -0.14458886 -0.000151221 -0.23884128 0.48844364 -0.047512818 0.58972156 -0.3670574 0.38043243 0.0050306814 -0.06297042 0.44670114 -0.059122812 0.5001709 -0.1241717
弟 0.007348368 0.130817 -0.03187015 0.31127167 -0.28539202 -0.24432473 0.16617437 -0.10200948 0.07944049 -0.38221514 -0.14938477 0.24884515 -0.30601364 -0.2886877 -0.08464342 -0.11838894 0.4067916 -0.023577318 0.4360814 0.49161318 0.7008879 -0.39425305 -0.11205123 -0.29485586 0.23830144 0.4932429 -0.32336134 0.6567177 -0.32834443 -0.0075394968 0.42099014 -0.0634522 -0.6513839 0.11887344 -0.14544539 -0.101706766 -0.06366608 0.18400918 0.17382923 -0.021476971 -0.1719421 0.32021457 -0.10684269 0.016565917 -0.081084065 -0.08233265 -0.36742756 -0.6533895 0.7034977 -0.7182523
至 -0.20583159 -0.18013258 0.10393101 -0.26569724 -0.21733779 0.102311745 -0.3403391 -0.4409236 -0.32976723 -0.146724 -0.31946936 0.4115141 0.01607282 0.083486676 0.70723903 0.16860114 0.16110988 0.023153607 -0.013281809 -0.14257482 0.36660132 -0.059159722 -0.07066334 -0.3439576 0.039897423 -0.037810378 0.282316 0.1298073 0.013758671 -0.031133402 0.008200314 -0.08090899 0.21013585 -0.13512127 -0.54384816 0.020507079 0.0118765095 -0.026800541 -0.074456505 -0.36938986 0.04050697 0.34666297 -0.18863983 0.3130361 0.37576306 0.08939064 0.25690278 -0.05792547 -0.30329856 0.080817886
先 -0.42168152 0.26488408 -0.04507357 0.24876033 0.2583816 -0.3722529 0.25829273 -0.08833911 -0.41996366 -0.51568127 0.020150656 0.27642262 0.40381965 0.2843445 -0.15256779 -0.52123106 -0.03453999 0.43546176 0.05787572 -0.04121507 0.3867267 0.1435855 -0.10620487 -0.25734326 0.07904778 -0.095914654 -0.16295476 -0.2392338 0.12973039 -0.30861682 -0.17866918 0.06091128 -0.002606813 0.102789484 0.1584971 -0.73150676 0.33431217 0.25769597 0.30406833 -0.24314529 0.6087843 0.15412565 -0.12001205 0.07606327 -0.08984766 0.07541499 0.24874966 0.0026367046 0.35978243 0.015026658
师 -0.10049075 -0.3298997 -0.13780558 -0.0075163343 -0.34788838 0.20019831 -0.52394986 -0.20364356 0.3559876 0.06319569 0.32628453 0.1043811 0.1825673 -0.09058624 -0.058559116 -0.11626196 0.11820128 0.013489034 -0.20502056 0.23632151 0.6305466 -0.48838612 -0.014670381 -0.099840395 0.40112355 -0.15675192 -0.13555592 -0.2603167 0.6083484 -0.03265241 -0.31542286 -0.6143667 -0.044595562 0.011562231 0.033823643 -0.006664425 -0.20443451 0.1974539 -0.37593636 -0.27283606 0.08235469 0.17976773 0.16373652 -0.29009742 -0.15233521 -0.1675981 -0.044973064 0.049037267 0.1279821 -0.35525995
女 -0.30404744 0.017396444 -0.15975028 0.011425624 0.68596524 -0.10299365 -0.08288424 0.2461435 -0.1726022 -0.12920581 0.19556533 -0.08415826 0.12611644 0.047997806 -0.0701244 0.37789124 -0.22346476 -0.020774223 0.16642863 -0.2380312 0.56002045 -0.06066258 -0.018546848 0.021581791 0.012005233 -0.2755938 -0.47856084 0.29200995 -0.17424637 0.30486527 -0.013354813 0.29637983 0.2565679 -0.043339513 0.39534333 -0.20414646 -0.12752976 0.5515193 0.22733146 -0.4815748 -0.27062136 -0.034131628 0.16827759 0.19589384 0.16135721 0.2663118 -0.4190759 0.5799509 -0.16477779 0.19446437
多 -0.0590771 -0.41814542 -0.04114147 0.8452382 0.0056867986 -0.12798017 -0.03527926 -0.33765438 -0.27692857 -0.0188439 -0.29725185 0.33763394 -0.22544377 -0.19058871 0.27326798 0.17198656 -0.038424388 0.35370666 -0.08746433 0.2534346 0.3624349 0.68018955 -0.17240803 -0.77551585 -0.26456022 0.5429692 -0.46191603 -0.15485032 -0.27689785 -0.51561135 0.36849904 0.6318794 -0.20070441 0.037816945 -0.15875728 -0.42171317 -0.2881935 0.25963405 -0.30436987 0.339672 -0.116160385 0.13707013 0.056825444 0.057977226 -0.29249823 -0.6975233 0.2315145 -0.25130168 -0.0026604172 -0.2589577
忠 -0.16914184 0.27709496 0.3075256 0.16590314 -0.40066946 0.021520935 -0.16713874 0.12740096 -0.18648358 -0.11236083 -0.4406972 -0.3862327 0.51215696 -0.18601374 0.31581286 -0.1286979 0.3003744 0.088739924 0.5267721 -0.21288547 0.34515285 0.38724118 0.32012317 -0.3897506 -0.48272464 -0.612518 -0.2466213 0.3378902 0.06333581 -0.14008458 -0.2245375 0.4129231 0.400296 -0.09637737 0.7352321 -0.34859696 -0.257814 0.31666508 0.17300516 0.62146735 -0.06366866 -0.06077521 -0.32899678 -0.6307379 0.09298511 0.04687008 0.054415774 0.28996423 0.042257622 -0.18728194
四 0.07187661 0.55852216 -0.22311176 0.691968 -0.4327317 -0.19424377 -0.87863654 0.086597204 0.3584753 0.48967522 -0.39660293 -0.17994921 0.5270355 -0.36618406 -0.8882196 -0.037356198 -0.8634806 0.07370228 0.11042013 0.11372953 0.5362823 -0.0024524017 0.16011111 -0.5023157 0.2644459 -0.4720555 -0.61922276 0.12319005 0.3429239 -0.20487207 -0.4412728 0.4477639 -0.52202886 -0.33660623 0.29994738 0.45656887 0.033804085 0.08513175 0.012190522 0.39926034 0.1342 -0.38945672 -0.43087634 -0.18959706 0.103264086 -0.3286246 -0.44506738 0.44107592 -0.40273142 -0.095713735
疾 0.33870646 -0.4061255 0.6974697 -0.3499028 -0.3058543 -0.4084656 0.41201437 0.28383678 -0.24347493 -0.24552806 -0.27822456 0.31634638 0.29327273 0.14877713 0.040043004 0.3919082 0.24779439 -0.1208551 -0.1050004 -0.33556873 0.5844453 -0.014237608 -0.42843664 -0.20465748 -0.2318738 0.012724381 -0.011814829 -0.2283381 -0.12545262 -0.37857756 -0.19256198 0.07795208 -0.42525223 -0.26220196 -0.012124132 -0.02477749 -0.318899 -0.15531284 0.058203716 -0.024971649 0.12805209 0.11930512 0.0670783 0.1993853 0.18172288 0.02851129 -0.5742897 -0.34403005 0.031403113 -0.021508543
服 0.016180446 -0.00067161163 0.6180609 0.2115819 0.4460258 -0.400832 -0.08860943 -0.03555715 -0.03648962 0.41938224 0.4297293 -0.5676553 0.314025 -0.37918913 -0.3949867 -0.6621861 -0.15528749 0.01872984 0.7274432 0.45617735 0.4112746 -0.5751223 0.7745146 -0.7777658 -0.18060234 -0.2984531 -0.019196052 0.09472734 -0.008303745 -0.06632643 -0.2435098 0.46169993 -0.2064415 -1.0070722 0.4879394 0.08664398 0.08249008 -0.024218649 -0.41624713 -0.12612787 -0.01315556 0.2395186 -0.042905517 0.8280538 0.226234 -0.31310636 0.31835222 -0.029511914 -0.2868609 0.10218054
氏 0.31366733 -0.14040838 0.031788014 -0.32042274 -0.13043486 0.31579047 0.12936436 0.24933632 0.24573436 0.39773232 -0.119888954 0.1463581 0.25878608 -0.012895607 -0.38294172 -0.38108182 0.010424923 0.5815174 -0.0005396743 0.45228112 0.70466846 -0.33189058 -0.08325541 -0.09198232 0.053748507 -0.20854995 -0.14155474 0.08508429 0.22101068 0.20311685 -0.07237003 -0.6418364 0.019266332 0.21161304 -0.0528639 0.11004326 0.2049265 0.06807963 -0.25754666 -0.1844466 0.14884092 0.27014 -0.040621713 -0.27698755 0.12387921 0.3254167 -0.5893259 0.020355754 -0.051427223 -0.13097794
冉 0.2968395 -0.103422485 -0.3767163 0.11533083 0.43847343 -0.23483568 -0.28882697 0.38658947 -0.23181778 0.23406631 -0.5357925 0.085703254 0.71938837 0.26894245 0.024688479 -0.23777957 -0.42728257 0.19872749 0.1884617 -0.058411904 0.9284404 0.08189049 -0.48926264 0.32242528 0.1620361 0.054240204 -0.052958116 0.03277807 0.3155235 0.07164804 -0.35353586 -0.0028141409 -0.10764126 0.14550139 -0.061438274 -0.03037077 0.022145925 0.34806472 -0.02726794 -0.6155495 0.19049235 0.62272185 0.29178464 0.2662652 0.57485044 0.31170005 0.2676324 0.37397692 -0.5491273 -0.0028479702
将 0.15379791 0.16396068 0.029892331 -0.057069387 -0.16105515 0.0035410305 -0.25478846 0.16874868 0.13621517 0.31086823 -0.52558476 0.38399273 0.20963567 0.11234106 0.010271862 0.09341307 -0.14125416 0.1485438 0.38044804 -0.22852549 0.34240383 -0.2914607 0.02900296 -0.3853659 -0.06656262 0.2769641 -0.4156944 -0.1834123 0.35352468 0.16052541 -0.01881618 0.29523623 -0.45435283 -0.042309124 -0.367303 0.037943862 0.5617447 -0.30647722 0.16217001 0.1887441 -0.20921439 0.33772814 -0.29070696 0.25663424 0.09550907 -0.09905 -0.4117856 0.21508382 -0.100309566 0.38748595
士 0.11105144 -0.24551788 0.23468947 -0.03584834 0.0019785925 0.13548408 -0.25340122 0.23733377 0.3950073 0.1715488 0.34810436 0.25899008 -0.15697587 0.0021654847 0.008299113 0.17378901 0.11228656 -0.6400931 0.33955857 -0.044874273 0.5220369 0.4241467 -0.06964583 -0.14640488 0.35317922 -0.2836666 0.19609576 0.018401813 0.6775215 0.28485665 -0.2526048 -0.12957798 -0.13893828 0.04679169 -0.03592513 0.0110589275 0.4134479 0.41368273 -0.31381714 -0.40142518 -0.061157547 0.4925409 -0.24053317 0.36687788 -0.08627001 -0.32193652 0.33708134 0.2749533 -0.25747028 -0.4858321
丘 -0.18445261 0.09118343 -0.22662687 0.18466668 0.02939858 -0.21547233 -0.2830214 0.2666891 0.070787475 0.015258108 0.29157597 0.43616948 -0.029958453 0.3565939 0.14442377 0.53320825 0.072971925 -0.123916335 0.55406886 -0.5970713 0.5850142 0.079264 0.07700758 -0.20755842 0.25993145 -0.059793133 0.2534409 0.031249337 -0.0040817857 -0.186839 -0.15071538 -0.072280064 0.49218652 -0.15791169 -0.002578088 -0.05648633 0.4464642 0.30550942 0.47261477 0.6498918 -0.008348637 0.13776915 -0.4232628 -0.5518205 0.29220766 -0.5769395 -0.083175726 -0.39778152 0.25817138 -0.08648298
身 0.26429638 0.6027282 -0.00082027586 0.17349216 -0.0674575 -0.1536228 0.385729 -0.16042893 0.22348848 -0.21205027 -0.1630314 0.18554585 0.08411027 0.052944083 -0.3470217 0.4742995 -0.20488033 -0.52778757 0.44326577 0.20025356 0.40185124 -0.7541348 0.08303724 -0.43547264 0.28619832 0.064244896 -0.20946962 -0.54937184 -0.057690833 -0.21046475 -0.33106223 0.32898015 -0.011109356 0.50720537 -0.42485896 -0.14073564 -0.13838036 0.30426857 0.073386684 -0.5759746 0.0037973952 -0.090815656 -0.043945245 0.39458692 -0.40568656 -0.5071968 0.12875687 0.059124377 -0.20591997 -0.07547306
入 0.50832087 -0.010264073 -0.45270723 -0.11580616 0.0876284 -0.077773415 -0.66596365 0.2739917 0.09906255 0.20659527 -0.077172 0.07166455 -0.14869943 0.12792347 -0.9185273 -0.07832465 0.39133647 0.41385823 -0.39262185 0.40292075 0.39192584 -0.50153583 -0.81526 -0.45233762 -0.1632066 0.3382587 0.22999436 -0.2585459 -0.32267228 -0.19797444 -0.3206707 -0.78907555 -0.07950568 -0.58049345 -0.021958817 -0.027449477 -0.35603958 -0.50361806 -0.0325846 -0.2360049 -0.390327 0.7270737 0.023957102 0.18624468 -0.25661913 -0.15469019 0.09982727 0.32593748 0.01464244 -0.23672774
志 0.6258926 -0.093450025 0.7150255 -0.14222772 -0.6120158 -0.3303606 0.0064570466 0.1081722 0.4055904 -0.7256677 0.022783488 -0.078032054 0.38785696 -0.039670903 0.37864655 0.61460954 0.030767802 -0.18324007 0.3187031 0.158146 0.48686868 -0.23452187 -0.35834154 0.0032439623 -0.018084459 -0.029508313 0.23255762 -0.26549545 0.14625743 0.12444129 -0.5172667 0.066292316 -0.02762349 -0.40199128 -0.3069097 -0.22993119 -0.18608542 -0.02321562 0.027652768 -0.086788565 0.03199747 0.39069828 -0.15258475 0.14202702 -0.51565766 0.22878514 0.5315021 0.27537844 -0.031544127 -0.18543209
耻 -0.09819431 0.09900459 -0.2154904 0.091283254 -0.34498852 -0.2474745 -0.20475051 -0.12401667 0.16747367 -0.30497327 -0.09824568 0.21541098 0.046357878 -0.19424334 -0.41422004 -0.38956344 0.43472221 0.3612841 -0.043377385 -0.39620906 0.21743521 -0.13339655 0.43199414 -0.81096375 0.058253653 -0.12621242 0.19537431 0.27730513 0.51438546 -0.57559496 0.3471227 0.19075927 0.4355659 0.36865577 -0.22505823 0.019090153 0.22132975 -0.25549412 0.033901908 0.60109425 -0.17579207 0.24024719 -0.3799943 -0.33229738 0.2831746 -0.323083 0.09438801 0.13367373 -0.44593298 0.24537396
失 0.12859842 0.28337875 0.04504981 0.5266902 -0.6666472 -0.3219218 -0.56355804 -0.05734547 -0.46218646 -0.006561603 0.25983083 -0.1609999 -0.47483248 0.14226177 -0.008988644 -0.26681617 -0.24943623 -0.20331055 -0.032754395 0.016368574 0.46550983 -0.8688192 -0.3782674 -0.9640725 -0.3857849 0.1267655 0.05113967 -0.9195192 0.24972174 -0.6278307 -0.07211837 -0.15148395 -0.1096916 -0.23056474 -0.1552127 -0.059316464 0.22927107 0.5048887 0.37620038 -0.1280495 0.14982858 -0.52645487 0.10004519 0.2748971 1.0452086 0.030578382 -0.37026373 -0.3970868 0.17522135 0.79021925
安 -0.33658203 0.009650657 -0.61850893 0.56342584 -0.14719741 0.56417125 -0.2175731 0.2693178 -0.38859007 0.56514263 0.13325316 -0.16079254 -0.15080616 -0.21460548 -0.07379477 -0.11856726 0.350501 -0.32628933 -0.3470195 -0.88773566 0.47015405 -0.22929014 -0.13007651 -0.54874486 -0.024178144 -0.048845302 -0.26690984 0.16349958 0.12006721 -0.08171696 0.38610128 -0.11428549 -0.24981388 0.4573036 0.06461905 -0.55237824 -0.36308756 0.47769773 0.46745002 -0.47184908 -0.55861026 -0.1287515 0.08479037 0.4927162 0.6457811 -0.115502074 -0.10764168 -0.2951543 0.10969589 -0.30984253
富 0.16737574 0.13205323 0.18222739 -0.25827938 -0.21318491 -0.13236433 0.4803406 0.16224587 -0.23531814 0.22251177 -0.08521152 0.066542745 -0.14222641 -0.19850492 0.3080548 -0.15160726 -0.087865986 0.08475334 0.051274247 -0.13404267 0.39242655 -0.29071903 0.059565585 -0.4023414 -0.06684744 0.3709198 0.64344853 -0.23411149 0.3490594 -0.0858966 0.21464224 -0.12116721 -0.009388188 0.08626441 0.21727371 -0.20470001 -0.17002937 0.07189016 0.17174578 -0.0072506317 -0.016342135 -0.19391426 0.22124568 -0.2790088 -0.18574399 -0.54437345 -0.43036553 0.15641402 0.17206788 -0.7372835
赐 -0.3945915 -0.2969537 0.48277214 -0.4693586 -0.2921485 0.43368983 0.3304647 0.37732214 0.100937806 -0.2111478 -0.37477678 -0.07773572 0.46146536 -0.3098332 0.18116173 0.15188004 -0.37495098 0.017289862 0.2304406 0.13393919 0.65839964 0.15975577 -0.5041607 -0.075243376 0.18789512 -0.009024174 -0.85426104 0.925803 -0.3472261 0.484164 -0.04670777 0.07669614 0.025328431 0.17474496 -0.05498355 -0.09368938 -0.49122545 0.20218937 -0.087176755 -0.10562284 0.24096933 0.73066026 -0.1769815 -0.35290617 -0.1039239 1.1788441 -0.45385903 -0.8549426 0.10698448 0.33869755
患 -0.627017 -0.075354196 0.18932167 0.7306599 -0.34725422 0.50654215 0.2246694 0.2553911 0.44304654 -0.02711283 0.07642462 -0.36290443 -0.37801468 -0.35899764 -0.6813605 0.7474205 0.5654044 0.06417808 -0.41850895 -0.24269806 0.5879594 0.3037007 -0.11229231 -0.7905565 -0.043479033 0.027881684 0.0007218737 0.21780474 0.30080318 -0.64068794 0.30358028 -0.15375558 0.39913204 -0.12002313 -0.23154774 -0.24931042 0.48668924 0.3367241 0.18587485 -0.487899 0.06598644 0.17528062 -0.06628007 0.04412086 -0.057255547 -0.100603215 -0.2729373 -0.09568758 0.013500455 0.04725432
百 0.012274652 0.09827504 0.15997854 0.4346564 0.24242084 0.08005142 0.24918453 0.16699475 -0.19644322 0.7600189 0.22717822 0.1857435 0.11197491 0.12013249 0.26022866 -0.1322029 -0.7311347 -0.27066863 -0.30767852 0.0544741 0.46986717 -0.02935711 0.058206026 -0.7594682 -0.15892959 0.28370777 0.6128445 0.33355704 -0.088495634 -0.1700883 -0.82701296 -0.4646382 0.11897547 -0.26590198 0.6150297 -0.024388637 0.19135469 0.3906581 -0.14453825 0.8790919 -0.07003897 0.099493474 0.6483361 -0.117101245 0.04944931 -0.4439311 0.07153931 0.017198708 0.0011933944 -0.35999617
回 0.38193068 -0.31244346 -0.3808122 0.31722355 0.018385142 -0.0950612 0.37009212 0.12138986 0.03325316 -0.26546872 -0.43382853 0.39332357 0.18435857 -0.011319656 -0.027991 0.10535208 -0.0046568587 -0.2667695 -0.40327162 0.05557472 0.6184551 -0.065017805 -0.100521475 -0.18501526 0.1774364 -0.7335752 -0.102715485 0.022837307 -0.19931875 0.36458498 -0.09556862 0.39584076 0.058645908 0.13057597 0.012774652 -0.36500302 0.45063907 0.32897136 0.19743368 0.16316585 -0.020296633 0.12022556 -0.033463284 0.061483964 -0.11905459 0.16319017 -0.17285736 -0.19679728 0.47880375 0.33582276
宰 0.605561 0.30682817 -0.019803053 0.1964468 0.44073045 0.19158593 0.42132127 0.1907492 -0.11269494 -0.3681896 -0.47579628 -0.5047059 -0.45056438 -0.111195765 -0.2378858 0.76117086 0.3532084 0.6544275 -0.078537025 0.26432058 0.731126 0.18592837 0.08051873 -0.16965386 0.75484836 0.22326757 0.077336974 0.084857084 0.26496813 0.4815293 -0.1183283 -0.70459956 -0.67563576 -0.21314955 0.23089361 -0.5617795 0.05568169 0.31302202 0.09940916 0.16044372 -0.181244 0.37321627 0.39286983 -0.03218767 -0.39044592 0.12928909 -0.033125006 0.0031883377 -0.12307707 0.26560187
朝 -0.24305141 0.2553776 0.93282783 0.51684713 0.0013929943 -0.5807064 0.08233889 -0.49197036 -0.23454656 1.1164571 0.90373415 0.37333184 0.47151738 -0.15182358 0.40565202 0.15020733 0.32913265 0.22991174 0.4444051 -0.07009375 0.4708348 -0.4650215 -0.11091326 -0.29688346 0.041106705 0.15594451 -0.054781415 0.5357089 -0.25063777 -0.21246426 -0.36578536 -0.002926236 -0.5476194 -0.028034901 0.16657849 -0.050823513 0.45113057 -0.40165514 -0.008072422 -0.27903578 -0.0838109 0.06807669 -0.21747914 0.10682058 0.0039427415 0.2842005 0.035109702 -0.3603228 0.26841328 0.32092008
莫 -0.1847446 -0.15252735 0.5347996 -0.09194882 -0.112757914 -0.18559538 0.39179623 0.5948965 0.8783207 0.09829735 -0.31144008 -0.51017815 -0.5533616 -0.30039182 0.6352832 -0.018546589 0.47787565 -0.18203394 -0.14837621 0.27804542 0.30281696 -0.24730377 0.13368513 -0.7290874 0.44484195 0.43720442 0.34100437 -0.17144297 -0.27117205 0.9766882 -0.022195421 0.0121831745 0.27525297 0.22605719 -0.06979999 0.7210556 0.22880435 0.08816729 -0.025834918 -0.17437768 0.34330088 0.18487057 0.5014166 -0.20376678 -0.17477621 0.42253065 0.27220798 -0.20543961 -0.36809367 -0.18526839
若 0.40246788 -0.36189434 -0.110718 -0.04696338 -0.40847337 0.04685531 0.030942768 0.25299734 -0.3576651 -0.18977687 -0.55258554 -0.24499932 -0.7067752 0.05509116 0.13112412 -0.25722605 0.6584196 0.106327206 0.44778448 -0.21994726 0.75381714 0.35709438 -0.64276946 -0.2759885 -0.24171728 0.10318343 -0.24700543 -0.53622216 0.56089085 -0.044481497 0.095645286 0.2471972 -0.18432654 0.084719755 -0.1484822 0.2451492 0.24355215 0.33352005 0.14339587 -0.4484388 0.27963823 0.00059238635 0.1444708 0.5121222 -0.24426788 0.095299564 -0.17573148 0.14423841 0.051381834 0.08392385
云 -0.26773298 -0.635119 0.5590139 -0.2622805 -0.26503515 0.12288699 -0.43819693 -0.18169369 0.21183752 0.27111349 -0.31560847 0.55387616 -0.15528408 -0.05789858 0.060826734 0.32731614 0.07804947 0.49646026 -0.24135895 -0.21808909 0.9618483 0.15580305 0.13900296 -0.10595014 0.22297142 0.26867777 0.22474967 -0.32712153 -0.8799753 0.32343057 -0.69506735 0.43408096 0.57876694 0.0063681565 0.54510593 -0.048917133 -0.35356376 0.01720751 -0.017682921 0.0745244 -0.0142518245 0.29380572 0.46315902 -0.25459173 -0.22141053 0.38810107 -0.36939925 0.77556145 0.025138773 0.15232043
