1352 50
， 0.17788291 0.68787277 -0.1266901 0.10433317 0.26151207 -0.12847298 -0.1857727 -0.09813489 -0.19269817 0.054103892 0.06455639 0.04667291 -0.04934084 -0.39615715 -0.14546348 -0.19536242 -0.21358493 0.038515206 -0.14813791 -0.118063085 0.22765724 -0.035802703 -0.095494166 -0.36648086 -0.026024923 -0.32259083 -0.05362101 -0.053374995 0.096279375 -0.08088187 -0.10563532 -0.1324486 0.10841947 -0.034643784 0.015535043 -0.053717043 0.19441497 0.01571083 0.13626416 -0.076839834 0.13518453 -0.11785402 0.08243127 0.1294703 -0.096396685 -0.42477575 -0.052738044 -0.06814326 -0.04164628 -0.16215041
子 0.045434035 0.43792728 0.10788851 0.1767279 0.25031978 -0.050371107 -0.41062093 0.06302051 -6.4247404e-05 0.24162965 0.115875386 0.022045715 -0.042310312 -0.13861212 -0.0241335 0.023082284 0.09038443 0.052819714 0.032879706 -0.23580919 -0.13493857 0.028275501 -0.22218372 0.0923928 0.15434386 -0.12836125 0.008129058 0.019847697 0.055834193 -0.021844387 0.11501886 0.010430677 0.2687678 0.05193668 0.071986094 -0.122880936 0.25666508 -0.08376002 -0.347126 0.023601199 0.080313146 0.012158437 0.15840411 0.24317369 -0.068864316 -0.043437123 -0.10553141 -0.075539134 -0.03866541 -0.08720514
。 0.05373191 0.5341503 -0.09752536 0.31875938 -0.06845582 0.026784614 -0.19911769 0.0050878627 -0.10210837 0.2989793 0.021797925 -0.10909412 0.039807025 -0.20838143 -0.015739486 0.10481355 -0.19931503 0.11706173 -0.16768143 -0.15370643 -0.12916097 0.13135105 -0.14485794 0.08299608 0.081871435 -0.2757484 0.2958406 -0.22736913 0.0630662 0.08517111 0.20243217 -0.096613355 0.048909053 -0.12402155 -0.2405486 0.14397939 0.0331086 -0.24414831 -0.1604417 0.0040419213 0.09084308 -0.05279195 -0.059277687 0.08170345 -0.06969701 -0.3676515 -0.13114302 -0.058503877 0.07307251 -0.0659107
： 0.089297295 0.3372497 0.1582205 0.2533087 0.2419518 -0.03350684 -0.27149695 -0.11224632 0.02158387 0.3373768 0.1510553 0.28876007 0.09708899 -0.29890305 0.08927002 -0.13042526 -0.030539464 0.11188207 -0.035359815 -0.22593996 -0.20531882 -0.20032072 -0.09722325 0.15530173 0.24104355 -0.3106194 0.17003202 -0.38569045 0.07882775 0.11189612 0.24466589 0.1674022 0.2470813 0.07642412 -0.10626314 0.0032781127 0.21888742 -0.12141861 -0.4443211 -0.061855793 -0.08682655 0.10411965 0.14754385 0.1506179 0.1361547 -0.12201862 -0.16701478 -0.19618769 0.2675926 -0.2515073
曰 -0.0143458145 0.33008358 0.08561203 0.23461626 0.15279788 0.019272702 -0.24528277 -0.12641278 0.03595931 0.19015528 0.16898073 0.13140371 -0.07585045 -0.31094334 -0.041400142 -0.10848675 0.11325658 0.028616648 0.09998747 -0.1563556 -0.06263807 -0.16132897 -0.13180044 0.11376691 0.18379936 -0.2162791 0.14287835 -0.18107963 0.1314557 -0.0018056529 0.030364975 0.112867326 0.14895925 0.05170893 -0.16546899 -0.031291503 0.20298323 0.022209786 -0.48746222 -0.13780256 0.0066024447 0.08889936 0.0017655492 0.15721829 -0.013536408 -0.0036196369 -0.1693788 -0.086930126 0.1270953 -0.018016763
之 0.012829662 0.5116952 -0.046895683 -0.0867242 -0.092512615 0.11053915 -0.072416216 -0.114646 -0.08711575 0.19616026 -0.1797018 -0.18929516 0.15997718 -0.40415663 -0.36068106 -0.12335356 -0.0631547 -0.044754867 0.048365973 -0.23866999 -0.029537376 0.09513669 0.10463753 -0.07682205 0.14240997 0.13117352 0.06853358 0.021653434 0.1417752 0.14677018 0.3217244 -0.23982435 -0.11454573 -0.026666436 -0.09479889 0.05974128 0.17135158 -0.19793773 0.023122307 -0.29467827 0.172738 -0.18260786 0.12172846 -0.0015189648 0.04980392 -0.1505992 -0.0016951842 -0.048727494 -0.14011492 -0.08880345
不 -0.15615095 0.42392656 0.081282094 0.016973028 0.130552 0.024902184 -0.3258068 0.029891154 -0.07622575 0.38106266 0.14974639 -0.15450464 0.23544967 -0.26128733 0.111308776 0.02546915 0.15513727 -0.0055284016 -0.12167857 -0.2024893 -0.11955582 -0.046121817 0.00044283178 -0.078906015 0.15616778 -0.10403676 -0.069648646 -0.22157043 0.01364471 0.029346883 0.111936696 -0.21104617 -0.081921086 0.3042091 0.08050572 0.060858633 0.23744006 -0.28243923 -0.14325449 0.05493821 0.10884821 0.06852805 -0.0014235722 0.2294722 0.09750221 0.16403183 -0.18225712 -0.06413043 -0.17028046 -0.20895787
也 -0.08449113 0.4887797 -0.015522249 -0.14805245 0.22746928 0.03697279 -0.18180303 -0.29474866 -0.15649758 0.19687618 0.1748916 0.13725525 -0.11249387 0.105639465 -0.017163409 -0.0007682026 -0.061604455 0.24677257 -0.19184163 -0.13198403 -0.09814534 -0.21517804 0.024376718 0.05327233 -0.08745238 -0.05193051 0.025233068 -0.24644199 -0.0067908885 0.06668302 -0.05484394 0.08988814 0.031762566 0.007876859 -0.028299436 0.16964564 0.043853074 -0.049314953 0.019634264 -0.40092793 0.22463934 -0.20186318 0.17055003 0.1640713 0.23329195 -0.3834176 0.098405905 -0.20857346 0.074055105 -0.16417736
而 -0.17116646 0.6352819 -0.25508195 0.07190691 0.25725338 -0.13572484 -0.06185029 0.040974595 -0.058698718 0.23962851 0.26661378 -0.080017656 -0.03939813 -0.3923923 -0.17616305 -0.014551529 -0.0032743094 0.086151466 -0.034958262 -0.18410489 0.10536093 -0.13584287 -0.28110707 0.17419896 0.1405433 -0.14849612 -0.072233826 0.023033433 0.13034625 0.02119593 0.03477142 -0.23062582 0.06569898 0.20832744 0.06596233 -0.005667217 0.059730884 -0.1794235 -0.081243016 -0.20721267 -0.024220455 0.006606347 0.0025125826 0.058573123 0.09701628 -0.031630836 -0.04022825 -0.01326824 -0.24935207 -0.02974689
？ 0.18834054 0.38709128 0.10751313 0.083045594 0.14443919 -0.11340479 -0.10096458 -0.14856173 0.07041045 0.33857062 0.045189127 -0.04433175 0.08283384 -0.34073576 -0.14244358 0.050859064 0.21868213 -0.04827521 0.0328826 -0.31670377 0.19142167 -0.07905347 -0.12916468 0.11811762 0.11610245 -0.17475629 0.009689025 -0.049137495 0.034095515 0.10200903 0.050772533 -0.15031546 0.20841308 0.20613098 -0.050855424 -0.09016084 0.12995031 -0.24020708 -0.24746521 -0.23937604 -0.063901484 0.040538803 0.003725639 0.20395508 -0.11491732 -0.021133298 -0.20682372 0.099404305 -0.3321628 -0.28661197
其 0.2565798 0.48180258 0.07519864 -0.08026622 0.069460206 -0.05610268 0.050573893 -0.18523021 -0.2599726 0.18804666 0.02958861 0.11555511 -0.030714972 -0.19444583 -0.26961568 0.15888312 -0.3612224 0.029337551 -0.21664609 -0.18657082 -0.021034688 -0.14740564 -0.015640458 -0.18313192 0.25890377 -0.045011718 0.13023864 0.11182511 -0.11288596 0.15534234 -0.0032198518 0.26930046 0.17302145 0.02879237 -0.15965535 0.09443057 0.061796393 0.11243278 0.12818967 -0.28128347 0.075326435 0.049050383 -0.045873452 0.10084051 -0.13186704 -0.18944721 0.0095115565 -0.021489104 -0.011775304 -0.10407343
人 -0.04555069 0.49978226 -0.122426204 0.00866453 0.07143504 -0.044589967 -0.011357771 -0.17391112 -0.17071529 0.066235654 0.007449847 -0.009515831 -0.0069644535 -0.1171336 -0.14420635 -0.04094427 -0.38203412 0.20896313 -0.14743486 -0.007072237 0.11244505 0.08886689 -0.13053855 -0.1256358 0.18252018 -0.10629146 -0.013920706 0.0011934238 0.23412332 0.042830467 -0.01820274 0.014062436 0.07904704 0.1615521 0.08747111 0.014118919 -0.09676827 0.34163937 0.049494147 -0.38701886 0.24892032 0.18375754 0.104932696 0.017549712 -0.20252047 -0.33971125 -0.27993518 0.041244794 0.02988338 -0.06623543
者 -0.29337886 0.545492 -0.034758862 0.12731986 -0.060753524 0.12705414 -0.14006416 0.11892117 0.0056457752 0.012424127 0.053245056 0.07457465 0.05246177 -0.11857704 -0.2784924 -0.005059041 -0.103375375 -0.1301928 0.042731576 -0.16879979 0.15341146 -0.054692462 -0.2313106 -0.30808818 0.06498451 0.24669273 -0.22227623 0.14955465 0.10518241 0.28667864 -0.28412944 0.26096103 0.20427607 0.09138866 -0.03659824 -0.035189282 -0.116063595 0.20978093 -0.059051856 -0.1383429 0.19304305 -0.0026874887 0.008623338 0.0032290136 -0.26149195 -0.07302593 -0.17922902 0.3231237 0.13954177 -0.044914965
以 0.13805245 0.5165838 0.31703696 -0.047712095 0.03754429 -0.07194776 0.0101479385 0.0394931 0.12088465 0.34650669 -0.07761781 -0.13717318 0.0634853 -0.12747462 0.008151127 -0.15711756 -0.054860156 -0.045277014 0.069349974 0.18286054 -0.18850653 -0.039242156 0.115254536 -0.08892357 0.04007451 -0.15451089 -0.16845983 -0.21663247 0.05649366 0.02444221 -0.14259784 0.11795974 0.038210656 0.09567911 -0.2013675 0.045914162 0.030881792 0.085464284 -0.11565218 0.071199894 -0.084302016 -0.21352573 0.11489549 0.049202025 -0.016841259 0.0694982 0.08348527 -0.0033767107 0.035630357 -0.084720775
有 0.09801904 0.43313062 -0.39603695 -0.09450626 -0.027288515 -0.09495373 0.114635356 -0.044883676 0.08808985 0.38976195 -0.13377203 -0.16693847 0.18529522 -0.22335805 -0.19861919 -0.012571775 -0.1891243 0.23279113 0.18591675 0.1775674 0.18816188 -0.07204418 0.015857898 0.18698183 0.49073666 -0.27421665 -0.013333847 -0.34131157 0.2502319 0.27213612 -0.07226496 -0.14225538 -0.25920555 0.18248416 -0.10437928 0.06397323 -0.043589856 0.13326569 -0.075835936 -0.08738761 -0.032053214 0.1701039 -0.116805 -0.097424746 -0.18282768 -0.11381013 -0.39399835 0.2685 0.2502264 0.0458775
于 0.16463514 0.33293006 -0.113176286 0.10499265 0.0014997204 -0.07221086 0.24118319 -0.09361889 -0.08473442 -0.018365933 -0.092625275 -0.14180067 0.09774211 0.0427331 0.09855601 0.26086625 -0.15705493 0.0060705477 0.0032266933 0.10580775 0.2072851 -0.09411594 -0.3399353 0.2771642 0.341035 -0.13616836 -0.13464937 -0.025466535 0.016464986 -0.16991962 0.24261835 0.16338117 0.044932894 0.28377736 -0.21722674 0.04015303 0.014471939 0.29473516 -0.2405019 0.07913722 -0.025342384 -0.0034878803 -0.012156806 0.08639619 0.019312102 0.052639958 -0.16072841 -0.00937818 0.07826151 -0.086380936
矣 0.13088508 0.3991865 0.17538682 -0.029078316 -0.327254 -0.097000204 0.12935112 0.044259932 -0.0852807 -0.00036699185 -0.028272577 -0.05655605 0.07591861 -0.09044966 -0.04680138 0.10760636 -0.09090803 0.20176418 0.12941563 0.087763295 0.12240985 -0.04382958 -0.18334499 -0.015150021 0.018992456 -0.22316878 0.18102072 0.12805967 -0.024459023 -0.123725966 -0.17585754 0.099624224 0.19832301 0.22577576 -0.08410054 0.106634125 -0.0063528093 0.09780108 -0.17836042 0.101013325 -0.11493534 -0.2272339 0.0011064549 -0.04225534 -0.045881327 0.098551266 -0.08091492 0.045418058 0.08934862 -0.037326425
为 -0.030997554 0.39240474 0.1524532 0.11701366 0.0076475847 -0.04661992 -0.10371095 -0.06749137 0.32412234 -0.057309154 -0.051033918 -0.04198642 -0.12182877 0.12783924 0.15915734 0.07906029 0.24421562 -0.036826763 0.044598058 -0.06605419 -0.12131149 -0.24093418 -0.3170057 -0.023175422 0.085990556 -0.34873813 -0.027833497 -0.122791484 -0.10427126 -0.057471614 -0.024497595 0.06964135 -0.23075098 0.060424205 -0.12138086 -0.015670398 0.15233654 -0.12903264 -0.22458136 0.17687193 0.12472869 -0.09144318 -0.061632715 0.0771773 0.25266993 0.088835806 -0.10645696 0.08683629 -0.11742049 0.11547747
君 -0.016668722 0.3472708 0.07690468 0.07989764 0.07180592 -0.16815506 -0.12675364 -0.042195465 -0.052876666 0.04790037 -0.06776901 0.14372978 -0.037178922 -0.12751383 0.0064440444 -0.16426472 0.25585672 -0.09102043 0.22453067 -0.07765854 0.0056087426 -0.018681897 -0.25799042 -0.016720533 0.1664648 -0.092628 -0.14116804 -0.13396941 0.083642796 0.0015865865 -0.17680623 -0.009123828 0.12220912 0.3444689 0.16892864 0.08051484 0.09359248 0.055530053 -0.24228433 0.11440794 -0.057531055 -0.011865538 0.04042326 0.15488271 0.18323953 -0.036673322 -0.14000317 0.027481431 -0.12612869 -0.13732879
乎 -0.2524062 0.34479004 -0.18891656 0.19557203 0.08384634 -0.017494556 0.26372313 0.10561015 -0.15337408 0.017748987 0.12181947 -0.16867588 -0.026998846 -0.2803896 0.13101073 -0.10796672 -0.038504988 -0.0090339165 0.10732156 -0.100339316 0.20421793 0.0016814924 -0.22762844 -0.065805584 0.11069211 -0.025141554 -0.02164521 -0.0837598 0.09606083 0.044930547 -0.07478432 0.013706717 0.12040137 0.45453253 -0.08436937 -0.0009171944 -0.009732446 0.2124731 -0.37779367 -0.09779766 0.11569712 0.04004113 -0.024887094 0.3965514 -0.0101254275 0.06687011 -0.08793638 0.20015478 -0.06696928 -0.005971479
可 -0.12849261 0.4554086 0.05656829 -0.18537651 0.25072706 0.07809365 -0.025211079 -0.22823362 -0.052490596 0.1088613 0.10185602 -0.15036719 -0.14583756 -0.09410799 -0.038761847 -0.0910367 -0.04813391 0.23366156 0.08025625 -0.07472453 -0.045145877 -0.12839063 -0.031660594 -0.18761626 0.11059849 0.2386425 -0.19050097 -0.1476711 0.19981872 0.22784302 0.050252993 0.21284518 0.119760044 0.11418849 -0.03151609 -0.07390929 -0.14103396 -0.13109674 -0.06634615 -0.2969909 -0.17647073 -0.21605022 -0.16484948 0.06434233 0.15391445 0.1578455 -0.1796636 0.04398749 0.04830317 -0.11075683
如 0.014442353 0.46445212 -0.01017355 -0.15374796 -0.10540039 -0.024091551 0.15806954 -0.3507022 -0.17394102 -0.0022678156 -0.077567145 -0.13700134 0.0873491 0.05960814 0.1302031 -0.023171695 0.20393492 0.009010215 0.049978763 -0.17861782 -0.12169079 -0.059445478 -0.037584886 -0.14017896 -0.11724436 -0.04761676 0.3542891 0.14033476 0.0031093801 0.06849003 -0.12062842 0.019368866 0.19066717 0.1910567 -0.072648 -0.09931731 -0.19346572 0.18333992 -0.13414736 -0.21569246 -0.029157316 -0.060292806 -0.023701685 -0.019925274 -0.2703185 -0.22230831 -0.09963971 -0.13412058 -0.0062434673 -0.009725846
与 -0.1587164 0.3519525 -0.06488917 -0.06539559 -0.12959647 -0.011953127 0.12465755 -0.10468099 0.10195399 0.0817082 -0.17665792 0.031452604 0.18837486 -0.034925647 -0.07436776 0.078788504 -0.12878826 -0.12303125 -0.16025722 -0.037866313 0.0341506 -0.09725499 -0.014809082 -0.2284543 0.037955355 0.10096929 0.1512484 0.31487596 0.017478764 0.06390523 0.06847062 0.1321124 -0.06100273 0.08777333 0.0051825726 -0.11943349 -0.13523757 -0.06493483 -0.15055247 0.015221246 0.17771651 0.11010545 -0.0311327 0.11707838 -0.17001459 -0.057978246 -0.12118739 -0.002187984 0.15086631 0.16389424
； -0.16429965 0.6716542 0.16687916 -0.14021218 0.055195406 0.02332195 0.028086308 -0.07705734 0.06245921 0.06646285 -0.31106758 -0.11191384 -0.02121519 -0.31682843 -0.12473618 -0.02774958 -0.027262148 -0.10807037 -0.1222725 -0.024544016 -0.21271038 -0.08783718 0.17402008 -0.076032914 0.18724932 0.1428446 -0.08800567 -0.009853736 0.26906657 0.100152664 0.121226035 0.08724366 -0.14896148 0.4287324 0.005154884 0.15869093 0.10528217 -0.12449469 0.19032586 -0.1405877 0.1592538 -0.2326551 -0.096980125 0.26025006 0.1326544 -0.03892745 -0.16086885 -0.09875012 -0.07559359 -0.36696082
言 0.14996623 0.5806092 0.18907063 -0.1313796 -0.4152151 0.017589454 0.060941346 0.029937552 0.0594328 0.17973086 -0.27296862 0.12640314 0.07957374 0.023425633 0.39010668 -0.16219412 -0.23043859 0.11995036 0.094789736 -0.10238109 0.0072408393 -0.057930235 -0.054266054 -0.29829922 0.12247588 -0.22598122 0.29458115 0.02536993 0.06563486 -0.35804236 -0.11839253 0.028006347 0.056357667 0.2502972 -0.045096874 -0.17691822 0.069739394 -0.1593408 -0.0708636 0.17356999 -0.12060846 -0.25315294 0.070613354 0.23428969 0.043459814 0.031371906 -0.13397881 -0.09943222 0.13718957 0.12323287
无 0.048325446 0.65299845 0.12219019 -0.07415261 0.2446307 -0.010068315 -0.10465056 -0.053049754 0.13629347 0.15891302 -0.078712 -0.081030376 0.079053484 -0.026368484 -0.13050099 -0.2247879 0.044178482 0.11149148 0.022443151 0.19228014 -0.12646349 0.059558682 0.14465028 0.077618316 0.0041749305 -0.21790116 0.12325352 -0.239472 0.1513579 -0.27285397 -0.1696871 0.13867696 0.08497462 0.28522113 -0.13744631 -0.20854822 0.18014272 0.15912707 0.117730685 0.110084385 0.081073694 0.16526704 -0.10513178 0.5081406 0.24054667 -0.33872843 -0.12168307 0.0050368956 0.066905476 -0.30078158
则 0.080777444 0.6428101 0.036394544 0.06970614 -0.0025272097 -0.1531638 0.17511518 0.2678591 -0.09299514 0.16883342 -0.21422249 0.06894103 -0.08832449 -0.012270498 -0.055149566 -0.038981967 0.2339656 -0.007857855 0.3203435 -0.038189173 -0.13039334 0.17160916 -0.36990878 0.17730442 -0.099404134 -0.03457673 0.2652433 0.026209146 -0.1643238 -0.3371559 0.15262695 -0.05218817 0.2715882 0.050986018 -0.2068455 -0.28124213 -0.023603369 0.099642895 0.18063961 0.2639539 0.020607477 -0.1413754 -0.047233608 -0.16901353 0.07992725 -0.1619682 -0.3548862 0.049029913 -0.1236184 0.39122698
！ -0.17201962 0.2521458 -0.20123899 0.13953485 -0.11640935 -0.0022194926 0.14312454 0.07299816 0.11164304 0.095987745 -0.06619696 0.20406322 -0.045858826 -0.0881523 0.048292954 0.051876843 -0.015197014 -0.0644991 0.26315612 0.11720325 0.047471043 -0.035374932 0.09896912 0.058586396 0.032688394 0.06960788 0.22108088 -0.007987541 -0.13285752 0.11923515 0.0830279 -0.004402519 -0.071917236 0.29444367 -0.07415726 0.10385496 -0.21919496 0.10236257 -0.36764228 0.0282056 0.22981395 0.06048696 -0.11369548 0.15877981 0.104433075 0.1452998 -0.075813785 -0.2651111 0.15046212 0.05123415
问 0.036112722 0.28693813 -0.11334014 0.32477188 -0.31856617 -0.14944501 0.35148808 -0.11989645 0.09475092 -0.15045162 -0.34814057 -0.17412041 0.025797581 0.12443408 0.028740788 0.22546947 0.06642784 -0.009104318 -0.016871352 0.22946745 0.04087594 0.22590266 -0.17551026 0.20113888 0.3436202 -0.28356707 0.046262864 0.077333085 -0.12046015 -0.17609648 0.13679309 0.1247242 -0.10013986 0.07135302 0.0997647 0.09304861 0.14367595 0.06904736 -0.38268495 0.07257752 0.19030902 0.12662655 0.14621247 0.056865048 0.1798096 0.13737082 -0.124796845 -0.13280001 -0.13159128 0.12530576
知 0.15682898 0.5202067 0.107746616 -0.0041497108 -0.03526266 0.05630847 -0.16555327 0.06545468 0.014915599 0.0037411386 0.11494303 0.039595522 0.15288593 0.22775906 0.18619369 -0.20341295 -0.0053620846 0.00095325056 -0.047700025 0.05624028 -0.03709956 0.032161772 -0.034416232 0.04426844 0.13712174 -0.067289755 -0.0997158 -0.16102888 -0.005601603 -0.2431533 0.006633696 0.22254013 -0.18636687 0.16443972 -0.19747886 -0.06489161 0.00259633 -0.19329646 -0.09991046 0.037414577 0.31421828 -0.23108387 0.18141133 0.2401221 0.10043364 0.01892374 0.038199615 0.17126673 -4.4529326e-05 0.026143229
何 -0.0009983676 0.3221541 0.0037680408 -0.06437883 0.015384276 -0.024063598 0.16248421 -0.20040323 -0.044549067 0.14025535 0.043112963 -0.15237743 0.080649115 -0.0005265372 0.12818934 0.0064086113 -0.19483458 -0.025143344 0.09843918 0.11417259 -0.019707216 -0.14302981 -0.21461327 -0.03369664 -0.06586225 0.13063847 0.09621086 0.07383404 -0.021612214 0.17952909 0.19229975 0.27603957 0.4129113 0.23720366 -0.023218147 -0.054417286 -0.21820553 0.26027784 -0.5033713 -0.06732206 -0.1553077 0.09810694 -0.045336466 0.1337363 -0.11381747 -0.16161023 -0.0007219161 -0.037089065 0.022554256 -0.15942213
吾 -0.019130794 0.39771092 -0.23713833 -0.2115753 -0.30223033 0.12649514 0.1998811 -0.09262503 -0.2928939 -0.15509978 0.10361276 -0.014411246 0.15651312 0.082216285 0.16662793 0.19927955 -0.014515017 -0.03877503 -0.09778386 0.21804856 0.25076517 0.1323982 -0.1380347 -0.075839356 -0.19432591 0.1114494 -0.0877693 0.24760233 0.00076510245 0.06440292 0.17129517 -0.04074374 0.06821178 -0.19219954 -0.17468877 -0.046879724 -0.09783378 -0.07828707 -0.21791896 0.30130953 0.026470978 0.23800224 0.15300146 0.39876935 0.003245152 -0.041294448 -0.0071288496 -0.12374566 0.014603146 -0.009800853
仁 0.06875353 0.3915691 -0.063021414 0.15959333 -0.06558646 -0.24258274 -0.004300727 -0.26999283 -0.07029673 0.14259863 -0.14673808 0.053741664 -0.003392167 0.04105592 -0.16449854 0.028954025 0.15042019 0.1430868 0.097049624 0.19661942 -0.038160663 0.02371295 -0.10300583 0.0064603053 0.030021638 0.04464837 -0.01900027 -0.2105378 0.09472539 0.1437118 0.042625576 0.091499545 0.0057704505 -0.089933954 -0.006395346 0.12915128 -0.14583825 -0.043565594 -0.20140502 -0.024024792 0.1476663 -0.06663905 0.20801747 0.07276787 0.064673506 0.23230314 -0.062435433 0.0030656466 0.15288787 -0.08252174
夫 -0.09336387 0.3716148 0.059592653 -0.0029629003 -0.05717185 0.25759834 0.03675847 0.04417381 0.027724812 -0.019066634 -0.009466675 -0.1827217 0.1407425 -0.04723913 0.07449984 -0.095959395 -0.36456633 0.052568424 -0.19634841 0.09370624 -0.07800388 -0.2000999 0.063478164 -0.06411729 -0.006094959 -0.15414155 -0.018358517 0.16368628 -0.08790998 -6.93514e-05 -0.13526148 0.20917906 -0.18076456 0.29368284 0.12034863 0.045333594 -0.032469817 0.17124428 -0.2628091 -0.10609938 -0.07328832 0.13477671 -0.027750278 0.19256327 0.07532076 0.34697407 -0.11850465 -0.006937149 -0.08352228 -0.21057126
、 0.21083559 0.28742194 -0.35966507 0.39853495 0.03196677 0.15164286 0.22570561 -0.07079097 0.28280783 -0.095977455 -0.15674925 0.08024147 -0.13115782 0.20967585 0.1598531 0.19472367 -0.19324696 -0.07152714 0.17734253 -0.22186501 0.049462236 -0.41793403 -0.10868188 -0.08860459 0.4659852 -0.16091892 0.4371123 -0.11031377 -0.179895 0.19998828 0.08156332 -0.16530174 0.11709821 -0.051637925 -0.33820483 0.25406885 -0.1366034 -0.22125097 -0.17435497 -0.14016156 -0.047263887 0.014435099 -0.16266079 0.40297824 0.017639756 0.1196024 -0.26940805 -0.23083869 0.011675902 0.027867341
道 -0.10275529 0.49707383 0.019361902 0.015289072 -0.36811355 0.1312822 0.15372953 0.062088486 -0.16219151 -0.046704113 0.11004327 -0.07410677 0.16598576 -0.14224455 0.08377254 -0.058796637 0.20507221 0.06491715 0.06477184 0.12958394 -0.03769796 -0.04044356 -0.08808434 0.16178519 0.11834769 -0.12773012 0.0058722366 -0.18082446 -0.08604445 -0.012727344 -0.15856515 -0.11369702 -0.059403174 0.21559925 0.07875226 0.0073350207 -0.38362354 0.062284462 -0.0791188 0.13495009 -0.008895639 0.10547009 -0.009495441 0.006032981 -0.074209824 0.13113225 -0.09597676 0.13914524 0.1572404 -0.055516217
焉 0.04520665 0.40370917 0.09902805 -0.0068424237 -0.23223452 0.0034190565 0.008794447 0.031999096 -0.022755435 0.19360906 0.038948007 -0.05654511 -0.06223201 -0.04783797 -0.077265 -0.15011959 0.07279947 -0.17140365 0.1760925 0.105694816 -0.060875263 0.0005285408 -0.15381551 0.32209074 0.046013918 -0.1452713 -0.02983735 -0.22883292 -0.032010127 0.20416091 0.034458563 0.06801396 0.13145563 0.1715509 0.026793495 -0.06529434 -0.18126518 -0.2752306 -0.009832337 -0.21825282 -0.19969718 0.14094742 -0.06410095 -0.02208272 -0.0677742 -0.084087 -0.17853403 0.008269901 -0.015484644 -0.027317915
行 -0.10267295 0.46561027 -0.022420375 0.047016982 -0.13196139 -0.13521115 0.020352598 0.05109248 0.060193818 -0.11322124 -0.13150802 -0.19935632 0.22923826 0.088808894 -0.048401788 0.017028093 -0.1424491 0.14928168 0.2875568 0.1700171 0.026309578 0.26061586 0.38474613 -0.031039327 -0.0026829056 0.07943827 -0.01884759 0.06978586 0.058938228 -0.1652392 -0.16569194 0.20543364 0.07019892 0.062421523 -0.031384356 -0.35965547 -0.09209381 -0.05995256 -0.05561982 0.030761402 -0.027078323 -0.04700999 0.0720111 0.30351636 0.025537722 0.039874677 -0.12782963 -0.15391298 -0.20683093 0.17070967
谓 0.024595732 0.28403458 0.10718566 0.11820416 0.07609685 0.11989656 -0.020252964 0.064145565 -0.2928524 0.18758911 0.15001573 -0.09815504 0.37551695 -0.3350569 -0.12466324 -0.0009690039 -0.027302653 0.13907692 0.082170226 -0.09898208 -0.19596156 -0.05398686 0.09180803 0.0151131945 0.2540934 0.14625408 -0.11511938 -0.123721644 0.32641637 0.1065273 0.17258324 -0.20328847 -0.06296026 0.0130841825 -0.051004257 0.18649098 0.134339 -0.11583683 -0.27822182 -0.1664183 0.34901533 -0.14429232 -0.044824105 0.049746264 0.07126607 -0.027889922 -0.032766104 -0.13245757 -0.33284402 -0.2861496
必 -0.032045297 0.48015872 0.05749452 0.14426988 -0.019061007 -0.025012547 -0.1975591 0.10849572 -0.16012533 -0.487598 0.007894129 -0.057078853 -0.056220442 0.29336643 -0.13116825 -0.109128155 -0.19510671 -0.053182695 -0.09657459 -0.16724844 -0.057240993 -0.0010698887 0.047732096 -0.08391995 -0.22664179 0.06690578 -0.15423511 0.20714939 -0.022447472 0.25451094 0.10705074 -0.13248546 0.042493332 -0.017768206 0.21425505 0.021442786 -0.04217661 -0.20485225 -0.03281274 -0.03043517 -0.15556891 -0.010745881 -0.06550138 0.01794738 0.1153874 -0.141519 -0.00998921 0.10336088 0.21818526 -0.09833805
礼 0.20414126 0.49975422 -0.06503208 0.116551444 0.026399221 0.15559942 0.21353787 0.09006286 -0.15291832 -0.26328662 -0.02726604 -0.013933541 -0.20364907 0.013244513 -0.03170549 -0.35131168 -0.38558537 0.18215814 0.126275 0.1652258 0.1516143 0.067930095 -0.026988855 0.30383167 0.03608592 0.43659264 -0.27243 -0.067650214 -0.27296335 -0.07456473 -0.07028249 0.022790965 -0.26320487 0.26731125 -0.28939298 0.005514397 0.23723431 -0.089903764 -0.061369225 -0.08027604 0.040186435 -0.0316313 -0.26520893 -0.018081192 -0.055536702 -0.059644297 0.24015975 0.041225355 0.10483925 0.21298544
孔 -0.21676673 0.3398244 -0.19341634 -0.113565564 -0.1340124 -0.1685185 -0.19676991 0.21578787 -0.20948371 -0.044185415 -0.17175695 -0.1869172 0.1037033 0.063281365 0.20630711 0.03240065 -0.011680374 0.010988621 -0.022325695 0.40376344 0.13529325 0.22017898 -0.011523442 0.051437356 -0.060679443 0.06773682 0.30989245 -0.07197062 0.24801742 0.059499122 0.013089584 0.18669881 -0.010601995 0.07354601 0.17039646 -0.010050247 -0.074975476 -0.030535841 -0.48597968 -0.0028475588 0.14775841 0.12197897 0.1929521 0.1551003 -0.024059637 -0.005471336 -0.13957573 -0.31836724 -0.0024675517 -0.14642407
斯 0.14726523 0.4464648 0.032168325 -0.01892217 -0.14275607 -0.0082588345 -0.06547793 -0.0696023 -0.16153866 0.22832064 0.40004984 -0.103686824 -0.01843287 -0.10763746 -0.10144956 -0.012707551 -0.18898267 0.09471997 -0.122877225 -0.11064273 0.020251635 -0.048508108 0.12319235 0.22498171 0.08222081 0.30750522 -0.02540276 0.17454113 0.47426507 -0.17005228 -0.037809107 0.038374186 0.011194479 -0.31140265 -0.034424976 0.013552317 -0.08803062 0.009213555 -0.08466334 0.086802244 -0.22318529 0.100018315 0.055661187 0.124411516 0.027786713 -0.3130911 -0.13837579 -0.09942054 -0.1688383 0.16642518
三 0.0028031871 0.3885828 0.0417143 0.30490908 -0.015046152 0.04195645 0.11578233 -0.14076197 0.21559797 -0.16751087 -0.041665487 -0.082673535 -0.10227816 0.038512293 -0.14719293 -0.05143905 -0.13032337 -0.20540676 0.027743196 0.091265865 -0.08779156 -0.06647511 0.2821831 0.21391831 0.06040684 0.10720057 0.050911713 -0.50762063 -0.061499797 0.02868127 0.27707496 0.064924926 0.07218755 0.17091897 -0.05354932 -0.059407607 -0.1012864 0.120472796 -0.1854271 0.0077340472 -0.022340693 -0.11224716 0.1884311 0.106725596 0.2178744 -0.1402669 -0.31971776 0.23028837 0.0321257 -0.061111454
能 0.034158852 0.53109443 0.16101494 -0.19571738 -0.08328638 0.33990937 0.014361903 -0.12375836 0.17297588 0.2610967 -0.17622235 0.009647054 -0.12644577 0.09400647 -0.17565562 0.18055849 0.3680308 0.07439891 -0.12515378 -0.030755771 0.16374828 -0.15103391 0.10188067 -0.13389812 -0.09017201 0.2183751 0.13984604 0.11569646 -0.024386832 0.18867134 0.16578378 -0.016415928 0.010463377 0.065447636 0.10031941 -0.30789527 -0.5545005 -0.08305352 0.055649187 0.24944143 0.20155999 0.07992548 -0.19536872 0.062348634 0.2223987 -0.044292264 -0.08056129 -0.16870655 -0.17056085 -0.18339783
见 -0.14511326 0.44033167 0.046407565 0.13559368 -0.0375457 0.16603634 0.26472563 -0.04224733 0.054818146 -0.0598613 -0.22069734 0.073842965 0.008024049 0.08225849 0.1625074 -0.016592804 -0.05529729 0.14461578 0.0441802 0.015003052 0.048095524 -0.19012609 -0.0067029567 -0.19918644 -0.01621015 0.15649562 0.17382771 -0.21317457 0.1604339 -0.13244867 -0.033115923 0.14642334 -0.20822583 0.14120036 0.21507356 0.043037724 -0.30498603 0.23789573 -0.033460185 -0.24663615 0.050816298 0.014684839 0.11666673 0.18576871 0.0853138 -0.17318156 0.06389953 -0.24373169 -0.034601763 -0.14111076
学 -0.037057184 0.5801305 0.18968454 0.063518055 -0.010004557 -0.057899058 0.17800207 0.1869617 -0.047498077 -0.017431954 -0.04682962 0.10365409 0.18775874 0.07017745 -0.09656684 -0.32318377 0.2838459 0.18145154 -0.041683108 0.01996005 0.0788073 0.11897496 -0.07135156 0.21940617 -0.14474817 0.011328978 -0.014680659 0.11777164 -0.13441788 -0.057145376 -0.08367985 0.15779921 -0.015787743 0.21620575 -0.24880736 -0.15131994 -0.22684251 -0.20643106 0.03532587 0.48269898 0.15893835 -0.036404904 -0.34967816 -0.07320603 0.09106336 -0.014947764 -0.14899652 -0.02219184 0.09598648 -0.028397493
事 -0.14320953 0.4240626 -0.22780073 0.10734901 -0.010385043 0.13672115 0.3708072 0.07456476 0.03154086 0.006706165 0.05861786 0.08688255 0.22005521 -0.16516031 0.096487835 -0.028846797 0.11204992 -0.06338946 -0.077277176 0.028261501 -0.030980103 -0.030402359 0.026517773 0.097614035 0.1334333 0.259407 -0.026620205 0.17995068 -0.13753979 0.44351357 -0.07727191 -0.2518799 -0.058420703 0.04107956 0.22865783 0.1957186 0.03491075 0.19188671 -0.07518129 0.09891146 -0.16161351 -0.034101106 -0.14553672 -0.006470982 0.038511902 -0.061760377 -0.17509478 0.18293762 -0.06189062 0.17188707
是 -0.25459376 0.48076656 0.086406395 0.022869242 -0.08481512 0.080681056 -0.25927174 0.030363712 -0.15310529 0.16767369 -0.2336564 -0.04310446 0.12021219 -0.2086483 -0.11073975 0.0062792148 0.23847285 -0.16189423 -0.27487406 0.06910444 -0.03975016 -0.19119723 -0.024330292 -0.25589693 0.04065702 0.13748406 0.359467 0.14488861 0.058844727 0.08300479 0.1301347 0.13947362 -0.013209842 0.053286713 0.19939664 -0.09689229 0.032854658 0.118176624 -0.09558838 0.14504637 0.15020639 0.12983653 0.06502098 0.0078104143 0.18901445 -0.14042069 -0.101051524 0.17341195 0.057850882 0.02201074
哉 -0.015024741 0.38446313 -0.08970313 0.15612398 -0.009309192 0.18085724 0.2635879 0.14291665 0.0012758658 -0.003199338 0.09128545 0.3319732 0.018283088 0.09009785 -0.023881128 0.070058115 -0.09365536 0.21453568 0.16265193 0.20290823 -0.0021444093 0.00053297495 -0.086437464 0.21985403 -0.31633046 0.2948855 0.05196111 0.37321377 0.0824912 0.32380375 0.3852354 -0.16185845 -0.07610979 -0.043576445 -0.10803777 0.12778574 -0.06697534 -0.29298383 -0.4114544 -0.057998452 -0.06699798 -0.021936016 0.14184208 0.16199686 0.17125659 0.011250164 -0.06313634 0.11568142 0.09432774 -0.038039092
闻 -0.16649827 0.42013845 0.117828414 -0.023816526 -0.2748264 0.12975049 0.03133639 -0.011995959 -0.02999956 -0.24508458 0.019266084 0.12183455 0.008451027 -0.19709523 0.078520305 -0.38085163 -0.16319947 0.061184052 0.038578648 -0.01953737 -0.1838134 -0.16866663 -0.37411433 0.06482786 -0.09336829 0.2261894 0.14552388 0.2523407 -0.40702358 -0.04978667 0.27165675 -0.24914129 -0.056698658 0.15434921 0.010277238 -0.091821514 0.103155285 -0.10356394 -0.2882636 -0.02269901 -0.005945722 0.08779806 -0.06754452 -0.030586971 0.089270875 -0.15715778 0.2013241 -0.09912202 0.19240692 -0.09453634
未 0.033378843 0.4117321 -0.048084687 -0.14647742 -0.11156561 -0.13258202 0.140813 0.23683701 -0.13423747 -0.036753505 0.1203627 -0.12165239 -0.03909432 0.034803808 -0.13596696 0.018618342 -0.019641593 0.1974146 0.05593027 -0.055830806 -0.29816613 -0.10713472 0.048080616 -0.04418887 0.14871866 0.34356886 -0.1646874 -0.1332976 -0.10843759 -0.20911877 0.13478707 0.16344854 -0.022941787 -0.10333523 -0.16591991 0.098622486 -0.14040738 0.07779514 -0.15408863 0.18758947 -0.10498437 -0.0037605646 0.117284685 -0.13157043 -0.052727245 0.11050022 -0.021509638 0.27712736 -0.137237 -0.0488619
公 0.13059434 0.28983802 0.024527375 0.17703614 -0.032149374 -0.10551069 -0.17058372 -0.1183026 -0.080808796 0.02907778 -0.004181613 0.012013925 0.50748706 -0.004413056 0.14377725 0.05250046 -0.25579795 -0.15776327 -0.056010157 0.27414766 0.15124838 -0.28042194 -0.20262028 -0.030344285 0.0710124 -0.052551877 -0.104520895 -0.016973615 0.21041785 -0.048049074 0.48443806 0.15144207 0.0076060714 -0.12740393 -0.032664053 0.17414887 0.09247148 -0.12948313 -0.5053892 0.14243822 -0.082371645 -0.26876158 0.016179867 -0.025973761 -0.35430273 -0.32859498 -0.043794516 -0.12986954 0.06375614 0.3498144
好 -0.076490924 0.7860258 -0.2868284 -0.34383246 0.031967428 -0.09080623 0.09784739 0.17810878 -0.38251272 0.13547868 -0.000717802 0.31754765 0.3970749 0.20889135 -0.00968146 -0.2781979 0.23355858 0.1360046 -0.1813616 0.07526383 -0.30973104 0.0375629 -0.06704631 0.163978 -0.17663418 0.20004794 -0.21955012 0.07828971 -0.04544696 -0.061688125 -0.28055963 -0.010602856 -0.16121313 -0.09660094 -0.04204461 0.37441072 0.18846758 -0.422894 0.11539753 0.2443328 0.3051391 -0.18367423 -0.144434 -0.04873213 -0.009590856 0.049895585 -0.07738818 0.12687406 0.14151046 -0.32792577
我 0.15747486 0.3519473 0.21990374 -0.06313716 -0.103577055 -0.054412074 0.003921116 0.11350332 0.07469177 0.02083359 0.1337537 0.104395226 0.0020207483 -0.020562556 -0.062040344 0.066375524 -0.0059331404 -0.10690237 -0.15921722 0.12756763 -0.04521384 0.12763274 0.004789121 -0.16413957 0.15938123 0.19066717 -0.033819303 0.1998687 -0.10582562 0.045993812 0.20373586 0.23301625 0.1460424 0.03562899 -0.08884716 -0.29166186 0.2714958 0.2158465 -0.20366363 0.21712382 0.033640254 -0.035752796 0.12063761 0.01100945 0.16006564 -0.19370143 0.07540778 -0.17594825 -0.06832726 0.0072184675
路 0.10279656 0.4084472 -0.057715315 0.23851803 -0.016164795 -0.103903905 0.093324736 0.07421472 -0.16624372 0.05604354 -0.24223226 -0.042545103 0.24559836 -0.15564057 -0.034575537 0.12577987 -0.19179982 0.31145653 -0.052979656 0.14519534 -0.122248545 0.099134676 0.044205964 -0.024998982 0.15159538 0.00876653 0.1043012 -0.044322945 0.18407941 -0.10006043 -0.1751017 0.10880503 0.18330874 -0.023630114 0.1617888 -0.3332709 -0.14553598 0.13348776 -0.45128918 0.058867943 0.046182454 -0.05995041 0.158051 0.07374722 0.20868504 0.1162394 -0.03341014 -0.40332404 -0.055224344 -0.023493558
在 -0.280823 0.5805909 -0.0023420993 0.20373152 0.07547311 0.18955514 0.09204448 0.14986631 0.29195052 0.32834288 0.22531171 -0.28019664 0.5054125 0.0819803 0.07359116 0.21851693 -0.18780795 0.19774312 0.09058571 0.20197804 -0.15482742 -0.015604828 0.37361532 -0.19668706 0.10271589 0.14539759 0.23163742 0.2593319 0.14745462 0.2160463 0.078188635 0.005103234 -0.34934583 0.08211608 0.020973124 -0.036404446 0.1371514 0.16223113 0.13649246 0.0025842246 -0.043972638 0.04110061 0.2507853 -0.101798356 -0.5814583 -0.06968982 -0.10355938 -0.03462263 0.043663763 -0.06508349
已 0.05162289 0.26520818 -0.23742916 0.11143749 -0.26442662 0.09679335 0.031922292 -0.23187312 -0.1688271 -0.26056796 -0.1825466 0.15004665 -0.027029088 0.042468663 0.07611337 -0.014565025 -0.18263462 -0.122225344 -0.04703893 0.059487447 -0.22971508 0.12062448 0.34677547 -0.17823255 0.06006425 0.19333942 -0.026673403 0.09222938 0.22736046 -0.033953372 -0.13298035 0.23479208 0.030568521 -0.22341672 -0.2619001 0.09078076 -0.061244994 0.054930113 -0.2751428 0.038272694 -0.2430341 -0.105385385 0.05828817 -0.0908444 -0.060113277 0.10974309 -0.3750081 -0.25771132 -0.06842374 0.104072444
得 0.04347321 0.6506007 -0.068682864 0.0017542408 0.07824657 0.18896995 0.16528659 0.061228916 -0.05607355 0.051709857 -0.06359619 0.16272664 -0.018665949 0.22650003 -0.2845629 0.3078526 0.008412374 0.11280071 0.053971678 0.020299545 -0.25005016 0.028017756 -0.32952273 -0.06894117 0.12608631 -0.2446994 0.27736124 -0.07196618 -0.23228101 -0.03129106 0.08131334 0.20568047 -0.16146916 -0.110743985 0.12649506 0.1642289 0.07431508 0.16510116 0.16703625 -0.019338883 0.030596836 -0.12770869 -0.27966326 0.17900434 -0.093007274 -0.16345051 -0.27002707 -0.18456285 0.03977284 -0.15354033
所 0.2311099 0.56304246 0.045091093 0.108445905 -0.2507947 -0.00064210454 0.007000872 -0.09668824 -0.045378875 0.080367275 0.14293472 -0.015941236 -0.12116041 -0.12874708 -0.035104953 -0.18227518 0.06575086 -0.049574543 -0.076172404 -0.2087281 -0.4275279 0.23539232 0.18192214 0.22740903 -0.02870599 0.11124705 0.29380676 0.07478397 0.12462182 0.0031807083 0.26099914 -0.042868122 -0.07724334 -0.08679381 -0.20643188 -0.047417603 -0.09226653 0.16464713 0.008306342 0.08550679 0.13556023 0.030672867 0.075644076 0.27430442 -0.11445508 0.08729528 0.05142792 -0.059359066 0.090394355 0.09725144
民 0.34437096 0.5337973 -0.108895004 0.28303173 0.064755574 0.17314886 0.25328085 -0.10642567 0.12920989 0.19621854 -0.025272502 0.41925743 -0.029265922 0.061806086 0.04804165 -0.1256272 0.07800493 -0.38138583 -0.028723946 0.0075750817 -0.1718118 -0.06264857 -0.107021645 0.25100532 0.135603 -0.0549536 0.19742246 -0.08376257 0.11508272 -0.115935445 0.13642271 0.14191304 0.0605272 -0.001993197 -0.01638047 0.07610554 -0.14702342 -0.020373324 0.13387208 -0.087873116 -0.061268516 0.17364296 -0.052364264 -0.08858537 -0.026937993 0.072756134 -0.065043 -0.23916861 -0.004743631 0.196435
小 -0.0050218063 0.47457466 -0.25116393 0.0020552594 0.087968625 -0.093997605 0.05667495 0.15741414 0.10818787 0.0073383693 0.13798046 0.11200146 0.0031324085 0.0486096 -0.2406418 -0.19618694 -0.071747884 -0.15921098 0.028223839 0.11455241 -0.0023505986 -0.12039081 -0.21490152 -0.031845793 0.020399574 0.065531574 -0.16116248 0.17022143 0.100212306 -0.11633204 -0.2584868 0.26723424 0.21506245 0.3113226 -0.014457718 -0.11734145 0.041302122 -0.07972944 -0.052232545 -0.13885207 -0.00052630156 -0.03875185 -0.18081358 0.18842918 0.113182336 -0.3060449 -0.18761769 -0.04556475 0.31857848 -0.2527272
天 -0.051607177 0.47367272 0.1806012 0.043535717 -0.36465538 0.38089663 0.17663975 -0.35177362 -0.09601002 0.22758251 0.10403769 0.05197372 0.097100005 -0.341498 -0.06253178 -0.34549674 -0.05007465 -0.33954656 0.36590722 0.2679287 -0.06396322 0.07103225 0.010822149 0.19658956 0.12748934 0.041830473 0.29219955 0.0029148124 0.16295949 0.34691447 0.08033734 0.35370734 -0.2419023 0.062164724 0.13751554 -0.115851395 0.005522224 -0.29695764 -0.07565197 -0.22746576 -0.06754387 -0.113545 -0.022266448 0.048436787 0.013097784 0.060499176 0.17053977 -0.015784219 0.31064132 0.12461785
乐 -0.437482 0.59530693 -0.2191606 -0.028810214 -0.19190109 0.34100348 0.05889986 0.12062885 0.10405943 -0.2915317 0.11131972 -0.04762593 -0.2552434 0.16591108 -0.111833006 -0.29486617 -0.23972033 0.1986061 0.08206702 -0.43413734 -0.03880248 -0.028898826 -0.09238544 0.2853552 -0.41893455 0.28759494 -0.24307725 0.13194418 -0.13524318 -0.16839358 0.25071216 -0.5017208 0.046017274 0.09803105 0.17514782 0.2553464 0.17724307 -0.2844038 -0.061020095 -0.0021663671 -0.1913992 -0.12285174 -0.08489317 -0.09142663 0.075364724 0.08848592 0.29443926 0.25034535 0.22646017 0.3451024
邦 -0.4079173 0.48873872 0.082768045 0.05105352 0.19271363 0.12638488 -0.3106474 -0.034079883 -0.19483605 -0.071400225 0.2645953 -0.18754955 0.12902592 -0.20511739 0.045128733 -0.15816185 -0.2270443 -0.34834996 -0.16945232 0.22875597 0.021941196 -0.13909283 0.18736944 0.0011280775 -0.18738568 0.2628808 0.11273098 0.11317247 -0.3006013 0.14230014 0.18435472 0.06617366 -0.26852688 -0.06362821 0.30759376 0.116767645 -0.20216233 0.1360495 -0.013365601 0.35965592 -0.017427035 -0.17894664 -0.16977248 -0.011987796 0.19952512 -0.022144904 0.16768533 -0.18713556 0.07332841 0.12102907
亦 -0.12864329 0.38078088 -0.08535722 0.22895472 0.13574876 0.07065814 0.15366045 -0.16730958 0.06604864 0.15265931 0.25350007 -0.09995635 0.14353792 -0.39031854 -0.3109337 -0.3247997 -0.01706501 -0.15348038 0.21065085 -0.11094771 0.18159363 -0.06730352 0.010010584 0.09054099 0.07501052 0.07705943 -0.004006208 -0.12916733 0.09320481 0.03170843 0.04302456 0.029703125 -0.011943297 0.20197181 0.11638632 0.117544904 -0.011123486 -0.121618986 -0.30477324 -0.049174845 -0.09551172 -0.17023245 -0.18776555 0.014161024 0.17322794 0.23016001 0.052872725 0.46517953 -0.1441407 0.1923992
使 0.053577125 0.42462185 -0.071159184 -0.13163237 0.11992969 -0.14859505 0.11101554 0.15383017 -0.07517647 -0.1769644 -0.339241 -0.046762045 0.13065757 -0.067770384 -0.10047811 -0.43658224 0.22135507 0.042870782 0.050698183 -0.0026713237 0.050113 0.08988502 0.18342501 0.18312663 -0.041044135 -0.064296775 -0.15432493 0.14666748 -0.2526055 -0.26525635 -0.07391 0.13494216 0.029775357 0.21507286 0.16006175 -0.11640421 0.31149256 0.05789069 -0.27074826 0.2917533 -0.12622145 0.1300877 0.20285755 0.024320869 0.19170322 -0.13466045 -0.052571476 -0.04830397 -0.06654366 0.14762689
大 -0.092170626 0.5374724 -0.18279044 0.20225914 -0.03687637 0.40142334 0.06617518 0.11104043 0.16420336 -0.1253787 0.15129066 0.047758307 0.2407787 -0.07138885 0.020740084 -0.20597269 -0.032325733 0.054599114 0.27385098 0.30645204 0.1918401 -0.035113934 0.16351031 -0.28191936 0.16696443 -0.077117026 -0.04694854 -0.10873929 0.0879817 -0.1287214 -0.06755118 0.049593657 0.1658008 0.27694473 0.050219115 0.021422973 0.16199249 0.03365825 0.06566575 -0.15641552 -0.027846655 0.2580865 -0.047717188 0.25882116 -0.11271485 -0.30602193 -0.017873276 0.11925209 0.22452307 0.042143185
下 -0.17452128 0.5714879 -0.14591007 0.29197785 -0.17585036 0.31795153 0.13492146 -0.2039356 0.04164157 -0.24090342 -0.1958611 0.23424168 0.17191136 -0.24793859 0.20048997 -0.08655088 0.09437789 -0.5247774 0.30246553 -0.11102893 -0.1953553 0.061882656 -0.2849518 0.2575672 0.217298 -0.10537518 0.11839669 -0.26914656 0.37182507 -0.18230686 0.113861874 0.30168715 -0.2674391 -0.0744554 0.45716533 -0.09148589 -0.017444931 -0.20670612 -0.04383424 0.14797081 0.12071573 0.032605484 0.03445772 0.17811698 -0.16003864 0.030597834 -0.2525412 0.06909782 0.01503291 -0.13963044
贡 -0.06423473 0.22366461 0.026795274 0.19445968 0.2844181 -0.14728488 -0.02754267 -0.03580367 0.22772564 -0.07749897 0.06579761 -0.0913175 -0.2519276 0.00067264726 0.056209203 0.0059714788 0.12744959 -0.17511182 0.0770067 0.2698639 -0.03155705 -0.04330821 -0.17999251 0.11817559 0.08452192 -0.08115804 -0.16673747 0.010240192 0.07057267 -0.17982897 0.19385575 0.39454696 -0.007919628 0.21261352 -0.14482428 -0.04268696 0.15308644 0.081631824 -0.62809485 0.029494379 0.11351058 -0.21633421 -0.09281988 0.27002108 0.21965088 0.09988038 -0.06799459 -0.32587197 -0.06599634 -0.06248734
欲 0.14742519 0.41248384 -0.120559625 -0.061953492 0.23034288 0.023773074 0.26546812 -0.10101167 -0.13286029 -0.09369117 -0.07673408 0.017205002 0.08360163 -0.2098839 0.013282718 -0.09511156 0.0034917654 -0.04500281 0.1367451 0.058212914 -0.013702311 -0.19373979 0.03335472 -0.30043516 -0.20637433 0.04498268 -0.1811662 -0.20926253 0.0903344 -0.15534413 -0.5032409 0.021655602 -0.051460207 0.1189796 0.12952937 -0.0685934 -0.076218694 -0.047157243 -0.14637506 -0.06418684 -0.07941405 -0.013885139 0.12695634 -0.04848271 -0.13218375 -0.2853202 -0.10172879 -0.09179497 0.004187681 -0.118956745
诸 -0.123441085 0.37157387 0.42688602 -0.04516024 0.31605682 -0.017634038 0.15608011 0.05063548 0.019604834 0.010528308 0.13289854 -0.0152908545 0.14206983 -0.21729046 0.15112238 -0.057281226 -0.20130214 0.085415155 -0.10509282 0.35417327 0.073847815 -0.2817419 -0.11132843 0.13221008 -0.26094756 0.2564978 -0.20016481 -0.18833542 -0.3045266 0.123901576 -0.08771333 -0.10184975 0.4284014 -0.2736937 0.15227145 0.04594496 0.15202908 -0.16505149 -0.27140045 -0.170079 -0.023674995 0.001993287 -0.22541486 -0.07126411 0.05105986 -0.10777703 -0.07490787 -0.2544708 0.1607382 -0.13029882
从 -0.16568264 0.4374146 0.17012553 0.018884312 0.36289296 0.07482027 0.1622844 -0.04008607 0.06269822 -0.120156385 -0.27448323 0.266585 0.5144609 -0.083847575 0.14631325 0.39304024 -0.0068665105 0.1448849 -0.11079225 0.03860569 0.17330429 0.050453722 -0.03940534 0.11039846 -0.1495839 0.014135275 -0.05428742 0.3205821 0.2383433 -0.11482674 -0.1463215 -0.033043277 -0.11192405 -0.13647164 -0.11764468 -0.07044621 -0.5086347 -0.041335296 -0.16587551 -0.04946013 -0.023244873 -0.2903512 -0.07940619 -0.057172675 0.24207008 0.11194051 -0.089432456 -0.19487688 -0.015864901 0.041593704
文 0.08895291 0.34878266 0.025619004 -0.36316672 0.05898832 0.107100174 -0.10190502 0.21279696 0.03754271 -0.113898605 0.06301856 -0.11894108 0.13311209 -0.07790685 0.22927126 0.22495334 0.050083295 -0.087689124 0.2005715 0.22861099 0.1111045 -0.27851883 0.09656671 0.07597822 -0.07871632 -0.09487096 -0.120391265 0.04038443 -0.12154335 0.03570275 -0.1976725 -0.026963461 0.13732702 0.25421876 -0.03734067 0.22850543 -2.4475157e-05 0.17321731 -0.30289996 -0.0310635 0.40305325 -0.018066071 -0.073494665 -0.010892885 0.11790922 0.15239474 0.04627644 -0.0018062675 -0.050478477 0.14390238
政 -0.3721348 0.337438 0.20008454 0.23926643 -0.003504053 0.07561855 -0.24283186 0.08801517 -0.014352584 0.24444234 -0.09925765 0.09917268 0.11750399 0.21806347 0.060510956 -0.07983902 -0.11812056 0.07059923 -0.028925974 0.10159102 0.13984063 0.06330498 0.20527643 -0.16956237 0.0636979 0.06674301 0.0020322704 0.28265238 0.03223177 0.15693448 -0.16682637 0.20470947 -0.10571588 -0.08809243 -0.21655087 0.018980889 -0.13096471 0.16591994 -0.26207978 -0.0020107585 -0.27996397 0.18535991 -0.0064713005 -0.14160724 0.17378446 0.18886583 0.38168576 -0.17028509 0.16101915 0.12976511
食 -0.0955237 0.5573461 -0.060528684 -0.04028935 0.06517994 -0.020785963 0.18168241 -0.2969833 0.12862012 0.17614217 -0.17686956 0.1291075 -0.2171175 0.0038957351 0.41139424 0.1789603 0.0025970964 0.05018298 0.17766853 -0.075605884 -0.5969307 0.122979835 0.25322372 -0.23863378 -0.21191087 0.21865712 0.35690394 0.039219085 -0.3193437 0.12414928 0.25017974 0.057492804 0.0103748515 -0.084626496 0.13714072 -0.24484146 -0.07215206 -0.019275311 -0.07823669 -0.096640185 -0.021029532 0.070038095 0.033824123 0.24171081 0.13645357 0.10580942 -0.14941114 -0.27714205 -0.025881719 -0.11756939
善 -0.25961384 0.44834992 0.08483179 -0.12650912 0.04103035 0.11757252 0.3389777 -0.066060215 0.3647099 0.16350701 -0.021037266 0.010892327 0.09666405 0.38504997 0.06917 0.03608403 0.21127844 -0.08452147 0.10564436 0.03226924 0.29814002 0.16084541 0.19040264 -0.2082929 -0.20579301 -0.13037953 -0.063785896 0.023244668 -0.25538743 -0.050209917 0.0502211 -0.23735428 -0.011390529 -0.25745097 0.022754993 0.08803925 0.019988226 0.15092556 -0.017701602 0.088891506 0.46959728 0.06973163 -0.17136003 0.16886222 0.06508949 0.034400996 -0.19187188 0.13399746 -0.15736338 -0.1321138
后 0.13360785 0.46407294 -0.08714388 0.11134682 0.1809315 -0.1190963 0.22500321 0.15083385 0.122524865 -0.19781071 -0.09240938 0.11800915 0.20470208 -0.13393778 -0.036932807 0.10027695 -0.056826133 0.06578574 -0.28755802 0.19161704 0.035848062 -0.017125126 -0.16328233 -0.0032370482 -0.17418931 -0.06737636 -0.23787574 -0.31159624 -0.1398908 0.30458343 0.13940449 0.2095316 -0.03606667 0.1158697 0.028046649 0.07236974 -0.22966522 -0.04844373 0.015900616 -0.016197486 -0.42708755 0.1734236 -0.026849061 -0.23595013 0.17517456 0.12727623 -0.11772366 0.019364124 0.18164347 -0.041200627
德 -0.14902115 0.3735742 0.057224426 -0.11873789 0.03321112 0.034976088 0.18420228 0.11387889 -0.2722109 0.050788544 -0.03964181 -0.23089321 0.08549965 0.14887111 0.22135742 -0.20066898 0.050303247 -0.34916803 -0.05845618 0.07444145 -0.087895215 -0.24278197 0.0144909425 -0.07414888 -0.21274365 -0.14517006 0.0464707 -0.03579013 0.2924967 -0.18428737 0.013611928 0.1595011 0.34833318 -0.11276872 0.122335486 0.15932392 0.06547325 0.12353068 -0.19011074 -0.07260069 -0.14145817 -0.22196642 0.002182229 0.2384656 0.04466004 -0.13433015 -0.02405595 -0.21261042 0.110086344 -0.1284555
求 0.09586842 0.35031173 -0.13194646 0.044514958 -0.026191056 0.20687068 -0.10091089 -0.05341474 0.23690331 0.087586045 0.1283192 0.10156064 0.053187698 -0.20130558 0.06729046 -0.05668586 0.008276568 0.01831355 -0.1491793 -0.001998106 0.012733939 -0.2043038 0.20376575 0.103059866 -0.13380115 -0.18726805 -0.19559714 -0.09587905 -0.045725595 -0.28195414 -0.108279005 -0.054104913 -0.10840111 -0.21524091 0.0905097 -0.03686906 0.16946688 0.21285163 -0.20062307 -0.0165657 0.00058732345 0.12755793 0.1841052 0.18131074 0.25106496 0.14397345 -0.26736298 0.19852985 0.12586159 0.07790411
对 0.10910111 0.24255249 -0.060680944 -0.01449171 -0.12638515 -0.039606374 0.11017423 0.24486534 -0.26090208 0.07844691 -0.09153003 -0.013468282 0.0800419 0.12540348 -0.020282274 -0.26027322 -0.13415068 0.1710483 -0.10504494 0.1049221 -0.14536177 -0.20079312 -0.38038754 -0.21700357 -0.20811267 0.4493333 -0.024183184 -0.029487157 0.002032428 -0.10121686 0.05408516 -0.16389436 -0.28514633 0.0051104883 -0.107262656 -0.27130133 -0.24757363 0.08988927 -0.62556773 0.2712157 0.21917072 0.058007758 -0.024885237 -0.07632263 -0.5403607 0.05182866 -0.35528496 0.16679585 -0.18122889 -0.20814857
恶 -0.012465429 0.570081 0.04350312 0.043749798 -0.012081632 0.0900287 0.057564937 -0.2416749 0.23114794 0.1327558 0.2720339 0.18352015 -0.044375084 -0.18940763 -0.036154702 -0.11663015 -0.06113633 -0.36704612 0.29033563 -0.07907566 0.15943508 0.084004134 0.07286767 0.38898665 -0.07971121 -0.36264843 -0.34602082 -0.17162701 0.35934824 -0.09321777 -0.19285887 0.093350664 -0.06844155 0.028761104 0.13056342 0.013651213 0.19242287 0.026916504 -0.02804501 0.05382761 -0.27904466 -0.23644108 -0.13554086 0.21634158 0.10139098 -0.10068963 0.1428933 0.17160943 0.309412 -0.037164226
信 0.16064422 0.75758106 -0.22034836 0.03006953 -0.114651784 -0.0218921 0.20479521 0.30813766 0.03781101 0.1778258 -0.14611399 0.22803256 -0.014490286 0.115430325 0.038441416 0.074965574 0.4481471 0.02959223 0.13126376 0.09246712 0.018123694 0.043501318 -0.1281656 -0.042348042 -0.08421847 -0.23871106 -0.19225496 -0.022690011 -0.2851113 0.008046459 -0.15341091 0.1464137 0.15081269 -0.062852465 0.016901746 0.040405557 -0.13569494 -0.21118788 0.22586063 0.3072196 -0.24290408 -0.003071459 -0.081607714 -0.05600067 0.1738998 -0.08067875 -0.327357 0.010093979 0.013927683 0.049223717
死 0.18776184 0.47270793 -0.3111651 -0.29094735 0.21911336 -0.18647781 0.07356229 -0.22083299 0.03646347 0.0584322 0.033464573 -0.0813023 0.13401529 0.14470315 -0.27971256 0.14391673 0.21952729 -0.09733826 -0.4036867 0.053840946 -0.16501617 -0.17083493 0.16130206 0.07748484 -0.19304144 -0.08911789 0.24518858 -0.21015409 0.050029837 0.14409532 0.0020326306 0.42600182 0.08462082 0.012137809 -0.101091705 0.17426051 0.17352106 -0.08097307 -0.064458966 -0.022191403 -0.069936864 -0.2816054 0.04744371 0.20619449 -0.07865159 -0.11011484 0.083432786 -0.16376737 -0.03781405 0.34063748
然 0.051985368 0.39101753 -0.30751857 0.020580165 0.09494646 0.021803938 0.18413973 0.035987742 -0.2990233 -0.20113426 -0.09394967 -0.0015019891 0.045728646 -0.15064162 -0.16919234 -0.14748397 -0.07306415 0.020297334 -0.07246786 0.242586 -0.14389084 0.035770517 -0.27816293 -0.16058695 -0.06939917 -0.028248237 0.11671874 -0.22782785 -0.2189904 0.0167317 0.332242 0.2420755 -0.1977723 -0.0069745793 0.0037101782 -0.057987165 -0.3148112 0.03319377 -0.23807023 -0.46347514 0.02590651 0.11292674 0.29052642 -0.02811065 0.16949409 0.09128332 -0.17848186 0.13309287 0.08435912 -0.0039016248
《 0.22809759 0.49193013 -0.15070058 0.25041285 -0.013718732 0.16137956 0.39080796 0.050669283 0.019126551 -0.058302946 0.059030548 0.19213788 -0.29393122 0.06327583 0.11714787 -0.037673034 -0.11163734 0.38094914 -0.06971428 -0.0441982 -0.009569609 -0.05018081 -0.2706617 0.16363399 0.036794405 0.06793149 -0.10675344 0.0086735925 -0.21232852 -0.023144403 0.29656726 -0.108507514 -0.10369009 0.06873961 -0.15508045 -0.17655863 -0.15997873 -0.14313929 -0.21451324 0.10608821 0.015816355 -0.062416144 -0.27814078 -0.13834032 -0.14656408 -0.15621844 0.10149474 -0.1178097 0.07309483 0.10476873
》 0.14953436 0.49963713 -0.084253564 0.18942484 0.029478969 0.09708414 0.22713095 -0.052006043 0.119776756 -0.0882564 0.07426677 0.06599445 -0.5181158 0.043480292 0.1225233 -0.0993022 -0.04028508 0.41846806 -0.26081118 -0.20655015 0.080545366 -0.118900426 -0.25198376 0.023729121 0.036097836 0.14722571 -0.19605167 -0.0564484 -0.19895828 0.003353192 0.049531676 -0.10775886 -0.075991526 0.12489978 -0.05931846 0.010826444 -0.10067542 -0.13227531 -0.22809415 0.027732192 0.027771514 -0.2251389 -0.34989733 -0.055028476 -0.16520081 -0.12033793 0.07475806 -0.04231538 -0.0071306853 -0.030204587
由 0.09231191 0.35768119 0.20646282 -0.24579257 0.0780586 0.15039971 0.043843675 0.15148708 0.038293626 0.10577049 0.24136734 -0.15359604 0.17694241 0.011637725 0.20058277 0.029071033 0.31329504 -0.050327055 0.109855086 -0.040962555 -0.43946838 0.016718533 -0.30172744 0.048239652 -0.2695538 -0.08716585 -0.1513336 -0.048441734 0.082076 -0.19412741 0.09673418 0.11311485 0.060743816 -0.2250891 0.18335834 -0.38137254 0.09388089 -0.039222617 -0.3125605 0.02444075 -0.1360493 0.2215883 0.08437949 -0.082697384 0.41552463 0.24100186 0.10908468 -0.08708215 0.12683101 -0.038895577
仲 -0.28734332 0.3397351 -0.15701447 0.02037504 0.03054001 0.20576589 0.115753844 -0.14136949 0.41203755 0.032916278 -0.07259616 -0.16939284 -0.23025496 -0.009457126 0.3775645 -0.1823937 0.16870876 -0.019553075 -0.04532747 -0.14474249 -0.11572879 -0.49096552 0.08974684 -0.16633424 0.07944498 -0.3787267 -0.14497422 0.014113846 -0.060517833 -0.08507663 0.14489824 0.2557053 -0.12492081 0.14825329 -0.03239662 0.013447192 -0.10750478 0.076928236 -0.514016 0.07438345 -0.023366772 -0.3005564 -0.01261309 0.46612087 -0.15168779 0.27515528 -0.18189457 -0.26998156 -0.21040346 -0.04305012
非 0.07723731 0.49240446 0.005752309 -0.24711958 -0.09554462 -0.33024055 0.2733811 -0.091223545 0.01692829 -0.12566157 0.18819676 -0.36681923 0.14898336 -0.110074796 -0.19809957 0.043052945 -0.049672455 0.29305726 0.28539085 -0.15185095 0.012815177 -0.39105928 -0.31595895 0.051002428 -0.12432762 -0.23996861 -0.0878456 -0.5308485 -0.15052003 -0.06670105 -0.15553167 0.056125194 -0.015884727 -0.30324528 0.032195296 -0.3165121 -0.014728962 0.21828347 -0.19076282 -0.11937251 0.011224004 -0.14753267 0.17998761 0.06270695 0.12463926 -0.0048401533 -0.15508999 0.02104525 0.15341303 -0.14506945
出 -0.07779996 0.4363086 0.29523945 -0.070992306 0.3418535 0.3451107 0.08253763 -0.24510041 0.03960531 0.15765606 -0.18558711 -0.08054184 0.06039763 0.23339543 0.030199356 0.060545914 0.16339517 0.008529257 0.074960865 0.02254646 0.26336837 -0.35689053 -0.070737794 -0.08384917 0.012201553 -0.27023897 -0.557257 0.1337661 0.009506255 -0.06637647 0.1544615 0.29144588 -0.028093873 -0.23411557 -0.29215574 -0.1309805 0.17650972 -0.01037667 -0.1762962 -0.15237577 -0.30673152 0.52413905 0.2022015 -0.08560125 -0.054061603 -0.04261347 0.2537248 -0.42954051 0.28276956 -0.19213532
过 0.047018833 0.55531365 0.061609417 0.0195518 -0.16975807 -0.1777995 -0.056897543 0.116230264 -0.2262512 -0.22578548 0.3172409 0.01872328 -0.0811799 0.06916111 0.24767858 0.05318756 -0.18427671 0.12239693 0.18534362 0.38782698 -0.09396132 -0.07659398 0.10799309 0.035286333 -0.048432544 0.11699347 0.3556471 0.24968086 0.24059062 0.058547635 -0.2203376 0.12728189 -0.28135303 0.40097544 0.00047644693 -0.3371108 -0.060001865 -0.028544823 -0.062400814 -0.22289105 0.23904678 -0.040761184 -0.013248848 -0.14469433 -0.04918025 -0.11715112 -0.16649343 -0.45915243 0.044497084 3.6428217e-05
一 0.07563733 0.5496026 0.110735364 0.0028402358 -0.09893039 0.2563748 0.21194977 -0.12931386 0.18775804 0.11811228 0.25965828 -0.05962485 0.019846132 0.0912966 0.25159252 0.015074746 -0.31191978 0.28648278 0.1517062 -0.25363636 -0.29086715 0.2022188 -0.023598304 -0.15322231 0.15881574 -0.21828422 -0.011856415 -0.30446604 -0.1735926 -0.12363637 0.06707464 0.24438503 0.23397593 0.22880897 -0.2846617 -0.09775043 0.18873392 -0.0743347 -0.16454905 0.051703032 0.1689036 -0.12925966 0.06784427 0.30333105 -0.17763862 0.10047159 0.024138354 0.2165887 0.0661026 -0.042929683
虽 0.14112453 0.61700225 -0.17065644 0.17272831 -0.19195941 0.10256149 -0.081171796 0.16300485 -0.20760462 -0.031717267 0.20103185 0.2444937 0.1385266 0.036576644 -0.089489974 0.36109537 0.26925576 0.13344058 -0.3126778 0.16686153 0.15720655 0.12149681 -0.08659325 0.026282214 -0.13270685 -0.019847158 0.0090063065 0.017201101 -0.19777699 0.288344 0.059156377 -0.23222841 0.02634923 0.20527503 -0.043817494 0.24628101 -0.53840005 0.3321893 0.080716036 -0.14335652 0.16562869 0.0455807 -0.26391873 -0.045133688 -0.08343385 0.2016393 -0.066199176 0.27061573 -0.02159377 -0.023451544
足 -0.10003089 0.43184948 0.19482037 -0.28152072 0.058569048 0.20880824 -0.21698286 0.1443604 -0.18219198 -0.031084353 0.07931005 0.1546367 0.07434427 0.0069312043 -0.027545732 -0.06887804 0.23492205 -0.1521362 -0.012036932 -0.14432868 0.04617554 0.3646456 0.13830142 -0.28739667 -0.5461495 -0.19193551 0.25154638 -0.5820543 -0.29870898 -0.0688079 -0.0038974837 -0.5370585 -0.11582413 0.16395438 -0.06345264 -0.09439333 -0.08387377 0.0818784 -0.15322275 -0.23102409 0.2603946 0.036474403 -0.21749651 0.23367357 0.1869226 -0.13301821 -0.13962999 0.23290505 -0.043036934 0.09901635
居 -0.13616088 0.44581106 -0.11733661 0.25005275 -0.029185897 0.25565177 0.2529163 -0.043675642 0.21232465 -0.09817478 -0.117894486 0.10477709 -0.02944103 -0.009991823 0.29161707 -0.05740913 -0.054389555 0.00518558 0.06951631 -0.2784699 -0.12804256 0.063977145 0.09327055 0.20117001 0.015310588 0.113473 0.09364373 0.103379555 -0.051884107 0.12900497 -0.16757655 -0.16153467 -0.027733194 -0.0079777455 0.13341686 0.07450197 0.278693 0.16735226 -0.05443123 -0.11023553 -0.15106845 -0.113811865 -0.10914887 0.35949725 0.021099303 0.12133485 0.01880598 -0.12281884 -0.018693428 0.10283002
尔 0.12494986 0.34404153 -0.11126146 -0.25081465 -0.21754013 0.26636758 0.2676236 -0.30614042 0.14706063 0.12425151 0.15747498 0.21438532 -0.23384593 -0.26162538 -0.20672512 -0.25681052 0.33515823 0.12097411 -0.0009057312 -0.12739909 0.31492198 -0.034697305 0.103244185 0.13011417 0.07145958 -0.252113 0.2475782 0.25612953 0.24301505 -0.16841048 -0.05473991 0.23090827 0.015167565 0.06617967 0.04319708 -0.38494602 0.31707308 0.17752665 -0.24634743 0.028413486 0.10425932 0.1694619 0.24581937 -0.08733245 0.20673467 0.2810619 0.09473098 0.06577924 0.13498573 -0.13324855
夏 0.08723686 0.39402917 -0.0102282185 -0.11905272 -0.07844053 -0.035817772 0.09803426 0.17347302 -0.12231564 0.007008028 0.10362431 0.13458297 0.15581197 0.13093093 0.005667166 -0.117012285 0.10706616 0.14770168 0.2943819 0.029670615 0.1243474 0.07464458 -0.12212462 -0.16270895 -0.20664465 -0.13753928 -0.03708581 0.19417617 -0.03310669 -0.040572703 -0.13704802 0.003914854 0.14833464 0.19610517 -0.06698304 -0.019638244 -0.19694602 -0.026007304 -0.39976314 0.06684264 0.1557918 -0.042905096 -0.022361966 -0.14409351 0.0052559143 0.17536612 -0.31246293 0.1480739 -0.007907894 0.15781347
父 -0.37024254 0.35165885 -0.06601472 0.05630316 -0.029044207 -0.44387403 -0.09218468 -0.021274958 -0.09949424 -0.0034224433 -0.014917963 -0.062363114 0.0058338866 -0.56963116 -0.010162335 -0.36769775 0.07664264 -0.09078612 -0.15588754 -0.19416964 -0.06433721 -0.29132384 0.5370827 0.15710971 0.035884656 0.08024222 -0.018362042 0.21714513 -0.4192083 0.07947592 -0.15987632 -0.18804036 -0.38281175 -0.027524417 0.063171245 0.5302241 -0.056288037 0.25048813 -0.40985808 0.014451443 -0.3383008 0.29960525 -0.24328212 -0.036653273 0.08525952 0.02001566 -0.13561846 0.16697587 -0.10006767 0.3190604
及 -0.0011488956 0.566974 -0.11710268 0.038229693 -0.081792705 0.057093307 0.1081166 -0.029309675 0.08856181 0.17524168 0.08392042 -0.30552545 -0.0357675 0.17589545 0.21598703 0.13751756 0.102361925 -0.19265574 -0.18927994 0.103756264 -0.25085557 -0.040409725 0.44464508 -0.13292834 -0.14542125 0.42140177 -0.18859759 -0.09021555 -0.106358096 -0.094000995 0.2584511 0.1102387 -0.17861465 0.2599362 0.1600491 0.44330654 0.28696764 -0.15134054 0.023895297 -0.14631218 0.32011172 -0.017927308 0.06947062 -0.064847164 0.092613555 0.2825915 -0.09677144 -0.107735574 0.076016486 -0.009843177
己 0.11493558 0.48912323 -0.15613429 -0.20351294 -0.3024013 -0.18237199 0.005552125 0.12966979 0.19459246 0.013308184 0.11539931 0.29827353 -0.042093366 0.26687205 -0.22090524 -0.14019254 -0.11704335 -0.21727318 0.040060733 -0.24836479 -0.47870055 0.14780027 -0.05981995 -0.031401552 -0.14525443 -0.3147773 0.22542603 0.10363893 -0.04994854 0.1284787 -0.116980895 -0.044446677 0.29163492 -0.078931466 -0.3441881 -0.23605 -0.035454735 -0.39783496 -0.02681408 -0.33972418 -0.160323 0.05211598 -0.2964645 -0.21010776 0.10658401 -0.1674881 -0.24885248 -0.25022668 0.03273695 0.074000224
予 -0.21699415 0.37593678 -0.0067518847 -0.21749301 -0.16558792 0.015124593 -0.13883132 -0.21541207 -0.08408803 0.034297593 -0.31911248 -0.06015016 -0.16377579 -0.14879824 -0.2853456 -0.0048837243 -0.22972497 -0.0016812813 0.09404626 0.16339299 -0.34361753 0.24109107 0.01182306 -0.05959244 -0.2828616 -0.1104289 -0.04216375 -0.12170067 -0.06081993 0.14436959 -0.032575335 0.053399228 -0.11368427 0.3489819 -0.019901857 -0.0435146 0.14902258 -0.027133146 -0.22395292 0.07540845 0.2558569 -0.091753066 0.21286973 -0.056488007 -0.121935025 -0.009304097 0.032416847 0.09602341 0.20114428 0.3100712
色 -0.0026761517 0.57396233 0.047009964 0.28887406 0.03689556 -0.34838414 0.24299029 -0.15842912 0.13656108 0.12935086 0.1036903 -0.2507288 0.41960287 -0.0069490653 0.24093129 -0.061387002 -0.053598687 0.0627458 0.16664635 -0.19617055 0.16317882 0.23819087 0.21142983 -0.40314564 -0.107563585 0.23950343 0.22726217 0.13027085 -0.26646623 -0.17776716 0.086092696 -4.7669047e-05 -0.032240182 -0.04678538 -0.19691233 0.043043826 0.14673193 -0.22660445 0.084375404 -0.21681069 0.045817293 -0.15644524 0.28706345 -0.21128055 0.06792838 0.3351084 -0.17119667 -0.26549125 -0.09023487 -0.32497028
友 -0.0074253785 0.6594009 -0.14299235 0.122469425 -0.05111936 -0.07423808 0.18278936 -0.05514524 0.38408944 -0.05819209 0.03959884 0.08111361 0.09764349 0.44262102 0.28122157 0.15193675 0.11739708 -0.088149175 -0.09305809 -0.44059005 0.42554948 -0.08103249 -0.32913575 0.13115573 -0.20655577 -0.29460454 -0.19585404 0.27316332 -0.18165189 -0.32173806 0.16514316 -0.24828556 -0.2028552 0.08234393 -0.115257494 0.10666281 0.20938283 0.19361123 -0.06813535 0.22603083 0.45214495 0.19125907 -0.019277478 -0.042997435 -0.17538725 0.2698341 -0.25638518 0.06878287 -0.0414907 0.122765124
成 0.21550442 0.40143055 0.20521356 0.060519762 0.12739451 0.12071611 -0.07317676 0.06778307 -0.18304248 -0.05588138 -0.061498426 -0.01694454 0.36876085 -0.34715545 0.021193836 0.14005281 0.037931733 0.26291725 0.0067642527 0.04145871 -0.14574093 0.049325306 0.01805016 0.07096374 0.25962394 -0.01161072 -0.28234392 0.15104917 0.35051078 0.12448889 -0.08727145 -0.26883924 -0.14402947 -0.2103025 0.096246995 -0.05411662 -0.24015942 0.012926986 -0.27370286 -0.11481597 0.115155354 -0.21039712 -0.10628751 0.13396876 0.22696225 -0.19014865 0.027240777 0.066563845 -0.15491134 0.1844584
远 -0.32924882 0.4648559 0.019402834 0.11885636 0.07519137 0.074850425 0.10961791 0.09525592 0.080801666 -0.21333325 0.17360654 -0.0013498855 -0.02243203 -0.27420822 -0.029439677 -0.37507123 0.29038018 -0.18229476 -0.024556655 -0.13694075 -0.19917396 -0.23233019 0.059123304 -0.035306904 0.10665309 -0.13926575 -0.07483922 0.31600475 -0.2986635 -0.30176094 0.16893457 0.069334656 0.24199234 -0.37536937 0.0017114542 -0.09860244 -0.30694693 0.24520597 -0.17494926 0.06515757 -0.1597624 -0.07757852 -0.1358208 -0.20201734 0.017631719 -0.14837521 -0.11798159 0.13710171 -0.16909422 0.26123127
上 0.13637389 0.57699394 0.17818145 0.07320452 0.042729493 -0.0005544396 0.19284762 0.26219833 0.076685056 0.028761221 0.07518599 0.081148155 -0.06920196 -0.1668033 -0.15183027 -0.17120911 0.20826414 -0.12409328 0.09322587 0.35784572 -0.21031524 0.33028457 0.09142353 0.24770184 0.12344433 0.2914478 -0.34600577 -0.15910952 0.102693856 -0.03986873 -0.66527516 0.15806073 -0.07985099 0.19998088 0.09555963 0.15071154 0.26825547 0.01605585 0.052476622 0.20647472 -0.065573625 -0.15091571 -0.09022243 -0.19547585 0.090208605 0.20423667 0.25518504 0.19432324 0.1133046 -0.08178451
立 -0.21676622 0.67008835 0.14478104 -0.14022133 -0.20401327 -0.25123593 -0.019349884 0.031932976 -0.25147924 -0.1346791 0.11297238 0.057565186 -0.15325251 -0.26393184 0.09045639 0.19511768 -0.03790103 0.1345379 0.18625024 0.15021221 -0.61309206 -0.10024501 0.0033871792 -0.07250596 0.43654808 0.16477108 -0.06290344 -0.012122476 0.0050706253 -0.48129395 -0.38729554 -0.030345047 -0.102599226 0.016425477 -0.05430619 -0.38676685 -0.27619046 0.2149558 0.119040236 -0.004558518 0.23079805 -0.122947924 -0.13131556 -0.17200959 -0.008259906 -0.041671023 0.064365804 -0.36948445 -0.3550274 -0.013190326
今 -0.1984874 0.582047 -0.008538185 0.007643797 0.10359198 -0.0049344418 0.077342376 0.13001059 0.121691056 -0.24602765 -0.29528844 0.15655631 0.0710309 0.1783059 -0.23594187 0.07375034 0.303269 -0.24161208 -0.06308641 0.014193232 -0.2142063 -0.21540025 0.016009167 0.14677721 -0.12086241 0.27261484 0.20005065 0.37139708 0.19637834 -0.2588367 -0.15466508 0.24172118 -0.073841505 -0.31888902 0.17957933 0.04350424 0.27795133 -0.37392807 0.10350923 0.07318981 0.0054387483 -0.14530048 -0.32782063 -0.27202755 0.5008904 -0.16611916 -0.051121034 0.022298137 0.004864548 0.066904426
张 -0.2324566 0.22514236 -0.06995202 0.088420294 -0.21490857 -0.1281464 -0.035569876 -0.06029416 -0.02877468 0.05303423 0.123266734 0.14416124 -0.101264 -0.10743159 -0.088060185 0.38507134 -0.06707048 0.08057468 -0.04462384 -0.099527106 0.064954475 0.11902141 -0.21129775 0.15766844 -0.12823282 -0.18986163 0.030693123 0.02595868 0.0056734607 -0.18278146 0.08343219 0.074332915 0.17432848 -0.08715057 -0.08809841 -0.08532418 -0.2921966 0.07596583 -0.53782994 0.041645523 0.26043087 0.026623491 -0.24912293 0.08865427 -0.17632794 0.021693327 -0.1683631 0.1494249 0.19432755 -0.02075575
中 -0.05823111 0.75115645 -0.113151126 -0.14044622 0.26691416 -0.3146161 0.1325697 -0.22263375 -0.058232795 -0.32094133 0.108498245 -0.23520246 0.3323947 -0.23274909 0.31743228 0.016514167 -0.17615227 0.11107749 0.23755865 0.26613826 0.30005676 -0.110379204 0.2501016 0.1479688 0.5231463 0.15281498 0.49669865 0.21534398 0.26048133 -0.08059552 -0.09515062 0.21188612 0.073798716 -0.12269128 -0.051232316 -0.15455694 0.18683605 0.026331553 0.0993186 0.5567938 -0.50060266 0.14774728 0.24396423 0.26262647 -0.53032494 0.15332328 -0.13370378 0.0610474 -0.054146834 0.4373503
季 -0.45912206 0.27725878 0.044199176 0.26846626 -0.08759639 -0.015381815 0.08020715 0.13384596 0.3620901 -0.112279154 -0.025638115 -0.02204255 0.11359998 0.20039183 0.3302415 0.37849697 0.1444401 -0.14672606 -0.28193095 0.17360967 0.00037961314 -0.20499536 0.058386084 -0.16405502 0.007946851 -0.12355404 -0.07214447 -0.09157669 -0.13030982 0.17691574 -0.13532189 -0.14625233 0.16519897 -0.0939449 0.25363252 -0.14567356 -0.20386535 0.067050494 -0.52611065 0.12589073 0.087607555 0.042098172 -0.25667688 0.21124466 -0.2688465 -0.2687567 -0.29023427 -0.42470554 0.11184159 0.28547984
臣 -0.25567228 0.4759929 -0.12137084 -0.13592654 0.18430078 0.27084714 -0.19233002 0.07061424 -0.090329625 0.05091456 -0.00022098236 -0.091459624 0.38919625 -0.0662277 0.25846606 -0.29853952 0.078475185 0.34462896 -0.10643707 -0.024166299 0.07594411 0.024082385 0.077382535 -0.30392495 0.042259853 -0.31084758 0.15144086 0.09784963 -0.106805615 0.22412914 -0.061856765 -0.17595097 -0.16335551 -0.0017552911 0.074098624 0.28892308 -0.15102191 0.20539707 -0.092362456 -0.040803216 -0.1423069 0.2444512 -0.2579614 -0.047579255 -0.1404484 -0.17259848 -0.10989594 0.077380426 0.09045777 0.40283215
贤 -0.1840998 0.5451965 -0.017624322 0.1183103 0.1299113 0.24418586 0.23614682 -0.11706643 0.06604023 -0.22733408 0.046070095 -0.08081382 0.13423222 -0.061072808 -0.2075206 -0.008637025 0.14105955 0.32331637 -0.015516419 -0.07332061 0.30329308 -0.07381999 -0.23517992 -0.38222134 0.18596435 -0.14484331 0.029415129 0.23304205 -0.17289054 0.046330057 0.008286278 0.16857123 0.29921582 0.054078665 -0.07725889 -0.050470408 0.13887508 0.24188477 -0.15890886 0.14835112 0.03973032 -0.032908216 -0.15243442 0.0500198 0.03864169 0.085192434 -0.061109483 -0.023008956 0.21767382 -0.018000988
思 0.06568344 0.5417056 -0.08984652 0.46363336 -0.5809403 -0.30968818 0.4123511 0.1080836 0.01613205 -0.11812766 -0.36267087 -0.101713374 -0.3886537 0.007922685 0.040367004 0.056412306 0.03765948 0.065837905 -0.073087044 -0.23740472 -0.07301276 0.4038652 0.16693023 -0.24477981 -0.3264597 0.018439854 0.103774495 -0.09072847 -0.42792156 -0.025876412 -0.25780618 0.052161034 0.25634283 -0.25112644 -0.12457475 0.17034285 -0.0034241877 0.28557646 -0.059129164 -0.14874047 0.56064755 -0.12484866 0.07036137 0.32217124 -0.36969033 0.18776444 -0.22571687 -0.27756763 -0.34533462 0.28294683
齐 -0.23545977 0.42314294 -0.13199407 0.28413698 0.04511288 0.11845428 0.06916948 0.13572161 0.38384864 0.19690503 0.11750538 0.061482195 -0.07828598 0.06643331 0.29983956 0.15359691 -0.199931 -0.29548132 -0.13049096 0.2267136 0.1314655 -0.10989422 0.2354555 -0.13367704 0.10378491 0.09148122 -0.028078645 -0.3935853 -0.18564211 -0.14226645 0.33214876 -0.06643308 0.06885915 0.08434421 0.19473478 0.41415176 -0.10317493 -0.188859 -0.23909585 0.16752662 -0.10083666 -0.0123253185 -0.094758965 0.31111193 -0.32351732 -0.03151999 -0.045506634 -0.08567151 -0.19278397 0.23172976
义 -0.0037593432 0.57175434 -0.2044336 -0.0058062673 0.31893483 -0.31417957 0.11025905 0.18005961 0.13513081 0.07466519 -0.26538086 -0.20756951 0.06922855 -0.12990412 -0.09045958 -0.2516073 0.039198026 0.31329972 -0.014446264 0.1632468 -0.1795822 0.06299022 0.052469354 0.03960562 -0.30056787 -0.036751084 -0.14066926 -0.15273409 -0.10675269 -0.107682385 -0.40938082 0.10213499 -0.30648807 0.18210894 -0.12681483 0.06476888 0.03461827 -0.05122335 -0.07116171 0.03517386 -0.20052327 -0.03179165 0.15307304 0.29260153 -0.058701716 -0.05876202 -0.055446938 0.024920257 0.1246154 0.056153454
正 0.07186903 0.41970518 0.20545721 0.017207352 -0.032448202 0.22711608 -0.12901916 0.06116701 0.24551259 0.16161516 -0.13551286 -0.009331675 -0.19088946 -0.30174667 0.017304517 0.3934842 0.040459953 0.36533904 0.31477442 0.1417104 -0.2590878 -0.23994352 0.21614552 0.028564062 -0.10988714 -0.023811905 0.27487317 -0.10495405 -0.02677067 0.082207315 -0.12406633 -0.24025592 0.110095724 -0.10626288 -0.16207504 -0.1908562 0.15817344 -0.42348576 -0.16132803 -0.119083405 -0.3131258 -0.29213187 -0.22564505 0.25207952 -0.1015088 -0.026108561 0.26826364 -0.0911908 -0.05397585 0.22929737
命 0.10535135 0.54591864 0.20675899 0.3339309 0.11042258 0.6935941 0.06472586 -0.2973368 0.05623929 -0.04376093 0.03614273 0.06298371 0.23606887 0.09410986 -0.22273597 -0.29758847 -0.03552265 -0.3525423 0.22709934 0.130161 0.2678305 0.12153301 -0.050004683 -0.15730864 -0.043662034 -0.072587304 0.2131361 -0.24078654 -0.13396 0.028935665 -0.3333835 -0.054014776 -0.2511272 0.03279224 0.0014774356 0.19273366 0.083948284 0.20645957 -0.02327725 0.00878477 -0.1937947 0.12682012 -0.0061899195 0.19286856 0.12567046 -0.07362654 -0.04713857 -0.057609268 0.033409867 0.34596333
曾 -0.053897403 0.27615517 0.113360725 0.109781444 -0.54075587 -0.21513629 0.10923343 -0.06530296 -0.04318426 0.20452152 -0.01855342 -0.006522061 -0.085053556 -0.14929265 0.1571994 0.2644179 0.16824125 0.016577289 0.04815438 0.12573582 -0.1421709 -0.121795826 -0.1289374 0.17991112 0.23032336 -0.3193382 -0.052944835 0.037056223 0.1844481 -0.09349269 0.18246959 0.1426601 0.061676998 -0.13205878 -0.16552848 0.25026026 -0.057004347 0.24170884 -0.5800685 0.03961775 -0.17035764 0.19452266 0.03933714 -0.28451726 0.07572024 0.2665413 -0.4033482 0.062680624 -0.09475041 -0.15897463
伯 0.2683228 0.33763924 -0.0431206 0.5871452 0.12297588 -0.008019305 0.0632572 -0.25057858 0.21970567 0.32099813 -0.012219031 -0.06425848 0.3664776 -0.2101839 -0.23185156 -0.2260753 -0.049103133 -0.15305114 -0.035247818 -0.018805988 0.17614901 -0.044890784 0.068963595 -0.0702138 0.32019252 -0.13098885 0.024705898 -0.05353451 0.19975561 -0.017129702 0.23005211 0.041322656 -0.07779748 0.18232116 0.178487 0.2833253 0.24250177 -0.024806239 -0.57874024 0.07809609 -0.041770425 -0.4263677 -0.40227985 0.17033035 0.026057757 0.33836818 -0.11889718 -0.16159171 -0.10759164 0.21517903
门 -0.20302649 0.31887528 0.033955652 0.043183938 -0.10821181 0.12965615 -0.02382897 -0.18845543 -0.18672119 -0.091423415 0.08458426 0.03336422 0.2880123 0.13470316 -0.33668986 0.07460881 -0.28661567 -0.2738264 0.031634662 0.055463724 0.11335498 -0.190434 0.24284077 -0.009905474 0.33955795 -0.16169699 -0.15455738 0.16593449 0.25926822 -0.023679087 -0.1539096 0.113491476 0.034826715 0.3346065 -0.09300032 0.092500694 0.1341688 0.22129315 -0.33143905 -0.15228821 0.062119223 0.4253093 0.041331932 -0.0038037235 -0.5708835 -0.20173678 -0.40275407 -0.08336457 -0.09379661 0.19033682
敢 0.42395127 0.41919744 -0.31516942 -0.18116434 0.3220071 0.12381047 -0.29149023 -0.10642877 -0.06943635 0.41766787 -0.2666329 0.061538134 0.3920973 -0.14971937 -0.035308998 0.18723494 -0.07548214 0.3316744 0.08632702 0.24263385 -0.18641062 0.27630734 0.111018814 0.42056704 0.031145634 -0.257209 -0.23351541 -0.35387433 0.1977956 -0.08375983 -0.19238262 0.0054923277 -0.30141452 0.02790912 0.0062742233 -0.29035386 0.35204294 0.5472003 -0.13627361 0.17351484 -0.020165207 0.018356074 -0.0013317941 -0.2310456 0.3363293 -0.38504562 -0.18660848 -0.11517958 0.1140996 0.03318983
犹 -0.1185275 0.5042257 -0.09944667 -0.5600767 -0.13919176 -0.08243212 0.19115913 0.11116662 0.27208233 -0.10223414 0.04225158 -0.081867844 0.09577808 -0.091602296 -0.04143555 -0.06328257 -0.18880886 0.059145022 0.11928418 0.05651198 -0.19316109 -0.58233786 0.3793235 -0.13133262 -0.17983338 0.08733053 -0.0153285945 -0.061832987 -0.07717696 0.29271328 -0.18598527 0.23013152 -0.09059098 0.052425347 -0.2298814 0.1625292 -0.0089468 -0.31978753 -0.1949976 -0.060723256 0.14078583 -0.20920308 -0.27801508 0.054494523 0.044486485 -0.28936857 -0.4689171 -0.44353527 0.39262542 0.048582356
生 0.23290376 0.52493304 0.059736885 -0.092141174 -0.21252166 -0.10209295 0.031192875 -0.19962074 0.03475993 -0.0050146664 0.16854236 0.17041583 -0.1435368 0.0415079 -0.35641083 0.08962142 0.089095764 -0.13699013 0.14879291 0.33313206 -0.20405 -0.039449207 0.11476807 0.07217774 -0.24264815 0.014271669 -0.06283923 -0.20963742 0.048401892 0.025201943 -0.013648302 0.0016563972 -0.1484478 0.08826323 -0.108254075 0.09794658 -0.25297138 0.11258629 -0.08770604 -0.28226495 -0.16437183 -0.45979896 0.18201761 0.077753186 0.035712384 0.041063145 0.030504575 0.16825369 -0.032304913 0.087362766
日 0.32565987 0.4693995 -0.24916701 -0.1569315 -0.15816663 -0.10272169 0.042065993 -0.19412015 -0.07771358 -0.04213443 0.07365967 0.081396334 -0.20548736 0.3407619 0.33700076 -0.006027385 0.19413626 -0.18778634 -0.122854866 0.038420297 -0.020574108 0.13886186 0.023897361 -0.033867437 0.18342134 0.20749345 0.07124622 -0.16174272 -0.083159834 -0.06163752 0.23410375 0.31049258 0.14875557 0.22759195 0.03086206 -0.34523472 -0.53127265 0.005612841 -0.08754588 -0.06395787 0.19970107 -0.113790065 -0.06285727 0.25583157 0.14367315 -0.20327516 0.029184578 -0.050091315 -0.085047945 0.10290276
敬 -0.079552315 0.64666736 -0.2083311 0.24366869 -0.07590554 -0.053342037 0.37751746 0.11924007 -0.1234196 -0.043957602 0.058544673 0.1101321 -0.4307767 0.099150054 0.087039374 0.1972036 0.3428459 0.23969877 0.14491762 0.112333044 -0.17989604 0.2365499 0.011635373 0.11870985 -0.056418374 -0.19607945 0.11992675 -0.052186277 -0.10635726 0.5908044 -0.38650605 -0.19252282 0.07751395 0.033131316 0.11587002 0.35207975 -0.15038876 0.7168042 0.1470859 -0.14551225 0.2043089 0.33253264 -0.089166105 -0.18972665 -0.18648629 0.19177032 -0.23913957 0.14792335 -0.19530368 0.07026827
难 -0.08689796 0.445597 -0.2416244 0.24659163 -0.113759935 -0.25816506 0.2692391 0.024451353 0.16560821 0.04535649 0.17306913 0.108473524 -0.036034375 -0.01752196 -0.14319807 -0.04444252 0.049462162 0.14637473 -0.02713816 0.04897531 -0.024884736 0.2733745 0.08283557 -0.22098541 -0.2606468 0.1077003 0.22712767 -0.13565832 0.049251255 0.013835379 0.26177526 -0.13482255 -0.19049665 -0.13826637 -0.0090349605 -0.032666907 -0.141272 0.13819166 -0.24730512 0.017428271 0.03617719 -0.122397676 0.13094273 0.01994805 0.04314716 -0.016451491 -0.24395882 -0.0134435 0.19098713 0.21695223
直 -0.24611315 0.52411735 0.02422104 -0.15467104 -0.11264403 0.20529246 0.016549487 -0.065074496 0.08897231 0.15048358 0.22153188 -0.020548683 0.29165235 0.22285606 0.15151064 -0.11856043 0.43584174 -0.054819744 -0.24937749 0.03215633 0.07039604 0.028855603 0.5265432 0.07154597 -0.18592581 0.19765641 -0.32584232 0.20740831 -0.06258348 -0.020470094 0.045956217 -0.052196495 -0.06665745 -0.1545721 -0.12049282 0.22812623 0.17464796 -0.09858424 -0.28286773 0.19367573 0.44365424 -0.30392277 -0.1475627 0.0771924 -0.06971098 0.104166985 -0.36178002 0.22386162 0.09412693 -0.056360897
丧 -0.09989174 0.42190754 0.08109996 0.14621024 -0.42524013 0.24432132 0.3200231 -0.14083472 -0.18423851 0.11418085 -0.29362822 -0.04722287 0.01080123 -0.0068345093 0.032801338 0.1433344 -0.1221813 0.22296737 0.29962397 -0.16944772 -0.15957546 0.33009902 -0.06686551 0.044409752 0.13570738 -0.053882197 0.17930415 0.00073906407 -0.4873363 0.37531683 0.12107214 -0.079158664 -0.056665156 0.19833884 0.13203335 0.12735057 0.037587166 -0.03407415 -0.25557324 -0.259964 -0.039894804 0.06896103 0.14835985 0.14338502 0.071843885 -0.07799206 0.03274627 -0.016976815 0.059319947 0.19990353
说 0.07549942 0.43749177 -0.21530917 -0.018054044 0.16220564 -0.21158719 -0.15814058 0.16247162 -0.25273597 -0.16951557 0.1014711 -0.1894637 0.29924044 -0.06668318 -0.20050299 0.1353532 0.42127332 0.3440118 0.17260475 0.06630416 0.0064813676 0.059638627 0.011140886 -0.016483296 0.106056534 -0.02072548 -0.088651754 0.15655395 -0.1511433 0.07105083 0.11673121 -0.034922257 0.23785135 0.020435106 -0.08562159 -0.10734799 0.38916218 0.27320838 -0.10305438 -0.11396037 -0.031208914 -0.4263847 -0.10814637 -0.19449066 0.02259291 -0.07609157 -0.13886288 0.16995189 0.33004576 0.22578412
自 -0.17773826 0.4654776 0.17200814 -0.061465602 0.3727126 0.5560663 0.19855323 0.1514057 -0.11383455 -0.07133337 0.17836642 0.16777034 -0.021677904 0.18341784 0.12069364 -0.097282715 -0.25861314 0.057683494 0.20702116 -0.27283895 0.06679526 -0.3179405 -0.06429157 0.08825902 0.25347057 -0.31778273 -0.45718798 -0.03250563 -0.043431085 -0.14522007 0.013857999 0.22707538 0.157673 -0.05196905 -0.118426464 -0.0037635798 0.07210523 0.05413315 -0.3183254 -0.0067458004 0.038456418 0.3481168 0.17013824 -0.14150967 -0.10687839 -0.0460945 -0.06442676 -0.22222807 0.29631126 -0.03849344
用 0.16666365 0.4666823 -0.19115496 -0.13734154 0.017311348 0.14383583 -0.028254692 -0.25883976 0.08298767 0.026810061 0.067084685 0.10794969 0.03858097 0.120606005 -0.11569192 0.17455398 0.2700636 -0.07009973 -0.3163742 -0.015763279 -0.36107787 0.3104107 -0.07982814 0.109912425 -0.272575 0.18140431 0.266525 -0.01187819 0.3915915 0.064092636 0.19839974 -0.0046278923 -0.13827704 0.20765768 -0.018652262 -0.5427341 -0.14968021 -0.014598545 -0.2188833 0.117026165 -0.059676558 0.13930866 0.18954284 0.019799186 -0.011473264 -0.28820378 -0.19315614 -0.081211455 -0.20969602 -0.21619023
周 0.10167171 0.39501646 -0.30810302 0.20527135 -0.1724382 -0.12640136 0.4721541 -0.10494746 0.068063594 0.18536204 0.07727994 0.0046631214 -0.027429335 0.21510519 -0.09475796 -0.014664207 -0.4236409 0.3452274 -2.5017478e-05 0.118706904 0.035078168 -0.13994879 -0.08663106 0.15116468 0.3636055 -0.07488039 0.007843908 -0.10854618 0.09614619 -0.24652411 0.18619129 -0.31034166 -0.0341072 0.41951442 0.15342024 0.06542323 -0.027873997 -0.36688572 -0.19446005 0.064219594 0.14052853 0.14583316 -0.08672877 0.084734246 -0.4615083 0.0081297625 0.051278375 0.037765358 0.3463532 0.06372929
颜 0.16030963 0.35988915 0.1160965 -0.24796802 -0.09243432 -0.045248084 -0.2483596 0.05422507 -0.46596122 -0.25773197 0.18340282 -0.03253002 0.13757457 -0.08967822 0.00285979 -0.18385364 -0.08762916 -0.18020745 0.1337472 -0.03547028 0.14011355 -0.05177713 -0.15735741 0.19370613 -0.13608153 -0.15412785 0.042738535 0.04369569 0.09953587 0.07318634 0.0963614 -0.002669144 -0.12342886 0.11586544 0.21304445 -0.12872547 -0.04386181 -0.060192138 -0.29931775 0.14653693 0.07944666 0.09739972 -0.13935104 -0.19752361 0.2699164 0.021807384 0.20242125 0.04399358 -0.15533662 -0.03421321
年 0.07549357 0.40989435 0.3098083 -0.06280423 -0.05843166 0.14073093 0.009507584 0.02121095 -0.09672914 -0.10845941 -0.028967263 0.13375099 -0.31419137 -0.0066947 -0.053435925 0.032043483 -0.20117314 -0.054363746 -0.2438713 -0.07604229 0.042981148 0.084303975 0.20444325 0.046892423 0.38335112 -0.018230082 -0.20946997 -0.1845135 -0.31606188 0.037717286 0.3479288 0.007003449 -0.020352837 0.19945294 -0.38418698 -0.0332098 0.1216748 -0.13682048 -0.25282887 -0.0011957446 -0.21850447 0.07655344 0.10068639 0.047405258 -0.0099746445 -0.17940338 -0.014046301 0.11517465 0.09995173 0.028690457
告 -0.068180166 0.37869102 -0.117062055 0.29448828 -0.093123384 0.3232712 -0.2643881 -0.02471815 -0.069498986 0.14528053 -0.13361771 0.0024136147 0.1559923 0.06682487 0.2100692 0.24519575 -0.21952802 0.03780246 0.08286073 0.34934857 -0.15663593 0.16377746 0.032831617 -0.16950136 0.18030879 -0.20930308 -0.46526164 -0.32967922 -0.099778034 -0.09657688 0.052960306 0.22032042 0.107759446 0.09264337 -0.041281365 -0.09237982 -0.11186046 0.5765411 -0.40325683 0.07124951 -0.12631463 -0.14855033 0.09829113 -0.15313101 0.037495147 -0.2354005 -0.20540273 -0.09014549 -0.37693533 -0.026075572
十 -0.0129318815 0.5475002 0.3774691 0.098778196 -0.1360509 0.7235466 0.12748729 0.2910466 0.15115169 0.49402985 -0.21905656 0.05819958 0.4232914 0.2472649 0.13768408 -0.43088672 -0.2833983 0.009537771 0.17643622 -0.18054219 0.04131729 0.07303151 0.0076877624 0.017840935 -0.018830936 -0.21642868 0.015227296 -0.12481202 0.087638445 -0.13021442 0.33308432 0.20654438 -0.09271862 -0.09726024 0.055497818 -0.024171185 0.28577927 -0.04835444 -0.20667553 0.04013309 -0.15987264 -0.062344953 -0.36892557 0.025855113 -0.1915061 0.5116665 0.41652218 0.09250633 0.4117019 -0.073088504
怨 -0.24917896 0.44532672 -0.20456544 -0.09315549 0.3739558 -0.033172965 0.11868069 -0.043155644 0.05720123 0.04444602 0.23981728 -0.21741815 -0.23890199 0.23799574 0.023605535 -0.2887983 0.27836168 -0.32810727 0.14802657 -0.174115 -0.24565089 0.2814541 0.17402835 -0.19300722 0.13106073 -0.28809863 -0.18402752 0.152255 -0.21651646 0.08335338 0.109116524 -0.073219456 0.25611466 -0.056516424 -0.09999938 0.11445532 0.07277285 0.11884668 -0.0842805 -0.0030012347 -0.25739273 0.100205295 -0.22141409 0.0167162 0.108819425 -0.12109899 -0.15162611 0.122397415 -0.20574176 0.2359339
达 -0.018818282 0.45972523 -0.12333822 0.064335115 0.14417039 0.0444169 0.21706253 0.30548814 0.1760004 0.027785804 0.04700321 0.07555409 0.036375176 -0.2403609 -0.11472611 -0.25883916 -0.18661402 0.038782336 -0.17442912 0.042356394 -0.014278531 0.31906453 -0.13842247 -0.21605021 0.20781247 0.15541522 -0.26862597 0.21528557 0.16984382 0.009810436 -0.09184759 0.53550595 -0.1285498 0.0065081855 0.12795842 0.10401717 0.1761004 0.12196951 -0.10274005 0.07256453 -0.10170617 0.22822568 -0.29790804 -0.08135125 -0.1609896 0.16883437 -0.11627154 -0.427674 -0.0108212605 0.026681144
孝 -0.0644983 0.38553953 0.050117813 0.018678667 0.033159167 -0.13360713 0.1509373 -0.024169542 -0.035199486 -0.09833309 -0.23968162 -0.34581125 -0.37017536 0.21605851 0.17466965 -0.04844159 -0.31253368 -0.17708947 -0.18627982 -0.052498654 0.34057617 0.030751279 -0.45951384 -0.25162202 -0.17468226 0.19609216 0.10699008 0.30451426 0.02418184 0.2768184 -0.05678186 -0.3207278 0.07379345 0.04010171 0.20308258 0.2163474 -0.44077975 0.07725983 -0.2979724 0.42386678 0.26250905 0.07977055 -0.28671703 -0.25205052 -0.2028171 0.27412105 0.060623255 0.17622387 0.069163434 -0.29609212
弟 -0.0875314 0.32427624 -0.1637875 0.026768029 0.38066494 -0.4675104 0.08149096 0.22153273 -0.15473391 0.022577496 -0.059285145 -0.04358004 0.18324482 0.2084013 -0.12134565 0.053115364 -0.039697003 -0.58769846 -0.42752466 -0.042476255 0.1258172 0.058951244 0.1467532 -0.045415465 0.20918192 -0.010073895 0.028720994 0.09595724 -0.1975598 -0.1733615 0.16077603 -0.036790416 0.0053403806 0.26300508 0.34111136 -0.24645445 0.018908521 0.24437222 -0.33223766 -0.23871079 0.21559301 -0.031668916 -0.4280325 -0.03375265 -0.3044142 -0.042725593 -0.10751911 -0.07765579 -0.042391982 -0.19401692
至 0.2592853 0.34528404 -0.06471912 -0.18292682 0.2160266 -0.17666572 0.28857118 -0.2613386 -0.103616334 0.17939545 -0.34190235 0.36650005 -0.044286914 0.18361959 -0.07024638 0.14897524 -0.28034347 -0.30621573 0.034721397 -0.037614748 0.14029822 0.06395618 0.1263042 -0.03966281 -0.1007092 0.2817346 0.23543875 0.0025328053 0.040957343 -0.31845573 0.17931114 0.014469309 -0.06283925 0.19969222 -0.044936154 -0.030348051 0.04042671 -0.20555827 -0.26099494 -0.114725344 -0.42567682 0.14866239 0.15142749 -0.13487184 0.27029106 -0.21194822 0.24640833 -0.12476502 0.07635643 0.17346849
先 -0.32701057 0.45906705 0.079868816 0.06252898 -0.33524656 0.10742165 -0.15600026 -0.22773397 -0.18283036 0.010739912 0.38481644 0.011667871 0.3082167 0.25971264 -0.056599215 0.26410344 0.22467974 0.044020217 0.0003217043 0.23437794 0.08499341 0.15346768 -0.28298762 -0.08604929 -0.3170368 0.24678189 -0.017245369 -0.074711174 0.09698155 0.35272485 0.21938294 -0.26415706 -0.028319256 0.2516746 0.10979357 0.1351134 -0.001472855 0.07289041 0.00016740081 -0.12725239 -0.14296903 -0.22073534 0.0033371067 -0.11088514 -0.13102247 -0.03669269 -0.4314387 -0.1064659 -0.061016463 -0.21719816
师 -0.36398715 0.341086 -0.3206615 0.41033924 0.15274811 0.19866797 0.0655151 0.10841712 0.3026754 -0.19792944 -0.08845019 -0.13851744 -0.046119485 0.16502672 -0.37295854 0.16147165 -0.17347881 -0.23919126 -0.16221222 -0.037976474 -0.34486902 -0.24905768 -0.27262506 0.09757233 0.48043784 0.10641892 0.28829375 -0.4610322 0.17963108 -0.38217953 -0.086885974 0.008367745 0.03373626 -0.21654786 -0.009564944 -0.026309012 0.030211374 -0.17070577 -0.40937427 -0.014834496 0.16679959 0.2595301 -0.073538795 0.30635217 0.03810502 0.18420696 -0.037310503 -0.13184367 0.30079225 -0.03454698
女 0.0038312115 0.37356034 -0.14189038 0.07984828 -0.24551837 0.106009305 0.0109185 0.18653804 0.113909714 0.18454924 -0.0029969336 0.0010946359 -0.2789023 -0.032499593 -0.20701125 -0.047051128 -0.091942646 0.08114288 0.00851895 0.1575334 -0.056465305 0.011115797 -0.052978385 0.037566386 -0.22907808 0.25662 -0.00014142133 0.09400982 0.040891465 -0.058490943 -0.06591078 -0.20162159 0.0052562263 -0.100183375 -0.17867665 0.11922826 0.14211278 -0.1680672 -0.34460166 0.27532563 0.006792049 0.031842183 -0.010418441 0.032673765 -0.17108452 0.45555234 -0.088207744 -0.18794708 0.031054683 0.20407847
多 0.2465537 0.4316686 0.20272371 0.20682606 -0.017803147 0.25888065 -0.009351515 -0.12941748 0.12145814 0.17866586 -0.1127563 0.10328479 0.07177454 0.42792714 0.06492417 0.120622426 -0.114613175 -0.080577396 -0.38042608 -0.07156136 -0.0685206 0.24726345 -0.6553659 -0.11718025 0.054488126 0.14485161 -0.3025189 0.32396135 -0.21161583 0.20596972 0.20254765 -0.4801184 0.17017087 -0.016383063 0.048285097 0.0058638253 0.2696128 0.07144478 -0.044295553 0.12775527 0.21302098 0.40965143 -0.13405995 -0.025827803 -0.26652932 0.07922263 -0.10440828 0.09172748 0.015943369 0.0662876
忠 0.39150855 0.5136527 -0.17391428 0.18957722 -0.051946245 -0.24285659 0.05819814 0.56659275 0.030738145 0.10895892 -0.01927213 0.046143573 -0.18886663 0.13920632 -0.123994686 0.06589298 0.47229922 -0.15708965 -0.13468681 -0.06992884 0.14123045 0.07553222 -0.31191665 -0.18540147 0.03611268 -0.02540655 -0.063237794 -0.25818893 0.02560319 0.50660974 0.196669 -0.017993506 0.2132917 -0.031744592 -0.018203666 0.065983556 -0.28374282 0.22998339 -0.1455683 0.15736927 0.02804175 0.5483743 -0.2109271 0.32190883 0.16588461 0.049924977 -0.035710577 -0.111583374 -0.15342006 0.031730533
四 -0.025764996 0.6194523 0.36634317 0.28516045 0.056469724 0.3743045 0.27912065 0.16712447 0.032245178 0.3208294 -0.19943663 -0.16752227 0.43944454 -0.0038374057 0.22154064 -0.31414178 -0.51498467 -0.25545183 0.31855786 0.31039518 0.12845181 0.03600243 0.16521506 -0.06417263 0.20266503 0.08439178 0.033872876 0.020174075 0.47335517 -0.21775772 0.20674795 0.11023921 0.14247751 -0.055471104 -0.2516078 -0.24413268 -0.07089819 0.11215268 -0.11143842 -0.15443021 -0.51745766 0.057901826 0.048926745 0.0820952 0.01825525 0.11593605 -0.2862303 -0.109656155 -0.059619695 -0.14454482
疾 -0.08114901 0.33643228 -0.06584379 0.31495968 0.15857756 0.044072285 0.0055831335 -0.19180228 0.22359563 0.1724143 -0.31489232 -0.20999305 0.10245345 0.04297836 -0.13789032 0.005980073 -0.21241845 -0.09400946 -0.0982648 -0.10330922 0.017841779 -0.4522721 0.23192467 -0.24261612 -0.13381849 -0.084742814 0.26204228 -0.11482333 0.012136471 -0.29050484 -0.44344902 -0.42291588 0.04083592 -0.3408086 0.11708211 0.12002692 0.25916174 0.048145495 -0.21371233 0.13859905 0.100392796 0.41500786 0.075499095 -0.29481462 0.37328508 -0.223032 -0.08896427 0.18475725 -0.23513845 -0.13819702
服 0.09286967 0.65315443 -0.21592452 0.46481094 0.0053471676 0.31561378 0.015036872 0.47433364 0.13321447 -0.25773436 -0.3225635 -0.3202871 0.0114026815 0.12873913 -0.12935376 0.20039366 0.012838079 -0.31623685 0.21184552 0.30183476 -0.08897789 0.15754974 -0.34543884 -0.1264622 0.09027371 -0.21820226 -0.76626027 -0.08916558 0.15795998 0.060421772 0.13029692 -0.087643035 0.31421715 0.0011309115 0.2137056 -0.12950625 0.06113875 -0.056058142 0.12285878 0.35706776 -0.11895749 -0.06134947 -0.16861995 0.17775165 -0.07774625 -0.15779454 -0.014766796 -0.18827465 -0.021955688 0.2377908
氏 -0.20898989 0.251439 -0.00605929 0.02803649 0.027959688 0.1300953 -0.13538665 0.013181966 -0.12362605 0.021111328 -0.26606214 0.30959126 0.1557925 0.29134214 0.12732925 0.2425935 0.31163353 0.00341591 -0.24923345 0.036697324 0.17136647 -0.39711618 0.19551393 -0.08002447 0.1376044 0.05077855 0.12357204 -0.19423936 0.21823758 0.26442885 0.059086658 -0.23737873 0.0031553553 0.20911722 0.10201253 -0.17303778 0.23373196 0.2323846 -0.42172787 -0.10577308 -0.095471464 -0.16513093 -0.25884864 -0.03614428 -0.14326295 -0.19807172 -0.1622388 -0.21244317 -0.0555863 0.48517504
冉 -0.33552003 0.34579277 0.20125434 0.0496122 0.042919636 0.07201673 -0.0823822 0.035943754 0.20775118 0.08806109 -0.28934234 -0.00033945404 0.18357113 -0.034038696 0.30995473 0.28340074 -0.08753048 0.068223685 0.24157858 -0.07367308 0.031616 -0.1411755 -0.24533178 -0.25233135 -0.21682706 -0.20907757 -0.17397209 0.07319856 0.13414791 -0.06329033 0.056118473 -0.15803736 -0.27856758 -0.04680358 0.1741332 0.008488737 0.14301492 -0.1745402 -0.6198071 0.04493978 -0.24863023 0.0931779 -0.111196525 0.18977612 -0.21232672 -0.052495405 0.014860266 0.042403772 0.032205604 0.0725915
将 -0.2789839 0.34754875 0.21949022 -0.03527506 0.2952119 0.35776776 -0.094526194 -0.48620793 0.09881627 0.07305067 -0.028520618 -0.3476423 0.02445586 0.16899444 -0.28470078 0.2630238 -0.15734617 -0.36914605 -0.10519154 0.6015108 0.13940962 -0.020763883 -0.14317489 -0.22049814 -0.11795045 0.009489521 0.31816593 0.35912928 0.18378077 0.07115817 -0.19929396 -0.36728075 0.14639774 0.086908944 0.0779392 -0.16797622 0.13506305 0.048482742 -0.22180009 -0.060483225 0.14781547 0.29521808 -0.017221017 0.01860381 -0.18408008 -0.27025223 -0.363084 -0.33174723 0.09235869 0.06832979
士 -0.2242325 0.40293196 0.17467779 0.695707 0.14601342 -0.21495008 0.37854558 -0.51272213 0.4138803 -0.3171587 -0.14977762 0.15476166 0.27445963 0.07798886 -0.015133223 0.19550169 0.2448484 -0.116159536 -0.19311725 -0.17679366 0.17498009 0.08203683 0.15849118 -0.1948559 0.008633999 0.13688357 -0.11437249 -0.14658868 0.4822111 -0.15439473 0.08765156 -0.13422447 -0.14812052 0.13931169 0.16598295 0.0360618 -0.071101144 0.11918956 -0.16100603 0.16608661 0.4262589 0.23711994 -0.014593176 -0.06291277 0.24334802 0.25769696 0.094720185 0.1162642 0.044075295 0.3324121
丘 -0.05886666 0.45038816 -0.34970567 -0.36111134 -0.23271696 -0.15972595 0.01867522 0.109341644 -0.31989512 -0.22720055 -0.10009282 -0.30715343 0.2341733 -0.09380407 -0.146889 0.39030266 0.21237628 -0.33624318 -0.1031032 -0.00015495438 0.3827169 0.11192601 -0.2654267 -0.03984408 0.18576491 0.23060636 -0.19098665 -0.18005934 0.27700958 0.40362203 0.32644555 0.051406045 -0.4477279 0.37210122 0.33857834 -0.27352515 0.012690092 -0.09960814 -0.33056435 -0.263138 0.020661924 -0.10264411 0.22436163 -0.034757912 -0.09452705 0.050747365 -0.115751505 -0.045177292 -0.073066734 -0.03235194
身 0.009437423 0.50973785 0.112779744 0.35445112 -0.26145765 0.044902883 0.21394193 -0.28513503 0.11324259 -0.09904654 -0.04246214 -0.030550819 0.29508102 -0.023976784 -0.15989833 0.15430832 -0.10876385 -0.047777016 0.32148835 -0.07855872 -0.11277561 0.08436898 0.14083543 -0.16269264 -0.016897045 0.02678712 -0.076428756 -0.06608273 -0.071103305 -0.07095626 -0.16626452 -0.07400173 0.018656228 0.11790436 -0.13676322 0.14287215 -0.22214285 -0.18289247 -0.13731344 0.33515927 0.13507205 0.11043847 0.008469597 0.72402865 -0.10701787 0.066284165 -0.2019812 0.11395219 -0.48102155 -0.05374145
入 -0.4010383 0.4989526 -0.4061787 -0.1943172 0.018084455 0.22356783 0.30376396 0.2681581 -0.30004984 0.026679844 -0.3151378 -0.01117061 0.23494066 0.39438477 0.18856564 0.024253389 -0.33237216 -0.1700621 -0.023816213 0.13982053 0.2649317 -0.63860494 -0.1572949 -0.040956303 0.55370414 0.36959073 -0.22045407 0.037072174 0.3123285 -0.26477098 -0.121264614 -0.1815793 0.015825443 0.4544468 -0.100258574 0.37935185 0.15049249 0.026361037 -0.050444588 -0.07063202 -0.07635519 0.15448639 -0.018651191 -0.14136255 -0.027367312 -0.07878012 -0.0534382 -0.120788805 0.089740746 0.18598439
志 0.14592566 0.3051481 0.027119199 0.1134071 -0.101098076 -0.08165785 0.40357253 -0.006030172 -0.16903692 -0.06882032 -0.010098621 0.3433675 0.3472386 0.095078394 -0.020290181 0.02713041 -0.068213575 -0.059850868 0.115919895 -0.36116198 -0.069762714 -0.26046264 0.28689802 0.1359695 0.22968751 -0.024082093 0.10078629 -0.33614352 -0.29858395 -0.20932138 0.032845348 0.066767156 -0.12599663 0.035798248 -0.10192629 -0.15445405 -0.055949237 -0.05169177 -0.26476985 -0.036504235 -0.07565663 -0.2324605 -0.21345395 0.11772762 0.3149617 0.18762794 0.052483022 0.17548828 -0.44981414 0.070844546
耻 -0.15653665 0.7026503 0.3456878 0.06576424 -0.015433889 -0.21638677 -0.08496381 0.20470151 -0.15332732 0.33173013 0.24283344 0.1126722 0.15846793 0.26984218 0.19378431 -0.008867769 0.33594278 -0.17404151 0.5159071 -0.13347912 0.029601865 0.09413302 0.10551969 -0.07519299 -0.11144352 -0.2160798 0.11482187 -0.0066212346 0.4907284 0.23133524 0.02936371 -0.11205753 -0.41173565 -0.052210137 -0.06967608 -0.09823483 -0.20447491 0.013096344 0.038653165 -0.17176265 -0.04394728 0.18090291 0.03262479 0.08470968 -0.11842718 -0.008109525 0.5269466 -0.16211411 0.053315096 0.2617644
失 -0.115316235 0.7113914 0.433263 0.20047973 0.06044984 0.47674343 -0.041031443 -0.03895178 -0.19290702 -0.019898575 -0.080942206 -0.13417111 0.06630562 0.1355183 -0.011552927 0.31395984 0.48789588 -0.20693672 -0.29648024 -0.21997344 -0.3367505 0.08909665 -0.25990075 0.17849451 -0.018586833 0.052676175 -0.23159552 -0.09326722 0.06347022 -0.03250964 0.16957675 -0.031875316 -0.23940375 -0.030445151 -0.3590035 0.32746196 0.1429432 0.17563361 0.12874815 -0.12553011 -0.16449629 0.23568897 -0.24808699 0.15511043 0.19092287 0.3074012 0.351079 0.04674139 0.29596764 -0.37457803
安 -0.26624104 0.5533615 0.00818166 0.024983173 -0.092530966 0.027015915 -0.11754821 0.18588534 0.004341611 0.11348539 0.00094486447 0.4530712 -0.09201577 0.0677166 -0.08493382 0.02766614 0.13659362 -0.06571803 0.09382745 0.023190377 -0.068948954 -0.49205357 -0.18545485 -0.09032066 -0.255016 0.0055344165 0.20986462 -0.22202577 -0.19848007 -0.13809007 0.013354697 -0.46307018 -0.041441288 0.021825494 -0.17823696 -0.25083536 0.25371298 0.075849146 -0.07852665 -0.124822885 -0.4372418 0.0564279 -0.28858656 0.23167841 -0.1999823 0.35164708 0.028814074 -0.11102437 -0.13598569 -0.24424466
富 0.104520895 0.43497783 -0.05737582 -0.034477968 0.043486822 0.007935003 -0.16850437 -0.1762447 0.19834927 -0.0364202 0.22663476 -0.034764256 -0.010517254 0.20387867 -0.50156826 0.34663916 0.102852374 0.058379136 0.007244225 -0.45945328 -0.03878826 0.052727144 0.12181782 -0.09187925 0.08898361 -0.345729 0.49519923 0.052229896 0.04576552 -0.114032276 0.16269493 -0.33205232 -0.08126852 0.2640513 -0.198712 -0.14650175 -0.19226897 -0.14299357 -0.06228433 -0.1517701 -0.24938338 -0.12751928 0.012611181 0.28803682 -0.5815401 -0.07275399 0.21622165 -0.29529414 0.22102 -0.055572294
赐 -0.08801584 0.42877412 -0.0037454523 0.2539199 -0.2825626 -0.32581383 -0.015882712 -0.5737485 0.26173735 0.018971574 0.36121553 0.26941642 0.09382969 0.084419176 0.13120675 -0.21076326 0.24801144 -0.093406335 -0.03774334 0.50819856 0.00859075 0.2639157 0.048249617 -0.2652203 0.048837066 0.20524506 0.09526005 -0.2868721 0.2592401 -0.40936184 -0.11429288 -0.028224282 -0.1036699 -0.24598184 0.2741187 -0.3953847 0.28821272 -0.2987716 -0.33698186 -0.33516884 -0.16940981 0.019676808 0.050500546 0.19102104 0.2726429 0.10711958 0.006689024 -0.026211038 0.06527705 0.10944033
患 0.014172679 0.6594438 0.21330553 -0.1929405 0.07162996 0.11893556 -0.21365547 0.2993166 0.049524568 0.2255043 -0.23776448 0.15733655 -0.21064048 0.45758334 -0.10493727 0.47305843 0.49048254 -0.2644479 0.00014021434 -0.08869214 -0.568809 -0.20547192 0.10391053 0.27011004 -0.10050157 0.026694288 0.22472736 -0.08337619 -0.022027947 0.22312652 -0.024354406 -0.08590059 -0.13288212 -0.19480534 -0.31940013 -0.32094893 0.014628174 0.36075744 0.09915549 0.13010117 0.07494423 -0.06406541 -0.4081016 0.281505 -0.11989777 -0.16473143 0.04286796 -0.18287854 0.049595065 -0.31554133
百 0.10258326 0.4881433 -0.10625502 0.05764352 -0.41794014 0.18401362 0.21034159 -0.09419418 0.08610024 -0.056639917 -0.07323254 0.21311632 0.060486544 0.27807263 -0.12448868 -0.12318958 -0.5583432 0.19625156 -0.05604141 -0.22205961 0.050513856 0.074228 -0.00026213005 0.14392796 -0.30180177 -0.773521 0.092294075 -0.058481704 0.11309896 0.38330793 0.16207033 -0.35880685 0.12585092 -0.0041374103 -0.46161163 0.20889176 -0.30674216 0.2536433 -0.015547124 -0.2267241 -0.30677432 -0.09237506 -0.2587514 -0.32316265 0.054430056 0.061387904 -0.28356725 0.010916587 0.10556255 0.3421163
回 0.08793671 0.38649312 0.1356645 -0.3066094 -0.18611668 -0.44547594 -0.013333508 -0.051395748 0.34685946 0.1876968 -0.17528287 -0.20309924 0.033941474 0.07806521 0.028592348 -0.08237575 -0.27095386 -0.08219442 0.020844964 -0.15289798 -0.17629835 -0.051166333 -0.14208682 -0.09456453 -0.12681876 0.42838243 -0.017658403 -0.13667122 -0.029275965 0.3344513 -0.27232575 -0.2501012 -0.10443814 -0.19372705 0.3035719 -0.2757657 -0.06506288 -0.24571148 -0.40091053 -0.22121611 0.10108476 -0.21323301 0.04719395 -0.03427322 -0.069323346 0.122358955 0.17405882 -0.24117567 0.16123123 -0.09100999
宰 0.11244151 0.17814 -0.30063018 -0.012397494 -0.28781834 -0.28435662 -0.27360675 0.020778952 -0.004255998 -0.4006162 -0.25992718 -0.10576041 -0.14098457 0.07857432 0.41105676 -0.03340517 -0.17286994 -0.11971956 -0.048123028 0.2667831 -0.20201321 -0.010668263 -0.050653897 0.3280936 0.44262424 -0.11743452 -0.26136813 0.18764502 -0.24372913 0.4798762 0.21002997 -0.28669629 0.07767656 0.0017670962 -0.18345815 -0.09454078 0.36621514 -0.14076644 -0.8299517 -0.0061249807 -0.106290154 0.05822967 -0.14207949 0.07786502 0.018882714 0.07742172 0.120853335 -0.35290086 0.18108314 0.3430786
朝 0.09206292 0.4855638 -0.39794266 0.09778153 -0.13478012 -0.12106207 0.23446149 -0.23140575 0.24339399 -0.18582363 -0.22100507 -0.122158945 -0.08493493 0.14285083 -0.326325 0.2735713 -0.8025847 -0.12859364 0.37449834 0.06171773 -0.0912542 0.27301523 -0.06371248 -0.28593066 -0.07703772 -0.27220616 -0.3494849 -0.2783611 -0.17249241 -0.30562055 0.101199776 0.063890025 0.04844296 0.14195307 0.107919894 -0.2921658 -0.09695542 0.25360262 -0.4601643 0.07365409 0.50322616 -0.14883423 -0.20498075 0.30062887 -0.01568425 -0.042074874 0.1028512 -0.31259432 0.0077873915 -0.14650008
莫 0.21909617 0.51841885 -0.048562996 -0.08118783 0.30257878 0.30216601 -0.19045803 0.35016355 0.4684997 -0.018824106 -0.12881531 0.37236485 0.11891404 -0.06720787 0.013026954 0.10482176 0.09753721 0.28114083 0.21350475 0.001315238 -0.20238917 -0.037904024 0.27996105 0.011272167 -0.020881712 0.06377542 0.02286922 0.21825449 -0.26671636 0.22086145 -0.1939774 0.06117711 0.16413388 0.14298004 -0.097917326 -0.05367779 -0.059359748 0.018122107 -0.09897818 -0.0025217617 -0.14826867 0.0061245724 -0.07173048 -0.18563406 -0.0066081975 -0.26889694 0.027191881 -0.21404016 0.24121733 -0.06938566
若 0.16919847 0.2885627 -0.029264802 -0.42834714 0.1271649 0.05832385 0.04678239 -0.39384314 0.15593038 -0.25164765 0.16309503 0.21761782 0.15168032 -0.34715822 0.1742343 0.7583883 -0.074741796 0.16035086 0.02684318 -0.29835504 0.035893187 -0.19557005 0.24665785 -0.118119 -0.26613998 -0.21537043 -0.028229063 -0.19447465 -0.03688237 0.056378618 0.04637288 -0.10650491 -0.15011793 -0.17307247 -0.10740252 0.16748548 0.06965859 0.118224815 -0.37183648 0.16671355 0.028225435 -0.32995313 0.2937641 -0.033911128 0.5012949 0.16155355 0.4533877 0.30640602 0.09787954 0.20844448
