1352 50
， -0.05426542 -0.22671455 -0.18546072 0.25169283 -0.13521083 0.01812168 0.28101376 -0.22910087 -0.09706089 -0.12363714 -0.28031182 -0.3404959 -0.13894658 0.10546582 0.51680994 0.19117965 0.21520758 -0.088399276 0.2340117 0.355027 -0.30887288 0.19190222 -0.007327074 -0.108889334 0.071238175 0.10585741 0.007976006 0.23438704 0.053598706 -0.054500528 -0.51096565 -0.07293537 0.3737334 -0.06424967 -0.056027222 0.14761843 -0.07592048 0.0057431567 0.17437787 0.02559944 -0.047250543 0.0446826 -0.101183 -0.22635622 -0.13714893 0.1319363 -0.13474299 -0.30043122 0.36218086 0.2654511
子 -0.030614972 0.08073851 0.040131036 -0.1819433 0.004023355 -0.060825154 0.27840334 0.018853 -0.22492509 0.054641545 -0.04816708 -0.023023248 -0.062499277 -0.021812132 0.65362406 -0.13553652 0.14657335 -0.061420675 -0.09373714 0.064517304 -0.2803599 0.1816957 0.21247682 -0.15364365 0.11557811 0.2697268 -0.001632317 0.1977734 0.16718808 -0.14347784 -0.059632245 -0.015720606 -0.10156184 0.26651806 -0.1613381 -0.009436084 -0.15311173 0.27869666 0.22200347 -0.12710576 0.23471375 0.11178137 0.038665175 -0.13401344 -0.0971717 -0.0822571 -0.17830504 -0.19637036 0.3183977 -0.1153428
。 -0.41330191 0.3953465 0.09528172 0.19256508 -0.20151448 -0.33779666 0.20308134 0.09845521 -0.40337518 -0.061857488 0.13727635 0.057482917 -0.1703848 -0.08218707 0.4878211 -0.3322318 -0.039845757 -0.0045314757 -0.062102478 0.28824663 -0.3651192 0.02689317 0.009760304 -0.2608045 0.18716386 0.11256083 -0.1566917 0.21020837 0.23508394 -0.005570908 -0.06898076 -0.19787396 0.1393934 0.22152784 0.109877065 0.03623071 0.059918065 -0.04616637 -0.07299583 -0.15159856 -0.006145793 0.09683255 -0.10356921 -0.5000345 -0.28964752 -0.16471711 -0.34274167 0.03155305 -0.10569956 -0.005055568
： -0.21499054 0.07671241 0.2950137 0.13372701 -0.14645423 -0.15612653 0.16000639 -0.27769554 -0.26413587 -0.06331557 0.27009407 -0.051994964 0.00818186 -0.06638354 0.69417185 -0.3157173 -0.12781881 -0.009067508 0.016782232 0.10018101 -0.2944857 0.08033745 0.25016457 -0.263298 0.12963194 0.36381418 0.18218377 0.07728779 0.0024794005 -0.08331775 -0.086291015 -0.20309919 -0.12753814 0.08650948 -0.0013805199 -0.07369743 0.1736135 0.2040466 0.13625827 -0.122388214 0.036058776 0.02906328 -0.037788752 -0.28868052 0.18642226 0.07703705 -0.2865825 -0.16238704 0.09934231 -0.12526606
曰 -0.056013707 0.11790269 0.06554212 0.059135538 -0.16850388 -0.091769286 0.10415294 -0.033963054 -0.16504577 -0.05021672 0.22912766 0.18605834 0.04894158 0.052957032 0.72183895 -0.2384461 0.102452025 0.074643485 0.026942391 0.13781299 -0.28403136 0.10417587 0.06899097 -0.20491523 0.024302341 0.3030161 0.061861485 0.10250718 0.0613816 -0.11653184 -0.23013246 -0.16792028 -0.20039748 0.031368196 -0.031774387 0.01784009 -0.036711212 0.29174083 -0.010829451 -0.016726328 0.29231393 0.1652487 0.07720041 -0.31893617 -0.08655211 0.15555105 -0.35114765 -0.14072737 0.0825593 -0.08171269
之 -0.16308007 -0.099299684 0.23868215 -0.028545141 0.18405665 0.43888533 0.11754976 -0.07574954 0.39603052 -0.43095207 0.04916844 -0.0056081945 -0.25924408 -0.14858033 0.49396846 -0.06299368 0.15154313 -0.02426812 0.09541375 0.22257301 -0.309617 0.051894106 -0.13953748 -0.34992945 0.21436332 -0.13741498 -0.03151571 0.19573183 0.055625472 -0.06855298 -0.28037834 0.31249303 0.16606046 0.16618365 -0.058232456 0.045297485 -0.3469047 0.018934347 0.16372904 0.001285072 0.05842551 -0.023713741 -0.3929884 0.15227321 -0.25468782 0.25182515 -0.24205185 -0.15129104 0.29645887 -0.06261762
不 -0.077457756 -0.29506573 0.263695 0.04225652 0.1520889 -0.040570963 0.5010974 -0.08442873 0.18972391 -0.06060043 -0.13709532 -0.41312382 -0.30541024 -0.13746089 0.70059377 -0.30751824 -0.049906235 -0.011739486 0.24051364 0.27589554 -0.3609328 0.20404121 0.09573295 -0.12339169 -0.097481824 0.48670733 0.19083858 -0.13805065 0.019479942 -0.0151106985 -0.31391335 -0.06370953 0.02669162 -0.12162241 0.22680478 0.119068764 -0.35608825 -0.0055608694 0.14829683 -0.12827706 0.14076367 0.10944591 -0.047140274 -0.13328524 -0.14095502 -0.17719245 -0.19607526 -0.17835984 0.11518836 -0.071622774
也 -0.09080717 0.07120845 -0.22616339 0.36854658 -0.008915348 -0.046764866 0.12432808 0.03827059 0.07306833 0.0702513 0.20469917 -0.28590864 -0.097357705 -0.15377931 0.5148485 -0.0062799705 0.14669746 0.22886114 0.42977065 0.06156262 -0.4511697 0.16450429 -0.14395097 -0.1326053 -0.09517592 -0.014801764 0.3879206 0.0673844 0.10665849 0.039995298 0.04421225 0.11368679 0.09082357 0.081682585 0.16263424 0.09721999 0.047910072 -0.08609047 0.13953945 0.09506162 -0.06745828 0.02624444 -0.16705576 -0.09683925 0.15636432 0.09705649 -0.0020168484 -0.004461508 0.08143289 -0.21029437
而 -0.14501032 -0.18883687 0.15845156 -0.082978025 -0.016436892 0.01508607 0.40212214 -0.3212349 -0.025218265 0.042309076 -0.22868167 0.010336513 -0.14085217 -0.10743527 0.63174707 -0.03556986 0.02489754 0.24983592 0.120830394 0.47249243 -0.038545683 0.2496031 0.13586026 0.007493678 -0.03367251 0.098943815 -0.33149758 -0.0073353387 0.101052396 0.04995546 -0.41818595 0.29759595 0.029637555 0.12222615 -0.030341253 0.017121363 -0.26458168 0.042174425 0.5366732 0.033585194 0.1279687 0.15853482 0.1164533 -0.16730009 -0.030611442 -0.10896064 -0.27117229 -0.18112734 0.10497694 -0.13105091
？ -0.20729928 -0.08513952 0.15686576 0.057708822 -0.21523263 0.09175739 0.38217977 0.002185781 -0.0374449 0.25525418 -0.11396312 -0.083735295 0.034237877 0.024780756 0.6402831 -0.121609725 -0.0641796 0.063016705 -0.032200996 0.22269456 -0.11372594 0.34415016 0.20929219 -0.17675185 0.118604824 0.1375184 -0.18644865 0.100035295 0.14939724 -0.19660243 -0.3053265 0.049621735 -0.27651983 0.12207895 -0.1255955 -0.16394193 -0.20267414 0.16574405 0.11944621 -0.21675888 0.26597598 -0.012783579 0.12794816 -0.2372422 -0.02769002 0.021719374 -0.42687863 0.03870811 0.2842233 0.09748255
其 -0.2568567 -0.24980968 0.19631168 0.28232467 0.08556021 -0.06464383 -0.05489402 -0.067920625 -0.26136574 0.03395084 -0.008048853 0.27706468 0.029347975 -0.08197173 0.38712615 -0.11132376 0.045345083 0.07806128 0.10866487 0.010641895 -0.2922504 0.19598758 -0.022350952 -0.09858139 0.0005027475 -0.24797475 0.09276897 0.46857238 0.201918 -0.010217256 -0.26295182 -0.21282622 0.25138265 -0.0410277 -0.28468266 -0.17996626 -0.17956303 -0.056469776 0.1386749 0.007730496 -0.06211656 0.15783943 -0.01786156 -0.017825766 0.089232974 0.35261965 -0.23200452 0.11563241 0.16989721 -0.109688304
人 -0.121216595 -0.10277928 0.017467674 0.44776675 -0.058581915 0.115475565 -0.16278432 0.04981291 -0.33183587 0.20100635 -0.026720831 -0.058098696 0.06815559 -0.31731606 0.4934985 0.009971373 0.12269952 -0.15041088 0.22247303 -0.026088033 -0.08928953 -0.11424853 -0.14959672 -0.17626224 -0.1461341 -0.052992195 -0.10099347 0.06747244 0.34700772 -0.18090169 -0.2692524 -0.072338566 0.110551685 -0.115091726 0.11723247 0.115722016 -0.095870405 -0.21376692 0.1234649 0.3284811 -0.18267797 -0.09374514 -0.08199102 -0.032283593 -0.3762633 0.35915086 -0.026947254 -0.06193406 0.074181795 0.21686663
者 -0.14214581 -0.022056814 0.33172482 0.3821899 0.11450698 0.0466486 -0.08574962 0.3697976 -0.07865855 0.4449875 -0.05735026 0.08155363 0.03931496 -0.30684677 0.60099006 0.07875748 0.041252594 -0.38727775 0.18560125 0.036259815 0.22723483 -0.05608076 0.10276153 -0.20576015 -0.10706332 0.019419266 0.016938364 0.2810145 0.121074885 0.10249193 -0.010440346 0.17982098 0.19038823 -0.09684815 -0.28525582 0.18832918 0.015505392 -0.011671344 0.1493714 0.23642792 -0.27527025 0.06402317 0.1631522 0.017837502 -0.08877946 -0.022617338 -0.25146195 0.05425468 -0.019403188 0.30120087
以 0.096980855 0.012548417 -0.13857815 0.26265043 0.05874379 -0.28063914 0.34565058 0.1375672 -0.2590925 -0.16439593 0.25344002 -0.09319934 0.15074526 -0.111248516 0.51687104 -0.17387041 0.019129107 -0.08999529 0.14040115 0.1091077 0.08936442 0.15138943 -0.048892066 0.029280324 0.065682754 -0.07665675 0.19029051 -0.026268119 0.13729127 -0.011058833 0.11201319 -0.20199256 0.24502729 0.043300435 0.2707642 0.16157244 0.09078357 0.10529048 0.0022164856 -0.12281676 0.14458309 0.1482082 -0.025963062 -0.09760564 0.0669287 0.2883303 -0.1851114 -0.08511263 0.15237981 0.3430053
有 -0.0544882 -0.1631122 0.29652393 0.43775216 -0.12440544 -0.29080683 -0.021133216 0.27524614 -0.27834108 -0.4015163 -0.27931514 -0.15886037 0.22761272 -0.33345944 0.5745086 -0.15730092 -0.014097396 -0.18270794 0.096925445 0.14406493 -0.1631352 0.16341293 -0.15064646 -0.10455773 0.11116723 -0.2563222 0.0031385277 -0.13044567 0.23504843 -0.4663521 -0.13081723 -0.1648994 0.08943544 -0.15751055 0.14873838 -0.33321348 0.40638366 -0.15011822 0.24964452 0.039087046 -0.15650547 -0.10647244 0.11967957 -0.27607435 -0.5584099 -0.056224562 0.038661387 0.15843722 0.08863192 0.113330334
于 0.46854123 -0.20210487 -0.033075344 0.11341252 -0.16114856 -0.20546505 -0.045026407 0.2678999 -0.19905944 0.01735181 0.066049434 0.13510177 -0.10996378 -0.09221575 0.57899535 -0.21941674 -0.16657722 -0.0038162037 -0.37623578 0.15161116 0.24921215 0.25945857 -0.2151925 -0.10810652 -0.17532536 0.09327738 -0.020284591 -0.11747252 0.3449692 -0.26377994 -0.20300959 -0.1960337 -0.19791739 -0.15603682 0.28410882 -0.12251131 -0.016865967 -0.23413187 0.02044148 -0.13651793 0.16513129 -0.12311274 0.22104555 -0.05009704 -0.22251207 0.076875985 0.0053476705 0.144834 0.09574589 -0.2005156
矣 0.38507134 0.017812872 0.25872296 -0.0276747 0.059934612 -0.06974422 -0.39668655 -0.036295537 -0.20586412 0.0477303 -0.08276627 0.0023672846 -0.07654384 -0.18824105 0.53724205 -0.14965332 0.13220428 -0.10773766 -0.2744537 0.2153008 -0.027927455 0.40779215 -0.02335313 -0.12679178 -0.08083801 -0.017347258 -0.039844457 0.23247217 0.10734108 -0.13732058 0.29401058 0.1483865 -0.05271991 -0.38155955 -0.06457638 -0.019040609 0.13034973 -0.04195355 -0.0063631022 -0.27041993 -0.10551126 0.0837679 0.079262 0.11175511 -0.06979137 0.123749755 -0.17619312 0.079742305 0.10882884 -0.1320528
为 0.22608094 0.014029199 0.22170116 -0.14904799 0.011804811 -0.31534967 0.17323953 -0.06355497 -0.13752316 0.08203056 -0.031832624 -0.36625051 0.048340693 0.15392616 0.6102412 0.06339409 -0.16634908 -0.07350982 -0.23881574 0.060396735 0.115828216 -0.016587758 -0.36569118 0.072275005 -0.06627008 0.040767297 0.017408945 -0.004026675 0.14288059 -0.0104641095 0.27672258 -0.089166656 -0.084613524 0.05156495 0.19943352 -0.07518146 0.14692524 0.045799173 -0.09084798 -0.17354594 0.40027344 -0.29678234 0.008346237 -0.081007525 -0.10219675 0.014036924 0.078706935 -0.16596204 0.16614118 0.22218347
君 -0.11207257 -0.19588935 0.016795982 0.1483418 -0.1842099 -0.0066831703 0.22050694 -0.026764179 -0.12675981 0.110938095 -0.31492597 -0.31237513 -0.12986143 0.045634337 0.48629344 -0.08994133 0.05338226 -0.10574814 -0.10014171 0.25648507 0.1440808 0.2549483 0.074606754 -0.075788036 -0.12502415 0.14751126 -0.054002445 0.044907793 -0.07327121 -0.015326932 0.0340252 -0.044172633 -0.01871568 0.3195339 0.053222302 0.07323003 0.13182324 -0.037183076 0.16518784 -0.09329858 0.11600759 0.17412713 0.17724548 0.10240728 -0.08671145 0.013807436 0.045554172 -0.22301258 0.27002552 0.0033841003
乎 -0.07751677 -0.18017462 0.16442862 0.24034461 -0.30460468 -0.30615088 0.033738613 0.02545966 0.13299061 0.16560815 -0.0797791 0.15067884 -0.13448854 -0.0273969 0.71177804 -0.19391127 0.23540437 -0.035593685 -0.04749339 0.3004873 0.07177535 0.45195013 -0.050102077 -0.04830302 -0.24200647 0.048640776 0.13075577 -0.0048912545 0.15512404 -0.12102633 -0.196124 -0.19483703 -0.39647415 0.11876268 0.1487747 -0.1410187 -0.22037466 -0.22719532 0.10344679 -0.104053125 0.12122141 0.1439076 0.21777521 -0.12313514 -0.03827362 -0.040288635 0.099300995 0.07310161 -0.0059308354 0.042416997
可 -0.10939336 -0.09008248 0.08624755 0.32414326 0.0018774855 -0.032788225 -0.041094817 0.1585597 0.12805836 0.31544438 0.034610648 0.018017529 -0.13849314 -0.09564274 0.60252464 -0.1463478 0.23275666 0.16849495 0.20173827 -0.02509053 -0.033975273 0.058323797 -0.04025078 -0.1745221 -0.14026695 -0.05830753 0.09757937 0.07927106 0.049978074 -0.233324 0.08530292 0.30744958 -0.03731781 -0.010782441 -0.024492245 0.19014849 -0.032345794 -0.11302008 0.37335137 -0.1381121 -0.20732331 0.27162385 0.048888456 -0.09093108 0.04147544 0.33115727 -0.14985123 -0.007908665 0.14673145 -0.07215357
如 -0.21031272 0.09164989 -0.15161927 0.17666928 0.096037775 0.08281243 -0.30098483 -0.092197075 0.17351766 0.3150585 -0.112293914 0.31425026 0.20656012 0.21649863 0.5984948 -0.02977091 0.2115684 -0.054653954 0.1074643 0.16403647 -0.005165955 0.3183384 0.014147992 -0.21079181 0.012319189 -0.26941586 0.12117859 0.09655617 0.07283615 0.023168245 0.18954389 0.16443837 0.066156566 -0.17506446 0.075271465 0.23883449 -0.0448968 -0.123995915 -0.08931452 0.22728316 0.3095144 0.2086651 0.26132646 0.15929191 0.009571271 0.18492398 0.13093337 0.16249843 -0.04361467 -0.07563838
与 0.060073674 -0.04454474 0.017690986 -0.038702637 0.22093186 0.040894855 -0.15163752 0.15469734 0.23641244 0.27932087 -0.12917499 0.1334284 -0.30753446 -0.08362293 0.5095207 -0.15979762 -0.0098715555 0.06998154 0.07444094 -0.048845887 0.040464442 -0.39788595 -0.3349513 -0.10380976 -0.028800052 -0.09747839 -0.026483262 0.090808585 0.14096834 -0.16536006 0.012584545 -0.13905753 -0.060621303 -0.39784774 -0.04293674 0.0831651 -0.171041 -0.029082324 0.18494451 0.20191261 -0.22892426 -0.050268564 0.30889648 -0.08559059 0.05772913 0.027548593 -0.043234583 0.072810635 0.16324435 -0.08423431
； -0.10954862 -0.23478225 0.031544108 0.44174403 0.2922171 0.24347565 0.33166882 0.04433075 0.35874605 0.028734408 0.22094533 -0.6532231 0.15001704 -0.10807921 0.505469 0.08756193 0.48457655 -0.24930367 -0.219635 0.31510544 0.09116759 0.10113528 0.081390575 -0.15534624 -0.2458001 -0.120986916 0.10089905 0.14905499 -0.10042619 -0.24690187 -0.3299313 -0.1903891 0.3210634 -0.23967125 0.123125836 0.41745934 -0.011979656 0.10572194 0.2854173 -0.09192034 -0.030535271 -0.12774156 -0.14543109 -0.092066996 0.24710314 0.25943157 -0.020945197 0.20503414 -0.0047255433 -0.21976991
言 0.003331806 -0.21593228 -0.018097414 -0.04091616 -0.0019098883 0.012711005 0.41326863 0.22772604 0.080175824 0.22961569 0.04561779 0.0030026436 0.041943025 -0.095916346 0.49076706 -0.12876372 -0.16832435 -0.15447038 -0.10836911 -0.0033046934 0.13765919 0.18095133 -0.41996133 -0.03282735 0.21878356 0.2525212 -0.09629687 -0.101140134 -0.00966873 -0.039229058 0.25777435 -0.40199706 0.22842486 0.1509798 0.016378615 -0.12586121 0.21692654 0.03173977 -0.23815666 -0.23913717 -0.060910884 -0.08714512 0.12816194 0.038570028 0.20177251 0.22508137 0.42701867 0.07659849 0.113752864 -0.3648573
无 0.17365414 -0.14480984 -0.14288351 0.24872634 -0.040585104 -0.314356 0.28562933 -0.08094966 -0.1041969 0.15071587 -0.04810381 0.021478876 -0.016001433 -0.14326678 0.5640955 0.016608646 0.2975543 -0.076122284 -0.0838724 0.27122617 0.039475117 0.28388217 -0.15265019 -0.15236112 0.079819255 0.060580015 0.05935757 0.036478717 0.13912912 -0.21155652 -0.034427 -0.19663237 0.40139782 -0.13440795 0.097573645 0.19104797 0.32621288 0.1228905 0.53238505 -0.011432342 -0.015750173 0.11236675 0.1758588 -0.12187641 -0.14291678 0.027458893 0.19701579 -0.059970766 0.042493552 0.21955238
则 -0.07006191 0.12131973 0.014165967 -0.14431083 0.046258423 -0.2719231 -0.033353925 -0.19818987 -0.18849733 0.026096713 -0.18813132 0.05347505 0.19429424 -0.108397596 0.5381225 0.19006176 0.07941895 0.04699116 -0.24575232 0.36903536 0.086835735 0.18085407 -0.07771704 -0.07056821 -0.20095278 -0.1631144 -0.2926947 0.089042924 0.27502793 -0.09266481 0.06629704 0.3899414 0.27287343 0.22034487 0.095497124 -0.27559248 0.061287347 -0.13616946 -0.10827817 -0.32868537 -0.10353867 0.04739024 0.54178035 0.19134632 -0.29526532 -0.21713157 0.15677434 0.14591947 -0.042069636 -0.02300642
！ 0.019419402 0.30197144 0.24864623 0.049200516 -0.29019344 -0.057636987 -0.050850037 0.19190592 -0.068887934 -0.04463678 0.03368893 0.26270524 -0.007881993 0.037678204 0.5177128 -0.056758236 0.3359259 0.048509106 0.1261089 0.2007675 0.1072073 0.044706505 0.013413912 -0.10498721 -0.10622231 0.032243222 0.0013785558 0.049979318 0.13242984 -0.03578265 0.041786667 -0.24657479 -0.34338546 0.1460086 -0.20813815 0.130634 -0.037896104 -0.24585095 0.11860376 -0.16701417 -0.17168516 -0.057757486 0.39167294 -0.077875674 0.042372458 -0.20149668 0.31972623 0.08360054 -0.14148264 -0.15723903
问 0.24305579 -0.025774032 -0.017572729 -0.207904 0.0072253 0.25133654 0.22941498 -0.01440868 -0.13234153 -0.049588483 0.29348361 0.0052546374 -0.11214133 -0.084605515 0.5586474 0.11909803 -0.33304507 -0.136102 -0.5058411 -0.061170932 0.03458643 0.07771411 -0.43663847 -0.009434756 -0.32047045 0.05329934 -0.13433376 0.13158941 -0.03711986 -0.060675006 0.04005923 -0.08143245 -0.22087298 -0.13469744 -0.06694517 -0.09096625 -0.01834197 -0.12568308 -0.22957286 -0.31006396 0.31759137 -0.337741 -0.15124626 -0.2530873 0.16804864 -0.06447562 0.448343 -0.08036157 0.28266203 -0.11522764
知 0.04750938 -0.15568501 0.050533015 0.04320682 0.039226536 0.26199877 0.20672758 0.030500194 -0.10652295 0.1764491 0.10573079 -0.305816 0.050169136 0.18793456 0.52354085 0.009125508 0.012759926 -0.061905365 0.22264443 -0.031395942 -0.016936071 0.010861829 -0.15223593 -0.07615725 -0.080552034 0.14257216 -0.062820725 -0.18261495 -0.11867143 -0.3066654 0.15921614 -0.4274054 0.28291678 -0.22513108 0.013346109 0.063484944 0.16104375 0.12978022 0.029669756 -0.3666042 0.10379316 0.24171987 0.07937874 0.08020707 0.07335555 -0.124101624 0.24085167 -0.08691267 0.3121643 -0.045667894
何 -0.1460192 -0.062392406 0.1982424 0.10376286 0.19808978 -0.17562653 0.010194813 0.057904907 0.062443845 0.25850418 -0.0067064073 0.22246984 0.13305359 -0.12839861 0.6057337 -0.05347514 0.0059693847 0.104565516 -0.26448894 0.13642779 0.10258626 0.14965221 -0.059826612 -0.18158004 -0.10151918 -0.062200196 -0.17681006 0.13814679 0.22123961 -0.0564242 -0.08557326 -0.082440674 -0.38932443 -0.043367673 0.31811056 -0.07766481 -0.25874314 0.019551223 0.12641087 0.2000502 -0.07735247 0.1874204 0.15128472 -0.012654235 0.13759653 0.054132678 -0.18770975 -0.120924436 -0.03352938 -0.30789232
吾 0.11806577 0.15788491 0.056569308 -0.027021492 -0.17552987 -0.16247603 -0.029557489 0.18850736 0.0076722214 0.008061449 0.42861688 0.033740696 -0.14972979 -0.2167865 0.5756582 -0.06821953 -0.18040185 0.35482675 -0.07300936 0.24383457 0.09004931 -0.2019459 0.041253243 0.065761074 -0.06819412 -0.2185486 0.037029475 -0.20271647 -0.17568764 -0.21357575 0.09641374 0.21793482 0.025821656 -0.0102923885 -0.09097068 0.0029828455 -0.08043561 -0.19216013 -0.004610199 -0.22065324 0.046066694 0.09108215 0.15065375 0.4245841 0.10784667 0.22834447 0.07631766 0.15538707 -0.32986748 -0.18596837
仁 -0.037157126 0.15865842 0.21414985 -0.09110735 -0.054461475 0.30507493 0.1383913 -0.10396892 -0.24682619 0.03263974 0.041250214 -0.15178518 0.09616855 -0.079874836 0.44707882 0.02622208 0.0033951176 -0.020454785 -0.002156206 0.10779891 -0.011936995 0.016884658 -0.10435608 -0.14513408 -0.03065332 -0.2813265 -0.123200476 -0.16303055 0.12615983 -0.15617083 0.0998169 0.03410033 0.094068065 -0.07023915 -0.078080356 -0.08635187 0.003508104 -0.015748248 -0.15910877 -0.0648375 -0.0011644894 -0.06428586 0.023647713 -0.1379158 -0.09507625 0.16569486 -0.1252447 -0.0384096 0.17357212 -0.19104311
夫 0.19432554 -0.027025014 -0.04934091 0.11893278 -0.07407233 -0.073226295 0.04925054 0.10655093 -0.1512518 0.34518436 0.10808238 -0.061124135 0.06166829 0.038219508 0.51898855 0.042060345 0.30208847 -0.072325505 -0.091659464 -0.13592774 0.26214045 -0.0033422792 0.12343701 -0.0994634 0.120135464 0.12633857 0.08762412 0.14025968 0.005742784 0.2544076 -0.10041696 -0.2524611 -0.20346674 -0.118637264 -0.23504801 0.0027621528 0.11174704 -0.28522494 0.047876537 -0.090472884 0.033076875 0.015470945 -0.06282937 0.0010699097 0.15729673 0.06529871 -0.01806487 -0.10599362 0.1790713 0.06631735
、 -0.31197318 -0.106847756 0.37037906 -0.077378035 -0.18615651 -0.3470674 0.0845387 0.17736144 -0.14083728 0.3044962 0.30918378 0.22885111 -0.13563655 0.27249366 0.54305357 -0.1934603 -0.21754579 -0.00520179 -0.3350321 -0.050862182 0.12412907 -0.43732405 -0.24207027 -0.23768635 0.1369044 -0.15503731 -0.21402426 0.060367055 0.18898888 -0.14784126 -0.3207412 -0.068933666 -0.30400252 0.26632866 0.19309372 -0.0010008952 -0.123686045 -0.0042085433 0.07044631 -0.48470268 0.10659119 -0.43145812 0.1622738 0.057689294 -0.0775097 0.026497245 0.1434011 0.6211741 0.5607276 -0.16459645
道 -0.13306254 -0.11433537 0.19080381 -0.027316896 0.041599203 0.20429538 -0.22403516 0.33112776 0.008214496 0.38420913 -0.045929212 -0.05779489 -0.2220858 0.24903937 0.40735456 -0.042192377 0.099656224 -0.1703059 0.14223164 0.14643526 0.26280063 0.24911496 -0.18197945 -0.17412671 -0.08014428 0.07696096 -0.37611493 -0.22627825 0.07540724 -0.06703681 0.2247112 0.17281385 0.21176508 -0.047856014 0.25855005 0.0044939425 0.20344998 -0.2621476 -0.03702499 -0.060390722 0.25644904 -0.074378185 -0.030236088 -0.0072168843 -0.39992094 0.08504087 -0.21873331 0.039135076 0.12241396 -0.17264304
焉 -0.12802263 -0.109747715 0.124302864 0.30503178 -0.17096534 -0.078904964 0.15163852 -0.114177905 -0.25910464 0.05368282 -0.21884166 -0.21217678 0.070418805 -0.08594993 0.44939762 -0.023911431 -0.087766774 0.10558512 0.012196487 -0.12376586 0.020166967 0.22912726 0.06328805 -0.32005554 6.597489e-05 -0.13314931 -0.36061412 -0.27977318 0.07520276 -0.17657517 0.06568681 -0.018739972 0.037456892 0.34318873 0.08551394 -0.13944027 0.117057905 0.1372766 -0.0925388 0.066353194 0.08548497 0.13720426 0.3399609 0.12633741 -0.011657567 -0.049310595 -0.17266788 -0.095181406 -0.0810117 -0.01827168
行 -0.2085305 -0.02930725 0.11792117 0.08332466 0.40457484 -0.14266202 0.2578394 0.29462942 -0.11854803 0.013622349 0.06124463 0.1960496 0.015519798 0.08506033 0.49428403 0.114239596 -0.016442407 -0.059904322 -0.13929723 0.051610008 0.096920714 0.2578892 -0.10474244 -0.15019582 0.22649059 0.027330045 -0.19261584 -0.088729344 -0.23630035 0.123651676 0.3911364 0.02567387 0.17097516 0.027325826 0.13616094 0.13304543 -0.024807308 -0.017404217 -0.03636067 -0.15484634 0.1811445 -0.10526285 0.05156995 0.2867699 -0.27239585 -0.030716222 0.09668795 -0.16742046 0.067117624 -0.062631845
谓 -0.10215953 -0.23177257 0.16493437 0.124265954 0.21918823 0.49127808 0.39652786 0.33682275 0.09787238 -0.25007924 -0.049995586 0.00471959 0.05296659 -0.08640712 0.5838716 0.06300631 0.20059033 -0.15418564 -0.18982367 0.114009686 -0.35024878 0.08837921 -0.03584843 -0.21797591 0.1730784 -0.024631834 -0.21247958 -0.03486289 0.0013739858 -0.4096394 -0.09594086 0.099484235 -0.12055653 0.03600695 0.42048445 0.057432543 -0.16473812 0.13874906 0.28220165 0.10688686 0.14714086 0.18229961 -0.37761986 -0.10302794 0.1479739 0.16881809 0.03546419 -0.057566717 0.084102124 -0.14223465
必 -0.09849518 -0.22952051 0.25475955 0.051235765 -0.039859638 0.016202712 0.00048737135 -0.07470206 0.3627727 -0.2633643 -0.040622354 -0.14848307 -0.05114344 0.039038002 0.37114954 -0.049392723 0.20273311 -0.33269948 -0.19145042 -0.018885437 -0.13672015 -0.36256516 0.029154778 -0.29583433 -0.1833012 0.20292471 -0.15201321 0.18293253 0.07291829 0.10145481 -0.10090847 0.15304115 0.20612743 0.09298431 -0.074526556 0.2527387 0.28160045 -0.03936694 0.030532148 0.17133503 -0.09739493 -0.16721843 -0.09976157 0.08010585 0.3415362 0.23093398 0.043212377 0.15311696 -0.1261845 0.07585217
礼 0.16539887 -0.04328251 -0.18497232 0.41859278 0.046071675 -0.15910017 0.22846471 -0.31839857 -0.13197537 -0.16964036 0.17210403 0.11124627 0.22932741 -0.09152434 0.38516736 0.33553642 0.2642344 -0.11190403 0.03239476 -0.35080194 0.26717597 -0.116713844 0.09282637 0.1826437 0.1688577 0.3658866 -0.13179226 0.14681874 -0.022182295 -0.4409078 0.040854786 0.2661297 0.20263578 0.2226411 0.06293255 -0.025822595 0.0746348 -0.53047556 -0.17552224 -0.2267063 -0.26617762 0.39847243 -0.16198936 -0.35640705 0.25054857 0.1266634 0.0014698887 -0.25309715 -0.0020865034 -0.022066778
孔 0.12727855 -0.11115064 -0.12618151 0.034162898 0.1246898 -0.009749303 0.3325149 0.17063913 0.19454442 0.29434544 0.23863147 0.01897041 7.838197e-05 -0.2262511 0.6743577 0.1505893 -0.3936001 0.012589487 -0.1835695 0.14626229 -0.14884602 -0.054557573 -0.17087016 -0.4030304 0.35652268 -0.302475 -0.095608994 -0.3047315 0.10984945 -0.16909344 0.22980462 -0.22320901 -0.33252865 -0.027296582 -0.15390025 0.17006902 -0.10939968 0.24596839 0.22208914 -0.24864559 -0.03798327 -0.10129808 -0.22327459 0.23872933 -0.027373102 -0.16483696 0.24136123 -0.3244206 0.14563099 0.024027899
斯 0.021369556 -0.34078002 0.30485436 0.14485386 -0.06659878 0.2571938 0.28563717 -0.046208955 0.15121457 -0.35212007 0.23277175 0.28767675 -0.10884721 -0.17612973 0.49501795 -0.20808083 -0.008639196 -0.17510699 -0.01821895 0.04885911 -0.31292742 0.33525023 -0.0927345 -0.08816102 0.17925237 -0.36105204 -0.08390558 0.029134633 -0.1793946 -0.25572693 0.11756769 0.44752625 0.24487768 0.082391456 0.063849874 0.4471415 0.010998093 0.17678943 0.19912037 0.36162972 -0.29318577 0.4077899 -0.32680884 0.2170402 0.02487291 0.22274989 -0.32517782 -0.07436665 -0.031018946 0.010234214
三 -0.15152533 0.023710907 0.015063811 -0.08091481 -0.023448007 0.21436691 -0.01271083 0.13124052 0.20800571 -0.22022943 -0.13500072 0.3769562 0.08817618 0.40449467 0.42296705 0.4119305 0.27407497 -0.007825131 -0.02456387 -0.123228244 -0.24446848 0.00956711 -0.4535742 -0.10278652 -0.07487733 0.07176952 -0.13602157 -0.23582722 -0.07201447 -0.27558342 0.0031744349 0.2488525 -0.012526246 -0.14852162 0.07182211 -0.003118236 0.22073597 -0.35700157 0.11585462 0.00920527 -0.2021567 -0.35922903 -0.26144806 -0.089139186 -0.039153736 -0.45151 0.14515197 -0.11421736 0.10552836 -0.06432471
能 0.08696354 0.2118286 0.25064796 0.13310626 -0.10141412 -0.16406083 -0.343218 0.26812 -0.17930058 0.38735119 0.08791653 -0.25408745 0.032249756 0.035773356 0.505604 0.25149655 -0.14733036 0.24880338 0.16877255 0.085688286 0.10957644 -0.117132515 0.3603688 -0.10308942 -0.06904971 0.07755965 -0.28508207 0.19277532 -0.16879806 -0.14819805 0.22135936 0.38484937 0.13988583 -0.33029372 0.13169926 -0.07969556 -0.23421885 0.3058843 0.19166738 -0.018132105 0.1976092 -0.17205207 0.08686285 -0.10077311 0.13865559 0.053374935 -0.09320556 0.25478554 0.063587144 0.023604881
见 -0.11603715 0.03632 0.18743648 0.33884078 -0.03529701 -0.14530125 -0.01635501 0.1464589 0.21852186 0.17644796 0.22256115 0.037464872 0.30752215 0.17250367 0.4255135 0.35829952 0.1588727 0.12678546 -0.17373225 -0.118672274 0.16150211 0.33725324 0.038758215 -0.20833153 0.012264478 -0.18023928 -0.15837486 -0.35546598 -0.06360731 0.15110485 -0.015881123 -0.37243313 0.06453358 0.016023973 0.056620758 -0.003433301 -0.17908923 -0.1945673 0.051519543 -0.12580833 0.1483128 -0.009452055 -0.24138965 0.21016443 0.06647777 0.22943442 0.040091373 -0.06742721 0.08280747 -0.10671129
学 -0.2505317 0.15196106 0.1302823 0.10188216 0.1592056 -0.006570616 0.34082112 -0.40466225 -0.025363643 0.08510615 0.09217153 -0.124398 -0.13365062 0.35880822 0.542385 0.07334452 -0.036075544 -0.3716112 0.090803355 0.2861195 0.37249285 0.14963055 0.16002016 0.2354364 -0.25116497 0.26122794 -0.27406716 0.025853697 -0.0054295026 -0.061097983 0.23445453 0.2935228 0.06300583 -0.36383086 0.06514332 -0.04700482 -0.02037221 -0.017908508 -0.13228841 -0.00022762083 -0.163926 0.26604685 0.11313451 -0.100322545 -0.094656 0.29245558 0.09170225 -0.035834685 -0.07968786 0.06747473
事 0.009860281 -0.06586871 0.019990444 0.0007407451 0.13179606 0.0073939012 0.13732053 -0.027374122 0.19450453 0.1366152 0.38678592 -0.087002926 -0.14150947 0.062156834 0.47110465 0.12881732 -0.35451213 -0.019741826 0.051182617 0.1741203 -0.09933869 -0.15989716 0.13093933 0.26306912 -0.044218905 -0.14131619 -0.18691011 0.4031731 -0.094568215 0.26682365 -0.04191921 0.14842588 0.16669016 -0.12892759 0.013781037 -0.026804268 0.008551702 -0.20338929 -0.2243158 -0.034478683 0.025724394 -0.16968293 0.17117694 0.036641844 -0.17080718 0.048768066 0.36844727 -0.118511334 -0.1706493 -0.017157987
是 0.13997547 -0.06789075 -0.34778252 -0.038572125 -0.11177336 -0.050884597 -0.13264772 0.11844975 0.13532521 0.20631383 0.013455134 -0.21727392 -0.021795493 -0.12746765 0.5318491 -0.051310208 -0.019110441 0.07489862 0.048332945 0.30301818 0.118291676 -0.14859256 -0.09424038 -0.1596458 0.23835714 -0.17241184 0.06255151 0.34915242 0.19071095 0.14790843 0.34508678 -0.06656233 0.090955734 -0.23025522 -0.25809434 0.093984686 -0.01620593 0.2521526 0.128769 0.27955192 0.087597564 -0.17975678 -0.06327026 0.26129088 -0.04899495 0.073872685 -0.114371896 -0.046549097 0.03051149 0.14249611
哉 -0.03551718 0.20783354 -0.06794902 0.06282558 -0.21425092 -0.33459392 0.084659666 -0.13259016 0.2612942 -0.00018641073 -0.08538503 -0.07797201 -0.069412254 0.07498476 0.7210454 0.14902553 -0.009660985 0.2975347 0.15138635 0.041203365 0.14645302 0.081112474 -0.04268184 0.1573835 0.16294862 0.3713658 -0.037480075 -0.008575305 -0.16692068 -0.12951194 -0.18302225 0.018182069 -0.34223917 0.12350725 0.19808376 -0.009987152 0.021495149 0.15901406 -0.044506162 0.20645562 -0.5280448 -0.02172826 -0.0035189106 -0.32835796 -0.12847179 0.19698717 0.24359563 0.35371113 -0.13899833 -0.26605976
闻 0.19104648 0.12138697 -0.24877393 0.10551061 -0.20141503 0.014684115 -0.35296857 0.057326593 -0.10962346 0.18288466 -0.20710693 0.18898349 -0.06162171 0.039118838 0.6084114 -0.058042962 0.040120583 -0.29912403 -0.42632577 0.053872086 0.53149027 0.12664822 0.012730156 0.10374925 -0.0123739615 0.0073630977 -0.06246158 0.07981786 -0.33814982 0.24599795 -0.16855577 0.14523055 -0.08399049 -0.05659628 -0.39070702 -0.15699588 -0.0905759 0.077404186 0.04906682 -0.113146305 0.024474625 0.1960858 0.010876866 -0.06438364 0.025539067 -0.11899522 -0.13681273 -0.17840098 -0.21051729 -0.26954752
未 -0.010972873 -0.100492105 0.032370783 -0.32137433 -0.1330831 0.064072065 0.09874673 0.03760584 0.11326289 -0.115940824 -0.029823486 -0.19111897 0.07148325 -0.07034889 0.47909695 0.23421009 0.020113869 -0.03684031 -0.026928265 0.101327136 0.042607278 0.0054936055 0.07132082 0.057678793 0.022427164 -0.17621978 -0.2148164 0.016347636 -0.1496003 0.036465663 0.08200053 -0.025202798 0.054186802 0.059163067 0.03694197 -0.14793307 0.14888425 -0.34384948 -0.08038395 -0.010193952 -0.17877616 0.074771866 0.21959054 -0.043568455 -0.20134823 0.27834892 -0.049637638 -0.109974556 0.114361964 -0.24049963
公 0.14148383 0.079518445 -0.13099588 -0.04154622 -0.02383846 0.26313865 0.034169186 0.515678 -0.32226163 -0.04605179 0.042545106 0.11377955 -0.188203 0.23505832 0.6397961 -0.20627409 -0.19563535 0.110586114 -0.19112799 -0.084423155 0.11008211 -0.20877819 -0.16473709 -0.14697444 -0.058762625 0.16231412 -0.26508793 0.33381137 -0.23459667 -0.0072866394 0.1361438 -0.06294306 -0.34297538 0.22303703 0.27136627 -0.12453591 0.110742785 0.03662468 -0.10662299 -0.0580298 0.077842236 -0.028800018 -0.21112332 0.18517026 0.022378782 -0.10742886 -0.042792715 0.2131283 -0.15894713 -0.28876013
好 0.087644204 0.11411209 0.09346457 0.13174847 0.387479 0.31850585 0.13988654 -0.17276832 0.2182047 0.056713585 0.010795131 -0.5163685 0.09395752 0.0004857611 0.7718571 0.14990905 0.2664791 -0.15847515 -0.031151945 0.3151108 0.05625683 -0.27507702 0.1720973 0.09967668 -0.24761803 -0.14689575 -0.28605187 -0.26347125 -0.046728667 0.024060372 0.28827548 -0.06451317 0.55634576 -0.36323822 -0.1726081 0.12204427 0.0547208 0.09857701 -0.1558707 -0.27076268 -0.38320845 0.103700526 -0.10681745 -0.12328994 -0.15030077 0.5716056 0.20849018 -0.1511406 -0.10991741 0.22183439
我 0.13105892 0.01733552 -0.2463872 -0.17656991 0.16558553 -0.01132037 -0.2367836 0.20179622 0.06381166 0.010819125 -0.1034806 0.14172763 0.09492409 -0.1953516 0.50636697 -0.17229788 0.2152796 -0.09347609 -0.075318284 0.16374005 0.31795102 0.042574164 0.017520778 -0.013522269 -0.06412966 -0.043290943 -0.19075982 0.2506172 0.17077097 -0.48210162 -0.17045408 -0.21311004 -0.12109468 0.22610842 -0.13948373 -0.0062437337 -0.038310528 -0.12867491 0.07358493 0.17957751 -0.09186737 -0.10068173 0.2416234 0.021061532 0.08715434 0.099651426 0.049986072 -0.116260774 -0.052540116 -0.20380577
路 0.11703951 -0.078261256 -0.030946353 0.28447062 0.30550995 -0.30138814 0.1016103 0.4095993 0.10259503 0.006687687 0.22017722 -0.059555415 0.09827535 -0.19439234 0.6676514 0.524791 0.046759717 0.1046554 0.064745784 0.027703416 -0.23375793 0.16671994 -0.02069861 0.24842863 0.25143012 0.15196423 -0.17978458 -0.15030183 0.26626688 -0.25997943 0.1536988 0.0045558205 -0.39361775 -0.096223414 0.13474028 0.31240246 0.3102215 0.14889589 -0.21244879 -0.19484413 0.17471753 -0.2660159 -0.09286182 0.1352679 -0.05527769 -0.08782312 0.10842315 -0.22432525 0.109593086 0.09867117
在 0.0015718085 -0.26938877 0.17628837 0.274895 -0.014659496 0.29927534 0.16486567 0.37341014 -0.09481597 -0.1338333 0.22949865 -0.00027475134 0.024669504 -0.10176235 0.47973987 0.05364248 0.116673596 -0.40234128 -0.036077432 0.07557204 0.020695351 -0.07705306 0.3728671 0.008682527 0.24937283 -0.06562228 -0.27440283 0.2402651 -0.3042369 0.06482796 -0.1374602 -0.22379059 0.3727306 -0.2979474 -0.040919747 -0.14481911 -0.11114175 -0.2242388 0.17387758 0.15080997 -0.007236196 0.29515266 -0.16187288 -0.1897058 -0.45111766 0.09180679 -0.25483322 0.39337397 -0.1074125 -0.34950545
已 -0.0478161 -0.00232234 0.12924322 0.06546215 0.31662104 0.14801422 -0.22290137 0.07029247 -0.114227064 -0.31210792 0.04622108 0.27155784 0.18195365 -0.06727874 0.5899966 -0.07192666 -0.38026667 0.025410464 0.07340628 0.35558242 -0.1520037 -0.15162537 0.035659067 -0.07048576 -0.20239891 -0.4490616 -0.17577633 0.10456758 -0.4594933 0.03786053 0.29270208 0.016912196 -0.20567353 0.08847403 0.15506254 0.35561287 0.18953028 0.03251765 0.26776353 -0.15388522 -0.26226464 0.2650376 0.09541751 0.06936111 0.3102838 -0.017182002 -0.07851113 0.063559145 0.09460945 -0.155358
得 -0.009035101 -0.3018911 -0.08378814 0.19320239 0.15265684 -0.2722715 -0.03937204 -0.37666297 -0.0774703 0.48365054 0.19927725 -0.042736996 -0.14523497 -0.050741278 0.40168056 0.41539973 -0.1503163 -0.08125536 -0.002487931 0.06854675 -0.055961963 -0.084671095 0.13246663 -0.15194707 0.11845717 -0.18249121 -0.29141223 0.28487033 0.20006815 0.1555424 -0.124245144 -0.16445118 0.516934 0.08133494 -0.15856111 -0.0041963323 0.04512135 -0.26518947 -0.011767882 -0.14496212 0.0989836 -0.186533 -0.0050839707 0.00686631 0.098430105 0.1434389 0.11671889 0.19134581 0.47614503 -0.39934996
所 -0.13487849 0.19343854 0.025047911 0.06220756 -0.09557299 0.06662134 -0.14354432 0.03840048 0.052859038 0.3091427 0.25031564 0.28105292 0.062050592 0.33650407 0.4524625 -0.37782684 -0.025684943 0.11538869 -0.055792935 0.20080893 0.041816026 0.34104672 0.16112292 -0.39424095 0.26968893 -0.17625314 -0.11723973 0.15379901 -0.06482057 -0.019783834 0.27273923 -0.2076319 0.18964104 -0.100905985 0.124812976 -0.29167646 0.13197963 0.01929733 0.17993234 0.25159806 0.05764619 0.24229726 -0.0076399306 -0.023301184 0.30701205 0.108958125 -0.04034049 0.047610432 0.1737038 0.030126672
民 -0.2948461 -0.09932941 0.17710374 0.043772846 0.24467301 -0.043096077 -0.07470833 -0.06111463 -0.010624169 -0.21544258 -0.046976812 0.19934739 0.31570342 0.16458291 0.3922802 0.28915256 -0.16648374 -0.07508227 -0.16445637 0.18001203 0.058044717 0.051657975 -0.17896657 -0.28925183 -0.07437259 0.077674255 -0.12220153 -0.031396378 0.12156148 -0.0689822 -0.004925033 0.030875567 0.40843114 0.21310331 0.15641816 0.12948123 0.3595604 0.2620474 0.07750972 -0.35175407 0.2617563 0.11104456 0.28545028 -0.02774423 0.07011366 -0.18889664 -0.3615404 0.25297666 0.037209224 -0.15540937
小 0.09850669 0.23179735 0.06861508 0.48837182 -0.13030922 -0.13898706 -0.0039658416 -0.19771726 -0.21775417 0.20094903 -0.18436086 -0.20632994 -0.16114944 -0.039467223 0.523923 -0.044479903 0.21084264 -0.10606521 0.11473726 0.15994704 -0.0026630461 -0.124113575 -0.064532235 -0.05324123 -0.17378515 0.21707435 0.009002938 -0.07548999 0.121779904 -0.22599794 -0.19032328 -0.15391324 0.20544735 0.08261171 0.15283813 0.24400869 -0.024625136 0.28891304 0.062389176 0.104629025 -0.18824041 0.2670014 -0.058888044 0.14197184 -0.32252264 -0.274736 0.12571155 0.12053666 0.06219344 0.16260006
天 -0.3657626 0.027825462 -0.11265842 0.5349124 -0.1369708 0.05898716 -0.07753866 -0.06487927 0.1889789 -0.21113217 0.32662678 -0.10110523 0.28797925 0.2375156 0.41049197 -0.14977033 0.26060307 0.35955834 0.056445885 0.071920276 0.2350593 -0.32109225 -0.2266685 -0.6213916 0.06451964 -0.0028754012 -0.13251059 0.018361691 -0.016013037 -0.11008523 0.04002146 -0.17449008 0.12741435 0.43163207 -0.04130393 0.300593 0.25211182 0.13504611 0.06591973 0.1799597 -0.06342481 0.1593068 -0.015671177 0.042180985 -0.28409356 0.018970305 -0.3349647 -0.1668837 -0.038451765 -0.37356043
乐 -0.26133212 -0.2988645 -0.05265209 0.18205185 -0.00026664278 -0.140374 -0.1303284 -0.36066645 0.42507085 0.18884496 -0.2898678 0.17561036 -0.15608005 -0.16763765 0.54128575 -0.13607402 0.26666695 0.008524099 0.109679155 -0.0020465432 0.67166436 -0.22481997 0.118372634 0.37282968 0.016377613 0.56940407 0.043504205 -0.029088335 -0.124446176 -0.02970616 -0.38147408 0.28173602 0.2919632 -0.040263705 -0.09962105 0.15109801 -0.19153273 -0.3709425 0.25642788 -0.3724644 -0.06404659 0.16887885 -0.0029511405 -0.20755282 0.48442122 -0.010929393 0.13320546 0.41351277 0.16472915 0.25415865
邦 -0.15135069 -0.029593717 -0.3638839 0.33388233 -0.34043404 0.1660011 0.13315076 0.2860581 0.13122927 0.04372521 -0.087060615 -0.058994144 -0.4977736 -0.10311755 0.6018477 0.20066474 -0.072512835 0.05208892 0.16879274 0.14966597 0.10020922 -0.58223665 0.4035488 0.23812541 -0.11925316 0.09735456 0.0033691674 0.39805815 -0.24755263 0.29295403 0.15701212 -0.2809738 0.19044435 0.14710447 0.19273753 0.23282582 -0.11975722 -0.055796016 -0.0366601 0.35760406 0.040675584 0.2453219 -0.13513555 0.20415145 0.122257695 0.1251988 0.14685689 0.21653682 -0.10856815 0.25520274
亦 -0.034999385 0.005061797 0.3992749 0.18033312 0.17041817 -0.074103855 0.4019188 0.033769704 0.017659493 -0.2907289 -0.049684145 0.056780003 0.03527003 0.3197264 0.5571067 0.09463131 0.17502771 -0.04505623 0.12539476 0.064597115 0.14398307 0.17347316 0.08562752 -0.070669286 -0.21006818 0.0889992 -0.07473672 -0.13195597 -0.061835013 -0.044385444 -0.38496852 -0.31664777 -0.13653676 0.25510484 0.32640246 -0.049797073 0.031168856 -0.03771721 -0.036960393 0.2824355 -0.14973944 0.19601464 0.17092548 0.24000889 0.073532596 0.028190674 -0.36804056 0.08904032 0.101166174 0.12036267
使 0.26553747 0.002413237 -0.23139146 0.104670785 0.07521907 -0.22356173 0.18017577 0.1494452 -0.13466987 0.027233442 0.23817678 0.109152205 0.20366777 0.073690705 0.44137633 0.07331797 0.2062881 -0.14017299 -0.23131464 0.3695524 0.46322432 -0.102777004 -0.051292606 -0.059881266 0.026673412 0.1990079 0.021714667 -0.011213643 0.2900194 -0.15178151 0.2835789 0.14925939 0.14869632 0.10861611 0.2519465 0.056634836 -0.07029174 0.075577445 0.004925806 0.1611488 0.005869359 -0.23334908 -0.23651491 -0.10285702 -0.25829816 -0.3808791 0.05275816 -0.071680404 0.16668695 -0.252883
大 -0.35875872 -0.2861735 0.12063149 0.27447364 -0.0944987 0.031192508 0.11563396 0.00097091123 -0.03679446 0.24932766 -0.14416783 0.078897886 0.19025701 -0.08548832 0.38839447 -0.03490123 -0.034587607 -0.21402296 0.12181618 -0.0131338565 -0.12281102 0.111937165 -0.035138804 -0.0154478075 -0.27873856 0.31457946 -0.11057759 0.42407805 0.17433824 -0.2510547 -0.02720159 -0.20542483 0.3165363 -0.37064457 -0.0879982 -0.07904321 -0.22789903 0.1212893 0.056393296 -0.17790031 -0.11901149 0.26065576 0.3166149 -0.0007143887 -0.35983047 -0.47273064 -0.11678321 0.336254 -0.07738946 0.15027978
下 -0.23426838 0.009046727 0.18090527 0.016493212 0.14380012 0.24056107 0.25937483 0.11696384 0.35948887 0.07814889 0.3122041 0.1542326 0.020984212 0.3125909 0.5163349 0.0075168065 0.25176835 0.05704133 -0.39314455 -0.08705957 0.28158137 -0.23356207 -0.34647727 -0.3364477 0.043997597 -0.09507623 -0.0014721539 0.037595473 0.0024187295 -0.4311339 0.011636176 -0.33049458 0.1304566 0.42289466 -0.07710216 0.3366469 0.3487408 0.04554887 0.2887525 -0.15957047 0.043199614 -0.085930526 0.037457377 -0.083040886 -0.27534646 -0.2134992 -0.29005194 0.20016564 0.15318562 -0.28610507
贡 0.16938764 0.08940226 -0.0786447 0.07484249 -0.12858729 0.00019358192 0.48087782 0.12460644 -0.039904147 -0.023722023 0.24104421 -0.020427957 0.122633934 0.10319705 0.8045394 -0.06280872 0.010759361 -0.12867244 -0.01403114 -0.02427766 -0.0045798114 0.04684627 0.055669367 -0.07460763 -0.25331363 0.15002662 0.063596025 -0.07471757 0.24843326 -0.33351812 0.014513316 -0.26032034 -0.3294115 0.33711472 0.014168301 0.10093721 0.02251173 -0.08295418 -0.04027993 -0.1271791 0.27569076 0.0498481 0.25790033 -0.10918325 0.20156024 -0.08907944 0.1654484 -0.06114181 0.065256655 0.13416246
欲 -0.11377379 -0.115082294 -0.12847018 0.09705403 0.36357793 -0.10367765 0.25733316 -0.045739535 0.22489056 0.105197586 -0.11472563 0.06066738 0.20824534 0.016216747 0.43841624 -0.08011345 -0.022901637 -0.233779 0.16976906 -0.17122468 0.24910435 -0.074857965 0.1800427 -0.27470633 0.052511744 -0.12657928 -0.0008745128 -0.2526081 0.08463207 -0.25437105 -0.122674175 0.0035058423 -0.04803914 0.21530364 0.3132145 0.13511503 -0.37999946 0.0015637953 0.11639011 -0.16404955 0.12579438 0.027593013 -0.3122576 0.42477816 -0.4356964 -0.03150209 0.08725539 -0.09881829 -0.27936897 -0.5110163
诸 0.067361355 -0.0880338 -0.10998246 0.4335772 0.019772947 0.10495083 -0.21827218 0.31370792 -0.05172595 -0.17484829 0.31917694 -0.006664357 -0.08447023 0.040809024 0.5931351 0.15927874 0.24948302 0.1798718 0.22066352 -0.10186303 -0.016765483 -0.63011324 0.33848813 0.49741113 -0.14074455 0.12954456 -0.11061146 -0.021028506 -0.04977284 0.01870579 -0.40695798 -0.018545574 -0.0029324552 0.32355145 0.33064157 -0.2139084 -0.13258234 0.53129864 -0.1919348 -0.08453415 0.04978604 0.32462266 -0.3733082 0.09240541 -0.2076253 -0.43701783 -0.025681322 0.06722781 0.2451919 0.052232023
从 -0.53242064 0.14500551 0.25201535 -0.17593153 0.30814287 0.00577613 -0.0469307 -0.1238138 0.21729903 0.07956447 0.12327159 0.11826605 0.1531784 -0.0646222 0.5196738 0.14707215 -0.13705038 0.18508242 -0.08997119 0.10980609 -0.28586614 0.14099184 0.11793693 -0.25980234 -0.0049594017 0.29913715 -0.23924544 -0.030680649 0.30312937 -0.20255032 0.013970391 0.14604066 -0.036803 -0.5066807 0.121832326 0.16127358 0.15555732 -0.18588197 0.06579534 0.02459874 -0.38698056 -0.013248196 -0.20387879 0.20329733 -0.31780457 0.19995251 -0.12345593 0.028373681 0.31201077 0.048671454
文 0.01150618 -0.16037758 0.08905563 0.27866578 0.26048493 -0.06902518 -0.13503265 0.33312 0.04832057 0.029177686 0.026808845 -0.3414859 -0.027882652 -0.39463377 0.5687114 -0.69557226 0.19912796 0.11202143 0.15606035 -0.22116566 -0.054094117 0.0661548 -0.1945766 0.07704297 -0.4159801 0.04090638 0.04230439 -0.27931947 0.17162633 -0.22706495 -0.1322681 0.10835469 0.09817279 0.09244801 0.18710572 -0.44714954 0.038406067 0.09389043 -0.06251997 0.21702923 0.22022724 0.18436588 0.14590241 0.07899849 -0.05683007 -0.25724322 0.47729218 0.05937581 -0.08685755 0.008796469
政 0.08041521 -0.12086929 0.12257273 -0.096542716 0.0429779 0.05568953 0.046055965 0.09070502 0.12779571 0.1644156 -0.09967547 0.49620357 0.18252137 -0.28045776 0.49164885 0.05644134 0.0018595667 0.09868142 0.06325513 0.24446605 -0.23074274 -0.05497811 -0.09263594 -0.18754344 0.09567713 0.10740743 -0.12433741 0.33926845 0.010071632 0.09084751 -0.051841848 0.011308227 -0.04088727 -0.31640318 -0.39559388 0.31639358 0.020021152 0.14194836 -0.13236673 0.0697964 -0.03611758 -0.1283953 -0.023731347 -0.19139495 -0.13128154 -0.17470689 -0.23256402 -0.02166992 -0.24070421 -0.033605114
食 0.28573173 0.25267428 0.009714406 -0.058165908 -0.13529803 -0.010455215 0.34988433 -0.002366724 -0.030248275 0.43085703 0.22576986 0.0747442 -0.043017056 -0.00013376866 0.48947486 0.28892225 0.07766657 0.28835106 0.18531866 -0.09732656 0.18874653 0.175723 0.08303864 -0.25540066 0.2522131 -0.23585299 0.17405784 0.34744483 -0.2836455 0.19096057 0.034004223 -0.2437006 0.14660516 0.19283186 0.1086072 -0.025049038 0.41627228 0.09746609 -0.13963348 -0.07778959 -0.19385083 -0.2703448 0.18487199 0.25144133 0.06939593 -0.044150285 0.05034814 0.17292184 -0.10924772 0.028727304
善 -0.034715995 -0.24862108 0.15936494 0.22176892 -0.050885536 -0.028562149 -0.11440463 -0.13849683 0.42528188 0.11092376 0.24512509 0.058569226 0.14563206 -0.12031794 0.5190522 0.21757856 0.1934816 -0.020000353 -0.14240442 -0.06979645 0.020061348 0.16352028 0.45192826 0.30431995 -0.1717202 -0.026987065 0.15114641 -0.10701774 0.051733874 0.104260124 -0.15743028 -0.1954241 0.29045054 -0.13541552 0.046299458 0.1181428 -0.50763243 -0.13703972 0.06471514 -0.02024016 0.056660756 0.18967511 0.14028722 0.026953418 0.2287777 -0.033482093 0.23853563 0.13299277 0.11118848 0.34755042
后 -0.17056644 -0.3844496 0.12421372 0.06158912 0.08268192 -0.07848851 -0.061795242 -0.0043845903 -0.10433295 -0.0631842 0.040932316 -0.0653007 0.0987926 -0.025761075 0.4066682 0.38532716 -0.29985577 0.13389003 -0.06424254 0.19693212 -0.055909287 -0.06856406 -0.19778019 -0.07910414 -0.18666399 -0.042030048 -0.027128026 -0.43872914 0.18905243 -0.1756523 -0.35906473 -0.12169661 0.08543119 -0.4575345 0.021236345 -0.5324742 0.44877663 -0.1003798 -0.059343923 -0.13160752 -0.1381466 -0.27118164 0.05892376 -0.06901777 -0.2713572 0.037440874 -0.20043263 0.03389924 -0.01976109 0.22347245
德 -0.54816335 0.032763686 -0.30454147 -0.1148723 0.28369036 0.07769862 0.15705775 0.04324534 -0.08355101 0.15015283 0.050801132 -0.22240186 0.20590475 0.006542539 0.5259678 0.055521525 0.32106778 -0.5361835 -0.23586044 -0.016397862 -0.10106709 -0.1909979 0.107286945 -0.05691799 -0.2363128 -0.10919672 -0.10128466 -0.24916549 0.016367175 0.23485498 0.23521063 -0.17509876 -0.10715122 -0.16279326 0.20261312 0.035498045 0.11908234 0.2304509 0.089481 -0.026828878 -0.13119192 0.014901575 -0.2294008 -0.11803836 0.16112596 0.017889762 0.3043664 0.11152887 0.19645871 0.13367409
求 0.17921361 0.3706994 -0.107766025 0.06218738 0.13930726 -0.3997085 0.15805253 -0.018375643 0.04731904 0.10152623 -0.19872157 0.13459738 0.10735732 -0.006494131 0.55687034 -0.08521614 -0.02872302 -0.17061466 0.17666309 0.020473137 0.011535181 -0.30132464 -0.3103338 0.1448481 0.18378845 -0.102492265 0.1551033 -0.003960058 -0.107130274 0.040656734 0.094422504 -0.12226629 0.0017324123 -0.17182398 0.10038227 -0.14148107 -0.07000987 0.28423235 -0.18361312 -0.017493175 0.17219074 0.13187625 -0.17408803 -0.087432526 -0.3111797 -0.45586964 0.06562077 0.16736981 -0.0750406 0.24305876
对 0.16671914 -0.3704384 0.1613225 -0.24986647 -0.2541206 -0.007991779 -0.1195316 0.12448273 0.011189284 0.23667054 -0.16557288 -0.032469127 -0.41711366 0.31350255 0.7370075 -0.011014036 0.21891423 -0.24030776 0.014714439 -0.22383368 0.24097806 -0.24559146 0.4517885 -0.07794452 0.14789753 0.1979166 -0.058121145 0.058554064 -0.3067802 -0.19304897 0.2973209 -0.00047719106 -0.48607555 -0.047972992 0.1450484 -0.089779966 -0.21224605 -0.041619506 -0.090052105 -0.19420274 -0.16835555 -0.124116465 -0.09315009 0.099520504 -0.05052018 0.33066863 0.10278621 -0.20678759 -0.42375576 0.10652532
恶 -0.41605777 -0.09904729 0.04216711 0.3544634 0.0864636 0.11519713 -0.0002806494 -0.030314023 0.20124239 -0.3265232 -0.17755887 -0.34131783 0.1452591 0.009237843 0.57001823 -0.009055821 0.15069257 -0.27126172 0.052814446 -0.011124106 0.2108324 0.08592061 -0.08805002 -0.2832934 0.01890873 0.1749639 0.2505328 0.17329167 -0.27153483 -0.008903537 0.02296904 -0.20759535 0.22189341 0.046745967 0.08075873 0.57407564 -0.095688514 -0.048351984 0.18889502 -0.19614668 -0.043605752 0.21991467 0.15263343 -0.2629576 -0.3069209 -0.026848665 -0.24616058 -0.024929173 0.14283721 0.03370269
信 -0.33654994 0.18555506 0.31409514 0.010367022 0.11273069 -0.2424155 0.5049489 0.073097095 0.16202794 0.16568251 0.03983842 -0.47388893 0.11440499 -0.00039702374 0.5325924 0.16132668 -0.11179622 -0.22801834 -0.025251292 0.13074127 -0.08524279 -0.15617168 0.30331624 0.02557832 -0.22259912 -0.27778226 -0.22636873 -0.17914899 0.17495061 -0.14127168 0.094820805 0.25378397 0.46600047 -0.1476566 0.19760235 -0.2979938 0.1661861 -0.084222674 -0.0018880839 -0.567931 0.09177487 -0.22802861 0.32937327 0.039512146 -0.15707624 0.0100163445 -0.08771103 0.17487153 -0.018585019 0.04488691
死 -0.20536672 -0.08994909 -0.20150967 0.10625091 -0.21234505 0.14529778 -0.17943585 0.0062665474 -0.11297617 0.0019558866 0.014180482 -0.14567566 0.030901171 0.04244347 0.48383734 0.055870138 -0.2469515 -0.08502959 0.34624815 0.12694517 -0.0347355 -0.21639743 0.050611682 -0.18620238 0.020804694 -0.10096034 -0.36982623 0.181426 -0.0026453668 0.046432745 0.020763028 0.0039807246 0.08781852 -0.067446694 0.09546861 0.010490252 -0.041339513 0.108445495 -0.16998285 0.017671175 -0.3354945 -0.20953661 -0.06550101 0.20460844 -0.016091915 0.1951003 0.05064887 0.18177831 0.2073116 -0.46438593
然 0.049883876 -0.012901016 -0.09411234 0.058900923 -0.0956114 0.17260128 -0.082443416 0.024626262 0.06755936 0.059261568 0.20627367 -0.18594576 -0.12580927 0.049446493 0.5499369 0.3520556 0.20471163 0.12046003 0.032460723 0.041233566 -0.10463576 -0.15577859 -0.3180105 -0.33209354 -0.035551384 -0.034086697 0.23732303 0.07622039 0.023253076 -0.18946195 -0.03629998 -0.45959115 -0.19475992 -0.18328708 0.07341235 -0.29963833 0.3768599 -0.14711969 0.06971736 -0.079231605 -0.3126779 -0.41515607 0.25729734 0.2307596 -0.051226955 0.25147852 -0.025990672 -0.17457946 -0.18291113 0.10324263
《 -0.31482023 -0.021075828 0.16581185 0.1146206 -0.27143514 0.11408265 0.18334521 -0.39498916 -0.2437493 0.08525232 0.22005689 0.25709647 0.04701302 -0.15407346 0.6802878 0.05393472 0.27339214 -0.022468703 -0.17161253 -0.18481314 0.20214896 0.101242855 -0.036130298 0.1978627 0.008452719 0.32071036 0.055900678 0.33946288 -0.33969554 -0.5697994 -0.29313505 0.2967207 -0.06951189 -0.16250797 -0.17151384 -0.018487222 0.044204623 -0.08812321 -0.23160297 -0.20673601 -0.0808765 -0.062778115 -0.122854896 -0.46202064 0.02043411 0.52529305 0.18303783 -0.04215511 0.04942352 -0.42646646
》 -0.29478887 0.093657516 -0.111936815 0.19662634 0.025532104 -0.09856878 0.09220689 -0.49904767 -0.28844303 -0.18341532 0.16566904 0.18884802 -0.054504693 -0.069456086 0.64300436 -0.040524825 0.1527542 -0.052291885 0.062875666 -0.30937672 0.26826903 0.123489745 0.1311029 0.097666174 0.10133429 0.13968112 0.18771254 0.48425627 -0.32714435 -0.3128117 -0.22239774 0.40962327 -0.0149601055 -0.04006899 -0.034670092 -0.20489527 0.09989265 -0.27391466 -0.05020113 -0.22345345 0.10015203 -0.0054172734 0.092385665 -0.6194611 0.039817344 0.18949653 0.010689924 -0.11170565 -0.024612328 -0.27423918
由 -0.08782397 -0.076668486 0.09191537 0.07222978 0.078780584 -0.0597794 -0.15237075 -0.28168288 0.00097108446 0.13204803 -0.28147113 -0.086465925 0.07957343 -0.21960896 0.5966702 -0.029525656 0.048493013 0.041968226 -0.10838032 0.30660728 -0.060284156 -0.24939519 -0.21719232 0.04549698 0.15524007 0.35817665 0.27637947 -0.10177314 -0.027847137 -0.25822854 0.38422808 -0.03540281 -0.07499808 0.021074016 0.054994192 0.019923268 -0.0060485303 0.2586345 -0.3235265 0.05545637 -0.20346394 -0.11312447 -0.15510781 0.21520981 0.015365627 0.07277319 0.022686137 -0.120535254 -0.119922124 0.22915834
仲 -0.07211192 0.16975634 -0.17949714 0.019802839 0.07809031 0.07744448 0.17031768 0.015066261 -0.014408571 0.35071293 0.61795723 0.19834094 -0.059393972 0.0060402798 0.7694831 -0.1572474 0.029737996 0.14124103 -0.036797803 -0.08421381 0.3743431 -0.19904482 -0.09102315 -0.42183292 -0.10954648 0.051728915 0.0989678 -0.2992404 0.2316679 0.2025667 -0.062691 -0.1291359 -0.36551464 0.13318521 -0.28994575 0.12867431 0.2318474 0.11493196 0.36315855 -0.1055581 0.35976654 -0.12385799 0.24684621 0.2040095 0.33094642 -0.046602905 0.027264534 0.50215274 0.26371264 -0.046113588
非 0.2698897 0.018240139 -0.31568813 -0.069643326 0.20407441 0.120689355 -0.1066408 -0.16026807 -0.1402181 0.0698914 0.19963484 -0.03416847 -0.17709774 -0.17642543 0.55016595 -0.17746124 -0.058659438 -0.09191898 0.2750341 -0.23664773 0.20610122 0.0009921743 -0.19727491 -0.19509329 0.029995993 -0.036874108 0.033957247 -0.22611588 -0.229972 -0.033361606 -0.08693413 0.09873054 0.38486207 -0.028382465 0.09495039 -0.15942484 -0.1969572 0.1189438 0.18501763 0.35726613 0.24039832 -0.22890806 0.13441178 0.09874326 -0.13305531 -0.0944172 -0.13150325 -0.1016403 0.11970625 0.508058
出 -0.078542225 -0.06811633 -0.054891236 0.30921808 -0.20348604 -0.07947056 0.06445627 -0.34886998 -0.010095083 -0.108746395 0.30926174 0.030808358 0.33848545 -0.5652467 0.5696166 0.24140698 -0.13736455 -0.0031614369 -0.534794 0.014920703 -0.09456142 -0.46623814 -0.029196374 -0.07794809 0.17065912 0.15674543 0.22515474 -0.20059754 0.31356728 -0.298536 0.11407674 0.06250006 0.11514083 0.13179407 0.16240673 -0.052950922 0.1606859 0.10206844 0.28417107 0.3441128 0.14426076 0.40799496 -0.044756796 -0.123258315 0.046570238 -0.24471219 -0.22387742 0.19275202 0.040317096 -0.0028313939
过 0.21320273 -0.056029163 -0.12547925 0.34158716 0.23297723 0.060754437 -0.22303386 0.094818465 0.2479055 0.40630752 0.32426617 -0.033367794 0.46222663 0.18803172 0.51550853 -0.1567586 -0.2769377 -0.14561573 -0.06096526 0.051053654 -0.138373 0.112871066 -0.029087314 0.07100415 0.18461841 -0.031618364 0.04139137 0.0836699 -0.07598203 -0.1515201 0.37311244 -0.06787728 0.14271386 0.12044163 -0.10616673 -0.05163505 -0.06296832 -0.24959762 0.19922134 0.14515214 0.014027949 0.1393155 -0.10828431 0.0720664 -0.09074596 0.4072519 0.22309434 -0.29230592 -0.02549686 -0.18113539
一 -0.029409198 0.31265992 -0.45553753 -0.13258648 -0.16372123 0.06761539 0.27547368 0.047143012 -0.15578103 -0.13694505 0.2622418 0.021487767 -0.33722788 -0.031380277 0.51763755 -0.35369632 0.12557006 -0.2009728 0.0043115243 -0.2919231 -0.1486572 0.13226415 -0.28026456 -0.04524394 0.05209122 0.5545797 -0.022306168 -0.2715115 -0.21531004 -0.07893556 -0.01473645 -0.25880298 0.36304843 0.04307585 0.12183035 -0.0696744 0.4216464 0.23245412 -0.22228952 -0.012782433 0.15673527 -0.12952173 0.22653806 -0.31870016 0.26898655 0.13312858 -0.036412936 -0.0024091033 -0.15915653 0.008171319
虽 -0.3646709 0.2674093 0.4324573 -0.7636068 0.2016986 0.07635213 0.2734417 -0.04069591 -0.02876406 0.34812573 -0.10652399 -0.26029953 -0.3641343 -0.23794861 0.4605807 -0.04153791 -0.46405706 0.1557347 0.28633037 -0.0056788772 0.1358003 0.0735731 0.19239508 0.05761655 0.052185908 -0.13090596 -0.026466742 0.08768186 0.23622786 0.34992915 -0.08350623 0.24882632 0.31098348 -0.14605817 0.44418192 -0.19775614 0.091865055 -0.07894396 -0.16659606 0.01890927 -0.1276403 -0.2892319 0.09192564 0.19005519 -0.051593807 0.29214293 0.11488172 0.39721963 -0.065819874 -0.3954677
足 -0.24960838 0.07733688 0.084041536 0.04822638 0.31585017 -0.021804705 -0.20248021 -0.09959546 0.044150576 -0.02131633 -0.062999815 -0.0830758 -0.059110805 -0.20571646 0.473842 -0.1713721 0.47771972 -0.053807035 0.27793244 -0.253699 0.059810087 -0.101815976 -0.13862185 0.30417103 0.25749967 0.12886988 0.28055152 -0.14620687 -0.2723192 0.45690122 0.5132716 -0.09420979 -0.0033933613 0.058875717 0.08858587 -0.22070977 0.1542634 -0.60521305 0.11805625 -0.011601891 0.15494929 -0.15584731 0.32021147 0.029629901 -0.28881967 -0.06870063 -0.20937183 -0.18382734 0.2612477 -0.11706991
居 -0.20578742 -0.20547809 -0.004361121 0.1766344 -0.15450072 -0.040859982 -0.057308644 0.12617987 0.11277405 0.14217569 0.089391455 0.097919 -0.115145646 0.16908959 0.3988913 -0.35168046 0.049519185 0.014055252 -0.29716793 0.18914211 0.2755484 0.012738051 0.08970968 0.20500526 -7.4547715e-05 -0.015604655 -0.14933597 -0.04203509 -0.31442544 0.46861368 -0.0116069475 -0.14324108 0.26363364 0.07337445 -0.17464156 0.4538622 0.25147957 -0.1023634 0.14539568 -0.3308338 -0.2735368 -0.20240588 -0.18270528 -0.14842974 -0.0003575033 -0.1353506 0.17856598 0.42203045 0.2767722 0.11496686
尔 -0.033422574 0.01029918 -0.15296452 -0.114183664 -0.5975389 0.44242355 0.05003825 -0.18836729 0.2243109 -0.12078053 0.08092791 0.15684915 0.2803765 -0.3584538 0.54986656 -0.16532244 0.17107145 -0.36309803 0.02470046 0.67937094 -0.05315122 -0.15731229 0.062461365 -0.36128134 0.39187744 -0.04500224 0.36640257 -0.11238855 -0.50128037 -0.14412542 0.32053104 -0.10790692 -0.094051436 -0.27326596 -0.11427905 -0.49741793 0.044852618 0.5018061 -0.043180484 -0.0633872 -0.14826408 0.027350858 -0.09110766 0.09771506 -0.6041319 0.06751605 0.017029354 -0.09247439 0.01738531 -0.00896408
夏 -0.28794906 0.083326034 0.29981333 0.12931542 0.18635747 0.14265451 -0.22496109 -0.07777724 -0.13457885 0.19641565 -0.18079495 -0.24885398 -0.027951678 0.1883211 0.6748471 -0.107530095 -0.01749193 -0.09196809 0.17411011 -0.021783767 -0.0020060628 -0.009165752 -0.028492915 -0.15893376 -0.2222343 0.07552587 0.17402942 0.018075101 0.17743836 0.18310255 0.10792137 -0.18210027 -0.30392414 0.06862633 -0.0488165 -0.17739578 0.095398426 -0.38268006 -0.028761564 0.006662457 -0.3461173 0.1638741 0.20238689 0.22230685 0.019180447 -0.027424835 0.20847946 0.081423365 -0.075719446 0.023879115
父 -0.14998023 0.06166754 -0.2898904 -0.08577062 0.43019125 0.16127844 0.069015436 0.52040243 0.2841831 -0.42396593 -0.17201121 0.19818187 -0.23276298 0.023715856 0.59682614 -0.32147786 0.21977645 0.13594966 0.23121098 0.35831478 0.05049145 -0.33150455 -0.072410725 -0.036253218 -0.48596045 0.050266072 -0.26015994 0.24144755 -0.04217988 0.44314763 -0.27710015 0.042042863 -0.09201127 -0.21889803 0.040890623 0.27165517 0.0036147088 -0.2183654 -0.15135217 0.39445698 0.24052791 -0.17398535 -0.23050621 -0.09985177 -0.2638907 0.20662442 0.08997537 -0.0013565314 -0.377408 0.058974475
及 0.09167127 -0.050577518 0.0786771 0.1921928 0.27477115 0.3643838 0.20759861 0.17711745 0.039634433 0.4462471 0.18299206 -0.15271223 0.20731226 -0.07883123 0.5078306 0.29271525 0.12879528 0.073076546 0.3077128 0.1862579 0.1844374 0.18245174 0.0737694 -0.14074181 -0.10264973 -0.22612625 -0.1453415 -0.3311877 -0.15879665 0.0141821345 0.038565382 -0.07683317 0.30361336 -0.16351734 -0.037077896 -0.40110308 -0.14483295 -0.21492001 -0.13491197 0.11595307 -0.25268745 0.15342595 -0.2622289 0.14983176 -0.006476741 0.29676542 0.035518773 0.111311056 -0.15469311 -0.2422954
己 -0.35475487 0.40818816 0.16867374 0.23700179 -0.12112369 -0.34141567 -0.1268667 -0.39183566 -0.0673819 -0.0866698 0.20988148 -0.10901283 0.27217996 -0.18592392 0.4578811 -0.028337084 0.031156695 -0.4267664 0.28414738 0.08378502 -0.006350253 0.09174853 -0.36727452 0.034141347 0.28137854 -0.011476962 -0.04452305 -0.10366381 0.12702806 -0.03634814 0.20094612 -0.29261544 0.276314 0.29994234 0.022623282 -0.041193843 0.060220763 0.07331795 0.047460243 -0.1956976 -0.14174801 -0.14541495 0.1966513 0.05855005 -0.22577974 -0.09242535 0.13108769 -0.0984028 0.041340426 -0.06577285
予 0.14818588 0.1596089 -0.56689256 0.07983508 -0.09855071 -0.18055898 0.01644634 0.088396795 -0.12622568 -0.052355655 -0.0906467 -0.33281207 0.15999557 0.106228046 0.5428026 -0.37814772 0.26675728 0.067270756 0.31743607 -0.035914227 0.15251647 -0.124182835 -0.22214769 -0.26126367 0.13934916 0.30168763 0.14084944 0.40440246 -0.11176899 0.024419162 0.01097505 0.1595954 0.17100975 -0.028167708 -0.021956291 0.009373747 0.05145747 -0.40872878 -0.32662398 0.005946313 -0.5042735 0.20064929 0.045759015 0.0037826374 0.039567254 -0.2927662 0.078911014 -0.4584598 -0.030934857 -0.066742174
色 0.1013141 -0.62562037 0.28175917 -0.18497576 -0.054996405 0.13942638 0.29198554 0.25084677 -0.041436367 -0.5045461 0.17399043 0.3095311 -0.090112366 -0.1919478 0.47336835 0.47550768 -0.06718798 -0.09716398 -0.3082359 0.21821663 -0.32867405 0.021329276 0.118512325 0.26036635 -0.5204611 0.2633309 0.6178266 -0.12353477 -0.3650296 0.27486187 0.749716 -0.06554695 0.37846708 -0.072976604 -0.16276298 -0.19169968 0.19478309 0.14773035 -0.61401755 -0.12773114 -0.26661098 -0.30051273 -0.15784045 0.012929601 0.22956116 0.5648414 0.045134876 0.121955454 0.35029396 0.06513054
友 -0.58632076 0.011643863 -0.25503555 -0.07945153 -0.116764516 0.19573243 -0.4120472 -0.010266137 -0.029489176 0.33928457 -0.037584774 0.29480433 -0.005836171 -0.3322599 0.6887025 -0.16725303 -0.047482878 -0.22504267 0.0062554367 0.46523243 0.17218037 0.020555323 0.24594674 0.82690513 -0.10574114 0.3665565 0.17030422 -0.26263914 -0.07446256 -0.2286213 -0.005189325 0.18160923 0.25454748 -0.13196237 -0.21068043 -0.27932927 -0.12159787 -0.4261835 0.004885341 -0.18910992 0.69186676 -0.029538447 0.1578365 -0.43979594 0.21595517 0.19840565 0.41082135 0.43657485 -0.008571498 0.09279754
成 -0.19542962 -0.035105936 -0.09382131 0.099516 0.21796599 -0.15762983 0.2552767 0.27856752 0.48264834 -0.42832634 -0.165037 -0.42921302 -0.07468936 -0.13302267 0.5481706 -0.36955592 -0.050530877 0.039954457 0.021345362 -0.35010335 -0.39261562 0.25796852 -0.30909985 0.54636717 -0.17573279 0.23891963 -0.33023602 -0.09730832 -0.28681386 0.10970317 0.24355541 0.340752 -0.06129615 -0.40825307 0.22335228 0.110184915 -0.18052359 0.063745305 0.02030944 -0.02824817 -0.015500589 -0.048143312 -0.09903893 0.029886367 -0.05244289 -0.17978482 0.48173168 -0.1288647 0.13882837 0.16499685
远 -0.16071147 -0.51191235 -0.07906566 0.25158724 0.043485694 -0.31143922 0.117743954 -0.061774127 0.09775273 -0.20097461 -0.12715472 0.11500597 -0.070585154 0.22804146 0.60467243 -0.07735482 -0.062076975 -0.33047056 -0.080790624 -0.008067834 0.009859188 -0.12817042 -0.10173155 0.0036491654 -0.092367046 -0.26788095 -0.54227436 0.35365787 -0.3166419 0.33322236 -0.08190539 0.020097114 -0.056601975 0.07043023 -0.24575311 0.0020077669 -0.44846386 -0.034411147 0.083461486 -0.019629315 0.41412684 -0.10953323 0.13675755 -0.06702274 0.17330217 -0.23736818 0.15557599 -0.09777049 -0.10227221 0.112717114
上 0.29348016 -0.03855198 -0.1601429 0.02550501 0.17535317 0.18860033 0.22666058 -0.20940492 0.014418352 -0.24498601 0.019460317 -0.36341503 0.16482067 0.09745452 0.4505296 0.10002502 0.10966616 0.017296694 0.19021606 -0.18369424 0.12797149 -0.090516075 0.18028843 0.1264829 -0.6196408 -0.098658524 -0.0991326 0.01450336 0.007897602 -0.27040005 0.25170943 -0.0443926 0.37460223 -0.032450337 -0.087141216 0.21115923 0.116693504 0.11807507 0.13370618 -0.036982458 -0.25093675 0.22562498 0.3088001 0.20926575 -0.40961775 -0.36993518 -0.20581838 -0.3675717 0.025930926 -0.056845326
立 -0.098798096 -0.29843068 -0.31617373 0.046603393 0.2630931 0.27493262 0.30153129 -0.14187238 0.042194854 0.23836671 0.42101416 0.109767936 0.040202282 -0.06816371 0.55364984 0.06848092 -0.09664605 -0.066072054 0.056082424 -0.12448673 -0.049209226 0.64497143 -0.16519612 0.13755004 0.15467657 -0.03003116 0.4310663 -0.03800534 -0.37815118 -0.36354196 0.50465816 -0.0072827484 0.591587 0.02671644 -0.13632676 0.15953767 -0.2013455 0.5477382 0.19679673 0.00674551 -0.06663515 0.20693234 0.2231554 -0.010427148 -0.14432493 0.41998476 0.076670274 -0.48576805 0.040299904 -0.24483557
今 0.19419211 -0.16771002 -0.12998739 0.29721642 0.54193145 0.077554725 0.056829706 -0.341417 0.17227969 -0.097993076 -0.10758517 -0.12162441 0.5960739 -0.09538136 0.6148596 0.4895796 -0.100793615 0.037911035 -0.024420246 0.2658201 -0.047767233 -0.4209639 -0.22838591 0.15806952 -0.06981178 -0.018941045 -0.34674025 0.19000201 -0.12092445 0.09088028 0.06685954 0.23715413 0.22926654 -0.16912487 -0.3633597 0.12361143 -0.17431165 0.18227163 0.10275158 -0.242068 -0.10313332 -0.106337 -0.25117803 -0.18344654 0.034985557 -0.05071031 0.3434161 0.28080168 0.0049895206 0.16071038
张 0.32050183 0.24084233 0.67538846 -0.34081143 -0.10596523 -0.13168716 -0.16718474 -0.14869307 -0.14599793 0.26906088 0.1347513 0.17170155 -0.32904923 0.09705713 0.59337074 0.097621 0.07966195 0.16882554 0.019154342 -0.058954213 -0.07561242 0.19016267 0.11289468 0.02612858 -0.4171186 -0.07229568 0.007933848 0.04964629 -0.24505937 0.019166335 -0.042593382 -0.31497404 -0.27104953 -0.25395945 -0.051831633 0.065717414 -0.02596428 0.1711575 0.26212266 0.17518766 0.12914282 0.19828679 0.10546473 -0.19345713 -0.09793836 0.16734952 0.07308866 -0.0486148 0.01686087 0.03598134
中 0.25208196 -0.17512068 -0.25970033 0.167264 0.19205254 -0.24852595 0.46363345 0.09405288 -0.29058462 0.07781449 -0.13693775 0.39121658 0.04505681 -0.04162797 0.59831834 -0.28648454 -0.44520324 -0.30692232 -0.16706996 0.51267195 0.33294088 -0.18506567 -0.2988342 0.1796372 0.24007626 -0.14530464 -0.36500466 -0.057906106 -0.31156772 -0.09506673 0.25418955 -0.12263873 0.60536593 0.36547488 0.15747511 0.02388752 -0.100367144 -0.07228378 0.088481806 0.15940978 0.48853126 0.569341 -0.14703995 0.40537822 -0.19760123 0.14743254 -0.05582959 0.42503586 0.09447561 -0.12952226
季 0.21699165 0.19863208 -0.14705475 0.17302075 -0.33802253 -0.33299947 0.15185668 -0.14175978 -0.26994944 0.12194607 -0.1287546 0.0031650804 0.023105219 -0.18996492 0.6299026 0.15719362 -0.8716499 -0.17853019 0.37284523 -0.29628986 -0.19495513 -0.3609186 0.14660296 -0.1551282 -0.109799914 0.098133296 -0.17747626 0.089965716 -0.14733225 0.1787987 -0.30778596 0.22360502 -0.39073387 0.13375409 -0.051550496 0.3714693 -0.10737933 -0.35267892 0.1487872 -0.13491578 0.18650089 -0.051800646 -0.18961181 0.27253664 -0.06463187 -0.17472546 0.056847543 0.25805503 -0.016737258 0.06755003
臣 -0.09463185 -0.49740848 0.06803969 0.18317164 0.65679413 -0.11129933 0.30878082 0.18892214 -0.0828347 -0.0012805555 -0.18406817 -0.1874646 0.08635922 -0.14733914 0.5780706 -0.51761436 0.16879836 0.19898029 0.2422066 0.36576903 -0.038978916 -0.38177022 0.006098658 -0.09604718 0.19118826 0.12476623 -0.028482834 0.18293081 -0.027572252 0.0641055 -0.12213747 -0.07297536 0.10535793 -0.41130033 -0.088116825 -0.2935862 0.074026704 -0.35729286 -0.23177111 0.058059435 0.25701717 -0.10358465 -0.0029530823 0.2469733 0.17678261 -0.21986675 -0.3036873 0.13923648 -0.28470808 0.14939523
贤 0.060321458 -0.20407169 0.1611383 0.010421568 0.13124853 0.096659176 -0.2507832 0.31384912 0.095691875 0.3704987 0.18881497 0.1263135 0.15056656 0.008478031 0.563662 -0.009680888 -0.12192915 -0.12547933 -0.16547446 0.08628609 -0.014032266 -0.1672381 0.058747455 -0.1862854 -0.43794698 0.28810778 -0.34043103 0.042529397 0.055080406 -0.1986211 0.02235747 -0.1349467 -0.019934172 -0.18867357 -0.23938718 0.008724197 -0.18619733 -0.16533174 0.15900767 0.07730075 -0.15695968 0.06416457 0.26882017 -0.14284942 0.07971871 0.118714064 -0.4067435 0.08036795 0.19321002 0.056482613
思 0.10766266 0.4532105 0.4146787 0.22895445 -0.12967111 -0.20851101 -0.12950431 0.06456283 -0.004925038 -0.2724329 0.40350413 -0.27666008 -0.31182218 0.11052425 0.56279373 0.35890937 0.12526156 -0.04556892 -0.11865219 0.17949712 -0.029620018 0.079869315 0.22574532 0.06205161 0.04263428 -0.8171485 -0.16580325 0.40406004 -0.19974923 0.4454969 -0.33069605 -0.45432955 0.37439513 0.17839482 0.030835094 -0.67093486 -0.09077906 -0.47039568 -0.70010185 -0.4950262 -0.15762283 -0.48696256 0.07713586 -0.16469009 0.18948145 0.01436565 0.42615142 -0.2844126 0.1344943 0.020740338
齐 -0.15697873 -0.2810625 0.37447423 0.006767436 -0.16793548 -0.36134043 0.49405712 0.3284632 0.49206534 0.1309747 0.023147322 0.049861625 -0.4394534 0.3632757 0.6105008 -0.092247665 -0.33076915 -0.0039242213 -0.22986515 -0.57006073 0.033907365 -0.03640425 -0.0025017671 0.08128926 -0.16236402 -0.029545905 -0.09613492 0.053807337 -0.117195606 -0.16165265 -0.23587564 -0.46096098 -0.09975522 0.19515172 -0.18669775 -0.111081794 -0.07147065 0.096785426 0.16989289 0.023058116 0.007917867 -0.2037197 -0.058806676 0.3550721 0.20664035 -0.20897035 0.0603096 0.43263102 0.053052332 -0.22450987
义 0.16022119 0.05573434 0.17661718 0.30868545 0.5306684 -0.08078703 0.46275857 0.10190427 -0.05278937 0.059150457 0.030127432 -0.020632138 -0.15086214 -0.056695342 0.4305183 0.2133378 0.38657272 -0.14032134 0.39343187 -0.077499926 0.21818325 0.047512177 0.09723058 0.039636426 0.05434554 -0.1709387 0.122859634 -0.23938851 -0.053315006 0.06953341 -0.15214525 -0.2424555 0.31646743 -0.22550473 0.051395524 -0.12285662 0.5334695 -0.18554609 -0.33131278 -0.07898329 -0.24689993 -0.060726475 0.39198145 -0.22955024 -0.023510128 -0.32873237 0.21274282 -0.21804114 -0.011326999 0.24256793
正 -0.18443637 -0.2774151 0.037471592 0.11246823 0.1532689 -0.3629164 -0.08526545 0.066067964 0.23602934 -0.18145387 -0.41072804 0.19727612 0.14237523 -0.14269063 0.46279266 -0.020031031 -0.08164297 0.13211644 0.16916995 -0.5660806 0.07787967 0.38886142 0.3486436 -0.17890301 0.2147939 0.039197087 -0.3780467 0.24302706 -0.3383515 -0.14698192 0.08450212 0.03821612 -0.04058574 0.12519813 0.0066924077 -0.23778296 -0.23205759 -0.059327237 -0.2558791 -0.08468256 -0.104447775 -0.26080665 -0.11652469 0.008027623 0.034398675 0.12909994 0.278909 0.18284886 0.48247987 0.16675879
命 0.15285964 -0.310416 0.660089 0.6089142 -0.18948632 0.24348612 -0.020752223 -0.1957455 -0.066802844 0.004809172 -0.08777687 0.21262786 0.03835249 -0.035138443 0.47235334 -0.014098194 -0.17107658 0.045740765 0.33349547 -0.2301349 -0.08100541 0.3219197 0.06753431 -0.19005518 0.24802855 0.06524789 0.12207016 -0.18211263 0.20122108 0.36992434 0.16733994 -0.4324517 0.23126554 0.17117405 0.18868239 -0.032541938 0.42844307 0.15707892 -0.19355269 -0.22402057 0.23567654 -0.004152867 -0.42364416 -0.11275851 0.29394135 -0.47817504 -0.1622319 0.22873726 -0.11252018 -0.049707662
曾 -0.0060145822 0.23989877 0.3273077 -0.4734732 -0.28519642 0.08145147 -0.010898168 -0.085981146 -0.042832308 0.19955792 0.28073734 -0.08610404 -0.104213804 0.04888731 0.64389724 0.3543531 -0.039767373 0.21839277 -0.20429476 0.27086192 -0.04115429 -0.03558245 -0.2852062 0.23163027 -0.39797992 0.33205622 0.043485783 0.17864007 0.27389163 -0.27355364 -0.0055526206 0.13749357 -0.16635042 -0.10396384 0.021686587 -0.14185472 0.21975432 0.03734327 -0.024347752 0.22957335 0.14556178 -0.083734855 -0.05566205 -0.14209422 0.11318588 -0.09179632 0.015950473 -0.086532176 -0.2155688 -0.05503887
伯 -0.19871832 0.25958696 0.33205104 0.023391573 0.19821769 0.021282755 0.22664604 0.1717047 0.058906984 -0.0948546 0.3260081 0.18676342 0.046654936 0.37346524 0.71931726 -0.2090586 -0.3029968 -0.18828301 0.087645695 -0.13965301 0.40304413 -0.05016613 -0.07713784 0.16087626 -0.022928761 -0.008029466 0.14414547 -0.12121075 0.11578684 -0.1490679 -0.18243122 -0.35163966 -0.3672145 -0.058639772 0.12903742 0.2091582 0.34558728 0.23816371 0.028550075 0.0113967545 0.36734322 0.038534578 -0.2842228 -0.12339716 -0.0726291 0.013434224 0.03125641 0.5301539 0.28056973 -0.37892818
门 0.33203816 -0.40554705 0.048092928 0.22946748 0.07990483 0.24429537 -0.26815993 0.021982351 -0.52279145 0.11981619 0.004741747 -0.13777538 -0.042001408 0.15678607 0.5328494 0.18784335 -0.09718063 -0.019556288 -0.03296081 -0.09984094 -0.012874106 0.05821805 0.19596486 -0.14223312 0.3870452 0.10141666 -0.07234687 0.32755217 0.51504123 0.15492916 -0.35898206 0.022958975 0.08797635 -0.183853 -0.05056105 0.18776347 -0.32380635 -0.16579656 -0.029420134 0.47668022 0.19801635 -0.19681118 -0.34980088 0.57777035 0.086297356 -0.07323211 0.5998635 -0.378757 0.24793112 -0.3913206
敢 -0.117663525 -0.29454753 -0.034506235 0.12257533 0.5429225 -0.2786677 -0.0046879686 -0.09389372 -0.35876352 -0.27906203 0.062018078 -0.39568242 0.4548504 -0.22687837 0.4126221 0.22481553 -0.12829821 -0.49813432 0.21964861 -0.2588293 0.070010334 0.20742786 -0.093653865 -0.27030838 0.30021355 0.33196068 0.32337818 -0.22153048 -0.071431555 -0.34344858 0.12738305 0.15859617 -0.10933182 -0.21602482 -0.07915512 0.0975411 0.428985 -0.13417754 0.1918917 0.09643245 0.094852105 0.09363362 -0.049899567 0.045515668 -0.41552514 -0.13680418 0.0088809 -0.25712696 -0.071465865 0.15159866
犹 -0.0971475 0.32120994 -0.073923044 0.22479519 -0.024449177 -0.15329552 -0.15986921 0.44843102 -0.00769718 0.07737555 0.56203556 0.009120351 -0.05079001 -0.40665796 0.70004463 -0.2867048 -0.008296983 0.0032529663 1.2139473 0.076769665 0.092173934 -0.32669425 0.2828612 -0.23307636 0.0752743 -0.17553803 -0.14955011 0.12980862 -0.16540362 -0.07600781 -0.13557519 0.034671742 -0.043294944 -0.0745617 -0.092236 0.22509225 0.05036467 0.248054 0.34923896 0.14565647 -0.5279605 0.047061324 -0.15597825 0.022322517 0.048609 0.39740032 0.28604102 0.104664624 0.2566119 -0.03474782
生 0.16728753 0.11989764 -0.22092669 0.06645943 0.13722089 0.036614362 -0.14039038 -0.030094787 -0.056971416 0.12332509 -0.057381943 0.21914607 -0.2024672 0.512343 0.540954 0.27001673 -0.1394412 -0.056018975 0.48375806 -0.2144103 -0.1715803 0.3587362 -0.011219721 -0.1664916 0.2233076 0.11005291 -0.23145466 -0.27956095 0.06949948 0.026986212 0.17789014 0.036352515 0.10192599 0.08999431 0.2581867 0.054530345 0.16514784 -0.11898652 -0.11581496 -0.119893774 -0.090745196 -0.31588426 -0.52385634 -0.023084365 -0.26300186 0.15638542 -0.13427603 0.065511264 0.21971066 0.013266518
日 -0.051687293 0.36197105 0.06959138 0.22015014 0.032069065 -0.3468462 0.0965567 0.067450345 -0.11851947 0.37441662 0.19260369 0.03214473 0.14873204 -0.043360177 0.5506234 0.053122826 -0.07957711 0.17766684 0.08889581 -0.35289156 -0.06847015 0.13188714 -0.1253036 -0.11873047 0.11918044 -0.09034838 -0.17688455 0.010975398 -0.27099735 -0.20018344 0.38839072 -0.1390252 0.2602849 -0.007707304 0.11125864 0.054904524 0.26304546 -0.25976455 0.1396025 -0.19038454 -0.36906484 -0.16946538 0.5664048 0.15266302 0.4998046 0.33219945 -0.03999982 0.054294724 0.11143685 -0.16140832
敬 0.033921134 -0.2095795 0.30685693 -0.12259608 0.047037788 -0.03694661 0.20347148 -0.058786698 -0.24689691 0.22655328 0.05729537 -0.25440586 -0.00980348 0.07568203 0.45845905 0.2419091 -0.28704414 -0.042403176 -0.09064474 0.18745773 0.13198848 0.109128244 0.08211925 0.16053309 -0.030221958 -0.42213082 0.05631978 0.25035194 -0.027166417 0.6158468 -0.14194989 0.28275493 0.49406523 -0.051275723 0.27393976 -0.2500824 0.31658727 -0.16282077 -0.25776199 -0.049727373 0.27451968 -0.26732793 0.3106542 -0.1552428 -0.09660386 -0.20121548 -0.042096823 -0.09301441 0.30421898 -0.07738898
难 0.27167413 0.24487604 0.39803907 -0.033879206 0.21844164 -0.12751713 0.23476799 -0.113126464 0.14753231 -0.03659704 0.13392502 0.019282399 -0.120110124 -0.08891157 0.44179857 -0.021712434 0.24138033 0.039588694 -0.11807983 0.28664225 -0.3246136 -0.24751195 -0.06887815 -0.06631732 -0.3793969 -0.052126747 -0.5342596 0.31371766 -0.040503822 0.16417293 0.27875382 -0.3889262 0.1616737 -0.115554504 -0.015811753 -0.16581139 0.0028330507 -0.41628388 0.2248201 -0.07378218 0.058187407 -0.2115707 0.15876481 -0.27623558 0.0330654 -0.042042352 0.1466199 -0.022142926 0.12733233 0.022793887
直 -0.5028292 0.34017614 -0.09948606 0.10851937 0.35664234 0.518859 0.05083624 0.13040353 0.026881203 -0.23037164 0.2798141 0.44286674 0.06537282 0.087011814 0.57690793 -0.015266801 0.06261594 -0.3155649 -0.22945563 0.049344633 -0.43589148 -0.31871927 0.33617455 0.3909289 -0.5400808 -0.104383744 -0.09083762 -0.46166912 -0.24493684 0.09027027 0.13195033 0.16844885 0.08302826 0.08464585 -0.20195395 -0.08103837 -0.26838788 0.36812147 0.092374735 0.25569862 0.063924 -0.07863077 -0.26163635 0.18953483 0.22058833 0.5410319 0.31738135 0.14979793 -0.34988272 0.23238865
丧 -0.058236092 0.45409486 -0.25654468 0.045514494 0.06882772 -0.34512997 -0.34199548 0.19008929 -0.048007846 0.08346781 0.122750126 0.28857744 -0.16683002 -0.040564917 0.47962338 -0.036170606 -0.12490631 0.21737441 -0.46321598 0.27292725 0.2761903 0.1358968 0.05028924 -0.1344716 -0.12209762 0.40455103 -0.03719836 0.22695166 -0.62804526 0.31993753 -0.37416103 0.10937104 0.29491583 0.28457177 0.052079495 -0.18049541 0.1734269 -0.49108443 -0.1823418 0.034663297 -0.012673182 -0.077532224 0.114678465 -0.1606163 0.20652375 -0.34456754 0.16105059 -0.35346216 -0.19630124 -0.060866978
说 0.19721727 -0.19986312 -0.20930836 0.13494669 0.14138994 -0.041350476 -0.036936715 0.34102637 0.2568716 -0.06693409 -0.068245724 -0.20140159 -0.3474621 0.06531436 0.56337285 0.00534725 0.1795833 -0.16712174 0.35004067 0.04426017 0.21012332 0.078219965 0.022240872 -0.06443323 -0.11591398 -0.15395354 -0.1137723 0.06919833 -0.011784764 0.22095892 0.19551559 0.34273955 0.17372754 -0.21798943 0.21506195 -0.3474316 0.18460342 0.28684422 0.011890185 0.21660592 -0.31042123 -0.57510936 0.20060578 0.02917448 -0.17155989 -0.44901374 0.1433756 -0.1393147 0.027777083 0.06906403
自 -0.06922746 -0.008535643 0.5216314 0.013804232 -0.19419952 0.048360415 -0.67416894 -0.15339571 -0.17161112 -0.3892022 0.15606113 0.016129084 0.21591221 -0.35245648 0.6374522 0.3531971 0.07511464 0.009316478 -0.14823586 -0.26301166 0.4812145 -0.5835684 -0.09024564 0.11303824 0.07201158 0.20494792 -0.1416778 0.112466596 0.3789024 -0.07809472 -0.20160268 0.077552274 0.11967802 -0.06164308 0.558533 0.017404525 0.22485857 0.22573225 0.18205184 0.51203936 0.37493494 0.19109093 0.3278959 0.17248112 0.13692161 -0.29923564 -0.14137919 -0.17494583 0.056515947 -0.1285103
用 0.2384919 -0.1489319 0.052726276 -0.21412958 0.054942586 -0.4071734 -0.07688107 -0.17921974 -0.08478238 0.12220691 -0.5097043 0.07183638 0.32679334 0.12790036 0.48301774 0.040130846 -0.008824211 0.37673008 -0.092155814 0.39401668 0.11920199 0.0005057398 0.4107343 0.010236796 0.5152096 0.053449266 -0.10362079 0.034542266 -0.2492392 -0.42067987 0.6433204 0.09139958 -0.045636293 -0.02166439 0.14160344 -0.286351 0.057222508 0.34896934 0.26154298 0.1414804 -0.14464395 -0.12184927 0.24267358 0.20463759 -0.0421653 0.19903405 0.1204474 0.20338151 0.12304385 -0.082297206
周 -0.03290407 -0.19134052 0.33442152 0.10396443 -0.6039292 -0.12537406 -0.05966568 0.10110467 -0.30427447 -0.14364439 0.022975244 0.4239338 -0.5547205 0.296312 0.5604183 -0.057990976 -0.44872516 -0.0956928 0.25673074 -0.34903687 0.12074071 -0.3134337 -0.3514713 0.30403516 -0.29284495 -0.01791877 -0.052737396 -0.1365993 0.1777662 -0.6056401 -0.1320637 0.022986941 0.07541391 -0.17965025 -0.06839243 -0.15623195 -0.033254564 0.026963029 0.071246654 0.060049836 -0.009082586 -0.33131352 -0.11063069 -0.46366465 -0.4557925 0.07557275 0.0782342 0.045687236 -0.0081015965 0.07216857
颜 -0.05214114 0.113022275 -0.21713951 -0.15915671 0.02167208 0.3359966 -0.30500475 -0.20968032 0.058629096 0.046245705 -0.21816997 -0.24480864 0.10706666 -0.099857785 0.6067623 -0.0065562758 -0.050589282 0.40530157 -0.008376565 0.18803549 -0.27271366 -0.15938528 -0.33647847 -0.040926695 0.021061819 0.115797654 0.08465892 -0.17719728 0.042527966 0.15558745 0.17175186 0.21010894 -0.0628678 -0.1341294 0.11486903 0.3093929 -0.18500932 0.2534517 0.078850985 0.34625953 0.032343596 -0.006635796 -0.08855394 0.032355033 -0.10393679 0.16566269 0.026230587 -0.023588005 -0.15241635 -0.2799798
年 -0.2818455 0.24986142 -0.36089766 0.07364045 -0.21787585 -0.15313533 0.14200044 0.12828758 0.12695462 -0.44689798 0.08073934 0.33129698 0.13549381 -0.0029645562 0.5421795 0.099289164 0.54037625 0.1524106 -0.047433373 0.13157697 -0.079542086 0.17753118 -0.31075734 -0.22026037 0.15726253 0.0037905732 0.046880905 0.3716037 0.16091588 -0.19537306 0.015052355 0.1785907 0.17825176 -0.34505054 -0.1989397 -0.012599347 0.18663643 -0.12406408 0.12316148 0.166333 0.11153829 -0.1580351 0.11844791 0.014619047 0.36393228 -0.02761345 -0.16484864 -0.19578327 0.037161544 -0.15548372
告 -0.012223863 -0.36390105 0.12738173 0.03342504 -0.23153517 -0.1433409 0.14870521 0.44090903 -0.36834532 -0.14116482 -0.029074738 0.080633126 0.0845641 -0.1546075 0.6774256 -0.01722299 -0.18558945 -0.46582213 -0.015483942 -0.25001398 0.02320401 0.36012894 -0.072612606 -0.37622827 -0.036714077 0.20424038 0.12692821 0.12281213 0.100158066 0.09208782 0.016739165 0.19822127 -0.23269528 0.40423036 0.0016479339 0.027417878 0.39821056 -0.34372413 0.53611046 -0.03264525 -0.19477683 -0.0074893665 -0.36218053 0.480554 -0.05785661 -0.38379613 0.2900877 -0.17586413 -0.17470595 0.05130342
十 0.028714014 0.033312347 -0.05253618 -0.19090126 -0.23155597 0.18374172 -0.1902557 -0.16243957 0.036631994 0.004746347 0.10151237 0.009776193 0.14071593 0.08205232 0.5829637 -0.13553041 0.3806709 -0.13544756 -0.07966763 -0.08654322 0.39464822 -0.28870374 0.046164963 0.01158586 0.23363078 0.75988823 0.10444927 -0.05729932 -0.3836329 -0.05350296 -0.006969774 -0.6873648 0.28747216 -0.331783 -0.18617748 0.043611877 -0.10396501 0.33989602 -0.5185252 -0.06523733 0.39855954 0.49076256 -0.27043647 -0.26164967 0.10961394 -0.47151974 0.19752517 -0.13232236 -0.4376356 0.08350504
怨 -0.59101206 -0.2449323 -0.042740643 0.010912991 0.07110907 -0.35294196 0.38643205 -0.30579063 -0.3042641 -0.1671663 -0.35087648 -0.07146728 -0.10777451 0.13879797 0.44459206 -0.18037488 0.13264565 -0.2385604 -0.04154073 0.3201195 -0.1594215 -0.16384721 0.30353087 0.011066951 0.10903383 -0.17622364 -0.040734656 0.45368868 -0.25555772 0.08256919 -0.32868907 -0.15591832 0.15438165 0.08249574 -0.06983595 0.116726615 0.033201016 0.13394791 0.2545126 0.07181749 0.07883426 -0.22669534 0.22184712 0.2834093 0.14238921 0.047431085 0.04155448 0.06796026 0.11856254 0.15881102
达 -0.13340086 -0.0143849235 0.24605244 -0.2641489 0.14974067 0.15270646 0.44310263 0.107837565 0.08397359 0.052614987 0.01879925 -0.08780092 -0.0774443 -0.36222455 0.4267086 0.09559828 -0.10761886 -0.56074953 0.03925131 0.029687362 0.13558549 0.00015282538 0.17939813 0.24343058 -0.36432788 0.0040774094 -0.34871635 -0.21317545 -0.26221287 -0.44216394 0.030688737 -0.36212885 0.28381082 -0.03942441 -0.1961675 0.3987955 -0.1384795 0.17005894 0.2551274 0.257459 -0.17577757 0.12566634 -0.08046273 -0.019759845 -0.40189943 -0.12840796 -0.01828198 -0.0023587458 -0.04689585 0.08909466
孝 -0.18604243 0.32705113 -0.02569728 -0.53351486 -0.024088215 -0.17653704 -0.22573042 0.23835765 -0.3468756 0.2843162 -0.47052917 0.086626925 -0.053747606 0.17072695 0.51511264 0.30289307 -0.08069896 0.17636554 -0.20965724 -0.20137051 0.256714 -0.41343194 0.12872592 0.1276077 -0.13702744 -0.11432642 0.14274968 -0.23299755 -0.09029857 0.3543951 -0.07471537 0.43760827 -0.15383624 0.24361837 -0.03900964 0.026203563 -0.016292766 -0.19360621 0.22973679 -0.038161658 0.14868763 0.116270475 -0.2444374 -0.48594654 0.15788901 0.4587917 0.3134709 0.08517191 0.39645958 0.11464243
弟 0.21941279 -0.018624198 -0.05744206 -0.13605109 -0.032711003 0.22319195 -0.03816925 -0.19080482 -0.34870037 0.15334556 -0.2895705 0.09049095 -0.2689935 0.26024458 0.5211685 0.50928843 -0.108297355 -0.22754046 -0.28202417 -0.27334076 0.12317071 0.17033447 -0.0149024455 0.23256864 0.12245817 0.2948539 -0.08142082 -0.037978362 0.122073546 -0.0636562 0.1288721 0.05744919 0.011880954 0.16863203 -0.07734159 0.2889638 0.10718252 0.021745931 -0.070828035 0.54288036 0.26158348 0.02268526 0.1358464 0.13671462 -0.012132958 0.15819147 0.4374452 0.27668998 0.077152215 -0.15336609
至 -0.20837678 0.092748396 -0.40028518 0.011466959 0.47286028 0.08346129 -0.2410637 0.19067958 0.121311076 -0.08410982 -0.17535624 0.22723623 -0.04285542 0.34653252 0.58686393 -0.146893 -0.26336488 0.3229898 -0.069138944 -0.19654156 0.031854317 0.304771 -0.2351876 -0.060042955 -0.2620841 0.060999587 -0.04638408 -0.115048185 0.29235515 -0.28640994 0.2598108 -0.06879524 -0.088432916 0.20999353 0.27502167 0.17762572 0.23261139 0.020386724 0.10896275 -0.27380657 -0.21287632 0.2715579 0.13635328 -0.32459313 0.18332642 0.2553755 0.1475104 0.08671331 -0.046526834 -0.17963497
先 0.0589488 0.4329958 0.48813838 0.18471673 0.16481626 0.30243918 -0.398328 0.4078788 0.2727763 0.16053998 0.07982291 0.0853653 -0.41790864 -0.29965872 0.5399243 0.32300916 -0.02626297 0.08957048 0.0024723841 0.23430875 -0.22276136 0.1668712 0.6182983 -0.051675793 0.18644126 -0.06056908 -0.1424188 0.113141514 0.1391728 0.18700202 0.3192044 0.20950072 0.021864854 0.25513104 0.22042073 0.00080395164 0.18373841 -0.6074384 -0.10279423 -0.06339186 -0.10957079 -0.27078333 -0.2935924 -0.030484943 -0.48884317 0.34771955 -0.35275936 0.07964472 -0.24994385 0.21511227
师 0.14603749 -0.28482577 0.2867202 0.11548574 -0.3157079 -0.054800328 -0.12653366 -0.038367994 -0.5002058 0.45218697 0.17287388 0.6087292 -0.17256995 -0.2285202 0.56520325 0.36340857 0.40014505 0.20545524 -0.19052917 -0.36411718 -0.103978254 -0.06981078 -0.57550144 0.15952004 0.083452515 -0.010178045 -0.62721926 0.47990644 0.43664825 0.03841503 0.08444402 0.052081697 -0.26173133 0.31171855 0.25223392 -0.028771376 0.04706768 0.030802669 0.40889978 -0.004848471 -0.14423981 -0.45257297 0.12009991 -0.071232155 -0.5287325 -0.50380045 -0.034196958 0.08365091 0.07018444 0.006257613
女 0.23563088 0.08839204 -0.11107766 -0.0921243 -0.4852023 0.35536242 -0.13682272 -0.032888185 0.21515751 -0.043275967 -0.3759394 -0.012005557 0.06455887 0.2232335 0.6430507 -0.029267116 0.14476433 -0.5525062 0.15578341 -0.2270903 0.029022776 0.012662612 -0.021880738 -0.15097594 0.43128136 -0.062151182 -0.08720882 -0.068921946 -0.02769924 -0.047189455 0.23816 -0.13283502 -0.17385307 0.03877543 -0.42599493 -0.2003407 -0.2234604 -0.08293523 -0.17891361 -0.42339805 -0.23641938 0.1291006 -0.123446755 0.04761921 0.10765695 0.02914651 0.11906281 0.04422103 0.08560789 -0.028963394
多 -0.15026231 -0.2578078 0.17904432 0.24744275 0.05787495 0.1740162 -0.14657353 0.36335745 -0.21594265 0.5741225 -0.41014278 0.31540984 -0.059343252 -0.012372735 0.4527385 0.044808723 -0.27284768 0.10410407 -0.09334737 0.033952437 0.37066412 0.1860862 0.42536643 0.2879803 0.23159945 0.13868037 -0.37086517 0.08711877 0.15652092 -0.087368175 -0.24004544 -0.05725346 0.19668332 0.06925041 -0.49690858 -0.26122183 -0.3903006 -0.25603887 0.04970135 0.031221725 -0.2380556 -0.09035231 0.42303902 -0.65523046 0.095451556 0.08675905 0.3259825 -0.0017686076 -0.23593722 -0.020437721
忠 -0.41034567 -0.0939065 0.36769512 -0.38168472 -0.16576186 -0.12923218 -0.11111637 -0.020069616 -0.008336949 -0.29345697 0.049257405 -0.06272916 -0.23751631 0.16206071 0.459052 0.12415762 -0.55011594 -0.12546669 -0.1489192 0.45992273 0.2806984 -0.124067664 0.35768077 0.057082806 0.04982984 -0.40990275 -0.010466173 0.074961595 0.18545271 0.30578595 0.17152496 0.121530734 0.11838049 -0.1116516 0.35970423 -0.5889448 0.048373416 -0.32335237 0.047551706 0.12182685 0.43897885 -0.14967722 0.654742 -0.030815471 -0.006892792 0.037220538 0.24707206 -0.16364017 0.29619914 0.1555606
四 -0.47422865 0.287907 0.40497866 0.3098457 -0.07837426 -0.35832107 -0.03001223 0.38122904 0.10887997 -0.09941854 0.096416056 0.3188432 0.085047975 0.18990038 0.52382994 0.49037704 0.33074537 0.059985157 0.016139638 0.0919601 0.35616952 0.18629219 -0.12984273 0.08701321 0.6180602 0.020294605 -0.4592471 -0.11790325 -0.27762583 -0.36755994 -0.030592375 -0.3952182 0.33060524 0.3708668 0.035780415 -0.047578923 -0.07434282 -0.02787187 -0.14544731 0.25087485 0.45331958 0.27790982 -0.121326536 -0.10120156 -0.18046154 -0.05340741 0.038148362 0.17244756 -0.23953222 0.10426879
疾 -0.2634357 -0.21022125 0.26431033 -0.24305183 0.48645464 0.014329307 -0.09958363 -0.10328272 -0.07505286 0.02941717 -0.12356483 0.10416977 0.14852454 0.40254202 0.46895686 0.46017277 0.06928072 0.33494553 0.19868821 -0.10194318 -0.06304332 -0.026846409 0.21544686 0.19603662 -0.29694617 -0.09116804 0.4515441 0.1970765 0.19485682 0.014170012 -0.03683534 -0.20735645 0.15411264 0.40851748 -0.19015269 -0.085203335 -0.033968575 -0.19968133 0.016666798 0.29083624 -0.27418935 -0.066322446 -0.014316639 -0.20276672 0.20893946 -0.6666111 0.009949009 -0.14330724 -0.36803165 0.027548742
服 -0.6401313 -0.46044004 0.0910461 0.07215764 0.09378493 -0.46763772 0.19535165 0.5664264 -0.22991122 -0.11644395 -0.1722374 0.11988669 -0.21475744 0.2743283 0.53007513 0.40194586 -0.24103364 -0.4047082 -0.13678576 -0.45492452 0.41623607 0.08046352 -0.021344068 0.086681746 -0.46026507 0.13354532 -0.234283 -0.17247884 0.23785356 -0.090312816 -0.104119815 0.3432229 0.29836875 0.35764194 -0.083774365 -0.13678648 -0.18329209 0.44603485 0.10383015 -0.28247246 0.33647895 0.017753216 -0.21543692 -0.031585675 0.23244981 0.1627014 -0.1793053 0.0017078994 -0.14917378 0.18670182
氏 0.116864264 -0.10926711 0.2577477 0.0632609 -0.027649669 -0.17092037 -0.26098403 0.1609256 -0.01940447 0.02435968 -0.15016225 -0.2944584 0.12937027 0.23235103 0.63523245 -0.043777965 -0.4956344 -0.10760814 0.1494288 0.07093465 -0.33403504 -0.39447048 0.11880791 -0.01419124 0.38933706 0.028434034 0.10205375 0.021996045 0.07577218 -0.28323624 -0.17619644 0.20413816 -0.3336243 0.34480736 0.0970246 0.39463252 -0.16653572 -0.33811665 0.28613243 0.16557772 0.29363132 -0.114554055 -0.29271787 0.21110658 -0.18559062 -0.3706677 0.11953401 0.08295395 0.118832976 -0.18255413
冉 -0.03450803 0.14137706 0.08033577 -0.08515219 -0.04038675 -0.04719236 -0.03148252 -0.015665105 0.30180565 -0.023044432 -0.30923387 0.12893084 0.10684516 -0.1445579 0.6684192 0.15602925 -0.42168143 0.21692733 -0.13803819 -0.16712174 0.023666482 -0.25718695 0.12301621 -0.035512034 0.11950998 0.31541246 0.06047337 0.020892708 0.028083485 -0.035487212 -0.33507207 0.22429787 -0.48259383 -0.0398452 0.15199338 0.10018456 -0.4282844 0.27114522 -0.10929294 0.30540782 0.40308127 0.046589248 -0.2681699 -0.20268817 -0.36743325 0.09745327 0.18058561 0.19423126 -0.21011649 0.10878549
将 0.57099897 -0.32320455 0.15496325 0.37517983 0.26179692 0.11358466 -0.11399336 0.15006357 -0.2507732 0.32805425 -0.15141106 0.120697424 -0.118600786 -0.21816647 0.5167432 0.31724402 -0.32557485 0.42528433 0.090989694 -0.003883467 -0.054843828 -0.19288714 0.20676497 0.10839055 0.21672069 0.16690396 -0.15419628 0.23608151 -0.07701866 0.18491156 0.112692885 0.09294243 0.012180308 0.22718434 -0.08338291 -0.08140626 -0.18355104 -0.039991703 0.21554075 0.23410645 0.20511544 0.47478583 0.0906261 0.15603074 -0.216113 0.109943144 0.4846735 0.039757147 0.07042082 -0.08962919
士 -0.18937589 -0.12722078 0.48444182 -0.042427585 0.16289502 0.18238884 0.029384363 0.083147354 0.23313752 -0.17096387 0.021384628 0.35588345 0.12093244 0.032970417 0.48360485 0.10459909 -0.15066111 -0.145183 0.14528285 0.06726447 -0.06713546 0.17411816 -0.4901236 0.27651274 -0.08576773 -0.28459355 0.31012973 -0.299896 0.011653857 -0.41391167 0.16736148 0.20889646 -0.17908117 -0.51303154 0.136316 0.07228883 -0.5790264 -0.16638614 0.29851106 0.038489137 0.31634954 -0.113713436 -0.15601245 -0.53506577 -0.18403594 -0.09364632 -0.10735818 0.059481356 0.4761301 0.08509535
丘 -0.018827844 -0.17457616 0.1053902 -0.13818587 0.037457883 0.13839974 -0.22763714 0.2253147 0.35043338 -0.1751375 0.12607834 -0.040589742 -0.22434051 -0.1284918 0.6711568 -0.16190803 -0.3204208 0.08805564 0.26964292 0.09842485 0.23399515 0.024355313 -0.2089607 -0.3024002 0.5877672 -0.5912969 0.22915691 0.15136366 0.18355785 -0.15364039 0.03885089 -0.0064975927 -0.12797357 -0.29930836 -0.06533458 0.35316387 0.12070824 -0.041079428 -0.088315204 0.58700544 0.03501384 -0.35001394 -0.12811206 0.29909807 0.09154597 -0.0035727294 -0.031190606 -0.55149305 0.092905916 -0.0945816
身 -0.15159374 -0.2285062 0.29143655 0.07017219 -0.0908227 -0.015608957 0.08219859 0.39803714 0.1339709 0.26164183 -0.048517495 0.2050693 -0.00022172765 -0.11181938 0.4165111 -0.16739418 0.1269592 0.27835506 0.21398999 0.05948482 0.20277385 0.15567775 -0.20048909 -0.10716072 0.3581639 -0.12612244 0.16448537 -0.1320457 -0.004273544 -0.20981094 -0.2185824 -0.20684458 0.32268927 -0.12323557 0.40136576 -0.20383038 0.09875814 0.31396544 -0.020494817 -0.28915432 0.08535779 -0.033109818 -0.11529132 0.1492451 -0.09461855 0.3548639 0.69879353 0.28486097 0.4202517 0.0896836
入 0.013977875 -0.18287867 -0.11247467 0.29903856 -0.2078583 -0.5467765 0.10455729 0.07985089 -0.425752 -0.037758254 -0.048521847 0.15582001 -0.19147164 0.23349443 0.61615676 0.14312324 0.20157284 0.21039952 -0.67534906 -0.00012806884 -0.048926037 0.3183833 -0.41926542 0.44574118 -0.35093766 -0.109100185 -0.053155348 0.115183555 0.23812518 0.22609706 -0.36173794 -0.0018158461 0.22774567 -0.10017227 0.023777995 -0.15383983 -0.15269667 0.026348427 0.013706125 0.09890597 0.3085854 0.16750464 -0.16592088 0.38222829 -0.5404171 -0.015412164 0.10141299 0.45096374 -0.5140997 -0.44975847
志 0.06964532 0.11999497 0.47187752 -0.2750555 0.2696191 -0.06553453 0.33078197 0.32595107 0.19293478 -0.20122963 0.17013292 0.35146847 0.23192284 -0.07675654 0.54274017 -0.29982725 0.07548752 -0.030902939 0.0025074817 0.36187488 0.24659213 -0.048083074 -0.09743184 0.35800666 0.06119168 -0.07446881 -0.054250196 -0.1923446 -0.11288432 0.18326882 0.028051775 -0.09970702 -0.08616186 -0.3010752 0.27744138 -0.13839796 0.52836156 0.12628941 -0.055744734 0.16561745 0.09461089 -0.44366345 0.44091514 -0.05189014 0.02099124 -0.23271552 0.018647075 0.3711748 -0.29208282 -0.030640872
耻 -0.10867751 -0.104488276 -0.09410315 -0.19821459 -0.5577471 -0.0512961 -0.034657672 -0.0407705 0.6365869 -0.24563135 0.13722342 -0.16012049 0.0004639225 0.3020075 0.3496236 0.0029508728 0.052118406 0.15737738 0.5514438 0.3279831 -0.15534556 -0.06350328 0.32903537 -0.15218271 0.38511914 -0.19967896 0.2284707 -0.12123828 -0.14210366 -0.033120733 0.33931637 -0.38198534 0.40692168 0.21326521 0.13600436 0.37743065 0.09309485 -0.22250396 0.3231182 0.3815316 0.794705 -0.20873095 0.32535705 -0.26948452 -0.2795608 -0.14079352 0.07675239 -0.16427915 -0.17901514 -0.30650863
失 0.13071775 -0.3592996 0.4789479 0.07657468 -0.36455455 0.22468422 0.17777412 0.008668487 0.08110547 0.13721372 -0.22019745 -0.058473133 -0.045069236 0.13052474 0.32291797 0.077602275 -0.056619152 0.04043372 -0.21520306 0.03068019 -0.0008675295 -0.589671 0.35805753 0.11963757 0.14280505 0.2990011 0.22801483 -0.03324172 0.23364921 -0.22211942 -0.29845068 -0.14274704 0.5112701 -0.46058717 0.16137928 0.15417133 0.60265493 0.02485536 0.17080954 -0.21869619 0.08879824 -0.09714314 0.18623346 0.023637488 0.49811357 0.19162984 -0.21663179 -0.0697839 0.31442833 0.18821602
安 0.045770437 -0.23204443 0.12115807 0.23345517 -0.8926642 -0.044569515 -0.08613196 -0.41500148 0.14079723 0.097134136 -0.250108 -0.05154529 0.15299879 0.1481927 0.640195 -0.09369623 0.4299075 -0.38893494 -0.1689819 0.05730099 -0.16741714 -0.39500535 -0.007793011 0.38273913 0.9691235 0.09830407 0.37415206 -0.06039901 0.43823192 0.19479312 -0.074894674 0.10304985 0.34322587 0.60001576 -0.27703217 0.15721156 -0.2736942 0.15954982 -0.036487177 -0.4643254 -0.23951605 -0.3044057 -0.0009873565 0.18624914 -0.39950126 0.10171739 0.18251464 0.086768195 0.3278344 0.24227363
富 -0.1748923 0.525276 0.0073168054 0.6380276 -0.06553022 -0.17749725 -0.38901448 -0.15400231 0.409389 0.062310036 -0.3142155 0.34853095 -0.05054932 0.3247321 0.4806585 -0.28525516 0.06866766 -0.2926575 -0.08627051 -0.1445873 -0.4568638 -0.13928032 0.27212256 0.1886531 0.16213347 0.00074766204 -0.14522038 0.03479316 -0.056292064 -0.24184987 -0.17680044 -0.27993113 0.22707906 0.13557716 0.016527362 -0.060410514 0.025577115 -0.39456356 0.19486776 0.25792047 0.094829634 -0.16075976 0.06503677 -0.06959981 -0.23608288 -0.026104415 -0.12871009 -0.016811062 0.3250881 0.14277893
赐 0.46915498 0.107518174 -0.097766556 -0.016279921 -0.0030910496 0.34000605 0.3293702 0.14847377 0.1102034 0.22438028 -0.03770393 -0.18142039 0.58036995 -0.010776959 0.659664 0.10361732 0.065677725 0.3558616 0.17233355 -0.137186 -0.09095609 0.21657974 -0.41064778 -0.41878098 -0.2531307 0.262648 0.25583485 -0.27818826 -0.442749 -0.64198667 -0.036453985 -0.5752153 -0.19042984 0.22235042 -0.07949645 0.14896698 -0.04961929 -0.4327279 -0.38351497 -0.12386309 -0.1264439 -0.1586066 -0.020518221 0.13037328 -0.50787425 0.036077008 -0.1925754 -0.05861976 0.058021065 0.45988345
患 0.25212693 0.07542759 -0.24063219 0.17088698 0.07327789 -0.40663075 0.24249555 -0.5826248 -0.23523279 0.7806848 -0.059950836 -0.034354724 -0.028180651 -0.3713805 0.5536647 0.24342701 -0.06608858 -0.21085176 0.14825334 0.05922021 -0.6129259 -0.22939213 0.4350959 0.37065667 0.5793075 0.08424732 -0.2591336 -0.07390314 -0.10895253 -0.1249903 -0.18311636 0.17616665 0.35032344 0.023682417 0.20113865 0.14913778 0.043319173 -0.174107 0.50018513 0.38446635 -0.10504466 0.016285019 0.056776058 -0.23612231 0.0874062 0.031852584 0.11109809 -0.22128691 0.23966372 -0.2523424
百 -0.22805838 0.6264993 0.6940691 -0.055199314 -0.07154628 0.17765352 0.20132099 0.1439129 -0.44656888 -0.097888395 -0.1340949 0.18221097 0.16374324 0.4537817 0.56092834 -0.3050295 0.11809476 -0.23250109 0.54270613 -0.055626515 -0.36986896 0.14238276 -0.17339723 0.2901956 0.57449615 0.10997486 0.050395902 -0.06697048 -0.3801861 0.7740488 0.039452583 -0.12095474 0.1479215 -0.011888131 0.005586123 -0.058847588 0.0657136 -0.25225052 0.2326551 -0.3775159 -0.03299507 -0.26820585 -0.15133344 -0.31500503 -0.38891312 0.2508006 -0.05218397 0.090897344 0.32258537 -0.075135395
回 0.18963145 0.58312947 -0.15340504 -0.19041279 0.111559354 0.107513726 0.047175758 -0.048360318 0.031250972 0.28046352 0.053040817 -0.21462372 0.14162977 0.089331836 0.6076194 -0.20297013 -0.060916096 0.2909161 -0.1752743 -0.21380092 -0.28545043 0.0032388181 -0.038234726 -0.09461457 0.10780746 0.30857345 -0.12931904 0.22204807 -0.08044392 -0.12110434 -0.15826403 -0.1551014 0.0039037345 0.10550558 0.06270778 0.032802332 -0.36156014 -0.047507484 -0.06412489 -0.12400235 -0.4600226 0.0017581731 0.085386895 0.10355048 0.2667875 0.1801224 -0.14127609 -0.17524816 -0.12403375 0.07135009
宰 -0.22870068 0.21477415 -0.34678614 -0.33477235 0.034397718 -0.19532326 0.09224784 0.3745982 -0.23405021 0.023871174 -0.19899197 -0.223059 0.33197194 0.06765358 0.92031527 -0.34873766 -0.13823265 -0.28057194 0.01455969 0.05547662 -0.13524558 -0.08178665 -0.4492496 0.32807416 0.24739653 -0.059268527 0.09029597 0.9077158 0.3610802 0.05620813 -0.070600875 -0.2414191 -0.6151864 0.5114061 -0.37335902 -0.084003136 -0.2954701 -0.3645284 -0.11078772 -0.15082838 -0.29745308 -0.153881 -0.42417598 -0.013519138 -0.32772103 -0.80106395 0.61374557 -0.1009346 0.40963477 -0.23200145
朝 0.14365757 0.37136745 -0.091986224 0.33833212 0.14544305 -0.04735628 -0.32499462 0.06560423 -0.12891194 -0.02468645 0.59960365 0.5171773 -0.379041 0.18164517 0.6572923 -0.11889551 0.013324979 -0.07662077 -0.1599131 -0.5857803 -0.14449711 0.25549886 -0.13150485 -0.17923133 0.1933057 -0.13942926 0.560285 0.22956385 0.003662303 -0.25491762 -0.12105544 -0.2824872 -0.00768853 0.17883563 -0.17029136 -0.14079322 -0.3508414 0.25878832 0.19578622 -0.417209 0.5441883 -0.21855502 0.0725221 -0.16076492 -0.08688196 -0.031081341 0.2995099 -0.0005780882 0.15597178 0.16839191
莫 0.30669656 0.2421018 0.075925685 0.36420923 0.38000777 -0.11696311 -0.21635735 -0.45078996 0.14332223 -0.098722555 0.18318291 0.07278599 0.073982805 -0.122631826 0.5150972 -0.051820602 0.14203145 0.20664124 0.22831129 0.1905292 0.19124621 -0.09397662 0.1638837 0.038122226 0.19795515 0.051067334 -0.1664309 -0.08679003 0.28226817 -0.41169387 0.008621436 0.55939096 0.24793348 0.095174246 0.38171372 -0.26446456 0.42416543 0.058803592 -0.28086364 0.19670862 -0.13114078 0.2076084 -0.18927756 0.038578004 -0.22277476 -0.34325564 0.22062221 -0.02668814 0.069995485 -0.09263743
若 -0.016450746 0.021500746 -0.19862106 -0.11535115 0.58958846 -0.92014956 -0.29798248 -0.32147294 0.5308741 0.024375848 -0.19711095 0.13237016 0.29312477 -0.30631712 0.6048351 -0.11885215 0.26432613 0.11618241 0.3105701 0.44917813 -0.2537999 -0.046419643 0.24014436 0.348718 0.3690131 -0.002160613 0.651853 -0.14658603 0.14565606 -0.046173163 -0.06015648 -0.067734145 -0.104626074 0.005636256 0.098061875 -0.20875354 -0.054013904 -0.19923255 -0.31341532 0.26805776 -0.5412717 0.13893394 0.10305967 0.22724023 0.011565699 -0.2314491 0.49671048 -0.08982519 0.5429164 0.0120255
云 -0.30673802 -0.38501453 -0.43632555 -0.009253064 -0.46227804 -0.0913034 -0.18453829 -0.1683706 0.038810253 -0.21402729 0.009254592 0.5133951 -0.12437036 -0.14454661 0.9465008 0.24039596 0.42919815 0.22007938 0.19059205 -0.81544137 0.20956595 0.68355197 -0.10498526 -0.013132777 0.2567739 0.31291285 0.0002408512 -0.4177082 0.27823332 0.25435895 -0.18393907 0.57484984 -0.5462858 -0.0651442 -0.15751094 -0.42292383 0.034206312 -0.35103825 0.046815854 -0.06783368 0.17399079 0.6740333 0.047124255 -0.27154678 -0.097614594 0.76357955 0.07014373 -0.10839384 -0.25895575 -0.21127404
