1352 100
， -0.039735302 -0.29310462 -0.07619346 0.10713088 -0.08561946 0.006435971 0.023859428 0.12163141 0.034087062 0.08470936 -0.17725818 -0.024029737 0.04586485 0.07525145 -0.056461077 0.059379257 0.076091036 -0.07940258 -0.025972625 0.23736595 0.32825005 -0.1578319 0.11177225 -0.016898444 -0.014650719 -0.02860553 0.0049233106 -0.11944012 0.08672464 -0.24714074 -0.0284395 0.008007091 -0.35235098 -0.013238398 -0.15706988 0.10458554 0.13815688 -0.19941689 -0.11371986 0.044524025 -0.13904239 -0.18401948 -0.18557763 0.007887123 -0.06352836 0.06934081 0.14554752 0.04915924 0.23033607 -0.1699338 0.083067395 -0.072151884 -0.028349726 -0.050697587 0.16866697 0.11085124 -0.0072210827 -0.17871019 0.069067925 0.112847574 0.015531283 -0.0601858 -0.077651784 0.07441462 0.05859668 0.05522291 -0.011090673 0.09525175 0.059637275 0.076006435 0.06747827 0.11857851 0.20746212 0.0974955 -0.13822368 -0.049777772 0.03497431 0.11143029 -0.04844741 -0.045251574 0.1141807 0.16502984 -0.047882628 0.2134257 -0.1222158 0.15964241 0.035479438 0.42463616 -0.022641195 -0.19107234 0.05050815 0.08776855 0.18645582 -0.01756014 0.13737157 -0.035090383 -0.14281443 -0.027681682 -0.07467911 0.09802856
子 0.21558918 -0.022570997 0.036622103 0.10708064 -0.011728428 -0.2537533 -0.06673308 0.110131785 0.2364644 0.09033697 -0.09193554 -0.0020357736 0.087667584 -0.024626821 0.056757364 -0.12888454 0.09564309 0.14230795 0.015058455 0.030554894 0.2658362 -0.061683442 -0.00018506998 0.07815244 0.1161739 0.20238939 -0.2422993 0.014631242 0.13186517 -0.06290613 0.10003996 0.013042677 -0.53651655 -0.09884711 0.00018781362 0.041784424 0.08218236 -0.1447266 -0.31466925 0.017686475 -0.0021422708 -0.08382705 0.0088894125 0.020066325 -0.082607985 -0.05105194 -0.012514405 0.15023646 -0.05174602 -0.13249904 0.003248847 -0.03179195 -0.016641084 -0.052081145 -0.032144874 0.08826216 -0.061678395 -0.10145491 -0.15481856 0.14979711 -0.025948927 0.07679004 -0.12573974 0.053997673 -0.0319068 0.10903422 -0.14281097 0.10556574 0.051303603 -0.04266224 -0.17905384 0.10082294 -0.06277066 0.069443606 -0.036202814 -0.0706834 -0.04348392 0.117781505 0.033823624 0.032684114 0.001302212 0.11783861 0.138533 -0.08754477 0.19110645 0.09421363 0.14462292 0.04106598 -0.26729524 -0.011661329 0.1861667 0.02727412 0.010097409 -0.14769693 -0.012481485 -0.16117768 0.0036931462 -0.1267709 -0.17406449 -0.122866884
。 0.20037599 0.14360765 0.12272784 0.1970682 -0.06444072 0.104741044 -0.124546096 -0.030387748 0.24522646 0.110104226 -0.11263618 0.102837406 -0.2630572 0.021583248 0.120269984 -0.112199634 0.19478962 -0.012752129 0.10272347 -0.01728608 -0.23308226 -0.1652768 -0.19210781 0.07536681 0.12680446 -0.17186087 0.073592104 0.025924183 0.23239902 0.19107044 0.22354193 0.19197266 -0.56396395 -0.015394002 0.09280654 0.030973 0.13699636 -0.10494376 -0.053221084 -0.034470655 -0.037430476 0.15859145 -0.010144145 0.08816026 0.0015123417 -0.04395188 0.09728088 0.10025107 0.07909729 0.15315472 0.17716454 0.04523387 -0.03145217 0.1599373 -0.119994596 -0.09434804 -0.027373845 -0.060092174 -0.25926518 0.16494843 -0.105712414 0.00048627984 -0.09960901 0.06954554 -0.079250604 -0.06546679 -0.11629907 0.037957396 0.15943842 -0.03872425 -0.11276302 -0.092322625 0.14404614 0.04589937 -0.09854739 0.28697526 0.028154632 0.13574213 -0.01222912 -0.0752166 -0.14569798 0.11530009 -0.09977181 -0.0236669 -0.032102194 0.09505741 0.0059159417 0.2202497 0.001326168 -0.2251629 -0.042630885 -0.13160364 0.08085544 -0.13893296 0.020184318 0.008995679 0.02641025 -0.029544385 -0.095677786 -0.2373033
： 0.21142596 0.14791122 -0.04144616 -0.054278694 -0.014526582 -0.110606134 -0.099967495 -0.07249847 0.2755419 0.16395701 -0.10876722 0.11413342 -0.010980557 -0.04172705 0.108259305 -0.072430104 0.012957457 0.30370718 -0.10924322 -0.1729182 -0.007376936 0.17153013 0.15661202 0.12460369 0.03651865 0.009289346 -0.16483708 -0.07677145 0.17099455 -0.009628632 0.16682024 0.08861551 -0.637137 -0.14947185 -0.08317457 -0.06982042 -0.0032822913 0.023953915 -0.09159078 0.016199686 -0.012179164 0.012846876 -0.094639115 0.17326492 0.019385587 -0.13739653 -0.068557575 0.15569408 -0.10527828 -0.07938218 0.039397225 0.13797924 -0.028015139 0.0039125932 0.09875467 -0.031925105 -0.024871908 0.0035894567 -0.1333115 0.10407872 0.19103959 0.06758379 -0.09534809 0.1444982 0.12893425 0.0123394625 -0.14109546 0.18025385 -0.09712594 0.06589664 -0.26159203 0.0003847913 -0.05580724 0.02247084 -0.00070196716 0.1470639 0.024063215 0.15094425 0.008083235 -0.14990364 -0.14725067 -0.091616675 -0.022822784 -0.054640073 0.07886679 -0.071464725 0.019177068 -0.020436568 0.057735812 -0.12746686 -0.076456346 -0.0390362 0.04615072 -0.11149911 -0.057018206 -0.03899281 0.17624573 0.01627859 0.08419652 -0.19919674
曰 0.24959354 0.2704474 -0.050630234 0.09049978 -0.013995878 -0.10895986 0.019305363 0.0601502 0.23174904 0.17866442 0.040506955 0.102292664 -0.10234154 -0.24761072 -0.004246975 -0.008960589 0.11499444 0.019531686 -0.028053796 -0.09600001 -0.1053873 0.13693886 -0.058496535 0.18936014 0.097832024 0.057460368 -0.0010436737 0.04129845 0.0511212 0.02923138 0.07974908 0.0067486325 -0.70103306 0.036197867 0.005379811 -0.015074526 0.04779789 -0.08422088 -0.1725656 0.11915643 0.07989991 -0.088514715 -0.069656685 0.10972384 0.055998527 -0.087201975 -0.037534427 0.1973333 -0.0037576677 -0.045828145 0.043982588 0.058951315 0.09085984 -0.051626142 -0.0031133192 0.04879271 -0.092922054 -0.017575841 -0.13688065 0.10044329 0.13875303 0.09475629 -0.1355469 0.021667555 0.007970173 0.07044626 -0.07391688 0.28027582 -0.1323745 -0.0015826791 -0.16171251 -0.04200257 -0.031586993 0.062940374 -0.009292609 0.2211887 -0.019016288 0.23685926 -0.01072203 0.07574222 -0.10726575 0.018093595 0.046073887 -0.33360118 0.04758377 -0.102354035 -0.13788386 -0.024049353 -0.282139 -0.17639156 -0.013177548 -0.018737435 0.044103786 -0.16206865 -0.031138644 -0.1321195 0.041423205 0.08649288 0.10259112 -0.040653735
之 0.026843704 0.18221606 -0.2251424 0.30197135 -0.16995327 -0.091082364 -0.012832576 -0.2341654 -0.06123642 -0.020322163 -0.30844963 0.17862186 -0.02793212 -0.08401946 -0.21767758 0.06528764 0.08513608 0.10489219 -0.04013926 0.2098546 0.1692426 0.029496582 -0.11084566 -0.08081678 0.06933922 0.095768996 0.089147806 0.21221267 0.083372444 -0.2835937 -0.0017574327 0.06254411 -0.3558691 -0.054177977 -0.22945106 0.24935527 0.08170331 -0.10125458 -0.12739298 0.17682293 0.07494093 -0.16272287 -0.023912895 0.040768303 0.06304116 0.1581702 -0.124759525 0.070219144 0.20158455 -0.23069401 0.39201087 0.30814955 -0.3066706 0.17409803 -0.124033034 0.027305376 -0.096577704 -0.2267116 0.24586049 -0.094253466 -0.17752457 -0.23825374 0.13039792 0.096216075 0.16908227 -0.09695894 0.12564674 0.037769012 0.12511499 0.12881728 -0.14799953 -0.06653829 -0.061653584 0.10678344 -0.102085635 -0.09171007 0.0019122362 0.12824088 0.050692588 -0.07048469 -0.056244344 0.13699315 -0.14448306 0.1154845 -0.2006528 -0.104569376 0.11640419 0.31980065 -0.16724508 -0.058498807 0.069826566 -0.15270613 -0.0056363195 -0.04566335 -0.107368276 -0.29324913 0.025859695 -0.00238771 -0.0020083794 -0.054625377
不 0.1224494 0.069051884 0.012574555 0.13585931 -0.047003962 -0.16336407 -0.019127829 -0.048922624 0.20336711 0.00034098543 -0.13037787 0.09410669 -0.12569132 0.08430458 -0.11256141 -0.23552538 0.2036535 0.14945678 0.03336618 -0.029308878 0.15571292 -0.16302118 -0.044388272 -0.0058506764 0.23035423 0.07394443 0.1090379 0.07990125 0.054818958 0.109663814 0.07435534 0.20100462 -0.43484995 -0.10693225 -0.038782462 0.21913546 0.14603779 0.013507302 -0.19417062 0.096954376 -0.012045947 -0.2085813 -0.18871646 -0.12000715 -0.05713579 0.07971138 0.038206965 0.031150214 -0.11432467 0.038987406 0.049014494 -0.045190305 0.073925726 0.056558236 0.25899428 0.19394746 0.10148796 0.011538045 0.014681496 0.016177043 -0.023303699 -0.05066007 0.011591151 0.23785686 -0.06860069 0.053435203 -0.045652546 -0.0035426673 -0.028611334 0.2554162 -0.17482732 -0.08387279 0.14313935 0.16262327 0.101652734 -0.20763025 0.08219103 0.057419077 0.073089726 0.0720996 -0.19769508 0.18000592 0.003963651 0.08902372 0.025170462 0.04779526 0.043459203 0.22806688 -0.22106677 -0.11636549 0.03999995 0.20513487 0.07867626 -0.06599073 0.02249538 -0.24597672 0.10960953 -0.042566095 0.12566485 -0.08035822
也 -0.0653602 0.0685456 0.0030840093 0.22273289 -0.14746386 -0.083368525 -0.007281806 -0.16068849 0.15615508 0.029260546 0.009810816 -0.06402291 0.113237485 0.11422023 -0.06207442 -0.03017978 0.08319711 0.039741077 0.1529938 -0.12808484 0.004180356 -0.121923186 -0.006646266 -0.020482011 0.059437696 -0.007224175 0.10377853 0.09056721 0.15047182 -0.124594 0.057636976 0.039879143 -0.441354 -0.0016857996 -0.19401513 0.06311583 -0.11997754 -0.22156347 -0.19734465 -0.04812889 0.028228492 0.10783732 -0.17575124 -0.10274185 0.06779673 -0.09971876 0.0109400395 0.033634964 -0.09631701 -0.0876425 0.19861856 0.17384052 -0.08771977 0.06844989 0.098417506 0.11472043 0.08373237 -0.24052928 -0.02688101 -0.05402344 -0.06380121 -0.029821636 -0.0066277073 -0.092886634 -0.018459003 0.0062637385 0.14153269 0.08514181 0.10860663 -0.04741463 0.15228176 0.1162578 0.03441858 0.12254768 -0.19822587 -0.10575707 -0.16123685 0.061900508 -0.08146675 0.0467154 -0.18595701 -0.018979108 -0.20630768 -0.017180799 0.03435342 0.18855447 0.13129719 0.2090449 -0.15923283 -0.07951394 -0.16558833 0.054494653 0.22522055 -0.403497 0.13486624 -0.09025262 -0.001453631 -0.008555474 -0.08246976 -0.084684126
而 0.02954123 0.09389081 0.0019183354 0.32543898 -0.122706816 0.015075598 0.046139996 -0.08842756 0.0768751 -0.027486056 -0.08998231 0.111412756 -0.021111697 0.061668027 0.032406297 0.12135548 0.018157616 0.20511052 -0.12197725 0.24247186 0.13602307 -0.16076115 0.07490176 -0.0024024043 0.10667477 0.17921627 0.11231578 0.11498935 -0.03864536 -0.006277941 -0.1454531 0.13403192 -0.4786436 0.0023578838 0.053320576 0.098902985 0.029240176 0.015564621 -0.03149461 0.093393244 0.17310198 0.014057105 -0.043155037 -0.056665625 -0.1739046 0.12245695 -0.066981204 0.077685736 -0.071426265 -0.010555242 0.2014944 -0.0542126 -0.058936156 0.10512892 0.0466887 0.18021762 -0.10340118 -0.079313666 -0.10636981 0.064574346 -0.11281028 -0.019742688 0.0054280884 0.048036832 -0.25329062 0.09928191 0.07015913 0.020525888 0.08371792 0.06401746 0.034276634 0.018942576 0.11707293 0.033073757 -0.16485767 -0.06313774 0.09046539 0.15721418 0.01039561 0.13141254 -0.07723066 0.03661375 0.06191903 0.05049938 0.05000003 0.13395375 -0.022043586 0.33278862 -0.0015775142 -0.11619314 -0.05850726 -0.21350808 0.086605914 0.10096842 -0.066713415 -0.10304697 0.017368335 0.23783012 -0.19578646 0.0813598
？ 0.06568983 0.16861092 -0.07181241 0.22231193 -0.050770167 -0.021864226 -0.027633732 -0.12438112 0.26969564 -0.008431168 -0.17183374 0.048696067 0.018982079 -0.08814669 0.090521246 0.08997034 -0.093115896 0.07744599 0.03459364 -0.017086275 0.009959638 0.027701076 0.045032926 0.13356344 0.16512258 -0.06282715 -0.036110684 0.023119917 0.10871147 0.032260064 -0.17872971 0.07595455 -0.618159 0.13936384 -0.059247084 0.067023546 0.1657543 -0.2310516 0.05093094 0.09146864 0.06197418 -0.0558394 0.06576559 0.031155102 -0.04614269 0.073649175 -0.09584734 0.21886492 -0.124711454 -0.025360722 0.08029394 0.014258113 0.037164338 -0.05590183 0.058434293 0.27961618 0.12169102 -0.118270926 -0.032378737 0.222976 -0.06805642 0.05517075 -0.03200197 0.12059341 -0.051381554 0.120983414 -0.12215853 0.30272418 -0.08352631 0.007496101 -0.10165419 -0.0747382 0.2660755 -0.05653046 -0.07638616 -0.02144393 0.01569993 0.21220982 0.065407015 0.14492014 -0.1927299 0.0768112 0.29650906 -0.21675204 0.13764688 0.04997199 -0.04980652 -0.0020969645 -0.065028615 0.0502757 -0.12549657 -0.25396773 0.23108754 -0.21381074 -0.1688278 -0.10535246 0.09615771 0.112115875 -0.16174397 -0.071982205
其 0.105793126 0.07502129 -0.13534877 0.078432225 -0.18220435 -0.03099117 0.016720701 -0.068924464 0.13846126 0.1573664 0.04329232 -0.09976039 0.026897397 -0.15348683 -0.098082885 -0.0024572206 0.038281087 -0.0029707989 0.18139483 -0.0076958397 -0.017579876 -0.036252506 0.07585879 0.029821645 -0.08132192 0.04384035 -0.06125841 -0.17477979 0.01614826 -0.25528854 -0.07901165 -0.06901615 -0.3582624 -0.031211989 -0.056865677 0.17100579 -0.039472498 -0.019150568 -0.024153635 -0.04663102 0.18117756 -0.057177547 0.112145126 -0.03697698 0.042444292 -0.13923216 0.20693047 0.12648381 0.044934623 -0.010419713 0.09547859 0.013474942 -0.3104503 -0.14390709 0.03535368 0.08382345 -0.30723366 -0.43345627 0.11215307 0.10652182 0.23881695 -0.118926 -0.115301564 -0.17550132 -0.13657361 0.044096857 0.048619375 0.0016139664 -0.26061958 0.15498988 0.12580615 0.036301553 -0.16301702 0.044513278 -0.0020343596 0.033066705 -0.16637963 0.11619957 0.070970416 -0.08732392 0.041715495 0.044696953 -0.09611058 -0.19032283 0.09116112 -0.13062538 0.13867576 0.26263833 -0.13793747 0.15964113 0.060371883 -0.2698464 -0.033245895 -0.054347105 -0.17725551 -0.05582746 -0.06545096 0.0113413595 -0.06941761 0.060377255
人 0.015652765 -0.039681952 -0.18669476 -0.018707098 -0.23417595 0.07990199 0.07892494 0.25456467 -0.18817712 -0.028176796 -0.11064056 -0.2166783 -0.10718573 0.09651068 -0.014561761 0.13855122 0.12485569 -0.011641352 -0.0807354 0.23219892 -0.0115644075 -0.16600482 0.020542214 0.07320417 0.05048768 -0.014260193 0.25907776 0.28512302 -0.11242815 -0.22814159 -0.25361374 -0.012494655 -0.44209298 0.17309895 -0.23125811 0.06928302 0.045734357 -0.06716358 -0.015086934 -0.021374818 -0.062370576 0.07202027 0.03479492 0.004817843 -0.15847981 -0.07363705 0.06671159 -0.14281404 0.28575194 -0.012451602 0.17308208 -0.16694458 -0.1058326 0.030187888 0.061118804 0.008922268 0.020041725 -0.33172312 0.054337744 -0.19585548 0.15335128 0.036694624 -0.13550118 -0.08630744 -0.20198838 -0.041330256 0.22445562 0.06704449 -0.1638008 -0.18895659 0.25300157 -0.1000662 0.065482154 0.058012374 0.06801683 0.023434386 -0.082495056 0.019939365 0.16186841 -0.16933006 0.09249793 0.038653653 -0.01617487 0.32064572 -0.17835787 0.047112595 -0.12692492 0.143756 -0.122582465 -0.090863906 0.02324138 0.037062123 0.11929763 0.20243464 -0.04133128 0.019279422 0.062392637 0.0055970657 -0.10643605 -0.04544499
者 -0.056113977 0.2028061 0.0037414907 0.106523804 -0.005239337 0.10612972 0.13182442 -0.0667128 -0.24871972 0.13777697 -0.061440375 -0.1155996 -0.025184806 -0.08564396 0.08258997 -0.12409179 0.084247544 -0.011520626 0.008839738 0.1518601 0.043254875 0.13965048 0.002202176 -0.168102 0.10473935 0.23525213 -0.20840958 -0.013477282 -0.26028213 -0.11639675 -0.1590898 -0.12681293 -0.4620615 0.019961694 -0.048111726 0.24477686 -0.07399303 -0.14979763 -0.12982994 0.09115248 0.03202717 -0.06216073 0.26476383 -0.05610479 -0.009401204 0.29345465 0.15689708 -0.18114859 0.33150175 -0.14076418 0.014831573 -0.23650116 0.09514331 -0.0426459 -0.29590037 -0.13382784 -0.11558821 -0.08725184 0.05168673 0.00035213504 -0.11442877 -0.07758873 -0.07614251 -0.056780472 -0.16332486 -0.044111535 0.20868611 0.21837209 -0.094161995 -0.030256959 0.1334455 -0.17180902 -0.064764276 -0.09354954 0.07605663 -0.23943722 -0.028122019 0.24861021 0.26462644 -0.12763023 0.38495886 0.040453777 0.27379358 -0.055262964 0.2530594 -0.34673932 -0.27831727 0.26460114 0.25547224 -0.17305878 0.01172405 0.021245202 0.052743975 0.15257442 -0.0065445183 -0.26246503 0.13817988 -0.19809586 -0.0039288597 0.008916486
以 -0.10390643 0.15218714 -0.15195698 0.22228229 0.04405161 0.018078119 -0.06047031 -0.18213788 0.3305556 0.16163073 0.17611979 -0.2385586 -0.12112809 -0.0069257026 0.0876141 -0.03064783 -0.0115836505 -0.07802938 0.11035894 -0.08177085 -0.13527516 -0.07884108 0.1129289 0.018849997 0.17588197 -0.010162046 0.25326157 -0.21541405 0.046442788 0.015165554 0.15997279 0.108387664 -0.48023656 0.0046216086 -0.13254817 -0.08885257 0.22099528 -0.03229691 -0.011537135 -0.0413837 0.104141414 0.045184232 -0.12085186 0.20199835 -0.008008306 -0.13514394 0.10836223 0.00010205712 -0.135336 -0.072630905 0.13984144 0.06412027 -0.046774775 -0.03035839 0.068605274 0.23715861 -0.06410398 -0.17381524 0.019362854 -0.012603525 -0.024480764 -0.031603463 -0.11750609 -0.0448119 -0.08688033 0.060176823 -0.05399014 0.00041604927 -0.03088477 -0.2051638 0.11974271 -0.10109806 0.24607773 0.17802404 0.25571454 -0.39124656 -0.14739405 -0.008422125 0.15543069 0.07745854 0.006953936 -0.011023433 -0.019287232 -0.048808265 0.036673892 0.023352701 -0.11303097 0.19340113 -0.042538732 -0.08766036 0.06898633 0.20659621 -0.09313121 -0.07653333 0.13320965 -0.008804884 0.0016379002 0.05854136 0.049908828 0.19721717
有 0.11647022 0.06393328 -0.15362833 0.16384798 -0.11978561 0.4638954 0.022414174 0.20858395 -0.27218622 -0.013016 0.11210454 -0.0062182886 -0.10681304 0.04068403 0.037993852 0.03935345 -0.04117035 0.13065916 -0.24912652 0.107311934 -0.18395291 -0.019150008 -0.15634614 0.015997034 -0.05192586 -0.2277612 -0.07688909 0.16207427 -0.14623953 0.07361936 -0.14956611 0.12749116 -0.56352323 -0.16594815 -0.27363002 0.031508274 0.016364383 -0.0074292677 0.1644753 -0.08083296 0.069086224 -0.036497593 0.1549736 0.1073207 -0.038217444 -0.31913844 -0.004871649 0.17300045 0.23312028 0.11310309 0.23597865 -0.065417945 -0.03990107 -0.089393295 -0.039196216 -0.11044136 0.0020209053 -0.13950847 -0.012644397 -0.16733536 -0.08141463 -0.108390056 -0.074923195 0.08248152 -0.16960028 -0.30005383 0.028664308 -0.06740816 0.02517144 -0.27167693 0.19431205 -0.1615467 0.31424144 0.23674992 0.11588106 -0.044151276 -0.33563378 0.30593702 0.11394713 -0.14572607 -0.1548342 0.27528983 -0.09754689 -0.0046718605 0.17311199 0.009930727 -0.03140514 0.1509034 0.062983476 -0.36532757 -0.035790294 -0.06625152 0.11075539 0.09352989 -0.021884734 0.06435568 0.11976519 -0.10796577 0.021311596 -0.06749296
于 0.076358005 -0.21693543 0.022830795 0.072949305 -0.2211022 0.14053935 0.119242676 0.08751835 0.17412773 -0.009625502 0.026707048 -0.14969204 -0.120278515 0.009320347 -0.1489812 0.12910737 0.056317523 0.20963639 0.028514704 0.22985622 -0.14205763 0.11907411 0.036889292 0.040181443 -0.059055194 -0.2932565 -0.048480734 -0.08260436 0.03389765 0.0771466 -0.08385481 0.22590865 -0.52335864 -0.12182114 0.007663618 -0.28950235 -0.06577737 0.19742963 0.019668639 -0.10933376 0.020324528 -0.0198941 0.04520935 -0.0017144682 0.045730315 0.109440714 -0.000104743754 0.27908203 0.1330249 0.033464316 -0.25593108 -0.084130265 -0.050480295 0.0044154082 0.016797915 -0.15410493 0.19635238 0.04298206 0.17492169 -0.012509233 0.12176042 0.041601084 0.056982663 0.06767066 -0.14868774 -0.123571485 -0.09378272 0.11775881 -0.14858215 -0.113969095 -0.09062468 0.09491703 0.07030404 -0.03745366 0.024924709 -0.05487279 -0.12855306 0.21227132 0.009557622 0.12039597 0.023859005 -0.021236507 0.031512085 -0.025704332 0.10013973 -0.023353655 -0.08144229 -0.08382206 -0.033734974 0.07761426 0.10044699 -0.0818768 -0.20282726 0.141293 -0.13494936 0.25860614 0.012194701 0.012000188 -0.06499881 0.060081605
矣 -0.101043254 -0.31016728 -0.091265745 -0.24274884 -0.3163594 0.007069067 -0.1248499 -0.08360799 0.20871377 0.007551007 0.08445497 -0.034078144 -0.009987955 -0.14211512 -0.012858314 0.25202084 0.059799705 -0.089172065 0.05985614 -0.116276786 0.11195144 -0.00803777 -0.046180405 0.046657242 -0.0210423 0.027809707 -0.11508093 0.052286062 -0.073363416 0.07135455 -0.034269013 -0.08826165 -0.5409422 -0.01665144 -0.12903398 0.049748722 -0.066147335 -0.0033515992 -0.026829842 -0.1936356 -0.10190278 -0.16110651 0.18508059 -0.30650723 -0.020445544 0.07552973 0.091459714 -0.026935373 -0.069681674 0.093225874 0.09396063 0.07900428 -0.34286824 0.27784055 -0.15698059 -0.03003191 -0.12805292 -0.037478555 -0.16149412 0.0024102326 0.31544068 -0.03448541 -0.0088716345 0.030243227 -0.22726792 0.10343675 0.043419655 0.028588854 0.04164933 0.013461627 -0.157178 0.08718046 -0.13892786 -0.07832864 0.112727605 -0.19166729 -0.059337154 0.12011324 0.18531051 -0.092738114 0.06247819 0.11273899 0.04287396 -0.1380181 0.073740266 -0.043954395 0.090382166 0.03686664 -0.034365643 -0.1277182 -0.06729424 0.18814434 -0.08688618 0.102510236 0.05303712 -0.044820096 0.1330565 0.122647986 -0.050518274 0.10981496
为 -0.08032061 -0.041021816 -0.13321646 -0.12673648 0.12528668 0.0374935 -0.005483361 0.26714 0.13888577 0.021040985 -0.12130165 0.049166515 0.16600114 0.18573676 0.13331783 -0.12534349 -0.006782982 -0.16496754 -0.08251991 -0.10619591 -0.061264366 0.08096999 0.15734583 -0.08334812 0.0012893912 -0.34080458 0.2118901 -0.13573991 -0.07117991 0.04374786 -0.03206345 0.12937441 -0.57045907 -0.08920986 -0.02694419 -0.13953859 0.039170858 0.021713 0.019430289 0.022854947 0.15770736 0.021207603 0.033822373 -0.14206666 -0.1884536 -0.009510537 0.05664181 0.11123191 0.10374468 0.16477257 -0.0659677 0.070921294 0.16820285 -0.05039336 0.202553 0.14374486 0.19152686 -0.028251592 0.2957073 0.2510014 0.11719862 0.089584514 0.080528475 0.030541899 -0.100360855 -0.07021218 -0.20700783 -0.020534124 -0.045283366 -0.17856063 -0.21479711 -0.091028474 0.084060095 0.031365067 0.0827477 -0.2264932 -0.06884238 -0.07385447 0.0871163 0.020822058 -0.064863995 0.025120554 -0.050531093 -0.19992486 -0.025576003 0.15868556 0.18211141 0.13268001 0.10550579 -0.08905266 -0.009594681 0.21246664 0.17549555 0.059608545 0.0053392113 -0.06920244 -0.096426554 0.13888898 -0.13844943 -0.023088135
君 0.021499433 0.059296623 0.037094332 0.049286395 -0.052364394 0.08361846 0.057248294 0.040292256 0.25919402 0.04166466 -0.05590803 -0.03104054 -0.19033289 -0.032066904 -0.03960992 0.14457436 0.15367503 0.15229456 0.034355797 0.07378081 0.16362728 0.04993362 -0.0105009945 0.12177651 0.052400086 -0.14841019 0.14106573 0.017721195 -0.0048790323 -0.07297704 -0.11753823 -0.027808638 -0.48872167 0.17382807 -0.06477857 0.012064284 -0.06487099 0.008706191 -0.12170208 0.21137865 -0.10108418 0.028939286 -0.05938226 -0.050837237 -0.13496342 0.036110356 -0.009148038 0.03194492 -0.30337384 0.022336604 -0.01761764 0.019100048 -0.014765561 0.24477592 -0.07518866 0.13430429 0.13442914 -0.0025931206 -0.13021536 0.046405114 0.35883614 0.015540895 -0.1201431 0.15529023 -0.055309642 0.058676254 -0.27261838 0.07176084 -0.07941626 -0.10112192 -0.2998907 -0.019878983 0.16610125 0.07149768 0.070746265 -0.42948562 0.06788875 -0.044619992 -0.02941094 0.00667795 0.030603217 -0.0073573394 0.04261247 -0.105372734 -0.072417565 0.31078017 0.15194637 0.08612874 -0.05519661 -0.09155344 0.2724223 0.016943216 0.018804446 -0.09221213 -0.10613823 0.17090133 -0.04353589 -0.019075537 -0.12760365 -0.0874191
乎 0.09462724 0.021937419 0.0025523892 -0.0412818 -0.23743019 0.12482993 0.07765725 -0.0008156309 0.18904008 0.13774087 0.056816388 -0.024174467 -0.047194593 -0.12615165 -0.30537233 -0.13444579 -0.14619197 0.1429717 -0.03732611 0.06511629 -0.15054989 -0.110908285 -0.023614444 0.05908145 0.05343038 0.06847682 0.06630171 -0.068628445 0.10606777 0.062850796 -0.190704 0.16681704 -0.61349255 -0.0010680745 0.026736815 0.11748012 0.0270609 -0.033100754 -0.045380656 0.11963116 -0.006718145 -0.061261874 0.18880175 -0.10673175 -0.052434295 0.33247092 0.11724344 -0.0010488853 -0.08412223 0.062139258 -0.04057711 -0.13157907 0.10300187 0.11215682 0.17984661 0.4011913 -0.026092293 0.03204259 0.1419067 -0.023739578 0.18305786 -0.0025366861 0.08544631 0.10226682 -0.088227615 -0.054233637 0.031876758 0.16831894 -0.09420876 0.034136146 -0.03713184 0.05822818 0.005438171 -0.15593292 0.0028507058 -0.22424777 -0.11938708 0.2727949 0.14937744 0.10051526 -0.11201537 -0.02049808 0.2082488 -0.16827704 -0.18679722 -0.15906912 -0.0030803727 -0.02702426 0.055982865 0.028822709 -0.02670872 -0.20593609 0.16374427 0.011164435 -0.06593731 0.031341143 -0.12555377 0.042527094 -0.026058797 0.001138852
可 -0.088527195 0.006722983 0.061856348 0.3605858 -0.17809536 0.11402548 -0.19023512 -0.19522433 0.21998069 -0.052551713 0.0020275228 0.052541982 0.20227596 -0.017491149 -0.01766789 0.06180534 0.12118399 -0.019670969 -0.09370759 0.20466463 -0.14873384 0.16149905 -0.009626306 -0.16894785 0.10940105 0.025098158 0.068669915 -0.08046824 -0.10095149 -0.17139746 -0.07686868 0.058196373 -0.4602483 -0.24289216 -0.0559086 0.037540104 -0.20303914 -0.27505884 0.07860063 -0.032458466 0.33149433 0.25578094 0.14847785 0.067267835 -0.18723461 -0.16438358 -0.12956902 0.11019775 -0.19344747 -0.12843114 0.16905698 -0.059069213 -0.19052935 0.1360864 -0.060453407 0.07263913 -0.20878583 -0.06657003 0.062492397 -0.106887795 -0.1765169 0.027711742 0.11936553 -0.1399047 -0.057207335 0.20690614 0.03639304 0.019578151 -0.081933096 -0.06548465 0.08224237 -0.05628703 0.021765051 -0.048985127 0.15223664 -0.08058951 -0.0856014 0.02597943 -0.10686603 -0.04829386 -0.037591793 0.040188726 0.032507878 0.053123455 -0.038751386 0.14515878 0.028172191 0.117862895 -0.057443127 -0.016557587 -0.07329199 -0.0067122565 0.12512757 -0.059649788 -0.024800994 -0.0034480654 0.023472061 -0.087321006 0.13530138 0.016278278
如 0.02896281 0.0052029286 -0.10408277 -0.015234468 -0.2970908 0.004453851 -0.03034501 -0.010991098 0.0027175304 -0.024087653 -0.22415398 -0.098827295 0.14270727 0.017654985 -0.13084337 0.16165489 0.025311481 -0.3959318 -0.11603451 0.1924908 -0.09207445 0.015390153 0.038724296 0.15801151 0.1241628 0.30094418 -0.036981247 -0.14093988 -0.003833368 -0.056282915 0.14075856 -0.108847596 -0.50077754 -0.022207588 0.0046503935 0.05499606 0.13415383 0.027634874 -0.03713309 -0.022833286 -0.016791744 0.25357756 0.16188952 -0.01784761 -0.012216472 0.01784846 0.17301032 0.07569179 0.04264661 0.17059545 -0.013087083 -0.04336518 -0.013157673 0.23460516 -0.031899534 0.01595377 -0.0830155 -0.0952119 -0.23353542 -0.0672628 0.24250561 0.16671886 -0.060840484 -0.27692595 0.09663505 -0.008117946 0.24995758 0.090465225 -0.018095488 0.022836475 0.028352577 -0.037383497 0.14243993 -0.13971867 0.07388928 0.10615511 -0.29754823 0.0043160673 0.19338831 -0.21548961 -0.0898643 0.026128082 0.0017871384 0.18387865 -0.02634157 0.0067924466 -0.10735477 0.15232086 0.059855044 -0.009795287 -0.061372288 -0.07507374 0.039293434 0.13646321 -0.012454737 -0.24218018 0.07633704 0.049423188 0.14847267 0.15372501
与 0.053773317 -0.004704529 -0.026580973 -0.33683515 -0.076899804 0.07873015 -0.1971414 0.07008204 -0.065732814 0.046056606 -0.02764615 -0.04860123 -0.072129056 0.17321351 -0.08607345 0.024971398 0.05032242 -0.0816068 0.0728706 0.2494005 -0.050419763 -0.08134291 -0.10634996 0.2052808 0.08981345 0.1634616 -0.016881451 0.06300919 -0.01316296 -0.08691758 -0.0188825 -0.16282831 -0.4265509 -0.06887105 -0.03857896 0.13199128 0.021427846 0.036005355 0.17695665 -0.069540046 -0.005111403 -0.018277768 0.1340788 0.069914706 0.11952294 0.28916362 0.17566296 -0.029750068 0.09668032 -0.019147005 -0.041957892 -0.018473005 0.19220112 -0.012288669 0.025351716 0.02070431 -0.10217935 -0.04382642 0.044542827 0.09811132 -0.26913965 -0.020183247 0.16480581 -0.073513545 -0.12016744 0.08709316 0.048585773 0.033916473 -0.015791366 0.026990676 0.076986946 -0.104486704 -0.10325994 0.14544718 0.060049925 -0.10367796 -0.15960133 -0.14389439 -0.09033538 -0.080837496 0.099558026 0.13149057 -0.041932143 0.025617944 -0.2461673 -0.123467594 -0.0075861476 0.15320285 0.01881669 0.033420634 -0.09995893 -0.057623193 -0.037839174 0.08409801 -0.1254777 -0.08135643 0.029516304 0.10150473 0.10364419 0.020300739
； -0.20732328 -0.15464762 -0.041731015 0.21496435 0.1996306 0.069313414 0.08505683 -0.13510603 -0.17500505 -0.23494405 -0.16661337 0.068503745 -0.16632853 0.07813111 -0.044048063 0.08719129 -0.13495429 0.035897117 -0.065872274 0.25348565 -0.058541186 -0.17121956 0.17626247 -0.035934985 0.018559095 0.15872805 -0.034299932 0.18473782 -0.017483488 -0.078413606 0.07202271 0.14647257 -0.34367836 -0.15446393 -0.025332298 -0.00090226624 0.120723285 -0.04100847 0.10315013 -0.11209428 0.0025020635 0.006999616 -0.13375045 -0.054180987 -0.020485401 -0.0032524066 -0.037906792 -0.096778154 -0.0780486 -0.45230168 0.01793556 0.38405475 -0.2143148 0.06733135 0.22793199 0.2691584 0.03042547 -0.18797795 0.2152451 -0.09852202 0.06397421 -0.38576326 -0.19017969 0.05109513 -0.06006077 -0.12058707 -0.14044417 -0.045244787 0.008987084 0.15429136 0.004214915 -0.07987098 0.224018 0.062280044 0.18907964 -0.34552667 -0.26327398 0.11841426 0.17000014 -0.01732926 -0.09433312 -0.13139047 0.047849037 -0.19527492 0.088013224 -0.11798522 0.010074214 0.4196132 -0.19925947 -0.16060588 0.094456986 0.012514629 -0.04256603 -0.030148009 0.03588915 -0.07321341 0.037824214 0.17681119 0.075719886 0.15071186
言 -0.12658273 -0.07970787 -0.15022027 -0.021045772 -0.07888391 0.16013983 -0.17706466 0.100839995 -0.04576342 0.0310304 0.11043851 0.0098063005 -0.10734065 -0.0504001 -0.052539762 -0.16214597 -0.0010834886 -0.15019286 0.16041917 -0.12759233 -0.06051252 -0.07672474 0.3067644 0.23882438 -0.1701033 -0.09329672 0.015291768 0.052060552 0.3663423 0.017145848 -0.011397571 0.020545602 -0.446599 0.17083097 -0.11216105 -0.043926567 0.22452657 0.12659238 -0.013697836 -0.26992282 0.009082206 0.07618945 -0.13426267 -0.120856375 0.2761268 0.037395686 0.15011841 0.017239172 -0.04137839 -0.11099283 -0.08926473 0.019397492 -0.11195194 0.031138843 0.23157014 0.0028589945 0.15099743 -0.00054241996 0.13832995 0.0032158003 -0.055775028 -0.08030116 0.044269085 -0.05429389 0.03768675 -0.071627155 0.08561841 -0.09708347 -0.1335952 -0.027077295 -0.17549124 -0.3442235 0.04347565 0.09502635 0.3269019 0.009325877 0.14596486 -0.063051924 -0.18330082 -0.054352127 -0.015099484 0.064238854 0.039880335 0.1135005 0.06314019 0.06198869 0.006636046 0.28817824 -0.08368415 0.025933549 -0.009636558 0.24579248 -0.0049703717 -0.038997848 -0.06110264 0.106032655 0.0055605834 0.035525873 -0.12912805 -0.1188476
无 -0.3243613 -0.16934548 0.12016254 0.1278446 0.072369054 -0.0048334813 0.046326615 0.05607642 -0.12257097 -0.16241078 -0.011361113 -0.1070689 -0.0074303485 0.0885393 -0.20788343 0.026903627 0.062337853 -0.1589781 -0.068901256 0.20048557 -0.057715107 -0.25844187 -0.015240539 0.17029274 0.060501393 0.027672138 -0.035037044 -0.0973422 0.17648998 -0.0132368 -0.024962967 -0.042128522 -0.37476715 -0.013190124 0.18053554 -0.19943018 0.08661447 -0.105081 -0.11360867 -0.24666575 0.02318941 0.12548515 -0.06576087 -0.032347783 -0.04082307 -0.12399608 0.13004825 0.06598763 -0.093069196 -0.13656363 -0.27735797 0.21399698 -0.062136095 0.0070617176 0.26494187 0.21029553 -0.070857346 -0.048607163 0.008913095 0.15115483 0.17106757 -0.01241911 -0.00018519256 -0.10856268 -0.13852918 -0.19501881 -0.14021972 0.052740145 -0.039013088 0.03111638 -0.045551673 0.0005357738 0.1997718 0.14250456 -0.04701089 -0.3958247 -0.1912018 0.3902206 -0.038631793 -0.102495745 -0.057745248 0.3748844 -0.08976825 -0.06908821 0.10199429 0.084766634 -0.023464244 0.45020217 0.043953836 -0.30351275 -0.018069852 0.03388858 0.09967765 -0.0347731 0.09629207 0.07376916 0.10438123 -0.07434921 -0.16601193 -0.03187524
则 0.16572893 0.0821326 -0.19806452 -0.2081164 -0.16916735 -0.014928339 -0.15923686 0.19933242 0.08124907 -0.14900187 0.045983296 0.07922037 -0.1154595 -0.1250522 -0.14369275 -0.08008318 0.16272017 -0.09196097 0.09190827 -0.077709064 -0.09628719 0.017308101 -0.1832938 0.1913909 -0.048780132 -0.03429973 -0.1120134 0.018579775 -0.012239942 0.06739518 -0.048868727 0.1357165 -0.42331365 -0.17257637 0.21732548 0.06397964 -0.038874835 0.13007778 0.14901026 -0.017678557 0.058862448 -0.07848328 0.34461376 0.11938778 -0.2598317 -0.06807207 0.32874972 -0.061199494 0.05899804 0.32514098 0.0071041053 0.23063344 0.09045716 0.09222698 -0.2961665 0.012793397 0.10791515 0.087142095 -0.25136086 0.050037485 0.16882004 -0.20503137 0.07463078 -0.020288024 -0.27901745 -0.030118983 -0.058894567 -0.1365185 0.26251447 0.03200997 -0.20554684 -0.10959075 -0.12788343 -0.39378768 -0.03128474 0.17511033 -0.06612205 -0.13491137 0.023844212 -0.1322225 -0.13066052 0.3150953 0.19825423 -0.11231736 -0.09501576 -0.02780065 0.08084947 0.36977398 0.020321561 -0.07392804 -0.08135553 0.012006838 0.1135538 -0.011074537 0.035445668 -0.23099768 -0.102013856 0.11826715 -0.2220157 0.19028182
！ 0.19130982 -0.0007262862 0.04358431 -0.12075787 -0.019158501 0.16912547 -0.010695402 -0.010970792 0.07144538 -0.15099467 0.04609304 -0.089654595 0.0068682972 -0.2643068 -0.11967456 0.036849443 -0.058166012 0.043159503 -0.22115374 0.08794035 -0.021105675 0.05770079 -0.091751166 0.062488735 -0.12202703 -0.030096108 0.07338786 -0.09084131 -0.065021604 0.12289826 0.08158321 0.012331355 -0.53185403 -0.009556092 0.040261723 0.08809716 -0.14040117 -0.027182156 0.13949937 -0.15314263 0.06250123 -0.13238469 -0.001075285 0.029782517 0.25344768 -0.00494748 0.07982428 0.075453356 0.053163152 0.13903266 -0.13160309 -0.029648256 -0.020394314 0.13207117 0.14367245 0.21989952 0.02408719 0.09417713 0.0082049295 -0.15657441 0.016268332 0.041132294 0.09031073 0.09557928 -0.089128494 0.0116949985 0.01018796 0.06913343 -0.045611225 0.0809636 -0.0078323 -0.07032685 -0.05254193 0.012226954 0.1552446 0.13046935 -0.11475806 0.11778624 0.10976915 -0.124587946 0.080198444 -0.10121383 0.07907826 -0.018306231 -0.103879474 -0.079484485 -0.01099112 -0.1686858 0.023809548 0.028141452 0.06941166 -0.016056126 -0.14127877 0.062491152 0.03427938 0.049455684 0.045634132 0.18503605 0.08577814 0.1321909
问 0.028693758 0.17394458 0.060539667 -0.0045148423 0.09692615 0.04721345 -0.064399615 0.056101423 -0.1285487 -0.046505272 -0.0309386 0.17658998 -0.057587385 -0.05842381 0.089563906 -0.19337791 -0.123919904 0.052773982 0.099741 -0.0015114308 -0.10570593 0.14332898 0.12137572 0.27615395 -0.20481901 -0.2582836 0.2155432 -0.0048581287 0.26470876 0.023275454 0.14033112 -0.030891027 -0.68566525 0.050419975 -0.18154816 -0.025238069 0.08619045 0.36948776 0.11783796 0.07740801 0.00071010133 -0.020639338 0.04621996 -0.2735881 0.12968552 -0.058943897 0.03698846 -0.23354346 0.059382327 0.022172693 0.11164633 0.2558988 -0.050182335 -0.03823811 0.09353887 -0.081788346 -0.08331616 -0.016573522 0.28118005 0.12204683 -0.00073683425 -0.2891125 0.18586281 0.07998593 0.05069612 -0.19385293 0.038828056 -0.1560905 -0.06451854 0.019796565 -0.051470414 0.079482526 0.08774305 -0.053216774 0.003976982 0.36078826 -0.061726104 0.043520164 -0.12680465 0.1833484 0.1152073 -0.085297 -0.067764804 -0.14002839 -0.06528997 0.049836382 0.01978911 -0.16754863 0.076501966 -0.03513478 -0.100912176 0.09063861 -0.19210988 -0.014919253 0.08734167 0.09074852 0.24141075 0.17088693 -0.09070836 -0.0890964
知 -0.013662401 -0.110455304 0.047037434 -0.16267867 0.05576487 -0.16125257 0.11841067 -0.19222601 0.21807976 -0.07558361 0.13616915 -0.07264652 -0.13905343 -0.045524158 -0.16138001 -0.10909781 0.051087238 -0.08128497 0.019496754 0.04907358 -0.08430679 0.0077047264 0.13940549 0.19388722 -0.101179205 0.14249381 0.05167887 0.08076557 0.23826319 0.18299833 -0.009713002 0.17279617 -0.48588827 -0.025121817 0.050997302 0.023085227 0.16863061 0.029543338 0.0017905291 0.052095287 -0.011920571 0.21814427 -0.14854297 -0.15806301 0.030931879 -0.12250634 0.18085764 -0.096014574 0.1556371 -0.014409055 -0.2780069 -0.11036415 -0.043936525 0.0773877 0.14163685 -0.0037424369 -0.010228859 -0.076544955 -0.0379789 -0.027325219 0.055804543 -0.029171377 0.056986302 0.028222363 0.048768915 -0.09516065 -0.05125093 -0.05225021 -0.118933685 -0.0024400814 -0.19584039 -0.028096667 0.17705053 0.15079972 0.010991865 -0.16277039 0.28886473 -0.19907148 0.11765237 0.08993144 -0.11196666 -0.08751741 -0.24536899 -0.18437497 0.13856922 0.11701683 0.11765491 0.3080621 -0.15171596 -0.08541721 0.06626924 0.22772615 0.0028339638 -0.09642235 0.025285043 0.041813035 0.08828166 -0.017568823 -0.16193388 0.009023478
何 0.016859284 0.141063 -0.080345474 0.023584168 -0.028154999 -0.025276903 0.1835397 -0.00046745662 -0.004072033 -0.0037055016 -0.0142541975 -0.03130814 -0.05094063 -0.055026192 0.031385273 0.013144772 -0.04788746 -0.03719448 0.09318614 0.034172125 -0.14807756 -0.2719142 0.0014222697 -0.020137414 0.17285345 0.022002384 -0.016797919 -0.058381844 0.124540344 0.21874715 0.049983762 -0.10190313 -0.6178304 -0.041828398 -0.12877966 -0.08999324 0.15040796 -0.1540514 -0.1397004 0.020503428 0.029042508 0.089379564 0.05216757 -0.024999365 0.089531116 -0.045355063 0.14769436 0.21692555 -0.06720463 -0.086816534 0.011624992 -0.00038819888 -0.20065363 0.025007928 0.18950674 0.22594054 -0.03145963 -0.043416433 0.08183538 0.1410688 0.19421579 0.07501043 0.033737212 -0.0062699122 -0.16427451 0.21924175 0.054333445 0.17586824 0.030889036 -0.04507912 -0.09210817 0.04910271 0.0076394156 -0.16482528 -0.022681426 0.11556655 -0.025342656 0.13074939 0.05795322 -0.07300101 0.0014700508 0.011015849 0.110641174 -0.13525684 0.024043115 -0.07947749 0.070053756 -0.058248173 0.06502591 0.061159007 -0.12392943 -0.15461628 0.00733943 0.14246169 -0.15443923 -0.22828598 0.08409551 -0.09339124 0.13377306 -0.017331406
吾 -0.05703021 0.007090909 0.04857508 -0.015951218 0.045441158 0.012670908 0.0023419743 -0.24473663 -0.25759482 -0.05445569 -0.14297321 -0.060827613 -0.14227901 -0.15986583 -0.18415745 0.06516123 -0.023530757 0.029874833 -0.18910915 0.010826506 -0.096602894 -0.02353222 -0.08323125 0.13524504 0.021791156 -0.14407142 0.14836988 0.14522272 0.30951962 0.12635851 -0.08416234 0.03816908 -0.55505913 -0.043495473 0.17380443 0.027030718 -0.15042202 -0.13816309 -0.04112874 0.021023205 -0.09246161 -0.07111053 -0.1982449 0.020650268 -0.012550162 0.15342961 0.05520022 0.038536094 -0.029651057 -0.086640626 -0.13567117 -0.1569258 -0.03328858 0.014762708 -0.13290909 -0.27902237 0.06529493 -0.00788251 -0.0041187005 0.0498991 -7.831771e-05 0.09325988 0.11861798 0.0767647 0.19199133 0.12138788 0.070799634 -0.108485475 -0.11746155 0.08540992 -0.025679208 0.18748151 0.11266825 0.032318056 0.13012274 0.069252566 0.007858545 0.014664738 0.069854915 0.12641536 0.046053007 0.15399097 -0.13090934 0.0039739246 -0.27649364 -0.038562045 -0.063732564 0.03723802 -0.24141505 0.3608149 -0.0844858 0.31970015 -0.2267337 0.13765694 4.721136e-05 -0.2934684 -0.105398186 -0.14599971 0.06046466 -0.1004151
仁 0.06421116 0.112205215 -0.23850214 0.030347437 0.013173214 0.015545972 0.025446989 0.0708276 0.20343365 -0.0034213956 -0.049906474 -0.08826716 0.009186443 -0.011376678 -0.097425036 -0.09996274 0.0792047 -0.0861869 0.0090588275 0.07486196 -0.041087944 -0.003737362 0.041639604 0.08336901 -0.12219144 0.03245585 0.19229652 0.08259708 -0.06696292 0.047032636 -0.039873034 -0.112634316 -0.4863759 -0.032881625 0.15736532 0.1233011 -0.008316649 -0.09009053 0.09888905 -0.025078427 0.15298074 0.01761271 -0.0043018116 -0.09190548 0.01501814 -0.046811134 -0.18800074 0.03684499 0.22154999 -0.063040696 0.0050644334 -0.09095111 0.017212067 0.022959478 -0.085508145 -0.018814603 -0.1457012 -0.22681966 0.1093995 0.14112903 0.09428374 0.028797349 -0.036026105 0.078506 0.081570305 -0.051866017 -0.1451769 0.120946154 -0.12016759 -0.015375911 0.15775965 -0.028290179 0.25143248 0.013292207 -0.01607533 -0.04507208 -0.056945402 -0.07330808 -0.061871137 -0.10304729 0.10272411 -0.011702638 -0.035008732 0.064871125 0.025802525 0.10111219 0.16208251 0.13669011 0.14036435 -0.0067662382 0.061751366 0.15737636 -0.15187073 0.0020531837 -0.10151353 0.025181215 0.086545266 0.3646802 -0.10626048 -0.05742652
夫 -0.08904357 0.06763419 0.09194358 -0.07394818 -0.13096046 0.0710521 0.17498615 0.07370959 0.027700292 0.06960689 0.05172911 0.027302153 -0.12079633 -0.17341131 -0.1396642 0.00086852396 0.13691442 -0.12189575 0.07459573 -0.0837854 -0.00917832 0.13679428 -0.13253076 0.108065575 -0.026791126 -0.10196355 -0.17016304 0.046941083 -0.21300836 -0.050340608 -0.06213432 -0.02584731 -0.5432216 -0.23375718 -0.0057864855 -0.062213276 -0.020910759 0.07968996 -0.023208547 0.07928818 0.016200084 -0.09961957 -0.13905099 0.10156944 0.16277184 0.06333432 0.06088338 -0.05073155 -0.21115407 0.014072136 -0.25467893 -0.20683971 -0.10132847 -0.02031297 0.15722445 -0.056438606 -0.009527324 -0.009565656 0.1427524 -0.17523517 -0.092294715 -0.040672135 0.114590935 -0.013830239 0.11102945 0.028273936 0.054387167 0.30659038 -0.027637586 -0.08896507 0.13806064 0.2627531 0.041255735 -0.11793479 -0.088218525 0.033196423 -0.17440471 0.063759334 0.09362658 -0.04242681 0.06190014 -0.21854232 0.08057945 0.17479205 0.05821083 -0.22005664 -0.074743144 0.009888594 -0.10932406 0.10747238 0.16805856 -0.025878286 -0.080998346 0.22525279 -0.12085764 0.024971519 0.1934178 -0.11204937 0.111814685 -0.11179248
、 -0.12395651 0.016986202 -0.12296829 -0.13962322 0.1260587 -0.19965692 -0.020701393 0.21837775 -0.13150506 -0.21996774 0.23930524 0.044231564 -0.1613493 -0.13122432 0.1409242 0.20842348 0.05945443 0.08139018 0.12760806 0.3446818 -0.06984711 0.07177842 -0.32298556 0.09183044 -0.13850164 -0.057296567 0.09321227 -0.062800184 -0.36580753 0.07348919 0.02540355 0.5180107 -0.5585688 0.1124276 0.22780584 0.16178524 0.028177079 -0.05089235 0.1389258 0.09005981 0.12445487 0.043147866 0.06269205 0.33484262 0.19727921 0.086170115 0.092411794 0.21179782 0.14742118 0.042154856 -0.29681137 -0.13564289 -0.3000695 -0.066424675 -0.032398865 -0.3042902 -0.12190521 -0.102644056 -0.08747758 -0.22239512 -0.051959317 -0.10365193 -0.035977487 0.057643536 0.010979552 -0.33558849 -0.16215757 -0.077743515 0.2453562 -0.13464554 -0.1434173 -0.09056778 -0.06227933 -0.2806123 0.25136554 0.20673615 0.03570728 0.009566045 0.23685834 -0.08286959 0.032371268 -0.17798738 0.04150556 -0.017959258 -0.13423926 -0.13345441 0.16527022 -0.041884787 -0.31555888 0.018277606 0.015675828 -0.053115703 -0.041454323 -0.04322237 -0.05968925 0.15821606 -0.20699823 -0.0600096 0.19468006 -0.069215305
道 0.1498843 -0.012964788 0.053672403 0.0034976425 -0.20236607 0.074988015 -0.19290613 0.06193066 -0.03912389 0.015681371 0.21369444 -0.119471945 0.09602423 -0.11669859 -0.016705276 0.17048 0.018461885 0.16146599 -0.007702521 -0.057794448 0.0850353 0.03202367 -0.066300996 0.12961997 0.044876788 0.09245978 -0.024626747 0.25099096 0.034172192 0.13061197 -0.08816262 -0.083835766 -0.36467433 0.038545158 -0.055591695 -0.054556947 -0.17492579 -0.15754 0.16647653 0.02956834 0.11236791 0.11035713 0.038170006 0.095051624 -0.105112106 -0.00014967658 -0.050820105 -0.14643697 -0.014597835 0.096512124 0.038383603 0.06655459 -0.07341382 0.047624644 0.14107451 0.101039015 0.1287745 0.061624527 0.020666664 0.011949347 0.32574096 -0.18904689 0.12898375 0.07917232 -0.022443172 -0.027676048 0.08168469 0.063009836 0.22331285 0.04988858 -0.30637088 0.025883118 0.052716352 0.118823245 -0.05205709 -0.040029418 -0.18270482 0.14201239 0.13854392 -0.028317086 0.09288076 -0.01592702 0.14716451 0.0757726 0.01596276 0.10088669 0.124605194 0.27984864 -0.08184093 0.12324917 -0.11576591 0.07320262 -0.20423472 0.015635733 -0.022313748 -0.06819362 0.029607601 -0.16289765 -0.089000374 -0.006460764
焉 0.05784417 0.165707 -0.033236872 0.15234062 -0.10554528 0.17323321 0.0020099967 -0.01002919 0.18526213 -0.061223626 -0.060162112 -0.08658067 0.1082837 -0.035020925 0.04228306 0.058593925 0.09327559 0.22855507 -0.10235822 0.08105457 -0.073250644 -0.0396665 -0.19962205 -0.0038586222 0.08299805 0.22292484 -0.08128407 -0.008492277 -0.09047717 0.037305627 0.03152765 -0.03696745 -0.43513918 -0.03569687 -0.064753875 0.06794514 -0.06685316 0.05378688 0.021721866 0.11472609 0.15619355 0.16326717 0.00573304 0.07348807 -0.10336315 0.04890026 0.095122635 0.090581425 -0.14196521 -0.06843685 0.011806869 -0.0011298845 -0.1923512 -0.045340598 0.059647948 -0.23621888 0.25474873 0.04730356 -0.07713393 -0.1327609 0.112176284 -0.1478162 -0.17717859 0.12736866 -0.19890302 -0.08619182 -0.087529905 0.12528819 0.047080543 -0.11481401 -0.016962612 -0.18641791 0.1621362 0.18183401 -0.047723535 0.07698578 -0.03077315 -0.020871598 0.17557742 -0.13764636 -0.040746197 0.09671507 -0.03924971 -0.17427799 -0.057286557 0.0049660727 0.06066967 0.1742833 0.08768025 -0.10238038 0.155068 0.15530273 -0.025359282 -0.0717925 -0.13077863 0.11454208 0.0047927187 0.17038555 -0.19554916 0.041039433
行 -0.04380234 -0.17136452 0.0044731717 0.02762769 0.004176665 0.1181797 -0.21954364 0.0014897976 0.19140555 -0.013748263 0.12063802 0.04986763 0.15904664 0.049296573 -0.14349806 -0.06869306 -0.25566402 -0.016718358 0.039806664 0.099230595 -0.20739958 -0.12650873 0.20806159 0.06306867 -0.15648247 0.038836222 0.053766698 -0.08783533 0.079821855 0.04391303 0.13765986 -0.10509912 -0.3654477 -0.06477719 0.016463626 0.02796276 -0.14030498 -0.050356608 0.014450486 -0.17332251 -0.112103336 0.14446764 0.04485286 -0.018818531 0.23005646 0.11527344 0.08499255 -0.08042229 -0.01752583 0.15706044 0.07800521 -0.10098249 0.042788826 -0.19964235 0.12291541 -0.11313689 -0.10131988 0.24068576 -0.00093898864 -0.06824738 0.1281128 -0.12633416 -0.009146517 -0.102177635 0.088938616 0.12873237 0.042476874 -0.16848394 0.11286129 -0.13669431 0.13916633 -0.22538406 -0.08429496 0.03391852 -0.13099988 -0.010590317 0.05742491 -0.13816406 0.05602777 0.020448491 0.03780013 0.10675506 0.05937412 -0.07901095 0.07346629 0.10442947 -0.11125452 0.30686963 -0.018825091 0.10645409 -0.0129488055 0.26974913 -0.26140872 0.07846829 0.006265793 -0.1290548 0.013307242 -0.080368705 -0.065797254 -0.1040556
谓 -0.19434673 0.14366658 0.014427746 0.26600376 0.014584023 0.04381845 0.13984267 -0.15765196 0.17925508 0.008794036 -0.2269146 0.1335201 -0.2632555 -0.13153872 -0.18445396 0.10244712 0.019421522 0.26763543 -0.12321525 -0.010122162 0.1406834 0.17574944 0.061879337 -0.059633605 0.035713807 0.13736105 0.020209774 0.1458219 0.10105421 -0.21404627 -0.11873573 0.11552395 -0.48012838 -0.055901248 0.02109864 -0.0061727487 0.108741395 -0.16606592 -0.15313937 -0.070007436 0.012679051 -0.008934577 -0.16647907 0.0773439 -0.013480775 0.1392744 -0.16065826 -0.018917276 0.30922216 -0.15887153 0.18523929 0.036914364 -0.14849614 0.11562396 -0.0051738536 -0.007770794 0.120459676 -0.0030419677 0.023025895 -0.09388504 0.1522496 -0.20489755 -0.018176634 0.13993952 -0.019480318 0.08779582 -0.035014838 -0.03155286 0.03710536 0.14702275 0.16493846 -0.1541042 0.21437089 0.28698623 -0.0013723746 0.1692953 -0.21946448 -0.22519077 -0.0016659172 -0.08532339 -0.05308683 0.22416332 -0.067582235 -0.0033451654 -0.11524852 0.036224905 0.29090586 0.05832105 -0.2547927 -0.17692879 0.045851033 0.1269138 0.0679664 -0.17175427 -0.15027866 -0.14766607 0.21830486 0.14487799 0.0028798145 0.10080691
必 -0.041843798 -0.07195078 -0.047859833 0.08331999 0.26622674 -0.058658943 0.22035846 0.055486433 -0.1441955 0.044734966 -0.22379 -0.0026921171 -0.119602025 0.0921937 0.02164006 0.02875116 0.060693998 0.14959836 -0.023011807 0.1398718 0.16531384 -0.0037708525 -0.17412604 0.033858802 0.029630097 -0.121057376 -0.10058239 0.004732918 -0.122681886 -0.05909359 0.041967247 -0.00439927 -0.40208134 0.05898049 0.087358736 -0.030290242 -0.18977536 0.05524042 0.121247225 0.039148092 0.22257794 -0.096214965 -0.16271803 0.11244176 0.018695163 -0.08271453 -0.1382311 0.02902717 -0.027036835 -0.03696314 0.10330391 -0.12167014 -0.118872404 0.21553132 -0.19223976 -0.043060407 0.061755206 -0.01934451 -0.05602821 -0.046414055 0.046220854 -0.19119868 0.08766129 -0.16508321 -0.08702588 0.14763649 0.07274552 0.12894137 0.20720641 -0.15793279 -0.14954378 -0.08900218 -0.21923923 0.05152012 0.0743974 -0.14704253 0.032927934 0.023126032 -0.043907665 -0.19334751 -0.2792038 -0.20865989 0.0064815935 0.39599505 0.0135960085 0.0165614 -0.09692594 0.26213804 -0.011856955 0.24102642 -0.081063926 -0.1058224 -0.01706245 0.111591056 -0.0015651024 0.10645976 -0.13937412 -0.13221371 0.0067831986 0.024037605
礼 0.20848973 0.086075775 -0.2820067 0.10078828 0.15987675 -0.08763634 -0.034128215 0.050048377 -0.097587466 -0.058578636 0.14667392 -0.0012429929 -0.0013839044 -0.04732167 -0.3451844 -0.065422505 -0.13201605 0.10406305 -0.056198213 0.09960706 0.11522036 -0.20731345 0.07453499 -0.05511803 0.21851416 -0.038399152 -0.072184905 0.12851743 -0.0636076 0.08994791 0.35941303 0.13031568 -0.32727873 -0.26481 0.36488998 -0.082781635 -0.06386348 0.071409434 -0.06908758 0.027721962 0.04426094 -0.16553946 0.106281094 0.1655986 -0.13538179 -0.011431681 -0.02649349 -0.1801299 -0.0077225044 -0.2067394 0.0585892 0.019979652 0.015199988 0.053559355 0.0733528 -0.082569085 0.20842905 -0.05290843 -0.012542171 -0.101683795 0.068722755 -0.15214394 0.2012357 0.00079686986 -0.15757768 0.014978281 0.13751315 -0.23462245 -0.023992889 -0.07797444 -0.09423433 0.06662366 -0.011693055 0.22651753 0.017056705 -0.07323131 0.005723076 -0.05134892 0.16262397 -0.22053267 0.08149947 -0.03712268 0.28641388 0.062489834 -0.007886611 -0.021262031 -0.18309551 0.30958086 0.05983782 0.030511599 -0.10693096 -0.30665085 -0.10417105 -0.24017271 0.23281752 0.0023308108 0.034426507 -0.09033349 0.029318677 0.048583485
孔 0.053729054 -0.14251904 0.2528474 0.11899339 -0.07580444 0.06664739 0.012885828 -0.07502201 -0.012212977 0.031377412 -0.058470547 0.037824154 -0.03235964 -0.06471073 0.045314755 0.023446878 -0.062420435 0.21829508 -0.032363404 -0.011097813 -0.013963505 0.14882787 0.2650563 0.13574064 -0.09265275 0.06684618 -0.0086786095 -0.06818726 -0.06846153 -0.014598854 0.058209535 0.008359899 -0.6255814 0.13512023 -0.037137527 0.22566675 -0.13564162 0.16283876 0.020798652 0.106321424 -0.11565614 0.015110299 -0.076974496 -0.039995573 -0.011914017 -0.09315362 0.08809244 -0.1061807 -0.009432077 -0.05915944 -0.008366125 -0.013032273 -0.020097567 0.0167055 0.17041433 -0.19695598 -0.2221125 0.09674845 0.10415822 -0.038765334 0.09308346 -0.13185105 -0.11227598 -0.00019750977 -0.003330458 -0.13925894 -0.121626765 -0.19418359 -0.1642218 -0.004043013 -0.0063803038 0.15445802 0.05740025 -0.136854 -0.06537979 0.14390078 0.19935977 0.00065161474 -0.12534747 0.11590089 0.07597169 0.17305847 -0.06281015 -0.08564938 -0.057257716 0.28443906 -0.12043762 -0.11666783 -0.11244393 -0.0055645327 -0.21773382 0.052468285 -0.112674326 -0.052553546 -0.017689373 -0.052012514 -0.00550095 -0.092985936 0.03465758 -0.15269364
斯 -0.11739068 -0.115151286 -0.1379523 0.16048232 -0.24584249 0.2944966 -0.05008461 -0.17292811 0.16956912 0.26203677 0.023725 0.2116506 0.073161095 0.11311159 0.07834832 -0.22960371 -0.07244368 -0.0047905627 0.057921432 -0.1265257 0.17793684 -0.036616597 0.16583595 -0.1412462 -0.062254474 0.052597497 0.114297524 0.022051722 0.09986095 -0.21774639 0.080465406 -0.11933775 -0.47198907 -0.03205753 -0.270953 0.16806188 0.09579673 -0.2672847 -0.040137447 -0.05301018 0.18147372 -0.09188926 -0.07567931 0.18014425 0.036511794 -0.08736163 -0.013536229 0.06468241 0.13023885 -0.092156686 0.1960923 -0.1392406 -0.067738615 0.15848029 -0.07064765 0.0033912058 -0.2775502 0.059113074 -0.10027178 0.06413561 0.27830017 -0.009778139 -0.009140053 -0.041601956 -0.09270654 -0.14298983 -0.03144645 0.05543327 0.042621218 0.008749758 -0.08380336 0.10602518 -0.09080582 0.09904514 0.12517945 -0.23665556 0.101721644 -0.34152403 -0.040166654 0.0985869 -0.1253465 0.23673926 0.08768639 0.07348908 -0.0641111 0.18445475 0.015461289 0.2511408 -0.027915042 -0.21047387 -0.1812676 0.013717243 0.014072865 -0.029897043 0.030763388 0.13742526 0.024100013 0.19769202 -0.16746433 -0.108726986
三 -0.047904063 0.05265605 0.05907667 0.14689355 -0.022631012 -0.16000484 -0.17658712 0.33537373 0.06793368 -0.21222563 0.21324588 -0.025301088 0.118062384 -0.095606364 0.22674146 -0.17169133 -0.041823246 0.18924285 -0.13990815 0.119751245 0.17598173 -0.0010792143 -0.046932623 0.052346505 -0.0019891951 0.068980075 -0.04238775 -0.06749143 0.01866011 0.042205237 0.1860387 -0.07151227 -0.40928453 -0.023551892 -0.082379974 -0.059440076 -0.23704629 0.17787208 0.09447874 0.032711934 -0.024753112 0.18466231 0.0030394 -0.041837454 -0.13540511 0.0017153786 0.056124184 0.21247278 -0.030847685 0.07417335 0.021778967 -0.04581673 0.09413461 -0.04272506 0.16367313 0.07600126 -0.14833178 -0.043748736 0.29717416 -0.05642535 0.07921347 -0.22383618 0.3182617 -0.02097986 0.018092489 -0.034415334 -0.08685878 -0.04225272 0.0067676995 -0.063522 -0.11563063 0.092533514 0.24721304 0.13822691 0.112213194 0.2699234 0.053566866 0.07566029 0.102521434 -0.0327524 0.110678874 0.13603812 -0.070849046 0.21052335 -0.0056858556 0.10753278 -0.053614177 0.12304591 -0.083905146 -0.05729478 -0.19578283 0.054080807 -0.01047614 0.0023906908 0.042509653 -0.20719327 -0.051899116 -0.0019284608 -0.077371486 -0.084933765
能 0.10840211 -0.2290245 0.072333366 -0.29058903 0.14370741 -0.03526281 0.068516046 -0.07571371 -0.07388509 -0.16059524 -0.30863258 -0.02193685 0.037459496 -0.061673373 0.27089238 -0.001599516 -0.06249304 -0.014123796 0.05788475 0.04999662 -0.04494577 0.1878097 0.058946908 0.14616014 -0.09156823 0.17413947 -0.08310184 -0.050891325 0.043184526 -0.019083401 -0.019888336 0.08506364 -0.31293255 -0.09564947 0.13603847 0.056464795 -0.07872662 -0.12926736 -0.06157819 -0.35904372 0.28248152 0.091591254 0.1121577 0.041746512 -0.12033833 0.14492491 -0.194355 0.15203963 -0.15357958 0.114840575 0.04374643 0.0860142 -0.022217609 0.050494164 0.15849462 -0.0019227768 -0.01023861 -0.025742557 -0.07942045 -0.14349926 0.10821676 0.00432574 0.1331597 -0.10373433 0.07224158 0.08518489 0.21025264 0.0257654 -0.092206046 -0.09713366 -0.27200422 -0.18194681 0.06799754 -0.033021808 -0.08607711 -0.043714143 -0.118081175 0.04330117 0.04045391 -0.098979354 -0.055025224 -0.01616305 -0.19905278 0.016981235 -0.20803183 -0.051503204 0.16228446 0.35395235 0.1206655 0.06938291 0.20666677 -0.034478378 0.18654487 0.09037552 -0.26179934 -0.05736091 0.05894142 -0.004407343 0.004309424 0.0869052
见 -0.12427912 0.05013144 0.1251538 0.085517585 -0.113915995 0.006049417 0.005539893 -0.049485803 0.16738048 -0.026965573 0.051364705 -0.096264645 -0.02692334 -0.05300266 -0.08446046 -0.075648256 -0.079544805 -0.23260489 -0.103811204 0.008882511 0.001968088 0.11365302 -0.120736964 0.053704392 0.015796676 0.292457 0.1674 0.07900316 -0.024128191 0.063067235 0.14214137 -0.1155461 -0.41646954 -0.044059385 0.0042430125 0.15938163 -0.017661607 -0.09366824 -0.24185315 0.044860143 0.062714234 0.30876964 0.10644565 -0.09331966 -0.0325811 0.19784445 0.0016320648 -0.26575416 0.011409834 0.32995254 -0.0197347 0.047974594 0.17150085 -0.08517948 0.34166586 0.08544186 -0.2633027 0.05611771 -0.1837732 -0.16590098 0.31010616 -0.094945155 0.14002763 -0.055252157 0.103353724 -0.32067823 0.0037537399 -0.07244328 -0.31868723 0.12993994 -0.08691541 0.023573298 0.08129651 0.15887949 0.17416456 0.16758351 -0.19179402 0.041647583 -0.29950553 -0.20414287 -0.058115236 -0.30798456 -0.13861611 -0.047055397 0.034437817 -0.13546388 -0.08047557 0.18220927 0.21630539 0.1770992 0.1619076 -0.27402255 -0.019173563 0.088330805 -0.22778237 -0.13501348 0.1161664 0.05556629 -0.011004303 0.1458681
学 -0.09618708 -0.24767983 0.11889395 -0.041667707 0.02228429 -0.3249213 0.07022413 0.033349358 0.07690716 -0.12984401 -0.021345086 0.24404918 -0.011066811 -0.14226268 -0.08085154 -0.004577458 -0.029288301 0.011782799 0.19075477 -0.10314547 0.034152694 -0.009881209 -0.12759385 0.31400213 0.2299408 -0.032377023 0.023384098 0.12657951 -0.0006018756 0.08156043 0.0640213 -0.096573405 -0.47339487 -0.20515767 0.21862233 -0.034740474 0.0479382 -0.118116155 0.12851515 -0.021808267 -0.016715545 0.011940697 0.058773346 0.13685378 -0.181552 -0.09158625 -0.11394704 -0.018569855 0.024572741 0.08977797 -0.05986467 0.17334008 -0.06821402 0.21647461 0.1974146 -0.048707455 0.07825311 0.22337711 0.16438454 0.176359 0.064588115 0.036972724 0.18471055 -0.111436784 -0.073581345 -0.007740304 -0.11128862 -0.16360965 0.025420938 0.018327367 -0.19827327 -0.20443256 -0.12129343 -0.10323729 -0.05803881 -0.08143242 -0.069384344 0.041207843 -0.031967863 0.04209876 0.02259865 0.1774644 0.18740138 -0.28836885 0.13742697 0.054772727 0.015149653 0.24394807 -0.007827179 -0.054660458 0.032208163 -0.107405454 -0.07779272 0.104336634 -0.12210004 0.1361414 0.15644503 0.12080723 -0.031431023 0.18386272
事 0.017782839 0.34514865 -0.0028972952 0.1292238 0.12874001 0.041570697 0.17927109 -0.016661506 -0.13132682 -0.13312483 0.12822852 0.18198715 0.06877873 0.038727954 -0.04535972 0.0079826135 -0.1692651 0.21275523 -0.14554131 -0.015512608 -0.19902107 -0.13177787 0.21636526 -0.078367576 -0.116717555 -0.028138295 0.0115186395 0.0052262284 -0.010666834 0.20328483 -0.24366993 -0.044639885 -0.46255332 0.08130892 0.24766272 0.17853427 -0.0139260385 -0.27515784 0.21724483 0.20758589 0.096788466 -0.092191376 0.06047419 0.24102125 0.15866233 -0.06610746 0.22064495 0.01582763 -0.016624814 -0.1701071 0.10093108 0.1638668 -0.3205575 -0.0077051944 -0.19630893 0.026279993 -0.00044077262 0.154419 0.12154152 0.013152795 -0.17562953 -0.005723121 0.08242744 -0.20077519 -0.108376116 0.09888385 0.11347008 -0.05191223 -0.10716491 0.009858062 0.30535278 0.14202702 0.081228845 0.031826563 0.20536336 -0.05738054 0.08592372 0.00080704363 -0.22118762 -0.15460587 0.17283429 -0.13011292 -0.093873516 -0.10524496 -0.21054861 -0.044241704 -0.064510256 0.26947778 0.045401506 0.11265568 0.037607227 0.15968001 0.051901847 -0.07793648 0.22626467 -0.15917273 -0.00428987 0.015737215 0.11966306 -0.024238706
是 -0.23783213 -0.080676176 -0.052245747 -0.107729785 -0.026243042 0.01779122 -0.09476192 -0.08888499 -0.19887377 -0.062376376 -0.066181235 0.03998272 0.11131412 0.007387046 0.10516876 -0.13986026 0.1917988 0.079067566 -0.12522185 0.19733898 0.11010433 0.11569391 -0.049623765 0.053196825 0.30371028 0.046721675 -0.04961913 0.12385679 0.017320681 0.06909405 0.0431894 -0.015346226 -0.4530579 -0.053907767 -0.056669157 0.119177565 0.15913533 0.19501439 -0.0039145965 0.08727432 0.035574067 -0.1680522 0.10547707 0.151419 0.026899312 0.03575238 0.2895714 0.0053730495 0.12863101 -0.07698272 -0.07508188 0.006343985 0.14838344 -0.102928035 -0.11690397 0.14123778 -0.03362448 -0.23858611 0.0041858624 -0.030378478 0.13953272 -0.26430646 -0.17241704 -0.14030753 -0.0011587236 0.1413415 -0.0056606154 -0.04687712 -0.080532715 -0.2139377 -0.17320423 -0.15719813 -0.005927613 0.12459786 -0.21541612 -0.11605928 -0.03887253 -0.17230523 -0.036297835 0.11167895 -0.010518853 0.11182702 -0.118792124 -0.013270664 -0.096370555 -0.066129036 -0.089201786 0.19864696 -0.11340357 -0.16648373 0.14472456 0.074839324 0.035189763 0.25792608 0.040927302 -0.042026892 0.16835164 0.04878142 -0.1813612 0.03875011
哉 0.049674902 0.0077531487 -0.15586187 -0.19688843 -0.046848543 0.09892286 0.036505304 -0.0574384 -0.012869247 -0.01806777 -0.11546951 -0.08233933 0.23079267 -0.2557843 -0.03750298 0.044364564 0.005657099 0.05557318 -0.3563948 0.08206623 -0.09160041 -0.027124772 0.049468122 -0.06454724 0.058339078 -0.004950512 -0.035857476 0.1292742 0.1919972 0.124429636 -0.034854937 -0.0792864 -0.71072876 -0.15313886 0.14480197 0.06768405 -0.051318128 -0.118175186 -0.108458176 -0.2286068 0.113251634 0.007884584 -0.030890226 0.19450106 -0.06903202 -0.054002915 0.16881812 -0.042797603 -0.25926843 0.03236847 -0.03751073 0.011530791 -0.18386075 0.10796807 0.005369939 -0.24475892 0.097140476 -0.03914802 0.093304574 -0.17908841 0.023055011 0.11654719 0.19542727 0.02675727 -0.17546254 -0.13836217 0.12794341 0.15551132 0.020067101 0.032193143 0.11805915 -0.1722695 0.0029868959 0.17606609 -0.12316797 0.077413514 0.04665824 0.02052411 -0.10708214 0.108030476 -0.22633797 -0.006479145 0.06950494 0.114900954 -0.03623784 -0.20928511 -0.07319484 -0.08278871 0.12942357 0.2628691 -0.14824982 -0.30907518 0.020613095 -0.08266617 0.2542274 -0.2776946 -0.18872406 0.10461111 -0.021222614 -0.06799148
闻 0.10296021 -0.0034364902 -0.17904185 -0.06673389 -0.081837274 -0.08691924 -0.11931969 0.2759852 -0.23581065 -0.071882546 -0.21542588 -0.047488198 0.15660776 0.06482065 -0.0012477955 -0.08891985 0.14994967 -0.054473978 -0.11186092 0.033915967 0.08324655 -0.02342815 -0.08874237 -0.1038712 0.248038 -0.1400073 -0.0403331 0.16462031 -0.035674844 -0.010048154 0.029911282 0.11277156 -0.6447973 -0.03419279 -0.114667654 0.010044809 -0.14250983 0.08687192 -0.18319698 -0.05142889 -0.05583523 -0.26129687 0.07271689 -0.024976302 0.086260684 0.025920212 0.05813124 -0.070079796 0.0074341814 -0.07280248 -0.34610194 0.11664989 0.07451805 0.05156038 -0.23963282 -0.020783305 0.042434014 0.12664114 -0.17695223 -0.17991893 -0.008926373 0.05990143 -0.037226457 -0.030375153 0.14633437 0.0855621 -0.07103235 0.099163175 0.12149086 0.059275173 -0.22112879 0.0045618173 0.14583407 -0.07903144 0.16611947 0.17703132 -0.32615453 0.12560546 -0.24675503 0.0077509177 0.024435401 -0.38185272 -0.012423766 -0.007699572 0.09586706 -0.0020525376 0.09554167 0.05569987 0.13427447 0.10566743 0.1784798 -0.057360746 -0.2208762 -0.095795386 -0.022725929 0.16574827 0.1257445 0.0019606305 0.089337684 -0.17792112
未 0.031208457 0.108457096 -0.091727 0.045403942 -0.015444294 -0.15891206 0.10524099 0.0879367 -0.14499141 0.06656076 0.24134882 -0.056756347 -0.09381465 -0.08763395 0.008147038 0.15495563 -0.040914975 -0.02557138 -0.16893616 -0.059358254 -0.16879329 -0.012855139 -0.19278264 -0.039554127 -0.0062061064 -0.004214884 0.04599431 0.1488788 -0.00820858 -0.015205398 -0.084820524 0.035783693 -0.4349947 0.072031714 0.008507516 -0.2408331 -0.12818468 -0.106862456 0.27413487 -0.24658063 -0.051586635 -0.12254739 0.053050593 -0.16072375 -0.2961499 0.014605003 -0.08169933 -0.026766198 0.11636588 -0.01802409 -0.02101161 -0.004576165 -0.18581448 0.16527079 -0.17187163 -0.012190921 0.14134754 0.033950612 0.16611871 -0.06536027 -0.08092098 -0.01947704 0.23780839 0.037114438 0.16819179 -0.14347537 -0.052357588 -0.10005818 0.0069401762 -0.08122932 -0.06018952 -0.015599077 0.20643051 0.016770678 -0.20518614 -0.13483895 0.18157196 -0.024718855 -0.04605057 -0.14127304 -0.037782572 0.00071471743 0.16314436 -0.06817072 -0.113488615 0.02299583 -0.07553322 0.19445172 0.0032850334 0.049977794 -0.12988414 0.09290328 -0.19115826 0.089965306 0.06363236 0.0633489 0.31319535 0.07147678 -0.09913478 0.07481564
公 0.095057815 -0.112216875 -0.06377089 -0.07134043 0.0129805785 -0.13047609 0.098399825 -0.09250688 -0.101657145 -0.036613245 -0.035974897 0.049272355 -0.19267428 0.023879018 0.04765004 -0.1994407 0.062437773 0.059752803 0.039630175 0.04081804 0.029835578 -0.16769181 -0.19877851 0.12324188 -0.12724677 -0.08185717 -0.15587427 -0.04085888 0.20209187 -0.0109488005 -0.12911932 0.29700285 -0.6027455 0.14905754 -0.016879909 0.02613437 -0.06362329 0.1589885 -0.11447839 0.0035281116 0.19901393 -0.036978897 -0.031967442 0.053964537 -0.033538435 -0.19647005 0.15317437 -0.029838607 0.04825566 -0.120905 0.07149224 -0.4002916 0.049458716 -0.04205391 0.03419011 -0.24880183 -0.07334067 -0.14902098 0.03392169 0.044806577 0.12107993 -0.038862195 0.029511727 0.085882 0.07887832 0.075181335 0.090374194 0.07935718 -0.131979 -0.13384852 -0.072933346 0.2161769 0.14360504 0.06113912 -0.00075167604 0.21793519 0.20248644 -0.13513143 -0.09830086 0.023189718 -0.14931768 0.36011186 0.049798362 -0.055143364 -0.009016236 -0.0962003 -0.03547896 -0.15313742 -0.05901755 -0.02452124 0.20933184 -0.16816549 -0.120899774 0.23648275 -0.017513866 0.024430653 0.15599692 0.15926617 -0.11568823 0.019284092
好 -0.03298463 -0.35572094 0.30410856 0.16024345 0.0904373 -0.13018097 0.14560574 -0.096504055 -0.015521271 -0.060997363 0.013883186 0.07641077 -0.14459696 0.0025217328 -0.28417993 0.020104496 0.07136061 0.017734364 0.3346155 -0.020892445 0.23016334 0.10376511 0.10375541 0.151213 0.27088353 -0.1854366 -0.1498567 0.33412904 0.10888933 -0.06433715 -0.045920983 -0.1726715 -0.38618624 0.1600838 0.1868105 0.08674715 0.031754103 -0.2982491 0.11623738 0.2616089 0.019749308 0.09894317 0.007301438 0.18608844 -0.12541568 0.03361962 -0.47733673 -0.18380132 0.29715627 -0.29153886 -0.06192539 0.19222331 0.07269993 0.06217192 -0.05928787 -0.18602858 -0.1530919 0.12941214 -0.07880567 0.12755634 0.0527539 -0.012432743 -0.06536956 -0.032352187 0.025893971 -0.08427878 0.06275437 -0.16036357 -0.01002951 -0.047855757 -0.18684381 0.050524052 -0.045912392 0.109975174 -0.059481557 -0.057431884 -0.48241466 -0.14183986 -0.04772488 -0.037911557 0.001698775 0.20193619 0.12402779 -0.30806193 0.035687737 -0.13069706 0.17154194 0.48608714 0.24074298 -0.12640771 0.116083026 -0.28688815 -0.036896743 0.10781627 0.024005946 -0.025854595 0.08242753 -0.14073959 0.06878258 0.3201248
我 0.029790007 -0.027264522 -0.38484222 0.00669388 0.051676903 -0.020866059 -0.16760159 -0.094791204 -0.2598919 0.035063945 0.29048496 0.20896162 0.19078156 0.12389315 0.024597393 -0.12631957 -0.0026458981 -0.06386337 -0.036152504 0.082095146 -0.13654119 0.10617332 0.26849118 0.124409154 0.023299713 0.12080628 -0.18826395 0.045761388 0.08046317 0.021187369 0.07862863 -0.12731588 -0.46989164 -0.21674527 -0.06719159 -0.17872569 -0.12684555 0.00974092 -0.02698832 -0.26876405 0.07677875 -0.034278594 0.0033013658 -0.011985296 0.123107255 -0.058235202 0.07850288 -0.0028965464 0.2238169 -0.1711241 -0.1227008 -0.12391665 0.07898945 -0.041925546 -0.06769375 -0.21392567 0.11219583 -0.18550138 -0.1676027 0.2728702 -0.08967927 0.0009772282 0.024226606 -0.10246159 -0.05018551 0.11680408 -0.11591883 -0.07845545 -0.0050780224 -0.09779075 0.13856514 0.12075971 -0.02689005 -0.054137815 0.23860028 -0.011644397 0.017938472 -0.041595034 -0.113909066 -0.081711315 -0.16315147 0.08277421 0.068694875 -0.24351786 -0.11899488 0.007956046 -0.04102131 0.12602177 0.06067526 0.21374282 -0.05242693 0.069330096 0.108045354 0.10945283 -0.23778912 -0.051198393 -0.013268756 -0.07280562 -0.09068927 -0.06749257
路 -0.09694045 0.13086769 0.083339214 0.031252004 -0.26843163 -0.1116762 -0.06158351 -0.0012519904 -0.034691337 0.02055085 -0.22064924 0.033492543 -0.11919202 0.042308908 -0.075737216 -0.18826717 -0.09932493 0.021308906 -0.0017263032 0.13013335 -0.0016419198 0.24611117 -0.064174876 0.09012663 -0.105425864 0.208482 -0.15659471 -0.12634814 -0.045129776 -0.11853443 0.035101186 0.121087395 -0.7306216 0.023856478 -0.022434793 -0.011604071 0.0022254921 0.023804106 0.064388536 0.066891745 -0.34696403 -0.013477704 0.20447767 0.079820916 -0.07298739 0.006396276 0.20625973 -0.12756896 -0.10817733 0.06566256 0.014981348 0.17335838 0.15823495 0.035017952 0.15811296 0.18845558 -0.032497495 0.021728912 -0.0140556395 -0.27241924 0.10583498 -0.1558452 0.10450263 -0.15303685 -0.14306025 -0.1819546 0.2696456 -0.23033282 -0.14969584 0.03234405 -0.031822465 0.0065616467 0.08295058 -0.070484936 0.0789425 0.03968341 0.045528658 -0.095374174 0.1405837 0.06635484 0.26595688 -0.12731467 -0.05444633 -0.23743692 0.094539866 0.029512137 -0.24206242 -0.018499412 0.031414583 0.14584096 -0.08307208 0.17072733 -0.12085482 0.009420452 0.100792296 -0.03653203 0.2267105 0.15324655 -0.35628214 -0.12658998
在 -0.19013715 0.1904595 0.07745156 0.2593454 -0.1411191 0.24036847 0.30852517 -0.10901032 -0.30088085 0.13175553 0.103622906 0.22148477 -0.02387318 -0.25652084 -0.07077228 -0.21817152 -0.2041131 -0.12038722 -0.04227147 -0.061813764 -0.3368863 0.13001509 -0.15829015 -0.28296965 0.043148875 -0.36210302 0.13548633 0.16149437 -0.09694997 -0.2088097 -0.037022993 -0.013533876 -0.39750844 -0.062820554 -0.15660617 0.18578365 0.1641147 -0.076718435 -0.039079607 -0.24184714 -0.028976602 -0.20171288 -0.116768 0.15918186 -0.11215318 -0.19675745 -0.18693148 0.35202235 0.12292212 -0.11953863 -0.085955776 -0.103163555 0.15156706 -0.28636047 -0.08553562 -0.24682046 -0.0061246157 -0.016336577 -0.051948965 -0.16050969 -0.060748316 -0.19881457 -0.051342472 0.19351928 -0.23603162 -0.13320476 -0.0034063132 -0.02986508 0.07090005 -0.36634636 0.13208139 0.053022645 -0.20401496 0.07765278 0.0003978191 -0.16752267 -0.13029166 0.021975927 0.12449376 -0.1617431 0.19090313 0.08610144 -0.03999181 -0.1530314 0.13020186 -0.03390568 0.17599246 0.3382065 -0.36183217 0.047712848 0.29959953 -0.1560337 -0.22764985 0.32593507 -0.043598723 -0.12075142 0.2893416 -0.14410996 0.08879305 0.06397862
已 -0.09385373 -0.08300923 0.09544988 0.1339048 -0.19552295 -0.11418622 -0.17280623 -0.19160971 0.17771529 -0.05770741 0.0007688324 -0.122308224 0.040159456 0.059618283 0.027806142 -0.012871392 0.11010432 0.07420933 0.25106448 -0.18727826 -0.17738104 0.1613555 -0.20936698 0.06640348 0.05800771 0.2352202 -0.22195388 -0.23541623 -0.12508588 0.009546862 -0.24945289 -0.40207562 -0.5111933 0.10883727 7.724343e-05 -0.05315444 -0.14101104 -0.07833898 -0.010273794 0.07051293 -0.15141515 -0.04717276 0.07940196 0.07347184 -0.010438568 -0.1259398 -0.04782523 -0.13108958 -0.25266972 -0.0055373814 -0.21408176 -0.18315971 0.20967026 0.07622546 0.011272571 -0.004098855 -0.46174094 0.08097594 0.021081544 0.16273591 0.07232287 -0.11421507 0.22630991 -0.18202794 0.12401122 0.021075018 0.018930664 0.0122896405 -0.11102472 0.020859288 -0.23476376 0.13166016 0.04992505 0.05863325 0.23434933 0.15843184 0.025698211 -0.09311984 0.025676155 -0.3788658 0.07239888 0.16503742 -0.16386251 -0.33627066 -0.13090378 -0.090450004 -0.21885572 0.008508828 -0.1422458 0.25280622 -0.09788426 -0.0069040945 0.07595807 0.09429986 0.13737574 0.08626669 0.059184812 0.10519491 0.021280076 0.01879731
得 -0.055714708 0.07988656 -0.051227994 0.10579189 -0.103442185 -0.19277641 0.026044209 0.16347535 -0.00014196895 -0.07222762 -0.01964475 0.061645143 0.012235224 -0.053264495 -0.077572614 -0.0038023177 0.12740782 0.21961282 0.13414042 0.033523798 -0.03454423 -0.07659079 0.10606026 0.044587374 0.08782202 0.031690475 -0.027555155 -0.039116777 -0.1436494 -0.13608173 -0.041129258 0.012183529 -0.36865127 0.117670864 0.06592011 0.028081492 -0.22004214 0.16437359 0.071143545 0.032896698 0.05309838 0.041338034 0.055059183 0.13015096 0.03590033 -0.13226639 0.059262615 0.10456252 -0.10244931 0.23983936 -0.26265517 0.0336905 -0.21943681 0.07027582 -0.18995208 -0.28125423 -0.2955285 -0.23646712 -0.11385361 0.051574253 0.07397073 -0.09523605 0.20698242 -0.04776496 -0.46476948 -0.17825982 0.040261403 -0.032924328 -0.029160231 -0.014015494 -0.17651312 0.0028758268 -0.25447723 -0.046006974 -0.11056627 0.15731929 -0.17370501 0.37471038 0.031307083 -0.22952467 -0.0654605 -0.006824797 0.087853625 -0.069790564 -0.037273053 -0.14353731 0.092322126 0.4715326 -0.13938904 0.05915603 -0.013937242 -0.031098796 0.020456603 -0.027579362 -0.035181105 -0.09469966 0.18432587 0.16959324 -0.07016181 0.2168541
所 -0.14629406 -0.053075287 -0.14610912 0.21684459 -0.0547649 -0.14183097 -0.02961153 0.14266954 0.010143696 -0.027339451 -0.289923 0.009178137 -0.08599799 -0.0981879 -0.18592289 0.09643829 -0.058220144 0.008853694 -0.13820595 -0.034169573 -0.1674055 0.102338195 0.01632569 -0.04393466 -0.16300166 0.12589777 0.12811027 -0.08389289 0.078090675 0.014432077 0.09569052 -0.12678516 -0.364203 -0.101977155 0.1574326 0.08554818 0.028033132 0.005387377 0.006238392 -0.12682332 0.17898361 -0.035966475 0.12109531 0.027919263 0.034348316 -0.11700797 0.0920239 0.095256805 -0.0374883 -0.060543813 0.0029789777 0.2511376 -0.14623076 0.17342074 0.037384126 0.17603593 0.06371066 -0.14626384 0.017046047 0.13092037 0.092458524 -0.009287791 -0.14680193 -0.070600435 -0.069287196 -0.13129053 -0.10368869 0.21861474 0.12722746 0.22191025 -0.18631747 0.108022556 -0.14504883 -0.051629473 -0.01088256 0.24071975 -0.11175258 0.09008839 0.14064687 -0.15550175 -0.15693593 0.066683315 -0.16674976 -0.16252758 -0.02285953 -0.07724407 -0.071934566 0.26405656 -0.092898995 -0.10720062 0.1494919 0.12684853 0.007152998 0.08630829 -0.0126532335 -0.19141504 0.14191803 -0.09401974 0.0015014466 0.03750237
民 0.044442415 0.2903869 -0.12436537 0.046139833 0.0656872 0.25229195 -0.18520492 -0.08538091 0.07100836 0.13939214 -0.105373986 0.04512098 -0.16982377 -0.0029343907 -0.0029314829 0.048713278 0.1890923 -0.027232058 0.09720783 0.101208955 0.006444923 0.0640476 0.006356092 0.049340606 0.07812969 0.12183128 -0.09312362 0.10128716 -0.26010847 0.060992148 0.07765059 0.058281265 -0.2798732 0.28973314 0.128102 -0.0833654 -0.18138447 0.080606624 0.07187947 -0.19242898 0.1450563 0.11892674 0.15485767 0.10215639 -0.12182211 -0.20902279 0.04072079 0.0496544 -0.15993828 0.16953373 -0.1369323 0.046054993 -0.19391412 0.09113578 -0.13885218 0.12108253 -0.030459795 -0.18084967 -0.21394506 0.009203637 0.028074486 -0.23696242 -0.11355285 0.17037873 -0.025639506 -0.38086462 -0.12505746 0.068119064 0.06627625 -0.015242683 -0.3039459 0.011786014 -0.083333574 0.24676931 -0.08752565 0.23301136 0.13490394 -0.11025559 0.23333235 -0.13072781 -0.008615458 -0.03177212 0.12405037 -0.3020225 -0.031838477 0.0008841448 0.077481724 0.38711032 0.22230504 0.14961842 0.09276841 -0.10351779 -0.034413017 0.03676662 -0.040466607 0.024189517 0.13283466 0.22597547 -0.06691862 -0.1427643
小 0.032797232 -0.025305541 0.1019912 -0.28219917 0.013501182 0.19720957 0.16545847 -0.014486891 0.119802505 -0.14592949 -0.26273334 -0.11808308 -0.09276706 -0.08161025 -0.08682791 -0.03712749 -0.07400097 -0.17296152 -0.026818044 -0.0039645815 0.13781838 -0.09263886 -0.128775 0.24871278 -0.036524024 0.07046072 -0.015262444 0.101400845 0.045583043 0.1734802 -0.023281932 0.01717262 -0.42921564 -0.0061751246 -0.045759857 0.15046526 -0.102155104 -0.10350376 -0.03562028 0.110425904 0.05378976 0.08372047 -0.14483058 -0.099739686 -0.05408327 0.22107957 0.15666983 0.096335895 0.120924264 -0.055094153 0.042585697 0.115811795 -0.11674937 -0.0755353 -0.00636833 0.05890501 0.20232685 -0.113463625 -0.19494748 0.086367846 0.051359516 0.11427983 0.17314416 -0.0586114 -0.1395188 -0.13385577 0.31577438 0.19236517 0.13015196 -0.041971553 0.37137255 -0.10195213 -0.12837501 0.23675692 0.015431488 -0.079760924 -0.078517444 0.04665081 0.074418575 0.055331197 0.036454458 -0.066058226 0.15128809 -0.108502 0.046715986 0.013743507 0.079983115 0.2173364 0.075845525 -0.22894002 -0.14771579 -0.10899126 0.02360454 0.0722087 0.13877852 -0.08831793 -0.05205905 -0.13516939 0.05250502 0.19115594
天 -0.2660178 0.17382419 -0.2088088 -0.08267587 -0.43791205 0.18542694 0.14369068 -0.123342335 0.13371965 0.091716886 0.41299537 0.17317128 0.35082465 -0.23349427 0.0654041 -0.07641213 0.01998666 0.18424207 -0.137234 0.09354932 -0.31116626 -0.0076445136 -0.09593208 -0.030300668 0.104472056 0.33138078 0.12618972 0.2702074 -0.10827945 0.09315076 0.027661843 0.025209438 -0.3492534 -0.09667818 -0.0740749 0.02137071 -0.080565475 0.24485868 0.21309492 0.07364565 0.39498466 0.21118663 0.05342171 0.12293964 0.2324299 -0.027881367 0.054603282 0.0094528645 -0.105363905 -0.3570285 -0.0058509484 0.122105904 -0.13219836 -0.06667709 -0.15157354 0.016794499 0.1441597 -0.2559734 -0.13465795 -0.13586697 -0.10850057 -0.3115885 0.018516954 -0.18087976 0.26515022 -0.040354453 -0.061171085 0.08235621 -0.043586176 -0.17930633 -0.021461232 -0.1488364 0.12580058 0.240295 -0.06518639 0.07926659 -0.2703908 -0.14704843 0.10543547 -0.063177794 -0.0887118 -0.028261498 -0.12545037 -0.16364953 -0.07944109 0.084376834 -0.31578428 0.18843569 0.19757451 0.06785783 -0.013003103 0.016673513 -0.085104436 0.022547578 -0.07906747 0.065982886 -0.018110625 0.15825154 0.024684895 0.08966633
乐 0.31300402 -0.03143736 -0.26592845 0.16222641 0.013004888 0.004608334 -0.05672878 0.3010938 0.07141903 -0.16846168 0.13051231 0.10692554 -0.033978794 -0.4759545 -0.2938959 0.121671624 -0.23951833 -0.16501054 -0.14717089 0.11629762 0.22026823 -0.116671816 0.0722475 -0.25503486 0.28558177 -0.10361495 -0.027925469 0.23042165 0.11079142 0.07962122 -0.06254727 0.19307074 -0.41159037 -0.096855834 0.2907175 0.22596267 0.07069705 0.23370351 -0.15169531 -0.11223111 -0.24804276 -0.05385626 -0.11103052 0.0390128 0.1711378 -0.2153852 0.004399528 0.10351696 0.037712272 -0.10655249 -0.060352433 0.1486726 -0.03163398 0.0824873 -0.05208498 -0.082303286 0.1227197 -0.03901248 0.2647078 -0.027753757 -0.0003137174 -0.08046562 0.07302182 0.30161265 0.21855238 -0.100170806 0.26235777 0.17526427 0.25032008 -0.27166978 -0.34655258 -0.13952014 -0.16010818 0.10032393 0.22203556 0.05381648 0.008513759 -0.055066656 -0.19476959 -0.20654462 -0.06796015 -0.26940373 0.2748155 0.17150906 -0.18649487 -0.16716278 -0.12181087 0.53543323 -0.07551842 0.016502831 0.006083011 -0.20901236 0.019604275 -0.12828706 0.18466274 -0.089952625 -0.123785295 -0.2596163 -0.15870127 0.17933407
邦 0.024791386 0.07128984 0.16770625 -0.21026862 0.22038884 0.07633567 0.20702375 -0.09529385 -0.033051044 -0.16951302 -0.021274567 0.13996829 0.05880854 -0.002947814 0.20477389 -0.14801325 0.22793274 0.04599236 -0.15999904 0.09417152 -0.010139152 -0.42995757 -0.07826393 -0.058793917 0.13402623 -0.04546195 -0.13620175 0.062306594 0.13666524 -0.03878445 -0.06992251 -0.044176355 -0.43428636 0.024601448 -0.029620335 0.015425589 -0.16988856 -0.17728063 -0.18763326 0.05130144 -0.023021137 0.037436076 -0.16108532 0.23159914 0.19475503 -0.005513015 0.016877556 -0.16107734 -0.2259212 -0.20576146 -0.1299056 -0.20942554 0.16656819 -0.02384291 -0.059425503 -0.036259808 0.012655757 0.013941788 0.10610435 0.20685136 0.031517256 -0.026034797 0.00052553555 -0.2686365 -0.09202264 -0.10580708 0.05894726 -0.17447878 -0.1575222 0.056561615 -0.22020568 0.19293682 -0.2901783 0.03718388 -0.077742405 0.24786453 0.06733224 -0.0554438 0.1998834 -0.07625526 -0.04152732 -0.36013916 0.008614385 0.14817068 -0.1810945 0.058192182 0.1616327 0.26709133 -0.18865497 0.08451299 0.20902933 -0.22342566 -0.062069833 0.14605686 -0.08730141 -0.23038399 -0.18586639 -0.18993676 -0.1922146 0.11210829
亦 0.07966796 -0.05844722 -0.027655246 0.1706052 -0.20169024 -0.025013631 0.20611495 0.031780712 0.057105705 0.14676331 0.24345085 -0.033073176 -0.057065956 0.041039877 0.038363025 -0.20788169 -0.033433024 -0.15901057 -0.2763233 0.17187673 -0.004520461 -0.15489297 0.045625806 0.16983321 0.044159338 0.036460694 -0.038384713 0.0036600581 0.008115636 0.014945474 0.093208924 -0.02314814 -0.47507244 -0.42574698 0.16143955 0.11010713 -0.13350476 0.01813939 -0.007493371 0.12787554 0.288868 -0.03319402 0.09075155 0.03656209 0.034950916 0.07676795 0.15122086 -0.12217731 -0.029198185 -0.16448241 0.07664052 0.098706424 -0.014548474 0.20537643 0.024320964 0.1763267 0.34870812 0.05605506 -0.20719883 -0.12628162 -0.024691507 0.07414432 -0.0057859677 -0.07453513 -0.09921238 -0.041539922 -0.120488554 0.42086157 0.06622543 -0.14740148 0.08628709 -0.19592077 0.1990045 0.1759061 0.10853319 -0.06725467 0.11327641 0.1695787 0.27862808 0.47049844 -0.2526146 0.01969089 0.07534975 0.05563257 -0.033786006 -0.038790017 -0.06690364 0.15651444 0.11608193 -0.0679972 0.19017516 -0.19900914 0.14031817 0.09336706 -0.056712933 -0.021243908 0.13772988 0.34106648 0.057939023 -0.14139098
使 0.0069172103 0.024535883 0.13999845 -0.19712196 0.01969914 -0.13849919 0.16066377 -0.09461025 -0.08037022 -0.09491151 0.20337425 -0.1051298 0.113422506 -0.10301507 0.034020163 -0.2850106 -0.01020049 -0.05929022 0.17209414 -0.30637848 0.10841443 0.1275091 0.0799946 -0.01419106 -0.040027976 -0.02160484 -0.03794044 -0.06001421 -0.06572733 -0.16947865 -0.1325237 -0.10442588 -0.4115005 0.11635644 -0.025774997 -0.19197778 -0.023851069 0.041283563 0.072583854 0.028548028 -0.15451416 0.16334423 0.10306383 -0.15711543 0.024408491 -0.0657008 -0.11188463 0.26049668 -0.10026858 0.20471261 -0.057666853 -0.18431418 0.43210527 -0.055465467 -0.12773617 0.10325876 0.019027092 0.14791596 -0.0649197 0.20506023 0.13388848 -0.0348462 0.07206841 -0.14169982 0.012738619 -0.09537315 -0.14304656 -0.29051822 0.12068798 0.00093410094 0.17819808 0.23445274 -0.032521922 0.17520492 0.014358478 -0.041768007 0.019347094 0.1113231 -0.117862046 0.20418203 -0.17431699 -0.08923525 0.03127448 -0.19782655 0.16678084 0.246622 -0.16449767 0.2019179 -0.06215343 0.17858423 -0.016661452 0.047619306 -0.19484545 0.22716731 0.23450689 -0.08881609 -0.016285008 0.0028311212 -0.417342 -0.08662553
大 0.09629162 -0.19515525 0.23225665 0.044770066 -0.026153117 -0.028126694 0.00623916 -0.105967864 -0.011711283 0.033188857 0.18513499 -0.14975356 -0.17425658 -0.07859749 -2.0016916e-05 -0.2600261 -0.2077188 -0.1499052 -0.061278943 0.05197328 -0.06522904 0.011753159 -0.099493146 -0.10444202 0.10859309 -0.21417104 -0.1458107 0.12543017 0.11411075 0.11156656 -0.01979756 0.21707265 -0.3883825 0.06660203 -0.0949341 -0.0048407787 -0.0049286704 0.010836327 -0.13482325 0.0015600827 0.05053532 0.07165877 -0.0010710927 0.02624312 -0.0036861133 0.32514825 0.30949867 0.0725001 0.06873373 -0.035961498 -0.29646263 -0.06814032 0.2792689 0.11517542 -0.019713702 0.014907942 0.19426236 -0.16786113 0.036695093 -0.16712736 -0.026202513 -0.19246978 0.062679805 -0.059514336 -0.02163709 -0.1733354 0.1072228 0.1928894 0.08820128 -0.21267845 0.101249665 0.06373778 0.019382108 0.07221931 0.075315975 -0.025057485 0.18190518 -0.16318883 -0.015659343 0.13543734 0.1277312 0.084357396 0.25784928 -0.094325766 0.16396856 -0.23431908 -0.05330341 0.2868654 0.073088005 -0.1923328 -0.11765015 -0.0849011 -0.16568351 0.21019772 -0.0030317437 -0.05006661 0.09035239 0.13340195 -0.08769165 -0.19256312
下 -0.010103821 -0.13774468 -0.0057527963 -0.19901973 -0.035969887 0.2717624 -0.044204026 -0.0018183524 0.09951141 -0.13975695 0.2297742 0.25419387 -0.061649036 0.015794655 0.18465233 0.044577416 -0.12896734 0.13304377 -0.034916658 0.0033999542 0.22770545 0.1195716 -0.20364475 0.079373345 -0.07765564 0.19661464 0.067740664 0.35267773 -0.1614047 0.2100134 -0.30742237 0.06743033 -0.44217 0.17870677 0.12145777 0.16207251 -0.16583133 0.06427815 0.122671 -0.21551293 0.23591565 0.40078652 0.073143914 0.03822665 0.33815715 -0.039023492 0.16781962 0.053432852 -0.17854097 -0.09751537 -0.1348715 0.15935011 0.07436155 -0.06750254 -0.073638186 -0.074661605 0.037113078 -0.21775004 0.100431606 0.024111917 0.06459422 -0.09543381 -0.106343694 -0.07135545 0.17771217 -0.20298898 -0.3730688 0.43122494 -0.0050185462 -0.0013911678 -0.18144904 0.038069353 0.15571754 0.18349367 0.041481227 0.25637344 -0.108772114 -0.2241656 -0.118624404 0.031584837 0.087152965 0.01064519 0.027152797 0.017136218 -0.06958104 0.22557293 -0.30595112 0.34442234 0.14898154 -0.19066615 -0.006510202 0.16527607 -0.07123411 0.071571566 -0.11778744 0.040746335 0.059330672 0.20034009 0.047130417 0.01686529
贡 0.10236247 0.13356033 -0.041590545 0.25996563 -0.030878544 0.034335848 0.08095191 0.068939045 0.25588194 -0.25294542 0.015454473 -0.032307133 0.15737246 0.013315798 0.103924945 -0.02014866 0.021552403 -0.13995211 -0.15661967 -0.006672877 -0.113202564 -0.20650248 0.05783379 -0.04413166 -0.0066788206 -0.16561745 0.07496924 -0.17941149 0.022486247 0.17085943 -0.033231165 0.17798668 -0.7562114 -0.09889624 0.06150065 -0.08736462 0.22413208 0.30811843 0.16863278 -0.17944047 0.12949915 0.049503356 -0.25770518 0.06623456 -0.10599581 0.02397215 -0.10359734 -0.12920797 0.01908295 -0.1862648 -0.06813198 0.17748778 -0.05052065 0.17910627 0.31956625 0.0056985947 0.13840665 0.032467775 0.033561423 -0.09010766 0.028369779 0.13313255 -0.050920367 -0.035320275 -0.09508364 0.0075531225 -0.29432622 0.27149722 -0.10504096 -0.22676672 -0.101142615 0.07954758 0.015636275 -0.17396961 0.21060307 0.07806655 0.07376725 -0.26942226 -0.03440648 0.11309207 -0.066253215 0.16807935 0.023334289 0.054739922 0.27503988 0.103172936 -0.08969897 -0.15402377 -0.10311768 -0.019613681 0.017906778 0.12826154 -0.034530815 -0.042384647 -0.10768172 -0.14721987 0.07002613 0.0023947342 -0.16236052 -0.13936263
欲 -0.06908323 0.18522304 0.054114763 0.07518475 -0.029662367 0.062156796 0.18494283 -0.28243214 0.100993514 0.1520563 0.055520374 -0.02385832 0.026894748 -0.09409583 -0.04106088 -0.015756458 0.104097545 -0.26604882 -0.0077508576 0.26666224 -0.21549325 -0.09711159 0.3241818 -0.08455434 -0.05394808 -0.04648513 0.06375029 0.12154619 0.058234617 0.050252832 -0.030877067 0.106267706 -0.4101069 0.09526134 0.03447775 0.00019875495 -0.20118771 0.20081902 0.07681184 -0.04777918 -0.15017794 0.10949075 -0.21628962 -0.07605584 -0.12273881 -0.08051606 0.08746036 -0.004207418 -0.29542822 0.1490868 -0.12966643 0.046696145 -0.118763 0.24844655 0.15755425 0.22088993 0.17288627 -0.16803832 -0.26350084 -0.18460645 0.04058405 0.27023613 -0.1120948 -0.04001452 0.017803576 -0.052377567 0.32995534 0.03178907 -0.042542852 -0.042852256 -0.043147635 -0.05919841 0.15785208 0.11599846 0.007059356 -0.1748645 -0.11528236 -0.012047678 0.0765681 0.15061425 -0.011304553 -0.03799061 0.20001423 -0.015848149 0.015777554 -0.08394726 -0.20749255 0.15652551 0.27376968 -0.045927517 0.08049389 -0.24865626 0.046188224 -0.0114533 0.021794524 -0.1443417 -0.2520033 -0.005467703 -0.1265508 0.13415244
诸 -0.21142791 0.022979055 -0.05128965 0.08474254 -0.09395072 -0.03133742 0.09115135 -0.09061241 0.07704469 -0.0074310135 0.00909161 -0.24768601 0.15733817 0.0077985334 -0.18484572 -0.022506507 -0.01849228 -0.06539095 -0.12636295 -0.27975675 0.21645477 -0.101955734 0.029631183 -0.24087009 0.14889586 -0.15236634 -0.23845167 0.2188393 -0.063781075 0.022888986 0.32614464 0.13541521 -0.56217825 -0.15400064 -0.18612643 -0.21070896 -0.35712254 -0.027633578 -0.23254089 0.1466773 -0.079809494 -0.16722894 0.026935527 -0.054559793 -0.1857474 0.02459826 0.24171168 0.052250143 -0.09098526 0.0018056072 -0.010891456 -0.1143894 -0.1966725 0.01346564 -0.09263395 -0.14763297 -0.085547104 0.0047245044 0.008126668 -0.1430862 0.050387934 0.2584257 0.13248526 -0.17632042 -0.032839615 -0.09471502 0.048281606 -0.021760028 0.30300564 0.046610218 -0.009760419 0.02494977 0.09992217 0.21159802 -0.038167305 -0.083673894 -0.37473777 -0.08679438 0.24790508 -0.08141701 -0.02141872 -0.3052918 0.17043771 0.048334163 0.12611677 0.12754805 -0.018990664 0.12566842 -0.052324828 0.002838084 -0.031567626 -0.20035616 0.039338686 0.13664971 0.24775694 -0.060226433 -0.19596449 -0.060180746 -0.0753721 -0.18943729
从 0.18375097 -0.022044366 0.3401854 0.056210987 -0.122283496 -0.055167675 0.36098546 0.07424567 -0.10736602 0.008569106 0.056661118 0.038353242 0.22788306 0.117630705 -0.17643003 0.00092188595 0.04485834 0.26498872 0.29634497 -0.28903842 -0.12896967 0.42562628 0.21081243 -0.028748188 -0.0629845 0.1060807 0.030684283 0.11914809 -0.10031349 0.042931985 -0.08487924 -0.112678275 -0.48684773 0.009467094 0.111799955 -0.010491942 -0.09010845 -0.07956448 0.3039475 -0.20445006 -0.2198783 0.1754731 0.007805409 -0.07267564 0.2002315 -0.18629855 0.23310542 -0.017246705 -0.15576424 -0.12920423 -0.1018216 -0.14598837 0.20708905 -0.16724737 0.042309936 0.13686126 -0.1553749 0.10065365 -0.032659348 0.09122357 0.16441534 -0.08090832 0.021813218 -0.2399125 -0.08393447 -0.1040193 0.12725803 0.09024861 -0.28834426 0.028137535 -0.009031071 0.06046403 -0.025580958 0.11649709 0.18222208 0.05830916 0.036798924 -0.1417453 -0.23332171 0.19846877 -0.14204863 -0.03070049 -0.040179856 0.14573361 -0.16530918 0.01493739 0.059534013 0.1857528 0.05744114 -0.22927782 -0.028348757 0.06772402 0.25023803 -0.18624258 -0.07221108 0.11706085 0.27402416 -0.15913808 -0.2295912 0.07381356
文 0.3043358 -0.24197312 -0.10031974 -0.21503693 -0.17698953 -0.08248732 0.08132103 0.0005237004 0.11901219 -0.09118865 -0.028860394 -0.110936694 -0.08490336 0.09847306 -0.13421197 -0.01909379 -0.008107303 -0.010351919 -0.18517408 0.17838179 0.044061244 0.06970403 -0.13349979 -0.19844306 -0.14905919 -0.1610203 0.12916043 0.05030327 -0.10348655 -0.072400786 0.030304056 -0.014942713 -0.4895004 0.09006208 0.019653756 -0.10395994 -0.110018976 0.017782459 -0.046791326 -0.13076267 -0.10918935 0.0039173267 -0.19176473 0.1982204 0.13113073 0.0030707424 -0.059430968 0.17852211 -0.12763266 -0.012540534 0.10951616 -0.26476765 0.049782343 0.016322583 -0.04973809 0.098460846 0.0217166 0.14089274 -0.05084035 0.043924063 -0.070003025 0.25166062 0.20675214 0.02346953 -0.24600714 0.14197452 0.19371651 -0.035160303 0.08394197 -0.08226795 0.08755802 0.065935895 0.054415487 0.09241533 -0.063489415 -0.03749554 0.1585922 -0.0642944 -0.0055984394 0.07005793 0.15482357 -0.113809615 0.02498936 0.04656816 0.019894982 -0.0007357986 -0.19032152 0.20150253 -0.12009477 0.038003914 -0.0074486323 0.11559328 0.068054296 -0.051898655 -0.169242 0.2986223 -0.08646001 0.16928838 0.16943286 0.05244002
政 0.03642566 -0.12279067 0.005269708 -0.14056677 -0.091955446 0.15042599 0.11582668 -0.31968778 0.032719184 0.0032185535 -0.10585892 0.06722962 0.22150819 0.22837532 -0.12019579 -0.053491093 -0.114259936 0.18970215 -0.051832594 -0.0991541 -0.18209822 0.17482026 -0.12852485 -0.1921797 0.015657399 0.03505053 -0.13024628 0.16629994 -0.04573728 0.043157052 -0.105756655 -0.0140491035 -0.49265677 0.1616318 -0.0510451 -0.021860119 -0.067997515 -0.026075304 0.07543902 0.02981474 0.025575517 -0.068322144 0.0902906 0.23956606 0.07864155 -0.07961564 -0.11733325 0.15747662 -0.14627378 -0.0047955583 -0.18127252 0.0076695355 -0.069520794 0.051777404 -0.17238735 0.027952027 -0.10371215 -0.1455596 -0.18787147 0.030631775 -0.401802 -0.08992583 -0.10997394 -0.2860629 0.06643047 0.1650128 0.032293927 0.025500327 -0.23053814 -0.024670374 0.050997697 0.1712335 -0.048946686 0.010364393 0.12448208 0.27090934 0.09495036 0.15819351 -0.038593087 0.1011864 0.17727357 -0.0872614 0.10884163 0.10483523 0.102691606 0.21168756 -0.13649489 0.12064262 0.12880118 0.003546327 0.15994877 -0.10394755 0.09033216 -0.019942807 -0.076522775 0.10816707 0.20596048 0.15524769 -0.05069103 -0.120928325
食 -0.09504852 -0.04717065 -0.1824604 -0.009374743 -0.11003535 -0.052232567 0.15911502 0.17899452 0.047204863 -0.34200907 -0.43359834 -0.119108036 -0.073017545 0.15346406 0.038505144 -0.13461883 0.02399674 0.0013487008 -0.105623946 -0.09526597 -0.18275735 0.07117959 -0.054854035 -0.18488571 -0.052113168 -0.21527627 -0.13479693 -0.13798228 0.05668803 -0.15475091 0.106957115 -0.036948018 -0.5108065 -0.0797069 0.07792367 -0.08849712 -0.017911311 -0.088397846 0.10588942 -0.009271117 -0.070189565 -0.16199999 0.11609537 0.12499997 -0.04490206 0.05338997 -0.16962864 -0.02073605 -0.2684404 -0.051031433 -0.12975678 0.078512 0.012566 0.056612015 0.30023277 0.28720206 0.02521334 -0.12711464 -0.21505803 -0.2733913 -0.108987466 0.08582804 0.049652178 0.032710373 0.052539043 -0.024969894 -0.07760768 0.086706094 0.010850248 -0.0054936823 -0.14216138 0.04705509 0.043736123 0.09683949 -0.16443644 0.23708548 -0.06312068 -0.010337021 0.12770121 0.03239677 0.19449727 -0.3571477 0.03361927 0.1531997 -0.13523668 -0.088551596 -0.24336374 0.22581801 0.10266299 0.19422644 0.03996169 0.18803754 -0.22325829 0.029144727 -0.12589474 -0.19513649 -0.20400973 0.14499894 0.17801197 -0.088293165
善 -0.030383334 0.096335456 0.07363461 -0.1250147 -0.02171804 -0.24477904 0.0482522 0.052965958 -0.01116248 -0.17446287 0.053620134 -0.31482184 0.029868249 -0.07147753 -0.110161446 0.06662698 -0.046878334 0.04124264 -0.14880665 0.047020894 -0.20324032 0.10745155 -0.08360733 -0.20606618 0.15554802 -0.06785131 0.03471273 0.077155955 -0.20473592 -0.22592504 0.14041516 -0.3124177 -0.47034818 -0.04840557 0.29469725 0.19791624 0.20900606 -0.013369446 -0.060733125 0.34113207 0.15099849 0.119765624 -0.0054237386 0.19130021 -0.5949152 -0.23860663 0.0026285006 0.010506278 0.18737915 0.17393708 -0.07745431 -0.17708218 0.110469505 -0.16258761 0.4094049 0.15688655 0.09776518 0.29554263 -0.17985073 -0.003515129 -0.12724487 -0.072571106 -0.31391072 0.018156875 -0.018869858 0.36084226 0.01412285 0.25071946 0.105191275 -0.29464173 -0.08019447 -0.05748075 0.076643616 -0.26807335 0.25669155 0.117053 0.21593149 -0.22529303 0.2284597 -0.030979268 0.031888146 -0.013114466 -0.04969111 -0.026489101 -0.07906362 -0.15628901 0.29947355 0.2479568 0.08757177 -0.06733118 0.34217 -0.17015009 0.11147949 0.08566033 -0.12813118 -0.017968886 -0.14055403 -0.07783717 0.17113529 0.124394946
后 -0.12655842 0.11548649 -0.012436366 0.032950826 -0.14301991 0.017288394 -0.0016461262 0.10583615 -0.09855785 0.12774973 0.09750593 0.14457619 -0.013736512 0.13654652 -0.36131355 0.14779176 -0.028887311 0.1627 0.04357852 0.025854034 -0.14451914 0.28309852 -0.081384175 -0.21358599 -0.059527133 -0.23160979 -0.22468436 0.16650742 -0.11463187 0.085333735 -0.050271872 0.09729917 -0.41044614 -0.38636795 0.32550776 -0.18667601 -0.17215861 0.10190797 0.3425072 0.12283567 0.062202174 -0.06804376 0.13512757 -0.13008204 -0.1831024 0.06725741 0.1555574 0.06335862 -0.25410146 -0.16666096 -0.14109424 0.021248333 0.092436895 0.16777936 -0.025975768 -0.039037332 -0.053692922 0.17621733 0.038191367 0.23128997 -0.15204723 0.020095587 -0.0017723637 -0.01138347 -0.14929785 -0.06722144 0.19507135 -0.24822278 -0.23194091 -0.04696464 0.08576649 -0.060331557 0.0588536 0.017304642 0.117120266 0.13377036 0.17064479 -0.040640004 -0.021573564 -0.2288327 -0.08571621 -0.16014628 0.07024313 0.15567239 0.17865314 0.16514279 0.14714839 0.16104308 -0.0059086853 -0.12098981 0.17000853 -0.13307782 -0.17281787 -0.022193326 0.21493556 0.24841195 0.029811027 0.03714213 0.19483204 0.10880269
德 -0.006045506 0.049452014 0.18471697 0.33321205 0.1604339 0.11350051 0.10256092 0.10041827 0.07658451 0.019340202 0.12651825 -0.018110987 -0.061238535 0.04327079 0.26487464 0.22447205 0.06211856 -0.054822464 0.06816182 -0.031070154 -0.030669391 0.032366943 -0.095923856 0.18051277 -0.011927025 0.1636171 -0.08850402 0.16017753 0.26637426 0.027355114 0.022383595 -0.14922832 -0.4767926 0.3606206 -0.06774299 0.10579386 0.0055504697 0.101692915 0.047473244 0.00401955 -0.07637956 0.15098636 -0.22823764 0.16521627 0.048364088 -0.07463932 -0.0060441885 0.38039768 -0.100630745 -0.082255475 -0.08087135 -0.22434124 -0.11016303 0.21534355 -0.053108886 -0.17446418 0.05768867 -0.009015448 -0.1102439 -0.07532125 -0.018321237 -0.009757094 0.27421683 -0.08334781 -0.17195864 -0.05980159 0.27156934 -0.22644305 0.11435161 0.15408388 0.042615842 0.29624784 0.05186623 -0.07338957 -0.0784773 -0.14681078 -0.12660831 0.11085197 0.102510914 0.050416376 -0.017126052 0.019746356 -0.20696083 0.048486795 0.12078837 -0.28142524 -0.020898232 0.11745555 -0.21882918 -0.057632662 -0.09423909 -0.08101273 -0.09330303 0.17049481 -0.035724603 -0.13890721 0.10940339 -0.18026824 0.009557769 -0.081521876
求 -0.042698894 0.06425032 0.015948365 -0.22673938 0.019856587 0.09548374 0.196476 0.0059306975 0.025668215 -0.06858595 0.17195462 -0.009412305 -0.13996482 0.14148234 -0.19353057 0.03281586 -0.12500542 0.011609744 0.1929138 -0.04999762 0.10473734 -0.04381053 0.08068276 -0.14729232 0.20466736 -0.21416835 0.045695394 0.2573745 0.13028036 0.10265013 -0.057278994 -0.058575705 -0.46260387 0.12117957 0.05663816 -0.22199856 -0.044164293 0.013282198 -0.058019157 0.11792865 -0.1012779 -0.23571272 0.009483196 0.08727839 -0.05621363 -0.28145018 0.088574156 -0.091855 -0.23333582 -0.023019273 0.17130557 0.13362041 -0.045778368 0.16714956 -0.0021083693 0.27699637 -0.1211129 0.089808196 0.21443573 0.032890916 -0.16112533 0.075137004 0.03184658 -0.07596122 -0.065717556 -0.06587446 -0.14919873 -0.06894933 0.09827635 -0.11944872 -0.1165992 0.0046652695 0.0060073817 0.24439313 -0.18364081 -0.08288516 -0.122286215 -0.12737612 0.12682788 -0.038951527 0.03501815 -0.025951765 -0.053103916 0.098066024 -0.26793823 0.048377145 -0.0026961765 0.110642046 0.18041757 0.100250386 0.013410291 0.18552724 -0.047817744 -0.12057647 0.024078904 0.16103795 0.14408514 0.21211761 -0.18627964 0.05230799
对 -0.21558343 -0.109599 -0.04544042 -0.1766868 -0.09324183 -0.20783676 -0.1131657 -0.025437085 -0.15938841 -0.021683384 -0.18807402 0.09498015 0.001433678 -0.040779788 -0.025956454 0.1963256 -0.006317153 0.35266805 -0.2977743 -0.1974335 0.058435686 -0.22206922 0.30092344 0.12555212 -0.2518739 -0.009347556 0.16745554 0.37299058 -0.1719246 0.017027617 0.12310685 -0.021662427 -0.7854587 -0.37636682 -0.12520292 -0.124047376 -0.026586106 -0.06379386 0.07680827 0.022519661 -0.086847015 0.115134925 0.21782003 0.1946928 -0.07061624 -0.14412476 0.085027196 -0.15864725 0.086696066 0.2967955 -0.042009022 -0.11874434 0.017225781 0.10694471 -0.17194678 0.18784085 -0.14052568 0.20200878 -0.1181544 0.018579427 -0.123430684 0.092025205 0.058527287 -0.06958392 0.11253354 -0.042596657 -0.033274714 0.25685355 0.17609335 0.06322408 -0.3370902 0.13398795 -0.118371435 -0.028209807 -0.027340773 -0.121945344 0.22837447 -0.048279196 -0.18974712 0.025483424 -0.27602875 0.22092444 0.08918849 0.28262714 -0.03298422 0.012892997 -0.18361315 -0.18962497 -0.038213007 0.20088841 -0.084371224 -0.24437591 -0.237836 -0.020303357 0.053824175 -0.13235496 0.17365348 0.06123094 -0.14158012 -0.059714068
恶 -0.1429925 -0.16872355 -0.04148425 0.1889025 -0.122258276 0.2878627 -0.1566117 0.1395414 0.24531521 -0.104097165 0.20518188 0.05150258 0.020230407 -0.093934216 0.07475442 0.062727466 -0.087496385 0.10299671 0.010369938 0.15127017 0.058180414 -0.32903612 -0.018972006 -0.02935751 0.06782878 -0.14573912 -0.010202595 0.17823015 0.00015720213 -0.05143741 0.03740599 0.010465169 -0.36773625 0.14849111 0.09454498 0.06635504 -0.10603263 -0.14972597 -0.119350694 0.10046856 0.24439527 0.24354021 -0.10064402 0.0002643966 0.12659568 -0.078593336 -0.15370564 0.07923089 -0.051804002 -0.09699337 -0.035993796 0.09630074 -0.03574943 0.056566086 0.09317289 0.110996135 0.13969983 -0.022756914 0.11303231 -0.056492757 0.21003799 -0.0045952657 0.12522224 -0.12956434 0.15791817 -0.11785855 -0.22457376 0.07137524 -0.1422985 -0.31130016 -0.12327335 0.023664879 0.16445486 0.09929062 0.23713478 -0.17283608 0.024700463 0.13257778 -0.020976601 0.007606774 -0.10943842 -0.09884411 -0.09055215 -0.17779012 -0.09557788 0.089447446 -0.06138893 0.2701062 -0.19330879 -0.24964121 0.07578724 -0.011269791 0.025582688 0.1825918 -0.021055514 0.110296376 -0.072775856 -0.040954147 -0.056148257 -0.01981963
信 -0.064646244 -0.13278896 -0.26810122 0.09224961 0.18914083 -0.033365447 0.011613717 0.15367417 0.0098609645 -0.059539996 -0.11979929 0.15238431 0.02479769 -0.14611326 -0.19726951 0.1711978 0.07596194 0.106707014 0.09151108 0.041513316 0.105377324 0.029170986 -0.060493212 0.16455925 -0.0859737 -0.24087875 -0.14078918 0.29533246 0.03652505 -0.20452929 -0.256579 0.25279245 -0.3301636 0.102135494 0.24949668 0.13519874 0.06934688 -0.08233408 0.1612734 -0.10075929 -0.31839955 0.023398273 0.22626813 0.25885797 -0.37436196 -0.16481183 0.053430285 -0.03650535 0.06552498 0.0777297 0.065370746 0.02060469 0.0156422 0.15509441 -0.062753096 -0.17921977 0.22688922 0.33952743 -0.23056936 0.01688908 -0.110783204 0.10589655 0.29860345 -0.028074695 -0.12669837 -0.07294026 0.013015569 -0.12551944 0.11763698 0.07508741 -0.2693524 0.003959217 0.08775602 0.0061715078 0.03765451 -0.02214852 0.049244165 -0.03997236 -0.13084254 -0.12698464 -0.12329442 0.14178409 0.09574385 -0.035775002 0.06532131 0.14036056 0.086639896 0.58788764 0.1370212 0.015498087 -0.1308046 -0.12452171 -0.17239173 -0.051172327 0.32059747 0.04672637 0.12942226 0.2452176 0.1332689 0.036624834
死 -0.029805517 0.029406859 0.058557793 0.07697318 0.063749276 -0.016563468 -0.26059845 -0.31339288 -0.13182487 -0.16610163 -0.027340766 0.1252631 -0.08366202 -0.30171016 0.021092806 0.0038599372 0.0178953 -0.073105074 -0.20152135 -0.021989377 -0.24470192 0.123800285 -0.07386418 0.043967254 -0.029942982 0.077989995 -0.0019876463 -0.06528203 -0.2948743 -0.1623106 0.0119482465 -0.087410875 -0.40562677 -0.024223302 0.21096706 0.028339157 0.054361843 -0.010697631 -0.04031209 0.099907786 -0.16653112 -0.14840987 -0.12066716 0.10137133 -0.17982993 -0.15546247 0.012942066 -0.039158855 0.040180836 0.0407844 0.12771206 0.036288675 -0.06068318 0.08567247 0.19314322 0.11339955 -0.31182322 0.21163961 -0.04615298 -0.038852967 0.024827832 -0.15906473 -0.042617656 -0.21906194 0.065429814 -0.0536594 0.21066739 0.026652647 0.00053353165 -0.058679428 0.010146967 -0.0045592794 -0.06486124 -0.043463223 -0.17146498 0.1590763 -0.22227646 -0.20562658 -0.024288435 -0.083166525 -0.21999145 0.2516538 0.0029789752 0.021464923 0.068983 0.12711336 0.13796358 0.2155374 -0.25778466 -0.09642771 0.14151141 0.12593551 -0.16169557 0.15675852 0.17790744 0.07385824 -0.21129657 0.093150645 -0.039077498 0.08032053
