1352 50
， -0.017741423 -0.005065319 -0.017562903 0.009122685 0.010844231 0.015959684 0.012132175 0.006449979 0.0035216473 0.009525791 0.0011905581 -0.01690958 -0.0028949883 0.00022893958 0.0103372205 0.0013405867 -0.0014809538 0.0114782825 0.018407736 0.0076363944 -0.00648956 -0.0128489565 0.0053210612 0.017712574 0.0034319106 -0.01680055 0.016547635 -0.0095118685 -0.009823036 -0.0025471095 0.00090718083 0.008080101 -0.007871565 -0.0046455096 0.008017175 0.010336263 -0.004950938 -0.005501995 0.016523093 0.016938727 0.004607003 -0.017791374 0.013019834 0.018542144 0.008447472 0.007719958 8.553453e-05 -0.0113847535 0.013982106 0.0020525511
子 0.012205727 0.008216586 0.0188125 0.006873606 -0.0018804725 0.019307151 -0.015143421 -0.012925222 -0.0039128847 0.013441671 0.018635992 -0.0055568833 -0.010325823 0.011223527 -0.0041582733 -0.01996857 -0.0025090259 -0.0009207502 -0.01638635 -0.018118756 0.0028876718 0.010449911 0.0081203 -0.009350841 0.002671117 0.017184827 0.013929885 -0.0016178563 0.0016458295 -0.010750055 0.016424231 0.0014403481 0.006028954 0.0077509526 -0.015884018 -0.010530388 0.007670967 -0.016873673 -0.009478235 -0.0070632743 -0.002694318 0.008341486 0.00898556 0.011517219 -0.019112183 0.0023460388 0.008995375 0.013463546 -0.0139560625 0.017963063
。 0.0074988157 -0.007094402 -0.013701968 0.019513842 0.01058989 0.01745807 0.009434627 0.006758699 0.002414314 -0.013658435 0.0020769257 -0.018861169 0.018897265 0.014269058 -0.008958661 0.015932322 0.009785049 -0.009825966 0.010932596 0.01683613 0.0027347524 0.0013011266 -0.0021298006 -0.0192189 -0.005487752 0.012494218 -0.013800213 -0.019784512 -0.011168935 0.018385202 0.019585002 0.005640045 0.015257329 0.00049068406 -0.019007694 0.014992364 -0.006744096 -0.008565726 -0.015147058 -0.008413932 -0.014447555 0.006779529 0.013793755 0.019928094 -0.015820272 -0.0046151513 0.003696382 0.0058445316 0.00864348 0.011714261
： -0.011811039 -0.0034567881 -0.00583087 -0.0180703 -0.015516696 -0.011012819 -0.01901225 0.001266839 0.016755857 0.0007227715 -0.0071186163 0.017218236 -0.0007635299 -0.0034231395 -0.015197351 -0.005274603 0.018967517 0.0026311222 0.01924517 -0.0077188797 -0.014361283 -0.0063634487 -0.002934439 -0.011591398 -0.0029213522 0.014717177 -0.018069424 -0.019122425 0.017677523 0.01637917 -0.0156151885 0.013768502 0.009016227 -0.005401142 -0.01623761 0.007274648 -0.017121008 -0.01264625 0.015726265 -0.01995993 0.013751343 0.013030067 0.0015832111 -0.0040964 0.0066744965 0.0009425301 -0.013867047 0.011918258 -0.0194191 0.0041155145
曰 -0.0016114954 0.016525544 -0.00512325 0.0013842396 0.011696495 -0.0033880621 0.0036829878 -0.013439698 0.00027779117 -0.007532494 -8.967891e-05 0.006930545 0.013005812 0.00085718185 0.015125126 0.007667601 -0.015317848 0.012654636 -0.013278935 -0.018414848 0.014105346 -0.008040356 -0.018978732 -0.0074084373 -0.0067995666 -0.015176758 0.0013486482 -0.0042079166 0.018572424 -0.00022704154 0.008620176 0.0098250955 0.0058074687 -0.006830897 -0.0068139667 0.00082934834 -0.017934477 0.0038502477 0.008112881 -0.0005157273 -0.009359438 0.017885588 -0.007441151 0.019155998 0.00832401 -0.00014158711 -0.0011403188 0.017896522 -0.018987374 0.016325507
之 -0.0076741865 -0.018232673 0.007570304 -0.006922517 0.009780118 0.011226615 0.017135635 0.0015356857 -0.004556136 0.015908498 0.0014583226 -0.014348226 -0.01700848 0.0037755445 -0.012333922 0.015920322 0.011001866 -0.006837506 0.013932403 0.0049575903 -0.016142324 0.015972778 0.015690755 0.019076072 0.018886138 -4.1646883e-05 0.017783586 0.018663991 0.017201114 -0.0016162023 0.016627755 0.017254714 0.012292657 0.0064566582 -0.012210459 -0.0003841687 0.0030131768 -0.0001671426 -0.015574307 0.011106884 -0.004159663 0.009852001 7.998012e-05 -0.017826227 0.0059210397 -0.001471024 -0.001650257 -0.0016084667 -0.009838016 0.0012854859
不 0.0025141947 0.013310999 0.009739254 -0.014607401 -0.005758049 0.000343211 -0.0020312406 -0.0027630776 0.014411584 -0.013174586 -0.015001861 -0.016533773 -0.007980995 -0.0055801226 -0.008256978 0.013157282 -0.006299123 0.00068513677 0.003272213 -0.0013543796 0.0049927086 0.009579126 0.018428434 -0.011526872 -0.015297541 0.0012813322 -0.006833026 -0.009463067 0.001460027 0.001416171 0.019249812 -0.012468254 -0.011533615 -0.010444334 0.009121958 0.01597112 -0.00284197 0.002283303 -0.0163598 0.010589447 -0.0051579783 0.012098592 -0.01916796 -0.01315011 0.01740798 -0.011704457 0.0010318998 -0.00685117 -0.006901758 0.016677778
也 0.002175618 0.008062391 0.0048674233 -0.002473889 0.008780781 0.015873555 -0.0034789816 -0.0027678497 0.016585294 -0.012496078 0.013093639 0.0036833398 0.0117357 0.009714508 -0.013078708 0.01697579 0.012696188 0.00057331286 -0.0193715 -0.009404358 -0.010083272 0.013902072 -0.00010687858 -0.006646483 -0.014576452 -0.011587068 0.015463032 0.015981235 -0.017491426 -0.007862275 0.007557662 -0.003689075 -0.0041681305 0.01876815 -0.019578246 0.006236799 0.016716123 -0.0006326493 -0.01662509 -0.008068452 -0.0053856326 -0.015911119 -0.010617776 -0.019181984 0.000488339 -0.0059678433 0.019100305 0.005195463 -0.017422158 -0.016511563
而 -0.014793019 -0.0053267097 0.018838271 0.016773324 -0.002911592 -0.011130052 0.010382092 0.0051426273 0.01082731 -0.0077353045 -0.018426538 0.018815625 -0.012332533 0.0018245187 0.0032563396 0.0024631862 -0.008386922 0.019346539 -0.0004054252 0.015765902 -0.006859865 -0.011795568 0.018903099 -0.014455993 0.0030586328 -0.0029531121 -0.0011944119 0.01974861 -0.010006532 -0.014048357 0.013371486 0.0038319398 0.0058271047 0.004259592 0.014561232 -0.006071224 0.013521746 0.016421042 -0.01569093 -0.012368662 -0.005295501 -0.013564236 -0.019210408 0.018703654 -0.013344345 0.0012313947 0.009802459 -0.004457905 0.0073871687 -0.008798401
？ -0.008234382 0.018640488 0.011750445 0.00479801 -0.002256412 0.012375291 0.0086295195 0.010317335 0.0014503244 0.016519818 0.01908578 -0.01431684 0.01915636 0.008186761 0.00025834888 0.009693567 0.0010897424 -0.0014374256 0.0010848101 0.010954162 0.019868203 -0.017222133 0.00021667406 0.0068081524 -0.011949348 0.003034236 0.011626914 0.011798859 -0.007919414 -0.0026398841 0.0056696534 0.008044234 0.015177324 0.00550697 -0.006127894 0.01867418 0.015772205 -0.01975635 -0.013868403 0.0009636767 0.00029503368 -0.015532763 0.013251018 0.009277457 0.013350051 0.0173055 -0.017915277 -0.010422287 -0.0070319176 -0.005330381
其 0.01779297 0.007382769 0.004863009 0.01626144 -0.01948529 0.012518037 0.010155441 0.007473914 0.019390829 -0.01852171 -0.0004695002 0.012607943 0.019695833 -0.0031666178 0.016677037 0.0019985773 -0.019343227 -0.017092815 0.002343502 -0.0036012214 0.0050654616 0.006058339 -0.00010127574 0.012044691 0.013923451 -0.014122836 -0.01649768 -0.009776387 -0.005913751 -0.0060998583 -0.0034529567 0.0052442234 0.019683309 0.0004159119 0.012030434 0.0128731355 0.014151994 -0.019284531 -0.009360439 0.017872728 0.007900868 0.0038915928 0.003310198 -0.016081685 0.017173365 -0.01643214 -0.008157518 0.005641872 -0.010313639 -0.014959192
人 -0.015407547 -0.016711507 -0.0039259363 0.006171331 0.019603375 0.012144372 0.006543262 -0.012329536 -0.015437634 0.012392286 0.015961159 0.015967928 -0.00641499 0.0020627435 0.014023282 0.009549456 -0.011592736 0.018568233 -0.012323609 -0.012428634 -0.019935774 -0.010671368 0.018116638 0.014789663 -0.014795935 0.014671836 0.0073458236 -0.014656171 0.0123472735 0.009333679 -0.017690683 -0.0059957244 0.015319999 0.009449659 0.004353566 0.014562294 0.010993274 -0.01621899 -0.014670746 0.018600613 -0.012830334 0.018321477 -0.01121783 -0.011638963 0.00437022 0.010708878 0.008015687 -0.0018284768 -0.017312154 -0.013528366
者 0.0026008226 -0.012325363 -0.007829969 -0.005303776 0.0063009206 0.01030926 -0.0075129652 -0.0022047423 -0.007125451 -0.012360176 -0.017549854 -0.019750953 0.013278548 0.013840631 0.011389747 -0.008896932 0.017430183 -0.008319249 -0.019791415 0.019543044 -0.007870312 0.013447564 -0.014019072 -0.012535345 0.0058640484 0.014332127 0.014039736 0.017771784 0.006990481 -0.011861708 0.019465886 -0.0033628996 -0.009265878 0.008569883 -0.016835677 -0.0040434506 -0.017642137 0.019861344 0.009452628 0.011066565 0.007524485 0.01807968 0.0138686 0.012754429 -0.01195312 -0.0045635393 -0.010185323 0.009015905 0.0134672 -0.004826283
以 -0.015205817 -0.012983813 0.004859578 -0.001786096 -0.015086443 -0.014829943 -0.01216346 0.017541073 0.0070092827 0.011766069 0.019988757 0.015682608 -0.0022657514 -0.008086197 0.006791234 0.00945982 -0.0068648644 0.017973967 -0.0038406197 -0.0031230468 -0.009806733 0.007674467 -0.0036767647 -0.01579634 0.017709192 -0.0063473107 0.002364995 0.01590754 -0.013666479 -0.014493417 0.018102303 -0.0057769604 0.0031650737 0.0054959543 -0.0041638874 0.018371258 0.001553677 -0.010648989 -0.00071647204 0.013485398 0.01376937 -0.005447848 0.0031247307 0.01195807 -0.0034909006 0.012366086 -0.0038354322 0.0015119556 0.018061142 -0.005531881
有 0.017594252 0.016574852 -0.009572472 -0.014929743 -0.012859464 -0.0019830205 -0.011478262 -0.0028327163 -0.017189914 -0.018716805 -0.011729338 0.012161039 0.012195621 -0.018387219 0.012225606 0.002710592 0.0013948455 0.0032839458 0.00019777566 -0.01718171 -0.008141992 -0.011935968 -0.0068499185 0.016809367 -0.019775998 0.018333483 -0.0161508 0.012514222 0.017119989 0.013055101 -0.00887233 0.0055605937 -0.014581002 -0.012003911 0.0039137267 -0.0014025662 0.0029240493 0.018995658 -0.018854178 -0.015957773 -0.011102933 0.013246261 0.006742945 0.0029384382 0.009625915 0.006122783 -0.0049144747 -0.013992377 -0.0032011513 -0.01257853
于 0.0014605541 0.004658183 0.010303734 0.015247479 0.01787496 0.00029048137 -0.012037494 0.009187307 -0.019014474 0.017023202 -0.017575702 -0.002310941 -0.019740138 0.010749344 -0.013098879 0.014220655 -0.0076571507 0.016677372 0.0059133023 -0.013206079 -0.019845732 0.010521146 0.019800961 0.0073568206 0.009105962 -0.005447154 0.0014085956 -0.012235341 0.012702592 -0.0045703407 0.018128246 -0.0003817957 0.007748414 -0.01579364 -0.015100207 -0.00090995803 -0.009897458 0.0034082178 -0.004287675 -0.0020665713 -0.007305474 -0.01606097 0.0030506458 -0.014398472 0.012131155 -0.011451666 -0.007108994 -0.009859498 -0.0030237362 0.016782768
矣 0.0103433505 0.009167867 -0.012428646 -0.015262527 -0.017348323 0.0107356515 -0.0023367554 -0.009206371 -0.006765268 0.017798305 -0.015235502 -0.018697418 0.0019177869 0.01965639 -0.010301706 0.018166121 0.019838434 -0.008800449 -0.0069601107 0.018723372 -0.018360619 -0.009549916 -0.0021486953 0.013658609 -0.0055838088 0.019647513 0.0007274896 -0.014383237 0.01836301 -0.017460713 -0.0040041488 0.009907538 -0.0046596117 -0.0010799188 -0.0013013743 -0.017903324 0.018754043 0.0015034825 0.016510703 0.0071930327 0.016839001 -0.005842223 0.007934492 -0.018160459 0.015573371 -0.0054282593 -0.008571267 0.002448637 -0.0026739258 -0.019628946
为 0.008015128 -0.007882375 -0.011332786 -0.017872715 0.014397524 0.018030886 -0.0035633966 -0.011448026 -0.0031324457 -0.0051878644 0.012684997 0.019117877 0.0076165795 0.01805015 0.0067470353 0.012696274 -0.0074164867 -0.012086298 0.013810821 0.005201688 -0.018741574 -0.004634504 0.006603785 0.018614963 -0.013570081 0.0030379985 -0.012720976 -0.009678278 0.01915561 -0.0039429124 0.016946692 -0.006855326 0.013335135 -0.018329725 0.008297095 -0.0011383183 -0.012855966 -0.01912237 -0.002310641 -0.0119982315 0.0091033615 -0.0073293997 -0.01202024 -0.00019451603 0.0011305492 0.0031581707 0.0114681125 0.01576759 -0.0026157144 0.009615874
君 0.01326403 -0.016960306 0.019742273 0.016904522 -0.0094539495 -0.0006517824 -0.0083094975 -0.0136984605 0.0012779217 0.0027118474 0.005340839 -0.0035645198 0.0039166864 0.018992815 -0.015244107 0.014250182 -0.008636024 -0.010399559 -0.004806867 -0.017123496 -0.008884242 0.013148475 -0.0041308776 -0.00974864 0.009230787 -0.017174678 -0.0017010309 -0.0038001016 -0.018830266 -0.004850476 -0.003288446 -0.017587405 0.01948044 -0.01725266 -0.00024649128 -0.0028584935 -0.016298052 -0.005289483 -0.015622749 0.010700105 -0.01922037 -0.007327645 -0.017354982 -0.0024152715 0.004809737 -0.014123199 -0.007912819 -0.009612045 0.016119447 0.019662675
乎 0.009827709 -0.011393905 0.016825642 -0.014289598 -0.017014097 0.004442515 -0.015980668 -0.018001303 0.008095266 0.0061089583 -0.00017441995 0.017840642 -0.010458884 0.0070714448 -0.013118526 0.010853086 -0.0030000545 0.004315771 0.009599926 0.0028136037 -0.007453995 0.0048301816 0.0022391267 0.014021192 0.01586499 0.010408955 0.008747604 -0.004884543 0.002031548 0.00019804388 0.002933571 0.015403692 0.009035995 0.0010527521 -0.007853322 0.0039403383 -0.0057839705 0.010359142 0.009462716 -0.009936562 -0.013953507 0.005751783 -0.014619172 0.005573185 -0.017386392 0.015626885 -0.0024878327 0.00907927 -0.014082126 -0.008196857
可 0.008963013 -0.018732458 -0.00810303 -0.004334314 -0.014116976 -0.011730005 0.0110488795 -0.006696486 -0.005764682 -0.00023409165 -0.009730303 -0.011528298 -0.009225245 -0.0036803652 0.014137734 0.014781304 0.01957015 0.0014074445 -0.009146335 0.00035187788 -0.011811512 -0.0017578714 -0.016819043 -0.018323926 -0.015853208 -0.00342465 -0.010425834 0.0190586 -0.014264906 0.014389671 0.002654288 0.0064298604 0.018513016 0.011758044 -0.004913509 -0.009564163 -0.019029561 -0.008592701 0.012722317 -0.015359379 -0.018744787 -0.0034158416 0.010966407 -0.003872659 0.016180582 0.009535907 0.015857145 0.019759718 0.01541109 -0.00044444762
如 0.017600734 -0.019012596 0.015071791 0.0170746 0.0010841247 0.003838813 0.012717821 -0.0053279903 -0.0027153585 0.0081853345 -0.0026832987 0.012645211 -0.0046007866 -0.007794087 -0.015204596 0.006742796 0.012026824 -0.012267267 -0.013777394 -0.015436616 0.012794726 -0.01815354 0.006060466 0.017923936 -0.0034381934 -0.011539874 0.01883601 0.00236227 0.0020864718 -0.015625503 -0.004425628 -0.016174724 0.00038737245 0.010054387 0.0180245 -0.019187996 0.0019232351 0.012057666 0.012815088 -0.019558081 0.018973801 0.008155523 0.006365655 -0.0065598246 -0.006433191 0.003358489 0.019908458 -0.015728232 0.015100408 -0.013024176
与 0.015186898 -0.0007215291 -0.0076662274 -0.009486833 0.009014668 0.0027994663 -0.0058741113 0.014719062 -0.0019302946 -0.008370196 -0.0068088677 0.018249977 -0.001888141 0.004545221 0.004618613 -0.019956652 0.0015156362 0.016888447 0.0011711121 -0.0038549975 0.0055433996 -0.019263161 -0.0071059586 -0.013585691 0.002829438 -0.0126485275 0.015800998 -0.004336998 -0.018854285 -0.015543515 -0.019391593 -0.0065574553 0.007920459 -0.016399128 -0.018247189 -0.0010531265 0.014264777 0.008551585 -0.009779504 0.019115463 -0.015960088 -0.014552104 -0.0032160208 0.0063318275 -0.006765508 0.01716784 0.01436498 0.002508238 -0.005373452 0.0071885493
； -0.013774864 0.013542071 -0.014403336 0.0017812457 0.019894049 0.012331624 0.01796873 0.0051218607 -0.0058550118 0.01856776 0.0037928987 0.007787153 -0.008314502 -0.00091147237 0.015975088 -0.010214317 -0.015399277 -0.018773498 -0.006802039 0.019187085 0.002765989 0.005519636 0.0029590838 0.010281524 -0.013015084 -0.012096049 -0.018956074 -0.014440386 -0.0026048496 0.0055129044 0.011160027 -0.010093064 0.005765941 0.016606703 -0.012531464 0.016457394 0.0016219039 -0.016319856 0.010113327 -0.008448462 0.0026061106 -0.014931357 -0.005106344 0.007613821 0.011387423 0.019578487 -0.0071805837 -0.011575112 -0.0046294164 -0.0029428843
言 0.013805974 -0.015090675 -0.0023771767 0.00037390925 0.019576974 0.012882657 0.0125059895 -0.0068253754 0.018158324 -0.007320461 0.0016650073 -0.011131215 0.0033026524 0.005980961 -0.013684878 0.018532239 0.019990474 0.011294514 -0.0056661796 0.0046994407 -0.016338699 0.002501076 0.009590749 0.0045693927 -0.011524644 -0.007032726 0.018445846 -0.00902558 -0.00084144436 -0.007552054 0.012763999 0.0072602313 -0.009190695 0.012067847 0.0024901796 0.012512483 0.0070440248 -0.013233914 -0.018662386 0.013708502 0.016866017 0.0012810547 0.0054872707 -0.015380837 -0.0036784913 0.0011383109 0.0051075034 -0.0055065174 0.009717977 0.0017087739
无 -0.012634492 0.0015233234 0.004982069 -0.01655521 0.010536373 -0.018850602 -0.0063689854 0.0049046874 0.014788158 -0.0005275961 0.002136318 -0.006548848 0.014605556 -0.010373819 -0.016267125 -0.007788822 -0.013191141 -0.008326575 0.011466265 0.018631041 -0.009854271 -0.0071988534 -0.008923196 -0.0044684643 0.012246061 0.0036331583 -0.00031821802 0.019775193 -0.0019236263 -0.0146198105 -0.012979722 0.016103894 -0.002875641 0.016023315 0.01555175 0.0064720586 0.005369488 -0.016078249 0.017786734 0.006879231 0.001844639 0.016183056 -0.012392661 0.0007494334 -0.00023062155 -0.0076296283 0.0062124655 -0.009840612 -0.015527832 -0.0015706941
则 -0.007230768 0.013631184 0.0020609647 0.0034361463 -0.017327657 -0.009327588 -0.013465602 0.005119497 -0.0046916744 -0.002335785 0.019560251 0.018479615 0.0033254232 0.0059011094 -0.0047619054 -0.008167236 0.016456712 -0.0072224922 -0.012205224 -0.0043948907 -0.009290659 0.009617083 -0.0012818947 -0.01054362 0.002611896 -0.014538117 -0.0147462655 -0.00021106191 0.019525882 -0.0025384258 -0.0130969025 0.018382031 0.006316494 -0.018422637 0.011229541 0.007194996 -0.014561065 -0.017802881 0.006688945 0.015591748 -0.018224528 0.015847877 -0.012938799 -0.0066374326 0.019689817 -0.014743256 0.0055654477 0.004299622 -0.008103042 -0.0023004338
！ -0.0054400135 0.003990585 0.00033340976 0.009792432 0.019715358 -0.0107182665 0.0106124785 0.0065316763 -0.0061186673 0.0013432223 -0.015581433 -0.011728036 0.0076836087 0.004461469 0.018842135 0.019075323 -0.007606921 -0.005035486 0.018310077 0.011149006 0.007097127 0.008770017 0.018350072 -0.006077137 -0.01653902 0.01076173 -0.008973689 -0.0030462518 -0.014896989 0.00082471594 -0.010076122 -0.014218425 0.017594814 0.0035257451 0.0054221693 -0.012527497 -0.0076860804 -0.006682451 -0.0059951833 0.013311312 0.015552171 0.010142453 0.01423322 0.008653089 -0.0077886814 0.015418023 -0.010095028 -0.019579379 -0.017357843 0.0040671285
问 -0.015856652 -0.0038165264 0.0023497883 0.0071289893 0.0025786161 0.0057334583 -0.012689037 -0.00038249232 -0.00012273528 0.008884057 -0.009599785 0.012505341 -0.001699252 -0.0036209933 0.017586756 0.013045378 -0.010869162 -0.00020376593 -0.008297937 0.016745728 0.013647072 0.006648276 0.018779762 0.002226552 0.01720249 -0.0092833135 -0.011744811 0.004221281 -0.01892387 0.005888341 0.002980413 0.01591517 0.0166957 -0.001656549 0.010227568 0.004303567 0.004018493 -0.015324235 -0.008766825 -0.0048706075 0.0050334763 0.017540969 -0.004607532 0.010036223 -0.0101363035 -0.0076004025 0.015651394 0.012692586 -0.013043716 0.00042068213
知 -0.018585991 0.016026128 -0.01770237 0.00861579 -0.016704278 -0.004745285 -0.019727882 0.01630203 0.018267453 -0.008119826 -0.015815226 -0.0058103343 0.01770508 -0.015913874 0.004863521 0.002169542 0.0117899105 -0.000558462 0.0064162444 0.0067560226 0.009688634 -0.008570992 -0.0061711622 0.018894855 0.006381912 0.008992095 -0.0037520044 0.014194932 -0.0006031301 -0.010728745 -0.0033075567 0.009452643 0.016236525 -0.0048390264 0.018563095 0.0024309866 0.017412268 -0.012790861 0.0076980535 0.018871456 -0.008280649 -0.009653003 0.018832956 0.004453605 -0.001691062 0.013865273 0.011877824 -0.005783515 0.009045174 0.0072772056
何 0.01730534 0.0061551277 0.015181329 0.007062208 -0.0001872424 0.004370479 0.01718656 -0.01879179 0.010900453 0.0010337047 -0.007221505 0.004810242 0.006242968 0.013737574 0.014787741 0.0064532366 0.008663867 0.009085147 0.00114814 -0.0040071197 -0.011327056 -0.0073516173 -0.011494796 0.0133516155 0.01602726 -0.0072329715 -0.016699485 0.0013475604 0.013611212 0.0124273 0.015063938 -0.006292782 0.013624024 0.0069368687 -0.00695333 -0.005379906 -0.0075074984 -0.006315453 -0.016486997 0.016199805 -0.009910908 0.0090174 -0.00020962767 0.0021340065 -0.0052933497 -0.0167536 -0.0049863933 -0.0077540446 -0.00036799908 0.015371364
吾 0.013217159 -0.0068012355 0.019154605 0.0074362494 0.009112481 0.0021516941 -0.018224604 0.0016548652 -0.014322767 -0.01654933 0.0011055972 -0.015198387 0.0142273195 -0.014831309 0.011536196 -0.01782979 -0.012416711 -0.0006789919 0.013570346 0.009119049 -0.0060975645 0.013428323 -0.003106529 0.006540239 0.011704877 -0.012884488 0.0121255 0.006841829 0.019698184 -0.018592812 0.008323867 0.008521359 -0.015827045 -0.00038665533 0.019536465 0.019174878 -0.0012360569 -0.017774092 0.0068889186 -0.010642743 0.019560233 0.0127925165 -0.008933754 0.0171097 -0.0048704483 -0.017039513 0.0013979562 0.017290786 0.012593392 -0.0035051089
仁 -0.015827121 -0.01661051 -0.00910507 0.0030514784 0.009376487 -0.00895483 -0.004240351 -0.018751275 -0.0064401766 0.01887799 0.0043975525 0.018645704 -0.013815915 -0.012200732 -0.012006893 -0.015710235 -0.005444901 -0.014588665 0.019759264 -0.010079905 0.014544316 -0.0066624423 0.0046419483 -0.012071166 0.015604787 -0.011603799 0.0027427059 -0.008327293 -0.019104557 0.011379458 -0.0043392796 0.014220517 -0.012233348 0.01204557 -0.002522152 -0.009031828 0.0021454971 0.0066845454 0.019315947 0.01937582 -0.0055106683 0.019863117 0.00047419034 0.0049533527 0.0026387032 -0.016333155 0.008946409 -0.008359153 -0.016123392 0.009406023
夫 -0.019911846 -0.0055693267 -0.002478173 0.017564397 -0.001986334 -0.0135904625 -0.00818844 -0.010377712 -0.012983644 0.0017744992 -0.014762628 0.018166486 -0.0083621405 0.003434375 -0.0015230421 0.0012504645 -0.0038826987 0.013279937 0.01007111 -0.01836964 0.0018825438 -0.0075556105 -0.015423063 -0.006968896 0.003728142 -0.0023689512 0.015512068 0.004010901 -0.010283444 0.013919715 0.006857984 0.010587584 0.012318809 -0.011939468 -0.0013738051 -0.012562966 0.011676289 -0.013973322 -0.011836385 0.004736852 -0.00991363 0.018437952 0.00679004 0.00825127 0.0017277878 -0.006857779 0.013684738 -0.0015296843 -0.017402131 0.015797969
、 -0.0070001176 0.01839703 0.015680857 -0.0032416582 0.002058981 -0.013098814 0.014668044 0.019491956 0.01551573 -0.01421202 -0.0126187205 -0.008676593 -0.00016382523 0.017551355 0.0033570416 -0.018808935 -0.017687397 0.014683429 -0.01833358 0.016994309 0.0148836225 -0.0022723358 -0.016129104 0.014973681 -0.01561304 0.008151734 -0.0061944984 0.0052272193 0.018701486 0.010831509 0.016255207 -0.0071773333 -0.002758544 -0.018982822 -0.012403274 0.018306166 0.0041111596 -0.01931435 -0.01663629 -0.014850545 0.010077095 -0.011161584 -0.012035575 0.0037686545 0.0063802525 0.007082332 -0.0133976145 0.018685918 0.014330905 0.0064341407
道 -0.013546314 -0.0019053295 0.0067918114 0.0083056465 -0.017863728 0.0029317513 0.002088938 -0.0010587126 0.014591146 0.01382751 0.0069135204 -0.0178448 -0.017341789 0.015456945 0.016486362 -0.011401617 -5.280599e-06 0.011734568 0.017685521 -0.005540247 -0.013444216 -0.009641828 0.007849844 0.0069230366 0.004607396 0.007546339 -0.0094628455 -0.0034647696 0.00890076 0.0058370084 0.0150626935 -0.012996711 -0.019739155 0.009716161 -0.0048453994 0.017768256 0.015451577 0.012634665 0.013703112 0.0113962665 0.00010210462 0.00023291633 0.01664674 -0.00745584 0.010402197 -0.008528332 -0.008261311 0.010548115 0.010093227 0.0009078961
焉 -0.0070968745 -0.009698269 -0.007533934 0.016341396 0.0040393975 -0.00970427 -0.015231824 0.004826214 0.014339253 0.0036326814 -0.006000812 0.006302392 -0.0049557015 -0.0038414765 -0.0060522296 0.018396799 -0.0071374774 -0.0020438507 0.0139525905 0.015371133 0.005483987 0.009658765 -0.0078891255 -0.01234051 0.00030765496 0.0151136 0.0046806913 -0.003907766 0.004628349 0.004476711 0.015060928 -9.0975314e-05 0.018208511 -0.015028205 -0.01996473 -0.013265726 0.0054834858 -0.015589945 -0.011709182 -0.011951675 0.011651386 0.015670002 0.0076987725 0.018209029 -0.01816599 0.01147528 -0.009963496 -0.018464698 0.013125535 0.019584976
行 0.0063791126 0.008496858 -0.016479023 -0.0122451205 0.0071628783 0.017745283 -0.017401109 -0.007766189 0.0035415627 -0.004693305 -0.0068419026 0.0036114622 -0.004540894 -0.01900485 -0.01570682 -0.019739572 0.0052923765 -0.012983954 -0.00022045895 0.007325165 -0.019428214 -0.0058627436 -0.013359737 0.002846282 0.012171201 0.012700655 0.0046619773 -0.016387964 0.01603809 0.0028757453 0.005552098 0.01244048 0.0014022961 0.014708273 -0.0035403036 0.017141655 -0.0077340575 0.007609019 -0.003868904 0.019971162 -0.0056160428 -0.009701633 0.018872939 0.006782027 -0.014066872 -0.0028545614 -0.008861794 0.0198115 0.0019710548 0.001044469
谓 0.011617903 -0.01650836 -0.011338746 0.016895588 -0.012673261 -0.0025425628 -0.015343418 0.019795612 -0.015219915 0.018635482 0.009855544 -0.014550764 0.01759484 0.009904411 0.005798513 0.0041108113 -0.01571113 0.019010734 -0.0020606369 0.013332251 -0.010476487 0.009667475 -0.013787584 0.014607899 -0.0111851925 0.018846389 -0.016073218 0.0036968943 -0.017061643 0.0058968607 0.00858509 0.0068087727 -0.012639908 0.013857625 -0.016117573 0.008626191 -0.0071392274 -0.017544886 -0.019151801 0.014163654 0.009616641 0.011851974 0.006280752 0.013468076 0.010899343 -0.00019880757 0.004778927 -0.017704122 -0.0034001078 -0.019398412
必 0.010640705 0.005892778 -0.01713347 0.00096052326 0.005660396 0.00997908 0.015570648 -0.000962656 -0.008297524 0.000254903 -0.0118545955 -0.008813612 -0.015641198 -0.012030458 -0.0036307983 -0.010841398 0.018238958 0.010744555 -0.002028443 0.0071637128 0.008211613 0.0057361573 0.0010269377 -0.0076756263 0.011475697 -0.00490685 -0.016013741 -0.010073259 0.0010765176 0.011811167 0.0040175803 -0.007870722 -0.01683806 -0.007147598 0.016285434 -0.00488811 0.010620015 -0.013767197 0.018759836 0.00076550245 -0.01237911 0.005761547 -8.0680475e-05 0.004956078 0.010435298 0.010180922 0.0014447737 0.009653864 -0.019552022 -0.0041471403
礼 -0.0036534052 -0.00096598454 0.00462367 -0.019966943 0.019522395 0.019754205 -0.005069074 0.017159875 -0.018840393 0.013599459 0.005919354 -0.0027676504 -0.010673366 -0.019700913 -0.01658823 0.015365604 -0.010551714 0.00015144423 -0.011500788 0.013887405 -0.00782927 -0.007798667 0.01842907 0.0125741325 -0.006506726 -0.004724512 0.014522411 0.01794725 -0.007824199 -0.01863436 -0.0088363215 0.0110626295 0.011633243 -0.008536909 0.016942926 0.0075437967 0.017158728 -0.015323276 -0.0024943072 0.016033705 0.0118391365 -0.010060401 0.005371781 0.0068324246 0.019073032 0.008750331 -0.00093576126 0.013011821 0.0033596475 -0.00086169876
孔 -0.008964724 -0.0036489982 0.00045532174 0.015321031 -0.002423305 0.005988812 0.007691851 0.003306931 -0.017997345 0.008710809 -0.015478813 0.019253466 -0.00090711564 -0.006390686 -0.003912149 0.00356194 -0.008148016 -0.00039711222 0.0024907105 2.785772e-05 0.006021457 0.012272846 0.012066171 0.019364536 -0.010990994 -0.0038230475 0.003644133 0.019404005 0.01852994 -0.008530595 -0.01187268 0.019399393 0.016311198 0.014399998 0.0015731566 -0.006052737 0.0045974404 0.011004539 0.0007521678 0.005243512 0.018147364 0.0024716612 -0.01625916 0.0029180069 -0.009693584 0.0112702735 -0.01205704 1.8911436e-05 -0.013967056 0.010820115
斯 -0.0015299842 -0.018150501 -0.0020246785 0.007567184 0.011104388 -0.012490806 -0.012792866 -0.016969625 0.007970059 0.015169218 -0.019426174 -0.008397615 0.000641305 -0.010317442 0.006743381 0.0060040522 0.01386917 -0.008273999 0.008422205 -0.006116838 -0.016424399 -0.015136716 0.010497276 -0.016229426 0.0019809715 0.0036674142 -0.019699777 -0.010550137 -0.01199239 -0.00583518 0.013437398 0.011434339 0.017263684 0.0053175185 0.0069642905 0.0057164747 -0.014541544 -0.015888369 -0.01607902 0.0061856676 0.019554619 0.018072437 -0.01590449 0.008077808 0.014028311 0.01566339 0.016101886 -0.0050036646 0.0062183086 0.0013169404
三 0.016399868 0.01569207 0.0070078094 0.015850998 0.0092923995 0.002479203 0.012969602 0.011289481 0.016496897 0.007216865 -0.018471595 -0.012113258 -0.011126573 -0.0012866147 -0.017950028 -0.009056833 -0.0111937905 0.01839577 0.0006265547 -0.003185153 0.015275855 0.014954578 -0.011603965 0.007714262 0.010920344 0.0067468993 0.0051472224 -0.008545387 0.012801789 -0.01200416 0.0031184722 -0.019472672 -0.017412202 0.0024917647 0.014544338 -0.0121332025 -0.003276946 0.0014714934 -0.017466571 -0.000884261 0.006523667 0.011198996 0.012529381 -0.018742427 0.019305967 -0.006434734 0.014089078 -0.006745658 0.0014409404 -0.012045283
能 0.0059132855 -0.006476381 -0.017222028 0.0077627804 0.013965331 0.014527313 -0.014958651 -0.012719359 0.0024046823 0.010707615 -0.014046378 0.0017039794 -0.009154332 0.015798636 -0.019640576 0.01016449 0.0072574615 0.01980083 0.016833156 -0.0079790875 -0.012418289 0.014949601 -0.0012817737 -0.0017714519 -0.0017428827 -0.014732517 -0.001242958 0.015304521 -0.0007173922 -0.013516364 0.0072399117 0.0033339355 0.017175376 0.0032729618 0.012770481 0.0030012075 -0.012623589 0.005151823 0.011971734 -0.016486026 0.011863418 0.0067028087 -0.014700174 4.111044e-05 0.0063437857 -0.005737262 0.0048383195 0.015895482 0.008596305 0.010135697
见 0.004848497 -0.0045642853 -0.014128815 -0.0106811095 -0.004231788 0.009446407 -0.0011609644 0.00058056787 -0.003151551 -0.01282839 0.0042883176 -0.006030767 0.0016713478 -0.0025870744 -0.012124209 -0.003097536 0.004039716 0.006143946 0.013884872 0.009222101 -0.007424433 0.013199307 -0.014137669 0.0010223966 0.019210286 -0.005132203 -0.0070383903 -0.017419636 0.013195649 -0.010326061 -0.01373851 -0.015910503 0.014838461 0.0009716805 0.018096775 0.010241013 0.012778226 -0.0072269132 -0.015088939 -0.010101873 0.017241806 0.012604527 -0.019211594 -0.005843236 0.01299493 -0.016891764 0.0004723817 0.013734322 -0.016083231 -0.011747033
学 -0.018964984 0.0027528256 0.014647309 -0.0050354674 -0.0016164277 -0.01217536 0.01688755 0.0028912313 0.016035728 0.0053719133 0.011597503 -0.012494439 -0.0074942466 0.014244638 -0.017901678 -0.010350689 0.002610214 0.008652367 -0.005328467 0.004901616 -0.014976224 0.019795477 -0.012535248 0.013173401 -0.014339229 -0.0044469098 0.015619293 -0.012221105 -0.011965234 -0.0023548529 -0.0009723082 0.009813804 -0.0031338483 0.014241036 -0.008729071 -0.01930768 -0.018899333 0.011975151 -0.0062605143 -0.004155306 -0.018589718 0.00935163 0.011613734 0.018614896 -0.004482546 -0.015211217 0.0028448198 0.0150552355 -0.0013806652 0.018533565
事 0.009015527 -0.001082914 -0.0037292782 -0.011881127 0.008373253 0.0010240581 0.0018469747 -0.014913673 -0.006395342 -0.0052363947 0.017412122 0.013924468 -0.0006912928 -0.009206614 0.018681422 0.013548609 -0.01554471 0.018583685 0.014832947 -0.0039285794 -0.014895334 -0.0020296164 0.0010862406 -0.019933786 -0.012861779 -0.013833782 0.018825956 -0.016271697 0.013130441 0.008205347 -0.018239101 0.012582842 0.01850631 -0.009934248 0.00095825456 -0.01636886 0.016050447 0.019509532 0.013735406 0.010985043 0.0053013302 0.009939434 -0.011279542 -0.01649063 -0.0075050807 0.0024158843 0.011336643 -0.01524072 0.007111609 0.019297816
是 -0.013423445 -0.009856296 -0.015059406 -0.014380986 -0.011055155 -0.01904675 0.0028615743 0.0045157783 0.009488165 -0.008635032 -0.012384782 -0.0179113 -0.015505297 -0.009527011 0.016080398 -0.011304564 -0.015521742 -0.013165047 0.018172905 -0.0018389914 -0.0015722401 -0.005086515 -0.0017487463 -0.015030434 -0.016807634 0.0027409606 -0.00781502 -0.00015828386 0.007299129 0.0035849642 0.0042349044 -0.019186404 0.0090043135 -0.009558682 -0.0015706196 -0.013073361 0.016058363 -0.01355421 0.012298286 0.0169492 -0.013597097 0.008660069 0.009987798 -0.018857546 -0.002851326 -0.012760123 0.008200033 -0.00722944 -0.0042505264 -0.0064935163
哉 -0.0045946976 -0.019333987 0.008365463 -0.006619041 0.018882196 0.013772808 0.0008703787 -0.017789185 -0.019047592 0.007959887 0.002352273 -0.009518287 0.0068649054 -0.005238669 0.00010068342 0.010426378 -0.005042591 -0.002330467 -0.017783817 -0.005503054 -0.0051430603 -0.006224389 0.009308372 -0.003876349 -0.012140803 0.00029454194 0.014213525 -0.019385068 0.018734429 -0.0062439395 -0.0074134422 -0.008144443 0.0087973885 0.009059083 0.01130544 -0.018661544 0.0030999035 -0.01308913 0.009850517 -0.006187396 0.012754511 -0.0060350774 -0.005071466 -0.015649687 0.0057191495 0.006172005 -0.0029036216 0.0152795315 0.0035003591 0.014220435
闻 -0.0048066135 -0.0067256493 0.010911532 -0.009625258 0.008158963 -0.013583648 0.0074303895 0.01323824 0.0018940549 -0.019453423 -0.013825092 -3.608875e-05 -0.00984009 0.007744668 -0.009476897 0.0011115428 -0.010636012 -0.01688505 0.017049436 -0.0021595433 0.011095552 -0.0020384863 -0.013332922 -0.0051589413 -0.0004498046 0.0036841314 -0.01775006 -0.0069106175 0.016435035 -0.01566898 -0.0071257753 -0.015018606 0.0009740088 -0.0144576 -0.00040730648 0.010679163 0.01696216 -0.014558448 -0.009200818 0.011995677 0.018548675 0.012916166 0.0092686135 0.001549365 0.007291114 -0.002963541 0.0056012366 -0.014355838 -0.005202923 0.01857341
未 0.014302224 0.008531375 0.013943635 -0.015029356 -0.0039089806 0.008707842 -0.006432822 -0.01383806 -0.014167283 -0.012416558 -0.010999586 -0.007314765 -0.01641387 0.0038477723 0.0040365215 -0.01655389 -0.019569578 -0.008321579 0.008861374 -0.014299478 -0.010637536 0.01497186 0.0093586035 -0.01870867 -0.0092483545 -0.0005953759 0.005640382 0.001024127 0.0015313514 0.00795388 -0.007838338 -0.014391493 0.0060138516 0.010548072 -0.009392219 -0.009766133 0.019631024 -0.014386091 -0.017133279 0.0040611234 0.00074627623 -0.0050875563 -0.014258327 0.0141026825 0.011509605 0.009670489 -0.013399446 0.005050203 0.009621324 0.007210808
公 0.016095787 -6.3963234e-06 -0.0010864045 -0.0117675755 0.011256341 -0.009395277 -0.0124150105 -0.008399039 0.0036387015 -0.01797092 -0.013758588 0.014933888 0.005159011 0.016830757 0.009174313 -0.015774682 -0.015450029 0.015112769 0.013755459 0.019734394 -0.013302817 -0.014711654 -0.005344472 0.016136006 0.013621531 0.008583305 0.014310967 -0.008997506 -0.017101908 0.010004571 -0.0018472914 -0.0081921695 0.008013757 0.016917665 0.0035140123 -0.019939652 -0.014238939 0.0033237487 -0.0028453525 0.006629307 0.0014267731 -0.009688413 0.00480292 -0.019560678 0.0026308075 0.0062725954 0.0044079702 0.018099252 -0.008574183 -0.0014245566
好 0.008629831 -0.005575545 0.0008145813 -0.015571341 0.014059667 0.0033649579 -0.008053541 -0.00577877 0.006824136 -0.019025214 0.0027300771 -0.007507572 0.019816004 -0.014092652 0.009927632 -0.010386822 0.008270828 0.0013287812 -0.006303685 0.010981575 -0.002135748 -0.003426034 -0.004991941 0.0133017115 0.01621335 0.0033711903 -0.007906034 -0.007840507 0.00195962 -0.008923066 0.012472633 0.014626645 -0.005127783 -0.013889684 0.008019319 0.018146042 -0.019327326 -0.0054161735 0.010709127 0.0049231667 0.016153526 0.00046251714 -0.019445634 -0.00749336 0.01633102 -0.008079211 0.0062247682 0.016449016 0.0022430774 -0.008703923
我 0.00079038925 0.011796016 -0.00637393 0.01916571 0.007018378 0.011479732 0.012249015 0.0054141395 0.014320437 0.019048993 -0.019011186 -0.0081616165 -0.005694599 -0.008744161 -0.007426274 -0.0017061234 0.0045818295 -0.0058252886 0.00474835 0.00955086 -0.0095086 0.0053135604 0.01750575 0.0058673173 0.003766859 0.004370084 -0.0093139 0.017564073 0.013153583 -0.00884816 -0.011306462 0.016640622 0.018825863 -0.011833035 -0.010965826 0.0047702733 0.003713498 0.014746852 -0.009789562 0.00083460286 0.01910314 -0.018253116 -0.0008393582 -0.0175967 0.019214537 0.004661983 -0.014989006 0.018041667 0.007798286 -0.000909457
路 0.0077568796 -0.017448094 -0.005523228 0.0007475242 0.003705766 -0.01224838 -0.003920885 0.004697576 0.0041622873 0.011370767 0.0024683122 0.017057847 0.009314939 -0.0020549968 -0.017792081 0.0018709991 0.01637175 0.014078997 -0.0049973605 -0.009421401 0.0031765178 0.015036121 0.018696368 -0.01584426 0.01949292 0.016087111 -0.00054368563 -0.011401991 -0.013776312 0.0004849024 0.0043515936 0.01835166 0.008778531 -0.008420639 -0.0016622301 -0.000972772 0.014350992 0.019057103 -0.008989591 0.010360839 -0.0073745633 -0.0054555554 -0.016861176 -0.015501105 -0.00044505857 -0.018624075 -0.0010628849 0.012238618 -0.010845537 -0.012283003
在 -0.009685757 -0.014336074 -0.0129838325 0.0012733527 0.0044591445 0.003946962 0.014917318 -0.00033558533 -0.002674589 -0.0035931189 -0.00595201 -0.0031461325 0.017375682 -0.0002273824 -0.015449628 -0.012040872 0.013365079 0.011651471 -0.0068846745 0.002857631 0.009152584 -0.012525108 0.0112835355 -0.006297931 0.008433558 0.01985455 -0.019641569 0.018400226 -0.009926457 -0.015623752 -0.012154081 -0.0016866345 0.010547299 -0.008187141 -0.0094146915 -0.0015065912 -0.0058092214 0.005768886 0.005731508 0.00650011 -0.010814516 -0.0029564593 -0.0099090645 0.003442593 -0.0089539 0.0108192675 -0.019094087 0.014870707 0.018106714 0.013248801
已 0.014168318 -0.013702211 -0.012559099 0.0006834101 -0.0065511083 -0.00876111 -0.018750226 -0.01777489 0.011612907 -0.01950242 -0.00481663 -0.016964888 0.016298361 -0.0022520963 0.014998697 -0.002157325 0.004736798 0.004562158 0.0120648965 -0.009222443 -0.0072445776 -0.002784958 0.014472052 0.016534291 0.018274263 0.016629197 0.014374271 0.014491547 0.0006251354 0.013489664 0.017066624 -0.013705191 -0.018063283 -0.017687354 -0.0114667695 0.01349153 0.00361434 0.0133516565 -0.0039051604 0.01756335 -0.013009125 0.007917507 -0.0009856913 0.018618759 -0.011333504 -0.0055021476 -0.019841092 0.0049487837 0.01975051 0.014852274
得 -0.019718979 -0.019914495 -0.0016138889 -0.00889622 0.015893348 0.013467129 0.008813145 0.002981186 0.002970254 0.0039141327 0.008070748 -0.0061882446 0.01378461 -0.015752196 0.012472194 -0.0040744524 -0.004366316 0.009536149 0.009072805 -0.012793416 0.0032966882 -0.017153483 -0.00260338 -0.017883526 0.0147932805 -0.0055324864 -0.018125784 0.0027870946 -0.0016208403 0.006013302 0.017175179 -0.008689506 -0.014391138 -0.011787774 0.003971195 -0.008740971 -0.013528738 -0.009387093 0.010809138 -0.008257565 0.015420627 0.015495792 -0.016107026 -0.016582465 -0.005088363 0.015580233 0.01926089 -0.012102127 0.013247743 -0.00016235374
所 -0.01592151 0.008905575 -0.005924754 0.00060865656 -0.009991319 -0.017865796 -0.0030284934 0.007453967 -0.00017641857 0.012701046 0.016754005 -0.008110954 0.011867274 -0.017395882 0.0053638555 -0.0030641127 0.015809305 0.017319243 -0.007725537 -0.017493919 -0.013188891 0.008174479 -0.00081778504 -0.003809357 0.009543411 0.0033690147 -0.018378997 0.01638437 0.019880999 0.014033463 -0.019575799 0.011928301 -0.0074603194 -0.0034841467 0.002792487 0.008421635 -0.017226048 -0.0038203187 0.012289759 -0.003676679 -0.009220023 0.00044586882 0.016042594 0.01907909 0.01992201 0.019863427 0.017716601 -0.010081522 -0.010898037 -0.014578966
民 0.01903148 -0.008072361 -0.010472076 -0.00879472 0.005972121 0.0032699797 0.014775913 0.019904878 -0.018417107 0.0068720467 0.007683305 -0.009464533 0.0065869167 -0.0024035554 -0.0035113115 0.011140268 0.010337947 0.007874992 0.003463447 0.007324757 -0.016972214 -0.0022060703 0.0146660395 0.010852801 0.009332743 -0.019758612 0.0010171272 0.0011233371 0.015290052 0.0062175207 0.014037624 -0.018054916 -0.0071953386 0.0032833833 -0.01521054 -0.0007683858 -0.012963332 -0.01700505 -0.01581818 -0.0107586235 0.012669779 0.018288225 0.01582409 0.0025184695 -0.012169914 -0.011653621 -0.011048508 -0.009467616 -0.017763132 -0.0037941765
小 0.011603497 -0.013120338 -0.006780441 -0.012941332 -0.012505688 -0.019971149 0.017573848 0.016522065 0.01263883 0.01126245 0.0063877106 0.0016989559 0.014095165 -0.019098826 -0.0034596864 0.01211793 -0.014773225 -0.01092376 0.0010068994 0.015786275 -0.013083761 -0.00982944 -0.013392353 0.0009490866 0.0042965002 -0.0021885466 0.015988763 0.0010355283 -0.0019439533 -0.019362208 0.009583447 0.011507917 -0.006507773 -0.00014529005 -0.019259693 0.0054478496 0.0027871728 0.015605118 0.0139594115 -0.011446006 -0.015617451 -0.0049298713 0.007147452 -0.0077388836 -0.013959839 -0.014773831 -0.004742734 0.0027803294 0.00434961 -0.00013053603
天 -0.005003633 -0.015848085 -0.002150584 0.017066363 -0.011943678 7.338822e-05 0.006380949 -0.010331892 0.013610385 0.0030061025 -0.00806407 -0.0045850566 0.016451746 0.0046288185 0.008280391 0.003381066 0.007571144 -0.0052338 -0.018095296 -0.012785776 -0.018983137 0.014122102 -0.013084225 -0.014025662 -0.00076983124 -0.010373194 0.00062247366 -0.0047058463 0.012895148 0.003120236 -0.012465104 -0.004991426 -0.013774591 0.0033754874 -0.012976115 0.01665809 0.0199866 -0.016363386 0.012364123 -0.010273683 -0.018157672 -0.017396878 -0.014865296 0.0048055407 0.004094204 -0.010059957 -0.01674514 -0.010157902 0.014125515 0.0057373885
乐 -0.013802199 -0.0122405 -0.015572452 0.0013224129 0.014374528 -0.016660454 -0.0016373657 -0.0031973962 -0.008002047 0.009191861 -0.011541833 0.0011725407 0.012200505 0.0031583551 -0.015634803 0.00092715956 -0.01900095 6.610155e-05 -0.010597856 0.016121436 0.0029887874 0.00083771534 0.019499984 0.0084430985 0.0052796677 -0.0073919483 0.019289438 0.014727812 -0.017981108 -0.015196354 -0.0114964 0.0051586274 -0.0022401903 -0.009637487 0.0004632622 -0.00242264 0.012143556 0.015149336 0.0071730725 -0.0012927968 0.019214217 0.013038069 -0.009482376 0.010763632 0.007091066 0.007564092 -0.014787367 -0.0020454712 -0.00012296624 -0.010030071
邦 -0.0063177226 -0.0010864288 -0.010936398 0.00828865 0.0066867247 -0.019087203 0.01515663 -0.0038979556 -0.010459299 -0.0012979675 0.013856333 -0.006024313 -0.0023947377 0.009118618 0.0019290093 -0.0067348573 0.0048932936 0.0007160213 -0.018290445 0.0015925858 0.0028390493 0.015820697 -0.008093652 -0.0027567483 -0.0001780279 0.018164732 -0.013189035 0.009363456 0.004592914 0.019544326 0.0075493716 -0.012536864 -0.017697623 -0.015555345 0.007675592 0.009446777 -0.007438938 0.016058821 0.019130807 -0.00017165951 0.015176285 -0.013573432 0.010922115 -0.0008035898 0.008076517 -0.011361756 0.0041753557 0.019831758 0.015248451 3.6126003e-05
亦 -0.009874561 0.003520934 -0.0011295956 0.016355019 -0.011648524 -0.017254855 -0.007658393 0.0014566779 0.009370897 -0.00042253546 0.018223964 -0.009533596 -0.0035385918 0.008129915 -0.01626807 0.017106906 0.0038034767 0.0027596503 -0.0099414345 0.013942372 0.011151526 -0.01221581 0.012022506 -0.0026896354 -0.0019880533 0.011008622 0.015411623 -0.01881437 -0.016779833 -0.015602672 0.016893897 -0.0058924407 -0.0047208425 -0.01802229 -0.010631809 -0.011170144 0.01927752 -0.0029240772 0.007008305 0.0015975572 0.010932436 0.007068081 0.017848514 0.018354688 -0.0017905049 0.002912784 0.0110014435 0.012020756 -0.014929507 -0.0004224088
使 -0.0034488682 -0.019736903 0.0029199217 -1.7039478e-05 -0.019693123 -0.019979013 -0.019294579 -0.012222374 -0.007398703 0.018224042 -0.018682346 -0.01842975 0.018270269 -0.004679811 0.016366106 -0.013060805 0.005648216 0.019769698 0.008586466 0.013096899 -0.010418253 0.017065577 0.005671371 -0.010801501 0.001539195 0.009679619 0.016065363 0.010608774 0.002304364 -0.011408634 -0.0036188718 -0.0075837253 -0.005704226 -0.0024527889 0.0059502125 0.0039996486 -0.008656433 0.003045911 -0.0026863758 0.0044516064 -0.0068407273 -0.0005333703 0.0049866624 0.0063570775 -0.017956147 0.01744534 -0.019780887 -0.0054723807 -0.01796108 0.013183642
大 -0.01137803 0.009515831 -0.010755805 -0.006843376 0.00911624 0.015857361 -0.017900404 -0.014166994 0.000743255 -0.019472761 0.01331969 -0.0103335995 -0.0034178272 0.0038631577 -0.0010680277 -0.014035525 -0.0024712887 0.007515516 -0.014526245 0.015434507 0.010984158 0.009818396 -0.011921499 -0.016601974 0.014114674 -0.00027503446 0.0043992884 0.009745514 -0.013679786 0.011638723 -0.003992431 0.0073701516 0.017174687 -0.0004007388 0.018440064 0.011492845 -0.018290795 -0.0039907377 -0.00027923286 -0.0037247296 0.0006932765 0.019326966 0.015272927 0.012388259 0.0038906317 0.012938414 0.007128233 0.0020477828 -0.01330028 0.014450811
下 0.01739107 -0.014462197 0.014336642 -0.016780294 0.007681003 -0.0069999928 0.015049294 -0.0062352056 -0.010915608 0.0067436695 -0.0018592123 -0.017093305 0.018572822 0.013111606 -0.004317073 0.0124359615 0.0066027083 -0.010447146 0.0017837062 0.012330376 -0.005868788 -0.009086754 0.0138579495 0.013804764 0.0052864067 -0.0010402463 -0.005677295 -0.005933771 0.011010323 0.006653264 -0.0075577376 -0.00054563023 -0.0041993186 -0.0045070667 0.0017840378 -0.0048785424 0.006714275 0.007856471 -0.0047208527 0.0017699376 0.0021606758 0.014334451 0.0010991935 0.007938512 0.01932929 -0.0064745517 0.0026163366 0.0018532295 0.015548259 0.018294416
贡 0.01170164 0.0066110827 -0.0027196128 -0.017805213 -0.0044689914 0.007703731 0.006156089 -0.016806755 0.011283439 0.013378974 -0.017028905 0.01701453 -0.010846762 0.012006525 -0.008184986 0.018531624 0.002075905 0.0026393086 0.008794464 -0.01215223 -0.018761143 -0.012085106 -0.018886501 0.015009165 -0.015613994 -0.011364312 -0.01818874 0.009769985 -0.010065389 -0.0030022599 -0.0033123828 0.018979143 -0.012614088 -0.019224554 -0.008745973 -0.015757969 0.0008096788 -0.016727753 0.017105475 -0.008080122 -0.0116982125 -0.019551694 0.009582864 -0.011655407 -0.0020867642 -0.013976064 -0.007808394 -0.011020703 -0.0077379085 0.005837504
欲 -0.015968967 0.0011374447 -0.007357535 0.015834078 0.004740348 -0.0199754 -0.016478667 0.011291783 0.012357749 0.005256677 -0.014907157 -0.019034654 0.018912103 -0.013957452 -0.0048663905 0.0036599245 0.01794139 0.013968535 0.014375865 -0.01426851 -0.016029911 -0.0015245248 -8.997694e-05 -0.0040855557 -0.014024984 0.014483511 -0.018113386 0.008338163 0.004936807 -0.018598072 -0.014596765 0.0056863613 0.010908101 -0.007983399 0.0046880413 0.016755562 -0.0069491314 -0.000388477 0.012309022 -0.015171181 0.006437812 0.0022771563 -0.005878317 4.7829002e-05 0.018101849 -0.015924701 0.009584652 0.0020146426 -0.0015775617 -0.01482854
诸 0.011739761 0.01649817 0.0041705016 -0.006181624 -0.016737843 0.01942018 0.009997806 -0.007615678 -0.0033083372 -0.015186377 -0.00806775 -0.006999435 -0.01981686 -0.019671254 0.0071787834 0.013937291 0.01839187 -0.0008359663 0.0007037334 0.0030833166 0.009882227 0.009353077 -0.017121326 -0.013958044 -0.007911823 -0.016668517 0.009371266 -0.017633576 -0.013912039 0.0022494476 -0.006960585 0.01865603 -0.010693028 0.00659303 -0.017365493 -0.0025656875 -0.0008513406 -0.012086532 -0.018762331 0.010958094 0.0046116393 -0.0018146094 0.015906338 0.017214756 -0.0032886956 -0.0058878707 -0.00831785 0.01259603 -0.01081579 -0.019167954
从 0.00034131482 -0.009536436 -0.006055491 -0.0038586706 -0.011454265 0.012629982 0.019486643 0.018331703 -0.012307903 -0.0033762045 0.006118832 0.0058573037 -0.016513363 0.016774941 0.012601789 -0.018891156 -0.018936317 0.008665225 -0.007807996 0.005944874 -0.009867098 0.010185635 0.0012623556 0.013291586 0.009982541 -0.0072833914 -0.018715067 -0.011222103 0.012135178 0.01070784 -0.007074437 -0.0068411203 -0.0030361358 -0.017668221 -0.01696943 0.009559732 -0.014879181 0.00044435076 -0.017448904 -0.017546061 0.014397208 -0.0018942468 -0.019914238 0.008980678 -0.0010347888 -0.001181392 -0.001501549 0.010011248 -0.0037966259 -0.006413677
文 -0.006179128 0.013943706 -0.017047035 -0.016156657 -0.0037772711 -0.009330198 -0.01094012 -0.011683986 -0.012337656 0.0065580364 0.013645589 0.007887367 0.013723422 0.009853441 -0.012001469 -0.019768964 -0.014638273 0.0018985979 0.017923694 0.014888313 -0.0045796176 0.016774371 -0.015689846 -0.01920969 -0.012118286 0.019106042 0.00760418 0.010700399 -0.011018831 -0.003046682 0.006071031 0.013545543 -0.0058955504 -0.013033569 -0.008287453 -0.0014264919 0.017529704 -0.01739622 -0.009181952 0.007985482 -0.0010964442 0.0024877992 0.0032981392 0.012935393 -0.0065779323 -0.006468542 0.0115295015 0.01019481 0.0045766495 -0.010418953
政 0.00025957823 0.01682188 -0.01506016 -0.01739996 0.013720565 -0.007262282 0.0026694182 -0.01544266 -0.007843401 0.018528175 -0.0046384092 0.00090384483 -0.01814926 -0.019849814 -0.0019447953 -0.013441522 0.0037078075 0.01712304 -0.00950603 0.008988256 -0.012995621 -0.016653087 0.013502799 0.002567999 -0.01626232 0.014207177 -0.017557392 0.017645478 -0.0021655168 -0.0037209373 0.018027782 0.0041926857 0.0004896838 -0.008140607 -0.000469625 -0.01746519 -0.006284943 0.017442826 -0.013418326 -0.013455076 -0.0001196675 0.01022361 -0.009945697 0.005448062 0.005908249 -0.00070739724 -0.0055503678 0.012266673 0.019159533 -0.014367399
食 0.015151609 0.016203765 0.015032914 0.008112451 -0.018415846 -0.006015718 0.007175699 -0.017460484 -0.0021840334 -0.016148489 -0.019949846 0.0025036614 -0.019476851 -0.017886257 -0.0015383381 0.0048925634 -0.00969933 0.014224626 0.010776889 0.0052275322 0.0080934 0.0069854 0.0040956046 0.012040451 -0.0004099924 0.002988996 -0.011842544 0.0062369183 -0.016605267 0.017116018 0.019704577 0.006362779 -0.015570333 0.0013416596 -0.0018669777 0.0016475506 -0.011756937 -0.0147988 0.012389738 -0.018117521 0.01727881 0.015514202 -0.010687661 0.0075402614 0.019677665 0.010522755 0.012352549 -0.008627107 -0.013589654 0.008001778
善 -0.016236879 0.0052181985 -0.013946271 0.0054660887 -0.0060795685 0.0049746577 0.0032877568 -0.009111266 0.0029505417 0.0042894594 0.012633953 -0.019766314 -0.015739052 -0.01676512 -0.018745536 0.018061582 0.011198802 -0.013543744 -0.0049120877 0.010802187 0.005553525 0.0046750307 0.011689562 0.005274404 0.015257727 -0.010865783 0.012005419 0.00013774447 0.0017467123 0.006200552 -0.015055358 0.016823161 -0.00028219447 0.013164405 0.009611402 -0.00449121 0.0053335205 -0.014687731 0.009168819 0.0065484047 -0.01852766 0.012684155 0.019993342 -0.005755041 0.0015234966 -0.01647493 -0.0032682624 0.0147781335 0.008394172 0.0058459137
后 0.0042736586 -0.018748933 -0.00061436 0.017814193 0.003138272 -0.0037831329 0.015754085 0.00012240559 0.00078433007 -0.014051256 -0.016096514 -0.002316067 0.0151093155 0.015223898 -0.018148161 -0.01142379 -0.01448977 0.007940538 0.0025231782 -3.6707148e-05 -0.0020420197 0.00063627213 0.004328653 -0.008560734 0.018081281 -0.01908117 -0.00985152 0.0063949656 -0.0072208876 0.014282413 0.016435347 0.00090467185 -0.011891076 0.017560583 -0.014622316 -0.013260534 0.0081779845 0.013947956 -0.016187023 -0.013681566 0.019842736 -0.012166917 -0.00433244 -0.006326547 -0.0070991805 0.015612576 -0.016345764 0.0054662824 0.01703345 0.011996221
德 -0.019826764 -0.011220512 -0.012493105 0.014924042 0.019657087 0.01416688 -0.017382862 -0.0035129022 -0.009818563 0.0038425848 0.010039069 -0.00799685 -0.007875936 -0.019699581 0.0053547565 -0.015728066 -0.010823137 -0.009717298 0.007278666 0.011453327 0.009007713 0.003635686 0.0006490238 -0.015189549 -0.013852324 0.019547597 0.017622605 0.008524958 0.005576389 -0.007513671 0.00024287403 0.0012017135 0.0021225382 0.0179931 -0.011885898 -0.00884908 0.01161962 0.0081404 0.011680976 -0.019426834 0.0027392507 0.0012723897 -0.0003904216 0.012403756 -0.015035507 -0.017907465 -0.015983976 -0.01054946 0.013793305 0.003469197
求 0.0024468303 -0.010770571 0.013225179 0.00293524 -0.009199468 -0.0032677632 -0.018210819 -0.017928941 -0.005939548 -0.0071389982 0.0041197147 0.00021200255 0.012905356 0.0015372038 0.006969668 0.019663312 -0.014395077 -0.007906782 -0.018979473 -0.019930119 -0.0026086904 0.014604043 0.0035410356 0.014044337 -0.008218477 -0.016194087 0.00046491064 -0.0050112344 0.008098282 -0.0058307666 0.006616108 -0.006195912 -0.004670134 -0.0102976775 0.0048416443 0.018837102 -0.0076671503 0.014194582 -0.0025971178 -0.0056280037 -0.0021588188 0.00058240443 -0.019290404 0.012612216 -0.011303334 -0.009067239 0.011024609 -0.01605523 0.0064092036 -0.008634667
对 0.015893556 0.01773271 -0.005864281 -0.017430156 -6.0286373e-05 0.015105147 0.013648272 -0.009035601 0.0016068406 0.011844564 0.014366675 -0.0131576825 0.005570939 0.011894774 0.008332405 -0.0014969092 -0.010728506 -0.002750501 0.006548075 -0.0031189602 0.018173877 -0.001982104 -0.0013980325 0.012989797 0.009465236 -0.015571602 0.014992505 -0.018656516 -0.008352919 -0.0027744025 0.016976856 0.011251487 -0.01578351 -0.007417488 0.019562505 -0.01972318 0.0057557113 -0.008515665 0.007518027 0.0068599004 -0.0028840508 0.0010300167 -0.01031969 -0.014215359 -0.0036889687 -0.0017538611 -0.013810594 0.015734501 0.017800432 0.0119304955
恶 -0.005719588 -0.0128932735 -0.014625603 -0.006007931 -0.018127656 -0.00584739 0.014157355 0.00096879527 -0.01668131 0.004498573 -0.0034394208 -0.005085499 0.0072386116 -0.010896585 0.004210079 -0.0123184435 -0.0064225886 0.006971093 0.014835484 -0.009909344 0.011817433 0.011710353 0.0042038057 0.012203548 0.010908816 -0.0008048136 0.014324106 0.008016035 -0.015653819 0.016610045 -0.009188764 0.0046878047 0.0051543303 0.009280471 -0.0032036249 0.0035547335 0.00018997677 -0.005105827 0.011274986 -0.019395184 -0.0026212428 0.018833414 -0.01354664 0.01246037 -0.003355356 -0.0050571347 0.000110389665 -0.015365584 -0.005965228 0.0013169795
信 0.0139992125 0.011179686 -0.0028106049 0.016465578 -0.0011885092 0.0014819074 -0.0010004807 -0.01987283 -0.004990923 -0.004059052 -0.0014576539 0.00787808 0.0040733125 0.01648385 0.014669105 -0.01773934 -0.016511317 0.019403737 0.010586945 0.015214723 0.018276766 0.01823612 0.012292799 -0.01854443 -0.016901448 0.00130645 -0.0027194824 0.017440256 0.016976345 0.012765165 -0.002078617 -0.016701221 0.01381322 0.005351115 0.006228661 -0.011186125 0.0023346655 -0.0006012246 0.002082143 0.0016597938 0.0023072865 -0.0023177955 -0.012349872 -0.007304053 -0.0059708543 0.015770264 -0.01690329 0.010054523 0.0056544635 -0.019493334
死 -0.010028474 -0.004498343 -0.007001059 0.014333252 -0.005715234 0.011261869 0.0025593117 0.019650381 0.0065930095 0.019801661 -0.015976446 -0.0047864243 0.0005115438 -0.013462372 -0.018769462 -0.008681705 0.01983044 -0.013556508 -0.00088017434 0.0066568013 -0.019228289 -0.004320426 -0.0036865808 0.008024517 -0.009548618 -0.019102918 -0.010260513 -0.019191079 -0.0035763755 -0.0016065948 0.011391111 0.018574715 -0.016895372 0.01960998 0.0068471003 -0.011280174 -0.015260747 0.0021062344 0.007425932 0.019928131 0.005873734 0.003470352 0.0049228054 0.011342224 0.012679797 0.012657095 0.0063127186 0.0077250507 0.01244317 -0.00867801
然 0.012042716 -0.008575441 -0.0012180861 -0.0008163266 0.012976915 -0.019894416 0.011459667 0.009508388 0.0031518396 0.010375839 0.0013549738 -0.019335907 0.017103571 -0.015977591 0.0030905195 -0.004951827 0.013605401 -0.017871697 -0.00161108 0.01253207 0.015093323 0.01723782 0.01945604 0.015851408 0.0060098153 -0.018080037 -0.009987712 -0.0057968087 0.015546501 -0.012274918 0.01287742 -0.016311603 0.0020508934 0.0029603504 -0.0067037055 -0.0096789 -0.0022343826 0.01623423 -0.0022636652 3.002584e-05 0.010420298 -0.0019047912 -0.018820656 0.017857473 -0.016905973 -0.0049127145 -0.01842333 -0.0069298716 -0.0078676175 0.0068155434
《 0.0039465018 -0.00040103495 0.0009399373 -0.010703437 -0.009126468 -0.016085567 0.016755052 -0.0040624086 0.009932363 0.01052402 -0.0048843026 -0.011986086 0.013115581 -0.00964374 -0.013339763 0.013672467 0.01999592 -0.0024368279 0.015861489 0.009253884 0.004941115 -0.009147954 0.014962126 0.0007022768 -0.014117956 0.0052831173 0.019089859 -0.015458998 0.019939534 0.010782938 -0.0016695112 -0.012358567 0.010021916 0.017903611 0.008197881 0.010712745 0.000324836 0.009808438 -0.01271182 -0.009012253 -0.008508167 0.00092812814 0.019354623 0.015250992 0.007963989 0.001209585 0.010248901 0.004876267 -0.017423198 -0.0038045757
》 -0.0121272085 -0.0082980655 -0.018569056 -0.0030585136 -0.003082985 0.00531378 0.0032851268 -0.0035791583 0.012088969 -0.010009711 -0.012520728 -0.019964943 -0.013450951 0.009588186 -0.01761257 -0.013285264 -0.0030773692 -0.016211858 -0.0029050708 -0.013422758 0.0046767443 -0.015394494 -0.0076201344 0.0091077555 -0.012432067 -0.0014956351 -0.015706599 0.010552458 -0.01027518 -0.0053005097 -0.0071898503 -0.002836084 -0.008227951 -0.012484169 0.01166679 -0.0153712435 0.012434725 -0.016996812 -0.006052589 0.004101265 -0.009207055 -0.01594428 0.008555856 0.012201358 -0.003343746 -0.010831764 -0.01748019 -1.8144026e-05 0.00021195598 -0.017403781
由 0.004964335 0.008934107 0.00082564354 0.0040191263 0.012390085 0.009003527 0.011731211 -0.011270783 0.0064890105 0.010489769 0.0035243947 -0.015412299 -0.0072339578 0.01500706 -0.018679528 -0.01612184 -0.01367588 0.005046893 0.003102228 0.007891273 0.019430779 0.001313718 -0.0035066288 0.0014319755 -0.011601972 -0.002705939 -0.00374824 -0.013277184 -0.017708687 0.0013015941 -0.0149875255 -0.01941746 0.007293949 -0.012025635 0.0010476597 0.008112667 0.0016125552 0.014546767 -0.019058337 0.013849668 0.008977467 -0.015074658 0.017967135 0.01628562 -0.018341523 -0.008974974 0.01312143 -0.005306158 0.007154608 -0.0021684319
仲 -0.0054994393 0.0013044253 0.012418501 0.015890844 -0.009072511 -0.012166495 -0.0011405833 -0.0070083616 0.013810232 -0.005236158 0.014403764 -0.019395914 0.010612898 0.015472345 -0.0057062367 -0.01938673 -0.0018488914 0.016903825 0.002146339 -0.005986209 0.0055321027 -0.0054524997 -0.014232163 -0.010897994 -0.016769497 0.004645316 0.0028631669 0.0006809402 -0.015555389 0.00595776 0.008394754 0.0148125775 0.016589187 -0.014972551 0.011466354 0.008355202 -0.010349004 0.017403957 0.013918307 -0.0046254657 0.0072304886 -0.019668639 -0.0012445133 0.005041592 0.013491094 -0.019944033 -0.016576376 -0.0022052247 -0.0112604285 0.010370288
非 0.017208382 0.007879673 0.018286489 3.562495e-05 -0.017895728 -0.007182725 -0.013358335 0.0015394334 0.015303057 -0.0011744741 0.013630159 -0.00790066 -0.00978966 -0.015108914 -0.011010699 0.017897747 0.016476788 0.014128428 0.01619349 0.007923331 0.005829463 -0.018784652 -0.0056643486 -0.0034776907 -0.0054637594 -0.0059079602 0.0002044104 -0.018293107 -0.014979565 -0.012633001 -0.0013274737 -0.010663867 -0.016086288 0.0074325483 0.005013574 0.005351143 -0.01863546 -0.013509477 -0.007326126 0.0016865209 -0.0022783391 0.0033711288 -0.01661499 0.0062448215 0.006885212 -0.008316998 0.016237646 -0.003974611 -0.0033951383 0.016388752
出 0.014675271 -0.019808194 -0.0065884683 0.010962507 0.0054368544 -0.007944295 0.016624413 -0.007058072 -0.0039290804 0.018815666 -0.0065550255 0.0011961944 0.018823355 -0.0071036555 0.00883903 0.014290508 -0.019975867 0.01761064 -0.00022080354 -0.01791295 0.0016247723 0.015304636 0.0061540194 -0.0072042607 0.011007227 0.009120634 0.016015109 0.004187038 -0.0040341765 -0.008720355 -0.0040509347 0.0105833225 0.009821311 -0.012274452 -0.0084750485 -0.018457334 -0.011257386 -0.00935405 -0.014793618 -0.018314537 0.01668778 -0.0026551392 0.0015928205 -0.0017591733 -0.0016048886 0.0049613137 -0.0012594555 0.016244732 -0.019241896 4.505366e-05
过 -0.019975597 0.0003292486 -0.008185182 0.0111429375 0.0128402 -0.01550189 0.019404776 0.012120504 0.009979621 0.009600515 -0.018605737 0.014503125 -0.003369471 0.00480338 -0.00024005584 -0.010023927 -0.015906384 0.010902945 -0.0058585163 -0.0141775515 0.008419279 -0.018758768 0.007738633 -0.0012891069 0.013053425 0.008509528 0.012699667 -0.008070359 -0.0020091292 -0.0030796137 -0.009500134 0.0041121263 0.015394837 -0.017118338 0.011957988 -0.010936971 0.0007725302 0.011719342 -0.0015452616 0.008069444 0.011903368 0.006999783 0.01993949 -0.004850175 0.007655127 0.0056198835 0.010565417 0.0068310257 0.012162972 0.01342947
一 -0.0016193446 -0.010164747 0.011514343 -0.0008825846 0.004537277 -0.014803385 -0.0030483585 0.0036557205 -0.017131636 0.015745394 0.019101813 -0.017036408 -0.002243301 0.011741489 -0.0031186622 0.014636155 -0.008444063 0.017998956 0.00024983846 -0.014702811 -0.010467727 0.017289463 -0.009689435 0.0042024255 -0.009538197 0.0082958285 0.0025525354 0.014124781 -0.012400846 0.0004785601 0.0005245991 -0.019328456 -0.007770109 0.013309695 0.0059588123 0.007891366 0.0036043841 -0.018486453 -0.006128695 -0.0057949424 -0.012044225 0.00332712 -0.005405862 -0.010685785 0.012798671 -0.005671556 2.0064414e-05 -0.015012929 -0.015798558 -0.017822718
虽 0.00905977 -0.0016985871 -0.012316377 -0.0046829535 0.0025457833 0.011034066 -0.012919993 -0.01981949 0.00025182217 -0.014975178 0.0031879488 0.0075396467 0.015792854 -0.0022099968 0.00299225 -0.011703701 -0.0131319 -0.016783766 0.007022226 -0.008826117 0.018142145 0.016274057 0.008966414 -0.016906882 -0.010131559 0.00701293 -0.008428185 -0.0088565685 0.0038101152 0.015824042 0.0037903097 0.017754871 4.390441e-05 -0.019377463 -0.01234061 -0.019450098 0.00030970015 0.0069998316 0.0019264482 0.0019740723 -0.01331236 0.007697277 0.0122733675 -0.01154098 0.009743027 0.011161331 0.012241811 0.01688163 -0.005200994 -0.009044204
足 0.006666612 -0.014713008 -0.014075551 -0.0140927285 0.006959174 0.004748566 -0.0131579945 -0.0038823336 0.0025067385 -0.017228067 0.01961862 0.009405429 -0.0076318616 -0.013617832 0.016404133 -0.0004829578 -0.0026377216 -0.008631491 0.012243226 -0.007893521 0.0014278013 0.0072330087 0.013195075 0.01840064 -0.01836656 0.013609484 0.016371291 -0.009044475 0.001654759 -0.012475409 -0.01877629 -0.0065611815 0.0019572992 -0.00943094 -0.004234286 -0.010371461 0.019437522 0.014871601 0.016177863 0.0059869178 0.0010723062 -0.013496494 -0.001753157 0.0039884374 -0.0064449543 -0.013045764 -0.011400649 -0.0004583653 -0.003335908 -0.012955696
居 0.0070964973 -0.019383473 -0.011013879 0.012003992 0.002913814 -0.0063242437 0.005368419 0.0137414895 0.013361603 -0.0022915844 0.014921654 0.006670175 0.003549507 0.019590333 -0.013873484 0.006830564 -0.0049091866 -0.001682505 0.0035622995 -0.0006507877 0.0033658948 -0.004827218 -0.0026772972 -0.012101933 -0.017472012 0.015090611 0.011022467 0.018332787 0.011905674 -0.016805047 -0.009218156 -0.006240134 -0.00021921657 0.008797402 -0.009108016 0.013565715 -0.009367566 0.0006934758 0.002826035 0.0030565746 -0.002296295 -0.012059131 0.002631193 0.010404155 0.0031839926 0.0058339853 0.0045477245 -0.0023456719 0.014724024 -0.009249978
尔 -0.014678909 0.011936523 0.009749465 0.009186136 0.0018610563 -0.013950333 -0.010084836 -0.012002644 0.007280072 0.018244412 -0.0020678993 -0.01757147 0.0008452777 0.0026547518 0.010857772 0.00058354065 0.018419798 -0.012000208 0.0026883464 -0.012811381 -0.017937068 -0.013429021 0.0040896814 0.018542767 -0.014311063 0.0139162205 0.0015666485 -0.013592979 0.0015549641 -0.0036739893 -0.016683998 0.012482114 0.0016983654 -0.004177859 -0.013183956 0.01372464 0.005407147 -0.004182158 0.0074690077 0.015336242 -0.0028790012 0.010702349 -0.0017138012 0.010504443 0.0056080725 -0.0072067305 -0.010500714 0.0061973836 0.014893644 0.006238451
夏 0.0013497528 0.012104988 0.015014939 -0.0029930472 0.0072933882 0.012087509 -0.005255337 0.016253307 0.016552169 -0.008685431 0.015786033 -0.008929658 0.0055115204 -0.015395753 -0.018012187 0.013496861 -0.0025471766 -0.014648762 0.014808085 0.011129277 -0.014477365 -0.00039412826 -0.01606577 0.01689909 -0.014960995 0.009503562 0.010578234 -0.0014558882 0.008837845 -0.0047980407 -0.011555878 0.014676932 0.01752824 -0.00034617446 -0.006423371 -0.015703347 0.011016946 0.0029855873 0.01670831 0.015296526 -0.0010195896 -0.014156794 -0.012451021 0.011796996 0.019877221 0.01877037 0.0048578903 -0.0025626943 -0.013380792 0.0031218845
父 0.008759728 -0.0054978086 -0.008938777 -0.0070230383 0.010355217 -0.009366901 0.018361922 0.013002001 0.016264502 -0.010309117 -0.019504558 -0.0092771575 0.017371383 -0.0036379714 -0.0063518668 0.016951926 -0.015311834 0.00803682 0.011150112 -0.015768576 -0.0009698458 0.0071803257 0.010318728 -0.0018103402 -0.0057423403 0.00081824325 0.019588962 0.006243555 0.01727546 -0.018420462 0.015856665 -0.017438527 0.004131034 0.004761724 0.019799326 -0.01305263 0.004696943 0.004313344 -0.006243093 0.0183038 0.0011505634 0.0054678842 -0.008641353 0.018615626 -0.015141048 -0.0135900825 -0.019997735 0.0064725652 0.008972619 -0.003438864
及 -0.00979875 0.019183334 -0.013168011 -0.017211866 -0.018117942 0.001364138 -0.015128328 0.014446419 0.0069071893 0.0068464857 -0.0028674714 0.0042656716 -0.0059428094 -9.5356256e-05 -0.010311963 0.015933562 -0.011326616 -0.014319079 -0.001101559 0.011697896 -0.019671703 0.0013431404 0.007672986 -0.017830754 -0.0035116486 -0.012078852 -0.013271255 0.016481977 0.0018213317 0.018430274 0.009980004 -0.017832467 0.0022554249 0.00885188 0.006647503 0.008368483 0.015778352 -0.008984623 -0.019001488 -0.0010259729 0.003726501 0.014449429 0.0103579685 0.012415174 0.017838594 -0.0057766894 0.008506663 -0.01227323 -0.007589123 0.0192249
己 -0.0058485717 -0.017513506 0.014222123 -0.0076480843 0.0050676614 -0.0035549682 0.015100244 -0.016462684 0.012582537 0.009026162 -0.019583872 0.00867161 0.01021637 -0.013638789 -0.01096662 0.0008659791 0.0077079535 -0.016843662 0.015539829 0.001103282 0.0018694308 -0.019651145 0.01563188 -0.0075345896 0.017541628 -0.005959885 -0.010616388 -0.019889299 0.0015410762 0.015589345 0.007255245 -0.009319691 -0.00970612 0.004035134 0.0012472086 -0.009662263 -0.015009556 -0.0057321787 0.006841896 -0.00827997 0.01772384 -0.005878241 -0.014406357 -0.010465547 0.019161273 0.01244808 0.007256277 0.013767894 0.013799101 -0.010015044
予 -0.009676745 0.01622497 -0.009732465 -0.010524492 -0.015050253 0.005772736 0.017260399 0.0018500183 -0.005300627 -0.0057496233 0.01035488 0.0028499532 -0.013339791 -0.0042451452 -0.01454613 0.01905509 0.0077110007 -0.009205501 -0.016239345 -0.008675017 0.00026954152 -0.0017607622 -0.0008726828 -0.008614287 0.007320538 -0.00037864223 0.0039017573 -0.013124566 0.0063524693 0.008712599 -0.0017077737 0.00018060952 -0.0045100637 -0.0027780812 -0.0031725187 0.004659958 0.01088115 0.018019993 -0.017202388 0.016613606 0.0022614375 -0.015169714 0.018539347 -0.0065960856 0.012493204 -0.016850328 -0.008927815 0.019009251 -0.009441078 0.011536501
色 -0.0036194045 -0.0006573908 0.0044252127 -0.0005408451 -0.009419999 -0.012331121 -0.0069484636 -0.00948544 -0.019907543 -0.0040157605 0.018879965 -0.006478805 -0.0034127254 -0.013935395 0.008667767 -0.00051831454 0.0027119424 -0.014492724 -0.017358417 -0.010912454 0.0009929519 -0.015573982 -0.009151249 0.011866678 -0.0035948176 -0.013629854 -0.00083894096 -0.01561336 -0.014070849 0.015255261 0.0027840417 0.015486959 0.0015650988 0.008003311 0.009248706 -0.017447764 0.013315629 0.016062286 0.014095597 -0.010798037 -0.00021716207 -0.011279082 -0.014751783 -0.0046182396 0.0070846416 -0.008457679 0.010729132 -0.009021454 -0.004455764 -0.01889325
友 0.008382872 -0.0056257984 -0.011410386 -0.010246403 -0.014566359 -0.009664103 -0.0009936783 0.015235379 0.018533893 0.0118761435 0.016844198 -0.0109943645 -0.014000983 -0.0070722224 0.0030713342 0.012252778 0.013036247 0.006498771 0.011785552 0.0077364203 -0.0062062694 -0.01870886 -0.0038358085 0.017750848 0.012783412 0.0031634644 -0.0014191605 0.012388118 -0.015790418 -0.017649949 0.0022459887 -0.013746316 0.0053452346 -0.0027390774 0.01905657 0.015350021 0.009577924 0.0043795314 0.019222297 0.016893748 -0.0072020553 0.0143304765 -0.00042187236 -0.017628817 0.012151003 0.013850704 0.013642903 0.010245109 -0.018316848 -0.017681178
成 0.0014729165 0.0012120232 -0.007451744 -0.007032673 -0.012801919 0.0013143644 0.01653177 0.006543953 -0.018539025 -0.015178728 -0.012936754 -0.009696698 -0.016722703 0.0041602943 0.008453464 0.0031448603 -0.0035659987 0.016962957 -0.002372736 -0.018370638 -5.2170828e-05 -0.0048223212 0.007038409 0.019500814 -0.005320384 -0.015554309 0.0083409585 0.018293064 -0.0036654808 0.015841093 -0.011636789 -0.007976208 0.003631385 0.018652096 0.004675245 -0.0114770215 0.012453679 -0.015838044 0.0070135407 0.016795322 -0.002661407 -0.018470868 -0.005106532 -0.0038240384 -0.0043516587 0.017082203 0.006422134 -0.0015475824 0.005613249 -0.007993932
远 5.8021396e-05 -0.008100111 0.018127214 0.019964896 -0.008623247 0.010050997 0.013728421 0.008294661 -0.0060429666 0.0053598825 -0.012076308 0.006898407 0.0030705426 0.01334006 -0.009730145 0.014129981 0.0075080805 0.00082854927 -0.013574168 0.011905026 0.019647453 0.001263164 -0.00322661 0.012633752 0.015869044 -0.0028476994 0.017009646 0.010162992 0.017841153 0.010131247 0.010746622 -0.015380496 -0.0054931594 0.019546334 0.01788256 -0.007373709 -0.0053205583 -0.016158095 0.0052874833 0.005740814 0.004039537 -0.004003046 0.009298498 -0.0075136945 0.008670503 -0.0030818954 0.010555934 -0.009970352 -3.0055642e-05 -0.002333546
上 0.00025709718 0.011967648 0.0093147475 -0.0024395734 0.01176396 0.006816568 -0.008043925 -0.0013133809 -0.014612384 0.013066936 0.008241456 0.0024525635 -0.004098801 0.01442666 0.0019901283 0.016801096 -0.011302783 -0.0065239146 0.009544592 -0.0061109494 0.018316142 0.007781949 -0.0008234903 0.0139282085 0.014352564 -0.011535542 0.017926767 -0.002979068 0.011725917 0.010059599 0.009129055 -0.009540364 -0.014185879 -0.009491324 0.002142977 0.011848342 -0.004643199 0.012409087 -0.01567543 -0.00839129 -0.010484099 0.0063421335 -0.018110966 -0.0057123136 -0.01867422 0.0017719511 0.012396347 0.0036057327 0.0005859565 0.005742438
立 0.016439714 0.015312992 -0.0065206625 -0.0099578025 -0.015015857 -0.005772786 -0.006292207 -0.014842341 -0.008753414 0.0024086852 -0.017751204 0.004619766 -0.010970322 0.015725818 -0.012192292 -0.009555638 -0.012411453 -0.01591605 -0.016314855 -0.012543058 -0.013839838 -0.01031997 0.011654008 -0.014278843 -0.012068667 0.008141613 0.019624654 0.009906981 -0.0037560575 -0.019920314 -0.014305361 -0.010558958 -0.0006210301 0.012462292 -0.019824171 0.01928449 0.011753503 0.008973803 0.019083805 0.015868135 -0.01490565 -0.0024971478 -0.014501767 0.01060888 -0.00035069138 -0.016070079 0.0071239546 -0.014895635 -0.0055380324 -0.0016880464
今 0.0003424175 0.0027872846 -0.0134277195 -0.00097654574 0.015680939 -0.01661561 0.011577759 -0.014316232 0.013711426 -0.00084014423 -0.019644853 -0.010098216 -0.018193275 -0.013660388 -0.0024968125 -0.007745538 0.016990174 -0.001015367 0.01380869 -0.0196461 -0.00810806 0.0010987073 -0.01691769 -0.010049994 -0.008352711 0.010313649 0.009502018 0.004279293 -0.0037926678 -0.01824583 0.0023678318 0.0016165059 0.016812459 -0.0045410516 0.0011316016 0.0023880806 0.019279193 0.015661467 -0.008047133 0.0031853653 -0.014872996 0.00736198 -0.000613939 -0.01756114 -0.019540215 0.017288327 -0.005353885 0.012829896 -0.017521689 0.0042867307
张 -0.0009144433 5.859323e-05 0.019004162 -0.017101958 -0.01764844 0.005591478 0.00270129 -0.0025353078 0.008299308 0.0021543764 -0.00071730465 0.0006941296 -0.016700204 -0.0029245876 0.009916587 -0.017762478 0.015137754 0.0065454934 0.014239781 0.0016143583 0.010255134 0.009757321 0.009692533 -0.0065502953 -0.0073507475 0.0068216603 0.004586082 -0.013809521 -0.0071741343 0.009016657 -0.012849579 -0.01847076 0.0146460235 0.010252679 -0.005478246 -0.007000804 -0.00094331056 -0.0071984148 -0.018396739 0.014182001 0.017483301 0.017865427 0.00012841262 0.009733941 -0.01423578 0.0060027093 0.018739443 -0.0028564073 0.014579777 0.0026609637
中 -0.0063056257 0.015681379 -0.0040748566 -0.00080317445 -0.0035738088 0.0078004245 -0.010966885 -0.012663696 -0.015726978 -0.0043032654 0.018877141 0.019976605 0.00022432394 -0.016484791 0.013403881 0.015320212 0.017658208 -0.005310583 -0.0038528293 0.012397047 0.005558422 -0.007547362 -0.010375035 0.0129278265 -0.0150149055 0.017877564 0.014181141 -0.00062116235 -0.003440287 -0.009857352 -0.008624248 0.0067837276 0.0050740354 0.0042608567 0.0029132795 -0.005429702 -0.01539433 -0.0065608546 0.0111856125 -0.00074111857 0.012454275 -0.0054308316 -0.012749493 0.011488944 0.0024628546 0.017041571 0.015613351 0.0075450707 0.016898029 -0.010909569
季 -0.010202982 -0.013812371 0.0060211606 0.006242562 -0.017962227 0.015430015 0.014515355 -0.0134512205 -0.0016954206 -0.01204195 -0.0013999864 -0.004172139 -0.0053823283 0.008206468 -0.015195126 0.00848864 0.011489797 -0.0037233923 -0.011861135 0.019271221 0.009793503 -0.013637902 0.017915104 0.004128428 -0.0060682986 -0.0093602175 -0.017828517 -0.015189404 0.013154186 -0.0025770608 -5.272776e-05 0.00073305145 0.016764473 -0.005698221 0.0062714554 0.008354858 -0.0027121324 -0.003426887 0.011578847 -0.018893786 -0.011547489 0.01589853 0.00452457 -0.0021973755 0.0146266185 0.012384661 0.016384888 -0.0035402067 0.019994173 -0.014164803
臣 0.012159225 0.012973979 0.0019258596 0.010619676 -0.004047081 0.00865126 -0.017022697 0.005884493 0.017294157 0.0075713675 0.015736442 0.018603101 -0.01936445 -0.013191616 -0.002257865 -0.0058594365 0.01615639 0.016953792 0.0097841825 -0.0051223394 -0.011181922 -0.0037743617 -0.011967855 0.0034800489 0.0028449912 -0.012417013 -0.013943779 0.009357361 0.0026897993 0.0017685238 0.0059595443 -0.0036285128 -0.005392909 -0.0029985718 -0.00014799088 0.005170459 0.0085151065 0.009103607 0.007755697 -0.011666028 -0.014957983 -0.013630731 0.015114445 -0.008020737 -0.0076926965 -7.972866e-05 0.01676675 0.008098114 0.005817633 0.010978382
贤 -0.0067124674 0.0038659386 0.0064042993 -0.004234908 -0.0012364648 0.009389784 -0.0014127716 0.016264196 -0.018527087 0.00047370046 0.010733053 0.014904134 -0.00079217367 0.005674109 -0.009803262 0.018825691 0.008276651 0.008767353 -0.008737717 0.006180119 -0.0076187914 0.017466221 0.019054309 0.0075756237 -0.011660037 -0.019373419 0.0120862685 0.01950039 0.016796742 0.013038665 0.012686346 0.014973525 -0.006377845 0.016573843 0.0070741326 0.0054034907 0.0044221357 0.0026486889 0.0038577002 0.019733954 0.016772691 0.01763875 0.004931938 0.019901987 -0.008935615 -0.004858465 -0.010695672 -0.0029213522 -0.015913326 -0.018376801
思 -0.0083312625 0.0027119927 -0.0045966795 0.0025447365 -0.0036197547 0.008315813 0.010992462 0.010402862 0.009030778 -0.016245987 0.008817842 -0.013909433 0.011102609 -0.0075480146 0.0068408847 0.00449506 -0.0042458456 0.0064630937 -0.0013176464 0.017870892 0.01754506 0.0053087026 0.0134230815 -0.015243554 -0.0055622766 -0.0030233245 0.016230434 -0.019220173 -0.008076701 -0.014296715 -0.011542721 0.004881162 0.007757457 -0.0160624 -0.018320164 -0.011405625 0.010127364 -0.0119608855 -0.005511136 -0.01161253 -0.009199659 -0.0036274102 -0.012224586 -0.004698932 0.016937483 -0.007831097 0.009717524 0.012210511 0.006300807 0.0069466867
齐 0.014741562 0.018534571 -0.010786572 -0.014492268 0.00023416989 0.0076972954 -0.010018675 -0.008002402 0.0048522633 -0.0057858964 -0.014952416 0.016456336 -0.006823959 0.012862872 -0.017900681 -0.01933563 -0.014669325 0.007594021 0.0046976656 0.019560073 -0.009811022 0.008008769 0.01127902 0.017415617 -0.0089351125 0.011631642 -0.013498125 0.016550682 -0.015069818 0.012569107 0.012503821 0.0021806713 -0.004547951 0.0120698735 0.0147937685 0.008995976 0.016810711 -0.0040194206 -0.01745513 -0.009708388 -0.007962661 -0.0007384699 0.00061949715 0.014440361 0.01616953 -0.013198299 0.012257837 0.017611772 0.018637866 -0.009848277
义 0.018423155 -0.0019664597 -0.003732562 -0.016209133 0.0108356085 0.015412338 -0.0199597 -0.00969238 0.011624876 -0.007626416 -0.0066054175 -0.01951213 0.01748497 0.008676203 0.006524237 -0.002899168 -0.019459924 0.007799439 -0.01096812 -0.00875622 -0.009938934 0.0031970516 -0.01461142 0.0071215555 0.018132798 -0.006052804 0.013022006 0.015323028 -0.0050347447 -0.002501063 -0.0012133364 0.0083318595 -0.0037095062 -0.0051926346 -0.0053249 0.0051969793 -0.0013153274 -0.014226446 0.011494681 -0.0007994678 0.005741451 -0.017307106 0.004328899 -0.0022887401 -0.0063581374 -0.0052964976 -0.014413016 -0.0010451078 0.013241235 -0.00089105405
正 0.009122407 -0.01312978 -0.0036626775 0.006116716 -0.0065260194 0.013116185 -0.004391239 -0.012353063 0.01725373 0.0066500343 0.011739422 -0.008985793 5.4500997e-06 0.0118884705 -0.0010146312 0.014040101 -0.007325353 -0.0023098364 -0.0141506735 0.0029312912 0.01644662 -0.005011103 -0.0050188256 0.0067059435 0.002352139 -0.0013107713 -0.0043760994 -0.015668835 0.004628854 -0.01542272 -0.010707564 -0.017018244 0.0051038787 -0.0009072609 0.0011802893 -0.013893559 0.002347719 0.013778891 0.015168961 0.0029897336 0.000269508 -0.015147306 0.0030872896 -0.015993975 -0.019121207 0.010797815 0.01057286 0.015742574 0.007168252 0.0050128046
命 0.017158616 -0.014902589 0.011267148 -0.016323471 0.00082527474 0.012866851 0.009082779 -0.012955146 0.009175124 -0.015320918 0.005880218 0.005935872 -0.0011006407 -0.014039159 -0.011618318 -0.013187439 0.005673988 0.0065595414 0.010015683 0.015986003 -0.017586997 -0.009702289 0.016477786 0.0016603805 0.014024932 -0.013948653 -0.019149937 -0.017062072 0.007130461 -0.015373265 -0.011088206 0.003748376 -0.012975497 -0.011822736 -0.0073819235 -0.008506781 0.0034211352 -0.011558902 -0.002605088 0.016479954 0.019665029 -0.014507065 0.0018286556 -0.007329643 0.00073762424 0.01867592 0.007836426 -0.007566087 -0.0019347388 -0.017504528
曾 -0.002157487 0.009158466 0.012262106 -0.016528193 -0.019064762 -0.014893913 -0.004827845 -0.002258189 0.015109718 0.0002986025 0.008173827 0.014400922 -0.016754711 0.014699955 0.0071145818 -0.0074476004 -0.016411602 0.00074564666 0.008299047 0.007969709 0.011769209 -0.01537382 -0.010869531 0.015151411 0.01157802 0.00236243 -0.0065664053 0.005306961 0.015493192 0.00748528 -0.0058428124 -0.017695338 0.008374333 0.01528284 -0.012854471 0.013552688 -0.002524631 -0.0054497793 0.003475029 0.003218742 0.008597946 -0.006368704 0.018950291 -0.0075859306 0.008876966 -0.015682489 0.006400613 0.0036587268 -0.0015418772 -0.0021988843
伯 -0.008437435 0.006355975 -0.013002321 -0.018748768 0.0005562678 -0.008523905 -0.0084067155 0.017826937 -0.004618113 -0.004174264 0.007203657 0.010719493 0.009240234 0.012678228 0.016564824 0.013341501 0.01608922 -0.010043872 -0.0180399 -0.005842345 0.009482948 -0.016048577 -0.007940464 -0.014693305 -0.016167393 -0.0032567456 0.01256324 -0.0095495675 0.012843613 -0.0010570176 -0.015864512 0.0054112747 -0.0051555755 -0.009056336 -0.01500606 0.019622535 -0.0045615025 0.018236972 -0.0183122 0.006000897 -0.0023731478 9.569712e-05 0.014784656 -0.0045293113 -0.014602947 -0.006220608 -0.004742882 -0.008030713 0.00019150041 0.01143457
门 0.012399919 -0.0034086388 0.008012695 -0.0015234891 0.01783175 -0.0030469373 0.019829754 -0.01487246 -0.0041833725 -0.001160033 0.011314876 0.001333449 -0.016761478 0.019161351 0.016901199 -0.0049613947 -0.014069628 -0.019357676 -0.0022612866 -0.011545941 -0.014152952 -0.009670177 -0.0033069085 0.0036449414 -0.017672524 0.0013758186 0.009223003 0.016023234 0.019594725 -0.008044574 4.8367307e-05 0.015095722 -0.013589563 0.0063189548 -0.017351668 -0.019116415 -0.013454508 0.009588141 -0.01773673 0.005881831 -0.018628828 -0.009352458 -0.017786419 0.012171309 0.014055457 0.019711893 0.01931499 0.0190233 0.01008017 0.0036010798
敢 0.0145817585 -0.00032893382 0.017002955 -0.014146864 0.0196063 0.008339532 0.012009028 0.017247383 0.012485664 0.0029139072 0.0083424095 -0.0036644954 0.017891333 0.0028717034 0.019485213 -0.017426498 0.0187321 -0.016573416 -0.019296058 -0.0025772732 0.015783925 -0.00969089 -0.017629353 -0.002497647 -0.004637773 -0.01574885 -0.0008136723 0.0006015189 -0.014343211 -0.009698067 -0.0022114702 0.0068877116 0.019026734 0.016579796 0.0039525013 -7.802434e-05 0.009005865 0.0075070467 -0.018651001 0.0038196798 0.01611074 -0.0030378047 -0.00026064366 0.0028482955 -0.01573734 -6.2584877e-06 0.018460348 0.019221138 -0.00026805885 0.007310042
犹 -0.015625495 -0.0065950705 -0.0066340445 -0.009553501 -0.0015730336 0.019838966 0.009020148 0.008062752 0.0012024213 0.0050723385 0.016496688 -0.0036053974 -0.010165391 -0.010221023 0.019968364 -0.0022451654 -0.008534536 -0.007983453 0.014402766 -0.01720294 0.00597487 -0.006369793 0.016896077 0.002104139 0.012157049 0.01769742 -0.0038018934 0.005407488 0.0012352299 -0.007151275 -0.0018298272 -0.011824443 0.0026723836 0.0074826498 0.0016031321 0.009879958 -0.018275006 -0.019292524 -0.00935704 -0.009353234 0.0012274701 -0.008480806 0.019832045 -0.015700165 0.01666405 -0.017082991 -0.01683599 0.018580742 0.0034314673 0.0017693155
生 0.012521215 0.0104830135 -0.010694799 0.0062583257 -0.0059570903 -0.010787455 -0.0032855477 0.009080248 -0.00553081 0.016356353 0.010145843 -0.013944618 -0.004760571 -0.0072099306 -0.009589622 -0.00093539804 -0.0042174216 -0.017291423 -0.0035193656 -0.004775269 0.018175356 0.00013924576 -0.007323971 0.0007554069 0.0041157063 -0.0033135246 0.0141790025 -0.017351892 -0.013494942 0.011940315 0.004415851 0.009158151 -0.002000885 -0.0020146724 0.0108537935 -0.007140944 -0.005758941 0.014490318 -0.009131143 -0.0051684426 0.013648115 0.013093971 -0.003539309 0.016807452 0.018837128 -0.008587825 0.014928777 -0.009412885 0.018642057 -0.011953099
日 -0.0067679137 0.017953198 -0.0050431155 -0.006820433 -0.00042277575 -0.0043481737 0.0065902043 0.01883386 -0.0008630678 -0.0006653648 0.0009473115 0.0023640227 0.01560064 -0.013702709 -0.012345836 0.008006554 0.0021736808 -0.015674284 0.00042244606 -0.0034732707 0.010031136 -0.0026406832 -0.0077015664 -0.013171179 0.018922552 -0.0064847423 0.001875896 -0.018597627 -0.004248867 -0.018570842 0.0077601187 -0.010145921 0.0041752737 -0.0126056215 0.019770518 -0.008016684 0.01589588 -0.014006583 -0.019190792 -0.016683212 0.0022708327 -0.01780751 0.017259747 0.00020362064 -0.017822549 0.01990557 -0.014330139 -0.004182797 0.0098728705 -0.004833529
敬 -0.01993241 0.005808575 0.011717606 -0.017173218 0.014725231 0.007736502 0.016376179 0.010173153 -0.012027077 -0.0049888613 -0.009017646 -0.011389126 -0.018887056 -0.019137237 -0.009554472 -0.012816388 0.01705632 -0.0037878305 -0.009520225 0.0009311028 -0.011358802 0.0105962325 0.012402426 -0.0059379386 0.008898484 0.016722534 -0.0036416631 -0.019361934 0.007199252 0.0025850013 -0.0064638993 0.005628273 -0.011922838 -0.014899274 -0.003320951 0.005722223 -0.0022519901 0.014258571 -0.007641759 -0.0125922635 0.017678652 -0.013687903 0.012074627 -0.004822259 -0.015584774 0.01856783 -0.00077037513 0.006404994 -0.0070218826 0.0001710467
难 -0.011212244 0.013380595 0.0130199455 -0.0008229371 -0.01818895 0.0118418485 0.005228283 0.019373793 -0.0028424803 0.009255104 -0.0011402518 -0.01423146 -0.005285416 0.013162244 -0.016004145 0.003998274 0.008739507 -0.0054600807 -0.019733803 -0.0010147449 -0.01943716 -0.0003808327 -0.0067322683 0.004941523 0.019604377 0.0050753877 -0.000886783 0.0057082064 0.0059436243 0.016235031 -0.019635875 -0.013336768 -0.0032563116 -0.006956596 -0.0028658118 -0.018842317 0.013442624 -0.008181269 -0.00390457 0.015204009 -0.015355237 -0.0031739473 0.010635097 0.007107513 0.004095616 0.012582578 0.006622713 -0.0065423083 -0.0053052427 -0.010296235
直 -0.0037970114 -0.015687834 0.014952585 0.011159439 -0.018392902 0.012950528 0.011110103 0.019839395 0.013188597 0.016683713 -0.011567718 -0.005510604 0.013352383 0.005045576 -0.012309857 0.0076156575 0.007517481 0.01867709 -0.019053921 0.01886319 -0.0030450206 0.014213011 -0.0147156045 -0.013962081 -0.015208284 -0.013198344 0.010158505 0.007913081 -0.0028330795 0.017065797 0.00049533695 0.0060486402 -0.00891191 -0.019695675 0.010343881 -0.0036407597 0.018881265 -0.010090718 0.015298821 -0.0076235654 -0.00185268 -0.018388284 0.003203215 0.01907342 -0.0023059305 0.009516802 -0.0076388596 -0.00994373 -0.0143904 -0.014976485
丧 -0.006840038 0.0022986103 -0.009517763 0.018754438 -0.015767192 -0.008752992 -0.0040326975 0.009792618 -0.0152733065 0.017761271 0.014990073 -0.016632445 0.01570686 0.016441155 0.011124993 0.018878099 0.019788343 -0.007030501 0.0075026993 -0.011247291 -0.00029707514 -0.01937007 -0.017094323 0.0013465825 0.019395638 -0.005764518 0.019673053 0.017754942 0.015793145 -0.0042464323 -0.01966863 0.0072242618 0.0047801286 -0.00020208582 -0.003237484 -0.002720967 0.002134597 0.01840641 -0.015902925 -0.007912436 -0.01694812 -0.010923712 0.018592782 -0.019031942 -0.016261045 -0.00089110807 0.015875742 -0.015154526 0.0032818206 0.008869629
说 -0.019021206 -0.011477654 0.015268624 0.0026703924 0.016435076 -0.0061002113 0.0052176863 0.0128212795 -0.0029767007 -0.012041571 0.016030256 -0.0043492336 0.006952012 0.0032682084 -0.016903456 -0.011393885 0.012994532 -0.019961921 0.011797767 0.016581587 -0.011109945 -0.005590546 0.013520051 0.016594507 -0.0030375402 -0.01802855 -0.008114512 -0.0075782603 0.01625529 0.0051262304 -0.01821798 0.00858083 -0.005183966 -0.0026734453 -0.013917185 0.002414124 -0.011007375 -0.008565009 0.007340975 -0.016156366 -0.0025537293 0.011110909 -0.017443085 -0.0012873486 0.012511831 0.017717097 0.018789627 -0.0066780522 0.008993927 -0.0141900275
自 -0.0077958535 0.007385904 -0.01206017 0.009923365 0.001511503 0.00905598 0.008193631 -0.0042729564 0.014752265 -0.0009972043 -0.014001171 -0.0070954347 -0.0046961643 -0.0129886605 -0.005110087 -0.012708973 -0.0150602 0.014649361 -0.008909435 -0.0022810698 -0.013008384 -0.011151354 -0.01595638 -0.0015298985 -0.009561612 -0.0070960447 -0.015662592 0.014862843 -0.00059003383 -0.010176275 -0.01810961 -0.014931242 -0.0051512336 -0.0024642777 0.012000378 0.014306422 -0.0126564335 -0.008482733 -0.002470879 0.008427687 0.013173528 0.011580564 0.009896355 -0.016135555 -0.014851732 0.016169649 -0.008488979 -0.0034825224 0.0096886605 0.007052008
用 0.019016348 -0.0060979463 -0.0008784514 0.012129225 -0.00053276494 -0.011586241 -0.00998955 -0.0072350455 -0.012407734 0.0055944473 0.0025089458 -0.013295455 0.0014354829 0.0017688703 -0.0077527473 -0.0032035057 -0.00031659566 0.014709372 -0.004050577 -0.0017257091 0.014577821 -0.009007039 0.010192368 -0.011155439 0.013731673 -0.0036190934 -0.0035875328 0.009565845 -0.012170274 -0.011159303 0.0017479546 -0.004450011 0.0006822515 -0.005559683 -0.017272111 -0.018266978 -0.0001122877 0.012498453 0.008619959 -0.017079761 -0.015682196 0.013467498 -0.015690813 0.0036927722 0.01716806 -0.0023507923 -0.005794108 -0.011313355 -0.007544987 -0.005615182
周 -0.012677414 0.0010615494 0.006985409 0.0003734082 0.010178147 0.01732286 0.010650303 0.00068728626 -0.0015436839 0.008296251 -0.000261819 -0.0061097695 -0.0055186916 -0.015411975 0.0016777404 0.0033118017 -0.00807549 -0.0013545565 -0.00050687604 -0.007450194 -0.0031776503 0.0019466802 -0.009575786 0.0025392007 0.009499088 -0.00023007207 0.019431483 -0.0028730296 0.008426653 -0.016697401 -0.012585649 -0.0024077483 -0.0058782697 0.017962359 -0.0145191355 0.019943837 -0.00891809 0.01427627 0.0019071288 -0.016216628 -0.014257824 0.011321321 0.012089964 0.0073920004 0.005300803 0.009731276 0.007879652 -0.009377952 -0.012982969 -0.019643616
颜 0.003831474 -0.0003718231 0.0050472226 0.013325483 -0.016387206 0.008237004 -0.0142411105 -0.0016346034 -0.0010787528 0.009092173 0.0015021488 -0.0120663615 -0.0019518118 0.009875612 0.0026063304 0.0020269528 0.009044182 -0.004547029 -0.0017057806 0.00041486323 0.011433616 -0.015360527 0.019914154 0.01811723 -0.0148932785 -0.010682673 -0.005513251 -0.0051361397 0.018808268 -0.0037609655 -0.012648888 -0.01828973 0.009692369 -0.0015977845 -0.0029579662 -0.010448804 0.013865355 -0.018488338 0.01317722 0.0130841695 -0.011255763 0.012266759 -0.009926507 -0.00714586 0.019534234 6.381236e-05 0.0077082515 -0.0106421495 0.017487235 0.005221812
年 0.010119956 -0.006798625 0.0005863849 0.0063093845 -0.0068789143 -0.0141517725 0.014823511 0.013763055 -0.016896632 0.004377162 0.0039699934 -0.018572275 -0.00032501668 0.0060549863 0.009386389 0.0039855503 0.004051838 0.0016768333 0.017076448 -0.008736076 -0.016165487 -0.016830014 0.0038634278 0.007964486 0.0074057057 0.007253142 0.019680396 0.0014246721 0.019558217 -0.012885949 -0.013891449 -0.008226575 0.010798762 0.006178735 -0.0035698656 0.01551557 0.0074857622 0.0062533375 -0.006545348 -0.017560294 0.014275607 -0.015748847 -0.015877506 0.0024198014 -0.01583112 -0.0010771398 0.012313448 -0.01602079 0.016297262 -0.001613345
告 -0.019900527 -0.016271107 -0.012402782 0.019835357 0.013919152 -0.0007690266 -0.009855663 -0.0038289912 -0.005459712 0.01854892 0.016311076 -0.005669348 0.019988213 -0.016277507 0.0071134064 -0.012776968 -0.0048848744 0.011400223 0.00026923418 -0.0040366724 -0.009185729 -0.01030993 0.013535183 0.018277045 -0.0032242313 0.015680954 -0.0111920135 0.011725213 -0.019342758 0.008080948 0.011418045 0.015604999 2.1826476e-05 -0.0008871835 7.841736e-05 0.00440279 -0.010611505 -0.010924749 0.0073348545 -0.01571773 0.012692407 -0.0019209031 -0.014719755 0.0038862918 0.009169551 -0.0055846786 0.00522713 -0.0037666038 0.011214344 -0.0080392165
十 0.0043651965 -0.009489727 -0.002235625 0.005822923 -0.0022278018 0.002659507 -0.016828671 0.0093044285 -0.016998047 -0.0037179142 -0.009510879 -0.012500543 -0.010897202 -0.00995235 0.013959266 -0.011492891 -0.012204621 -0.012644765 -0.019346142 -0.007155833 0.016035821 -0.018710129 0.006250618 0.0065618902 0.010822281 0.0025140978 0.0041384846 -0.01822648 -0.012430925 0.004900072 0.012157507 -0.0076349135 0.013589248 0.01173801 -0.0076938123 -0.00070661306 9.904802e-05 -0.009961829 -0.010256601 0.01113759 -0.0044265147 -0.016521607 0.010770353 -0.001199469 -0.014839547 0.009624824 -0.0008301586 -0.013840232 0.012697294 -0.0070638247
怨 -0.019552294 0.0008395035 -0.01380419 0.0120138675 -0.0103515815 -0.014189741 -0.01645407 0.0034537483 -0.0003737919 -0.0016188174 0.012981445 -0.005403271 -0.01618241 -0.009733472 -0.015409488 0.014116447 0.011578098 -0.0016288683 0.0045338348 0.017933693 -0.014014518 -0.0075776484 -0.0063228225 0.0051035807 0.0009124093 0.0037195273 0.0148073025 -0.0019982234 -0.010778372 0.013065286 -0.009069376 0.01764946 0.004905427 0.008009279 0.00529206 0.0017799325 0.006806096 -0.013439471 -0.006870296 -0.011675334 0.007213114 0.0014725104 -0.004566445 0.008485885 -0.0063073225 -0.01603891 -0.004521329 0.005411109 -0.004126733 0.0004531145
达 -0.001535736 -0.011290717 -0.0089849755 0.0118251 0.0034013037 0.0016260631 -0.014495416 -0.008227468 -0.019189147 -0.0072951196 0.0036893561 0.014320105 0.0071413517 0.0003747102 0.012894575 0.0045958813 -0.011610267 -0.0038508493 -0.017383305 -0.011051576 0.016254943 0.012577057 -0.010025604 -0.006956782 0.012083288 0.004793491 -0.012943653 0.001472868 -0.0030823424 -2.739951e-05 -0.000248231 0.0010370426 -0.015916508 0.00025613792 0.019243006 -0.004739361 -0.013415453 -0.01656397 0.01588517 0.011798274 0.010932839 -0.007663793 -0.0006392412 -0.014115997 0.0064593907 0.008054864 0.018618539 0.003353279 0.019145392 0.011976246
孝 0.0019651558 -0.0047358507 0.013387341 -0.008503737 0.008129578 -0.012225648 0.0036541112 -0.013262968 0.007882757 0.016206723 -0.019161236 -0.008590357 -0.0058477903 -0.010241036 -0.013900852 0.014668837 -0.0091724945 0.004877422 0.0065156855 -0.00024371222 0.0072532315 0.019396137 -0.007805447 0.008622944 -0.0055180406 -0.004261477 0.0012005214 0.009743165 0.016355503 0.0032976437 0.013170809 0.019136768 -0.00068870746 -0.013898704 -0.012607131 0.012387231 -0.01749009 0.010567382 -0.00090492517 -0.01092221 -0.019459493 0.012454767 0.0059287865 -0.0033257548 -0.00019036792 -0.016539674 -0.016874595 0.013154682 0.01018131 0.013111502
弟 -0.0052229185 0.0034397598 0.0054670237 -0.0113659 0.0059618857 0.019536264 -0.0020973794 -0.0040024836 -0.008721981 0.005131047 0.018446393 0.008971181 0.01234097 0.0188955 -0.012582967 -0.01108078 0.002429625 0.004715083 0.010620408 -0.011159291 0.004866002 -0.012544522 -0.012915165 0.007747274 0.0060949735 -0.0031914823 -0.017981643 -0.008332419 -0.00039700978 -0.00059918687 0.012064341 0.0108455755 0.0070871897 0.0059870332 -0.007326939 -0.0111821005 0.01352331 -0.012949557 -0.016428078 0.001504058 0.008628275 -0.013925755 -0.006653034 0.008283593 -0.015375981 0.0027667657 0.009282965 -0.00345527 0.0054533556 0.004787434
至 -0.01661186 -0.014811611 0.0061369557 -0.008539431 0.015330233 0.01469766 -0.0147401495 -0.012324397 0.004651243 -0.018995637 0.009860948 -0.004339967 0.0038345195 0.01684311 0.01765925 -0.0103590675 -0.0008612368 -0.010039086 -0.011806245 0.007247798 0.01136386 0.005578628 0.0038656946 0.01937205 -0.008602144 -0.017937118 0.009653069 -0.0056054257 -0.012221882 0.01008272 -0.0079436395 -0.0022612903 0.012842994 0.011263333 -0.0008151382 0.010154476 -0.0055397367 0.01194622 -0.016605917 0.01812968 -0.015648171 0.012210328 0.0040647443 0.011614803 -0.0014016144 -0.006451347 -0.007861266 0.0019268766 0.014562622 0.018584836
先 -0.0100539755 0.019927029 -0.009057727 0.0019975305 0.007192133 0.0031360537 0.0009269528 -0.0072336793 0.014404133 0.01682683 -0.01897848 -0.01722168 -0.0069487235 -0.008159647 0.013226941 -0.00915767 0.017053116 0.004528029 0.0066887643 -0.0070489813 0.012594152 -0.014225682 0.01760758 -0.0060658148 -0.013554269 -0.010839545 -0.019610183 -0.018280173 0.006828524 0.014271345 -0.00399168 0.009561701 0.00082356855 -0.0065584136 -0.017520353 -0.0029139128 0.0098709185 -0.018860105 -0.009695444 -0.010639029 0.009167772 -0.00086420216 0.01673372 -0.0066203875 0.0121020675 -0.005536041 -0.0063549206 -0.0051088734 -0.015472423 0.019773033
师 -0.0027548335 -0.008501892 0.014222372 0.009321537 -0.00032271072 -0.01764274 0.004320545 -0.0058079455 -0.017413286 -0.012300369 0.01881244 0.007994521 -0.016019769 0.0075843316 0.0029019993 -0.0048576286 -0.0055158706 -0.0052289367 -0.007039883 -0.018237203 -0.002555117 0.011900969 -0.008294706 0.0085663665 0.01434502 0.019649737 -0.01956207 0.0016886685 0.0059929322 -0.012298648 -0.019682657 0.014882527 -0.0068754526 0.018989604 0.007161189 0.0071471967 0.009912685 -0.010854322 -0.019217892 -0.008530071 -0.0019546002 0.005003322 -0.0026966054 -0.016632764 0.019592103 -0.009694252 -0.0028593987 -0.0032217111 -0.0053389287 -0.012366628
女 0.017251227 0.01636431 0.009626392 -0.010637464 -0.0012125093 0.008084249 0.016645744 -0.010416214 0.019966274 -0.004945552 0.019302234 -0.002216408 0.015252378 -0.018966218 -0.007661774 -0.011209519 0.017856963 0.013849661 -0.01127804 -0.016432092 -0.015573294 0.012655765 0.0024749972 -0.010109758 -0.0062787533 0.010652259 -0.000106150284 0.007140713 0.01058721 0.016885348 -0.008139048 -0.010120721 -0.018140428 0.0051189233 -0.016673807 0.003375575 -0.00023566559 -0.019999329 -0.013513824 -0.0077933595 -0.012815761 0.019324582 0.011625737 0.018931802 0.009752234 -0.0060629435 0.004986629 -0.007972126 0.013966262 0.0168664
多 -0.008069243 -0.016645852 0.0019260906 0.012523051 -0.0017227344 0.017351914 -0.0035267957 0.018899351 0.009694101 -0.0019111726 -0.0031919125 -0.00025496632 -0.009690635 0.006360622 -0.0048075365 -0.0028869398 0.01917833 0.008351915 -0.015181012 -0.009715915 0.019904368 0.010473553 0.015989505 0.001459863 -0.00019155815 0.0040943027 -0.0054687187 0.0074723773 0.0078193545 -0.0108957505 0.0068831965 -0.006574237 0.008334978 -0.00876445 0.0029519983 0.019958086 -0.013722374 0.008278692 0.006709723 0.00093566254 -0.016316757 0.015754245 0.008476991 0.005034633 -0.0077621434 0.002638083 -0.013438208 0.0064702313 -0.0129428785 -0.01073826
忠 -0.0050931145 -0.009955313 -0.01203845 -0.0034979098 0.012592211 0.017740596 -0.0019854046 -0.0015903041 0.011143662 0.009397754 -0.018513901 0.015220966 -0.0024304893 0.0054441188 0.01407906 0.007760562 0.019367348 0.0048427097 -0.017379573 0.008679297 -0.008756778 0.0059831683 -0.0093620485 0.0072327964 -0.007996452 -0.011813979 -0.0040048417 -0.009405961 -0.009066126 -0.003790198 0.009253874 -0.0012827199 -0.0035219844 -0.01275583 -0.005674338 0.014850859 -0.013384614 -0.019329218 -0.018633552 0.0144493915 0.0016714185 -0.015409362 -0.017286131 0.014909286 0.0038901512 0.018644314 -0.012810857 0.005456092 0.008876685 -0.0056841634
四 -0.011719455 -0.009312999 0.019701682 0.0078072473 -0.004972944 -0.0029758383 0.00034284778 0.018044416 -0.012426507 0.00061108544 0.019432873 -0.005877848 0.012862559 0.006562652 -0.018566532 -0.0003409069 -0.0037605148 0.001982538 0.010479212 0.00058296137 0.01624072 -0.017785804 0.008876435 -0.012727311 0.0037312936 -0.018435542 -0.01188076 0.011982255 0.012491312 -0.010470175 0.0052307323 -0.0020620655 4.2019412e-05 0.0074596014 0.01236055 -0.014015216 -0.0029103272 0.0048510097 0.0064471457 0.010924403 -0.010147533 -0.0011115689 0.011894621 -0.01682565 -0.008378923 0.01897844 0.01678826 0.01346093 -0.018960731 0.007874917
疾 -0.00412694 -0.015373625 -0.0035489015 0.016799167 -0.018954782 -0.015685871 -0.0029219706 -0.011805994 0.017131489 0.0030521266 -0.0142376255 0.0077730566 0.009538168 -0.012574959 -0.009367325 -0.0045211436 -0.003835652 0.019447982 -0.00040304847 -0.016949272 -0.013014039 -0.012840991 0.00834872 -0.0020498373 -0.0020063426 0.0067199394 0.0045027565 -0.00032204576 -0.0009821393 0.0051563885 0.0029281229 -0.013052826 -0.011324022 -0.003281664 0.010865111 -0.00080300495 -0.010344825 -0.0083007235 -0.001651356 -0.018185455 -0.0066431286 0.0189494 0.010582577 -7.4751675e-05 -0.00888592 -0.0021903757 0.003423512 0.0027057454 -0.011592286 -0.004238818
服 -0.00089223124 -0.008428435 -0.01693364 0.010830548 0.014490504 -0.016179344 -0.015490364 -0.012453556 -0.003672177 -0.0003030561 -0.0017851256 -0.013196926 0.012077671 -0.007449262 -0.016563818 0.014270965 0.018883556 -0.0038555544 0.018413208 0.013314884 -0.014856123 -0.0152343055 -0.009891099 -0.015904803 0.006275503 -0.016580049 -0.01763076 0.0049842577 -0.005742145 -0.0075898264 0.017652493 -0.010906107 -0.011444613 0.0010494702 0.003040636 0.014342185 -0.015700951 0.008726763 0.004716227 0.009734241 -0.0058592893 0.0147025995 0.003389364 0.019503124 0.010168605 -0.014447035 0.0079698395 0.0057627223 -0.008824527 0.010652546
氏 0.00011136383 0.014199205 0.0045075733 -0.009514338 -0.0058248593 -0.015022113 -0.01345511 0.0017754249 -0.013283774 0.0025543887 -0.014065692 0.0013757888 0.008115215 -0.005339372 -0.012213292 0.012923237 0.0072809644 0.006889835 -0.0075816987 0.0052371137 0.016133316 -0.013652369 0.0009831637 0.010559116 -0.002781108 -0.019521022 -0.0015625898 0.016140968 -0.008503878 -0.008480234 0.01708977 -0.0037875753 -0.009846325 0.008883627 0.01605235 0.012102991 -0.00028297864 -0.009380018 -0.0011950545 -0.00478846 -0.019029459 0.011674091 -7.722527e-06 0.0025021844 -0.0077583045 -0.009210217 -0.006773102 0.007101305 -0.018776804 -0.009072604
冉 0.011488296 -0.013405109 0.014012147 -0.01665074 0.011610616 -0.015823953 -0.01708705 -0.0014245622 0.014277589 0.015518028 0.010827262 -0.014043858 0.0030285716 -0.006870942 -0.003500035 -0.013368091 -0.011165728 0.006628955 -0.019914266 -0.0004158672 -0.007968924 0.001065636 -0.0032943003 -0.0029678848 0.0021903235 0.0054909624 0.010142235 -0.0016231593 -0.013862541 0.008781444 -0.0076748366 0.005809929 -0.01705405 0.016017754 -0.008339405 0.0018214993 0.0011622235 -0.0081374645 -0.009214175 0.014472302 -0.0029861666 -0.016766405 -0.014165804 0.009795675 -0.000862401 0.017009981 -0.0068536922 0.017750915 -0.008348412 -0.017543478
将 -0.01343409 -0.013854952 0.014786292 -0.0016210247 0.00502266 0.010364015 -0.0100446865 0.004910713 0.012254588 -0.013139708 -0.006006279 -0.009130447 0.012987681 -0.0073717525 0.0065721367 -0.0059114173 0.009318512 0.005230058 0.0043293927 -0.018647283 0.006738661 -0.009078281 -0.0025315639 0.0066319145 -0.019500215 -0.0055357143 -0.015364134 -0.01469043 -0.010930595 -0.010945599 0.014731523 0.013556723 -0.009526243 0.01835164 0.010583924 0.0016542859 -0.0011685584 0.010152774 0.014742345 -0.0010363627 0.0049222354 0.01496128 0.011082703 -0.0042694807 -0.0045747617 0.015945535 0.0021118 0.016668547 -0.011633088 0.01272225
士 0.019022945 0.016167548 0.0024255197 0.010469675 -0.017519066 0.009724449 0.0137318 0.016169209 -0.019351153 0.01876447 0.016596027 -0.0026083533 0.013442308 -0.00021466054 -0.015628554 0.007961208 0.0045761373 -0.0050437357 -0.0019642562 0.0036808364 0.017399289 -0.0036251973 -0.015660558 0.0018951446 -0.010665278 -0.016554007 -0.005544858 -0.0015328526 0.018592272 0.0022222549 0.019036919 -0.0038980506 0.006601507 0.0035854243 -0.004171634 0.008010084 -0.0003276728 -0.0023390725 -0.0010378249 0.014797792 -0.0009854343 -0.009096017 -0.016829493 0.011499483 -0.0028575268 -0.011557087 -0.011249685 -0.019644286 0.009356892 -0.017496709
丘 0.007086862 0.016520564 0.0045361686 -0.0017744303 -0.003145136 -0.003404772 0.012972958 -0.0014812965 0.015027419 -0.013474464 -0.015824009 -0.010348435 -0.0055324025 -0.0057818266 0.018764414 -0.010773933 0.011467684 -0.0012263153 -0.0029088836 0.008906357 -0.01656473 0.0009777397 -0.0117793605 0.01599814 0.019997474 0.009484086 -0.008743705 -0.0058541177 0.0023302883 -0.0062689157 -0.019024095 0.014773123 0.0042461846 -0.013344378 -0.01386903 -0.007021212 0.011045374 -0.0005689189 -0.0028334595 -0.016824784 -0.003976917 0.015686397 -0.017106371 0.0030478425 -0.018639697 0.015931379 0.0155358985 0.014917847 0.015642446 -0.010290124
