1352 50
， -0.058370087 0.061286036 -0.10263504 0.03764928 -0.027110366 0.07349878 -0.10430042 -0.42672533 -0.11592748 0.19154423 0.19657464 0.46022728 0.0052287215 0.034302626 0.10872925 -0.38360044 -0.38187522 0.05538764 0.073775925 0.31258157 0.16893832 -0.13681388 0.006703239 0.18801333 0.17353423 -0.0119676385 -0.057164535 0.14748684 -0.3704863 0.08655761 -0.06966195 0.10332456 -1.397532 0.015583011 0.081138626 -0.031204164 -0.19178243 0.08233652 -0.664337 0.0030249734 0.03113798 0.22912535 -0.03861427 -0.054171488 0.1658464 -0.2470822 -0.13312317 -0.26676986 -0.12349646 0.12897323
子 0.018543433 -0.1263186 -0.008777483 -0.18758893 -0.1660719 0.10668795 0.05556654 0.05038725 -1.3570218 -0.024224298 -0.09472975 0.24078648 0.27287772 0.6269391 0.21911108 -0.33334172 -0.027203768 -0.17947352 -0.013814586 -0.028365893 0.0011896109 0.07739979 -0.15287995 0.1905472 -0.12590009 -0.3056774 0.30983475 -0.25753567 -0.097622275 0.023310103 0.063728414 -0.48081028 -0.5812471 0.018723654 0.23039965 0.079848334 -0.085722834 -0.23667008 0.043159716 0.10054027 0.28038448 -0.10458964 0.0032511204 0.009659806 -0.014143271 -0.025272537 0.16159752 0.17250359 0.16848543 -0.05110446
。 0.1658885 -0.22055778 -0.028482022 0.2656538 -0.0069973245 -0.06934839 0.015042607 -0.0112288855 -0.35386947 0.044654652 0.26782936 -0.08151198 0.10073943 -0.07706768 0.15810272 -0.11108527 -0.38782644 -0.15757644 0.21516503 0.0212607 0.12807868 0.16183412 -0.1203067 -0.016664645 0.09775314 0.16360758 0.4425357 0.003703774 -0.25239763 -0.17587297 -0.4689513 -0.31022337 -1.3970622 -0.4354336 -0.045255635 -0.05577452 -0.336838 0.07966701 -0.05210801 -0.19371766 -0.1024017 0.18150169 0.22417127 0.040467307 -0.06695219 -0.09731883 0.3415519 0.046523552 0.26932558 0.04596797
： -0.22247554 0.075015515 -0.071839094 0.37150472 0.048725072 -0.18940382 0.0796484 0.162372 -0.6498901 0.116561815 0.024018688 0.32447067 0.07155206 0.13000792 -0.01267167 0.12884668 -0.09347212 0.03080557 0.10101601 -0.1713462 0.050578345 -0.5458385 0.09613291 0.14456058 -0.12400105 0.16670503 -0.14639233 0.00739941 -0.043839112 -0.1220953 -0.17562582 0.1007268 -1.11327 0.12546305 0.07580336 -0.0891389 0.2674392 -0.43878353 0.22397731 0.0963149 -0.07028557 0.8544904 -0.3343654 0.054161176 -0.22644128 0.022293681 0.42882082 0.03453775 0.121149436 0.044217966
曰 -0.05948629 -0.03147243 0.33640546 -0.08251811 0.1022703 -0.19937092 0.047633912 -0.10212045 -1.7927226 -0.07706732 0.15958618 -0.11476007 -0.239686 0.039049376 0.0006308388 0.046560112 -0.016279988 -0.0004404988 -0.29145476 0.12189112 0.028096637 -0.5443623 0.09729148 0.09160678 -0.12310454 -0.23056616 0.10032175 -0.058709383 -0.17251305 -0.10989715 0.13031472 0.07214515 -0.6495706 -0.34243184 0.0013483167 -0.31427857 0.07740738 0.20584849 -0.15259032 -0.052294698 -0.11341977 -0.14076842 -0.21752395 0.17244141 0.16689268 0.104266234 0.10327411 0.07047241 0.22153972 -0.053177744
之 -0.3575307 0.0107313255 -0.11359318 0.089729324 -0.48496813 0.13683142 -0.26488355 -0.03601234 -0.121944204 0.16741255 0.36496276 -0.13185202 0.48210722 -0.039158314 -0.104228266 -0.22336382 0.0046225297 -0.22188663 -0.076052666 0.094326265 0.1502327 0.0011411968 0.10748614 0.08009637 0.4281533 0.1690183 0.0075434917 0.2749086 0.13799734 0.12243001 -0.22422096 0.038140014 -1.0172065 -0.27501285 0.22127452 -0.5218311 0.20805058 -0.16443351 0.09492658 0.034330063 -0.016715584 -0.29343563 -0.021875076 0.13292658 -0.1055988 -0.30928367 0.036064386 -0.1949525 0.009694661 -0.0028461497
不 -0.43526074 -0.2977164 -0.04273023 0.17902185 0.36960942 0.13086835 -0.009192736 -0.14588447 -0.23889738 0.15319261 -0.08770478 -0.28403443 -0.10263175 -0.055294808 -0.12695014 0.07375412 -0.25207868 -0.6086281 0.10466334 0.082271986 -0.28010806 -0.45354176 0.020349395 0.03051959 0.067343034 0.24454649 0.11645665 0.23875028 -0.3009485 -0.08370967 0.5950233 0.24614558 -0.9155142 -0.35979515 -0.03141267 0.14899734 -0.31462613 0.10100006 -0.23839056 -0.1449033 -0.120863646 -0.32718185 0.071003616 -0.19978683 0.094522096 0.04834649 -0.19404119 -0.10006844 0.08361323 -0.14999387
也 0.06881233 0.07389979 0.30346903 -0.0020220554 -0.44019416 -0.40871352 -0.20069453 -0.18014249 -0.44197628 0.17318584 -0.37783048 0.13099103 -0.009816189 -0.14351371 -0.07945616 -0.09144936 -0.20713368 -0.31379324 0.27945924 -0.33778137 0.05126766 0.23026124 -0.13554387 0.50134456 0.26435974 -0.2004838 0.06704172 0.11185582 0.18167278 0.07574242 0.6505247 -0.26743662 -0.97793716 -0.034610853 0.012573271 0.03579475 -0.40751657 -0.15500596 -0.44756085 0.05903583 -0.1440284 -0.48071998 -0.21883953 -0.3743148 0.2729906 0.07079659 -0.111213826 -0.041597318 -0.08656651 0.0764918
而 0.2232278 -0.20578799 0.20228167 0.004879048 -0.08887873 -0.062938966 0.02326894 -0.22329459 0.08655441 0.33603123 -0.080047205 -0.12966342 0.10947185 0.079271816 0.07586959 0.09076454 -0.19085635 0.10116302 0.31828922 -0.5067779 -0.36751977 -0.21365695 0.19612533 -0.03693033 0.18622002 0.3255359 -0.2752472 -0.02533567 -0.04479976 0.18406266 0.19259404 0.079654105 -1.4941189 -0.11128666 -0.14034231 0.062269233 0.31585872 0.19451223 0.10301231 0.19578265 -0.018650254 0.08630442 -0.2588869 -0.16123138 -0.14309822 -0.079347946 0.10591189 -0.6075868 0.044309236 0.21345557
？ 0.20451733 0.09248921 0.25984982 -0.08664644 0.23212698 -0.02005359 -0.09583857 0.15235776 -0.3545507 -0.082110636 -0.10848607 0.10737866 -0.33865985 0.6387012 -0.20178714 0.4509637 -0.25189883 -0.0066996086 0.036976777 0.107689634 -0.0035092519 0.26005983 0.09356566 0.14389683 -0.35543627 -0.14955097 -0.12119606 -0.22014219 -0.114669375 -0.15550189 -0.018094668 0.29229432 -1.2052519 -0.15335515 -0.21909586 -0.22313018 -0.29325497 -0.3007988 -0.0013763821 0.0018428662 -0.08966065 0.2914747 0.005136348 -0.08525678 0.039188866 0.06545048 -0.054336596 -0.3132342 -0.20810089 -0.20207514
其 0.21835218 -0.29707083 -0.12173966 0.071721606 -0.59116066 0.10270413 -0.1725641 -0.10065215 -0.004938551 0.14072782 -0.16722067 -0.11637071 0.3077193 -0.030695792 -0.4241396 -0.22919537 0.068810776 -0.12398188 -0.1593761 -0.09616043 0.5152973 -0.6257057 0.15458275 0.1546199 0.10772906 0.18229385 -0.062276606 -0.29563293 -0.0872431 0.114281535 0.20849317 0.295387 -0.92042994 -0.11940797 0.15093155 -0.14148973 0.16967055 0.06781596 -0.17379077 -0.50903445 0.036164925 -0.007142283 -0.14868301 0.1353248 0.074350305 0.01299965 -0.04318782 -0.047436543 -0.14665037 0.21792881
人 0.19807312 -0.3427531 0.009309399 -0.10361061 -0.4698498 0.20565583 -0.07633489 -0.046768516 -0.3492833 -0.36559054 0.0584637 0.27398005 0.43567744 0.1389762 -0.11946408 0.30887142 0.12601651 0.3315745 0.14764754 0.13462797 -0.1329272 -0.42883125 -0.12922607 -0.0939024 0.082879096 -0.20064086 0.29848382 -0.13015534 0.05538541 0.05128884 -0.06598714 0.048627716 -0.6104545 0.078127496 -0.1333032 0.006580707 0.08043192 0.086053416 0.19702433 -0.013091233 -0.27649006 -0.31421602 0.049746443 0.27531922 -0.081685 -0.20630756 -0.17082463 0.20942146 -0.049673155 0.13679752
者 0.39230138 0.043823488 -0.22855261 0.18730733 -0.37239352 0.08930619 0.04918802 0.053517684 -0.0020529274 0.181448 -0.1784033 0.4392595 0.4315369 -0.020409651 -0.19134508 0.11800441 -0.27189094 -0.16318244 -0.062416606 0.06610036 0.007520006 -0.0002789274 -0.05302035 -0.40791905 -0.09172652 0.14993319 -0.12920982 0.20047453 0.055079132 0.1539036 0.37271887 -0.12797867 -1.1802465 -0.10069867 -0.14076325 -0.10604826 0.07696364 -0.24656929 0.5885633 -0.14919446 0.09632582 -0.18756022 -0.11841665 0.40924314 0.28154695 -0.035829633 -0.20023377 -0.22005157 0.1983815 -0.0801149
以 0.0737507 0.03441515 0.084249556 -0.2266438 -0.38150266 0.39281946 0.24855264 0.08343951 -0.2483146 -0.33911428 -0.29726467 -0.32619488 0.03689517 -0.010382738 -0.04251612 -0.32120755 0.27411407 0.14892362 -0.06090811 -0.3929761 0.060670827 -0.37184134 0.1458023 0.075515024 -0.25805223 0.4067764 0.06568526 0.11789879 0.16012749 -0.11106752 0.22911032 -0.41139776 -1.0888621 0.17632802 0.13915032 0.52965146 -0.18930408 -0.34005207 -0.20807022 0.2774656 -0.3015575 0.27259302 0.020275518 0.10805421 0.069007084 0.015360942 0.18098721 -0.11245573 0.11848378 0.26201585
有 -0.319873 -0.10456039 -0.0935021 0.003476751 -0.07502817 -0.1285234 -0.33511606 -0.3502368 -0.5352488 -0.16558944 0.04949369 -0.24464051 -0.009049568 0.014669546 -0.14971305 0.07374918 -0.3559756 -0.5350652 0.09185162 -0.13412309 -0.008590233 -0.2010995 -0.058096644 -0.18558441 0.45341477 -0.20311543 -0.23073131 -0.15774545 0.2906047 0.014502845 0.14391768 -0.23113725 -0.6465551 -0.09048945 0.25010377 -0.56090164 0.14188614 0.076012656 0.2557715 0.08036284 0.15714483 0.2039926 -0.20286256 -0.01952326 0.006607771 -0.42709267 -0.15438591 0.14358152 0.27564722 0.18096195
于 -0.18221869 -0.15020132 0.115504056 -0.09692942 0.0008072916 0.1375066 9.210734e-05 0.15142179 -0.6429501 -0.029095724 0.14834088 0.25399035 0.23525976 -0.2176259 0.11227572 0.3100137 -0.35752982 0.49704617 -0.47432464 -0.033883482 -0.21777822 0.062235616 0.342181 0.18607245 0.015403811 0.13303098 0.2821706 0.20394678 -0.11059267 -0.31251612 0.11567836 -0.41084355 -1.3155044 0.071631044 0.064049825 -0.06367535 0.19559374 -0.16806872 -0.13847215 -0.3773925 -0.20053908 0.31532425 0.106377445 -0.15696703 0.34361473 0.102891535 -0.3680409 0.20516239 0.021149639 0.38200757
矣 0.27469268 -0.05572745 0.035584364 -0.007353525 -0.8875324 -0.36018467 -0.07312445 0.47137794 -0.49124455 -0.16897546 -0.15716209 -0.051116455 -0.07031522 -0.24959849 0.108871765 0.27464887 0.04553351 0.19304076 0.05721341 0.31699556 0.07792817 0.3017827 0.03207555 -0.30939457 -0.186488 -0.16362795 0.046332538 0.113369 -0.11126613 0.06606253 0.59401655 0.042983916 -1.0918452 0.013130651 -0.13674498 0.29713327 -0.07203881 0.0478936 -0.022050442 -0.3059457 -0.054354932 -0.18814738 -0.10663561 0.68737084 -0.2848911 0.05855561 0.24402158 0.108541526 -0.15894215 0.28163496
为 -0.04000017 0.3153237 0.031528827 0.255087 0.40487784 0.08898498 0.15686908 0.20047551 -0.41807577 0.20963994 -0.07789305 -0.2765622 0.009875778 -0.11799375 0.08612799 0.20009854 -0.18161136 0.21067746 0.21132493 -0.26329666 0.08038828 -0.31859958 0.18290357 0.36120513 0.12321066 -0.054489017 0.015857944 0.18813448 0.31181526 0.41532803 0.2826649 -0.07923505 -0.9328141 -0.045295313 -0.011422536 -0.108115435 -0.011707718 -0.037970517 -0.052165598 0.2644876 0.15520787 -0.17132746 -0.084089614 0.38520318 -0.08532758 -0.0017931215 -0.060906187 0.19741099 0.15967944 -0.16424532
君 0.12156638 0.111209035 0.15035485 -3.6531244e-05 -0.296108 0.4997988 0.028695337 -0.16211234 -1.4096867 0.25910652 0.35267276 -0.06761231 -0.28994995 0.3230559 -0.1070515 0.4679669 -0.014153561 0.1301453 -0.02214494 0.05077399 0.009550682 -0.3157833 -0.18789858 -0.1980894 0.020358305 -0.10168343 -0.07989531 -0.096813865 0.10287578 0.1396247 0.0035652965 0.11900613 -0.4882526 -0.2737271 -0.25159281 -0.014605879 -0.020220516 0.2643197 -0.29209232 -0.100515544 0.023591874 -0.42643815 0.11584032 -0.11939257 -0.20667492 -0.17000377 -0.0076725176 0.13927017 -0.19021983 -0.050123386
乎 -0.050181158 0.19851442 0.0470492 -0.030589871 -0.260337 -0.21969911 -0.41523382 0.062185243 -0.14027964 -0.1264647 -0.12792177 -0.046006426 -0.16459489 0.4848251 0.085068874 0.25711286 -0.06115844 0.102793895 -0.1009287 -0.16980271 0.15931031 0.6016756 -0.11465784 0.26326415 -0.116391085 0.35594374 0.15248388 -0.099271744 -0.002417961 -0.0526026 0.80400175 0.18786415 -0.99061984 -0.1783246 0.054698873 -0.30598053 -0.14066845 0.20927241 0.061768778 -0.060941767 -0.11171909 0.35553536 -0.46334156 0.05732709 0.3936212 -0.09800493 -0.1337557 0.16119337 0.0783783 0.21911842
可 0.31328923 0.025739232 0.034177918 0.25612363 -0.3488162 -0.10931295 0.13991944 -0.06269714 -0.081875674 0.18739639 -0.0078770835 -0.16686277 -0.046659306 0.21518798 -0.0701188 0.18427278 -0.089808315 0.23133184 0.31723955 -0.21099657 -0.08507703 -0.7424419 -0.022772035 0.35815594 -0.3085397 0.3599583 -0.061191306 -0.020900752 0.21723463 -0.23091123 0.085038505 -0.18487108 -0.7231752 -0.0020826738 -0.028391752 -0.49007893 -0.48370865 -0.02917184 0.03340847 -0.18115446 0.12099781 -0.36222616 -0.14374506 0.0940243 -0.18371896 0.012458604 -0.4034927 -0.17442937 0.005601066 0.45543566
如 0.3613004 -0.34900033 0.042327795 0.03739756 -0.11235465 0.09520943 -0.13636713 -0.10930115 -0.36264408 0.36435655 0.21042715 -0.05032163 0.22510815 0.07177997 0.09713273 0.089662604 0.16356255 0.02081649 -0.100079 0.08596024 0.13820663 -0.10043847 0.5347204 -0.03337323 -0.03847438 -0.40570197 0.124798976 0.2783445 0.50540173 -0.17292811 0.47488177 -0.046803895 -0.7503761 -0.008331168 0.0062331953 -0.020735657 0.13697234 -0.20224416 0.1038018 -0.09092689 0.35776588 -0.22157794 0.019841405 -0.025044126 -0.23312546 0.024484059 -0.028006189 -0.018103812 0.32012883 -0.007832842
与 0.110379964 0.3514223 -0.3505258 0.16558832 -0.024307577 0.20013255 0.13420023 -0.00017990125 -0.14719865 0.10567628 0.44761196 -0.029244661 0.012369458 0.15413369 0.08656471 0.15680204 0.37029788 -0.15496713 0.041659795 -0.052749485 0.11354776 -0.10136697 -0.16790666 0.017696612 -0.008196417 -0.14772452 0.23052458 0.30323598 0.11488479 -0.06810698 0.77835053 -0.26049376 -0.7582235 0.03303331 -0.3272601 -0.06847482 -0.08004849 0.28861475 0.1367607 0.07895961 -0.0012214333 -0.109467916 0.04058082 -0.24063829 0.0079790475 -0.37480018 -0.04170874 -0.51248664 0.002069394 -0.29947823
； 0.07378009 0.38602403 -0.11249549 -0.14747167 -0.12862927 0.1675734 0.37703705 -0.14543137 0.11472224 -0.18547542 -0.025620382 0.010691239 0.44966617 0.10690452 0.23311684 0.23472472 -0.14624491 0.15278286 -0.037092593 -0.21514139 0.25773305 -0.007878625 -0.109342076 0.13114582 0.2103627 -0.33805382 -0.11279188 0.24099942 -0.121676944 -0.15150166 -0.13091713 0.07171587 -1.6301833 0.17232436 0.2602421 -0.056967575 -0.09267278 -0.21777134 0.51952755 -0.0043558925 0.29119664 -0.27681905 -0.043605402 0.14159437 -0.11631165 0.022098057 -0.16704214 0.49993354 -0.39144346 0.06922663
言 0.21530557 0.31357762 0.14015196 -0.080247425 -0.047361933 0.09948904 -0.06997941 0.179293 -0.40425014 -0.049200714 -0.055564325 -0.03470593 0.3261214 0.2004342 0.30346116 0.13499199 0.045796584 0.37547013 -0.07420914 0.2973605 -0.4276676 -0.44449127 0.40768844 0.10418876 -0.027425483 -0.25532448 0.27700806 0.018452369 -0.32539573 -0.5044333 0.49025628 0.15572834 -0.6648819 0.1736176 -0.14294453 0.10518501 -0.061241664 -0.06968513 -0.06281437 -0.1520656 -0.094506316 -0.16529545 -0.14112572 0.0882294 -0.22755556 -0.02966264 0.051697318 -0.34192574 -0.1574875 0.49598944
无 -0.19901362 0.31181443 0.056848492 -0.31676033 0.1782128 0.034780763 0.012560381 -0.21654202 -0.15888174 0.15329549 -0.1403344 -0.0898572 -0.013713811 -0.13634565 0.14121561 -0.060933992 -0.21121341 0.27175754 0.17006472 -0.26990572 -0.14129339 -0.6164041 -0.092944555 0.0064618513 0.32050613 -0.10125073 -0.21274081 0.21248473 0.3479731 -0.029558605 0.7485352 0.4634278 -0.8068315 -0.5339593 0.1028036 -0.11356632 -0.028209437 0.1068919 -0.1925154 -0.06946346 -0.35629982 -0.20714526 -0.07950049 0.23948108 0.09358368 -0.03195306 0.3583805 -0.10171643 -0.04007883 0.03383722
则 0.12763907 0.41104987 0.013914351 -0.0362292 -0.28316697 -0.06418123 0.09667067 0.19649144 0.111993276 0.12903506 -0.22895259 0.10892976 0.22136664 0.23819657 0.15099198 0.059560027 -0.32581842 0.05225546 0.054581538 -0.4439243 0.07035299 -0.5854509 -0.23000899 -0.00033918495 -0.21735096 0.18979058 0.011509848 0.06810437 0.1479694 -0.29673266 0.25313786 0.17850819 -1.0622879 -0.2145832 0.12342864 0.4037366 0.37763688 -0.17388204 -0.18875484 -0.06137236 -0.21692258 -0.15498535 0.14974618 -0.21258746 0.044095144 0.051791128 0.307379 -0.0099441875 0.32968342 0.13546045
！ -0.14264809 0.120642856 0.109096386 -0.21542978 0.244493 0.08954743 0.6401735 0.24773353 -0.5181765 0.1887783 0.23657016 -0.2064748 0.047581207 0.4861037 0.4690531 0.115090854 -0.16474336 0.018854178 0.23262896 0.0321712 0.23371851 0.21272069 -0.20106842 0.21116233 -0.06445592 0.3351731 -0.28935912 -0.022540007 -0.018066922 0.23283389 0.005489652 -0.24437308 -1.1473262 -0.14690202 -0.02329204 0.009099556 -0.003588617 -0.21433319 0.1136926 -0.24743037 -0.061532225 -0.040917456 -0.070017524 0.0063410243 -0.20064227 0.093357556 -0.25686964 0.31414768 -0.36760306 -0.019955069
问 0.23058978 -0.15572576 -0.27527884 -0.28622487 0.20407575 -0.19408402 -0.2046204 0.26039976 -1.0913777 -0.40481794 -0.2804651 0.59712696 -0.11566815 -0.15532035 0.2955993 0.019970395 -0.11424086 -0.054221462 -0.34443146 -0.051164277 0.021901004 -0.3331075 -0.14359546 -0.04138155 0.30362073 0.25732544 0.19805926 0.09504431 -0.38155755 -0.10970862 0.0011395598 -0.3272167 -0.556348 0.0074553736 -0.12474104 0.008288582 -0.25891507 0.2661357 -0.15522204 -0.05204294 0.12254076 -0.16761814 -0.5048909 -0.32185665 0.13713866 -0.025652673 0.115696505 0.25265542 -0.1466148 -0.25509998
知 -0.05636915 -0.12967418 -0.008762291 0.38830096 -0.16731375 0.1657274 0.16400038 0.30178908 -0.22949667 0.153849 -0.20229647 0.14094242 -0.15369423 -0.020701673 0.23716749 0.083337 0.19334371 -0.28041115 0.22760166 -0.10665462 0.024618957 -0.29501638 0.24848077 -0.041444924 -0.017826328 0.108071096 0.108994044 0.049010217 -0.11612588 -0.20776704 0.35806212 -0.1763488 -0.8751821 -0.20032811 0.16895849 -0.1569351 -0.46434367 -0.14628959 0.15595926 0.29963857 0.033502877 -0.49475384 -0.21217671 0.16226764 -0.19508065 0.022689188 -0.35735098 -0.12011666 -0.06394406 0.2864046
何 -0.3475243 0.42471084 -0.25615966 0.0578611 -0.0019692807 0.15589136 0.17023475 0.08779367 -0.6017687 -0.13470016 0.24823436 0.07387022 -0.20034716 0.13766469 0.18244123 -0.41656333 0.24379186 -0.21800286 -0.114729255 0.2391987 -0.16123281 -0.18849567 0.17033796 0.23137882 0.34569123 0.14217551 0.20768099 -0.0007289266 0.38721684 0.11750809 0.45542136 0.113025606 -0.6629339 0.15914474 0.16705205 0.1327652 0.049588114 -0.38520825 -0.29980448 -0.0981854 0.23368332 -0.092961304 -0.25944218 -0.17181773 -0.10449829 0.06817682 -0.0460498 -0.040242363 -0.08982414 -0.06299739
吾 -0.07291685 -0.290462 0.12551346 0.2314555 -0.5336965 -0.3658456 0.06394269 0.1610285 -0.30418178 0.17410184 0.09403769 0.3560121 -0.42902035 -0.023535592 -0.63699406 -0.23525849 -0.19674604 -0.013915699 -0.11722115 -0.006869047 0.4103802 -0.62726694 0.039560273 0.23423582 0.11692096 0.1256849 0.14159498 -0.19074254 0.2584467 -0.33760062 0.30807152 -0.023454376 -0.454891 0.07768228 0.25484058 -0.3394152 -0.3406555 0.16331694 0.15154348 -0.36459053 -0.29221323 -0.14705549 0.11082701 0.044260755 -0.08514193 -0.21837965 0.07698251 -0.1127773 0.11477335 0.14879876
仁 -0.120095 -0.48168513 -0.11359732 0.084678486 -0.2930153 0.25611803 0.024760693 -0.026436234 -0.22820579 -0.25885242 0.1514168 -0.04670407 -0.012970736 0.23088267 -0.004986223 -0.041058745 -0.13193984 0.16576688 0.22596827 0.18700619 -0.038826168 -0.40564904 0.23097196 -0.20216328 0.1399929 0.23351182 0.17241822 0.16766657 -0.103277825 -0.05619633 0.26121843 -0.40466857 -0.6023563 -0.32342482 -0.4266443 -0.08138311 -0.23834117 0.18780673 0.24839671 -0.005456581 -0.27561918 -0.08088874 0.08950381 -0.47513756 -0.027530033 0.24536833 -0.12308705 0.30743945 0.015641427 0.10602768
夫 0.1100725 0.04591757 -0.020837713 0.0408729 -0.5165604 0.024370564 -0.059168108 -0.099065855 -0.83663297 0.113056965 0.0681932 -0.12981708 -0.22811882 0.42303476 -0.16107948 0.11625445 0.16225025 -0.013962969 -0.27271137 -0.12939744 0.18754677 -0.16077547 -0.20259291 -0.32663524 0.052602638 -0.06172214 -0.16540162 -0.43438202 0.034162715 0.04453218 0.17950335 -0.037198104 -0.56427526 -0.006664376 0.19225319 -0.09451935 0.3581389 -0.17139459 -0.33304304 -0.09932952 -0.3205761 -0.14656654 0.3405215 0.44444862 -0.07678385 -0.060661044 0.13412628 0.315481 0.07427881 -0.24937682
、 0.0030287532 0.076221555 0.20542331 8.4440806e-05 0.41344514 -0.27717632 -0.23490506 0.022431986 -0.6770579 -0.5553077 -0.12117616 -0.15249461 0.029977696 -0.5582615 -0.0038976774 0.10153094 -0.3170738 0.38441443 -0.06999367 0.25567612 -0.12666771 -0.12646423 -0.46630916 0.20921022 0.116337195 0.05413605 -0.5199681 -0.019628165 0.0007259678 -0.2317055 0.07805352 -0.016181285 -1.4742093 0.2927386 0.41997418 -0.03916432 0.24864313 0.044385813 -0.03970448 0.26919162 0.40192536 -0.1284065 0.079228975 0.24120513 -0.23240916 -0.05577907 0.21943782 -0.40425497 0.30250436 0.107431315
道 0.1763241 0.19734845 0.21976864 -0.24407834 -0.049641218 -0.04141846 0.058930248 -0.069770396 -0.04365009 -0.07858059 -0.048217844 0.0634121 -0.39341694 0.04892298 -0.23099574 0.1254978 -0.03368281 -0.04633142 0.12553537 0.25057325 0.08836959 -0.5809393 -0.023063522 -0.1614477 -0.17166236 -0.25859278 0.19387682 -0.13537546 0.2169274 -0.36203974 0.30221468 0.045953386 -0.78489995 0.24914539 0.055669628 0.07876946 0.05858302 -0.0371204 -0.014102949 -0.1301024 0.035877407 -0.5189296 -0.16273554 -0.069541596 -0.094941266 0.17564002 0.14727072 0.09717359 -0.024513224 -0.42628673
焉 -0.09833291 -0.30378804 -0.32531708 0.037109353 -0.5708837 -0.16213264 -0.52072763 -0.36629838 -0.48510936 0.007420431 -0.48213446 -0.19594298 -0.061322447 -0.3049974 0.20734014 0.41153598 -0.14742991 -0.085772455 0.17310713 0.022533841 0.11337062 -0.17161588 0.39964318 0.036087018 -0.008378193 -0.06874907 0.5224783 -0.10072242 0.4520044 0.11615576 0.5728421 0.03673744 -0.8124162 0.05543218 -0.15149875 -0.3042313 0.1631742 0.2702671 -0.21238686 0.008046599 -0.37052733 -0.32961476 0.36539719 -0.022245124 -0.058048964 0.29331824 0.12730926 -0.07981552 -0.0640208 -0.21761824
行 0.20137668 -0.025185874 0.0033482893 0.4359047 0.021976046 0.09839226 0.15793844 0.07829382 -0.325622 -0.15375574 0.16419543 -0.4036175 -0.040866394 0.08263258 0.07829758 -0.0928573 -0.08398267 0.23655534 0.22475073 -0.0014391092 -0.10008006 -0.35430047 0.17365241 -0.13358627 -0.14587814 0.44384643 -0.13975388 -0.12995975 0.019964086 0.32394573 0.13986519 0.016091706 -0.6033073 -0.26930493 0.007283048 -0.019561714 0.102630354 0.21091077 -0.099911295 0.25772497 -0.006116802 -0.46187156 0.036817998 0.11553003 -0.0567234 -0.52095956 0.3712964 0.45128825 -0.026950158 0.2602745
谓 0.42271304 -0.07242814 -0.33606008 0.32516477 0.0046276124 0.19822371 -0.101152696 -0.11848412 -0.6261922 0.060016926 0.058818452 0.024630912 -0.1361807 -0.09725903 0.13198508 -0.40896785 0.18716522 -0.46067303 -0.2547072 -0.006680453 -0.044636857 0.1038246 0.09503314 0.57068735 -0.16453204 -0.27583647 0.14188652 -0.2150437 0.0454769 0.43225577 0.14624445 -0.10986691 -1.0488088 -0.25249928 0.07647033 0.34302372 0.38295072 -0.0040820166 0.06886328 -0.05387839 -0.19008197 -0.4879519 0.18115658 0.42994052 -0.11291912 0.37734306 -0.075944334 -0.4433219 0.20032851 -0.17835525
必 -0.016146649 -0.06379171 0.26659554 0.28940222 -0.09015024 0.1355808 -0.31026605 0.040932655 -0.10933014 0.14314981 -0.03946362 -0.25127175 -0.025508616 0.26255846 0.6186211 -0.061432645 -0.3294636 -0.10983937 -0.28215882 0.2436885 0.07109847 0.04361785 -0.425335 -0.30806598 0.3279229 -0.17548907 0.08088394 -0.032117542 -0.16049762 -0.17924905 0.17984 0.6396872 -0.93905026 -0.122842364 0.0024229288 0.25627023 0.06845669 -0.25361213 0.3473895 -0.6021027 0.35952362 -0.24480574 0.13053001 0.07077229 0.39903536 0.024689157 0.2043188 -0.10271404 0.3093972 -0.08992431
礼 -0.21617617 0.56306976 0.15117119 0.114639215 -0.39784467 -0.6149071 -0.37317103 -0.025589319 -0.059319746 0.006087574 0.10837418 -0.51968277 -0.10135123 0.56204915 -0.103474244 0.11998308 0.30315053 0.12160464 -0.15396404 0.39412558 -0.15448299 -0.8124065 -0.29042032 0.37269622 -0.020680873 0.17060538 0.043257482 -0.45900676 -0.09497813 -0.24303624 0.26904637 0.17171375 -0.7253256 -0.1326641 0.20944515 0.24168934 -0.16219394 0.0009536254 0.017075483 0.09958234 -0.122387655 -0.010846895 0.1565408 0.2533022 0.06500118 0.25982612 0.028808413 0.1938033 0.013634885 0.0009510154
孔 -0.25794065 -0.30262727 0.108574405 0.1676068 -0.7536363 -0.12907796 -0.26275563 -0.34686387 -1.2986621 0.21606961 0.21756268 -0.14363198 0.036274288 0.28484073 -0.007953431 0.22522588 0.3512558 -0.15711252 -0.24949564 0.1925789 -0.025841856 0.21320528 -0.21571606 -0.20249689 -0.2070226 -0.03395854 0.3646683 -0.14381456 -0.3745679 0.04711752 -0.12965429 0.009674738 -0.66601056 -0.02939495 -0.17174605 0.3135357 -0.31747812 0.20706595 0.025672033 -0.13370678 -0.39644518 -0.50097615 -0.23097974 -0.2300585 0.17125021 0.079224154 0.102441795 -0.35634997 0.2474567 0.37240866
斯 0.10184405 0.062449474 -0.48046103 0.15087004 -0.6758117 0.015393726 0.18031403 -0.23291987 -0.12939157 -0.25337723 -0.031106904 0.17091976 -0.06973648 0.60179687 0.26443666 -0.15606037 -0.18544836 -0.06302437 -0.23846997 0.044939965 -0.023324057 -0.2662487 0.039701156 -0.33219272 0.008052528 -0.18479624 -0.12560749 -0.042740215 -0.21426101 -0.48859704 0.27992445 -0.20041142 -0.8558528 0.14227915 0.025284085 -0.012531506 -0.28273535 0.3098458 0.47456872 -0.12225705 -0.28603682 -0.10334862 0.63679653 -0.18059218 0.175333 -0.026627107 0.26199156 0.025331955 -0.26216444 -0.1763281
三 -0.17601566 -0.22650346 0.28013226 0.08893096 -0.25852826 -0.070267186 0.10604892 0.4520871 -0.75056314 0.47396755 0.10200983 0.17352201 -0.7183259 0.050970703 -0.4768082 -0.03043037 -0.064210206 -0.059122108 0.08263169 0.65658605 -0.03902248 -0.0997837 -0.21892771 -0.051443204 -0.5112485 -0.37380895 -0.20862047 0.2955398 0.011402183 -0.5781619 -0.26300302 0.26518744 -1.0480062 0.30621523 0.109165795 -0.23223157 -0.12911811 -0.049308486 -0.110193536 0.30488828 -0.052664276 -0.20425622 -0.054961625 -0.42476383 0.28580478 -0.12104352 0.24169618 0.3008577 -0.12238556 0.036560494
能 0.04261579 -0.45030677 0.31640354 -0.0655506 -0.3200594 0.02531063 -0.17584129 0.20399278 -0.02376997 -0.26248977 -0.26033378 0.17027132 -0.026720846 0.5191619 0.019951878 -0.037984774 -0.07570682 -0.021369863 0.074586816 -0.28509775 -0.035415232 -0.7790831 0.016516812 0.35645357 -0.0077434885 -0.03298642 0.2611902 0.19777946 -0.12473586 0.6141816 0.0569141 -0.39035848 -0.9871252 0.07415922 -0.24092004 0.2694569 -0.54414815 -0.057962947 -0.04337249 -0.16120352 0.1238672 -0.30624065 0.28454217 0.08631826 -0.20948061 0.031284764 -0.19892778 -0.17679569 0.005250844 -0.04070615
见 -0.4516362 0.044656888 0.29094896 0.23639645 0.2130375 0.17933433 0.083325274 -0.40341267 -0.28127164 -0.012017515 0.21532655 0.11260563 0.37503058 0.2862508 -0.37445956 -0.100379884 -0.2227365 0.057811808 0.16117907 -0.0503257 -0.07743291 -0.62982655 0.27242753 -0.09541343 -0.0026916051 -0.16261435 0.010323552 0.06976129 -0.14726645 0.19643389 -0.07532538 -0.25446635 -0.719394 0.10239556 -0.32607195 -0.14150089 0.06432731 0.55151623 0.1978492 -0.23455392 -0.38173258 -0.17840177 -0.05503339 -0.09099021 -0.2917121 0.27908042 0.18499663 0.22907695 -0.10028689 -0.46381724
学 -0.051345315 0.07436625 -0.23931943 -0.06288822 0.14022288 -0.14018476 -0.20562422 -0.1758654 -0.2239232 0.07715631 0.4375157 -0.032034572 0.14375249 1.0021155 -0.03502936 0.06036012 -0.06603141 0.08557169 -0.17223838 0.05038696 -0.219993 -0.551422 0.42241287 0.30266038 -0.13782635 -0.33774883 0.28168797 -0.12697321 0.18206193 0.24581699 0.12622266 0.06692156 -0.70988065 -0.37840095 0.47583428 -0.2643776 -0.0711193 0.33001268 -0.024633309 0.10780116 -0.037508585 -0.58768034 -0.05659176 0.12008789 -0.17240539 0.28927147 0.19066557 -0.15790801 0.26119414 0.21764517
事 0.17305826 0.12682004 0.060148858 0.14018415 0.21882612 -0.3892736 0.13617472 0.11891728 -0.3882233 0.118569925 -0.11094756 -0.14607467 0.17902592 0.20129842 -0.023835873 -0.3267415 -0.14134182 -0.4580039 -0.29445812 -0.020723313 -0.20525853 -0.55228996 -0.016004227 0.20034367 0.23050688 0.5803571 0.049270727 0.17694788 -0.31899324 0.25384298 0.5659205 -0.07375046 -0.56043357 0.30477697 -0.047068514 -0.29979813 0.17727463 0.21757339 0.10532497 -0.4337158 -0.0029950286 0.017205788 -0.12124911 -0.64942706 -0.23541838 -0.2221486 0.055010453 0.37531176 0.24467003 -0.37919122
是 -0.3391827 -0.060598552 0.13174246 0.33408195 -0.41111097 0.25487337 0.17992647 0.034885336 -0.48490438 0.049827475 0.5194006 0.19243588 -0.00437999 -0.06523342 0.26725388 0.22391997 0.24949007 -0.44174668 -0.2236819 -0.18088113 -0.044292968 -0.40552503 -0.16164203 -0.11865481 0.28891778 -0.26077482 0.24198246 -0.3352111 -0.31314093 0.23779993 0.33886337 0.41641933 -0.56564736 0.04015733 -0.30316103 0.16571586 -0.51834995 -0.35229322 -0.04000588 -0.054799013 -0.12260169 0.052062333 -0.36273995 0.039385043 -0.13406639 0.1990514 -0.028870765 -0.03583073 0.2947791 -0.0024508042
哉 0.16027981 -0.31865737 -0.09591577 0.41581616 -0.29930866 0.0037422471 0.45899728 -0.041020717 -0.78583807 -0.33334514 0.40116507 -0.13320786 -0.16516115 -0.07058025 -0.22407691 0.07240491 -0.072511375 -0.5288565 -0.27111515 -0.35457525 -0.14771304 0.2657161 -0.02262872 0.08506469 0.07619248 0.07129863 0.3777507 -0.26223162 0.20913632 -0.09708772 0.63260365 0.26135975 -0.8487472 -0.33998197 -0.4274716 0.0630641 0.08863131 0.068811856 0.030526549 0.21037555 -0.20246045 0.21407448 -0.3380324 0.28916043 -0.09626404 -0.4771742 -0.07555247 0.047449753 0.096486665 -0.47944528
闻 0.111779265 0.011766529 -0.14427234 0.025591947 0.27182215 0.07349274 -0.24059685 0.5374652 -0.5043944 0.3766136 0.3841093 0.28124735 0.2778727 0.25919536 0.020419242 -0.3721362 -0.25345156 -0.026034916 0.36859578 0.3306708 -0.18131813 -0.24971245 -0.007782063 0.22110505 -0.22257572 -0.09063897 -0.017877528 -0.23803887 0.20172933 0.41239342 0.20437863 -0.100963235 -0.836468 0.13590856 0.061436627 0.1824404 0.22681479 -0.58423084 0.13299096 -0.08475506 -0.15528518 -0.41755095 0.27071592 -0.26312265 0.018760085 -0.14838888 -0.34830144 0.1861875 -0.06917411 -0.023549665
未 0.49576405 -0.053813446 -0.2518146 -0.20186804 0.15594813 -0.015492311 -0.36588454 -0.023746565 -0.5914468 0.31596053 0.3294343 0.14472501 0.1315638 -0.24154772 -0.099332705 -0.07028031 -0.37850177 -0.104354516 -0.2040044 -0.3962938 0.24560906 -0.5867543 -0.23286715 -0.55176425 -0.24007453 0.005858444 0.21025479 -0.12808645 -0.42179233 -0.3416468 0.0033210076 0.45737487 -0.7574052 -0.2670523 0.13039432 0.13019976 -0.41416577 -0.050962858 0.17209245 -0.16698015 -0.5382973 -0.43863317 0.18028627 -0.5213773 0.20443618 0.13389333 0.37097007 0.030423183 0.35303512 -0.20579171
公 0.006446696 0.19948298 -0.06607067 0.15079896 -0.31210724 0.1935265 -0.09084018 -0.07098654 -1.3065081 -0.13982652 -0.09852906 -0.1213854 0.124148786 0.12496883 0.43686697 -0.102894 -0.015788259 0.16812761 -0.060553636 -0.067639 -0.5324 -0.14077067 0.21224993 0.15201756 0.016312502 0.15158731 -0.2438508 -0.6666428 -0.04742402 -4.4823624e-05 0.1477603 0.037651937 -0.754214 0.25382882 0.018324161 0.26212198 0.110726535 0.3221353 0.4605565 -0.07244504 0.1905216 -0.048201997 0.63945526 0.24597287 0.17267765 0.24054417 0.036455713 -0.030149857 0.034450196 0.16636223
好 0.29026717 -0.41838947 -0.09381883 -0.1722959 -0.31130964 0.19878702 0.049201593 -0.28932196 0.09073348 -0.05861063 -0.46002167 0.21140105 -0.49325055 -0.2048713 -0.12829289 0.099320166 -0.06689502 -0.20383362 0.31739497 0.17915304 0.51843226 -0.13781351 0.45465112 -0.16179575 0.76820374 0.19193259 -0.12794554 0.15264864 0.096037984 -0.23618065 0.27307975 -0.054765664 -1.1797813 0.031147024 0.038379233 -0.049506456 0.17026654 -0.2544254 0.0319826 0.5013564 -0.28555125 -0.6275004 -0.36223042 -0.08315606 -0.058915086 0.11681814 0.1439886 0.06978074 0.15125903 -0.48671642
我 -0.29378068 0.2785519 -0.08489345 -0.25537288 -0.4227695 -0.37073147 0.093926646 0.4828873 -0.47245085 -0.45678273 0.2807134 0.4027325 -0.34225637 0.45364633 -0.27863082 0.3774924 -0.45070586 0.20575096 0.20414405 0.43848416 0.19355866 -0.43561238 0.3543949 -0.02842104 0.023675187 0.020816445 -0.15506887 0.09845423 0.049434546 -0.13011299 0.11609929 0.077744976 -0.60449165 0.019440345 -0.36652866 0.24197336 0.0047340128 0.010906925 -0.1838932 0.20442477 0.3343202 -0.15719032 -0.01878366 0.09442017 -0.019268112 0.10576977 -0.06527214 -0.38842997 -0.034288414 0.04015765
路 -0.25929338 -0.17176466 0.5448826 -0.08023132 0.22188309 0.22602361 0.018622201 -0.09454631 -0.95992523 -0.086909525 0.19267032 0.0878691 -0.01764862 0.73842895 -0.18352105 -0.037680447 -0.01206336 -0.072056204 -0.068517156 -0.30925143 0.13256732 -0.0045075677 0.12778574 -0.13250077 0.42151952 0.37991452 -0.32971573 0.40206775 -0.57911116 0.12301296 -0.009362588 -0.17289089 -0.9649588 0.038088016 -0.28488824 0.017142361 0.20546207 -0.009524346 -0.07514609 0.085265264 -0.3047135 0.10939584 -0.23450844 0.12144825 0.26948893 -0.2975545 0.54853505 -0.1649359 0.32331952 -0.094837025
在 0.14341046 -0.12668231 0.60333264 0.22307627 0.00048449263 -0.095487855 0.81393313 -0.5928086 -0.3562411 -0.41518402 -0.17152716 0.019361865 0.2787469 -0.22894013 0.23367618 -0.053096056 0.077154584 0.4413941 0.12968105 0.5251361 0.25874272 -0.29093742 -0.12777215 -0.142191 0.09621302 0.1563598 0.12013054 0.20293932 0.2132956 0.1254611 -0.007161302 0.1443439 -0.748173 -0.015550977 -0.2074888 -0.39325163 0.45074832 0.15507284 0.19003046 -0.5376646 0.198794 -0.45549756 0.061831575 -0.3296829 0.0812355 -0.25085947 0.072444655 0.13924327 -0.012327854 -0.19101052
已 0.042351145 -0.23723765 -0.23786856 -0.48999766 -0.046066243 0.2570227 0.22269863 0.16302252 -0.46746603 -0.18081824 0.3669965 -0.28046417 -0.46186903 -0.03561972 0.2583093 -0.0268307 -0.2948048 0.045109466 0.4766982 -0.08942999 -0.24539927 -0.0390812 -0.50857735 -0.122358434 -0.082373336 0.27532598 -0.09395506 0.28355476 -0.12044953 -0.14488837 0.8671763 0.05437194 -1.0420276 -0.25984222 -0.12836993 0.0025566602 -0.30891377 0.3710754 0.35699123 0.2751299 -0.21332738 -0.67921126 0.115014 0.1295159 -0.004400816 0.24527444 0.10052013 0.14063646 -0.21863723 -0.22636588
得 0.05366864 0.06803712 0.1447779 -0.5570144 -0.010861356 0.024713874 0.23003136 0.34029678 0.10920816 0.0778354 -0.45811456 0.110413775 0.14086828 0.38081586 0.14140478 0.11224924 0.12806916 0.16530277 -0.07448122 0.1524147 -0.096640125 -0.72346777 0.4093578 -0.40681782 0.3707276 0.2838248 -0.18373433 0.06573705 -0.39624235 0.37832597 0.24897857 -0.32730502 -0.83230245 0.067374356 -0.07269888 -0.26127166 -0.24509543 -0.038740065 0.16601633 -0.09326775 -0.17546816 -0.03851244 0.11463864 -0.13277607 -0.13320659 -0.49013683 0.19338511 0.18573192 -0.10100036 0.028921483
所 0.035516642 -0.2110717 0.54784834 -0.1292167 0.07144117 0.2190751 0.058793895 0.13887253 -0.11816585 0.2548054 -0.2232994 -0.08324615 0.72463816 0.39383355 0.14908005 0.2791876 0.074082196 0.10159461 0.36175087 0.367925 0.39933825 -0.52422494 0.4567001 0.15206262 0.15976357 0.0032088999 0.3665629 -0.19778489 0.01584707 -0.37200063 0.8172174 -0.24853225 -0.9313738 0.2819698 -0.108288914 0.2362158 -0.38617843 -0.41069832 -0.23366253 -0.50809336 0.17172743 0.13673958 -0.15274695 0.062142204 -0.28429046 0.14142063 -0.21739286 -0.03278254 -0.4037565 0.019135743
民 0.050987825 -0.1819777 -0.1273208 -0.28581288 0.14317077 -0.42490053 0.48024595 -0.25021824 -0.23027518 0.26703772 0.24167545 -0.1822164 0.1524965 0.31205013 -0.22015454 0.08055115 0.06782889 -0.25639585 -0.034865487 0.54514194 -0.14327702 -0.83474165 -0.312017 -0.15243788 -0.13613401 0.2311992 -0.2822724 0.15388006 0.35956615 -0.09037043 0.6191181 -0.019970795 -0.8286084 0.13003433 0.029721845 0.43402928 -0.0721525 0.059784792 -0.22839272 -0.1774696 -0.21561794 -0.48637143 -0.25653997 0.13820815 -0.013894737 -0.28028724 -0.18497342 0.15944175 0.16548304 0.09293645
小 -0.099520706 0.23879854 -0.014482806 0.25381422 -0.22248395 -0.16701525 0.22612658 0.0456075 -0.3784457 -0.13958131 0.31121764 -0.2622568 -0.027370628 0.22732082 0.13436107 0.3030207 0.018131007 -0.057077378 -4.358962e-05 -0.16526589 0.4067402 -0.35475215 0.046765603 -0.58055705 0.080107875 -0.14225268 0.15370224 0.22299391 -0.41604328 0.18641588 0.4482675 -0.123624474 -0.6809943 -0.044758696 0.16399367 0.15743884 0.4917609 0.031226292 -0.56209093 0.012867499 -0.4394089 0.0065877615 0.12279158 -0.1158378 0.058848973 -0.18665457 -0.036433004 0.08740617 0.23521346 0.084225655
天 0.15458515 0.05970163 0.18137617 0.4663084 -0.5020236 -0.19811697 0.07361749 0.042054236 -0.6393655 -0.20116624 0.08333561 -0.16184764 0.04788176 0.4156269 -0.29888695 0.3448074 0.30458614 -0.047225334 -0.16417883 0.38622645 -0.23235185 -0.330432 -0.054045696 0.082959704 0.66292715 -0.14925487 0.41427934 0.11893043 0.40975767 -0.005818974 0.4338337 0.53998494 -0.6576052 -0.037271712 -0.018720523 -0.41504246 0.08575531 0.38222316 0.37573507 0.4297899 -0.22637196 0.16613026 -0.09673328 -0.13918227 -0.08414744 -0.02529383 0.08227862 0.24268591 -0.010067641 0.04275855
乐 -0.61774164 0.07461553 0.13247406 -0.26703042 -0.6478368 -0.032777585 -0.62072235 -0.2250886 -0.135105 -0.06681217 -0.01785855 0.26746765 0.025497187 0.6184994 0.48979706 0.13082884 0.3971766 -0.22170226 0.25969893 0.08020494 -0.14719516 -0.4712217 0.5534325 -0.2404618 0.45820022 0.20153716 -0.2551652 -0.10346667 -0.11291761 0.40325636 0.5895465 0.07756666 -0.585167 0.0838893 0.007408976 -0.06958899 0.13825847 -0.2566666 -0.016225236 0.104413114 0.21309999 -0.021062223 0.40558073 0.31081748 0.47265643 0.22744368 -0.21897705 0.24249744 0.3241118 0.14926407
邦 0.5994472 -0.6222252 0.08931685 0.06332193 -0.2829646 -0.11084812 0.009162703 -0.07582586 -0.4717845 -0.09231966 0.08957314 0.4121061 -0.1256631 0.5405755 -0.6032281 -0.20209381 -0.0784462 0.44826457 -0.21556456 0.051169418 -0.16748802 -0.45757636 -0.5008801 0.10131079 0.12895061 -0.047092345 0.19906893 0.05882583 -0.0032695537 -0.266543 0.7139901 -0.16839185 -0.49717787 0.29106167 -0.16899444 0.46176454 -0.13238737 -0.35886803 0.010019076 -0.009229761 -0.3094759 0.067756996 -0.054090366 -0.5922041 0.08569777 -0.43143755 -0.055057965 0.04527581 -0.09582353 -0.15019298
亦 0.015894994 0.36865437 0.4075314 0.09933764 0.05413724 0.050661575 0.48148623 0.023499431 -0.3710945 0.30303794 0.14117378 -0.17849807 -0.22514066 0.44403878 0.04715719 -0.16869046 -0.25029978 -0.5798494 0.053070933 -0.100123495 0.2534218 -0.35019943 0.2133271 0.11083231 -0.4292188 -0.15918781 0.49846175 0.07558632 -0.22792798 -0.079618044 0.39092323 -0.13117716 -0.6463108 -0.32955644 0.26356992 0.3187457 -0.09590948 0.22844227 -0.10654197 -0.43592998 0.16033357 0.18003342 0.10970034 0.06208986 -0.12448389 -0.22392397 0.16073263 -0.28706425 0.23321307 -0.0111215
使 0.15197368 0.18762518 -0.030312961 -0.08606406 0.119930744 -0.069045484 0.2921594 -0.03432784 -0.38206816 -0.35690817 0.20319565 -0.045288704 -0.09135434 0.38793525 -0.43592662 0.1204305 0.1466769 -0.0057849996 -0.034110352 0.061891194 0.3086571 -0.10190005 -0.13668658 0.037643693 0.21614753 -0.20741533 -0.3120251 -0.07155043 -0.23562042 0.07464845 0.81505775 -0.6024275 -0.6104898 -0.011779723 0.03228253 0.050522503 0.043161903 0.042305075 -0.036338165 -0.33179197 -0.58173525 -0.22214592 -0.09130745 0.06519572 0.12503159 0.41927254 0.078938626 0.16285223 0.047708385 0.3003427
大 -0.17747137 -0.5029926 -0.19927749 0.423926 -0.47390154 -0.14028284 0.40774935 -0.07168294 -0.1808851 0.25809234 0.31217235 0.4299012 -0.0544738 0.1199529 0.09042602 0.6154561 0.576492 -0.20712191 -0.34461495 0.16454881 -0.15669748 -0.32679546 -0.6686269 0.37574592 0.12432015 0.05748873 -0.20309612 0.095092185 -0.12932557 0.2044402 0.21729054 -0.30418965 -1.0191232 0.40568492 -0.16446711 0.09780514 -0.098235354 -0.17355053 -0.119559914 0.15964752 -0.190873 0.10610033 0.034700256 -0.058454584 -0.08697086 0.34002492 0.37849846 0.121079706 -0.21123213 -0.08426679
下 0.21304817 0.32915333 0.4184543 -0.19197403 -0.022825714 0.4116175 0.48444688 0.05742959 -0.5682742 -0.47883272 0.32640302 -0.12190436 0.19161886 -0.012932591 -0.10658072 -0.13079311 0.19707954 -0.082268424 0.09344906 0.6942032 -0.012007356 -0.058162387 0.01484707 0.06957717 0.07378096 0.3335782 0.45327878 -0.14554629 -0.32882103 0.10752715 0.5075744 0.9026165 -1.278476 0.11120831 0.3130573 0.32315513 0.16038543 -0.52540404 -0.1651872 0.16596098 -0.26248124 -0.6680116 -0.28881988 0.21705958 -0.28527594 -0.019615734 -0.3883653 0.047143374 0.68826425 0.08720695
贡 -0.07522201 0.2696082 0.4805195 0.0204545 -0.44386145 0.04660285 -0.011896385 0.29738483 -2.0687933 0.17958628 0.20656148 0.01593352 0.51494294 0.12305887 0.14638105 0.09281495 -0.008818364 -0.057218067 0.26860777 0.038665853 0.2902049 -0.25133383 0.16800287 -0.071804695 0.7295255 -0.40862292 -0.2232716 0.1493578 -0.20082204 0.027588185 0.07806856 -0.08722679 -0.93465453 -0.18032707 -0.37550974 -0.19595163 0.31127155 0.98526406 -0.3212771 -0.24877375 -0.36260235 0.7509632 0.092726074 0.16936009 0.057946123 0.07051184 0.19960012 -0.23350894 0.27277038 -0.15884079
欲 0.096222445 -0.101459585 0.616516 -0.16105531 0.12219943 0.034342274 0.2721062 0.05764883 -0.38466215 0.028123228 -0.10954616 0.33455178 0.424244 0.4026435 0.23645172 0.0373593 0.6198046 -0.06233542 -0.23841126 -0.1745089 0.3127624 -0.46087292 0.30508527 -0.28273076 0.038730334 -0.09553881 0.23803028 -0.01470462 -0.29877588 0.06396593 0.4435397 0.13625984 -0.8453002 0.023409553 0.15418911 -0.12967204 0.34578034 0.2701618 -0.04160215 -0.105591 -0.07543318 0.051525053 -0.035928115 -0.39636925 -0.1194291 -0.39578554 0.004971223 -0.5055297 0.1278214 -0.16755345
诸 -0.060586493 -0.5372685 0.039822355 0.24419405 -0.019869993 -0.46126217 -0.5188629 -0.12572493 -0.5113997 -0.53286624 0.32099798 -0.13256192 -0.11511777 0.37674037 0.23706824 0.723591 -0.2130239 0.22989874 -0.09894326 -0.037363756 0.24164928 -0.15880151 -0.31950802 -0.081585675 -0.06162428 0.24327783 0.057203908 -0.012175058 0.5365911 -0.4076409 0.35240766 -0.77807677 -0.8715377 0.28046334 -0.21503174 -0.5533478 -0.24808526 -0.18152529 -0.079056546 0.4187017 -0.01890852 0.11934421 -0.083706014 0.3623872 0.16513099 -0.14047414 0.15720287 -0.21412387 -0.07261194 -0.3556601
从 -0.096239746 -0.21623851 0.19358553 0.16490926 -0.005608175 0.6541107 -0.16775547 0.50830406 -0.27502146 -0.27363837 0.1365741 0.1924554 0.18604809 0.017221954 -0.31585884 -0.098056875 -0.30514365 -0.14044142 -0.20690008 0.16900732 -0.20562233 -0.85434926 -0.04591231 -0.15245996 0.22649771 0.34948704 -0.05330926 -0.11263909 -0.44109198 -0.3310881 -0.058243256 0.06905515 -0.85528624 -0.6491128 -0.16015902 0.031417 0.23151602 0.22923946 0.021105934 -0.44886246 -0.24241337 -0.60807085 0.22245327 0.20141532 0.15120398 -0.1279985 -0.34360087 0.1412505 -0.35805586 -0.42420977
文 0.12848307 0.03625284 -0.15066735 -0.056003127 0.061366078 0.32513726 0.19140092 -0.100436635 -0.7235653 -0.18923575 0.04790448 0.25880915 -0.2930786 0.18919095 -0.45873058 0.21020548 0.043155644 -0.060010392 -0.4103517 0.33101654 0.4466218 -0.23286588 -0.15642941 0.3496698 0.16234234 -0.17250332 -0.47060937 0.46259356 0.35538322 0.15469459 -0.2758783 -0.09617261 -0.72997427 -0.0902917 -0.102729976 -0.091736816 -0.27932802 -0.62631774 0.53454286 0.18209516 -0.017543642 -0.69440776 0.034279875 0.26517865 0.46176195 0.3646146 -0.48685697 0.16806647 0.1915928 -0.06607108
政 -0.40132877 0.08385248 0.3949371 0.13544342 -0.5174777 -0.02370074 0.45604828 0.45710978 -0.3270379 -0.12858807 0.26666734 0.38081184 -0.20799164 0.5575404 -0.58814454 -0.028548624 -0.053538594 0.119048 0.06279746 0.039411955 -0.19003229 -0.33062202 0.6615748 -0.20014511 0.44540307 0.38710624 -0.047925882 0.44000125 0.27542493 -0.0322615 0.557564 0.16052878 -0.60921174 -0.083256744 -0.30669522 0.6593139 0.18006158 0.08198306 -0.028137553 -0.19572759 0.4023157 -0.27768886 -0.21660471 -0.17608455 0.2116483 0.32183766 0.053790174 0.5411066 0.09809022 0.092258625
食 -0.32898197 -0.33780324 -0.5272953 0.024305295 0.2129463 -0.11583991 -0.28986177 -0.30329394 -0.6569139 -0.22270997 -0.04366423 0.18289952 0.0759001 0.31977078 0.078828305 -0.2746903 -0.36989957 0.2076889 -0.0040767468 0.4215386 0.28365916 -0.1355876 0.27563542 0.23562667 -0.79866797 0.07639822 0.08542177 0.009531352 -0.77324384 0.15098701 0.979058 -0.37211055 -0.35886708 0.18766548 -0.4966106 -0.111201644 0.14218362 0.12166772 -0.047685143 -0.2148704 0.9456738 -0.4472281 0.50694615 0.114205614 0.07630813 -0.09840198 0.8000089 0.42802554 0.457754 -0.016262095
善 -0.6371851 -0.24080306 0.4181337 -0.17737208 -0.025167106 0.18455343 0.16858165 0.12708157 -0.04251997 -0.33859387 0.15252708 0.16898121 -0.32046422 0.058717925 0.2369387 0.051264584 -0.085538246 0.06778909 0.104444444 -0.14674488 0.1415672 -0.35280743 0.19028762 -0.1936954 0.6930647 -0.16757184 -0.24933106 0.6264546 0.15856646 0.00067210203 0.1893154 -0.07172856 -0.64584273 0.12810414 -0.2672385 -0.50992835 -0.21947812 -0.09191338 -0.23448427 -0.2631633 0.11981503 0.010130168 0.23207128 0.07032761 -0.15053111 -0.23428965 -0.040829476 0.19835985 -0.124265596 0.18705352
后 0.38520056 -0.25144568 -0.38550723 0.07317813 -0.47259167 -0.9139552 0.1107555 0.15087236 -0.22885516 0.06020285 -0.046725262 -0.4485875 -0.30273318 -0.119648606 0.29525435 0.1226926 -0.19802716 0.49695465 -0.33231395 0.15520233 -0.43908137 -0.25933567 0.11143054 -0.50575453 0.47596622 0.20700358 0.13778904 0.1470777 -0.23599517 0.06958107 0.6503588 0.1497914 -1.0829258 -0.018562272 0.17084567 -0.107033245 -0.11629888 0.3804988 0.010307529 0.020254398 0.34723622 -0.4473249 0.08682783 -0.51513416 0.60542846 0.70762974 0.3212598 0.4979068 -0.28739706 -0.04633982
德 -0.2164452 0.3608248 0.15360883 0.23138735 -0.19568007 0.060547266 -0.043692853 -0.2559493 -0.20147249 -0.34211406 0.32058293 0.36173695 0.34970412 0.4405354 0.24831595 0.7149352 -0.13990967 0.020016983 -0.14883609 0.4297608 0.035945248 -0.43922728 0.11462025 0.18511888 0.19406953 -0.03586518 -0.34627447 0.10312218 0.19465831 0.0170393 0.2815254 0.069052346 -0.50151724 0.15163244 -0.16471975 0.06433146 -0.110840976 -0.45286307 0.26548287 0.46085054 0.17257991 -0.51098216 -0.2757159 0.19147708 0.23597927 0.28356263 0.41190633 -0.0638728 -0.40777835 0.39180356
求 0.6640488 0.16649207 -0.29474506 -0.06868711 0.18194883 -0.024632363 0.60040975 0.19184366 -0.38259265 -0.30408525 0.2973801 -0.08776159 -0.13714635 0.37417722 -0.4528903 -0.13891509 0.027266739 0.14820729 -0.029030997 0.3056856 0.28079712 -0.63642406 0.3022876 -0.16401657 -0.6687637 -0.14160037 -0.47715324 -0.2090841 0.020106522 0.36442602 0.53928554 0.096895345 -0.5608269 -0.09188779 -0.5258764 0.13210815 -0.6017627 -0.7083386 -0.25769722 0.21363509 0.03707003 -0.30526584 0.13513528 -0.07526752 -0.20793492 0.20734848 0.044119447 0.07454857 0.39614767 -0.23099105
对 -0.101672366 0.09487613 0.2595189 -0.41315103 -0.19549297 0.44673398 -0.23386893 -0.36298057 -1.7133856 -0.15517072 -0.04082845 0.3954395 -0.17403731 0.45597777 0.5296149 -0.3604502 0.008623006 0.06434246 0.06591899 -0.023907835 0.07018144 -0.0853074 0.24501051 -0.060062256 -0.084718436 -0.36545038 0.7395093 0.2841907 -0.37943056 0.025237782 0.37392586 -0.6635972 -0.5549836 -0.43880978 0.19831257 -0.4433736 -0.4393806 0.0010656958 0.30018568 -0.11631433 0.07341177 0.25218713 -0.017974768 0.35816836 0.3059711 -0.48965645 0.50258076 0.26591617 0.32493645 -0.8503115
恶 0.112422734 -0.3552567 0.1354339 -0.115888886 -0.35260743 0.117558904 0.34060383 -0.036995076 0.12778226 0.099545605 0.3452771 0.3146014 -0.42509577 0.40991428 0.007766029 0.031209016 -0.012558013 -0.025565166 0.29307646 0.1582338 -0.12525974 -0.20730099 0.025919685 -0.6183137 0.17010808 -0.30131388 0.2200875 -0.16648766 0.17648813 0.14537644 0.64559263 0.5523162 -0.8332972 -0.051764827 -0.06410199 -0.23692232 0.6252105 -0.015638195 -0.77656347 -0.28607613 0.48933718 -0.18231916 0.003549302 0.032929167 -0.39057598 -0.2398407 0.23134157 0.031401727 -0.087949194 -0.32535166
信 -0.27431867 -0.18201204 0.32719254 -0.095492244 -0.5270097 0.02857624 -0.34152633 -0.12235725 -0.18525562 -0.01631222 0.43918264 -0.0008795317 -0.0024391366 0.5441991 0.0016094106 -0.056235965 0.14350145 0.058024596 0.57302105 0.028703071 -0.32750118 -0.58073825 0.47047153 0.31083068 0.027964454 -0.033095084 -0.19103776 0.2712267 -0.034316562 -0.24311544 0.35167977 0.1985823 -0.59297794 -0.27871215 0.3754047 0.14011744 -0.046748653 0.15939753 0.22382323 0.34358403 -0.023210065 -0.43455514 0.11874374 -0.25019127 0.0933424 -0.18260352 0.30247504 -0.06385672 -0.49176204 -0.02183201
死 0.22122861 0.28653738 0.07971869 0.13237923 -0.3078605 -0.201665 -0.1146703 0.1610442 -0.41677803 -0.2795621 -0.074051544 0.21220377 -0.42075998 -0.25174937 0.20396383 0.1217687 0.44374216 0.04943739 -0.054103725 -0.010459739 0.14044139 -0.61883724 -0.040304706 -0.19213225 0.31873918 -0.19258055 0.33499506 -0.09525843 0.06304482 -0.20826803 0.4895528 -0.2246292 -0.5636983 -0.21514119 -0.11977719 -0.31238022 -0.31221306 0.22868833 -0.03431472 -0.3243561 0.40325713 -0.1569308 0.06716774 -0.26788327 0.5901746 0.46139428 0.25576764 0.20093283 0.040937867 -0.12608814
然 -0.16392691 -0.08885497 0.5836613 -0.22797826 -0.47119462 -0.33042508 0.37536252 0.0413832 -0.6799617 0.2899225 0.4717165 -0.013992004 -0.052528113 0.18047228 -0.14353159 -0.3178784 0.373475 0.31821823 0.27518043 -0.62462777 0.026628736 -0.52735436 -0.060895227 -0.47192284 0.47120455 0.16372684 0.109075285 -0.12653957 0.13444892 0.07808097 0.3929399 0.21577728 -0.65262127 -0.14037572 -0.11818862 -0.30852276 -0.30618054 0.14774685 -0.1340385 0.43571422 0.28402284 -0.12693988 -0.25455314 0.01488562 0.18000355 -0.00635166 0.22537418 0.8587714 -0.29176575 -0.15082689
《 -0.046625037 0.28232265 0.16633727 0.009546022 -0.5576965 -0.46443534 -0.5534857 -0.47235557 -0.7967869 0.16672896 0.12813899 -0.15055995 0.36280048 0.2385649 -0.19539768 0.42522323 0.50905114 0.42395684 0.30046794 0.51724094 0.118216544 -0.40802687 -0.05616484 0.032052018 0.5547175 0.57213575 -0.5683108 -0.36098903 0.16474323 -0.37336996 0.18664788 0.18397616 -0.7914773 0.22014605 0.97111267 -0.5468315 -0.6544191 -0.12853491 -0.20502667 -0.38057178 -0.3341197 0.056586917 0.12066092 -0.08031774 0.47864464 0.21440175 -0.015012505 -0.33083624 0.49678418 0.02827312
》 0.07396495 0.09891343 -0.3593696 -0.31681964 -0.5592589 -0.25535053 -0.03469518 -0.15480092 -0.79471487 -0.04451181 0.6014091 0.12514317 0.54201347 0.357521 -0.14314952 -0.19546233 0.6784706 0.19066526 0.32814065 0.06528476 -0.4355336 -0.37224495 0.2904653 -0.27780575 0.039859213 0.19361779 -0.2197917 -0.36476186 -0.324311 0.3514185 0.71881974 0.0689919 -0.79320496 -0.19935767 0.09321384 0.055177327 0.08499042 -0.023824854 -0.010260181 0.000940362 -0.036494933 0.24680972 0.49525476 0.22526039 0.40205392 0.34556493 0.060960326 0.13543202 0.22965409 0.10049343
由 -0.39404938 -0.2167226 -0.23780973 0.14974403 0.3653387 -0.12177869 0.5429386 -0.1154984 -0.4376766 -0.58126515 0.45213366 0.18917114 -0.06006265 0.013016336 0.23816681 0.030192899 0.22074449 -0.27108133 -0.089209646 0.11134578 -0.014377152 -0.3471963 0.07947704 -0.11701423 -0.24501406 -0.39888412 -0.46967515 -0.025627205 -0.30985025 -0.061909407 0.8212453 -0.24781904 -0.76337296 -0.27646214 -0.041624926 0.15488084 -0.13349754 -0.527901 -0.028253088 -0.3891316 0.11317207 -0.43384784 -0.12034835 0.185341 -0.53092206 -0.11555414 -0.34197477 0.13206881 0.18288383 0.23461542
仲 -0.74753684 -0.052598916 -0.09064885 -0.22259063 -0.5732457 -0.10839824 0.25769845 0.09883108 -1.098703 0.17534244 -0.10938901 -0.087913044 0.64514744 -0.6388928 -0.37412962 0.6220029 0.08588656 0.07364759 -0.0062485845 -0.24999677 -0.013581619 -0.74244446 -0.048114166 0.19845401 0.3457142 0.17683938 -0.51392084 -0.38745716 0.09457817 -0.16231756 0.64443177 0.1608911 -0.68839335 -0.040778775 0.057728358 -0.22641388 -0.12013776 -0.1994324 0.08849062 -0.65282094 0.45788813 -0.4946796 0.5325456 -0.2849976 -0.19797026 0.21086451 0.37545648 -0.01987492 0.52969384 -0.47165993
非 -0.46835652 0.405392 -0.40487725 -0.31631842 -0.10684921 -0.31343105 0.14670847 0.017167263 -0.5613007 -0.0009299526 0.14977275 0.5668003 -0.24771097 -0.34252107 1.0816284 0.15017986 -0.027808629 -0.17315882 -0.075216904 0.0026115386 0.32249922 -0.5472605 0.16917741 0.15012561 -0.40988514 0.00027112337 -0.3550996 -0.047915265 -0.10708676 0.052188285 0.29399306 0.20331863 -0.74842924 -0.18414733 -0.01660706 -0.115705416 -0.18062344 -0.16710636 -0.078414544 -0.0388151 -0.04018578 -0.58373857 -0.23226865 0.16842455 0.20639925 -0.49650043 -0.021325463 0.39629224 0.25134727 0.087540455
出 0.033116274 0.1997402 -0.42840227 0.10168123 -0.22142354 0.13680372 -0.11142855 -0.20321582 -0.4352293 -0.12466338 0.11429706 -0.067889996 -0.16227561 0.2181105 -0.5062641 0.047675174 -0.29845276 -0.5524348 0.20216602 0.08060956 -0.21411984 -0.38370782 -0.016037088 -0.05271931 -0.13363153 -0.060022768 0.06514633 0.2504899 0.46034482 -0.22273861 0.14367887 -0.50696033 -0.583989 -0.20145693 -0.3269075 -0.43416214 0.011363646 0.20314409 -0.28558493 -0.17573126 -0.046712525 -0.46679014 0.185545 0.01223159 -0.06758938 -0.13067451 0.4919404 0.44706735 0.2535053 0.11274041
过 0.12906186 -0.13878812 0.08446587 0.16856277 0.30715868 0.04320763 -0.101142265 -0.46434897 -0.5763792 -0.42558533 0.40036207 -0.040536817 0.06447744 0.4162052 0.15807267 -0.057222888 0.1130664 -0.35521352 -0.053137206 0.079614714 -0.0028979492 -0.32446548 -0.041080974 0.07908373 -0.015102282 0.59664905 0.33245242 0.23947965 0.4224521 -0.05973439 0.2105708 0.2720018 -0.79639184 0.19588193 -0.23670936 -0.4913312 -0.07238505 0.016169138 0.20687136 -0.48773387 -0.07643888 -0.9748702 0.50067484 0.21576513 -0.08455277 -0.25118968 -0.3252673 0.03765787 -0.1732262 -0.18145275
一 0.2378615 0.016152732 -0.06790138 0.48538947 -0.36885363 -0.21785076 -0.27113786 0.2528138 -0.53332686 0.12830363 0.4812983 -0.6148149 0.09632147 0.30881733 0.12259449 0.066234894 0.06911019 0.70675087 -0.15084468 -0.2150864 0.12576005 -0.2821057 0.091662064 0.15891385 0.06800376 0.07057506 0.14828399 -0.03606318 0.26957166 0.33309904 0.13107957 0.9387901 -1.009895 0.24972665 -0.16928226 0.07129166 -0.475569 0.37961432 -0.0057144184 -0.5946586 -0.49654168 -0.025117062 -0.6760375 0.18645057 0.1759783 0.17921788 0.41670954 0.24993579 -0.13261393 -0.16946012
虽 -0.14544302 -0.056961514 0.2527417 0.287493 -0.71656567 -0.096041285 -0.41773143 -0.20559373 -0.6451705 0.4716187 -0.20123003 0.6472076 -0.2943094 -0.03453554 -0.01772852 -0.62418294 0.06897569 -0.0027682758 0.73345774 0.3561901 -0.18770948 -1.0795002 -0.07540577 0.00050285074 -0.54179275 0.122072436 0.47540182 -0.2838806 -0.24756867 -0.07873891 0.40666535 0.025978304 -0.56067526 0.33404672 -0.24043065 -0.09582634 0.52350956 0.42700526 0.21957076 0.28684086 0.20235822 -0.2447532 -0.207554 -0.23712264 -0.27170968 -0.013404517 0.2723629 0.80277187 -0.034274846 0.015853178
足 -0.18759926 0.54046917 0.8597261 -0.03306674 -0.63276684 0.14515093 -0.1041406 -0.112612225 -0.14770022 0.104374364 0.1280272 -0.37317282 -0.23628934 0.72016007 -0.17373028 0.0122085335 0.40729344 0.17997333 0.07471808 -0.11357056 -0.21435884 -0.5036715 -0.025056656 0.41466528 -0.15932418 0.07990043 0.02426815 0.15012646 0.6643318 0.19688995 0.2531028 -0.12477141 -0.7684005 -0.23277856 0.025172213 -0.56998277 0.3275609 0.17254962 0.2641466 0.011641069 0.40875065 -0.09302469 0.5330435 -0.26265746 0.009193806 -0.28941134 0.21932061 -0.4646132 -0.06460512 0.1278124
居 -0.06923167 0.39662442 0.4121648 0.28157485 -0.0398534 -0.15799232 -0.2836364 -0.41603675 -0.6437443 -0.10797432 -0.29821783 0.025761053 0.30485168 -0.022264002 -0.3798397 -0.018277392 0.4806042 -0.5476411 -0.42986375 -0.30592847 -0.29432675 -0.30846235 0.23208654 0.14976957 -0.10557176 0.17281495 -0.27290654 0.20822717 -0.13313702 -0.42028907 0.41238216 -0.23239331 -0.4514375 -0.55949676 -0.21210976 -0.17578556 -0.12188337 0.15314794 0.034841783 0.38930398 0.16799091 -0.31978768 -0.2239488 0.32581452 -0.2273362 0.119950734 0.045885522 0.3564229 -0.13075806 0.005240659
尔 0.31851503 -0.07080719 0.061027307 0.060769536 -0.173322 -0.36873367 0.05663532 0.51738167 -0.2783432 0.15378672 -0.4384272 0.1475425 -0.5485436 0.71026593 0.39797786 -0.5371205 -0.38673148 -0.2606347 -0.011470865 0.114592746 -0.062157236 0.11202956 0.15355232 0.42110163 0.40038982 0.4136876 0.04214774 0.2625515 0.19096115 -0.32540554 0.69851315 0.65689164 -1.0010805 0.2905116 -0.0032772385 0.059710007 0.057117064 0.5564148 0.044497434 -0.39239854 -0.121078536 -0.18286426 -0.31666142 0.37522015 -0.44753024 -0.06679515 -0.28270543 -0.61445594 0.27952364 -0.12824422
夏 0.44768 -0.022578254 -0.29121238 0.11184978 0.024298862 0.058567617 0.1669168 0.1550989 -1.5556622 0.24423502 0.12070046 0.14979471 0.093830384 0.8194952 0.3794065 0.11335643 0.41807023 0.099747695 -0.05129846 0.06285793 0.09493504 -0.36504245 0.13103698 -0.064984426 0.33435354 0.62619233 -0.26183808 -0.117682695 -0.3292304 -0.3052884 -0.15062566 0.117789045 -0.8673762 0.14950746 0.28657913 0.04677817 -0.14000493 0.36620763 -0.27348283 0.36114588 -0.1984308 -0.107521996 0.36465546 0.035775725 0.2718089 0.26061165 -0.23838897 0.30000076 0.33195692 -0.3772359
父 -0.1882594 -0.0057270257 -0.8594552 0.36279276 0.11686843 0.4183829 -0.2790191 0.6872493 -0.79400134 -0.3405503 -0.4429325 0.58343625 0.08737159 0.5093835 -0.55119485 0.33175445 0.3783429 0.3860197 -0.6030738 0.55876184 0.8249689 -0.71329683 0.553042 0.4130463 0.18034764 0.4441979 -0.41786903 0.8803285 -0.14756463 0.15562588 0.41338238 0.80080885 -0.47253194 0.069808416 0.112587295 0.040791735 0.18736772 -0.14777635 0.3363469 -0.55127627 0.33136043 0.018281765 0.04175617 -0.6646998 0.11673717 0.19095144 -0.29598883 0.428512 0.1480085 0.42772347
及 0.55119693 0.67214614 -0.30480915 -0.13444327 -0.24468867 -0.26142478 -0.11813848 -0.11607523 -0.020743163 -0.09215662 -0.0052199513 0.029269256 0.24260765 -0.18274495 -0.37084937 -0.086184785 0.37619343 -0.18311605 0.41942137 -0.33312726 0.6474629 -0.8788068 0.04117392 0.54685646 0.7768344 -0.63774 -0.37287834 -0.28771415 0.100865096 0.17858778 0.6050125 -0.37748793 -0.984518 -0.1754172 -0.37287152 0.2522685 -0.20788914 0.102462426 0.29507986 0.12686421 0.49547362 -0.4189122 -0.26818985 -0.17819004 0.21833424 0.011069927 -0.7274451 0.41823617 0.1278344 0.18416007
己 0.1623854 0.32161015 0.13203959 0.14982547 -0.034561902 0.29798645 -0.30175105 -0.34133083 -0.23229146 0.023474902 -0.009499925 0.21032184 -0.5726785 0.51233125 0.38913432 -0.06708994 -0.25899744 0.76065147 0.44724074 0.32895398 0.6825349 -1.0887009 -0.60034806 0.101608716 0.43359154 0.067466274 -0.29684502 -0.27287042 -0.0011757035 -0.04201164 0.7474869 -0.32754818 -0.9663107 0.04788579 -0.018850219 0.43042654 0.011020053 0.2127891 0.28180322 0.6215078 0.2393094 -0.4616626 0.0059614396 0.07989902 -0.16868114 -0.13644153 -0.21452259 -0.464792 0.589858 0.57778215
予 -0.17120437 0.42189747 3.8538128e-05 0.09860833 0.31157726 0.14756489 -0.23607834 0.44309407 -0.19697209 0.011218476 0.32462215 0.6084785 -0.22730784 0.53365 -0.402987 -0.24628086 0.05806118 -0.074014716 -0.26473492 0.25337985 0.34383398 -1.0002103 -0.052081253 0.20289773 0.28795257 0.05821587 0.10036597 -0.40890196 0.226167 0.059751466 0.48260915 0.059831552 -0.6858786 -0.028452232 -0.16274974 -0.3039736 0.25830126 0.08037833 -0.09128541 0.18074033 -0.2730193 -0.099363826 0.03698756 -0.32797766 0.2804039 -0.35935196 0.13749774 -0.1993971 -0.4478209 0.6127196
色 -0.631637 -0.023672307 -0.1593767 -0.004159174 -0.28102458 0.27347508 -0.35626453 -0.21230574 -0.20331366 0.7035928 -0.10698866 0.085248046 -0.062294897 -0.058170043 -0.13492787 -0.30882606 -0.07051813 -0.3685857 -0.012945253 0.45365533 -0.17073023 -0.42969167 0.53605413 0.07063792 -0.36980945 0.70410466 0.18681127 0.031359218 0.070128225 0.74604607 0.39080778 0.097726196 -0.9814962 0.2958277 0.14045002 -0.07500582 0.34047925 1.0076472 0.027601078 0.011925774 0.22277547 -0.9206029 0.25378352 0.3933891 0.3233634 -0.48190874 0.7467077 0.28155416 0.4161326 -0.33317554
友 0.73816943 0.5850374 0.5144064 -0.010773295 -0.33615687 0.37085456 -0.56830084 0.33769146 -0.5482932 -0.3972691 -0.15290673 0.6850924 0.28593943 -0.17845838 -0.12852246 0.06552481 -0.12111029 -0.08775873 0.22989386 0.00638937 -0.23343112 -0.563965 -0.03997371 0.33008698 -0.31003666 -0.18042573 -0.60967666 0.23578544 -0.28024852 0.19924262 0.8191267 0.048925564 -0.7477449 -0.07507728 -0.33032402 -0.12930413 0.44166633 -0.011998187 0.3187421 -0.36608878 0.8160848 0.07951605 -0.005217354 -0.3339041 0.41167244 -0.25564173 0.25167772 -0.07552617 0.0686224 -0.29532194
成 -0.169851 0.10610624 0.41929334 -0.06083024 -0.08711119 0.45730197 0.2712318 0.21974576 -0.55811065 -0.17372745 -0.118416406 0.39632046 -0.36977875 0.18375367 -0.12729248 0.22131704 -0.07724036 0.035532724 0.047050264 0.22495013 0.33014628 -0.46673712 0.4563288 0.1452943 0.653141 0.14614883 0.024764867 -0.1208281 -0.7718359 0.15745084 0.26944008 -0.62604153 -0.55291873 0.24617381 0.17319667 -0.2619177 -0.15073143 0.1070192 -0.2953038 0.45026067 -0.018346373 -0.20037678 0.14672133 -0.009415516 -0.3796153 -0.072699666 0.053887807 0.5535738 0.04252434 0.31647095
远 -0.06352402 0.08765726 0.23055558 0.09249835 -0.4313297 0.25417203 0.34695593 0.4281139 -0.09735882 -0.37693352 0.42002925 -0.03125453 0.08864324 0.46202707 0.24752021 -0.22391044 0.070479006 -0.257876 -0.08074957 0.07895921 -0.20886119 -0.018182386 -0.19228074 0.28020722 0.06760807 -0.2202183 0.60000426 -0.097612694 0.058995962 0.09420412 0.32752013 0.043177925 -0.9302665 0.29488817 0.32801208 -0.59549433 -0.03221008 0.073618725 -0.4052293 -0.2741044 0.22560352 -0.41391143 0.1366694 -0.08932566 -0.23814143 0.004245465 -0.09298279 0.14864762 0.042698763 0.21459056
上 0.25318533 -0.1780346 -0.10211672 0.10140583 -0.30019954 0.42408037 0.25183368 -0.18333413 -0.3799508 -0.22883311 -0.1516196 0.31055662 -0.4693297 0.40410635 -0.10949803 0.08961556 0.16852717 0.35737553 -0.009057626 0.3775153 0.057115838 -0.3860159 0.06541814 0.040009968 0.10730294 -0.0524301 0.14926416 -0.38351664 -0.18460603 0.24698214 0.25417057 0.45904896 -0.6808917 -0.5632101 -0.0052477494 -0.3338798 -0.29737854 0.27394998 0.24164379 -0.12683068 0.21785599 -0.45352772 0.24071161 0.36309057 0.024082813 -0.014985841 0.079443 0.039939724 -0.14184281 0.07337795
立 -0.46311542 -0.11063796 0.01135737 0.02642298 -0.020314224 0.34841016 -0.20498377 0.10472587 -0.23622142 0.28452793 -0.22764227 0.07207584 0.15047641 0.74275845 0.074759185 0.08404796 0.065908 0.005527233 0.55395 0.10591504 0.54293793 -0.40441984 0.22208904 -0.35911414 0.23753048 0.26156667 0.029893275 0.015954627 -0.09046329 -0.4223684 0.67236245 0.006100315 -0.7161362 0.82003313 -0.16281347 -0.24683684 -0.23539826 0.3329266 0.22976258 -0.04656156 -0.2026203 -0.9197405 0.13060652 -0.090266526 -0.28061938 -0.03767959 0.18660067 0.14389503 -0.0752897 0.5071495
今 -0.56437135 -0.26562843 -0.43411446 -0.32368463 -0.6834886 0.44315907 0.606165 0.10386671 -0.6157225 -0.2157457 0.22383377 0.2914878 0.21183646 0.1990264 -0.28232676 0.18671714 0.36162683 0.40896448 0.47742048 -0.014328407 -0.3168467 -1.0642825 -0.073412254 -0.024359815 0.1289832 -0.8630496 -0.45546868 -0.13511659 -0.35192853 -0.7811395 0.44678006 0.08111854 -0.48762617 0.31125003 -1.1053736 -0.34719044 0.614538 -0.59224486 0.2258119 -0.11961434 -0.4509442 -0.91761684 0.5275128 0.12855664 0.1763856 0.08011956 0.62561244 -0.7385945 -0.33191183 0.32003808
张 0.41558215 -0.3992123 0.6875278 -0.3152714 0.16359666 0.0326247 -0.008669915 0.11056514 -1.4964291 -0.24659556 0.3694151 0.1232062 -0.1508485 0.46992782 -0.04081392 0.409279 0.42770058 0.2711545 0.4118486 0.01971519 -0.16473939 0.1810211 0.16864859 0.037487224 0.35717645 0.21533684 -0.17134278 -0.19611496 -0.22107857 -0.07446899 0.0892182 0.36553 -0.960623 0.27108088 -0.08323929 -0.17676018 -0.30064356 0.33099684 -0.21468467 -0.05350096 0.13925649 0.1708632 0.32742468 -0.3531362 0.66690946 -0.12067777 0.2483903 -0.15659556 0.034157276 0.54715544
中 0.22346236 -0.2040404 0.038953546 0.28652418 -0.5576409 -0.18739656 0.35869813 0.22390726 -0.3181606 -0.21982345 0.26010877 -0.35483262 0.41750154 -0.09830491 -0.062608145 0.23084801 0.3393961 0.0633646 0.34504682 -0.3284092 0.35144866 -0.7401031 0.2601993 0.016187968 0.12664932 0.51695496 0.042940814 0.19436072 -0.22717156 -0.5278108 0.5194544 0.30501115 -1.1591547 -0.014100494 -0.2932753 -0.41835234 0.038701985 -0.045441218 -0.3899012 0.07303979 0.015829897 -0.3562818 0.4986659 0.1726035 0.04900891 0.43334782 -0.25022238 0.73365754 0.19386464 -0.016031343
季 -0.3295201 -0.054009423 -0.33933604 0.07188965 -0.0766394 -0.28311923 -0.11934442 0.36742464 -1.505113 -0.39964306 0.21339105 -0.053100355 0.25276884 0.53777397 -0.09642092 0.1976014 0.20334786 0.6389212 -0.16435504 -0.3026038 -0.37433952 -0.34195638 0.24398682 -0.39541632 0.23319474 0.016283195 -0.6233748 -0.41451403 -0.19984837 0.24242388 0.62552416 -0.6037214 -0.48034522 -0.73383904 0.5356076 0.17889346 -0.58728623 -0.024292639 -0.109910026 -0.33237764 -0.14121608 -0.34372848 0.16934218 -0.097226985 -0.15204123 -0.71937263 0.48622128 -0.01694274 0.112106614 0.9049178
臣 0.43958086 -0.0081910435 -0.20738286 0.24909574 -0.17252752 0.029619625 0.15325233 -0.12639275 -0.19407754 -0.26986945 0.18801004 0.40493667 -0.4120319 0.5653844 0.047880966 0.32542655 -0.37831688 -0.2568344 -0.45969623 0.09075359 -0.4006344 -0.39583957 -0.19932272 -0.042136926 0.25939947 0.33721337 -0.3694267 0.16667068 -0.32127237 -0.2030335 0.4594739 -0.26266035 -0.66797954 0.2789008 0.6191841 -0.22889556 0.18969795 -0.21636891 0.101760514 -0.046913985 0.18740393 -0.20031779 0.284668 0.035101715 -0.17502512 -0.13842282 0.07486786 -0.020268431 0.35679063 0.09673633
贤 -0.10770973 -0.42213318 -0.6113888 0.050339125 -0.11999053 0.24220474 0.12973404 0.7421925 -0.4942747 -0.19780585 0.1447539 0.61197436 -0.17481092 0.38700628 0.08555248 0.20791164 -0.2879503 0.045826197 -0.068489745 -0.15911981 -0.09277201 -0.4358024 0.27331924 0.28449023 0.45449442 -0.088839285 -0.3414384 -0.08294015 0.015528482 -0.18673173 0.5936063 -0.36642167 -0.8060817 -0.176029 -0.091060854 -0.7342915 0.028503124 0.20951124 -0.039331567 -0.1004593 -0.07561461 -0.36618516 -0.3782477 0.013560826 0.3245161 -0.22952177 -0.31286347 -0.5636382 -0.22868295 -0.34012976
思 0.06837479 0.17524481 0.6745435 -0.7435404 0.21828218 -0.012289958 -0.5741368 -0.33028248 -0.15655906 0.3264922 0.16781549 -0.23838992 0.15549521 -0.30018926 -0.076234624 1.1060708 0.09373761 -0.38612616 0.15011732 -0.73161614 -0.14512989 -0.39582524 -0.011047892 0.10828682 0.044626158 0.53731096 -0.3146232 -0.09018904 0.13892004 0.2638266 0.25857958 0.018717997 -1.0792125 -0.54315 0.25773427 -0.01409474 0.4764862 0.36897865 -0.45893148 0.15030035 0.2752617 -0.17416333 -0.47209352 -0.48231694 -0.23216595 0.37949717 -0.302658 -0.3757111 -0.89256203 -0.2702321
齐 0.22860421 0.22624165 -0.74862283 -0.04624734 -0.28491217 -0.56391704 -0.093120374 0.32369897 -0.823678 -0.036176663 -0.30255473 0.20622751 0.18028589 1.1320589 -0.054583073 0.07681678 -0.10802669 -0.20414172 -0.68448895 -0.431737 -0.52447593 -0.26303738 0.34340316 -0.7342108 -0.16226213 -0.033362262 0.060862914 -0.2571652 0.10403568 0.43691662 0.28816083 0.19729139 -0.7592192 0.5490004 0.028755073 -0.13179405 -0.45377547 -0.2862003 0.1958893 0.30560118 -0.17417836 -0.48766682 -0.27664503 -0.4530342 -0.12835076 -0.41075015 0.46751875 -0.29838017 0.13783436 0.05227713
义 0.08297847 0.14437765 0.14841518 -0.09958246 -0.3800066 0.36315796 0.19659233 -0.0212479 -0.04809309 0.1426529 -0.30141333 -0.18526116 0.14057323 0.942686 0.29871103 0.48794448 0.21819876 0.012904019 -0.12301475 -0.0030377135 0.2735515 -0.187518 -0.021587774 0.20967817 0.0053780014 0.009351298 0.46427724 -0.31216162 -0.8637423 -0.48574996 0.01066418 0.7542633 -0.97832155 0.04971414 0.21154635 0.10803274 -0.8046834 0.17037348 -0.70397615 0.16823928 -0.052749813 -1.1104845 -0.27529022 -0.26328546 -0.074543305 -0.28604588 0.059874453 -0.044155724 -0.0010639224 0.028622419
正 0.08895121 0.19401552 -0.25211534 0.17454498 0.3880104 -0.2464881 -0.44692218 -0.28079343 0.0004320047 0.17713049 0.28240755 0.20271967 -0.10723389 0.3218884 -0.32526237 -0.0017410908 0.41526064 -0.06008151 -0.3287906 -0.14616588 0.34195307 -0.2518646 0.5751418 0.3926378 0.029894002 -0.23115472 0.17641276 -0.22379358 -0.24523579 0.32397684 0.7437956 -0.0017278315 -0.6112006 0.12539722 0.053848498 -0.18564354 -0.47307783 0.084925994 0.15030581 0.15210442 0.22064975 -0.039211262 0.11230905 -0.23581815 -0.14627253 -0.13904259 -0.14397833 0.24772127 -0.25673267 -0.21246094
命 0.18055715 0.6752701 -0.12146376 0.09000441 -0.21150433 0.04615343 0.18961498 0.3367695 -0.37810764 -0.67274165 -0.039535247 -0.043254126 0.041160885 0.46970603 -0.5518406 -0.029250003 -0.31400266 -0.060857262 0.23413894 0.15317729 -0.4836016 -0.3597179 -0.11887726 -0.18608855 -0.052415088 0.16699544 0.10258039 0.49962088 0.12986763 0.25966126 0.12676615 0.24062061 -0.8691783 0.26171324 0.44056207 -0.37485552 -0.018984191 -0.2036152 -0.39585543 0.28235132 0.16776331 -0.37884495 0.013092977 -0.034636255 -0.0130085405 0.27238217 0.20124938 0.14761601 0.15292828 0.17978074
曾 -0.43046153 0.39827135 0.5427561 -0.03021211 -0.74206007 0.16468427 -0.049027774 0.26277408 -2.0671253 0.0783424 0.5671565 -0.123063445 -0.19836333 0.6355919 0.104147114 0.37333754 0.97288054 -0.15186451 -0.328747 0.27647686 -0.14947331 0.41834974 0.2094653 -0.41311637 0.70115423 0.08343501 -0.39896172 0.08006698 -0.253255 -0.01207063 0.35205692 -0.07112878 -0.40516415 0.25655192 -0.41574788 0.05397571 0.5430184 0.26448643 0.7784863 0.29491675 -0.5463348 -0.39517424 -0.48021933 -0.12650229 -0.65880615 0.0149848815 -0.0894012 -0.68072337 0.1909722 -0.4867393
伯 0.41124466 -0.19050825 0.23763794 -0.15839362 -0.15853037 -0.073814206 0.3201482 -0.05907531 -1.5810994 -0.47762462 0.2611959 -0.5922175 -0.36430943 -0.23642609 -0.84738827 0.454008 -0.5909697 -0.18364717 -0.6553846 0.35003844 -0.48824933 0.07801077 0.1703342 0.80863214 0.49208724 -0.123891436 -0.8342296 -0.6588516 -0.37292385 0.39473182 0.14527471 -0.38486215 -0.75123435 0.21898946 0.033900186 0.23218976 -0.8304648 -0.1541559 -0.01878161 0.0708714 0.20688048 -0.7792785 0.00043545826 0.3123638 0.17198887 -0.24544436 0.40799436 -0.07876893 0.5030095 0.44995758
门 -0.2960082 0.6311337 0.11291662 0.38351545 -0.09639676 -0.34644055 0.04903669 -0.35552534 -0.4167491 0.6744563 0.12705576 0.31127223 -0.73615336 0.20594347 0.10973778 -0.000619431 -0.31548375 0.13589321 -0.77339077 -0.07362514 -0.6039693 -0.16688764 -0.41377363 0.24368282 0.68415517 0.15322202 0.6514989 -0.025556143 -0.16669092 -0.32389212 0.46177343 -0.426585 -0.78126615 0.037504863 0.012247756 0.1868554 -0.60346776 -0.20135538 -0.28575033 -0.13910212 0.2842735 0.007249366 0.28422666 -0.15340666 -0.0817788 -0.2986005 0.13130072 0.5092736 -0.34804156 0.004439758
敢 -0.01792034 -0.10139701 0.04873796 -0.21546273 0.063773856 0.17911968 -0.03997622 -0.04421013 -0.46991163 0.49805084 0.2876852 -0.11647272 -0.11100061 0.4877958 -0.22474979 -0.3430509 -0.5864563 -0.14405881 -0.19004425 -0.68527675 -0.26400015 -1.1434582 0.40643367 0.033969957 0.31627408 0.1977309 -0.028346308 0.02828729 0.5556732 -0.24512607 0.37267813 0.45171723 -1.0480969 -0.21033467 -0.49549383 -0.026614297 0.05163183 0.14387463 -0.16154528 0.18077059 0.52207756 0.2531586 0.22951712 -0.15890697 0.37121117 -0.09356838 -0.11235157 -0.65507776 0.19790904 0.24846387
犹 0.074656814 0.14133184 -0.18518916 0.29493457 0.07854638 0.47578043 0.13620916 -0.065215215 -0.28400013 0.41918787 -0.12701315 -0.10236031 0.14952986 0.08769786 -0.052526306 -0.08463783 0.29804224 -0.41696396 -0.025853151 0.72269547 0.6882427 -0.5192225 0.102914765 0.44637573 0.2156005 -0.7749608 -0.03842962 0.5064589 -0.7245028 -0.3051648 0.9144666 -0.27986312 -0.9240151 0.199447 0.5607716 -0.7354438 -0.7291775 0.08240123 -0.22483364 -0.17049545 -0.61764586 0.31593812 0.34710306 0.008594187 0.5637326 0.008535397 -0.4309966 0.28147358 -0.01864412 -0.079449765
生 0.37687647 0.58983684 -0.44881964 -0.8850513 0.57662135 0.30394298 0.30754393 -0.27701664 -0.62744844 0.22486874 0.27440414 -0.6028826 0.017902633 0.13308452 0.2742306 0.10460281 0.11386784 -0.10830116 0.03241995 0.24373351 -0.24926469 -0.980697 0.25694978 -0.02087755 -0.0126755135 0.2325875 0.5936145 0.06537263 -0.4233898 0.34587756 0.51328623 0.26786053 -0.92846483 0.28810596 -0.5079352 -0.052348945 0.22469635 -0.08298502 -0.21482371 -0.21134445 0.874619 -0.23300037 -0.16214153 0.0013546636 0.13965963 0.25541335 -0.5932546 0.07767215 0.08789592 -0.18954286
日 0.5873509 0.39929754 0.23021433 -0.48153964 -0.57006174 0.07430516 -0.15027206 -0.36272553 -0.5272852 0.32643563 0.27240056 -0.19715568 0.16002752 0.018852971 0.054491438 -0.23258987 0.10083961 -0.29522067 0.18472417 0.12685457 -0.10948298 -0.92786324 -0.2904497 0.03642146 0.12828596 0.46193212 -0.16654155 -0.041717157 -0.46158507 -0.15979527 0.13630328 -0.3109142 -0.83168954 -0.39114982 -0.21636249 -0.13062121 0.4134708 0.44382975 0.031592257 0.0039103404 -0.18971546 -0.07712417 -0.784582 0.015174005 0.47198468 -0.36213064 -0.019370534 -0.022118382 -0.26483616 0.5459878
敬 -0.25014699 0.16627915 0.101772234 -0.16926183 -0.5070263 0.34957734 0.28245547 -0.3059887 -0.376998 0.15468767 0.061841864 0.015007129 -0.10559466 0.47108403 -0.12267078 -0.09254374 0.21530448 -0.4116155 0.09406623 -0.0013024565 -0.2094762 -0.5209094 0.23979038 0.365667 0.379154 -0.25652137 -0.55780613 -0.21177787 -0.3634025 -0.13635913 0.10405534 0.54335666 -0.63715637 -0.079598725 -0.1636158 -0.21977541 0.020655861 0.36810824 0.04878639 0.16430451 -0.009003962 -0.27461693 0.23023658 -1.305517 -0.46486208 -0.41464746 0.21759571 0.1350281 0.07981869 0.21283275
难 0.34946588 -0.08725571 0.199434 -0.14501812 -0.28815413 0.3148629 -0.1222678 -0.10640575 -0.0967096 -0.47796333 -0.14664875 0.1950685 -0.20390151 0.090242766 0.15850759 -0.2639327 -0.32198083 -0.08380518 -0.0012630154 0.015715737 -0.049019393 0.010463457 0.19472556 0.04855606 -0.21947813 -0.07229195 -0.3944625 -0.25319734 0.04034028 0.10613974 0.58616817 0.0008812563 -0.8985105 -0.5415516 0.024092948 0.1879532 -0.089020684 -0.096207544 -0.094561845 0.24529755 -0.2885836 -0.28530595 0.77632445 -0.6970454 -0.48031658 -0.18539451 -0.4413201 0.42669752 0.09725292 0.31033677
直 -0.25211668 -0.121380255 0.013140939 0.33405402 -0.20442794 0.39456576 0.40743893 0.32133117 0.085529335 -0.029840052 0.9519435 0.1461329 -0.33505607 0.18679175 -0.19032694 0.21300869 -0.6733477 1.1273041 -0.57539773 -0.0722019 0.49761832 -0.6039906 0.3813493 0.34181413 0.31155327 -0.6582992 -0.007164103 0.4706733 0.46788096 0.16060455 0.8141997 0.5078806 -0.87307054 0.4464431 -0.21363164 0.005164613 -0.3862106 0.1924318 0.24791728 -0.15831877 -0.11128358 -0.5602969 -0.07115264 0.14644513 0.15443778 -0.5697763 0.32222918 0.43186635 0.7400208 0.328414
丧 -0.12585431 -0.0035238005 0.5348783 0.14014567 -0.23435496 0.20826879 0.48268032 0.1819421 -0.553251 -0.05694232 0.38093153 0.5378419 -0.22980028 0.39737123 0.2191649 -0.31758872 0.22627445 -0.05288921 -0.034195833 0.12112482 -0.5595733 -0.34188864 0.15401796 0.0062665776 -0.06520546 0.19035837 0.12532613 0.32336032 0.29959223 0.42591 0.74854845 -0.2281737 -0.6362802 -0.06144121 0.49364185 -0.23433973 -0.3337269 -0.122459255 0.68960506 -0.7379421 0.4103845 0.092607 -0.49490568 -0.09165234 0.54505974 0.12480439 0.28836197 0.43485543 0.297425 0.28271857
说 0.057088103 -0.70236695 -0.052833255 -0.27333564 -0.0905671 -0.5456951 -0.103353396 0.22864975 -0.15950945 -0.10211432 -0.048292883 0.044657443 0.25576118 1.2443321 -0.33739987 -0.14988932 0.3288594 -0.82727367 0.09522184 -0.29755375 -0.07523045 -0.31593674 0.15921815 -0.050344404 0.0628872 0.35480157 0.1116292 0.15718496 0.26310396 0.27645338 0.28083962 -0.43204778 -0.96165437 0.34410673 0.01484577 -0.39822027 0.24379194 0.033296727 -0.9021217 -0.46067688 0.30377308 -1.1239412 0.4320916 -0.118720174 0.0054294984 -0.403339 0.19746745 0.2621454 -0.1774592 -0.0380464
自 -0.1370582 -0.30254108 0.27177888 0.4831004 -0.58523947 0.1794334 0.36703897 -0.17220892 -0.96470934 -0.5718388 0.0706059 0.29327032 0.08984068 -0.11265761 -0.2623614 0.16592771 -0.72762525 -0.2009803 0.37479115 0.2769624 0.3286124 -0.18098907 0.2001036 -0.116886094 -0.31510845 -0.18613882 0.24565211 0.6931146 -0.21948269 -0.29568595 0.5784318 0.25100112 -0.75765187 -0.33809346 0.37097025 -0.21651208 0.025805058 0.45581305 0.031726666 0.26307005 0.2936996 0.13935581 0.3232436 0.49052405 -0.20153844 -0.08994402 -0.4731235 0.32308403 -0.24065788 -0.6414356
用 0.17726459 -0.13865295 0.34978497 0.40105563 0.7294272 -0.040387526 -0.26416314 0.17621617 -0.05534201 -0.024677012 -0.0061149644 0.22889692 -0.5020185 0.107119136 0.24203381 0.032239147 -0.22859986 -0.18771005 -0.50144416 -0.1827003 -0.10805538 -1.0250106 0.9675554 -0.11185671 0.13600886 -0.21365072 0.6358004 -0.18249254 0.22393517 -0.30379668 0.26903585 0.25373256 -1.3787965 -0.4968764 -0.38864434 0.4554201 -0.24698903 -0.20867991 -0.079203874 0.4039449 0.021362696 -0.0027413 -0.19990738 0.0076495325 0.25912398 -0.021820918 -0.24599084 0.07465454 0.10829994 -0.1105042
周 -0.15539736 -0.72477895 0.45047742 -0.36396503 0.16974914 -0.6739224 -0.23653623 0.07640791 -0.79573053 0.7358018 -0.111547835 0.6404179 -0.17573445 0.20245954 -0.3224198 0.3380093 0.01519461 -0.217027 -0.30648345 0.35394588 -0.17207144 -0.0786182 0.237324 -0.0012800661 0.73257744 -0.3942377 -0.07361626 -0.3617733 0.21204928 0.29613322 0.6138626 -0.27967107 -0.7534121 0.102263466 0.16100365 0.4130165 0.10185321 0.18076766 0.31786725 -0.24265726 0.03091384 -0.38689208 -0.055172846 0.47253835 -0.19172923 0.2713074 -0.16742694 0.47138366 -0.19418763 -0.24166085
颜 0.2944315 0.4241936 0.11615128 0.24069893 -0.19725251 -0.16249338 -0.45954752 -0.081428364 -1.4796972 0.605309 -0.28603968 0.0739777 -0.32959345 0.114616685 0.6231393 0.48888633 0.40672484 0.5627205 0.3923412 -0.14536582 0.6378907 -0.06250423 -0.1397172 0.07336398 0.1405591 -0.22035873 -0.03518305 -0.18021113 0.21243188 -0.16217294 0.87602663 -0.40029004 -0.56837463 0.54201317 0.117100514 -0.05080147 0.0630246 -0.25408116 -0.027477842 -0.3053329 0.16346943 -0.46846536 -0.711372 -0.042016655 0.35714805 -0.35361883 0.502519 -0.2982948 -0.5631329 0.037091687
年 0.84210354 0.2658288 0.45664674 -0.6922899 -0.296966 0.2729786 0.012624946 -0.67422616 -0.9259663 -0.082880035 -0.34930503 0.45402274 0.003192853 0.20316273 -0.037686195 -0.49803463 0.12903483 -0.4221795 -0.17326924 0.5776154 0.2553137 -1.004908 0.14322864 0.0135767935 -0.17903018 -0.09173907 -0.26351538 0.41549596 0.026510984 -0.96458614 -0.04224288 -0.094468266 -0.73492444 0.28970224 -0.06954714 -0.025991475 0.08524984 -0.4862862 -0.054222878 -0.047174223 -0.07488346 -0.5567206 0.29552588 0.18958595 0.3805897 0.04006932 -0.11383114 -0.05101055 0.18606623 -0.03160468
告 -0.13198304 -0.12474248 -0.024882773 -0.21012282 0.06954685 0.39109397 -0.09197273 0.22630364 -0.97785246 -0.13076398 0.5335573 0.18907098 0.41281924 0.9667928 0.07977602 -0.037457794 0.29074728 0.08053023 0.46255365 -0.063174695 -0.18458201 -0.758884 0.15602723 0.20759778 0.21543036 0.006880984 -0.7181114 0.57339615 0.073787294 -0.31829542 -0.036182888 0.39275932 -0.6056234 -0.18184519 0.35694665 0.4419322 -0.0032992014 0.11484771 0.025418788 -0.24112567 0.24691378 -0.6397892 0.3709239 0.6502902 0.19075017 0.15131444 0.5638594 -0.016073488 -0.3039672 -0.12138072
十 -0.071729474 0.19281803 0.1577408 -0.39525968 0.045127686 0.2779161 -0.6167546 -0.21284313 -0.64794755 0.59433854 -0.34248567 0.16657054 -0.18302967 -0.17436169 0.25239623 -0.20863657 -0.46071708 -0.23036934 -0.18729362 0.34524113 -0.63858706 -0.83415556 -0.020579588 -0.6331356 -0.5082911 -0.5056747 -0.94330865 -0.099127494 -0.3631978 0.15777302 0.6105041 0.661314 -0.82852536 -0.1027115 0.75347424 -0.6984663 0.25871718 0.09400175 0.3233621 0.44068652 -0.29327926 -0.21746922 0.17906508 0.48545775 -0.20501953 0.2241708 -0.33841452 -0.23030543 -0.0027380737 -0.9444634
怨 0.37398198 -0.2532826 0.43391845 -0.21375617 -0.6159161 0.3565031 -0.22528127 0.22377847 -0.40902632 -0.6836904 0.11876852 -0.15233345 0.1899318 0.8034629 -0.1752392 0.38950104 0.01780575 0.05472026 0.19926973 -0.04317747 -0.95046633 -0.28681815 0.38049796 0.44260034 -0.2534346 0.16975099 0.0134282 -0.1982187 -0.28486112 0.14655927 0.74169123 0.22337162 -0.54321754 0.017512877 -0.05053573 -0.023836007 -0.41999838 -0.11910981 -0.24239941 -0.22850548 0.26940435 -0.013182578 0.09007743 0.10203658 -0.7449458 0.13499331 -0.6033974 -0.33059713 -0.019052245 -0.34425247
达 -0.04208995 0.3845952 0.11314083 -0.26849735 -0.2016993 -0.3020486 -0.08468066 -0.25517458 -0.29947752 -0.43129832 0.19993629 0.19835912 -0.24140847 0.004908843 -0.07227994 0.100652 0.25588346 0.101865135 0.57376456 0.1702694 0.022666667 -0.5055465 0.104958534 0.7036798 0.67218703 0.07185839 0.10233222 0.09187177 0.0879296 -0.42574617 0.39718735 -0.20810448 -0.56545925 0.16637714 -0.015070643 -0.12145495 0.11810605 0.046663918 0.43506232 0.68441296 0.22932488 -0.44055188 0.41353053 -0.3149096 -0.74804693 0.25136268 -0.16571122 0.23258978 0.1262616 0.1211559
孝 0.2594672 -0.024485698 -0.5099124 -0.41118914 -0.6243388 -0.030783545 0.02312592 0.5680172 -0.64890885 -0.28322116 0.3406213 -0.23558137 -0.7094145 0.37982246 0.45512143 0.14560792 -0.31051877 0.003792627 0.24215218 0.21510568 -0.22810788 -0.05329935 0.97165537 0.5114187 0.011974206 0.54685956 0.5375877 0.25951317 0.22513781 0.12735797 0.17644383 0.24357474 -0.7009955 0.03849064 -0.5436233 -0.33244982 -0.63128364 -0.28981188 -0.09161571 -0.10873115 0.26404405 0.040337823 0.4101304 -0.5175743 0.6845515 0.49786898 -0.01793089 0.14377348 -0.1453335 -0.3548238
弟 0.8049739 0.23253457 0.024846956 0.44451573 -0.24556406 -0.46678776 -0.03377215 -0.2419339 -1.1278721 -0.20242083 0.95664155 0.08828421 0.3299893 0.6985866 -0.4868742 0.4241413 0.19518714 -0.6856034 0.013775594 -0.22615269 0.45631012 -0.3921007 -0.5608094 0.31460604 -0.36035103 -0.14032349 0.6345396 -0.061704338 0.6520138 1.0194881 -0.72686815 -0.2756032 -0.73574036 -0.32872295 -0.78381926 0.2324339 -0.02700285 0.39389992 -0.10694541 0.22156242 -0.4545495 -1.146998 -0.22109166 -0.9032799 -0.11509556 -0.3718658 0.5068795 0.6056725 -0.83247775 0.70333123
至 -0.2575532 0.15293758 -0.5010309 0.13494538 0.049202267 -0.0758121 0.33027214 0.4461871 -0.360277 -0.15791798 -0.29837027 -0.7262358 -0.2552723 0.35580748 -0.022280518 -0.18700805 0.52495503 0.028338619 -0.10834202 0.13480228 -0.59754395 -0.34042513 0.696984 -0.019002631 -0.45018017 0.6263787 0.077325985 -0.10168726 -0.05295135 -0.47649202 -0.03381466 -0.083029754 -0.8110668 -0.45653692 -0.3263796 -0.999921 -0.26997793 0.1865609 0.19558531 -0.6999524 0.30120522 -0.47631583 -0.19873652 0.103292964 0.16757278 0.017823342 0.1150051 0.22998042 0.5759125 -0.14017124
先 0.08061075 -0.45220423 -0.09007788 0.26979026 -0.90458155 0.06144891 -0.2264134 -0.36266893 -0.4643815 0.10248661 0.20147051 -0.2082973 -0.7252405 -0.13399766 0.15172563 0.18282057 0.14963326 -0.013895145 -0.5109862 0.0131236175 0.10786576 -0.18574966 0.41306135 -0.10716443 -0.3958771 0.41072738 -0.2868892 0.1338032 1.0679832 0.39287668 0.5148218 -0.3923741 -0.97910213 0.2098024 0.069278434 -0.15974589 0.5727055 0.10535131 0.053815816 -0.6456545 0.69031525 0.01740093 -0.28124824 -0.2365569 0.22424369 -0.09439285 -0.18831605 -0.06783067 -0.62476397 0.13620816
师 0.035980493 0.51621 -0.076523416 -0.030951412 -0.15686284 -0.3188921 0.58402544 -0.035889566 -0.58274573 -0.57542497 -0.21745767 -0.19496866 0.07741356 0.01901197 -0.703102 -0.38302943 -0.15840945 0.12199429 -0.33584574 -0.37686804 -0.092449285 -0.43421227 -0.16491151 -0.1066029 -0.65807617 -0.07345176 0.51851094 0.12082933 0.29344627 0.47822005 0.090550676 0.3206132 -0.8810661 -0.4325137 -0.2697833 -0.1885894 -0.6645087 -0.5649246 0.22266194 -0.44464776 -0.4943695 -0.726053 -0.23922268 0.45724624 -0.7148385 0.65213615 0.12523025 0.4224248 -0.0797145 -0.28542086
女 0.11491323 -0.29927704 0.18658946 0.28733742 -0.71452516 -0.39212945 0.08182943 -0.27240714 -0.9565352 0.23239303 0.062039953 -0.4469405 -0.09457324 0.2529857 -0.64480025 0.33446002 -0.57005596 0.65678924 -0.45433336 0.10642948 0.51958597 -0.61879057 0.021496583 -0.088176414 -0.3846576 0.12851305 -0.34707454 -0.70748067 0.28863338 0.40246978 0.3890838 0.020139366 -0.59895086 -0.95705074 0.112925865 0.47800684 -0.32390094 -0.28522474 0.006540674 0.10404993 -0.5093168 0.23270299 0.1645364 -0.2141931 -0.43894824 0.61098355 -0.14083247 0.12697878 0.04671459 0.2931549
多 0.28574085 -0.3934066 0.38217193 0.31168273 -0.63284814 0.091162466 -0.0778391 -0.269778 -0.23219854 0.030413304 -0.101303324 0.072255 0.023999952 0.411375 -0.0877327 0.5770198 0.21131164 0.026114896 0.0033078566 0.26080775 0.08345055 -0.3806961 0.19874485 0.23907639 0.5666104 -0.8927642 0.13004383 -0.8898498 0.05140505 -0.24643283 0.10628623 0.8194637 -0.78454363 -0.22007094 0.32563677 -0.6754623 -0.0016705495 -0.4631127 -0.48844808 -0.22770539 -0.09879704 -0.035861745 0.15376067 -0.794446 0.3600917 -0.37043846 0.20502499 0.11155798 0.71163154 -0.118588634
忠 0.5283537 -0.33976185 -0.116840236 -0.34027657 -0.5941073 -0.0043131667 -0.4950084 0.021552855 -0.4189572 -0.2682462 0.13417028 -0.14930226 -1.4002153 0.46266007 -0.0069858264 -0.18379572 -0.3077772 0.020478288 -0.026452802 -0.2964886 0.5523558 -0.3824296 -0.035715204 0.4588184 -0.29731524 0.4507986 0.2666129 0.7138098 0.44218388 -0.17921866 0.4350761 -0.0005593118 -0.3865046 0.27151802 0.025936527 0.42777494 -0.04958253 -0.26764712 0.04862605 0.42453438 -0.00014179712 -0.42503846 -0.16628823 0.38300428 -0.2594784 -0.3887525 0.90043813 0.8302598 0.116149105 0.23683563
四 -1.0009254 -0.16895615 -0.23083447 0.009149393 -1.1791986 -0.64583635 0.36151612 -0.6587139 -0.4965679 0.3611011 -0.1280263 -0.49679345 -0.33844987 0.62492377 -0.008519367 0.018959792 -0.23687807 -0.011666287 -0.6952979 0.3424061 -0.033073444 -0.49075255 0.035483494 0.09000252 -0.52638096 -0.84474653 0.062455904 -0.12791032 -0.35119882 0.37588656 -0.026322633 0.31939337 -0.66950727 -0.39419135 -0.43479034 -0.5695802 -0.06250856 0.6030889 0.18809998 0.04946046 0.24553743 -0.19783339 -0.28519493 0.21060823 -0.28831524 -0.10841194 -0.09344765 0.4632872 -0.49720433 -0.073130384
疾 0.31536546 0.24453528 0.51127106 0.12587282 0.03191796 0.53918827 -0.90556365 -0.20621076 -0.761312 0.050795175 0.14172845 0.120659456 0.04336138 0.78206366 -0.35375035 -0.32065716 -0.18931857 -0.267975 0.5187823 -0.060524207 0.29664564 0.09552813 -0.2596091 0.49910676 0.47046113 -0.23128575 0.4762894 0.11326921 0.25819 -0.3400329 0.08065836 0.20584828 -0.82585603 0.35585642 -0.5223655 -0.3377461 -0.09035029 -0.2876507 -0.077097945 0.14663085 0.16351856 -0.57081133 -0.14764844 0.18360631 -0.0061740875 0.197128 0.6283119 0.32077482 0.15552074 0.25926042
服 0.30484718 -0.12170239 0.15007357 0.21704395 -0.12556785 0.25035667 0.44899666 0.17315386 -0.4480711 -0.5641126 -0.26123664 -0.11921755 -0.45129117 0.7556122 -0.4727633 -0.0075639077 0.17416383 0.37064025 0.5807703 -0.10022834 -0.25472477 -0.21275991 0.37293452 -0.13605565 -0.012758336 -0.93963015 -0.6010033 0.5773075 0.05060184 0.20620139 0.2719257 -0.1339742 -0.60973305 -0.57645655 -0.43493217 -0.6483189 0.68177897 1.1886873 0.63228697 -0.40619203 0.056945592 0.090013206 0.35501856 -1.135281 -0.38010064 -0.0346444 0.28425318 0.09982218 0.17212616 -0.46674725
氏 0.03454688 0.008762892 0.41901186 -0.069366716 -0.05666205 0.25579783 0.8661145 -0.0195522 -1.2241566 0.08046647 -0.3945917 -0.36898103 0.2406293 0.07007631 0.5176416 -0.08581874 -0.16333975 -0.24977414 -0.07460746 0.71412325 -0.81215054 -0.064104185 -0.2055912 0.30715817 0.6231773 0.20688197 -0.36733922 -0.20442948 0.68019044 0.22784682 0.103436686 -0.08575023 -0.9829682 0.6377326 0.37883198 -0.3953849 0.5762213 0.85916257 0.16463077 0.2552907 0.15727268 -0.08364132 0.17999484 0.6352666 -0.1735529 0.9367504 -0.12181203 0.68210006 0.011943478 -0.09599911
冉 -0.20354766 0.2793822 0.03181402 -1.0670298 -0.64263356 0.15526019 -0.1362481 -0.14600131 -1.8931881 -0.26579645 -0.0024362397 0.36111084 -0.28157622 -0.10483421 0.27341837 0.47456545 -0.3110066 -0.39412376 -0.34701806 0.49987036 -0.05097271 0.012815313 0.08712844 -0.30251098 -0.17112847 0.59038454 -0.3544459 0.12159848 0.33702514 -0.041145775 0.7497889 0.06255597 -0.62237066 0.9948097 0.32397145 0.23195677 0.24657875 -0.59254986 -0.36509538 -0.12925734 -0.14520757 0.08494088 -0.02967049 -0.6606013 0.22053683 -0.48636878 -0.54682696 0.40582812 -0.03716987 -0.11772751
将 1.3213949 0.47096434 0.5830326 0.71233755 -0.3683669 -0.05764725 0.32714945 0.46857914 -0.9523765 -0.009496141 -0.03222141 -0.0017295838 0.0047307755 -0.054612987 -0.15721378 0.45255074 0.0417367 0.22863233 -0.10767598 -0.35632694 -0.16206825 -0.40094724 0.5287997 -0.19410059 -0.22855555 0.15406665 0.7544358 0.6348299 -0.5322618 0.27197924 -0.39519775 0.049933124 -0.86793697 0.014596235 0.38150588 0.033043083 0.27057576 0.462797 0.029228901 0.18537028 -0.19650623 -0.4075517 0.2768999 0.39383006 0.086404145 0.43002316 0.7621865 -0.14672525 -0.96445554 -0.04372183
士 0.20671499 -0.16143824 -0.27192637 0.11235737 -0.1766531 -0.0054419604 0.69597113 0.046646006 -0.68838626 0.078702845 0.8291855 -0.13904068 -0.50082713 -0.17691809 0.17714736 -0.5163977 -0.04320379 -0.034273 -0.6398815 -0.3249126 -0.0680566 -0.59753805 0.25803292 -0.047829777 0.6395763 0.05468319 0.06511937 0.05525803 -0.13547581 0.23350045 0.3364292 -0.3575153 -0.44457754 -0.4013179 -0.016367344 -0.5873367 -0.121352024 -0.62231237 0.23648563 -0.047093518 0.48223576 -0.13985541 0.3949337 -0.7380827 -0.19517754 0.2452804 0.19438393 -0.0734313 0.385319 -0.25784048
丘 -0.26408958 -0.33041185 -0.18517773 -0.29627573 0.018645309 -0.057572532 0.3440465 -0.5483361 -1.0981457 -0.35250488 0.56153685 0.17143543 -0.12720294 0.78027636 -0.36607882 -0.5626723 -0.20526512 -0.71095496 0.063158184 0.27152246 -0.80285615 -0.8562709 0.18896799 -0.08662492 0.5437102 0.17435282 0.44800192 0.10615175 0.7597438 0.09149276 -0.34807622 -0.11261086 -0.8351062 0.11448936 -0.01982009 -0.0068360763 0.3157039 -0.2657702 0.43849903 -0.1264383 0.4256947 -0.8730039 -0.40122908 0.013323238 -0.16343255 0.97945464 -0.33419368 -0.25497416 -1.1122572 0.2244365
身 0.33739287 0.10022502 0.022151552 -0.3998732 -0.68518925 0.5890714 -0.44530988 0.4977652 -0.3241932 -0.49541494 0.5969491 -0.3760867 0.18944661 -0.26006648 0.6436091 -0.22770122 0.11983119 -0.10698759 0.25509685 0.4064955 0.58341795 -1.0898851 -0.42986307 0.842731 -0.06650155 0.59897625 0.45520765 -0.4500943 -0.42312735 -0.5554778 0.90033346 0.33712012 -0.91719824 0.13417499 -0.08599602 -0.5057165 -0.6548698 0.10331218 -0.40714458 -0.34197992 0.16374224 0.1545351 -0.34353265 -0.50393325 0.49464378 0.49845463 0.19936754 0.8987496 0.45729586 0.073150754
入 -0.5203241 -0.14521691 0.123180166 -0.31549764 -0.11569462 -0.41336203 0.2124833 -0.19404191 -0.7643617 0.06905118 -0.1884416 -0.39985383 -0.67260015 0.3893855 -0.9938849 0.42941123 -0.058396403 -0.2932616 -0.45906904 -0.68521976 -0.295843 -0.23706451 0.16151187 -0.42397687 0.16007504 -0.3978284 -0.076923355 -0.29010856 0.65172386 -0.5251931 -0.024160132 -1.023663 -0.76557297 0.18590662 0.10659821 0.029390128 -0.3295223 0.18220349 1.2038952 -0.3849162 -0.34234053 -0.95084196 0.13107747 0.28266773 0.1815136 0.51082844 -0.0052396217 0.16246243 0.93784285 -0.39900452
志 -0.82816416 -0.47512227 -0.7119583 -0.4813658 -0.117586344 0.5351681 0.4863356 -0.4202285 -0.61405414 0.22148108 0.2792748 0.10408634 0.8589834 0.32761052 -0.39148107 0.28861597 0.09418781 0.086583436 0.23126741 -0.07026245 -0.067371294 -0.8488514 0.23494081 0.019394036 0.2709066 -0.6830723 0.036126874 0.18048081 -0.21505205 0.18657368 0.69065934 0.22168818 -0.722978 0.27878967 -0.16076998 0.26379773 -0.59953654 0.3264645 0.11938667 -0.79556566 0.06577425 -0.4970479 -1.0709441 -0.52585644 -0.02803434 -0.09852891 -0.22726533 0.7111566 -0.6745217 0.038284793
耻 -0.69123065 0.35289788 0.74958444 0.17011316 -0.6074584 0.4214237 0.23422553 0.11469357 0.027398735 -0.26103655 0.42405778 0.07250983 0.024059046 0.8828878 -0.1363289 0.21367899 -0.44967088 -1.0963105 -0.22304417 -0.077276394 0.42192474 -0.193845 0.57504624 0.32722914 0.8469938 -0.26779774 0.8807855 -0.011228847 -0.12414916 0.016131775 0.038324438 0.01727361 -1.3748156 -0.41685334 -0.28855902 0.18376957 1.0716242 0.09241019 0.19804531 -0.035322513 0.3241438 -1.1426295 -0.6078452 -0.92724216 0.4167725 0.61312944 0.04180671 0.39873278 0.32221323 -0.41877684
失 0.2598685 0.1405908 -0.111344986 -0.1948363 -0.025093406 0.0035541113 0.24889642 -0.0029149354 0.11376278 -0.47853327 -0.04509303 0.10860446 -0.3887937 0.16973084 0.094866395 -0.53200203 0.8719543 -0.12673648 0.62447566 -0.45647252 0.3872286 -0.16886628 0.82405436 0.30246618 -0.18507713 0.3103919 -0.1764671 -0.17769842 -0.42840645 -0.4443064 0.40690583 0.49518406 -1.2899181 -0.2929224 0.20373084 -0.0671835 0.51017267 -0.31871378 -0.13731977 0.23078549 0.25625294 -0.7064712 0.42859322 0.084322795 -0.7678263 -0.059309814 0.36283308 0.26203042 -0.04293809 -0.88301945
安 0.66121954 -0.27828595 -0.085762 -0.27345812 -0.39588937 0.61511296 0.11682994 0.549498 -0.1771172 0.36634988 0.21857753 0.103614524 -0.5859165 0.46318036 -0.38140696 0.258346 0.08231765 0.19284631 0.1764174 -0.46433887 -0.26343277 -0.56248856 0.008592824 0.44011182 0.0374995 0.14809504 0.06188287 0.2855732 0.2679687 -0.18992066 0.6839501 -0.94526106 -0.63061583 0.18327585 -0.69301575 -0.36558327 0.11755263 -0.07664768 -0.5167085 0.12813936 -0.43161723 -0.84634924 -0.12336104 0.01712352 -0.09693002 -0.23715772 -0.03304298 0.19959001 -0.1855461 0.04506718
富 0.73154694 0.15694055 0.6015142 -0.049886506 0.035196323 -0.17381787 0.21340133 -0.037320975 -0.62544084 -0.45201054 0.02821409 -0.14445944 -0.51854956 -0.042821653 0.13819985 0.2584558 -0.022927694 -0.18605718 0.12249949 0.3446575 -0.032303587 -0.47708192 0.51867855 0.01764002 0.5703934 0.05671941 0.18679957 -0.15194386 -0.16699147 -0.0805556 0.23104426 0.05108072 -0.55981 -0.34069192 -0.13292782 -0.40446806 -0.045501992 0.41377288 0.27948108 -0.13055322 0.07765481 -0.40959835 -0.22751871 0.035606418 -0.083218604 0.37776917 -0.37661633 -0.11928614 -0.19918275 -0.11110523
赐 1.0751357 0.16040777 0.2495565 0.619161 0.44537136 -0.75997406 0.26429582 0.08247111 -1.2845715 0.12444824 0.2768348 0.20307635 0.51381856 0.2351225 -0.015629303 0.40252334 -0.47338358 -0.078692764 0.054341596 -0.05733155 0.8529046 -0.5718458 -0.48186076 -0.29161498 0.0037693186 -0.14136444 -0.40189627 0.22219384 0.29643 -0.05560386 0.3001558 0.12365983 -0.53935885 0.18915968 -0.56071854 -1.2311118 -0.5627368 -0.64648056 -0.64995897 0.4731039 0.08172214 -0.4514883 0.8559154 -0.2500142 -0.8717849 0.22011793 0.14408077 0.4832286 -0.26398656 1.0571313
患 -0.12670052 -0.12742546 0.2977577 -0.021669412 0.24018864 -0.4659137 0.29069817 -0.06548206 -0.14934431 -0.149705 -0.036343273 0.4830606 0.118453644 1.1429367 0.43964955 -0.316183 0.17565651 0.0022593662 -0.5184319 -0.5994224 0.4784851 -0.7346404 -0.33867392 -0.17238726 -0.063543744 -0.34445113 0.18163067 0.014628129 -0.47437817 0.22667898 0.96809125 0.711007 -0.9630373 -0.34694064 0.042861633 -0.2809313 0.3098864 0.6869452 -0.31933546 -0.12798387 -0.06529935 -0.27512252 -1.332465 0.46364185 -0.7189179 0.37467304 0.26260453 -0.416814 -0.45531705 0.033509377
百 -0.48035598 0.011634129 0.1763601 0.18475887 -0.6623387 -0.5317724 0.090031475 -0.40141565 -1.0055249 -0.090591885 -0.11859137 0.00030457514 0.010412251 0.0764071 -0.33041185 -0.1163479 0.35430098 -0.03247736 0.205951 -0.24258302 -0.0832762 -0.6621034 -0.30897573 -0.28178456 -0.76581347 -0.15375829 -0.7109004 0.18342206 -0.007234616 0.47984466 0.16136433 -0.032347187 -0.6326187 -0.5032733 0.35286325 -0.20256104 -0.32532233 0.05569699 0.15394863 -0.17296873 0.37788907 0.057648957 0.15812361 0.00027357135 0.9664414 -0.5721362 -0.13544378 0.48569617 -0.017502923 0.3135748
回 0.04832321 -0.3199258 0.0034367144 0.16817985 0.04208632 -0.26006284 -0.02070166 -0.11154559 -0.4174758 -0.48745066 0.60035664 -0.32730666 -0.7007626 0.717523 -0.0817197 0.13519809 0.93020433 -0.35937023 -0.45263016 0.0473537 0.27374983 -0.53406984 -0.34277424 0.15974456 0.2769349 -0.601748 0.10713585 0.5664748 0.2515135 -0.04476063 0.38908732 0.51002705 -0.66447693 -0.2643017 -0.37773976 -0.48358953 -0.5237205 -0.54710877 -0.10232698 -0.7576533 0.578718 -0.18843535 0.9150523 -0.3910646 -0.0056898147 0.066395454 -0.14987043 0.075424895 0.3536941 -0.22354113
宰 0.6052664 0.7224907 0.08348958 0.3608697 -0.11506018 -0.52955127 -0.22247435 0.15371409 -1.0985067 -0.0118139 0.081855394 0.23374991 -0.0038020392 0.1074183 -0.51777774 -0.062437855 0.2924333 -0.2740372 -0.10500717 0.0320842 0.06837411 -0.13633096 0.20880777 -0.10320615 -0.109868914 0.46749204 0.19635649 0.1003939 -0.21392858 -0.3501576 0.29879496 0.010454126 -0.779769 -0.39523116 0.24970964 0.36714032 -0.35790583 -0.20862071 0.32398185 -0.45064571 -0.28289622 -0.20422472 0.01452687 -0.051704008 0.45466465 -0.084614284 -0.024897052 -0.3983994 0.03812941 -0.20230962
朝 0.19122784 0.031577624 -0.18125947 -0.44134912 -0.066990174 -0.1249463 -0.5272276 0.24892746 -0.77933234 0.31523883 -0.38128713 0.06423912 0.34711313 0.2515924 0.71321017 0.3541007 -0.37579942 -0.47804525 -0.15464509 0.018935874 -0.03556952 -0.7124709 0.3179004 -0.029651282 -0.04545226 0.42006505 -0.19221781 -0.3469867 0.38786325 -0.19538437 0.058264885 0.23764165 -0.5500147 0.08053561 -0.40681934 -0.0020716777 0.35763538 0.15684636 0.12662318 0.104667634 -0.44607058 -0.4148129 -0.4683012 -0.38350886 0.025259696 0.2870118 0.9853129 0.23129597 0.20709565 0.11492026
莫 0.7611781 0.6146963 0.18466964 0.08541611 0.42340705 0.5153806 0.22309169 -0.2527282 0.020618152 0.44486535 -0.048870593 0.83452505 0.32530302 -0.050110523 -0.084485464 -0.16241328 0.07382605 -0.33651808 0.27558717 0.70639426 -0.2906367 -0.8155623 -0.43699762 -0.128936 0.17053714 -0.48640096 -0.41883102 -0.35584223 0.81325775 -0.48706785 0.83885854 0.0418915 -1.1993539 -0.6640033 -0.1364027 -0.002983714 0.07699439 -0.00065530837 0.20202628 0.0016105808 0.09025153 0.12103575 0.12502944 -0.06269463 0.43724293 -0.24523015 0.67031187 -0.36878145 -0.58388174 0.04030489
若 0.06318893 0.29596296 0.6096742 -0.8054718 -0.05061115 -0.1956648 0.46380535 0.0338252 -1.1484703 0.41966435 0.77050906 0.14002721 -0.06349558 0.20699656 0.1368186 0.039256174 -0.0696095 -0.13328458 -0.5257872 -0.101752535 0.62875396 -0.58442783 -0.188493 0.54868066 0.68801 0.0054090233 0.26411748 -0.07024018 -0.24135014 -0.32058823 0.6015115 -0.29962614 -0.73095137 -0.115431145 -0.87331146 -0.1921181 -0.29799825 -0.6026558 0.47623646 -0.31620052 -0.8222596 0.55583 -0.7710166 0.697749 -1.0575018 0.48289615 -0.4831807 -0.40408093 0.2849059 0.42771968
云 -0.6593596 -0.34671074 -0.06306977 0.08632733 -0.15317234 -0.680728 -0.37451306 0.100354694 -0.8383219 0.25910577 0.30406925 -0.4847728 0.865977 1.1203021 1.5063932 0.04979964 0.65071005 0.17653982 0.95520633 0.81052345 0.07407733 -0.30906308 -0.71835905 -0.12591255 0.092684336 0.13063668 -0.89295954 -0.3126625 0.005264825 -0.42670813 0.3508882 0.8653367 -0.9149717 -1.0851942 0.404648 -0.7959784 -0.055677276 -0.77827924 -0.5940356 0.14368597 -0.14634354 -0.012948525 0.007867284 -0.5460695 -0.13824406 1.229845 -0.011921695 0.1767316 -0.30031332 0.26470792
孙 -0.26531255 0.503593 0.4934051 0.14484161 -0.0010422841 0.31688052 0.54944646 0.32838613 -0.7965196 -0.1559119 -0.22781691 -0.6988633 -0.34525728 0.18899545 0.28595656 -0.1311774 -0.011269965 0.46368176 -0.07708963 -0.5472923 0.1133233 -0.009251691 0.24232928 0.39623275 0.43623644 -0.5250362 -0.19137788 0.24888782 0.078801215 0.21090847 -0.50726765 0.10966746 -0.86231494 0.25527823 -0.5957322 0.3073013 0.36328164 -0.2149474 0.40181175 -0.17093822 0.7547744 -0.80666524 -0.3256983 -0.29379374 -0.06521848 0.011926645 0.5853572 -0.30352578 0.78273064 -0.044724915
或 0.22208132 0.37667403 -0.7177083 -0.15474497 -0.60391146 -0.21261612 -0.5259661 0.35959876 -1.3924341 -0.5219131 0.04763116 0.48725438 -0.16468698 0.048625365 0.66908216 -0.08143813 -0.08840803 -0.32584053 0.5408606 0.32563668 0.46312785 0.043691058 0.38289776 -0.41068703 0.88509893 -0.1300308 0.08938975 -0.23123522 -0.10227962 -0.006917993 -0.005446355 -0.011471711 -0.52300346 -0.51178026 -0.44809127 0.5359881 -0.79917073 0.1251711 -0.18842888 0.34161654 0.18975498 0.13463338 -0.16999424 -0.17920329 -0.108796455 0.21063973 -0.13745044 0.23554084 -0.096347205 -0.20483603
