1352 100
， 0.12054188 -0.66113853 0.3291112 -0.0011130262 -0.029612282 0.28358215 0.027978726 0.09644893 -0.013407584 -0.11878018 -0.35865778 0.40096113 -0.17705058 -0.14364219 0.05837086 -0.13219596 -0.20819807 -0.064106606 -0.09765401 0.094649285 -0.0009463658 -0.22716989 0.0815142 0.08792936 -0.02822659 -0.09516358 0.037389245 0.015987793 -0.040697265 -0.16252416 0.19792703 -0.110941134 0.101446204 0.26725218 -0.123785265 0.19448918 -0.07365011 0.03779423 -0.10917348 0.18651585 -0.012886879 0.04169514 0.18491407 -0.05373707 -0.06206097 0.056714043 0.11345004 0.11437581 0.05741322 -0.17288336 0.10102468 0.08858934 -0.0067482563 -0.22462764 -0.11593781 -0.05994284 -0.080553904 -0.105699115 0.13207181 0.05710292 0.19963941 0.10496403 -0.20483263 -0.028768908 -0.18580846 -0.16162382 0.03167919 0.01640643 -0.03146248 -0.21075872 -0.054590832 0.10062987 -0.09598409 0.0393354 0.14997472 0.08838514 0.22568677 0.18219401 0.35466033 0.15005964 -0.15052605 -0.050990976 -0.08431395 0.024320127 -0.049077746 -0.00039879978 -0.048069376 -0.04893629 -0.00288344 0.0011332405 0.07020143 0.109663 0.08400327 -0.021896431 0.19609804 0.15123309 -0.087883875 -0.00065761805 -0.23803374 -0.15779477
子 -0.122282706 -0.60819674 0.050291058 -0.119137265 0.04815553 -0.076034695 0.001051647 -0.029431332 -0.24978563 0.22835039 -0.3254537 0.048777837 0.009208095 0.12257563 0.069624 -0.003638095 0.04568317 -0.14958353 0.0633689 -0.0006986684 -0.0047273673 0.09928879 -0.011968981 -0.06287348 0.05822302 0.076225035 -0.15574735 0.014098411 -0.19389783 0.031559467 -0.23326452 0.04586643 -0.004643493 0.055815436 0.22717552 0.028183099 0.04802475 0.106593795 -0.0020592303 -0.025049793 0.064211115 -0.19765443 -0.04249587 -0.13882846 0.1693504 0.1144606 0.19555768 -0.18134823 0.03871345 -0.24749283 0.17658134 0.1552856 -0.09343068 0.06950239 0.09678053 -0.01823748 -0.007079562 -0.08816948 0.040989466 -0.20511277 0.053851422 0.15728861 -0.16921964 0.09469756 0.045940045 -0.023406686 -0.0017639624 -0.031846847 -0.108970925 -0.07076195 0.028925896 -0.26998886 0.20367874 -0.051005095 -0.041257657 -0.11096142 0.12596445 -0.14753374 -0.118141055 -0.015717667 0.081329726 0.077348895 -0.38317248 -0.119732 0.039062724 0.011450121 -0.06419909 0.08674516 -0.10849447 -0.033124253 0.058406737 -0.091165826 -0.33970174 0.04113839 0.17124394 0.15318641 0.1355715 -0.20028871 0.12791297 0.045473173
。 0.06200206 -0.6343477 0.0980173 -0.0322794 0.015693393 -0.049197517 0.02533853 -0.11325268 0.033961993 -0.0002955397 -0.2898637 0.0037579937 0.088918746 -0.04120589 -0.08681633 -0.1744372 0.14428312 -0.19174717 -0.13008662 -0.09993993 0.32053322 0.17617978 0.11570858 -0.08005235 -0.19433263 0.12146419 -0.124581434 0.17813405 -0.16197643 -0.09120995 -0.16060054 -0.024568308 0.1564558 0.2466926 -0.059637398 -0.20097008 0.19574413 -0.072706 -0.07915348 -0.09092428 -0.09857362 0.045049153 0.0947331 -0.014156396 0.047178663 0.06801137 0.16228212 -0.024044044 -0.15444538 0.09833882 0.17892651 0.108977675 -0.25200382 -0.04969835 0.12118766 -0.12472082 0.15352878 0.08796726 -0.23736492 -0.070253216 0.17761207 0.121533275 -0.29793736 0.03291106 -0.22108749 -0.14471887 0.17722864 0.036251437 -0.045820776 0.043021277 -0.047945183 -0.15215722 0.07768164 -0.017383067 0.1908264 -0.03455396 0.070557006 -0.056847006 0.02160003 -0.15468629 -0.0034852037 0.04027464 0.02795437 -0.26850432 -0.034092426 -0.25088426 -0.274817 0.11309487 -0.053837653 -0.07102632 0.13567743 -0.13775152 0.109669216 -0.036823392 0.2855064 0.029565204 0.035898477 0.074887715 0.007713922 -0.0071905106
： -0.001272135 -0.5993978 0.04779575 0.113364294 -0.066258244 -0.097803384 -0.0142486505 -0.043076016 -0.1878903 0.33412486 -0.045107927 0.14430992 0.083526395 -0.0161661 0.102661744 0.011275978 0.014165603 -0.030405857 0.0035106298 0.06501932 -0.03546264 -0.09034824 0.033285484 -0.10985539 0.0058660163 0.13572885 -0.17573935 0.108047485 -0.035879407 -0.04490674 -0.14381593 -0.10244793 -0.024331313 0.4353917 0.16766897 0.06379068 0.09189012 -0.12360477 0.0072126845 -0.11866274 0.06992264 -0.08216914 0.054607153 -0.02533693 0.0979868 -0.0029789628 0.053528175 -0.18265112 -0.03940845 -0.11137099 0.080530375 0.14715055 -0.056050688 0.19993393 0.17142555 -0.20980026 -0.12521502 -0.055005815 -0.14378347 -0.30172163 -0.0405024 0.23205632 -0.3088131 -0.011754412 0.2928303 -0.05621899 -0.21587144 0.0262005 -0.15955722 -0.10423989 -0.05860061 -0.14934383 0.1330565 0.07880745 0.20665912 -0.03517767 0.087349705 -0.02819497 -0.12724118 0.0857081 0.06716821 0.045935225 -0.090908974 -0.4160352 -0.09941688 -0.2535193 -0.13180137 0.15450107 0.15081194 -0.08877369 -0.008905987 0.08335254 -0.020326363 -0.18225372 -0.018172927 -0.018191023 0.18705814 -0.0055318056 0.051129688 0.12815683
曰 -0.14782763 -0.64631 0.23195258 0.010233284 0.0031931556 -0.07325243 -0.06557799 -0.0037200174 -0.13972001 0.2756626 -0.17939794 0.054153405 0.043497905 -0.07211774 0.02812196 -0.00030903937 0.17796753 -0.070182696 0.074969105 0.06786951 -0.02454534 -0.10954847 -0.03047793 -0.019635005 0.053831883 0.20885059 -0.13316566 0.019949168 -0.09065837 -0.019589443 -0.325558 -0.14852962 0.14842314 0.1934278 0.0071215127 0.012991073 0.1466963 -0.14795393 0.14587808 -0.13950191 0.23843345 -0.0832423 0.21449238 -0.0017023894 0.22523387 0.13146643 0.111461915 -0.0384727 0.00272627 2.1658489e-06 0.008406846 0.16447279 0.054472163 0.29167315 0.13868247 -0.36656064 -0.038024288 -0.11730051 -0.047983903 -0.30188307 -0.012067322 0.13262467 -0.24171126 -0.044243596 0.15878448 -0.07347015 -0.11966506 -0.028619442 -0.13741292 0.029253084 -0.0068914094 -0.061988696 0.108448595 0.055972993 0.278361 -0.02607739 0.076331474 -0.084623896 -0.27154633 -0.03917208 -0.1200066 -0.022504985 -0.046389468 -0.320418 0.062120583 0.052457906 -0.117430404 -0.07222871 -0.045342207 -0.024722774 0.13329971 -0.107632935 -0.25510225 -0.13689138 0.079317495 0.031898856 0.089719884 -0.05680375 -0.057511173 0.113059506
之 0.02694213 -0.58363175 -0.04020956 -0.18463692 -0.020558095 0.27069038 0.15485872 -0.025769763 0.15301052 0.20206177 0.18168801 0.14360575 -0.069944985 -0.16610532 -0.1277888 0.27149186 0.16855527 -0.25380903 -0.1693778 0.1177983 0.40577272 -0.20432247 0.039025877 -0.071885325 0.25571677 0.1304817 0.12114459 -0.23260035 -0.061621312 -0.09119488 -0.18227386 -0.0851869 -0.010485605 0.11530791 0.07105631 0.31459272 -0.03531613 -0.085869744 -0.23612112 -0.028345723 0.11522573 -0.05012775 -0.04552686 -0.15434287 0.060917962 0.17089929 0.118226066 -0.26956892 -0.07339275 0.027227497 0.19853505 -0.07602401 0.09477086 0.14658163 0.22375463 -0.16827121 0.21362686 -0.06998254 -0.06514979 0.008966929 0.06311381 0.15493135 -0.07063469 -0.0025210897 -0.23467311 -0.1763166 0.16250035 -0.022014327 0.03237346 -0.22099419 0.07737488 -0.0057544904 -0.10877141 0.06532736 0.08773815 0.18192606 -0.013994752 0.113762006 0.17378657 -0.1612409 -0.042107932 0.040393654 -0.07228084 0.152125 -0.04480253 0.2396238 -0.10676722 0.06803628 -0.11048093 0.015910743 -0.3401563 -0.17857197 -0.22129847 0.046780795 -0.09141784 0.33063364 0.07035412 -0.056574438 -0.1702367 -0.014509012
不 0.052993074 -0.6120242 0.097003326 0.020824118 -0.10499367 0.033264723 0.13390122 -0.11021524 -0.13912857 -0.10005509 -0.09158586 0.27440977 0.030026037 0.20568359 0.23266628 0.011670496 -0.017887993 -0.14964311 -0.060519077 0.048552096 -0.034577515 -0.03682749 -0.009633703 -0.10977884 -0.015860457 0.16470422 -0.10952781 0.12274946 -0.033667516 0.09417401 0.13694191 -0.048808876 0.0119521 0.09316877 0.09977827 -0.012043439 -0.1347696 0.105521806 -0.17864391 0.1033677 0.12860699 -0.032340202 0.24734256 0.116429396 0.2218817 0.11995352 -0.026168631 -0.025807774 0.10779004 -0.24942888 -0.00050329976 0.20219715 -0.17585334 0.0373889 -0.026766744 -0.07702513 0.007334908 0.016632047 -0.16362394 0.017672481 -0.11239514 0.21859637 -0.164716 0.0034871334 0.079120204 0.059366066 -0.05565579 0.027102854 0.13999796 -0.09243561 0.06553461 0.093458265 -0.07052391 0.07731494 -0.08306933 -0.045026507 0.061447214 -0.15640835 0.2220087 -0.1719525 -0.05197317 -0.017756036 0.124237426 -0.25443047 0.0034611858 0.187096 -0.26829633 0.058481935 -0.057173077 -0.2141557 0.09764893 -0.159544 -0.13325557 -0.08715915 0.05437112 0.09547485 0.26161805 -0.24311621 -0.1056872 0.063612856
也 -0.031026524 -0.6068015 -0.012433002 0.100545235 -0.11233878 0.09301186 0.027199449 -0.22499506 0.11519884 -0.07439939 -0.09663755 0.20822258 -0.110103734 -0.07038153 -0.12926674 -0.108760886 -0.08365284 -0.18713225 -0.2877862 -0.058901146 -0.10194078 -0.19147603 0.08285665 0.24732052 0.2631941 0.005815423 0.16080162 0.08505916 0.030401576 -0.09910414 0.08603166 -0.14458717 -0.0037046322 0.016775366 0.039021596 0.022423204 0.09362183 0.08832387 -0.13051501 -0.0608453 -0.03430129 0.0013366006 0.009321938 -0.060130402 0.13768943 0.09667142 0.10969806 -0.16615802 0.14902559 -0.031901117 -0.16381428 -0.07326488 0.1737632 0.23308672 0.0021136024 -0.06998106 -0.13071534 0.053527027 -0.24686804 -0.35147303 -0.1379256 0.07862347 -0.5648117 -0.023581605 -0.11493136 0.030106872 -0.0039176936 0.053846814 0.02736036 0.0065097846 -0.045736354 -0.049637437 -0.042397507 0.21062984 0.28989944 0.23362711 -0.17023668 0.048209034 0.16669002 0.0025507174 0.070909984 -0.03879267 -0.046119414 -0.1369591 0.23791082 0.037338942 -0.11699349 -0.037895393 0.30928686 0.18997453 0.0861476 0.04535203 -0.04425233 -0.10686967 0.0781442 0.22858591 0.05158662 -0.14382173 0.17914917 -0.054307655
而 -0.09085908 -0.6371161 0.2023024 0.059982292 0.0348811 0.03297729 -0.15691693 0.045778923 -0.10247349 0.063240066 -0.31921834 0.2539723 -0.039986752 -0.07807912 0.05191965 0.010019065 0.187562 -0.19540107 -0.102049924 0.0022847056 0.017540393 -0.0729059 0.006202543 -0.091571085 -0.018429656 0.30207875 0.12217022 -0.0039712368 -0.033101305 0.07004 0.12758704 -0.17781767 0.07318728 0.28998452 0.10980901 0.32408258 -0.032562144 -0.028896358 -0.10850824 -0.2280497 0.055732813 -0.16217735 0.14338589 0.16055079 -0.01398424 -0.028305355 0.03856924 0.052860554 0.06482666 -0.11071528 0.11407006 -0.02822985 0.09097352 -0.11261449 0.09308377 -0.1465186 -0.09291111 -0.10494184 -0.07262865 0.031764854 -0.033354327 0.08764264 -0.1313915 0.01760068 0.07542633 -0.14299554 -0.04549402 -0.11140767 -0.019325497 0.12157245 -0.01643806 -0.19455867 -0.010063772 0.1895683 0.0139221735 0.0011842903 0.19316342 0.043744575 0.17609067 -0.16954178 -0.040384088 -0.09417429 0.025668267 0.041719265 -0.21790498 0.01873812 0.12968506 -0.046085402 -0.15899801 -0.1670837 -0.16920862 -0.15915647 0.12995356 -0.08629925 0.18472646 0.11440099 0.0648532 -0.09548531 -0.2025102 -0.1493303
？ -0.22527999 -0.58133656 0.3027277 -0.041520193 0.10889509 -0.0033628424 -0.053814575 -0.0077079553 0.08286884 0.16678788 -0.23455226 0.17657 -0.09675863 -0.066789545 -0.12100758 -0.043888763 0.0066356473 -0.26301873 -0.17080788 -0.016591195 -0.16377164 0.059009504 0.07437859 -0.006217985 0.010551461 0.13460588 0.06474993 0.08600907 -0.0771132 0.30515194 -0.045840934 -0.050937966 0.08013823 0.167322 -0.19550054 -0.081722565 -0.025720047 -0.0005931747 0.038948346 -0.09032569 -0.011674363 -0.06444253 0.075370625 -0.23485225 0.020801183 -0.121727936 0.0060892287 -0.0027748393 0.0060926382 -0.07868771 -0.09407446 0.1610908 0.07752561 0.09826578 0.016400216 -0.39614484 -0.13065739 -0.053402115 -0.030530076 -0.057559162 -0.21406415 0.06616609 -0.15108804 -0.10079402 0.117155984 -0.16645932 -0.18931179 0.002876557 -0.115513615 0.025775596 0.09209757 -0.23137262 0.109571785 0.2002582 0.021202706 0.07632274 0.06262654 -0.12866895 0.112579316 -0.0026954818 -0.122062944 -0.06694952 -0.009672046 -0.16076735 -0.017769542 -0.3089295 0.10787243 0.046482533 -0.0084405 0.034401253 -0.009945499 -0.05495126 -0.07001978 -0.03867353 -0.03036024 0.32524428 0.16222869 -0.0033599697 -0.0099094305 -0.0736427
其 -0.17788446 -0.48550758 0.26745576 0.14091137 0.17695792 0.07558889 -0.029964257 -0.15547717 0.041223355 -0.049388163 -0.09979923 0.19805892 -0.0047352393 0.04498428 -0.16657674 -0.21154132 0.02275413 0.1703393 -0.063093066 -0.043931596 -0.107155606 -0.007989561 -0.16665211 -0.046747416 0.03870165 -0.011420315 0.056023777 -0.0022869045 0.00056244805 -0.23851997 0.025490599 -0.10923736 0.19668356 0.22309102 -0.005093651 0.08232722 0.17970294 0.11106838 0.002956612 -0.24753992 0.13324001 -0.19238892 -0.07475418 -0.22016317 -0.062178854 0.074793756 -0.04286556 -0.22594573 -0.09173619 -0.071011946 -0.03418847 -0.21732454 0.11749565 0.009609058 0.17018333 0.08763681 0.09512872 -0.026494678 -0.033527225 -0.15304963 -0.12575077 -0.10664808 -0.07354878 -0.071344204 -0.29744545 -0.037290536 -0.067304045 0.011659257 0.027807962 0.17926973 0.18161167 -0.038630757 0.068368904 0.08229204 0.32473472 0.07287757 0.002675441 -0.2675451 0.06113589 -0.018129122 0.161769 0.11133108 -0.10303367 -0.3725003 -0.10298589 -0.16246164 -0.24789254 -0.0004360783 0.23283415 -0.08166166 0.067915484 0.0049071307 -0.25388023 -0.017804483 0.0069266697 0.07722153 0.23846048 0.0502419 0.058776844 -0.103013195
人 0.22537029 -0.5826583 0.21077897 0.24045129 -0.06762801 0.24864629 -0.15159386 0.25672913 0.052566033 -0.34420994 0.20420343 0.2147378 -0.004649463 -0.13043128 -0.16461638 -0.1230108 0.15022814 0.19203454 0.09750422 -0.02488048 -0.022165418 -0.16705993 0.22455575 0.14052606 0.3252173 -0.026024152 0.15461877 0.00987634 0.05632602 0.21903092 0.12459411 0.1207648 0.0028136002 0.0019669507 -0.07803939 -0.17026901 0.0031677382 -0.104432166 -0.21493793 -0.37014794 0.107093446 -0.016271261 0.012627726 -0.029433904 -0.26361784 -0.0070157666 -0.0113500925 0.1807294 -0.23209417 0.14213924 -0.046387237 -0.032561753 -0.094081864 0.07531155 -0.09936881 0.0029397258 0.23778623 0.10693582 -0.01551788 -0.29290304 -0.24643335 0.2459601 -0.06624846 -0.061311983 -0.2720395 -0.0218511 0.17554994 -0.25286764 -0.07176601 0.23943624 -0.1722675 -0.10113469 -0.16814418 0.080116756 0.17378621 0.197203 0.08095822 0.0057892273 -0.0010420713 0.03376414 0.09547532 0.034002244 -0.30348083 -0.04058242 -0.30360723 -0.089193694 -0.063027576 -0.24802561 0.033449765 0.0895834 0.0037305402 -0.10802427 0.047281303 0.04856353 0.10488912 -0.030452274 0.21262522 -0.16843888 0.04022652 -0.20675674
者 0.03573565 -0.6207093 0.14711285 0.048044637 0.06695686 0.044292163 0.041149486 0.25619012 -0.0008610836 0.23917323 0.32194343 0.17175671 -0.20173715 0.07228499 -0.0345962 0.04542897 0.14303139 0.073496796 0.22030234 0.22937965 -0.15119882 -0.12502633 -0.10038809 -0.06861237 0.16994907 -0.035178795 0.09217743 -0.14545606 -0.060708143 0.11131729 0.09633185 -0.06608101 0.07338221 -0.07892615 0.06923538 0.26551288 -0.15024492 0.014394682 0.18426786 -0.14367357 0.048894607 0.027931532 -0.16449384 0.0903051 -0.08966563 0.016357232 0.05754656 0.17614105 -0.13336425 0.042860784 -0.13991478 -0.06996557 0.054440908 -0.12340049 -0.025231456 -0.05293684 0.16682127 -0.03967533 0.14951737 0.1289241 -0.053238533 -0.119594336 0.10441871 -0.2039201 -0.021215398 0.04733572 0.33762234 0.050123718 -0.14056797 0.02112102 0.21496318 -0.04666096 -0.13043544 0.13572253 0.0053329533 0.2357621 0.060144994 0.25019854 -0.2884601 -0.17838833 -0.15063944 0.15798174 0.09890832 0.020297218 -0.34551194 -0.0977244 -0.027170908 -0.025062779 0.011407835 0.16970941 -0.073936224 0.37961343 -0.028341979 -0.06659082 0.05003016 -0.14513922 0.09736233 0.08018194 0.03904259 -0.1073645
以 0.12840904 -0.515106 -0.019363977 0.30040467 -0.33883318 -0.017629309 -0.053271238 -0.26769054 0.16026029 -0.12153625 0.06667221 0.1330708 0.15115081 0.14215069 -0.047881477 -0.06484833 -0.13258989 0.07436456 -0.18439277 0.1950477 -0.14946857 0.112905815 0.16503136 0.058717895 0.2579279 -0.13740061 -0.15538535 0.14138454 0.11203557 -0.08396531 0.13965912 0.2283913 0.3666567 0.093021214 -0.13636203 0.017549405 -0.10873434 0.11060121 -0.025831768 0.10487733 0.028944505 -0.012911571 -0.041783776 -0.18176988 0.08639647 0.04212019 0.19022608 -0.27836677 0.1254422 0.07079334 0.026836103 0.18162684 0.017267628 0.17941345 -0.120413564 -0.10738252 0.026725026 -0.047284443 0.13647407 -0.07073368 -0.14957146 0.21701983 0.1059002 -0.06821372 -0.115881324 0.07434516 -0.18944325 0.13127336 -0.11313939 -0.056268208 -0.19891404 0.112681255 -0.14576222 0.011693145 0.20003095 0.046329465 -0.062327117 -0.3046151 -0.025537116 0.050952286 0.07677803 0.0013769385 -0.042527128 -0.3111554 0.12736286 0.08870483 -0.082242064 -0.026651608 0.04515745 -0.070312455 0.08965314 0.05880604 -0.14787507 -0.059289504 -0.04368176 -0.11726887 0.0977744 0.22719957 -0.005005187 -0.10629107
有 0.17293212 -0.5752807 -0.11207576 0.2422879 -0.09884161 -0.02229091 0.08121481 0.30637798 0.16326514 0.065831564 0.4412058 0.13196135 -0.12456378 -0.03570516 -0.033796847 0.17285962 0.024458159 -0.031046765 -0.017240157 -0.020084532 0.123914585 -0.1048898 0.20058312 -0.20299488 0.23011751 0.1763683 0.11302929 0.12187786 -0.12714872 0.13949767 0.1465518 0.13216753 -0.0031085985 0.21996963 0.06377363 0.068612725 -0.10587567 0.03298642 -0.009860931 -0.35044953 0.032675054 -0.09463811 -0.28207818 -0.21538527 0.09538809 -0.3230579 -0.13322186 0.16043061 -0.14060001 0.3464437 -0.012758559 -0.025269577 -0.08255876 0.22912899 0.24067014 -0.23032956 -0.06611073 -0.22730276 -0.15153614 0.03722448 -0.13508335 0.3701674 0.13822995 0.015635524 -0.086020425 -0.17791605 -0.04606268 -0.2741814 -0.06699476 -0.20848407 0.10253391 -0.17489961 0.11365115 0.183803 -0.07266735 0.0008637598 0.2152753 0.011651097 -0.25378263 0.031548012 0.067212805 -0.03615345 -0.18978071 -0.27568713 0.05022758 -0.418514 -0.110482916 0.22071277 -0.07432966 -0.09681408 0.025832253 -0.074286066 -0.03146914 -0.24658622 0.07254538 -0.27411583 -0.09914091 0.27771774 0.008405518 -0.25665575
于 0.06709645 -0.541096 -0.10119606 -0.07827034 -0.0017309741 -0.1784866 -0.19989878 0.28002152 -0.10869786 0.0911416 0.023989584 -0.23776865 0.04378372 -0.14387695 0.00499605 0.01565772 -0.072278515 0.15478398 -0.01739169 -0.17275594 -0.21631834 -0.12195154 0.10622829 -0.2130619 0.081752166 0.07652214 0.10691568 0.2500957 -0.49183464 -0.05532703 0.36882553 -0.010411935 0.061485294 0.07534595 -0.17902838 -0.24374579 0.00852076 -0.15724085 0.05627507 -0.063864514 0.1806982 0.07388938 0.14053193 -0.032371063 0.15026195 -0.1157933 -0.08585333 -0.27602533 -0.23970078 -0.13543731 0.022318028 -0.026377555 -0.15323362 0.25785148 -0.043401487 -0.23967658 -0.21143082 0.015548728 0.15876688 0.030187128 0.11794795 0.010351037 -0.18618438 -0.033145636 -0.17839207 0.04440891 -0.059984002 -0.20729296 0.012639582 -0.011010748 0.1020834 -0.19821513 -0.025274023 -0.15148376 0.41107196 -0.123816565 -0.019769987 0.04166398 -0.025011156 0.015036323 -0.032581914 -0.01630906 -0.1244227 0.0031129688 -0.25287345 -0.24499793 0.14364249 -0.012234555 0.0331893 -0.096295394 0.064540856 -0.015023467 -0.062446717 -0.03690354 -0.079446755 -0.09508096 0.029339083 -0.14446265 0.13026018 0.11025811
矣 0.035640117 -0.5647268 0.096496865 -0.073385924 0.15458524 -0.16325408 -0.13519067 -0.057825986 -0.017547065 -0.1443557 -0.043268245 -0.17890903 -0.07574499 0.11346564 -0.15155704 -0.10504295 0.0872377 0.0058274297 -0.19643988 0.16028607 0.23783803 -0.108173184 0.050325345 0.12372799 0.06330593 -0.23534837 0.1080203 0.090551846 -0.2538053 -0.0039306474 0.18425491 -0.09936339 0.09744971 0.0011931593 0.18826655 -0.0370469 -0.17460382 0.04481004 -0.13948818 -0.09044885 0.09806109 0.109164834 0.088984944 -0.147655 -0.12808959 0.036908336 0.027112564 -0.08507166 -0.039013017 -0.02204101 0.0038095028 0.018498931 0.015613869 -0.13852651 0.07703847 -0.003064536 -0.04258124 0.14483844 0.042949487 0.13195883 0.07582182 0.10555054 0.21512902 -0.09124246 0.14896384 0.079994775 0.2055167 0.2701429 0.07471378 0.2409044 0.110528 -0.1199039 0.054317612 -0.016788507 -0.15782596 0.012350334 0.11567378 0.12092233 0.025271667 0.009869622 0.12399327 0.12400309 -0.055290174 0.10361342 -0.054601256 -0.1499302 0.084175356 0.0123686595 0.14445557 0.008188039 0.21244688 0.10950167 -0.16476828 0.15174429 -0.21512653 -0.21285494 -0.009629322 0.074742675 0.11265322 -0.19476756
为 -0.17523001 -0.5831073 -0.052813057 0.077275164 0.04821501 -0.16566764 0.01274739 0.101688534 -0.15562709 -0.13668878 -0.030332055 -0.0009136144 0.045828216 0.02767523 -0.20193143 -0.0830452 -0.21098104 0.15412013 0.045591086 0.06206031 0.099716984 0.10856944 -0.0145026725 0.046331067 -0.11854343 -0.20499124 0.07271937 0.2624165 -0.017147578 -0.054860972 0.050677344 -0.11438175 -0.008642439 -0.096683025 -0.23094012 -0.0066708717 -0.10216244 0.18405585 -0.03622407 0.016187547 -0.10226827 0.16926363 0.044978864 0.10033538 0.09107974 -0.083775446 0.02185373 -0.044119675 0.23941958 -0.13016313 0.079200976 0.1620153 -0.19972278 -0.09424904 0.1230215 0.012151602 -0.21616772 -0.17000405 0.1011857 -0.010744101 -0.021661092 0.09312282 -0.014836256 0.04932764 0.15841238 0.096534684 -0.019885201 -0.14694375 -0.2840487 -0.14065132 -0.024045596 -0.016506087 0.12709384 -0.11849013 -0.08064568 -0.024551706 0.0064106663 -0.16136003 0.00817384 0.20687911 0.011373673 -0.013224771 -0.110992976 -0.08709346 0.13217193 -0.13888529 -0.013221811 -0.1763602 -0.22137478 -0.02989823 0.15359484 0.039240044 0.020051215 -0.19350831 0.052956726 -0.025401577 -0.058112934 -0.19265862 -0.14452018 -0.05746915
君 -0.07320719 -0.52082056 0.22554913 -0.027030934 0.028527899 -0.23474653 0.060449913 -0.032368805 -0.022941407 0.06483706 -0.21095414 0.12574102 -0.027695619 0.15428437 -0.16242145 0.031313036 0.11489626 0.048033703 0.020080185 0.03366106 0.14518572 0.16885662 -0.008680204 0.015974857 -0.16324522 0.024413768 -0.05317884 0.0042566927 -0.21694045 0.015195118 0.07012296 0.013604356 0.08029331 0.039421402 -0.30045193 0.092916034 -0.08305056 -0.0045357137 -0.124028385 -0.18867669 0.13086288 0.0574768 0.0016687873 0.16597086 -0.04882973 0.24222828 0.10243661 0.11941419 0.06146608 -0.069611855 0.0794513 0.23018922 0.07293558 0.0036142431 -0.0382295 -0.41458815 -0.0636748 0.058892526 0.05517679 -0.066936016 0.052422583 0.091872394 0.012693936 -0.140807 0.14929408 0.0567248 -0.065994106 -0.03116856 -0.17040864 0.077347666 -0.04175575 -0.20210482 -0.018468373 0.11167788 -0.070130154 -0.2613942 0.1582344 -0.059979476 0.09863039 0.13215995 -0.10415495 -0.053942487 0.034756977 -0.11351361 0.064977475 -0.040734272 -0.023726212 -0.0883735 0.026513413 -0.006290393 0.06149678 0.097934425 -0.10224558 -0.20744185 -0.22806472 -0.03910792 0.25501767 0.003556306 -0.05393978 0.09928764
乎 -0.029707316 -0.5745388 0.18603295 0.16957122 -0.0005204724 -0.06384294 -0.085537195 0.17648587 -0.10889736 0.047675624 -0.23535523 -0.029424334 -0.07306359 0.044867434 -0.030550217 0.13314253 0.050706394 0.061570562 0.11058604 -0.16217862 -0.18792617 0.120369144 -0.00074277306 -0.064717405 -0.17373535 0.17784294 -0.109730385 0.09682666 0.13441198 0.047430865 0.16502132 0.042290352 0.085666664 0.037959997 -0.005203547 0.1131828 -0.022983085 0.18464464 -0.017922306 -0.29773578 0.19076419 0.0491372 0.12092847 -0.028633673 0.023048969 0.06658727 0.043592148 -0.11254025 0.0077715702 -0.17561355 -0.020848118 0.15704119 -0.23303308 0.20555606 -0.09814359 -0.31178987 0.09437344 0.27680457 0.10384691 0.015839549 -0.08933313 0.12509933 0.12847379 -0.12197761 0.19426104 0.008732842 -0.12935004 -0.002044285 -0.07565258 0.12703942 -0.054886725 -0.12702057 -0.2072647 0.079332486 0.24156621 -0.051136583 0.17817509 0.010459859 0.07927794 -0.2945247 -0.092173964 -0.10228896 0.09526063 -0.10664719 -0.022441635 -0.14862081 0.099562295 0.04893817 0.061395105 -0.013216658 0.024836626 0.07800342 0.064501375 -0.13735108 -0.03938295 0.16413854 0.15098614 -0.09651795 -0.20245492 -0.20267221
可 0.120578215 -0.5448057 0.105324775 -0.023893131 -0.026706897 -0.052810345 -0.10712179 0.18634403 0.3165719 0.050963476 0.08729575 0.117667 -0.01937639 -0.027282557 0.10146873 0.05758894 0.21863863 -0.046156727 0.008031582 0.061796326 -0.053237233 -0.11841652 -0.014985387 -0.016208705 0.26642177 -0.2145271 0.06580891 -0.12646605 0.07716305 -0.275309 0.11817636 -0.23180985 0.10676239 0.046969842 0.14500174 0.12876904 0.03974571 -0.10156093 -0.21165001 -0.080097415 0.25422075 -0.06924973 0.1053316 0.1570746 -0.061766 0.01266736 0.06302051 -0.13437872 0.13489178 -0.038719542 0.08729067 0.037154265 0.00774807 -0.020684123 0.18040076 0.15332392 -0.13430244 -0.09367575 -0.08713415 -0.116082564 -0.2604374 0.04738864 0.10683833 -0.26885313 0.11662011 -0.015176844 0.19615127 0.0032352344 -0.020556161 0.249144 -0.078438565 0.04060122 -0.10449186 0.15626073 0.23159972 0.042769685 -0.073359534 0.22822522 -0.032493994 0.032735072 -0.016697919 -0.035815295 0.054949865 -0.07502247 -0.06180078 0.14833963 0.1255994 -0.14964426 0.07711337 0.18241848 -0.01957904 0.25153926 -0.050482925 -0.118253574 -0.1258387 0.04044778 0.19096792 0.15626849 0.10436206 -0.105032235
如 0.0598973 -0.60373724 0.1630749 -0.009759923 -0.009141853 0.068603694 -0.18537854 -0.1510577 0.2418074 -0.1754837 -0.08860208 -0.020921879 -0.034363735 -0.044828624 -0.0048862193 0.1082282 0.25016132 0.095974125 0.08704633 -0.11921869 -0.067560844 0.10586572 0.13169178 -0.19525404 -0.15720513 0.052504357 0.16781665 0.018830296 0.031542156 -0.011794157 0.10316918 -0.060447007 -0.082213596 0.03537831 0.20031276 -0.10828734 -0.07057992 0.09449306 -0.10103555 -0.06876275 0.22860989 -0.03012599 0.021246567 -0.1238752 -0.016467668 0.19564196 0.031681817 0.092899665 -0.010099234 0.0589815 -0.09656287 -0.2092521 -0.021192618 -0.35825583 -0.10230613 0.16152962 -0.014418661 0.061105933 -0.09055105 -0.17172621 0.11366674 0.036320023 0.046496004 -0.05923344 0.08412077 0.023747683 0.09068335 0.08831664 -0.027645063 0.18631357 0.09573974 0.11770186 0.0012626068 0.0056915022 -0.0009551593 0.12749772 0.13138804 -0.08543844 0.0047220364 0.029795725 0.40520915 -0.0031506913 -0.04160287 0.11769993 0.20666724 0.053166524 0.17455621 -0.09170284 0.10419834 -0.15181349 0.19258718 0.14411671 -0.04571888 0.096899 -0.0182803 0.066298924 -0.086216286 -0.07954755 -0.0049536284 -0.13130964
与 0.0022190218 -0.45032588 0.23322335 0.24333842 0.16786648 0.08060666 -0.11297935 0.112542905 -0.12907805 -0.17165153 -0.043252483 -0.035857283 -0.106427 -0.05978811 0.12349025 0.12232988 -0.04968439 -0.024372509 0.022838421 -0.061413124 0.00794951 -0.084321015 -0.04050991 -0.12610213 0.21754573 -0.14320719 0.19717859 0.24785349 0.029643603 -0.10238311 0.052157275 0.065147236 -0.06711071 0.06252203 0.09356228 0.013987534 0.082277514 -0.06135033 0.048116215 0.0064721573 0.10051833 0.12420443 -0.20109725 0.08368101 0.0348003 0.057851985 -0.120768204 -0.08153849 -0.056511477 -0.007954318 -0.074644394 -0.20965777 -0.22722682 -0.0114228465 -0.05722055 0.09118985 -0.06562014 -0.08258266 0.13740191 0.13364698 0.091153115 -0.00086862047 0.121692516 0.058329277 0.049778022 0.11859954 0.06604812 -0.22872649 0.017232208 0.14181343 -0.06748126 0.13628295 0.04181598 -0.09060367 -0.03753719 0.106283836 0.104686804 0.03525751 -0.12864162 -0.0486953 0.118037574 0.07606248 0.052216653 0.23713513 0.07639815 0.0059247375 0.07725627 -0.04879795 0.13472918 -0.068639584 0.12235515 0.20712036 0.04880824 -0.13948405 -0.07882013 0.10534635 0.039138332 -0.025627725 -0.16053112 -0.10537712
； 0.12596017 -0.54761726 -0.0068578143 0.012687378 -0.05657658 0.14676955 0.118060686 0.14733474 -0.008056775 -0.24443872 0.10645726 0.06353769 0.16860625 0.11774269 -0.32368547 0.27699327 0.256282 0.022203924 0.021728132 -0.10031966 0.2486756 0.122045256 0.12680784 0.04908149 0.090783894 -0.011855749 0.10911298 -0.03581329 -0.1242803 0.21046107 0.087280266 -0.10437234 -0.03233494 0.15440628 -0.24660668 0.005674937 0.07011958 -0.11997466 -0.07019532 -0.11723889 0.17756057 -0.20570579 -0.17112719 -0.029794391 0.12898996 -0.1347634 0.030717349 -0.35689333 -0.0080187395 0.04610296 0.0065925587 0.073227435 0.11520968 -0.10450338 -0.27196005 -0.1725781 0.017571485 -0.0784629 0.095334746 -0.2817571 -0.08891421 0.08389002 -0.07291743 0.19668077 -0.13721558 0.11949756 0.009922325 0.120794885 0.14196149 -0.17824347 0.081611775 0.16058943 0.009118226 -0.08621861 0.1625286 0.028649779 0.13602765 -0.04262654 0.13226615 -0.123306535 -0.105003245 -0.07562338 0.08845028 -0.11173171 0.039128345 -0.08674965 -0.032838255 -0.058920722 -0.08311035 -0.0857858 0.027276017 -0.012395865 0.060395677 -0.31128076 -0.14390528 0.18026589 0.31995955 0.12151938 0.11336195 -0.016338365
言 0.020799834 -0.5939022 -0.15206575 0.05374854 0.24874553 -0.119130716 0.031604342 0.07368251 -0.027700292 0.23316838 -0.2788977 -0.041275777 -0.16971879 0.21803065 0.15139042 -0.15280098 0.078812756 0.058200933 -0.011642253 0.106889784 -0.069335096 -0.32008073 0.040227916 0.06538061 0.44229874 -0.060802422 -0.03492826 0.22029431 -0.0539373 -0.04166284 0.11677299 0.11550593 -0.07336946 -0.0034836663 -0.028044535 -0.054236956 -0.09426102 0.40404502 0.07175484 -0.08315195 -0.38147783 0.20529161 -0.038152568 0.035635598 0.11038636 -0.095186934 0.12873033 0.101505846 0.09042067 -0.19485863 0.04904656 -0.0050522634 0.099860504 -0.20538244 -0.14324665 -0.26597813 -0.080108546 0.14710541 0.123544365 0.05784613 -0.007475918 0.102042556 0.029148353 0.25557974 -0.060522854 -0.04237941 -0.02300548 0.036011998 0.19710167 -0.18549648 -0.16389275 0.14771979 -0.15770808 -0.12477378 0.16662897 -0.006260295 0.016144633 -0.39101353 -0.15489654 0.12757352 -0.03630615 0.17837793 0.04668903 -0.18251148 -0.13351828 -0.13917263 0.1568575 -0.008260988 -0.20217395 -0.0002488466 0.32766256 0.12666766 0.13190638 -0.037639424 -0.1228039 0.09058587 -0.11578116 0.051888764 -0.13279994 0.07466829
无 0.113364875 -0.6453105 -0.060379863 0.40754753 -0.13095118 -0.13162933 -0.26164517 -0.03232147 -0.10171594 -0.03999609 -0.43259597 0.27985573 0.12203795 0.061097044 0.07971529 0.3010757 0.069184214 0.020749953 -0.06185525 0.23523247 -0.16797192 0.27837464 -0.0765795 0.084431976 0.24965197 0.13443598 0.15994865 0.24267748 -0.25963217 -0.10627769 0.24630159 0.13691181 -0.08423126 0.16722612 0.11802434 0.17444187 -0.06037381 0.05561945 0.19952051 -0.026886133 0.14343931 0.13669783 0.06708092 -0.15479054 0.13207749 0.121996954 0.042329334 0.035060376 0.060487963 -0.16458721 -0.05275222 0.04578615 0.08613732 -0.14349952 -0.044065844 -0.060548246 -0.08029888 0.10730543 0.091775216 -0.25590503 0.093443 0.057436273 0.062231097 0.13885029 -0.04052863 -0.087880455 -0.04009238 -0.008910112 -0.072806686 -0.2377566 -0.04835161 0.17658232 -0.053491652 -0.034568463 0.04171356 0.010150254 0.108954646 -0.092265315 0.11166888 0.1685934 0.14870663 -0.03340642 -0.15875223 0.25086316 0.32484895 -0.29111207 -0.1823139 -0.061769005 0.019285696 0.17591351 0.01366315 0.020226624 -0.12986234 -0.2247553 -0.055526596 -0.13986927 0.032096818 0.017561868 0.039201707 0.016118534
则 0.1263149 -0.6333789 -0.03040626 0.049654316 -0.10189237 -0.21190026 -0.018154914 0.008974958 0.08419875 0.035379 -0.19122358 0.006201582 0.1689908 -0.03617021 0.23146619 0.05194709 -0.16178466 0.048363987 0.16005641 0.17641935 -0.02543915 0.20852041 -0.03988654 0.102222495 0.060009073 -0.023749294 0.1755732 -0.1526615 0.1814236 0.18528359 0.18340762 0.09479209 0.13833459 0.10351619 -0.052368633 -0.15962513 0.071121134 -0.011854067 0.33207235 -0.3434355 -0.30477625 -0.16467185 0.035396416 -0.10706617 -0.05346096 0.09897854 0.10979268 0.17691147 0.024565786 0.058108058 -0.32415706 0.03158461 0.12756847 -0.058225013 0.09629841 -0.18482412 -0.0031655414 0.11983184 -0.13674301 -0.07818638 0.025373656 -0.17169537 -0.11504291 -0.13824907 -0.13322623 -0.28174293 0.09143345 0.11778224 -0.33703136 0.107611015 -0.0769915 -0.12683651 0.26081696 -0.06638573 -0.067709126 -0.13336356 0.3365707 0.018094601 0.21819916 0.05152541 0.2150712 -0.14245103 -0.10871617 -0.016550776 0.095119484 -0.23742895 0.03226984 -0.1961697 -0.15078013 -0.015161019 -0.17844272 0.040646367 -0.02977553 0.023169307 0.036199186 -0.19969667 -0.032404512 -0.0059660566 -0.16121091 -0.24729627
！ -0.44391438 -0.45366234 -0.13852662 0.079581685 -0.015757482 -0.08558738 -0.21574181 0.10046888 0.04129451 0.109927975 -0.124704264 -0.22684999 -0.11555705 0.08287129 -0.20185596 -0.00274006 0.055725962 -0.11125339 0.12342651 -0.124138676 -0.15924919 0.079985715 0.022539116 0.11640345 -0.008859578 -0.023314428 -0.124535054 0.053604465 0.039102796 0.06361878 -0.062406342 -0.04865204 0.07007357 0.10937842 0.1521368 -0.10176114 0.10902277 -0.061252773 0.023668705 -0.16632688 -0.053306952 0.02719516 0.10199031 -0.007935071 0.05614078 0.026896646 -0.12756786 -0.27172148 -0.052712448 0.0099660065 0.03711032 0.13485849 -0.20776395 0.030213552 0.06955696 -0.12469267 -0.015842356 0.09230667 0.15666185 0.008365635 0.08700217 -0.008354527 0.24508329 -0.051914267 0.2415202 0.099542096 -0.03536051 -0.16785906 0.023939282 -0.043582287 0.046076242 -0.08591765 0.018575871 -0.05431299 -0.1917123 0.0016616563 0.040132735 -0.12710477 -0.010923538 0.13141361 0.24295384 -0.1630719 0.09276088 -0.0316248 0.0857209 -0.20449632 0.19454621 -0.12934887 -0.057542965 -0.1315109 0.086135365 0.04982212 0.10330742 0.034817323 0.1833266 0.09434812 0.17416829 0.14064513 -0.094056375 -0.16369765
问 0.28864697 -0.54092705 -0.11818777 -0.32269254 0.17432396 0.12970482 0.18512389 0.08674617 -0.22483332 0.038433492 -0.009407779 -0.26573732 0.14516047 0.047329284 -0.113821246 0.1120915 0.18122777 0.03695781 0.11415269 -0.18787584 0.0923064 0.09033812 -0.073163435 0.15498622 -0.13285157 -0.11304409 0.08846961 0.22991797 -0.049451634 -0.009624481 0.296715 -0.04304652 -0.12344376 0.00408368 -0.031448156 -0.06770326 0.12312114 -0.011347834 0.19741882 0.05775109 -0.26015806 0.15135455 -0.12950799 -0.049780156 0.068546005 -0.043508027 -0.009359681 0.12298383 0.100845 -0.09085474 0.1970391 -0.14313355 -0.19450366 -0.08701675 -0.1336733 -0.12376129 0.072602265 0.0038227637 0.2547863 0.15118495 0.04591906 0.07583847 -0.044099465 -0.13064925 -0.040153533 -0.14412655 -0.010168707 -0.1360885 -0.173974 -0.1325659 0.08063405 -0.08469854 -0.17418744 -0.161834 0.16335769 -0.092268504 0.41728798 -0.023143154 -0.16064632 -0.14763097 -0.03901362 0.0521677 -0.24351604 0.110824116 -0.119250655 0.3009016 0.054374713 0.019302737 -0.0798302 -0.04224966 0.08341716 0.01096504 0.1608033 0.06217163 -0.0060207434 0.0002569767 -0.1805351 0.050283954 -0.10760238 0.05652852
知 0.0017905764 -0.6396069 -0.21442159 0.11542853 0.01744193 -0.16403225 0.296103 0.11503798 0.29250032 -0.12227286 -0.31781143 0.07142067 -0.152663 0.08198558 -0.24325898 -0.04592011 0.04935202 0.10629963 0.015801914 0.03164059 0.13736567 -0.012171268 -0.15494968 0.024083417 -0.1311711 -0.14238362 -0.24405651 0.14162086 -0.22514303 -0.14048344 0.19710039 0.029183276 -0.03546124 -0.03677369 -0.07904617 -0.03743058 -0.046656583 0.040229004 0.17308876 -0.0022471347 -0.14085174 0.13132475 0.006533121 0.0013666088 -0.061944805 0.20958547 0.11185921 0.107124105 0.2616765 -0.21035638 0.22905174 0.020651432 -0.1192817 -0.104867674 -0.15019603 -0.15379892 -0.12314095 -0.14593107 -0.05146141 0.028019918 0.019792292 0.15720558 -0.13427931 0.048246287 0.07302606 0.007721613 0.07723275 0.11791213 0.0029463854 0.054119967 0.059149906 0.098010495 -0.29772952 0.023442844 0.038039617 -0.12446208 -0.048982985 -0.05255189 0.033172425 0.17755 0.015779138 -0.082725905 -0.05960212 -0.031576224 -0.02489046 -0.03825209 0.05745597 -0.026784537 0.12430965 -0.27833712 0.08947413 0.034544017 -0.06545767 -0.11209867 -0.19679844 0.12628828 0.19620715 -0.0008824866 0.07299907 0.002522976
何 0.17274345 -0.53514755 0.081228964 0.077620074 0.033694126 0.03195371 -0.22074214 0.22677098 -0.1204454 -0.045712225 -0.3180112 -0.15181658 0.08631913 0.0792166 0.07631951 -0.017020801 0.186553 -0.10373443 0.16019386 -0.11396863 -0.11863951 0.085077584 -0.057643045 0.009509465 -0.017881095 -0.026182486 -0.06589592 0.06420854 -0.010668376 0.082188584 -0.13379183 0.14480464 -0.060780607 0.039683156 0.12659433 0.05555039 -0.06342072 -0.027964393 0.104400665 -0.091420904 0.16151693 -0.14790496 0.3608559 -0.12930574 -0.11902785 0.24599013 0.095603056 -0.15691611 -0.027624505 -0.25926596 0.016829327 -0.15496258 -0.07018382 0.14405665 -0.06342775 0.110888354 -0.017729083 0.030728895 0.050765894 0.049931563 -0.021746114 0.019284789 -0.029436085 -0.12834448 0.1614537 -0.09882884 0.02060284 -0.27050114 0.18234035 0.11563697 0.14625636 -0.052309237 -0.22205094 0.05803178 0.13271518 0.029869055 -0.07350368 -0.11741223 -0.124201536 -0.12925805 -0.009961519 0.12448323 -0.21868812 -0.06735773 -0.021341005 -0.05344014 0.014444609 -0.06978821 -0.0034150484 -0.006394554 0.043285772 0.082427025 -0.06616182 -0.0016682646 0.02246788 -0.053328436 0.18336695 -0.04313932 -0.0402044 -0.13939133
吾 0.008899348 -0.59735805 -0.0011749067 0.09041601 0.13339537 -0.02900533 -0.17025527 0.09701543 -0.06760266 0.10754964 0.0849861 -0.11583473 0.11245803 -0.17945455 -0.0065500964 -0.17362207 0.0014439467 0.052019887 -0.077883795 0.028546011 -0.12143045 0.085568815 -0.06217846 0.08760826 -0.06265033 0.050607167 0.07408453 0.14387818 0.14886437 -0.13315561 -0.28248417 0.018208254 -0.016570527 -0.3535503 -0.15856265 -0.035334036 -0.042168975 0.022124007 -0.13498509 0.22235788 0.12736516 0.16978994 0.23780802 0.09120082 0.19626713 0.0737417 -0.07291689 -0.015610121 -0.10656141 0.08834178 0.06293695 -0.11267775 -0.22182852 -0.059727006 -0.13668445 -0.08239952 -0.25793406 0.010450133 0.04651253 0.001491229 0.07515483 -0.09605165 0.17144552 -0.032041498 -0.013118965 -0.026503138 0.048665103 0.13435936 -0.038528424 0.2005892 0.095936224 -0.20118111 -0.11599339 -0.037881404 -0.072451934 0.04699313 -0.20270644 -0.12112832 0.009999617 -0.06529001 0.24225199 -0.22640134 0.067419484 0.21313827 0.09998946 0.14373535 0.07627639 -0.30123693 -0.03276993 -0.22010928 -0.050380737 0.13438635 -0.37285465 -0.019176807 0.11413195 -0.027998269 -0.23498984 0.17834516 0.19219247 -0.07215441
仁 0.12874776 -0.45556623 -0.05629386 -0.020385664 0.10315144 -0.04891918 -0.010037521 0.21354184 -0.01988544 0.2631955 0.12501873 0.07042748 -0.12502246 0.050581947 -0.14935966 -0.09553112 -0.123862624 -0.027583249 0.05694849 -0.11718807 0.14124458 0.13089952 -0.11611844 0.18543868 0.06413103 -0.110543884 -0.08153017 0.075964406 -0.11255874 -0.06632987 0.04766526 0.008064751 -0.052218243 0.05695503 -0.124562494 0.044139296 -0.037655793 0.15417156 0.069690146 -0.07934398 -0.186766 0.002299644 0.060859207 0.0052578356 0.0666136 -0.13684034 -0.077361055 -0.055209044 -0.12879099 0.14189222 0.2124366 -0.20823352 -0.03696204 -0.10344721 0.11313962 -0.092906825 -0.051310416 -0.14215435 -0.058641955 -0.13615525 0.026404541 -0.08755987 -0.034979515 -0.16328855 0.2137841 0.05751291 0.075760394 0.05962527 -0.09142844 0.03321554 -0.15510723 -0.011260156 0.07405312 0.19236226 -0.047810446 -0.038091026 0.117281415 -0.22842178 0.08340409 -0.033784118 0.073228985 -0.038190138 -0.0908549 0.14470616 0.12377484 -0.050413392 -0.13017456 -0.039383367 0.20378208 -0.12706514 -0.0983938 0.029162519 -0.18159142 0.1232211 7.19697e-06 0.037814256 -0.117830366 0.019361816 -0.08154895 -0.14520235
夫 0.013263628 -0.53030926 -0.08486762 0.058312036 -0.03258372 0.2571884 -0.0028151614 0.11130268 0.2723335 0.14329284 0.05524786 -0.06566755 0.02218663 -0.19336304 0.034127396 -0.003797199 0.039542492 0.03215397 0.23392692 -0.15664162 -0.36531588 0.13895343 0.20236053 0.07515594 0.17021325 -0.064131334 0.09006222 -0.053070106 -0.059414506 0.0416739 -0.07798397 -0.16271435 -0.18644206 -0.011881862 -0.057041094 -0.12034562 0.010561103 0.015022035 0.02704685 -0.20177627 0.09632893 -0.19354412 -0.09358795 0.0640331 -0.011849786 0.14225401 -0.1825701 -0.23974961 0.09978184 0.030374277 0.09852287 0.1199752 -0.13977955 0.14039993 -0.11796583 0.17043436 0.06995144 0.1057148 0.3368631 0.04946563 -0.13662334 0.11764094 0.14655429 0.045841858 0.18132627 0.03858014 0.15112191 0.03455366 -0.047180504 0.017280793 0.04288557 -0.03677734 -0.23250161 -0.27213505 0.1774121 -0.10915604 0.105035104 0.18630512 0.11831321 -0.018775044 -0.0023007537 0.01825461 0.07434049 -0.112994164 -0.017316649 0.019083636 0.038003515 0.0541075 0.1397966 -0.088948116 -0.107066154 -0.08795756 0.10314704 -0.124593824 -0.1299788 0.097212754 0.23156793 0.31008056 0.046052657 0.07408743
、 0.09007352 -0.610231 0.045425642 0.23046681 0.25575665 -0.28181544 0.1236789 0.1769771 0.28131372 0.051912736 -0.22967128 -0.52751666 0.052976273 -0.2063846 0.15796757 0.018441472 -0.075965725 -0.09905301 0.012053753 -0.1742419 -0.0068784743 0.31702423 -0.16477576 0.17338933 0.055544123 0.07332174 0.33809465 0.13458769 -0.04204744 -0.30262458 -0.3106378 0.093275055 -0.05977356 -0.19850951 0.051103093 0.08281067 -0.033901583 0.049895257 0.4518515 -0.09614582 -0.01484428 0.10020036 -0.2818628 0.1294622 0.1873421 -0.2668163 -0.36292917 -0.028374871 -0.06561659 0.043266054 -0.00287796 0.08924405 -0.026088381 0.17408526 -0.058807395 -0.17322046 0.35697812 0.071363874 -0.081328355 -0.0040952675 0.045805283 0.11966706 0.037100445 -0.19083312 0.13889161 0.04035635 0.008234911 0.13140935 -0.09041881 0.5034762 0.09193667 -0.31315482 0.12855713 -0.12598006 0.12359431 -0.049488593 0.15533188 -0.42852005 0.248446 -0.09578632 -0.09216419 0.14823605 -0.23106189 -0.16973016 -0.12681815 0.0022044037 -0.22551294 -0.1838831 -0.23130804 -0.082053155 0.0873573 0.017135225 0.075159036 -0.058913585 -0.08325766 0.17624098 -0.07746069 0.17959161 0.009476601 -0.2594068
道 0.22756824 -0.52679133 -0.059024442 -0.28993055 0.06084115 -0.23234473 -0.32184225 0.0893007 0.03862345 0.06692748 -0.07901994 0.15682957 -0.05685808 -0.029864145 -0.0027291263 0.02762339 0.24477202 0.08447306 0.044715185 -0.13267997 0.02155416 -0.1840733 -0.15910569 -0.011574446 -0.16560747 -0.04104093 0.1323979 0.011852716 0.0020269146 0.16176823 -0.08179662 -0.020168502 -0.09704599 0.05629864 -0.059309117 -0.28716514 -0.17552444 0.14686947 -0.010426676 -0.057866614 -0.021873038 0.052085996 0.11597606 0.049411792 -0.05959104 -0.06459786 0.11093247 -0.038337853 -0.08122752 -0.08137196 0.10064377 -0.021918906 0.007994896 -0.16603833 0.043385826 -0.24266502 -0.14131558 -0.1690023 -0.024935346 -0.008055056 -0.050251298 -0.023119912 0.34090453 0.031365726 0.11507125 -0.03553936 0.16349424 0.03262635 0.17671558 0.1785374 -0.06180037 0.10703264 -0.03958358 -0.010463135 -0.0038538668 -0.057155095 -0.088577874 0.008585196 -0.118892565 -0.1384952 0.068131134 0.11194347 -0.008187377 0.1466597 0.10656161 -0.17867394 0.06920736 -0.065562025 -0.11857406 -0.26210105 -0.09025496 -0.085124254 0.15793724 0.033200655 0.042298686 -0.13009618 -0.12125151 0.17088325 -0.009227355 -0.23078492
焉 0.08604613 -0.44858295 -0.09492611 -0.02431499 0.01654443 -0.13382235 -0.028785707 0.12381071 0.25908363 -0.050559662 -0.18635437 0.2183106 0.094784714 -0.10783001 -0.11944099 0.047086652 0.17408961 -0.061709438 -0.11707721 -0.24062198 0.044177298 0.12881629 0.10578761 -0.1590775 0.1923774 0.057752725 0.14773802 -0.030482352 -0.21172601 0.098790795 -0.016225973 0.014316579 -0.034184624 0.07997822 -0.118429065 -0.15587832 -0.09703667 0.1079302 0.16297308 -0.086682424 0.021102557 0.009573301 0.087843485 -0.0123946965 -0.10374766 -0.021795822 0.0061565884 -0.057185102 0.024870154 0.26273522 0.058080427 0.075441286 0.015145244 0.048504144 0.010689237 -0.052067257 0.08163613 0.020453528 0.11076918 -0.008652812 0.1480593 0.26704773 0.14459848 -0.32609004 -0.049308486 -0.0033689644 -0.01635016 0.0730115 -0.18163309 0.03490082 0.054868653 -0.043790378 0.07963789 0.07002708 0.12478896 -0.0825986 0.18209065 -0.101727195 0.03327933 0.09879205 0.12911159 -0.0065125115 0.16237949 -0.21788262 -0.14400022 -0.04794748 0.124668874 -0.15648091 -0.16274197 -0.0006006276 0.3224479 0.07321255 0.02376889 -0.08983232 -0.22834347 -0.21930112 -0.0012960045 0.09843396 0.10281678 -0.052906673
行 0.011966083 -0.5822435 -0.226163 -0.22516352 0.05953605 0.15912248 -0.12637116 0.02164378 0.046167545 0.14818157 -0.07676171 0.11146578 0.027150728 0.05550789 0.040250592 -0.19624923 0.114351444 0.57964003 -0.17795299 -0.041470736 -0.15738875 -0.06210805 0.08642297 0.18981892 -0.03932649 0.11994341 -0.21420301 -0.08384629 -0.05079492 -0.09466717 0.073934816 0.24378124 0.07037302 0.02023463 -0.092697345 -0.13258186 -0.0734219 0.008642765 -0.00085930247 -0.015643569 0.1919204 -0.16429274 0.03539271 0.19306496 0.09179786 0.16030884 -0.09139705 0.0039240615 0.25492087 -0.17191648 0.06294511 -0.08978378 -0.043959066 -0.016162528 -0.007873053 -0.097984895 -0.1139574 -0.11158087 -0.02907144 -0.20810546 0.12044518 -0.24490303 -0.1857038 0.07270018 -0.029673658 -0.14131103 0.074677385 0.15357119 -0.07507148 -0.19490612 0.082640134 0.023129197 0.1319111 0.14035591 -0.18753736 0.21955661 -0.33297068 -0.21231443 -0.013250863 -0.0531065 0.08177863 0.14660488 0.088138096 0.08124899 0.07986441 0.025063332 -0.036864363 -0.048608396 -0.05663698 -0.24066712 0.13552067 -0.03820548 0.021487534 -0.13726021 -0.108775966 -0.10560056 -0.029203773 -0.07497223 -0.22391959 -0.02195927
谓 -0.06151811 -0.5697604 0.17506298 -0.2556098 0.08149335 0.057979837 0.019042365 -0.14760552 -0.046451893 0.32049608 0.08341725 -0.20430194 0.15869237 0.30965328 -0.05176301 0.06175974 0.3516957 -0.110811345 -0.11636366 0.041616462 0.18471967 -0.040626183 0.19962701 -0.16196406 0.09765692 0.07753985 -0.027028576 -0.22202754 -0.13086982 -0.057183295 -0.0063523147 -0.0661041 0.033970073 0.19966397 0.20026642 -0.06884697 0.019296926 -0.20806421 -0.37576815 -0.13728654 0.1016256 0.18701267 -0.16507246 -0.028208196 0.34394565 0.08316091 -0.01279444 0.0072138347 0.054096248 -0.13416293 0.19351065 -0.105305485 -0.20411782 0.18047531 0.059760455 -0.11203687 -0.19001904 -0.17124936 -0.07946824 -0.08534883 -0.13053699 0.17798713 -0.16704454 0.029649433 -0.041017342 -0.21155646 0.07373763 0.11367993 0.22041573 -0.2228479 -0.12545979 0.0053073447 -0.29363993 0.16691719 0.21122046 0.259583 0.22563131 -0.019859355 0.113711774 0.056562312 -0.07644585 0.049019393 0.114926934 0.15147905 0.09867868 -0.09636131 -0.3044365 0.22143304 0.06594557 0.046854384 -0.1753311 -0.0196379 -0.32706594 0.057598185 -0.3089014 0.24990767 0.24211867 -0.07972842 -0.12553968 -0.0888749
必 0.18407965 -0.52516276 -0.13226806 -0.018217083 -0.089684665 0.37071812 0.007527765 -0.1409395 -0.14656124 -0.15870573 -0.29679805 0.17316774 0.08094535 -0.09615309 0.20115042 -0.045753866 0.23567905 -0.21106088 0.18975943 0.077571034 0.023223601 -0.1325113 0.07040601 -0.069409095 -0.10124049 8.178456e-05 0.0590233 -0.16602638 0.041727334 0.0022481529 -0.20977706 -0.23672998 -0.015743002 0.028432416 -0.07583197 -0.081801295 0.35082936 -0.06785148 -0.014380415 -0.05993107 0.12322642 0.01271319 -0.095344715 0.1301647 -0.2162893 -0.10995785 0.04007005 -0.024545718 -0.15898557 0.0044701053 0.012496147 -0.022491504 0.14076108 -0.38141686 -0.10482306 0.19340827 0.103509046 -0.09137895 -0.103064045 0.007624245 -0.1269875 0.15306577 0.3600343 0.0553524 0.13942514 0.053085368 0.03843506 0.20800367 0.062599316 -0.098174386 0.21899538 0.14467302 -0.20663832 -0.028600058 0.18092543 0.025016408 -0.031071566 -0.0706583 -0.022004679 0.07766089 -0.15322308 0.09256216 -0.12845264 -0.092285775 -0.14179173 0.0042702896 0.056157246 0.18383597 0.118948065 0.037353728 -0.04547552 -0.06618084 0.090798676 0.16982591 -0.08227038 0.08141058 -0.3126163 -0.07338076 -0.036764033 -0.0043771607
礼 0.11914815 -0.54447514 -0.1488302 -0.0075439233 -0.24855533 -0.14238179 -0.059325933 -0.062228598 -0.21864493 0.116129875 -0.13810608 0.09025525 0.2168888 -0.16875859 -0.051360846 0.03398537 0.26691246 -0.06185194 -0.015714748 0.017516581 -0.04017883 -0.13540766 -0.063100554 -0.048373155 0.21892181 -0.08902141 0.25273836 -0.09476254 0.18532862 0.20244157 0.35633907 -0.09575695 -0.1292102 -0.26507744 -0.006954854 0.10684832 0.032484718 -0.1345654 -0.20113142 -0.22904848 -0.0877517 -0.024305683 0.24398933 0.14944695 0.032248292 0.16888463 0.16046716 -0.35051346 -0.094315894 0.16612917 0.00043938728 0.09986727 -0.19491208 -0.07979154 0.1582113 -0.08668955 -0.008415731 -0.2033063 0.102132045 0.25485772 -0.004501004 0.14457858 0.0109460065 0.3021818 -0.03156457 0.24539518 -0.09967745 -0.055324458 0.14850499 -0.19304977 0.12590316 -0.06545576 -0.15569414 0.17393911 -0.027109157 -0.201066 0.09359911 -0.4093433 0.19547667 0.217381 -0.19343956 -0.11837659 -0.064252935 0.05280297 0.033122383 0.0044424087 -0.26226813 0.07718368 0.24586006 0.049366318 -0.17563017 0.15767199 0.14217165 0.2582168 0.022337064 0.019648109 0.022878569 -0.0040845303 -0.067585796 0.18906032
孔 0.02410148 -0.6561994 -0.024257436 0.013152646 0.3951629 -0.098833606 -0.06505723 0.11111414 0.15186186 0.037371725 -0.1467877 -0.19512166 -0.14079897 -0.0021589142 -0.034993414 0.09562994 0.2931307 -0.015311673 -0.06328749 0.027676579 -0.080222614 -0.09690133 -0.05849952 0.23462163 0.03310572 0.146601 -0.124938674 -0.048268504 -0.08974618 -0.025274321 0.21426043 0.14895087 0.053748567 0.041189022 -0.103659816 -0.08085276 0.018419899 -0.28475833 0.16505398 0.04795547 0.19468008 0.114073366 -0.106023476 0.108403474 0.15871544 0.15189923 -0.30717126 0.10576715 0.14612615 -0.26523167 0.010746568 -0.06085385 -0.013839003 0.2882639 -0.17087525 -0.019223947 -0.036335878 0.21718611 -0.031738594 -0.0011073381 0.27424896 -0.21751513 -0.26946074 0.0008359477 0.14239134 -0.08363041 -0.02808953 -0.1848717 -0.17193776 0.23186214 -0.27133754 -0.0784767 0.15566012 0.08339348 -0.10352438 0.23571683 0.033437543 -0.06523201 -0.10264782 -0.011854928 0.062567756 0.020030804 -0.060019013 -0.15990728 0.12744235 -0.031452235 0.13309985 -0.005370275 -0.07050727 -0.0056591155 0.005246089 0.010111534 0.16145831 -0.07871419 0.037778236 -0.17974539 0.10333391 0.012379628 0.34765884 -0.14739309
斯 0.23655446 -0.5643553 0.20420898 -0.16477542 0.12290395 0.0110826185 -0.014071235 -0.06980386 -0.098540306 0.026705217 -0.124949455 0.2328622 0.32585347 -0.035955135 -0.09885509 0.11035615 0.27499261 0.05803263 0.06437221 0.11084914 0.24140067 0.061945453 0.19669034 0.10296973 -0.048837397 -0.08379984 0.068488926 -0.23396946 0.24238403 -0.04571619 -0.054064006 -0.09143501 0.09162262 0.17734511 0.24509117 0.05997533 -0.2187433 -0.07775782 0.1396045 0.1307368 0.28121954 -0.15763074 0.09095746 -0.084844485 0.16881196 0.10892347 0.20700477 0.0069697234 -0.12774959 0.015354228 -0.020837048 -0.24690047 -0.14613518 -0.071600884 0.20831531 -0.32464373 -0.068708606 -0.05090177 0.06620238 0.06135129 -0.048029013 0.081577376 -0.16698168 0.06611793 -0.1724227 -0.15600035 -0.029510256 0.22946025 0.022170536 -0.19293183 0.103531376 0.035228223 -0.18068679 0.18706502 -0.09942504 0.04172196 0.04489532 -0.14381288 0.1855387 0.27378312 0.2173313 0.026417453 0.04310163 -0.20986329 -0.36696133 0.057556733 0.21482424 -0.17386039 -0.25669014 -0.15625653 -0.1058388 0.048793815 0.15635361 -0.17977162 0.019377217 0.0050071757 0.4425801 0.10236855 -0.15366475 -0.06482258
三 -0.038902402 -0.5176865 -0.1278499 -0.30402386 -0.08796068 -0.0021841072 0.015939277 0.21848014 -0.038042076 0.01895573 0.011953183 0.07097286 -0.11339664 -0.07941101 0.042418055 0.15989734 0.19201654 -0.05383327 0.053940672 -0.23918231 0.11007802 0.025391333 0.09694969 0.038844123 -0.13928442 0.13607183 0.060045198 -0.11168667 -0.081146255 -0.05545494 0.14323314 0.19204935 -0.086597465 0.17733006 0.061038226 0.0723415 -0.0912481 -0.22920866 0.054322615 0.036094837 0.12775959 -0.22253291 0.101946674 0.07639932 0.09553023 -0.17513321 0.011330788 -0.15891843 0.025906447 -0.1570929 -0.07229976 -0.14388186 -0.17464323 -0.1655652 -0.0049431333 -0.010863413 -0.11266114 0.015291579 0.035332654 0.005010464 0.21570374 -0.26059225 -0.08049747 0.09536008 0.18167478 -0.008259499 0.25385782 -0.07197415 -0.119696006 -0.023164364 -0.12955187 0.12812996 -0.02732306 0.22935417 0.054260347 -0.13317329 0.24164578 0.013113422 0.13559398 -0.18522355 0.18988997 0.113134 -0.009030296 -0.0936715 -0.13821238 -0.03371031 -0.11722217 -0.046748087 -0.14972986 -0.009872044 0.06857773 -0.2053216 -0.0138376085 0.0058888346 0.24742763 -0.18529621 -0.21244727 0.11553485 -0.0898838 0.011226822
能 -0.031516634 -0.5276214 0.047186274 -0.16701096 0.015258872 0.17310648 -0.23587027 0.04306164 0.025272947 0.00054182723 -0.17779148 0.25036547 -0.13991675 0.028557234 0.1463533 -0.013273113 0.18531902 -0.13234785 -0.050199777 -0.025989247 -0.14758053 0.23804022 0.013731895 0.10085867 0.034230467 -0.0054080444 0.3163382 -0.029057492 -0.19320536 0.1553232 -0.1525121 -0.08933511 0.06298265 0.018137127 0.09854957 -0.18373708 0.13855113 0.14529811 0.14559165 0.1456914 0.026687749 0.09093094 -0.009352385 0.10644496 -0.14484832 0.17746608 -0.189309 0.15688029 0.10006131 -0.06914117 0.12791933 0.034856807 -0.2395901 -0.022058323 0.17396086 0.076295584 -0.19310445 -0.016928129 0.031122273 -0.27121508 -0.078662716 -0.2132842 0.074227504 -0.116484165 0.057017148 0.063050345 0.18899724 0.05856763 0.06271584 0.111500986 0.052041132 0.20873451 -0.11861972 -0.12031014 0.0764854 0.07820035 0.02762105 0.08294611 -0.08183356 -0.06919573 0.014031552 0.10185702 0.09939713 0.18380062 0.23830698 0.012512669 -0.06759037 -0.05378816 -0.084740646 0.22192371 -0.04310587 -0.0407615 -0.26307866 -0.20758073 0.21185447 0.2200127 -0.016405614 0.020855514 -0.083327316 -0.27585748
见 0.30821845 -0.51606065 -0.11677727 -0.1532681 0.2058559 0.0053365063 0.085334435 0.28007445 0.028715687 -0.0069176517 -0.21161073 -0.11563854 -0.15751505 -0.11726866 -0.19529557 -0.1612474 0.3905259 0.057535686 0.094006196 -0.09489835 0.10470952 0.06924932 -0.059340745 -0.11692859 0.24214995 0.051014572 0.05108173 -0.0105153285 0.08598985 -0.027647667 0.24109091 0.107734084 -0.049156208 -0.19680062 0.20332178 0.16953619 0.1968972 0.0668131 0.19211319 -0.0492381 -0.012085879 -0.07690754 0.024956845 0.01481672 0.048147127 0.1564224 -0.18377629 -0.18399967 0.11709239 0.04721071 -0.01304965 -0.15418988 0.016451318 0.0672674 -0.01720426 -0.13853629 0.28230748 0.33693 0.00257308 -0.08063451 0.073077545 0.06367095 -0.119566455 0.07421158 0.03505355 -0.07961338 0.12953424 0.061431963 -0.15633494 0.34018427 0.020872694 -0.054786716 -0.30977783 -0.16992474 0.07976158 0.13574508 0.06815879 -0.10647413 0.027925992 -0.012024452 -0.049506057 -0.13165577 -0.027622038 -0.07730118 -0.14906931 0.24045731 -0.1516429 -0.19385092 0.13008997 0.10183504 -0.09301138 -0.059225015 0.33613297 0.08031038 -0.014088915 0.000306505 -0.17808035 -0.015084842 -0.1863198 -0.0456685
学 -0.033187803 -0.6469629 -0.084087975 -0.06482261 0.006797082 -0.011820259 -0.09262244 0.0372128 -0.0462769 0.13773316 -0.15000454 -0.09009194 -0.10937045 -0.16999422 0.0572445 0.122196116 -0.09295173 0.079341754 -0.046465643 0.05808799 0.059936944 0.112155214 -0.03645262 -0.044210453 -0.04189735 -0.07443556 0.10105335 0.12126711 0.26579496 0.30027667 0.30096304 -0.041954797 0.019703073 -0.03576224 0.0058983536 0.057259474 0.2045529 -0.055256333 0.026409179 0.03795353 0.018220577 -0.04474399 0.1813716 0.05381438 -0.12934576 0.2257794 0.01880188 0.12522288 0.20616394 0.054615036 -0.026647264 0.08101538 0.04256084 -0.0849845 0.024473803 -0.023700299 0.0617455 -0.062303796 0.099692404 0.12700397 0.051355634 0.08291966 -0.09601835 0.083626345 0.09976906 -0.0032923855 0.04595203 0.18657686 0.072802104 -0.07374889 0.1371721 -0.17363721 0.055680603 -0.33429676 -0.10452552 0.018360496 0.042232886 0.011329315 -0.16882618 0.02101844 -0.010623576 0.053123422 -0.034444597 0.3154914 0.051080223 -0.21038967 0.03541642 0.057348914 0.13619697 0.020246778 -0.21169105 -0.21653582 0.060751744 -0.13723117 -0.05629889 -0.014094359 0.05923659 0.08345488 0.103758164 -0.07888812
事 0.12528215 -0.5379099 -0.051173016 -0.28798354 -0.12075968 0.03959447 0.3426956 -0.140466 -0.06716116 -0.0293785 0.012961351 -0.039702937 -0.054489437 -0.049429454 0.09374692 -0.050431278 0.13317946 -0.033942632 0.30051714 0.008415071 0.23908038 0.064114876 -0.020809289 0.095067926 -0.049167853 -0.12798896 0.15168561 0.13005376 0.056609362 0.11347032 -0.13444112 -0.01676213 0.06830188 -0.018946702 0.17344753 0.2632945 -0.05831524 0.16076136 0.17891832 -0.025894204 -0.13809974 0.0052798837 -0.20332834 -0.07521305 0.25365898 0.10004807 0.32249096 -0.05812708 0.034908067 -0.035630796 -0.08146342 0.14641607 0.27228385 0.10233858 0.09548657 -0.020672217 -0.027149953 0.27793616 -0.07591996 -0.19871794 -0.07562101 -0.058441054 0.066338085 -0.21242462 -0.054436103 -0.22211029 -0.049692374 -0.00031124917 0.10917799 0.102406435 -0.030044882 -0.14188212 0.020910956 -0.12763488 0.09781324 0.31795147 0.12342954 0.15544136 -0.269437 -0.16746825 -0.042970605 0.10803403 0.08032109 0.06456411 -0.2030537 -0.07360553 0.20191862 -0.30543974 0.12165397 0.0050414684 0.012916188 0.0622905 0.18484585 0.0038053454 0.06262104 -0.04063256 0.19864619 -0.0843195 0.04947279 -0.09748758
是 0.20526463 -0.59891665 0.02446769 0.07485804 0.10065453 0.022792421 0.18324576 -0.08607154 0.19704294 -0.275349 -0.06446026 -0.013019726 0.035935715 0.1242069 0.08464549 0.14231467 0.111700416 -0.015643908 0.21200599 -0.07467182 0.1016651 0.044535507 0.10206965 -0.12292952 0.12374867 0.118837886 -0.023676693 0.0893608 -0.13254124 0.17881869 -0.046938427 0.17031144 0.15951627 0.20087256 -0.027412295 0.16142817 0.07149349 0.17637478 -0.2026069 -0.06473437 0.08303529 -0.14206572 -0.114783145 0.35389882 0.005531948 -0.012022453 0.025250401 -0.09255761 0.03243052 0.0074858814 0.0784753 -0.22802347 -0.06841599 -0.10860324 0.09301195 0.24231102 -0.108651735 0.23390083 0.2650416 -0.20816141 0.028600553 0.047785208 0.091160454 0.124167256 -0.028306799 0.0834501 0.20082784 0.05749092 -0.1125172 0.13974777 -0.05262973 0.036551718 -0.058822077 -0.13524215 -0.12530734 0.0765854 -0.014116131 -0.09654033 -0.06650651 -0.0104325265 0.27594692 -0.03714004 -0.038984813 0.10619312 0.019029059 -0.0848949 0.19111663 -0.12704304 -0.23515391 -0.064686455 0.048786096 0.17468117 0.14109327 -0.32500547 -0.042855546 -0.03329801 0.0805626 0.012914153 0.21643537 -0.48537588
哉 -0.11572869 -0.61613405 -0.052113067 -0.12246011 0.17171565 0.097034626 -0.29315242 0.11700681 -0.20277503 0.05332478 -0.02917241 0.028834324 0.15679874 0.018597906 0.047601193 -0.12267878 0.07801915 -0.12020183 -0.1461196 -0.08899344 -0.2105764 -0.042716525 -0.0827032 -0.1020162 0.13034283 0.13937074 -0.04637625 -0.30046913 0.004642217 0.14695604 0.13573116 -0.15407753 -0.18079816 0.1892996 0.29534388 0.020663176 0.2106559 0.28273952 -0.22465913 -0.13290766 -0.2273394 0.19286996 0.06138021 0.01019979 0.36652634 -0.17019673 0.19420446 -0.1490583 -0.15907657 -0.037619427 0.09449962 0.19758268 -0.13290758 0.04594464 0.13662975 -0.06942776 -0.0069926255 -0.06223978 -0.10556645 -0.11774424 -0.15095532 -0.13575606 0.026504677 0.0879689 0.15544763 0.17326568 0.12131786 -0.023477048 -0.02952222 0.10368076 -0.21996717 0.10654133 0.008035315 -0.2947985 0.09780424 0.16260058 -0.17051314 -0.015707217 0.05188414 0.33580488 0.069966055 -0.03544435 0.013819394 0.11263263 -0.13480234 -0.10904397 -0.063473485 -0.14238292 0.07569142 0.11933783 0.07694689 0.09681751 -0.0741988 0.27375552 -0.1058519 0.047387972 0.050708108 -0.0060534813 0.12260982 -0.31021303
闻 -0.114255354 -0.6159183 -0.07426425 -0.20184335 0.102761224 0.048489567 -0.08726232 0.041341987 -0.28023043 0.16354617 0.028110191 -0.24641751 0.029750427 -0.1469498 -0.23508106 -0.013978367 0.038450908 0.017006202 -0.19783881 -0.25715858 0.050695337 0.15262857 0.01019753 -0.062033076 -0.05000578 -0.10140765 0.15185247 0.23137844 -0.015518201 0.003424381 0.06020558 -0.15433796 -0.1817925 -0.28512442 0.11502467 5.5416487e-05 0.061528426 -0.13137284 -0.14118369 -0.064623766 -0.1421491 -0.14951234 0.012935611 -0.009381076 0.014389323 0.20283607 0.19050068 -0.12538898 -0.20684612 0.023167873 -0.01495316 0.19353333 -0.17250288 0.06783258 0.20366545 0.14006862 0.019173788 0.046501838 0.3954507 -0.0043514594 0.2837822 0.22695991 0.098918155 -0.10207687 -0.023797855 0.020731142 -0.09009048 -0.124079816 -0.1550434 -0.06786902 -0.09819813 -0.14774604 -0.12860243 -0.2975044 -0.049570248 -0.0709064 -0.37894058 0.059364725 0.05217291 -0.27504572 0.057362583 -0.2582302 0.11406838 0.068930246 -0.00924325 0.030321654 0.10673835 0.12843877 -0.06571216 0.27190328 0.031044714 -0.10583651 0.27180737 -0.114531495 -0.049576726 -0.09398483 0.25089216 0.21851377 -0.0010816599 -0.016299557
未 0.11887321 -0.5184079 -0.12855038 -0.34236652 -0.16253465 -0.08900405 0.1557829 -0.039034717 0.3137958 0.07774888 0.21701214 0.1556647 -0.113526225 -0.12437579 -0.01238507 -0.14595038 -0.016229846 0.075588204 0.048185058 0.049086314 0.072586276 -0.066026665 0.3152729 0.10865846 0.26064277 0.13529047 0.007850889 -0.08571324 -0.13049598 0.24948734 0.18676676 0.08049751 0.09813946 -0.049191758 0.101406984 -0.13688329 -0.04215817 -0.19818068 -0.19007736 -0.3239068 0.124609314 -0.07282415 -0.080404356 0.11604604 0.027252486 -0.0042553027 -0.048882328 0.0491248 0.023663135 0.054642826 0.12016489 -0.10344012 0.094910994 -0.27378616 0.015394785 0.13193467 -0.1566975 -0.105206154 -0.07071738 0.087935194 0.07221443 0.057074487 0.14570123 0.057092737 0.21262358 0.07073639 -0.048190206 0.11387315 0.10109177 0.30538827 0.13603912 -0.17475814 -0.01866901 0.15064424 -0.08424473 0.013524653 0.075418174 -0.09342423 0.037160996 0.089441516 -0.12659357 0.006088325 0.24572459 0.0353498 0.03766598 -0.2282947 0.05454123 -0.16402315 -0.11838905 -0.045079205 -0.1183972 -0.21512672 -0.035658207 -0.09156212 -0.27078494 -0.21060435 0.20862658 0.08927696 -0.087256275 -0.14691189
公 -0.18510671 -0.58547604 0.2723876 0.10017647 0.21604998 -0.16360262 -0.21484008 0.0776347 0.06998775 -0.04586913 -0.00022592582 -0.22369222 0.21589456 -0.0630499 -0.19560507 -0.3649725 0.36143747 -0.05811147 0.03368569 0.03820334 0.19822976 -0.10878495 0.026778681 0.14153126 -0.10929747 0.10378652 -0.24778606 0.009985002 -0.03279074 -0.1785323 -0.09302324 0.17033963 -0.020405669 -0.11147438 -0.09360349 -0.2313075 -0.032006685 0.05444648 -0.016848236 -0.066826254 0.12503327 -0.05665493 -0.079458125 0.21587984 0.099915065 0.09631885 0.068692885 -0.07658359 -0.12469976 -0.14192107 0.15303886 -0.08841538 0.00659137 0.17419918 0.1326401 0.134891 0.013382941 -0.33524555 -0.2867147 -0.17594166 -0.10308398 0.07780125 0.18640709 0.0077223424 -0.22157365 -0.0030686855 0.077043645 -0.108692355 -0.21392801 -0.0069467807 -0.018564593 0.13122547 -0.10978086 0.2088518 0.03183098 0.25820243 -0.113344595 -0.16169463 -0.11284365 -0.14178748 -0.1294006 -0.16144821 -0.11306066 -0.18559538 0.051513676 0.06113965 0.14109275 -0.0059673553 -0.02954084 -0.22220656 0.06197815 -0.15797845 0.13978533 -1.62574e-07 0.14859252 0.09268256 0.070038915 0.16296467 0.11388029 0.032682795
好 0.17698133 -0.7200473 0.10490328 0.34483358 0.006444003 -0.071986824 0.10925997 0.1103246 0.028916627 -0.10774369 -0.0070987856 0.21004121 -0.2660538 -0.0922998 0.049783163 0.3458005 0.16586769 0.048550148 0.08360656 0.18277414 0.461509 0.1485921 0.16534388 0.14628993 0.21033481 -0.22236846 0.038721394 0.07099402 0.04616653 0.55692977 0.26001817 -0.365728 0.1977485 -0.16271839 0.12067472 0.03317628 0.22632076 -0.32722643 -0.1035576 -0.073978364 -0.12414254 0.04013624 -0.012535711 0.0019806344 -0.05059469 0.12395689 -0.017340496 0.036764037 0.07221587 0.1148223 0.10194824 -0.15546995 0.077092424 0.010283205 -0.117074266 -0.08006573 -0.13700248 -0.15164897 0.00645559 -0.018200161 0.011712376 -0.23721817 0.10711281 0.18018456 0.061952014 -0.29388627 0.08863995 0.25220424 0.009140863 0.09782918 0.029154882 0.17504932 0.18690439 -0.10679528 -0.02589423 0.20064534 -0.12552013 0.15672514 -0.010916753 -0.15578043 -0.11569905 -0.31923065 0.15117154 0.16302693 0.12351573 0.25770882 0.16672769 0.029618252 0.11376754 0.29907387 0.028148474 -0.34924334 -0.14483577 0.25477183 -0.28101107 0.22610465 0.266054 -0.19109842 0.101918966 0.036853656
我 0.054656893 -0.53967535 -0.27629393 0.026316494 0.08669753 0.1354469 -0.19273256 -0.04129617 -0.026288908 -0.1892761 -0.0886887 -0.07045953 0.040817 0.0813234 -0.15002528 -0.009147385 0.2252485 -0.11764884 -0.22321549 0.11085935 -0.22463416 0.026812065 -0.21581316 0.016922737 0.1280228 0.07875756 -0.08083123 -0.05631575 -0.20789751 0.07393835 -0.11883125 0.054158982 0.10383368 0.05594237 -0.16892086 0.0029086005 0.13198459 -0.29648298 -0.0823475 -0.17669512 -0.08872333 -0.086438775 0.07975909 -0.24469908 -0.19668148 -0.016623516 0.12715757 0.18566245 0.087308146 0.14291632 -0.10302612 -0.1444043 -0.05857958 0.08609319 -0.19840172 0.28066278 -0.30321538 -0.07267718 0.09411577 -0.17116594 0.15408444 -0.16452265 -0.14465757 -0.12677728 -0.01725687 -0.030941414 -0.21459246 -0.030233469 -0.0254357 0.087909184 -0.1139895 0.20080602 0.028542811 0.14164048 0.17400996 0.070650145 -0.16714078 0.026756046 -0.00054997206 0.16565083 0.11117735 -0.22667985 -0.1789261 0.122539625 0.021482192 0.045799047 -0.0024797875 -0.18180826 -0.2615135 -0.1231731 0.36985782 -0.020175735 -0.11401475 0.008719236 -0.2746933 0.004823875 0.27588522 0.15523195 -0.15951496 0.052633308
路 0.30635887 -0.66476214 0.02548058 -0.17335083 0.087394066 -0.28086352 0.07939409 -0.1218786 -0.0077904696 -0.029855642 -0.08480268 -0.15861279 0.018243216 0.30847 -0.12296951 -0.15376541 0.07977029 0.19229059 -0.0009860373 -0.13028166 -0.18211429 0.24439262 0.09355014 0.058680493 0.46650472 0.05878816 0.051429152 -0.12769184 0.12412703 0.008010749 0.20041566 0.007827593 0.09255752 -0.30838203 0.16382109 -0.04932731 -0.08650136 -0.035937242 -0.077975996 0.1780599 -0.19431256 0.024967037 -0.12016035 0.20231515 0.18941954 0.051409945 0.027774844 -0.011944096 0.086362734 -0.40835115 0.20023194 0.021631097 -0.12642437 0.00690924 -0.08559788 -0.18988353 0.1322937 -0.042108733 0.08602628 0.22807935 0.17446215 -0.015739461 -0.04294114 0.014085906 -0.07511838 -0.15070127 -0.038259592 0.31565025 -0.29261696 -0.15579951 -0.20832084 0.11085942 0.1859924 0.09027794 -0.05965027 0.085286796 -0.06174762 0.15421912 0.120053716 0.15796158 0.149083 -0.1891823 -0.18703513 -0.22054134 0.14425127 -0.13604249 0.25921336 -0.10041463 0.25920975 -0.06351991 0.13623533 0.115783 0.09064547 -0.09686655 0.09205264 0.11384982 -0.027771007 0.0019215955 0.15728885 0.3069293
在 0.0790907 -0.55696666 -0.38010314 0.21572374 0.15505898 0.15441126 -0.13980715 0.083350666 0.1736059 0.08816635 0.27714047 0.298553 0.044273928 -0.10154261 -0.27990013 -0.2016833 0.073414475 0.15538646 0.0485185 0.01553509 0.18744497 0.12653686 -0.045869056 -0.11121806 -0.037922617 -0.09437563 0.080564834 0.06595023 0.20033838 0.15643968 0.16289507 -0.030154472 -0.22402173 0.27386928 -0.08337858 -0.1063246 -0.19447647 -0.0048394417 -0.2634929 -0.052980304 0.08467462 -0.21382129 -0.08148934 0.1335925 0.00067666615 -0.18877053 -0.07068374 -0.1737151 0.09171254 0.4207589 -0.020204997 -0.34706783 0.39211184 0.19021805 -0.0068283984 -0.2504562 0.04441907 -0.2018527 -0.1876223 -0.091127686 -0.3415538 0.051013492 -0.053462267 0.1339991 -0.40979236 -0.13604678 0.059952375 0.121589065 0.013739121 -0.13497002 0.08345419 -0.18204121 0.07367696 0.19753738 -0.034018457 0.21184166 -0.22964287 -0.2986962 0.043988366 -0.15572478 0.085812226 -0.053784303 0.0018351406 -0.024667496 -0.04467639 -0.24149075 0.020348245 -0.08691045 -0.019294798 -0.11990599 0.043769274 0.08197466 0.02208802 -0.106680535 0.033813212 -0.27384955 0.29869115 0.16378132 0.10253917 0.08618041
已 -0.01585866 -0.53801996 0.03978822 -0.21509692 0.08216008 0.011078434 -0.14246988 -0.026003812 0.1347947 -0.03944367 -0.2522026 -0.33206153 -0.0082339225 -0.083082326 -0.25451913 -0.0033060955 -0.15999149 0.022572028 0.12637669 0.2226218 0.07649182 -0.019507451 -0.097856574 -0.008672152 -0.0009880528 0.043154933 0.00065118144 -0.30915478 0.07880895 -0.20129327 -0.04541471 -0.047647838 0.0770531 -0.12572408 0.14918695 0.122412115 0.031463325 -0.03082816 -0.005069038 -0.047880318 0.25347218 -0.12516935 0.045669705 0.022390261 -0.060127284 0.14504826 0.020236194 0.075136244 -0.2033597 -0.15411681 -0.07966634 -0.23658103 0.086020134 -0.1481862 -0.019488662 -0.21811852 0.05424483 -0.034564566 0.11084964 0.20523955 0.18508005 -0.21191742 -0.22562152 -0.015467251 0.29696745 -0.13715203 0.07754433 0.28331745 0.059666444 0.077245414 0.1859493 -0.2575428 -0.13504043 0.11844061 0.008588485 0.14578678 0.0530797 0.032947034 -0.12116129 0.19408816 0.12855743 -0.10435121 -0.080657504 0.08421108 -0.16023472 -0.011697469 0.005011845 0.07016053 0.0872024 0.094005026 0.2561728 0.19565319 -0.055636957 -0.08451966 0.040857784 -0.19437186 -0.004954214 0.26642376 -0.30166978 0.041921858
得 0.11453298 -0.56476694 0.24123682 -0.1338762 0.22285895 0.18462124 -0.25624347 0.22855426 0.20505083 0.12789492 -0.18234394 0.22019874 -0.012278558 0.024535138 -0.0666566 0.008157145 0.24367976 0.09223259 0.06903656 0.100082755 -0.11896323 -0.02571288 -0.13749208 0.21520756 -0.10588545 -0.26724818 0.13915737 -0.10416539 0.00541935 0.14284618 0.10928978 0.03974486 -0.12560113 0.017584916 0.1815545 -0.20806995 0.21789818 0.031518385 0.12138339 -0.18910342 0.10755222 0.012161105 -0.19464849 -0.20989458 -0.093529485 0.067931116 0.013356551 -0.10468794 0.08478868 0.094327286 0.09409704 -0.08558214 0.14558807 -0.09769667 -0.10502166 0.069007896 0.20245358 -0.053847402 -0.13921341 -0.10752516 0.09872114 0.07186729 -0.02586074 -0.025882602 -0.17007408 0.02378824 -0.115203075 0.1608979 -0.17799309 0.118086025 0.12167276 0.0626935 0.19583243 -0.1557544 0.14880513 0.24818143 0.25198653 -0.28679246 0.10525986 -0.06092871 0.18642455 0.33664402 -0.08927097 -0.15173864 0.0005277711 -0.0698527 0.025256092 -0.0021390296 0.10186887 0.07519668 -0.07654694 0.0013625249 -0.21863474 0.103881456 0.19372647 -0.1509245 0.0763375 0.10913203 0.17757274 0.07338701
所 -0.021528136 -0.5283354 -0.02302936 0.056201354 0.058974862 -0.024597712 -0.12634999 0.086143814 0.0829191 0.022022564 0.00647817 0.11970197 0.25031784 0.04892295 -0.0889111 -0.067844085 0.0067185857 0.23944513 -0.20683768 -0.17432216 0.09722703 0.10781403 -0.07211284 -0.33514115 0.16464424 -0.16232802 -0.04746103 0.08274247 -0.2809331 -0.13661095 0.038369145 0.017600507 0.06383202 0.19800301 -0.006967062 -0.005218869 0.23535576 0.024812466 0.11838363 0.08299657 -0.004312604 -0.12578182 -0.13782983 -0.0068368926 -0.39006448 -0.14169759 0.09217252 -0.02323251 -0.0149331875 0.027034774 -0.105707705 -0.11134505 0.052403018 -0.0044517647 -0.13899195 0.057691373 -0.13282372 -0.009348309 -0.079086 0.07431759 -0.0023779606 -0.27326652 -0.31744024 -0.09757027 0.12516005 -0.19445355 0.19748467 0.094433084 0.373831 -0.060645472 -0.2444046 -0.040356435 -0.1351672 0.05870951 0.20221275 -0.039266884 -0.023866307 -0.3551842 0.19577968 0.08628624 0.19325438 0.1742506 -0.09737408 0.1704196 -0.089126915 -0.052948035 0.112069346 -0.05923914 0.021877518 -0.03666636 0.14422505 -0.11018546 0.048828717 -0.1949243 -0.07033308 0.07169483 0.15945418 0.10006145 0.12804027 -0.09740643
民 -0.07612858 -0.5000562 0.22061372 -0.1879736 -0.0990733 -0.11046577 -0.0769903 -0.10775007 0.22438888 0.08451547 -0.11144993 0.04671172 0.03919701 -0.20492889 0.027369685 0.07642513 0.013645344 0.16448453 0.026967265 0.024064645 0.10463893 0.2798103 -0.06894859 -0.11623394 0.030636914 0.11060783 -0.15704316 -0.111850716 0.042626366 0.039106186 0.14283705 0.0010145195 0.036915954 0.11300416 0.04249925 0.02253349 0.15729053 -0.13295126 0.101587415 -0.30648616 0.2315311 0.13707317 -0.011507968 -0.052325033 -0.2093955 -0.1584377 -0.04791474 -0.19566724 -0.06639258 0.14569464 -0.10016095 -0.1500249 0.016368993 -0.08139795 0.107536666 -0.33300412 0.107844144 -0.18117638 -0.3291896 0.042413287 -0.1283199 0.25341702 -0.15158662 -0.14341857 0.035951532 -0.21052484 -0.08558473 0.17016463 0.016594652 0.15061603 -0.010899812 0.19863206 0.07966187 -0.044805393 -0.09029235 -0.25753033 0.19049625 -0.16495964 0.118501194 0.09017429 0.065936856 0.0047524646 0.056298513 -0.07721016 -0.027241006 -0.13996522 0.051615484 0.17807007 -0.17483987 0.07825109 0.26845658 -0.21052659 0.1469835 -0.14992467 -0.1218354 -0.089890026 -0.09768818 0.1417211 -0.10356618 -0.000496928
小 0.12391692 -0.547969 0.10534037 0.28277346 0.16464534 -0.19582492 -0.05908583 0.12534316 0.048246183 0.032267857 -0.09841313 0.13082519 -0.1387604 -0.26559338 0.14022514 0.3354421 0.11556171 0.077417605 -0.06776315 -0.04994012 0.06346299 -0.15160452 0.06654986 0.15542771 0.013870641 -0.08580964 0.22965962 0.013579371 0.050872825 0.12896544 0.2226854 -0.100889064 -0.36361334 0.049270242 -0.22492532 -0.082496434 -0.017317515 0.06437269 0.1922623 -0.15145308 -0.11394474 0.07272755 0.14563335 -0.11918141 -0.018581878 0.11905433 0.08074073 0.12666763 -0.1822085 0.10045624 -0.041993838 0.16153781 0.035554655 0.05452151 -0.2763331 0.020539138 -0.04067299 0.052189823 -0.066277415 -0.35430583 0.03225199 0.0681573 0.1987785 -0.17300393 -0.018160552 0.10156455 0.19695888 0.13387464 0.14317097 -0.08605203 0.20250744 -0.0038130372 0.09702283 0.20537713 0.1268268 0.05574128 -0.16863072 0.16133904 -0.054060183 -0.12876329 0.036066227 0.008917605 0.1047756 0.21497022 -0.06540562 0.017348593 -0.07264626 -0.07357116 -0.01884316 0.1132223 0.085016035 -0.02639056 -0.09496884 -0.15706865 -0.06814889 -0.066708855 0.0038755694 0.035454728 0.27521566 0.05848446
天 -0.2007612 -0.5413452 0.13663866 -0.24896067 0.23006131 -0.038695943 -0.102026485 -0.2418609 0.091005586 0.16787001 -0.0904926 0.072342485 -0.0025438413 0.001040542 0.09382021 0.118633926 0.16115727 0.24696738 -0.19538943 -0.0007457151 0.21525387 -0.16421032 -0.22848839 -0.13747713 0.48824227 -0.17592628 -0.230497 -0.10900009 0.009233297 -0.10318038 -0.23876257 0.010923464 0.05061435 0.34645045 0.07252152 -0.12331415 0.045333818 -0.25465244 0.02083702 -0.5488863 -0.22042875 -0.01328428 0.38327926 0.23597343 0.09821838 0.13169937 0.13992943 -0.2445925 0.19366737 0.011842888 -0.15303849 -0.23303124 -0.17035446 0.09557791 -0.08215679 0.18293886 0.20898631 -0.2449198 -0.36216396 -0.22833952 0.018543703 0.07089173 0.0737246 0.052302368 -0.00065400265 -0.0105524305 -0.06229091 0.017608425 -0.0881473 0.017943023 -0.17240691 0.12776633 -0.2035703 -0.053149763 0.29016188 -0.21600427 -0.101411395 -0.04419969 -0.21035998 0.12169105 0.101695925 0.022886936 -0.11126432 0.109864324 -0.31505722 0.3135708 0.32173917 -0.14392668 0.20723791 0.14280993 0.17730385 0.2245827 0.23450316 -0.1593065 0.0035248357 -0.27766356 0.026302498 0.2607086 -0.23097953 -0.3120774
乐 -0.17011002 -0.63213754 -0.33030483 -0.0061925612 -0.15456976 0.1256332 -0.0086097615 -0.037089795 -0.19764553 -0.18161711 -0.09839648 0.055173807 -0.04339423 0.10970693 0.23605618 0.0048749773 0.22137897 0.06479927 -0.12013465 0.08622248 -0.03606536 -0.18151882 -0.1372113 -0.093844354 -0.046371087 0.14982848 -0.05521562 -0.38393763 0.024193749 0.06274036 0.0029344875 -0.39351642 0.054758996 -0.0959287 -0.13455571 0.1447823 0.17004691 0.18508238 0.20040402 0.15723981 -0.0789767 0.038398303 0.28405094 0.17749524 0.04959855 -0.093323894 0.36250415 -0.26567134 -0.12159753 0.3102412 -0.050595827 0.22502193 -0.11812371 -0.18018682 0.031775497 -0.107509255 0.23658869 0.0110988915 0.11787456 0.08159253 0.22652313 0.12929074 0.07858819 0.25062516 0.046706963 0.29295462 -0.35573718 0.033264298 0.034758896 0.08765597 -0.06390263 0.2503907 -0.15341493 -0.3391916 0.25620878 -0.004727086 0.15121937 -0.23117986 0.07686024 -0.27767855 0.06435295 -0.16180983 -0.10118126 0.020160561 -0.018101957 0.15211293 0.089908645 0.025750395 -0.34394965 -0.09115903 -0.29364556 0.17387696 0.13502595 0.39704773 0.05023219 -0.02742995 0.32942894 0.051441234 -0.4013861 0.13336007
邦 -0.3291997 -0.61160415 0.20226385 -0.008647423 0.04157818 -0.11962167 -0.1706673 -0.11125316 -0.05370861 0.129024 0.080376 -0.13165984 0.02823189 -0.11210698 -0.014469082 -0.14233766 0.08411896 -0.094737984 0.1420436 -0.12324138 0.17037725 0.005568986 0.12795442 0.12836716 0.013599763 0.08981432 -0.18017463 -0.2248359 -0.010066588 0.17987576 0.16935667 -0.10442044 -0.06756907 0.12363563 -0.14875886 -0.08183722 0.19853336 0.064025395 0.12924115 0.0852576 0.12062327 0.048538513 0.059783727 0.107995346 0.081103034 0.038426224 0.0050273007 0.27710116 0.13540281 0.15632577 -0.082992874 -0.18019302 0.24895027 -0.039450824 0.06627602 0.21264488 0.13680558 -0.02126492 0.23531924 -0.056717027 -0.0058144997 -0.2316917 0.32579562 0.14220035 -0.19312999 -0.12791921 0.29916963 0.19186608 -0.051230077 -0.086991996 0.032046758 0.18680808 -0.3270408 -0.280766 -0.30869234 0.18517667 0.046338953 0.1436119 -0.16442868 0.18269747 0.2682427 -0.0417241 -0.018435761 -0.22935434 -0.32018366 0.07590869 0.044327818 0.2528122 -0.14565103 0.079512835 -0.0314074 0.2740087 -0.006236258 -0.029031046 0.15785344 0.19838463 0.21096873 0.11786911 0.31706843 0.12632509
亦 -0.1626376 -0.52313054 0.03178915 0.041124374 -0.2404157 0.08117788 -0.19934453 -0.43163383 0.1190959 -0.09678676 -0.2070797 -0.14535396 0.11316811 0.02569251 0.13409267 0.22263741 0.32913253 0.17830361 0.17442235 -0.013905223 0.1439465 -0.09195248 0.17274016 -0.12402067 -0.05316849 0.31699923 -0.28729168 -0.09440012 -0.08780036 0.06866453 0.39586416 -0.12218043 -0.05821246 0.24462722 0.19626448 0.03731757 0.02108287 -0.015136334 -0.03669682 -0.24612868 -0.09643652 0.081949264 -0.10732892 -0.28035435 -0.18685867 -0.03931033 -0.011358782 0.337807 0.09314193 0.052843086 0.29313633 0.26102847 -0.1180023 0.14385523 0.069871865 -0.13331953 0.10944067 -0.04993634 -0.23140374 -0.09138872 -0.06346627 0.15259679 0.11871915 -0.036160097 0.12441847 0.10397364 0.06462417 -0.05583854 -0.15198661 0.08425176 -0.082970314 -0.31764233 -0.40535328 0.21093425 -0.008413547 -0.27291974 0.07298405 -0.046487946 0.07126518 0.07528351 0.22320157 -0.04207065 0.34073946 -0.010613878 -0.18284406 0.03087193 -0.05705514 0.048039157 -0.093175806 -0.14476307 0.055318717 0.035970695 0.04722767 -0.1892481 0.156233 0.094435506 0.30543637 -0.027595457 -0.049070723 -0.102747925
使 -0.14763027 -0.5144452 -0.09760437 -0.15222317 0.04577745 -0.18501987 -0.15005061 -0.4042274 -0.059828628 -0.08972737 0.026303785 -0.07580916 -0.12419249 -0.304799 0.0005796156 -0.027840298 0.21958834 -0.015079797 -0.03141338 0.11597658 0.016407592 -0.14453816 0.020636138 0.08288687 -0.015489796 0.19275233 0.1057844 -0.040026657 0.17034067 -0.102764376 0.124474086 -0.0070666573 -0.27815843 -0.12595437 -0.047610886 -0.22632964 -0.21413456 -0.023565557 0.10760889 0.07439043 -0.3698069 -0.13996832 -0.16903596 -0.120626114 -0.034717206 0.08000435 0.105319075 0.038257007 0.16231081 -0.34632772 -0.050407127 -0.12534398 -0.056873567 -0.11433498 -0.4363406 -0.1353426 -0.2605305 -0.14253764 0.14044315 -0.12905903 -0.14513852 -0.044096377 -0.1596331 -0.17916983 -0.14780514 -0.21290681 0.114718996 -0.05122219 -0.42267573 -0.18377458 -0.06737837 0.12165653 0.051386256 0.039621122 -0.14205553 0.097874016 -0.14105096 -0.11022217 0.087729596 -0.13412619 -0.001797958 0.009192429 0.09182358 0.06378475 -0.17934199 -0.08492748 0.2757203 -0.094264776 -0.00020631962 -0.07606854 0.09719497 0.18673326 0.23651434 -0.064356044 -0.017489903 0.085753076 -0.0141153755 -0.13212022 0.019644279 -0.13621649
大 0.10617941 -0.5496612 0.20088895 0.09068217 -0.14873233 -0.029589824 -0.50168824 -0.089737415 0.0035346933 0.14568935 -0.23328507 0.015061539 -0.047575317 -0.2059665 -0.13711706 0.15220754 0.10125975 0.15167712 0.18317339 -0.19292173 -0.010390609 0.080666184 0.038628343 -0.038986262 0.0020363815 0.12777199 -0.052235268 0.071854234 0.011532247 -0.15215212 0.06167911 0.19273882 0.31893107 0.21331884 0.051053546 -0.11900509 -0.081632525 0.40012333 0.20654911 -0.2521854 0.12723832 -0.096024565 0.13989241 -0.022339005 0.11000793 -0.05798454 0.111623794 0.13689485 0.09731454 0.15230446 0.08615913 -0.06189148 -0.22434738 0.050647262 -0.06277835 -0.23512645 -0.0038882643 0.12453715 -0.15731671 -0.17149182 -0.010369579 0.05726094 0.33971635 0.17078967 -0.08218233 0.34520853 0.1416234 -0.14142433 -0.019579956 -0.0879432 0.12163843 0.026010491 0.14335887 0.11061155 0.048996698 0.14689334 0.0014174655 0.033052996 -0.115342505 -0.09806007 -0.019074712 -0.3083795 -0.031908616 0.2571912 0.067932576 -0.040963735 -0.11870247 0.10789475 0.075866565 0.07504349 0.10082528 0.090746045 0.07623418 -0.001941666 -0.1061064 -0.10574396 -0.026732154 0.013470683 0.15791155 0.2627305
下 -0.11222478 -0.6657856 -0.07447653 0.04495169 -0.014158646 0.044375967 -0.0033668373 0.102007754 -0.0675502 0.20707628 -0.18220429 0.029460693 -0.028882138 0.20345928 -0.15657239 0.31717417 0.34036654 0.18844333 -0.15389791 -0.16081823 0.04322691 0.029448718 -0.17398047 -0.12987722 0.35674763 0.026104186 -0.33706787 0.009953976 -0.14795952 -0.044964448 -0.43476182 -0.11960571 -0.14662755 0.09092418 -0.02260755 0.07987527 -0.27376834 -0.16619396 0.34196076 -0.2563113 -0.052363705 0.1619222 -0.10075804 0.25801444 -0.07052419 -0.24981362 -0.1507175 -0.113168225 0.027549064 -0.11580655 -0.12016844 -0.19823323 0.020985946 0.334072 -0.11735036 -0.13315158 0.007749958 -0.24956116 -0.024845008 0.06646769 -0.120764315 0.19482198 0.10625926 0.01562032 0.109376684 -0.18418968 0.030329479 0.22159629 -0.06443881 0.08908929 -0.20819081 -0.0239821 -0.15300784 -0.25957945 0.115451954 -0.21406925 0.18110375 -0.035113487 -0.26698846 -0.04126015 -0.057343096 0.009529475 -0.086911954 -0.18239026 -0.23801391 0.19114332 0.20517974 -0.11634483 -0.0752472 0.16900603 0.1423289 -0.0050720517 0.046674136 -0.14314152 -0.007977305 -0.3598294 -0.04982216 0.16544124 -0.062998146 -0.116226405
贡 -0.08423324 -0.6082669 -0.24131882 0.14904399 -0.07245506 -0.24448396 0.18217906 0.01986277 -0.0622926 0.06432998 -0.08317375 -0.27546057 0.24750005 0.16723053 -0.22742978 -0.17976099 -0.06601862 -0.08715749 -0.08568707 -0.2900344 -0.35119414 -0.015389975 -0.030290965 0.17088543 -0.065237805 0.021563658 0.18199709 0.013279192 -0.06766312 -0.11894247 0.2948344 -0.15721549 0.24674468 0.07810758 -0.4216776 -0.04403701 0.13888781 0.09591906 0.025845407 -0.09958351 0.060002837 -0.14012723 0.2493406 0.23447768 -0.0033618927 -0.1556224 -0.00065461826 0.13023102 0.31721607 -0.16984674 -0.0133924745 0.17507398 0.050631143 0.031075658 -0.07745306 -0.25700408 -0.06362643 -0.09877556 -0.093754664 -0.21516702 0.039996058 0.0643498 0.09456931 -0.14466876 0.23448393 -0.12675336 -0.04014195 -0.23007308 -0.0061373115 -0.2063574 -0.11894651 0.103611924 0.09293435 0.057220344 0.13269462 0.028313186 -0.0050800443 -0.20222464 -0.029184522 0.19452465 0.067860566 0.074569464 -0.12904714 -0.13218552 0.059975214 0.04314967 0.14897838 -0.092781566 -0.09394837 -0.21954082 0.04274126 0.01950893 -0.13304698 -0.163106 -0.17704572 -0.16756842 0.26336658 0.05430107 -0.10358163 0.2432555
欲 0.19212237 -0.51691407 0.039281122 0.112813525 0.038741127 -0.007195965 -0.12576771 -0.1983677 0.04878633 -0.09857682 -0.4227206 0.06917276 -0.21742338 0.064238735 0.10250511 0.08879998 0.19781852 -0.016730487 0.29693252 0.007741766 -0.042975243 0.10986161 -0.116581425 0.16273516 0.27148053 -0.061034717 -0.0395354 0.004421349 0.02557217 -0.073023476 0.040207062 -0.01623498 -0.22575715 0.15639904 -0.14863288 0.27458248 -0.10572757 0.03203179 0.25478274 -0.19545747 -0.17157292 -0.1708053 -0.015259338 -0.17631532 -0.0020951638 0.100657515 0.016763462 0.250672 0.061770007 0.25318158 -0.04015088 -0.014870873 0.103613175 -0.13161156 0.011057302 -0.20337743 -0.15838549 0.26295373 -0.13618985 0.027620636 -0.06878859 0.035697304 -0.13930786 0.0305699 -0.042267643 -0.2029462 -0.112892754 -0.09288174 -0.062178697 0.042896315 -0.12477863 0.092142574 0.1112701 0.1841205 -0.12790447 0.28013653 -0.03376632 -0.0076695504 0.23397681 0.19054535 0.086101845 -0.17417191 -0.052178394 -0.23194978 0.08819229 0.10787644 0.3261202 -0.09314203 0.10224789 0.3948249 0.14378357 0.18969935 -0.16018239 -0.08038461 -0.019205088 -0.029183416 0.056913666 -0.19439276 0.1278665 -0.033387836
诸 -0.07346071 -0.55384684 0.31675816 0.15724066 0.0459003 -0.1837742 -0.07796451 0.07420906 0.12866843 0.010149515 -0.02070608 -0.033059474 0.0038549555 0.1509914 -0.19962668 0.19053857 0.12630129 -0.027932905 0.16375363 0.044385925 -0.06309005 0.11222079 -0.15261142 0.03632832 -0.13236393 0.13968925 0.13546297 0.037503645 0.020847453 0.26394498 -0.046255484 -0.045353062 -0.019440087 -0.35614234 -0.010977191 -0.099501975 -0.18773545 -0.08103776 0.0065156743 -0.1671252 -0.15928845 0.1482639 0.08759867 -0.30451283 -0.13592143 0.18328865 0.11116891 -0.0150396135 0.08168623 -0.1728544 -0.09030845 0.10795255 -0.02564409 -0.039127294 0.010073911 0.078246504 0.050519776 0.10818811 0.0001831511 -0.08517913 0.2324513 0.24914537 0.020250939 0.20760472 0.13517177 0.086075924 0.30635923 0.0036128848 -0.18030402 -0.080927335 -0.06928244 -0.1389246 -0.017625676 0.013887344 -0.28013885 0.15824334 -0.3218419 0.43873206 -0.012971242 0.09936198 -0.0030449387 0.003192358 -0.062768206 -0.17548262 -0.18972223 -0.075916134 0.060696382 0.105742455 -0.10570061 0.06511321 0.40406647 0.223074 0.32985207 0.13343263 0.19467393 0.1671463 0.3257884 -0.13986619 -0.05162858 0.5412028
从 0.25969926 -0.56661534 -0.0033962065 -0.26876342 -0.21225299 0.26212022 0.18979788 0.044651154 0.12012858 0.20431192 -0.093891844 -0.23111929 -0.07220662 0.079845436 0.08709374 0.02787538 0.22975136 0.04524694 0.03508805 0.18180293 -0.27309963 0.0043335278 0.008940324 -0.13339068 -0.04197798 0.03907388 -0.09063482 0.20673844 0.15740089 0.06696044 -0.07455776 -0.19324015 0.13597581 0.13727146 -0.04614056 0.18972906 -0.20561564 -0.36517113 -0.053035878 -0.08415815 0.07809019 0.3255252 -0.14952955 -0.0023235162 0.08693926 -0.010403166 -0.14658108 0.40942186 -0.15305454 -0.119786195 0.084698685 -0.36686125 -0.015918065 -0.0386545 0.06977016 -0.0007147016 -0.24253453 -0.18610774 0.15651463 -0.012612478 -0.11331892 -0.09355132 -0.15438865 0.17700927 0.2069439 -0.056309246 -0.1646724 0.16866656 0.050580613 0.019542024 0.18094033 0.044136144 0.0045008324 -0.08337634 0.04546632 -0.16983873 -0.054812487 0.21247819 -0.0006968798 -0.115477026 0.0015276484 0.15774445 -0.0008479231 -0.33629552 0.25398278 0.09510697 0.14321513 -0.25736517 0.07792089 0.042884786 0.112327576 0.12147308 0.15263045 0.15382192 0.027594453 0.04496708 0.10541002 0.05690605 0.102171324 0.016274134
文 -0.30134884 -0.5747028 -0.16981854 -0.048873566 -0.08032627 0.13860635 -0.43288627 -0.17438044 0.108906 -0.087231845 0.010693517 -0.10521534 -0.108325094 -0.032789532 -0.058304213 0.13846883 -0.09063444 0.0005055573 0.1181616 -0.11749869 -0.25180852 0.0074034007 -0.10942093 0.2916639 0.030963385 -0.2812683 0.17898628 0.008945038 0.113382414 -0.20170748 -0.18463036 -0.102841035 0.022157913 -0.2010316 -0.35687792 -0.13131292 -0.3047153 -0.17646281 -0.18159406 -0.073045805 0.014744494 -0.06436463 -0.18006589 -0.10214555 0.080095954 0.17413728 -0.012178923 -0.14007793 0.0897855 0.09449741 0.05160528 -0.005492896 -0.11293369 0.016589096 -0.0010387432 -0.16255921 0.006083326 -0.07954106 -0.07508248 -0.0032882753 0.024360055 0.010961112 0.2617739 -0.15073498 -0.03459398 0.21182595 0.09460144 -0.029948507 0.1151099 0.23709263 -0.33726132 0.031646114 0.025151126 0.12156269 -0.15324458 -0.24689266 0.02566899 0.06624239 -0.19660081 0.19893765 -0.16043633 -0.23731524 -0.058469236 0.020226195 0.1087587 -0.0066646305 -0.15276138 -0.023938293 -0.10933177 -0.16666466 -0.015163207 0.2784074 0.02508161 0.25973225 -0.05586433 0.09401131 -0.0555188 -0.15190406 0.1411251 -0.028380372
政 -0.14780058 -0.52147776 0.049082227 -0.034045145 -0.010056821 -0.1335067 -0.08186556 -0.031280506 -0.025508232 -0.027083803 -0.13039859 0.02852255 0.12123214 -0.10290346 0.024396924 -0.038227443 -0.11964746 -0.053338673 0.21098888 0.26025856 -0.10032718 0.021120967 0.094347306 0.0691378 -0.032112893 0.1633002 -0.033690482 -0.31647503 0.044818163 0.060115878 -0.22523376 0.060116127 -0.010961112 -0.02223957 -0.15036803 0.17362145 0.13055132 -0.015562037 -0.08342622 0.044696465 0.47532427 0.11364319 0.010962935 0.02753028 0.01890793 -0.16950902 0.026990917 -0.14993468 -0.26858523 0.034373336 -0.12243674 -0.13916147 -0.11454906 0.13055426 0.028897813 -0.0264181 0.13666402 0.02473227 0.11786022 -0.06272566 -0.010510698 0.011443562 -0.07731038 0.057656053 -0.07833678 -0.037492167 0.056031622 -0.06613545 -0.23531154 0.11515132 0.2033342 0.17263713 -0.051044237 -0.15780187 0.027814409 0.0880346 -0.14827788 0.0667923 0.06513825 -0.11453126 -0.08069286 -0.011314471 -0.14894237 -0.18034212 0.05365788 0.06778864 0.21352258 0.011141244 0.15093738 0.043934975 0.14828146 0.15682474 0.08329836 -0.13357958 0.047385383 -0.17465658 0.14136928 0.1934668 0.054731056 -0.12884802
食 -0.069253236 -0.5551104 0.13047025 -0.113235734 -0.19616325 -0.115497336 0.11258901 0.072847605 0.00093049044 0.17530085 0.13058807 -0.20807157 -0.073649116 0.054968584 -0.068240836 -0.31693876 0.047773737 0.13673842 0.19561227 -0.42027912 -0.15166311 0.50117564 -0.062017657 -0.02282821 0.4308048 0.11977691 -0.16973113 -0.075598195 -0.06259108 -0.037129298 -0.23296615 0.12661 -0.06267717 -0.11960699 0.15211712 -0.18156524 0.2272862 0.03181777 0.1283999 0.34271455 0.15506244 -0.23762113 -0.0055678235 0.0691398 -0.08226294 -0.01617083 -0.10994949 -0.051501058 -0.0749864 0.19538082 -0.023440123 -0.020718863 0.23149724 0.20541275 0.1233652 -0.051965654 0.09489478 0.12171588 0.05874957 -0.080342785 0.09116931 -0.2748484 -0.25318313 -0.101918146 0.04275463 0.083130874 0.050880097 0.020631718 -0.038093753 0.32984653 0.029408501 0.018283388 -0.057395965 -0.18297076 -0.15246859 -0.22659375 -0.02698346 0.2459481 0.30840796 0.08753097 0.07673918 0.0595458 0.07166365 0.1584983 0.00380379 0.15989207 0.13145193 -0.0132275615 -0.02053266 0.07709884 0.18498202 0.1424481 0.028069219 -0.20108733 -0.041419156 0.033604544 0.07086934 0.11431662 -0.27130583 0.014808018
善 0.23627624 -0.6894122 -0.33090997 0.05720072 0.030167881 0.05100252 -0.28113562 0.08578087 0.09801567 -0.1717275 0.062107895 0.3447538 -0.08015298 -0.14205982 0.3017709 0.0063187005 -0.047652088 0.08706029 0.19809632 -0.07791542 -0.053428132 0.05784454 0.023073688 -0.13638335 -0.15844254 -0.08200724 -0.1614326 0.21950214 0.111389294 0.2656246 -0.25141716 0.07320384 0.2402341 -0.019859321 0.09309681 -0.028330509 0.27790144 0.100068405 -0.19207099 0.18691048 -0.033202406 -0.17529497 0.39535564 -0.007942963 0.15064637 0.009744894 -0.13664463 -0.058583546 -0.0147948265 0.0492687 -0.04862275 -0.00033563288 -0.13235414 0.2933471 -0.057463598 0.008067381 0.087255105 -0.07967611 -0.0048469757 -0.49387312 0.12635386 -0.035823375 0.16595614 -0.12562202 0.22751388 -0.2380951 0.19755824 -0.025769887 -0.17971754 0.15501839 0.11657856 0.115886554 0.06459416 -0.0071998783 -0.29533675 -0.26457578 0.079528674 -0.16484328 0.07751789 0.14413954 -0.100548536 -0.31671464 -0.09866639 -0.02214305 0.33206895 0.11072554 0.0002077464 0.22899473 0.12804557 0.06931253 -0.285353 -0.21594852 -0.25714082 0.06980502 0.06558413 0.2958802 -0.024701605 -0.04927872 -0.26067322 0.21409203
后 -0.110918894 -0.49036205 0.055019937 -0.21804672 -0.024502607 0.08700206 0.1178916 -0.018912071 0.10934567 0.1674317 -0.10815575 0.24888776 -0.062084496 -0.15441816 0.10074028 0.25194183 0.020717006 -0.10987495 0.08030545 -0.03139309 -0.23616755 0.23015541 -0.15739498 -0.08392542 0.24405898 -0.15373977 0.028070297 0.14600672 -0.012892453 0.41436037 -0.060561597 0.16395761 0.11891095 -0.048411544 -0.28122097 0.033409372 -0.04307155 -0.12273628 -0.21799915 0.0227364 0.0017649559 -0.26873934 0.034526292 -0.12582052 0.31833264 -0.058792964 -0.096612304 -0.035066135 -0.095556065 0.15306179 -0.23256183 -0.05929566 0.07123842 0.28295293 -0.048852246 -0.28735945 -0.07907523 -0.064504474 0.0025073322 -0.18872747 0.061056715 -0.12332512 0.105675526 -0.07133707 0.05719874 0.27453765 0.06931715 0.10576653 -0.16753066 -0.051292058 -0.017003456 -0.11482716 0.103979856 0.031552516 -0.032411814 0.1707645 0.10696167 0.2455435 0.1629059 -0.0098204315 -0.07179612 0.2549959 -0.17261912 0.15891518 0.10997853 0.033785746 0.20850772 -0.3139392 0.13606113 -0.012091683 -0.013680673 -0.09590143 0.3521651 0.18255301 0.052458093 -0.16289864 -0.048648864 -0.08331129 -0.12024669 0.16214414
德 -0.10201937 -0.5993981 0.13955176 0.4692092 0.15830544 -0.27421686 -0.08925198 -0.04907036 0.25181612 0.308919 -0.027837304 -0.10725694 -0.07457637 -0.16001914 0.07016164 0.10810316 -0.10919717 -0.035621565 -0.12534134 -0.17364402 0.06923944 -0.11271449 -0.055835996 0.23212779 -0.0266622 -0.04466426 -0.07821538 0.17899185 -0.04609449 0.2900045 -0.020072218 0.05334408 -0.053640794 -0.064984694 0.013264005 0.016786668 -0.15094492 -0.017513484 0.16832457 0.041942205 0.022259537 -0.08070964 0.0808385 0.07306187 -0.1810654 -0.010769518 0.21469998 0.06613353 0.09820037 -0.4158901 0.043041896 -0.0015233099 0.088308856 -0.1122346 -0.15951179 0.09124148 0.045657445 -0.01629568 0.041490268 -0.023027614 0.028804751 -0.2511049 0.021712381 0.16266386 0.1657656 -0.18031332 0.15020907 0.12666607 -0.12812746 0.22088443 0.074717835 0.23819585 0.05733898 -0.111151814 0.104572274 0.18078043 -0.08724646 -0.26211584 -0.19060673 -0.022787962 -0.0218722 -0.20623761 0.207597 -0.026478002 -0.17100333 -0.12266835 0.031778086 0.15251148 -0.02549908 0.29574245 -0.04753175 -0.00011627423 0.047368914 0.01588265 0.08664887 0.028209453 -0.25585604 -0.24387644 0.2065359 -0.06664111
求 -0.0031826769 -0.56651336 -0.07465388 -0.13664676 -0.21760139 -0.102601975 0.080020696 -0.092538655 0.01494005 0.07474729 0.24835694 -0.013650753 -0.006645155 -0.1801029 -0.14670835 -0.05121889 0.011790404 0.109167725 0.25054437 0.19757271 0.053944312 -0.15266445 -0.11134282 0.06442794 0.111307636 0.13186496 -0.24118526 0.09254097 -0.061440025 0.054198865 0.3846 0.010672538 -0.111875005 0.006179073 -0.07907429 -0.19020866 -0.1366532 0.17697074 0.08899701 0.025843775 -0.025793351 -0.15795858 0.011034161 0.07058256 0.094742745 0.18866047 0.24157512 -0.16279827 -0.028893447 -0.024594406 0.20389335 -0.02264288 0.2402531 0.0043778555 0.08580545 0.019323371 0.07778892 -0.030648885 -0.107320204 0.12819394 0.4068839 -0.0493926 -0.09880251 0.11333479 0.12521958 0.16086271 0.065032005 -0.14842726 -0.21981949 -0.0940092 0.0786186 0.14331153 0.0340067 -0.01429699 -0.09272823 0.04025492 0.23275256 0.055451043 -0.24972092 -0.20308945 -0.09608284 0.11432331 0.066098705 0.00091429055 0.2721534 0.12944792 -0.22810082 0.10324715 0.35692087 -0.07273559 0.12867974 0.121441774 0.14021958 -0.009929935 -0.06346897 0.26508904 0.08706353 -0.06425031 -0.08195594 0.043837253
对 0.02140757 -0.5975516 -0.15202041 -0.012981831 0.07854024 0.25787076 0.03180697 -0.029361956 -0.10178367 -0.1763807 -0.22146603 -0.37323397 -0.10383439 -0.14081599 -0.07898951 -0.20979522 0.50512064 0.017144196 0.223248 0.06768014 0.007828148 -0.03721541 0.19629662 0.19027093 -0.084490605 -0.11021805 -0.10305775 0.08046194 -0.027670138 0.002518319 -0.06795654 -0.17182627 -0.13775396 -0.43265077 -0.037600975 0.18811743 0.06567837 -0.16678467 -0.14318919 -0.024542037 -0.07564384 0.0128143085 0.15581329 0.009129125 -0.3682482 0.25061512 -0.11971017 0.31171608 -0.107565545 0.059048202 0.061577722 0.14134489 0.119653285 0.15403889 -0.057620402 0.19842295 -0.08419279 -0.18908618 0.17550431 0.30106148 -0.1662351 0.13459828 0.17033562 -0.04921619 0.47696754 0.0015070578 0.009943531 0.035256967 0.0020695203 -0.11561067 0.06408997 -0.31418768 -0.08803434 -0.070246086 -0.13623732 0.042071924 -0.24159952 0.0996407 -0.069403216 0.07897277 0.054770533 -0.069377355 0.0036911564 0.26612967 -0.17764573 -0.12537177 0.30087882 -0.13678825 0.34190202 -0.10347877 -0.16438143 -0.06762445 -0.039414532 0.00043070503 -0.08554933 -0.05129441 0.15948091 0.03299988 -0.06699349 -0.108679354
恶 -0.027389865 -0.47158945 0.022282444 0.015845722 -0.0052775936 -0.108206406 -0.0591358 0.037599593 -0.14649904 -0.14666927 -0.33916712 0.23183149 0.08885363 -0.04518348 0.0068564564 0.1270093 0.064988196 0.09372486 0.058301695 0.027905025 0.21739244 -0.069621414 0.07600455 -0.18983802 0.11697312 0.03817651 -0.021751639 0.015460792 -0.13124903 0.3240223 -0.0059534125 -0.27961838 0.034397807 0.28892916 -0.090526834 0.27784768 -0.21117578 0.06601447 -0.060414173 -0.17655727 0.0842827 -0.04595124 0.07126622 0.30247068 0.01354561 -0.049328882 -0.114794545 -0.120712765 0.07751937 0.074511394 -0.14603026 0.022806859 -0.13103864 -0.11884757 -0.36669323 -0.27198568 0.025938705 -0.09593673 -0.10519391 -0.28853193 0.1632051 -0.048897207 0.2556399 -0.058336508 0.19970399 0.17139985 0.058977358 0.07048949 -0.0628218 -0.16263387 -0.17018817 0.1918024 0.027943742 -0.15129885 0.033652056 -0.070328645 0.034744967 -0.08372981 -0.059659682 0.08853381 -0.16709764 0.14991786 -0.072300985 -0.26451197 -0.1491198 0.4569467 -0.1066893 0.057595946 0.021919392 -0.022607334 0.23233011 0.0676423 0.09287636 -0.104243495 -0.0064285286 -0.15679172 -0.04836668 0.25577635 -0.15034413 -0.04013167
信 0.043127917 -0.5851426 -0.07020946 0.15571228 0.037747946 -0.075635165 -0.02654252 0.075979725 0.2991434 0.15833308 -0.23478292 0.2032913 -0.09641241 -0.19006799 0.28888863 0.010007954 -0.0012440137 0.06176644 -0.010506892 0.23584528 0.11928053 0.42613858 -0.046332587 -0.059169456 0.13726713 -0.09680161 -0.042346913 0.13375002 0.020787241 0.3212748 0.080879256 -0.04064358 -0.0035975738 -0.26656428 -0.04222908 -0.35386145 -0.05880616 0.083209515 -0.055714346 -0.08820512 0.09328934 -0.22070706 -0.12121181 -0.12652479 -0.15103915 -0.198232 0.093727894 0.06581388 -0.09449931 -0.036204144 -0.041018866 0.1480605 0.32885334 -0.14972761 0.34039393 -0.14429882 -0.1328683 -0.30684522 0.06821888 0.35957122 -0.04117326 -0.16446343 -0.013723102 0.030146837 -0.029140435 -0.047746163 0.05781651 0.18612306 -0.10102301 -0.090741076 0.15697363 0.07546788 0.17319046 -0.22458051 -0.15334927 -0.121742375 0.2096873 0.15593691 0.20198786 -0.120588765 -0.02283539 -0.12257459 0.034714766 -0.029272426 0.07084463 -0.015347222 -0.12852117 -0.21034907 -0.03320579 0.12255317 -0.13793921 -0.3101534 0.20215692 0.06617348 -0.0696912 0.09640376 -0.2138961 -0.00465127 -0.08985466 -0.13553213
死 0.21317665 -0.51999575 0.20444618 0.05561794 -0.16840708 -0.10991516 -0.08772458 -0.08670767 -0.0362608 0.08738616 -0.098925725 -0.04256986 -0.09660257 -0.14594854 0.059703138 -0.1154579 0.029612754 0.11012384 -0.11760362 0.025708659 0.07037722 0.2210868 -0.17661262 -0.14645751 -0.027391009 -0.18236361 0.022742089 0.2262964 0.1755789 0.10025992 0.09297528 0.15734032 -0.023198677 -0.09959957 0.22390632 0.31741825 -0.10811437 -0.076338716 0.1524916 0.12370441 -0.121434115 -0.12239001 -0.27727982 0.17753795 0.027338434 0.03508432 -0.37941298 -0.18283296 0.24502428 -0.023762532 0.011032012 -0.26864356 0.17264794 0.22654726 0.21442488 -0.26768824 0.041303277 -0.2420914 0.073516294 -0.10911947 0.15911664 0.010180352 0.008788567 -0.20719023 -0.033735614 -0.10545072 0.21996674 -0.046626046 0.0045692334 0.034241714 -0.17254467 -0.17303546 0.10275257 0.0094403215 0.25358278 -0.018937722 0.12746148 -0.06535783 0.26551378 0.29465878 0.005879473 0.09558012 0.1376442 0.07129553 0.041271493 0.20874478 -0.063920744 -0.09248605 -0.03433649 0.17351185 0.104949065 -0.28142253 0.018340087 -0.057772048 0.20999137 0.2421187 -0.05445552 0.07607306 0.07194589 0.05908427
然 0.09041935 -0.5652189 0.10065682 -0.04891116 -0.15013546 0.08521323 0.24000335 -0.033143714 0.1397978 -0.032255016 -0.1267206 0.053706266 -0.088177875 -0.11186453 -0.019851698 0.1666734 0.1217376 -0.093906686 -0.025766697 -0.06468348 -0.0633203 -0.20169401 0.11076326 -0.006284531 0.2084753 -0.15105517 0.018583927 0.18417388 0.013933088 0.18544254 0.023991117 0.009736452 -0.40220007 0.034222864 -0.057109263 0.06907883 -0.015367666 -0.026300672 -0.17060167 -0.22848691 0.015864177 0.13094027 -0.09549537 0.14587614 0.0035243742 -0.061185043 0.03673939 -0.22115645 -0.057153545 -0.011456316 0.25687847 0.13940246 0.044971615 -0.0073543666 -0.05598223 0.07715989 -0.026444076 -0.0116841355 -0.11787997 0.19090888 -0.193563 -0.106967 -0.38312277 0.0063751806 0.0009909738 -0.017992795 0.0372681 -0.16730593 -0.050768066 -0.018168058 -0.060603816 -0.029384743 -0.037693776 -0.24740554 -0.09298733 0.15812622 0.12924537 0.08635845 0.102607 -0.024020623 0.108393 0.16565579 -0.22289237 0.21144709 -0.24667469 0.011450552 0.13112922 -0.25095898 0.05431476 -0.15189812 -0.06547371 -0.20529646 0.0049223304 0.11578579 -0.10939185 -0.18321507 -0.3665576 0.20734483 -0.44573733 -0.105052784
