1352 100
， 0.14942391 -0.03912364 0.19892268 0.17552687 0.4139625 -0.28587395 -0.21052673 -0.195406 0.060821395 0.24895594 -0.4562592 0.06415323 0.1766161 0.24307914 -0.26688063 0.48577008 -0.08532917 -0.26902544 0.26808387 -0.038033564 0.1285834 -0.40730992 0.05620146 -0.032607652 -0.43268377 -0.062375348 -0.90395623 -0.3327667 0.18885858 0.0661363 -0.01717185 0.59471816 -0.238901 0.3719414 -0.010469422 -0.15447605 -0.004802075 -0.15741958 0.12467879 -0.14725293 -0.07707183 -0.2994661 -0.36351648 0.35050344 0.006074712 0.06920318 -0.17140403 -0.27914843 -0.09133286 0.10218666 0.96960944 0.08763209 -0.47720584 -0.19643539 -0.30846068 0.03639533 0.11573153 -0.45211118 -0.04689064 0.01813172 0.4984736 -0.59822637 -0.014806902 0.36195758 -0.0706464 -0.036562037 -0.14717884 0.0061807735 0.21715356 0.7993373 -0.09187971 -0.5286161 -0.40248993 0.5586055 0.016613726 0.17712292 -0.034654357 0.28431574 -0.23753764 0.050711107 0.060061067 0.3583719 0.1990263 0.24877004 -0.42619088 0.023514666 0.10895729 0.16067135 0.27891737 0.12771875 0.12548414 0.18139426 0.16663598 0.088233754 0.18638535 0.46911794 0.21851516 0.054957468 -0.11698105 0.24560586
子 -0.05659369 0.10698524 0.05630003 -0.37333044 0.113379866 0.24694742 -0.024351304 -0.20918643 -0.04547824 -0.03180252 0.061467648 0.44434685 0.011790635 0.06533529 0.01784353 0.011984046 -0.17633376 0.21710007 0.0037915464 -0.07878198 -0.014357941 0.6312007 0.073852405 0.15233886 -0.21708398 -0.11162777 0.3903519 0.288466 -0.1628243 0.044067133 -0.31041417 -0.35713938 0.039895505 0.12704948 -0.10035232 0.036410157 -0.015842237 -0.14601074 0.16461606 0.07118251 -0.060017902 -0.22365546 0.0099227 0.10207009 0.04634307 0.040789552 -0.28147998 0.072888814 0.21780875 -0.2425795 1.6104234 0.13370055 -0.0768543 0.07303418 -0.22425613 -0.30541158 -0.44922176 -0.019989952 -0.08654636 -0.16383402 0.56136197 -0.10202682 -0.18648435 0.021282317 0.17696264 0.38864103 -0.16264573 0.19981073 -0.07166425 -0.06423966 -0.20222215 0.11297154 -0.100632936 0.08409431 0.03484642 0.05581231 -0.03427295 -0.2457638 -0.1025327 0.13936844 0.31495255 0.011265099 0.065692455 0.16238794 0.029976826 -0.10186361 -0.028596599 -0.24311337 0.19638251 0.25267214 0.014137837 0.26030397 0.17672753 0.22653349 -0.32377616 -0.032316744 0.049037308 -0.08018577 0.115445934 -0.11450726
。 0.49783126 -0.16492511 -0.52979976 -0.03531955 -0.16269593 0.007881932 0.05026878 0.2715655 0.21247737 0.028331809 0.12689827 0.4018013 -0.3840432 -0.06514539 -0.10845938 -0.102746345 0.2157528 -0.37174702 -0.54493946 0.24538025 -0.3623824 0.09028111 0.46642584 -0.33994862 0.11089239 0.032316327 -0.08041177 0.013231167 0.37990943 -0.009371748 -0.044634514 -0.11081496 0.19306001 0.37626287 0.2733632 0.29639488 0.15838055 0.11137275 -0.07496753 -0.25014645 0.15339836 -0.3285048 -0.08466089 -0.28131366 -0.16306399 0.07156525 -0.042692445 0.43255958 -0.19727787 0.19333608 1.6676863 0.025900947 0.28518224 0.08234732 0.13403463 -0.11904489 0.19787554 -0.23848917 -0.32911995 0.10093495 -0.17343117 0.28064612 0.17800136 -0.15417118 -0.076145984 0.017718587 0.0022826688 0.043966003 0.41420123 -0.121472746 0.2785396 -0.23074268 0.07885605 0.29512227 -0.12662902 0.33060682 0.11166209 0.16346249 0.18683752 -0.14643335 -0.12506485 0.02667638 0.31046322 0.43220344 0.12758158 -0.28666246 0.40273297 0.43211952 0.2842024 0.030717023 -0.033852186 0.1676056 -0.12451109 -0.0814793 0.24828707 0.46384007 -0.111505345 0.18763408 -0.16797152 0.076586306
： -0.24963386 -0.17890112 0.019009218 -0.07245481 0.29666033 -0.5299458 0.25398788 0.44163913 0.060025766 -0.08064277 -0.40720612 0.20009544 0.086055905 -0.31068593 -0.03655241 -0.507594 0.016878236 0.0030319951 -0.038247455 -0.34150007 0.0018882789 0.0982903 0.06808739 0.35773104 -0.022581723 0.03796702 -0.2607318 -0.27481464 0.6832307 -0.17998706 -0.13139202 0.10385974 0.2591048 0.5474241 0.002151594 -0.04780225 0.22681665 0.1695259 -0.13444111 -0.3767429 0.23863049 -0.24287039 0.07698364 0.008275374 0.26059183 0.3410349 -0.20879556 -0.0111636985 0.030344294 -0.37836987 1.6368039 0.055383142 -0.050229862 0.058798596 0.010055818 0.009481372 -0.062152624 0.052488968 0.45220962 0.055854354 -0.062497213 0.1834498 -0.023934433 -0.073406674 0.12683408 -0.056151424 -0.15772319 0.21876499 -0.2752891 0.08274173 0.008918907 0.44815207 -0.11530255 -0.38188928 -0.25724053 0.09220492 0.1791186 0.02811704 -0.15215194 -0.44169307 -0.3410423 0.040736858 -0.241415 0.29993734 -0.3517561 0.2367313 -0.429714 -0.052307405 -0.15495665 0.14975624 0.22127785 -0.08899162 -0.16140215 0.003931232 0.13293584 0.28743348 -0.26657718 0.079425104 -0.20378621 0.17029384
曰 -0.48539656 0.07189883 0.2604124 -0.49767324 0.34701842 0.8287558 -0.16652727 -0.13426554 -0.20090617 0.11047806 -0.09626561 0.076218314 0.007115552 -0.034412112 -0.16034226 -0.5997765 0.13180721 0.009395436 0.081705764 0.094731495 -0.31079182 0.50013775 0.29747415 0.019397093 -0.44492885 0.09228906 0.09992718 0.1670972 0.05160464 0.111076 0.009004134 -0.074418105 0.030866083 -0.18947619 0.18492995 0.06419037 -0.09392304 0.048755616 -0.40315938 -0.09948311 0.4963692 -0.083335795 0.46531838 0.19630685 0.018854054 -0.10020416 -0.27889866 0.003942659 0.124643676 -0.17400968 1.6746154 0.015685435 -0.05186851 -0.01690132 0.075088315 -0.22895604 0.20738198 0.24868912 -0.1331427 0.008925806 0.695209 -0.51429695 -0.11923327 -0.0491434 -0.04960746 0.0038574361 0.048484772 -0.11382722 0.3172685 0.0013486377 -0.053075325 0.2628125 -0.13204007 0.13373262 -0.2483576 0.16944292 0.28577602 0.31932023 -0.31267124 0.030576577 0.06688621 0.25761247 -0.040166184 -0.4061906 -0.09453301 -0.21835445 0.4476609 -0.39443704 0.57855034 -0.241857 -0.07527179 0.102877475 0.4293203 0.18326536 0.15976551 -0.30378917 0.37143934 -0.026823666 -0.056055106 0.015217192
之 0.37288058 -0.35417825 0.07781325 -0.124149345 -0.2737124 0.25405782 0.0463513 0.10332902 0.14962241 0.1915443 -0.29321855 -0.1465602 -0.19538885 -0.4345995 0.5220039 -0.34534934 -0.031030724 -0.5470492 0.1334543 -0.1676474 -0.03304603 0.02035371 -0.13167393 0.11209385 -0.11364326 -0.029514309 -0.83923405 -0.11442793 -0.38748887 -0.39518878 -0.09110208 -0.20013009 -0.023971664 -0.065675534 -0.30881116 -0.023112603 0.31500804 -0.022563742 0.07775871 -0.428143 0.06827237 -0.26457757 -0.010615531 0.21331099 0.1686009 -0.24685928 0.04888634 -0.34912372 -0.004331341 0.09535835 0.618725 0.08766699 0.35403883 -0.29114944 0.27236176 0.04987038 0.06431221 -0.046001606 0.06675094 0.12683426 -0.2747221 -0.5878393 -0.07391649 0.23194368 0.20097293 -0.13321999 -0.0758829 0.09316016 0.31916133 0.33994663 0.06465615 -0.27539164 -0.4873012 -0.3633608 -0.014699494 -0.12143598 0.26993734 -0.046065643 0.069208324 0.3786414 0.0929891 -0.12236771 -0.018522792 0.14681162 0.16986051 0.20072284 -0.20208272 0.31642565 -0.051409505 -0.11385383 0.2872254 -0.10234681 0.3810908 -0.4716428 -0.25538507 0.0007513012 0.08306622 -0.2013184 -0.14804986 0.06705808
不 -0.20878147 -0.20599343 0.23914947 0.21698187 0.37767747 0.27403784 0.21706162 0.14428279 -0.019175153 0.23697226 -0.061916187 -0.47065496 -0.014833605 -0.11595956 -0.10760194 0.15872976 0.026765818 -0.3128872 -0.26715904 0.15498462 -0.44813722 -0.07270397 0.44451696 -0.11791356 -0.2718437 0.35328558 -1.275442 -0.17803156 0.14485866 0.1388124 -0.0068931663 0.0116426125 -0.21623817 0.049840465 -0.14618398 -0.1631423 0.032211434 -0.59206724 -0.1192338 0.17194176 0.2686074 -0.21065584 0.14357603 -0.053963933 -0.04076299 0.10560422 0.13541368 -0.15603599 -0.35585615 0.70934963 0.30814582 0.15611055 0.30610767 -0.19847295 -0.029956011 -0.17188963 -0.05774695 -0.16944 -0.23851766 0.2727566 0.22223024 0.12159937 -0.25919092 -0.13320296 0.1462189 0.3603196 0.09186238 0.23395588 0.14955696 0.080719896 -0.009209772 0.04299988 0.12958848 -0.07899131 -0.13864584 -0.027337639 0.026477367 -0.08816911 0.3584971 -0.20333849 0.3412468 0.13176647 0.04785913 -0.0047331518 0.096220344 0.45156753 0.28579915 -0.17572191 0.12742242 0.08738324 -0.17050213 -0.012232656 0.5286142 -0.0066552404 -0.112421796 -0.1911386 0.039952766 0.14510663 -0.22889785 -0.03672067
也 0.21648926 -0.23442253 0.48567826 -0.18583333 0.041105073 -0.08696572 -0.17364869 -0.33380097 -0.0153485965 0.40550688 -0.17232673 -0.07522561 0.029303014 -0.11207041 0.12543143 -0.47244936 -0.07956206 -0.32832697 0.037701074 -0.022395799 -0.15781353 0.727271 0.15043837 0.07274177 0.30265036 0.017080758 -0.91091734 0.12791641 0.14755276 -0.086680256 -0.3293899 0.56767535 0.008080224 0.27371404 -0.082255274 -0.2021259 -0.08647176 -0.025165588 0.07279652 -0.07844768 0.0397794 -0.42565554 -0.35024995 0.26884228 -0.32132283 0.09133339 -0.13307558 -0.13789377 -0.017350245 0.14632982 0.6323225 0.107839756 0.28501818 -0.22178377 -0.032406926 -0.19806644 0.18775216 -0.15355405 -0.2750796 -0.21307766 0.04169391 0.21438497 0.054988895 0.42341176 0.09142821 0.16401944 0.07244543 -0.10186345 0.22431251 -0.40650824 0.21322647 -0.09421311 0.13195835 0.3704122 0.4794318 0.2747592 0.14025944 -0.53107584 0.06529473 0.29031372 0.11371762 0.2390578 -0.2616571 -0.48375782 -0.34769028 0.09615216 0.6785665 0.18129916 -0.09324685 0.025474288 0.09081613 -0.34027624 0.26603973 -0.0700498 0.5412399 -0.30808467 -0.030323543 -0.2896783 0.09065798 -0.42474374
而 -0.031133167 -0.070941575 0.309629 -0.1603821 -0.108938076 -0.14953122 0.5615099 -0.025873985 0.18620342 -0.38120568 -0.24528003 0.5944041 -0.53993624 0.19438587 0.19084395 0.17515415 -0.5526803 -0.30873558 0.22329366 0.09660456 -0.13139576 0.15144695 -0.4187429 0.27311867 0.21863832 -0.50479597 -1.6306225 -0.31486005 -0.12928973 0.32006612 -0.35223046 -0.1647853 -0.12114931 -0.37734532 -0.41421196 0.15414132 -0.052106705 -0.43023703 -0.48391074 0.4379938 -0.11171459 -0.0015112159 0.55685854 -0.4690666 -0.21174443 0.09279514 -0.3919226 0.3624809 0.16013616 -0.28742954 0.7243907 -0.19436972 0.28894067 0.16831619 0.0015958864 0.009188634 0.32038403 -0.08791626 0.353994 -0.10734504 0.0938408 -0.6548431 -0.17334706 0.23911601 0.29725528 0.14667942 -0.39872047 -0.30061278 0.36289796 0.10485035 -0.23927294 0.09202988 0.174234 -0.5982567 0.52411807 0.016246695 0.1497964 -0.02497906 -0.014663934 0.29964882 -0.06600629 -0.23457482 0.069913134 0.057380702 0.38923216 -0.03661039 0.43431652 0.0024608553 0.34563276 0.10933209 -0.19511588 -0.16657212 -0.17211373 0.029413603 -0.020360831 -0.12317883 -0.019957451 -0.1291371 0.15178455 0.103377216
？ 0.112589605 -0.3417646 0.15565231 -0.11126905 -0.026297195 0.012477366 0.30922174 -0.0821819 -0.22691567 -0.22507593 -0.020811964 -0.12704445 -0.1771015 -0.23137908 0.027707256 0.2564707 -0.16315106 -0.09058532 0.38381374 0.11980898 -0.09352214 -0.3787744 -0.303411 -0.00360532 -0.037286043 -0.07365007 0.09324602 0.114935 0.2919265 -0.0071082907 0.15978159 -0.010660433 -0.0073552392 0.34085268 -0.6778967 0.12847197 -0.25525093 -0.2905738 -0.09680491 0.035514254 0.33742717 -0.38794392 0.12595528 -0.027847175 -0.18230608 0.065221354 -0.05410802 -0.15201637 0.1911664 -0.24138236 1.4868143 -0.09872992 -0.15994321 -0.1819768 -0.16593096 -0.160128 0.1408099 0.16025357 -0.12612502 -0.007472956 -0.088906094 -0.48999274 -0.48930743 -0.17686291 -0.218831 -0.058147747 -0.21268177 -0.38948372 0.006205337 0.081574395 0.42568326 0.3988059 0.19081816 0.10755003 0.14427727 0.10679506 0.3861671 0.0685114 -0.14610413 0.1236859 0.19583686 -0.07551403 -0.006871324 0.09469463 -0.25282547 -0.024982315 -0.12735514 0.06431311 0.18429413 -0.23969655 0.08148264 -0.4686209 0.414074 0.057490543 -0.42276287 0.18387742 -0.15981327 0.18638852 0.23396331 -0.090426266
其 -0.40803906 0.016770585 -0.07434526 -0.13663687 -0.27168673 0.2248798 0.16633582 0.076697305 0.15509176 -0.22181669 0.2032607 -0.06887285 0.26286647 0.2778624 -0.0966837 -0.23901692 0.08336302 -0.20507996 -0.16118275 -0.047405764 -0.029070925 0.29920846 0.23966825 -0.20253342 -0.192691 -0.2824252 -1.007213 -0.21451865 -0.31797978 -0.38778257 -0.09380054 0.12494972 -0.061738513 0.2056456 0.059409775 0.36876363 0.16621491 0.04244361 0.0106850285 0.049157202 0.25016257 -0.15828264 0.119868666 0.23186362 -0.26193643 0.3438018 -0.050182372 0.25632843 -0.021693567 0.20865783 0.45183992 0.07919699 -0.15574084 0.187222 0.0758528 -0.2307135 0.21259673 -0.019225197 -0.026962414 -0.31653294 0.039864067 -0.4387201 -0.093173735 0.38043788 0.040933996 0.24317794 -0.08319397 0.06702095 -0.18333597 0.21810037 -0.2046043 0.03799455 -0.008222496 0.044791598 0.044235744 -0.056029283 0.18417513 -0.25391057 -0.0047389753 0.086396046 -0.4861043 -0.32317546 0.010975508 0.31075755 0.15421054 0.14259669 -0.30513817 0.3995949 0.4150021 0.023217643 -0.104421765 0.26394036 -0.35959825 -0.19666201 0.1618639 -0.02712835 -0.2251752 0.056130834 -0.08145935 0.2577464
人 -0.029509231 -0.01156087 -0.13628146 0.15103954 -0.18561576 -0.055041563 -0.25488985 0.09667857 -0.09646678 -0.17027052 -0.024235053 0.4529566 -0.13693397 0.081271686 0.1438421 0.14829944 0.078143194 -0.131241 -0.28859577 -0.4425799 -0.01036212 0.6259914 0.00481728 0.0683773 -0.43073905 0.016572192 -0.37649375 -0.4714908 -0.22532845 0.14928493 -0.19163407 -0.24233913 -0.05770389 0.017417714 -0.45387262 0.29005307 -0.1129765 -0.11042529 0.15658468 0.0458774 0.2030976 0.18252361 -0.11186277 -0.16414766 0.25276455 0.046750322 0.15790494 0.063830376 -0.16205072 -0.15234052 0.62117606 0.17988569 0.06930559 -0.07227493 0.3197654 0.21479459 0.10435345 -0.21019742 -0.10620611 -0.057820346 -0.19588001 -0.1135134 -0.37196192 0.262012 -0.19627714 -0.058240287 -0.26901355 0.09028945 -0.07045712 -0.15861282 -0.4948457 -0.057551667 0.04280613 -0.12743789 0.27451813 0.16259964 0.23044638 -0.08836902 -0.045000006 0.019661788 -0.18883042 -0.18879779 0.19196764 0.22996564 -0.09795483 0.018488105 -0.004955908 0.40287685 0.13518569 0.065934725 0.22518848 0.11334234 -0.29248375 0.18100926 -0.007947485 0.15939844 0.25812852 0.020740803 0.28603956 -0.4669048
者 0.0028814648 -0.48745447 0.26907212 0.17735665 -0.43477097 -0.1244559 0.44880933 -0.16159123 -0.011189016 -0.40717056 -0.06662175 -0.09973969 -0.30182558 -0.1945589 0.25353009 -0.18826663 0.13976279 0.38092127 0.2843633 0.16852365 0.10008432 0.07202258 0.25630236 0.008726393 -0.087917894 0.14440376 -0.7507688 0.26487795 0.2876281 -0.046682373 -0.21074234 -0.14481375 -0.50232995 0.12788135 -0.059567336 0.10142653 0.29168695 -0.04035751 0.09988147 -0.06285682 -0.03276772 0.14208156 0.1557181 0.28924102 0.12572986 0.112800054 0.0049530366 -0.096242055 -0.26424325 0.07625194 0.3679972 -0.44708034 -0.054019462 -0.24285728 0.40668955 -0.17580222 -0.30445114 0.033443503 0.035774827 -0.047624175 -0.58765155 0.03135413 0.056832206 -0.3205766 -0.08426673 0.21597646 0.006700091 -0.08432539 -0.1100022 -0.040452793 -0.5319616 0.22768095 0.26009315 -0.017774649 0.11591973 -0.21750553 0.114031725 -0.2001805 0.13278213 -0.3645746 0.36732063 0.10789342 5.184673e-06 -0.027280357 -0.084464855 -0.01798521 -0.099817246 0.16972916 0.16091673 -0.14341843 0.13119738 -0.0064910585 0.22958894 0.1306239 -0.27452767 -0.292454 -0.44589806 -0.0043574176 0.13749588 0.04411985
以 -0.17382951 -0.17850076 0.199051 -0.0442638 0.26154315 0.08805215 0.20226526 -0.15199403 -0.10213617 -0.24089177 -0.0005372416 -0.24550131 0.45364884 0.22884569 -0.23581871 -0.276768 0.212662 -0.079754815 0.21613298 -0.13952747 -0.07266066 0.21714774 0.09494034 -0.09081249 -0.2579328 0.0870387 -1.0596896 0.04049851 0.051850364 0.27520028 -0.35024768 0.03756499 -0.08720042 0.06631312 0.09584233 -0.4436082 0.24676147 -0.19747753 -0.3147282 -0.08049065 -0.2410039 -0.3330198 -0.24141008 0.22136873 -0.06905828 0.24144284 -0.34498736 0.21864963 0.18285656 -0.4352683 0.8378582 -0.04851287 -0.20276785 0.26879564 0.18689963 0.1751923 0.033115204 -0.33220553 -0.23329593 -0.02201384 0.42666432 0.17276289 -0.12976605 -0.06255983 -0.34556726 0.20702705 0.29914874 -0.07275869 -0.2671016 0.15163033 0.18346825 0.19710802 -0.26092318 0.0756157 0.052976348 0.32656455 -0.22817363 -0.034851957 -0.24521454 -0.017151192 0.14088896 -0.1332471 -0.015168427 -0.105059244 -0.34990382 0.023404684 -0.0970799 0.059728574 -0.079118416 0.3361591 -0.40348688 -0.32791522 0.049758077 -0.10240801 0.29414868 -0.17239402 -0.14153124 -0.17072803 0.31459287 0.14626922
有 -0.13462397 -0.029618353 0.049815625 -0.39591765 0.29390866 -0.18888627 0.22826774 -0.016284097 0.357871 0.21459356 0.5500606 -0.04328576 0.31788623 0.108630165 0.08487926 0.1164357 0.1592643 -0.15875119 0.17743717 -0.4571293 -0.19229156 0.078109056 0.14549157 0.03335589 -0.13396223 -0.40693176 -0.41948396 0.35273683 -0.25586492 -0.088379055 0.034489904 -0.017958883 -0.028742075 0.053342067 0.12613727 -0.076269865 0.13649528 0.030508835 -0.3807636 -0.14456627 0.022403108 -0.052677266 -0.17282517 0.12882487 0.15424313 -0.27992758 -0.09514758 0.40912732 -0.34095666 0.21830072 0.71209973 0.09916947 0.1499777 -0.16328506 0.48241782 0.05621328 -0.15087675 0.27214786 0.09997925 0.12934017 0.23684663 0.35951373 0.0672484 -0.18389283 0.1272782 -0.17430629 -0.060947903 0.3066502 0.23352502 0.006311918 -0.07768943 -0.10292602 -0.19676244 0.07844265 -0.55271584 0.3021128 0.08075581 0.012705838 -0.1884358 -0.36244288 0.06995363 0.21557914 0.10720378 -0.118011504 0.027011557 -0.23195234 0.16037878 0.3000958 -0.12542725 0.277944 0.29780546 0.06109477 0.21206856 0.0830537 -0.26716986 -0.11573985 0.10857252 -0.12557317 -0.27564767 -0.124172784
于 0.09479827 -0.300696 -0.26796788 0.36164808 0.15208797 -0.17354877 -0.18639243 -0.37696734 -0.013540144 -0.252342 -0.10246607 -0.016467644 0.3271701 -0.23115648 -0.21652715 -0.6536191 -0.26965606 0.1839148 0.029855002 0.049125567 0.029312078 -0.30974022 0.049448483 -0.09953685 0.02713318 0.027884204 -0.34491637 0.06280942 -0.07764327 0.03367065 0.043249354 0.030130895 -0.17647101 -0.10155887 0.3930067 0.32676563 -0.02426375 -0.44338265 -0.474165 0.22822212 0.12539896 0.3165809 -0.13216764 -0.21652222 -0.35880545 -0.13738361 -0.29697528 -0.3357457 -0.5723395 -0.06285146 1.2541804 -0.1566419 0.16851895 -0.027107334 -0.06280518 0.09734534 0.093222104 -0.20442371 -0.10444731 0.12694086 -0.15884489 -0.030478865 0.22445765 0.25312185 0.10624462 -0.09259553 0.46225333 -0.2052703 0.16263345 -0.08619178 0.11734531 0.16147773 0.37636247 0.004620306 0.10223879 0.03625529 -0.120444104 0.047513086 0.37331438 0.043947678 0.18161428 -0.15901074 -0.37711793 0.122779295 0.13053691 0.13951775 -0.39641568 -0.18219605 -0.24378526 0.15330333 0.22306909 0.21550143 -0.12578164 -0.047439985 0.3366968 0.3453937 0.29447898 0.033397045 0.17646466 0.032001596
矣 -0.18907693 0.16976295 -0.096297905 0.05653387 -0.1355519 0.15005809 0.016600557 0.19625655 0.25659114 0.3143101 0.29790843 -0.07978525 -0.44920307 0.20775712 0.51201 -0.32466245 -0.18362285 0.24394912 0.08842503 0.14529793 0.20184663 0.5324284 -0.1475277 -0.3948154 -0.5478577 0.103987 -0.5216706 -0.2622947 -0.041119743 -0.28278652 -0.066697955 -0.12133191 -0.24942434 -0.054162126 -0.23047093 0.061068226 0.05614835 0.1570485 -0.41263986 0.030766536 -0.3708108 0.5894313 -0.14959103 0.07873586 0.2733037 0.0069473987 -0.38261595 -0.13240896 0.072219886 0.4250433 0.8475833 0.4200797 -0.0027503776 0.19797857 0.09340748 -0.07160784 -0.09528624 0.08144259 -0.35111928 -0.06553837 -0.34555689 -0.05081578 -0.10863888 0.019352479 0.44643086 -0.11386941 -0.003723036 0.2154585 0.20295641 -0.26184443 -0.19967256 -0.16764903 0.2478598 -0.3963908 0.5591979 0.033826374 0.1806017 -1.0168221 0.4294257 -0.0029404792 -0.20277129 0.032104257 -0.21590433 0.39942715 -0.25988144 0.109247826 -0.11997646 0.27995762 0.08284516 -0.004083951 -0.30134317 -0.22839662 0.23836994 -0.1531552 -0.09491203 0.2734291 -0.096947454 0.2254837 0.67779976 -0.26270106
为 0.25755027 -0.0046955096 -0.19931494 0.4135138 0.15087873 0.21590881 0.029670855 -0.20174453 -0.008531211 -0.07387554 0.06118242 0.075233914 -0.231975 0.05251052 -0.19112566 0.19321342 -0.004998771 -0.34694034 -0.12638496 -0.13069715 -0.1893855 1.0023416 -0.27029535 0.05122912 0.17265147 0.0033929225 -0.42539892 -0.21071272 -0.11338285 0.016621392 0.14621198 0.33924195 0.34350988 0.11797419 -0.08508909 -0.100645244 -0.17951971 -0.25640488 0.0017957008 -0.07573541 0.22515573 0.119748145 -0.15038058 -0.38451847 -0.22423202 -0.09494739 0.053029522 -0.11469247 0.010712439 -0.1826739 0.74908966 -0.046591572 -0.5715806 -0.15394625 0.10551776 -0.14627545 0.5334375 -0.11009572 0.4160514 0.14651278 0.16353326 -0.20915633 0.27141893 -0.15209365 0.012970775 0.014368272 0.20936427 0.11554138 -0.30448958 0.06878146 -0.10845173 0.058677383 -0.16013959 -0.40170798 -0.087591454 -0.23525111 0.07261567 -0.020076092 -0.018742211 0.08872211 0.029556207 -0.09391192 -0.43104497 -0.24996345 0.15329196 0.37520126 -0.04779023 0.23618624 -0.33186874 -0.20901862 -0.044623025 -0.21089734 0.49821353 -0.47589904 0.060204837 0.21132815 -0.18536751 -0.33869046 0.08816071 -0.2621117
君 -0.16469154 0.2374855 -0.01534953 -0.18635432 0.06617311 0.78985554 0.08426482 -0.1446976 -0.039108187 0.33168364 -0.12733074 -0.23970611 -0.27333158 -0.103707865 -0.22007051 -0.19721022 0.34783387 -0.08529272 0.12547353 0.17070873 0.03449804 0.8504445 0.15240774 0.011903834 -0.19981852 0.033893872 0.07083734 0.05705637 -0.3253284 -0.29039213 -0.09017186 -0.044865906 -0.33874398 -0.249653 -0.18252434 0.22193597 0.1410478 0.08600903 -0.2900124 0.04516329 0.03221021 -0.011315161 -0.01618361 0.00056659663 -0.1595735 0.24039058 0.22720022 0.26114678 -0.059695628 0.07403568 0.82071745 0.063110985 0.16158995 0.20624046 0.16027522 0.029206965 -0.1578303 -0.019961953 0.16431823 0.19935618 0.06421459 0.09311285 -0.039194 0.004776488 -0.27846867 0.09809191 0.09575699 0.11836135 -0.14565848 0.0059514497 0.1137259 -0.24250479 0.12594214 -0.2990064 0.3262743 0.19127907 0.014209672 -0.17250843 -0.32984504 -0.031669784 -0.13915387 0.08965066 0.13092303 0.20377484 -0.036131427 0.24978346 0.08462908 -0.050640233 0.5430837 0.06599555 0.23229446 -0.20359194 0.038454212 0.38169312 0.11610064 -0.32983354 -0.009549379 -0.120671675 -0.20634966 -0.26831007
乎 0.16665123 -0.21091819 0.4097754 -0.34844297 -0.08228853 -0.31076473 0.008659401 -0.14671077 0.13212909 0.19701284 0.24353214 0.21184209 0.5703454 -0.18311857 -0.062470764 -0.05617316 0.12235916 0.056481518 0.070136495 -0.32052025 -0.18973628 0.22235136 0.19499739 -0.09928472 0.03244226 -0.066107385 -0.37456706 0.3971373 -0.23598664 -0.025139775 -0.22785248 -0.31743306 -0.6528072 0.18955341 0.13296053 0.20520686 -0.21189454 -0.5213391 0.16840453 0.43338087 -0.11735153 0.26317605 0.07607517 0.048056103 -0.03464386 0.29507443 -0.0917607 0.015666349 0.07043678 -0.25052467 0.84835255 0.020323496 0.31251973 -0.506176 0.09031664 0.16518188 0.013781698 0.30580246 0.070223056 -0.106666334 -0.034121733 -0.258363 0.087490916 -0.05837617 0.4963958 0.31897205 0.09070926 -0.047180228 0.35351712 0.1431948 0.3069957 -0.06526878 0.070871636 -0.39495403 -0.23269805 0.07309721 -0.10061666 0.109559506 0.32264414 -0.25533393 0.29194477 0.27219695 -0.11916532 0.47674242 -0.2725344 -0.011415995 0.13674076 0.14864716 0.15680002 -0.41614082 -0.20370258 -0.28128606 0.16933173 -0.30381775 0.020797443 -0.033737417 -0.103433214 0.24276529 0.38187113 -0.21037659
可 -0.49894226 -0.5007361 -0.02372484 0.15240617 0.26505768 0.054045547 -0.21027766 0.06914788 0.21425952 0.11073933 0.15021642 0.08277485 -0.23279503 0.030402847 -0.104795076 -0.12823322 0.0969058 -0.35946244 -0.07022885 0.21333733 0.07930953 0.078718126 -0.15152237 -0.065120995 -0.09995896 0.049547527 -0.86965704 0.01896048 0.25882858 0.09393075 -0.20468768 0.2972862 -0.2433199 -0.005811368 0.06604822 0.035617143 0.56870365 -0.15881817 0.07951513 0.098206975 0.41189063 0.12997393 -0.20570874 -0.019943025 0.27688587 0.52414775 -0.22505642 -0.0006753616 0.51996714 -0.11779236 0.31609127 -0.29888865 0.12856723 0.19144306 0.26610756 -0.52809 0.34387216 -0.070517346 -0.21898594 -0.038530335 -0.29717717 -0.031997345 -0.4800411 0.43970367 0.25819832 -0.36517888 -0.087355666 0.038880117 -0.095385045 0.26206297 0.088203445 -0.09619108 0.26794642 -0.18300277 0.059890497 -0.1317347 -0.116521746 0.68815583 0.23593919 -0.19804557 -0.30055147 -0.13151187 -0.35714835 -0.18701506 -0.28332382 0.2746512 0.30512592 -0.20068783 0.4809906 0.19091521 0.169655 -0.0793914 0.061313853 0.1979935 -0.35229185 0.06360853 -0.059092224 -0.2526537 -0.19737571 0.0652708
如 -0.19357409 0.06617879 -0.3588954 -0.049996793 -0.09428651 0.07933724 -0.29558396 -0.26811966 0.23605648 -0.30732477 0.02946488 -0.07994063 -0.22902034 -0.18482226 0.057014037 -0.019836202 -0.03344276 -0.038299244 0.085643835 0.20547478 0.10166501 0.25887117 0.5906337 -0.18581912 -0.3183412 0.42264953 -0.6657279 -0.24144094 -0.7797348 0.41457063 0.14832655 0.03472906 -0.0948514 -0.073612295 -0.29818287 -0.0896347 -0.108407155 0.04588494 -0.118704475 -0.083135694 -0.10621454 -0.41326866 0.13814321 0.42769206 0.07300447 -0.49226904 -0.25871873 0.17827256 -0.09117245 -0.2730758 0.60624903 -0.21642886 -0.10878408 -0.110753365 0.08350847 0.112442456 -0.040852997 -0.080325566 0.07506448 0.16154858 -0.035645228 -0.2799956 -0.2141237 0.18902576 0.22515072 -0.038239595 0.0011421251 -0.09134098 -0.06343776 -0.20645642 -0.26873064 0.116086155 -0.35360456 0.118784875 -0.068282105 -0.12676743 0.20974119 -0.08818219 0.14725594 0.16114743 -0.04256359 0.24713573 -0.10654243 -0.39322576 0.02759958 0.42004356 -0.37571177 0.20464852 -0.5121417 0.18361168 0.009561383 0.002696466 -0.2794575 -0.03238643 0.2300067 -0.21145706 -0.027956448 -0.12872668 -0.20212221 0.16087905
与 0.21061261 -0.079645276 0.32831618 -0.28006354 0.094008856 -0.23613837 -0.18481483 0.05137293 -0.10476931 -0.3573153 0.0777395 -0.1656043 -0.4558995 -0.23383425 -0.010606042 -0.059836004 0.1922878 0.1271 0.12920727 0.004293263 0.33387387 0.2050967 -0.09731258 -0.34265652 -0.2310005 0.073304616 -0.8508276 0.38549525 -0.4083023 0.014839524 0.1318482 0.035564072 0.06742668 -0.18585196 -0.39816335 -0.23318957 0.073121846 0.08650644 0.030096453 -0.13679434 0.14965393 -0.1613717 0.076240234 -0.14223158 -0.06495847 -0.38569954 0.14742342 0.05335563 0.032392494 0.050227523 0.608306 0.35686612 -0.11412675 -0.17719497 0.044765107 -0.13736013 -0.18044546 0.12785764 -0.017025527 -0.13936187 0.15171213 -0.00784891 0.06528381 0.10772688 -0.17577824 0.050671384 -0.13406244 -0.07918145 -0.03264333 -0.13575059 0.29114655 -0.50959146 -0.0042062295 -0.21088484 0.17426601 -0.14558221 -0.19653867 -0.10590975 0.22397815 -0.16940235 0.26487106 -0.004361178 -0.029776057 0.0707729 0.20194605 -0.46390095 0.029986354 -0.07751989 0.017109897 -0.01496245 -0.25405356 0.2398614 0.21298471 -0.2217236 0.0050292155 0.106164426 0.17300448 -0.30063987 -0.10995759 -0.22076929
； 0.30271116 -0.23738821 0.25098813 0.119209684 -0.25214088 -0.066537134 -0.046753574 -0.018069994 -0.10661046 0.09552142 0.31365404 0.12620932 0.26295722 0.035476327 0.07914922 -0.07663334 0.3618006 -0.20953669 0.0009993874 0.16141973 0.19066875 -0.11423147 0.0016129462 0.032616846 0.3720952 0.027358463 -0.6623582 -0.17674065 -0.115881994 -0.28821355 -0.05553419 -0.03527891 -0.13306643 -0.47413534 0.05928735 0.50325847 0.04848724 0.23641992 -0.24096973 -0.0042650183 -0.23631446 0.009074775 -0.33497265 -0.40020624 0.31320906 -0.07156878 0.12962858 -0.02132994 0.65148216 -0.296432 0.9485676 -0.17405301 -0.68734986 -0.21124448 0.19193134 -0.37662545 0.32146865 -0.09241398 0.32296103 -0.018120898 -0.061818395 0.09571861 0.07934064 0.24266502 -0.17684795 -0.18235588 0.1718683 0.12696145 0.27899092 -0.28025576 -0.037913375 0.21940294 0.04773486 0.1381114 -0.23303409 -0.3213058 0.06503575 0.08936279 0.17792176 -0.3759025 -0.12611467 0.018403132 0.12104547 0.19157872 -0.07265818 -0.23161595 0.13686216 0.021405708 -0.14512217 -0.0413548 -0.30361858 0.23793638 -0.16521852 -0.13010007 -0.2214559 -0.23443934 -0.24131174 -0.06048243 0.17916116 0.055728856
言 0.16511765 0.09880711 0.065969765 0.14871442 -0.22125839 0.15666655 -0.064730294 -0.16171096 0.04066617 0.14557585 -0.011313075 0.036915194 -0.7991407 -0.30393127 -0.085037604 0.32084045 0.04487708 0.1509578 -0.16507383 0.09531718 0.21517402 -0.038861837 -0.15962295 -0.31813493 -0.17974102 0.04743164 -0.39059913 -0.44617718 -0.08666752 0.17275988 -0.42929038 -0.008811595 -0.14717562 -0.049895085 0.049089402 0.34205678 -0.26975408 0.123640895 -0.08437969 -0.42367852 -0.044259623 0.3718342 0.06117337 0.08662595 0.044824343 -0.029327285 -0.18615265 -0.008931042 -0.03771062 -0.18940596 0.5959236 0.13807864 -0.22415666 -0.10498302 -0.044642616 -0.27452877 -0.14974199 -0.2646374 0.055784054 -0.19765428 -0.40963608 0.318495 -0.53748983 0.46087924 0.20999867 -0.062933646 -0.08556797 -0.21017997 -0.30869564 0.10603501 0.50929815 -0.07942504 -0.17142883 0.044966973 -0.07844832 -0.06855917 0.04842333 -0.3458078 0.0457096 0.37957913 0.08709149 0.05292694 0.012833336 -0.29585055 -0.31739765 0.23037432 0.0531738 -0.093918286 0.060856868 0.21147592 0.15652676 0.18167685 0.07324147 0.0108539155 0.49400032 0.042908274 -0.10648506 -0.20843974 0.15705092 -0.06923581
无 -0.025189335 -0.0068788403 0.12720762 -0.28734824 -0.16201898 0.055681527 0.2844783 -0.016315963 0.13080545 -0.23004158 -0.26758882 -0.6327882 -0.04371925 0.17360722 -0.035103597 0.011843012 0.17080484 0.4000168 0.01575155 -0.19168176 -0.11792938 -0.008831204 0.5615585 -0.13357195 -0.18409654 -0.16960514 -0.9653457 0.23470776 -0.0050398447 -0.14156465 -0.07485579 -0.21198833 -0.15177757 -0.11901735 -0.10322417 0.29140472 0.11290645 -0.02854477 0.08625142 -0.3938595 -0.0681923 0.116981074 0.09313865 -0.23519102 0.329998 0.20491712 0.043348126 -0.28534758 -0.036093574 0.36901864 0.3544542 0.063128956 0.22309645 0.18360323 -0.2690702 -0.106476955 0.11249084 0.19442907 0.17106743 -0.3589697 0.50616777 0.09885719 0.32382068 -0.09006161 0.20269126 0.10874842 0.37105232 0.21971054 0.17622603 -0.05181787 0.0020289246 0.06928245 0.051451452 0.2915344 -0.16329087 -0.0025831985 0.13996544 -0.12647887 0.19317661 -0.17551942 -0.10443498 0.026319545 -0.17914845 0.061716273 0.29616755 0.08866143 0.34046754 -0.0042019193 0.051624432 0.2158265 0.3115332 -0.23781398 0.1387496 -0.013238838 0.26625684 0.26215744 -0.08194088 0.12935841 0.1247422 -0.035877354
则 -0.16839036 -0.19777705 -0.12194738 0.06828426 0.13892843 0.06399157 0.08898041 -0.16899599 -0.40479624 -0.18852258 -0.0782694 0.13464108 0.056933973 0.24878837 0.22051524 -0.15390182 -0.1403951 0.12370514 -0.0022544262 0.117346965 0.12970454 -0.19713034 -0.08772454 -0.030817512 0.1804819 -0.04916853 -1.1432507 0.13133119 -0.32589418 -0.23829377 -0.33975482 -0.15407243 0.24901621 -0.14249134 0.078858785 0.26460734 -0.29028466 -0.11298337 0.37814698 0.043823816 0.27994537 0.03857179 0.30259103 -0.065885566 -0.12149541 -0.029993132 -0.23713656 0.110083446 -0.05927173 -0.13882488 0.68214345 -0.37774032 0.027543 -0.14829987 -0.5402709 0.30610183 9.488955e-05 -0.028114934 0.07839958 -0.15012373 0.12568152 0.00532078 -0.21228369 0.048992142 -0.3192767 -0.018949851 -0.017921656 -0.36419296 0.18570569 0.0032291263 -0.3459785 0.27702305 0.15928154 -0.18171078 0.13779724 -0.13033591 0.07767049 0.27366358 -0.13143326 -0.00060452824 0.22421135 -0.24458586 0.30930164 0.00878477 -0.20388818 0.18487725 0.11529962 0.17005828 -0.34141505 0.38703236 0.11538716 -0.43118182 0.033668626 -0.1439752 0.16349418 0.06772211 0.11776774 -0.3114376 0.013198601 -0.564733
！ -0.009529845 -0.24517274 -0.033957705 0.3097147 0.38379744 -0.23059078 0.07364656 -0.19051981 -0.08426703 -0.10754529 -0.013781791 -0.083688214 -0.20509532 -0.22733207 0.08150084 -0.16785757 0.26589012 0.057215545 0.30952013 -0.34754315 -0.08949562 -0.22651584 -0.026954563 0.084553786 -0.060529884 -0.104978465 0.12183056 -0.04335773 -0.040026795 0.124705985 0.41401285 -0.11295056 -0.077940375 -0.41399232 -0.07094123 0.056376334 0.27897176 0.08170097 0.18322614 -0.31400037 0.14568561 -0.070817694 -0.17489584 -0.4345748 -0.13838392 -0.3717806 -0.11897933 -0.18779281 0.05009198 -0.45527697 1.3266845 0.27408308 -0.01780123 -0.42566228 0.3050931 -0.10042449 0.20055345 0.12637566 -0.2123125 0.0051084477 -0.21446879 -0.13070084 -0.20158608 -0.014950685 0.43624467 0.3186023 0.17558654 0.1487741 0.016586967 -0.111987144 -0.07549671 -0.24676715 0.040483408 -0.045715496 0.4624123 0.05785346 0.19808443 -0.04211043 -0.2836167 -0.11962187 0.24938945 -0.6558709 -0.25793844 0.15008673 -0.14727512 -0.29199797 -0.031239204 -0.18479785 0.2943535 -0.21118881 0.0015660706 -0.10731546 0.2699035 0.47718823 0.080815084 -0.28938946 0.074519336 -0.100423634 0.4164077 -0.011216107
问 -0.26023233 0.21253592 0.010041447 0.4019006 0.13863784 0.014737307 0.22136232 0.2696194 0.092249885 0.15299258 0.046470102 0.34273827 -0.095221326 0.3578738 -0.16855952 -0.3530656 -0.04364343 0.03217197 -0.055297147 0.02694525 -0.14661108 0.4221941 0.19818299 -0.00930912 -0.17651832 -0.06827168 0.02612329 0.19957483 -0.14333695 -0.42161056 -0.21068862 -0.18043812 0.098117314 0.19457322 -0.05799671 0.09237429 -0.016023265 -0.09713075 -0.20677789 0.21426678 0.26363677 0.3018884 0.36583096 0.0024385804 -0.30871835 0.23587282 0.04083297 -0.0828959 0.14023101 -0.033426765 0.9643536 -0.24128047 -0.15634443 -0.3001355 0.1959021 -0.16975538 -0.13288946 0.0654136 -0.35319278 -0.2973835 0.053143617 0.058804035 -0.17027588 -0.38077334 -0.090393774 0.080618165 -0.11534629 -0.06268418 0.086341396 -0.19015272 0.060177945 -0.107693925 -0.14869833 0.4170842 -0.39983487 -0.07062867 -0.25361484 -0.3769995 -0.45447868 -0.031397954 -0.19098744 0.0042045102 0.32968235 0.095265 0.04932788 -0.1364431 0.057275645 -0.13709982 -0.09308391 -0.14668426 -0.39278302 -0.18121913 0.2642689 0.61999375 -0.14001721 0.094996355 -0.09727796 0.22984138 0.030299272 0.026788894
知 -0.06502493 0.023830444 -0.030838745 0.33100355 0.019975232 -0.14293104 0.24414088 -0.053092163 0.2523762 0.11872058 0.21110062 -0.082621045 -0.087094724 -0.505807 -0.013974298 -0.20027941 0.11060873 0.18450238 0.07989407 0.20040858 -0.04159647 0.22794923 0.40329322 -0.19584526 0.07745297 0.10720885 -0.6248508 0.18025525 -0.18252552 0.18715778 -0.06515587 0.040382937 0.2362691 -0.22667004 -0.32741863 0.012918249 0.32608974 0.31070367 -0.33052042 0.031920932 -0.16939276 -0.14714265 -0.23699982 -0.063416354 0.10724911 -0.39043632 0.012943 0.11307164 0.28230235 -0.20874695 0.17793876 -0.12242063 -0.06973542 0.08642917 -0.021761972 -0.17282724 0.05986839 -0.0028081439 -0.24854413 -0.013411744 -0.07931614 0.0014759125 0.14346924 0.39029017 0.0732886 -0.19889215 0.37072295 -0.29889825 0.07896082 0.084210865 -0.03628625 -0.51764506 -0.11680924 -0.18314272 0.14773722 -0.28523552 0.18299372 -0.084976874 0.057672642 -0.17784503 0.14762148 -0.17090161 0.19542894 -0.0100496225 0.10599377 -0.16297771 0.23044576 0.12731181 -0.10185756 -0.10189423 0.036761075 -0.019983463 0.24653777 0.29109925 0.3198211 0.06651085 0.01624168 -0.13097748 0.12130701 0.16719098
何 0.19513543 0.18482977 -0.12030906 0.1841343 0.15560842 0.5766779 0.15339331 0.005085236 -0.08377941 0.1485139 0.025751457 -0.054282468 0.13316758 -0.15703872 0.00063192163 0.30088738 0.06883018 0.2160443 -0.09790136 0.17253305 0.50460505 0.26367012 0.047349334 -0.08971818 -0.09829785 -0.07829161 -0.31329164 0.17597134 -0.4996017 0.19917889 0.038903885 0.45536318 -0.1554667 -0.053211376 -0.1037411 0.14078872 0.24074394 -0.11931757 0.30560166 0.020805674 -0.050274096 -0.14884013 -0.08819659 -0.0804742 -0.0088938065 -0.2134048 0.00472195 0.18350424 -0.13132712 -0.09152217 0.5343184 0.10572738 0.18211633 -0.49425918 0.17935108 0.036905855 -0.118135355 0.119414724 -0.23556133 -0.11603624 0.019554608 0.2254123 0.112377614 -0.3879889 0.17013773 -0.048587028 0.4635038 0.14363983 -0.029993355 0.43700746 0.37458533 -0.4052431 -0.18672085 -0.24412422 -0.3171291 -0.28863177 0.019435328 -0.29394495 -0.13051471 -0.08700209 0.034702808 -0.096813664 -0.44007635 -0.2466671 -0.33368155 -0.06168259 0.30848417 -0.034817938 -0.15842538 0.14488854 0.18136457 0.019130602 0.40967235 -0.31181267 -0.13233246 0.22401728 0.32514405 -0.022767773 -0.18275967 0.22554754
吾 -0.3761574 -0.3618232 -0.22250533 -0.13724925 -0.31670392 0.113688685 0.26641282 -0.3285631 0.4483606 -0.29838303 -0.36563674 0.3094024 0.34277567 0.425811 0.35223132 -0.5466878 0.07618783 -0.081294194 -0.20993339 0.22454304 -0.2473714 0.19119096 0.4225778 -0.2281537 -0.029756099 0.20418292 -0.63545394 -0.1067729 -0.23854584 -0.325308 -0.64807767 -0.023135716 -0.35696092 0.050972205 -0.24397913 0.009842685 0.01967211 0.3323144 -0.2246098 -0.1729531 0.47065535 -0.14863099 0.060339402 0.19646399 -0.07582252 -0.25355777 -0.11397778 0.2100068 0.12932709 -0.26109794 0.06428996 -0.29038355 0.131047 -0.015393015 0.01892386 -0.17383541 0.027506676 -0.35114604 -0.033218216 -0.023807256 0.37338084 -0.0038214147 -0.17773551 -0.16784383 0.3294338 -0.005652836 0.2604168 -0.053445086 -0.050127514 0.41205427 0.8035502 -0.2993864 0.078343496 0.21546702 0.2610259 0.17486566 0.0163594 0.17627114 0.02681825 0.27559134 -0.38391435 -0.043014053 -0.21042027 -0.03545732 0.2133221 -0.15961218 0.22696021 0.014934983 0.13978164 -0.30172822 0.22904055 0.07685115 -0.27190787 0.040673107 -0.21927762 -0.041602593 -0.31315908 0.054959018 -0.04099351 -0.19218235
仁 -0.16054042 -0.1604244 0.13155472 0.20445292 0.09532547 -0.041735213 0.26096094 0.27317291 0.1399969 0.1832396 0.29223025 0.0023608794 -0.253877 -0.5334916 0.032769654 0.017893998 0.11173413 -0.052927822 -0.444319 -0.1673873 0.08083953 0.28175074 -0.11636472 0.108611405 0.07907086 -0.07335676 -0.5494347 -0.2667157 -0.29814664 0.24418665 0.30769292 -0.14385727 0.0012111599 -0.12946947 0.23004626 0.32703376 0.31159964 -0.13992912 -0.38856873 0.1103947 0.16791578 -0.47556648 0.062237803 0.12552065 -0.09287973 0.2729111 0.10823602 0.21329118 0.075131655 -0.042542554 0.27774525 -0.17802215 -0.13103284 -0.08641519 0.6332834 -0.10094076 0.077981986 0.23272598 -0.29218176 -0.3065544 0.2878648 0.043074936 -0.27538642 0.049731683 0.119943105 -0.09081766 -0.056701336 0.05919333 -0.29214868 -0.06560866 -0.14101118 -0.40459365 0.39343396 0.20779333 0.19415735 0.27606753 -0.27779302 0.18240385 0.084477104 0.24865958 -0.38532254 0.21314491 0.13985077 0.20147456 -0.13401687 -0.025494972 -0.25475705 -0.002056067 -0.18910937 -0.092078686 0.23991832 -0.056275986 0.04940469 0.019777264 -0.043090027 0.08736348 0.021736795 0.11376109 0.3430021 0.00565877
夫 -0.20642407 -0.11652937 0.03870598 0.06232474 0.07906024 0.43861628 0.21300519 0.006544278 -0.37325943 0.07072188 -0.18690217 -0.079943694 0.1875003 -0.020841453 0.12488772 -0.31118938 -0.097913 0.051277652 0.44223252 -0.38206762 0.17891982 0.29312435 0.4842436 -0.08721851 -0.36646926 0.42695075 0.10726706 -0.228776 -0.43997994 -0.31977934 -0.097665794 0.13521717 -0.52515745 0.01602841 -0.43283302 -0.25699517 -0.13213888 0.10949493 -0.15467837 -0.15376212 0.15184693 0.10505737 0.29189438 0.15840992 -0.02948549 0.3184227 -0.026449747 -0.06887205 0.32690662 0.117919475 0.85670197 -0.021412866 0.18839182 -0.05579847 -0.18830694 0.13914044 -0.030510467 -0.30475 -0.09045263 0.08876452 0.024631891 0.08089073 0.18023506 -0.1755247 0.07761939 -0.3400145 0.083907574 0.11174304 -0.058251623 0.08909656 -0.38246313 -0.05966691 -0.06282585 -0.090619504 0.003305436 0.63438797 0.06801243 -0.043861628 -0.09144819 0.028745255 -0.39716956 -0.25115812 -0.36394638 0.04749568 0.1239159 -0.21799698 -0.15947968 0.21485677 0.22563577 -0.077538215 0.16449586 0.26723227 -0.18875715 0.083824195 -0.10789247 -0.32942063 0.13573015 -0.072184764 0.014220199 0.16511899
、 0.038866334 0.3618477 -0.01531099 0.31841046 0.15616101 0.051586173 -0.11519269 -0.351292 -0.029529687 0.08599436 0.029552389 0.03073147 0.16325977 0.21936372 0.18894938 -0.078113906 -0.37781987 0.050493646 0.804153 0.2625404 -0.25298816 -0.0043239086 0.28746352 -0.07532918 0.08212535 -0.2000079 -0.6013231 0.35655785 0.21630582 -0.31342348 0.12754709 0.040967647 0.18976302 0.5063818 0.3652249 -0.018631846 -0.61604136 0.52279204 0.117539465 -0.081531554 -0.032629296 0.3827495 -0.19498783 -0.1091464 0.015652057 0.06813086 0.1690716 -0.35545108 -0.13606113 -0.026010249 1.5206791 0.0051047797 -0.42356616 0.057017043 -0.1887184 0.04553604 -0.037203107 0.15192135 -0.2888448 -0.052514266 -0.014617031 -0.09085745 -0.17907175 -0.016584812 -0.23749746 0.099470645 0.0988516 0.14712591 0.20587626 -0.07884813 0.17893851 0.62665766 0.45064986 -0.01989101 -0.06866048 0.15820284 -0.098601006 0.12917458 0.017853059 0.17562628 -0.20342025 0.7564405 -0.38914815 -0.2733631 0.30865172 0.08704915 0.12171027 -0.17034316 0.23248224 -0.28310677 -0.2162835 0.057374593 0.10197857 0.118578084 -0.09824883 -0.46933225 -0.1274901 -0.16866556 -0.001409498 0.089738056
道 -0.102303274 0.06853311 -0.036486886 -0.08746511 -0.014357456 0.37509647 0.021321483 0.05977572 -0.1585499 0.1636972 -0.04528786 -0.05507459 0.1698004 0.015012423 0.2552358 0.1656757 0.15403546 0.058212515 0.47361326 0.12624215 0.27865016 0.25437418 -0.020772137 -0.014815351 -0.23442133 0.23588236 -0.83514416 0.26443028 0.24319242 -0.009129398 -0.2875963 -0.28029427 0.061695825 0.20859975 -0.42610738 -0.11390069 0.10970688 0.06871897 0.024538418 0.11237347 -0.24834028 -0.030678645 0.19853894 0.24527265 -0.13685209 0.252387 0.15044779 0.27477247 0.2697741 0.14389184 0.26675695 -0.43620634 -0.05631359 -0.3906544 -0.15666823 0.05996924 -0.2053895 -0.19451968 -0.12561186 0.103231214 0.0407257 -0.09696354 -0.5600131 -0.13446985 -0.37149867 -0.065233536 0.20838468 -0.1669201 0.09163203 -0.14453267 0.022829555 0.0016931575 -0.07408917 -0.1255827 -0.25312573 -0.31400794 -0.07813431 0.033543825 0.34601066 0.0023884543 -0.28255296 0.08636212 -0.20834756 -0.11551637 0.16564582 0.28761518 0.03986316 -0.25536865 0.1970573 -0.06225238 -0.33155248 0.48965058 -0.076497115 0.1967733 0.07931336 -0.034548454 0.5889582 0.024380904 -0.0932417 0.12130631
焉 0.004825298 -0.03809921 -0.12824762 -0.39244503 -0.16504581 0.2942388 -0.102746055 -0.05605729 0.19844513 0.047285352 0.4613701 0.07165075 0.10504553 -0.46287555 0.43114758 0.31716296 0.100278445 0.046261 0.28732497 -0.19507445 -0.030446438 0.6797604 -0.07544697 0.16727167 -0.2909932 0.5596799 -0.66510683 0.0020379575 -0.041689523 -0.04369703 -0.024622867 0.26021978 0.4011811 -0.053431906 0.14000575 0.116917126 -0.16296853 -0.22580731 0.20023464 0.3763896 0.47021434 0.0086601125 0.103015415 0.052852012 -0.008312226 0.108857885 -0.113974564 0.38280594 -0.27088767 0.5263749 0.5553737 -0.21390271 0.12731646 -0.19171713 -0.045064483 -0.32642478 -0.055116616 0.22916803 -0.21256356 -0.4116441 0.23836294 -0.05559826 0.38182005 0.3621706 -0.73068494 0.06765532 -0.14001301 0.23213261 0.098467894 0.044500697 -0.16369252 -0.37955633 0.0056365933 -0.022356935 0.5397077 0.20422448 -0.115174316 -0.34107408 -0.2115952 0.29691494 0.16683072 0.45899248 0.10291502 0.1137027 0.11301814 -0.23208234 -0.14311022 -0.039479256 -0.4461638 0.039291695 -0.12041451 -0.21553081 -0.39333713 0.14881006 0.23827256 -0.0032311496 -0.07512068 -0.083184145 0.041269984 -0.45835415
行 -0.14168355 0.2772875 -0.15362921 -0.2192777 0.17484547 0.37799895 -0.18484287 0.32685766 -0.043125782 -0.22385862 -0.041413486 -0.43856496 -0.24166879 -0.28716728 -0.0883043 0.24399605 0.17875133 -0.33552533 0.21333393 -0.46433738 -0.10820769 0.32742894 0.32125276 -0.25158146 -0.10120346 0.16457061 -0.55005366 -0.46128228 -0.6737077 0.23032112 -0.35143572 0.24224603 -0.21170546 0.06857498 0.018161064 0.17254874 0.11015642 0.17938453 -0.19213428 0.14168447 0.08572796 0.38533062 0.423716 0.25588667 0.16781661 0.3385936 0.109776005 -0.14666264 0.38379738 -0.06863452 0.25968945 -0.32548773 0.2698389 0.04852942 0.36494544 0.22842158 0.46464956 0.311707 0.03362034 -0.1812866 -0.0077525107 -0.2952928 -0.05802969 0.2724529 0.26318064 -0.0408417 0.0029229964 0.1537638 0.1782651 0.07357958 -0.13732934 -0.22970018 -0.045865692 0.6117161 0.07040306 -0.2618779 -0.3000479 -0.03020133 -0.13483784 -0.013406313 -0.16606867 -0.15578283 -0.021441288 0.19512327 0.12677021 -0.11233355 0.18351375 -0.044603985 0.19799386 0.12571262 0.1889062 0.14380234 0.14731868 0.07372978 0.093444705 0.055049904 -0.053939942 -0.10112078 -0.14219974 -0.10922987
谓 -0.23777486 -0.26251075 -0.55959797 -0.049037337 0.17846839 0.48985884 -0.1208267 0.11393712 -0.081706025 0.1253241 -0.27849048 -0.34353885 -0.17287958 0.01903189 -0.2277955 0.11197227 -0.030040134 -0.053501718 -0.051949054 -0.03324218 0.27450156 0.04247173 -0.18374634 0.10781797 -0.19310427 0.022450179 -0.21860722 -0.2515063 0.10386405 -0.3407513 -0.023452187 0.6066578 -0.14742708 0.1257051 0.00037426804 0.11250575 0.30090183 -0.029393345 0.35077444 0.047899194 -0.033158246 -0.08888823 -0.094633974 -0.016347438 0.11407082 -0.27123263 0.08162367 -0.22879724 -0.48796007 0.3419155 0.98828495 0.095992535 -0.5627561 0.07786714 0.15881921 -0.34875384 0.13797721 0.6549576 -0.11566686 -0.0023552822 0.34443814 -0.09048616 0.2704862 0.099490665 0.35831976 0.35036203 0.07283718 -0.3338884 -0.037843212 -0.0062901867 0.15365864 0.16972727 -0.29524797 -0.3882846 -0.024079684 -0.019220065 -0.35648608 -0.53213525 0.4111159 -0.2991735 0.13270088 -0.12780783 -0.19204175 -0.12965474 0.21119629 0.09285731 -0.30238268 0.21289277 -0.0020147474 0.0024131984 -0.74225116 -0.34456483 0.30027512 0.1726293 -0.21528766 0.404038 -0.36977187 -0.74609274 -0.29200828 -0.39085817
必 -0.12701155 -0.27589265 0.13267669 0.28123903 0.13241 0.028761022 -0.037062917 -0.26930475 -0.4260691 -0.2920764 0.2979921 0.037233006 -0.3234624 -0.0023562307 0.142057 0.2520561 -0.0004051975 0.17364539 0.062299334 0.017628318 0.2526466 0.184199 0.06533155 0.064588845 -0.14634748 -0.11109926 -0.77672464 -0.1325413 -0.19386196 0.12604494 0.12307362 -0.13004161 0.1258169 -0.1716346 0.38531843 -0.06350586 0.037326645 0.30426 -0.010049881 -0.5327288 -0.19684426 0.091055326 0.12214993 0.18686102 0.52819437 -0.21990538 -0.20637384 -0.12682374 0.46962783 0.16444767 0.3485367 -0.3844079 -0.20205814 -0.10874528 0.08153084 -0.48344886 -0.6708775 0.044780232 -0.1126551 0.122840635 -0.037889503 -0.13084953 -0.064665414 -0.044867083 -0.16491765 0.14678931 -0.020943709 -0.11453986 -0.15633044 -0.35427982 0.22560348 0.38176844 -0.15730442 -0.038323455 -0.1301515 0.67614454 0.2955528 -0.07467038 -0.31927705 -0.06780371 0.36690974 0.75172913 0.05804079 0.5712129 0.051120628 -0.15614507 -0.15729934 0.45766678 -0.19059713 -0.21972439 0.40055287 -0.14845544 -0.058787864 -0.2880926 0.038566537 0.37062767 -0.20372705 -0.022107739 -0.07112085 0.247263
礼 0.011391661 -0.1000588 -0.0039326013 0.19958694 0.46955273 0.27357328 -0.04958728 0.0029927595 0.19847345 0.3500858 -0.22774477 -0.33385265 0.21202789 -0.034120407 0.28802198 -0.15754078 0.09798534 -0.1941073 -0.29097363 0.3046646 0.05858521 0.4373806 0.68579036 0.47676077 -0.16525702 0.34635413 -0.6500403 -0.06479498 0.14898904 -0.12135315 -0.17596564 -0.2007979 0.022102002 -0.24447161 0.022582656 -0.13578908 -0.3230343 -0.14900449 -0.11532861 0.50171375 0.21182163 0.5461248 -0.23705591 -0.022009004 0.3546981 -0.03219713 0.35776517 -0.26684064 0.3547378 -0.24067831 0.19285716 -0.46379587 -0.0052355076 -0.07855268 -0.28036955 0.4523827 -0.23618537 -0.13326548 0.29170293 -0.12839054 -0.18676427 0.24909186 -0.23122422 -0.26644707 -0.28813475 0.07825731 -0.07429245 -0.40967086 0.07118498 -0.12884422 0.2975678 0.6152432 -0.29457676 -0.45205843 -0.22439338 0.26324227 -0.012358945 0.3028914 -0.22071286 0.23329984 0.1160833 -0.15992664 -0.24543262 0.2896675 0.048152216 -0.20868768 0.3272726 0.5960281 0.32932463 -0.22727548 -0.37940183 -0.07081316 -0.09560442 -0.0648298 -0.10973812 -0.2684009 0.102279715 -0.36156237 0.16093844 -0.06985304
孔 0.51502246 -0.27019197 0.27228662 0.050773755 -0.16936257 0.07303801 -0.4168193 -0.1856291 0.005679367 0.13457991 -0.26772556 0.03700499 0.07435863 0.009345133 0.08686038 -0.28338194 0.24858023 0.09585299 -0.36902878 -0.102345064 -0.20588665 0.33938652 0.20608206 -0.2586385 -0.587997 0.06671427 0.06835875 0.47066927 -0.44884178 0.1692252 -0.34710637 -0.013634673 -0.34903806 -0.372848 0.29633504 0.052105285 0.19093242 0.118854806 0.20403583 0.10260628 -0.20732583 -0.36422798 0.081436865 -0.054876518 0.17126592 -0.51434225 -0.29528192 0.18284571 -0.22363907 0.10083042 1.7387239 0.15677482 0.35696974 0.22120781 -0.49292207 -0.0057476033 -0.1740094 -0.047951125 0.12602143 -0.14908095 -0.07947764 0.4701434 -0.38584366 -0.22833583 -0.40761286 -0.23111208 -0.08183337 0.010567959 -0.05231096 0.16718635 0.2382166 -0.069408216 0.20214501 -0.3360471 0.12602949 0.5200895 -0.2955102 -0.42471358 -0.1648558 -0.23861812 -0.063911535 -0.4331626 0.083213784 -0.4574363 0.1275012 -0.2701821 -0.08674918 0.12390955 -0.0838807 0.014653895 0.12773743 0.030774545 0.0035309657 0.35546008 0.19923489 0.0031731254 -0.11981072 0.31807384 0.2938225 -0.38458434
斯 -0.33949658 0.033548255 0.34883112 0.57511735 0.21743697 -0.055025797 -0.38274008 -0.15914406 -0.06216998 -0.30563098 -0.011496187 -0.0360318 -0.24114034 -0.06008712 -0.25283816 -0.018855061 0.58273935 0.24709834 -0.21426113 0.24474043 -0.34224316 -0.12444912 0.063330315 -0.5460167 0.06614816 0.017135551 -0.76622385 -0.25559047 -0.7649554 -0.51706237 0.09210696 0.032719918 -0.1351939 0.20846358 0.07969792 -0.1526344 0.14105663 0.44648844 -0.16023982 -0.3288148 -0.4106808 -0.0028967755 -0.14294922 0.19141759 0.13212848 0.66951877 -0.06191924 0.29620403 0.21495138 0.37437552 0.42240012 0.13188995 0.14288269 -0.2625709 -0.28645775 -0.028856842 -0.21236724 -0.28133634 -0.3661986 -0.19775772 -0.08548447 0.1988852 -0.05960154 -0.048472717 0.19474934 0.2621503 -0.024271788 0.03859045 -0.06784653 -0.029738668 -0.3546515 -0.1265756 -0.07969243 0.056376334 0.0057130936 0.35035712 -0.12439081 0.20700555 0.2451306 0.16145635 -0.31248206 -0.08021418 0.19569577 0.27170822 0.07716048 -0.7662517 0.24054015 -0.051976405 0.05941029 0.0062049795 0.3153529 0.06828946 -0.032253698 0.4355543 -0.32260495 -0.13501984 0.029975884 -0.17122507 -0.42925394 -0.20530033
三 0.16891639 0.20207867 -0.33691967 -0.16447736 -0.12378493 0.09866859 -0.009638772 -0.10315134 -0.18740614 -0.09471293 -0.3658381 0.15215771 0.013052168 0.07924174 0.32861164 -0.21932286 0.0909076 -0.3951468 -0.1780581 0.25493246 -0.06805874 0.20710675 0.56660694 -0.34745833 0.17439267 -0.030718748 -0.44423166 0.49864274 0.34379664 -0.29062235 0.20451878 -0.2121019 0.10212669 -0.11023262 -0.14072514 -0.39023402 -0.12859899 -0.12558249 -0.7554997 0.16397229 -0.04504651 0.021531578 -0.35662195 0.38433906 0.22562326 -0.010267669 -0.13068698 -0.2029642 -0.3290838 0.623664 1.0003467 -0.14008366 0.058892787 -0.16955307 -0.13389438 -0.4850876 -0.50534934 0.20115584 -0.1287147 0.20141779 -0.1441981 0.4268068 -0.20493993 -0.22253725 -0.18506747 -0.08575478 -0.45793906 0.4311144 -0.1916572 0.080282256 0.56335425 -0.23023745 0.2697719 0.11006659 -0.03983509 0.2872034 0.107148096 -0.3220732 -0.17013003 -0.3201281 -0.080381505 -0.23316611 0.0037032692 0.27270132 0.019735802 0.31401774 -0.17367324 -0.13139704 -0.10683285 -0.23904596 0.16419159 0.3003434 0.6305131 0.057705905 0.17381649 0.22162879 0.15915102 0.10694674 -0.1836471 -0.03402557
能 -0.29530662 -0.16037884 -0.26430675 0.22272532 0.18916292 0.04088148 0.0399327 -0.089704454 -0.16244256 0.14906046 0.19533962 0.24283034 -0.14873093 0.108345844 -0.18755673 -0.24331729 0.16670737 0.077979386 -0.12755574 -0.19238402 0.12686613 0.34155402 -0.5137688 0.14856815 -0.20039403 0.078511015 -0.8584511 0.036338862 0.49855542 0.31737098 0.09043794 0.15699156 0.025035307 0.2794616 -0.43360028 -0.5984475 0.56507367 0.09687688 -0.4476686 0.22429876 0.2565628 -0.11899586 0.6809457 0.18619168 0.61461246 0.0981126 -0.26809874 0.27159184 0.26872984 -0.32299086 0.46330842 0.11365516 -0.14676696 0.07208597 -0.0058283177 -0.14515147 0.0615136 -0.2673119 -0.45189145 0.016490117 0.50042814 -0.11169133 -0.27317175 -0.16874655 -0.26240778 -0.013321888 0.34665474 -0.18349682 0.15285644 0.18145472 -0.2198001 -0.5310987 -0.15012543 0.12561108 0.22873646 -0.12814347 -0.22567767 -0.11402851 -0.40369278 0.028609047 0.013911515 0.43395418 0.4066386 0.3724543 -0.5585673 -0.05918257 0.20980187 0.19637251 -0.04276145 -0.32165003 0.035497226 -0.2333511 -0.2178677 -0.054817315 0.010848893 0.07696719 0.21668178 -0.32654762 0.33629483 -0.12640004
见 -0.066247724 0.23296162 -0.06821734 -0.013065044 -0.009823016 0.13783903 0.13204242 0.117086016 0.56787336 0.3466256 -0.35238832 -0.29250407 0.11489443 0.08736292 -0.30500764 -0.20460728 -0.20751683 0.30654374 -0.23449002 0.31215307 -0.10450119 -0.054078013 -0.03378204 0.4572077 -0.22149971 0.0006311978 -0.43077984 0.660566 -0.04278723 0.28930143 -0.1783614 0.012047712 -0.0670111 -0.15522455 -0.28997856 0.7693588 -0.117340244 -0.1595445 -0.08095301 -0.22642322 0.5784856 0.12803403 0.13121119 -0.042521063 0.052549057 0.29968774 0.31183213 0.15893573 0.17778921 0.0007381798 0.6327801 0.025811305 -0.062013865 -0.05218005 -0.09439555 0.14552832 0.06648989 0.1977755 0.38037837 0.12001611 0.04591102 -0.07041444 -0.29134956 0.13087073 -0.06888399 -0.029633742 -0.22586153 0.09561187 0.07891258 -0.51209456 -0.26776564 -0.2419942 -0.13030903 0.042325415 -0.34446034 -0.18840818 0.2439962 0.039143566 0.335032 0.5013441 -0.1714632 -0.17447098 0.17029208 -0.08867563 -0.065153696 -0.35151348 -0.24763851 -0.30867258 0.072352156 0.20444062 -0.006900301 0.01663425 -0.25851527 -0.36745957 -0.18587574 -0.039323937 0.3668988 -0.16468337 0.43862692 -0.43148956
学 -0.12549415 0.083029956 0.12465292 -0.18656471 0.21920791 0.003212554 -0.003978451 -0.26853013 0.13062751 0.8157781 0.31978467 -0.45459664 0.12546612 -0.27858856 0.24380802 -0.13577956 0.063329235 -0.1096764 -0.19241138 -0.3335579 0.2606224 0.30298626 0.56399417 -0.30101746 -0.013601353 0.26894966 -0.5910445 -0.01154336 -0.02573691 0.1345421 0.21442081 -0.10437615 0.37166017 -0.39006284 -0.03029136 0.13623162 -0.34856293 -0.15917006 0.24784334 -0.66556513 0.064400785 0.0785192 0.047237083 -0.42890865 0.63589025 0.40001598 0.12396333 0.21620612 0.4205987 -0.36207122 0.65416783 -0.083147936 -0.08174346 -0.29119012 -0.011584246 0.5114599 0.1879889 0.49843034 -0.16295104 0.07236071 0.64309806 -0.069818474 0.0060216496 -0.04331941 0.30048886 -0.028484449 0.049863685 -0.034687623 0.02017869 -0.09992386 0.08625244 -0.26440355 -0.15912831 0.06215473 0.026985232 0.34033665 0.24161363 -0.1224014 -0.0007581711 0.21401364 -0.3890068 0.20994508 0.43672037 -0.012608737 -0.19340284 -0.18258527 0.436181 -0.09092668 -0.26494467 -0.057938118 0.13968584 -0.14524007 -0.117051505 0.58994585 -0.29118747 0.052602045 0.3404885 -0.6106559 -0.2596232 -0.0146469325
事 0.44174773 0.4476393 0.27258882 -0.005187359 0.15176597 0.3632051 0.26634628 0.24547872 -0.104000345 0.116902426 -0.24472994 0.07526959 0.09627002 -0.13030155 0.10717415 -0.12928241 -0.44664443 -0.51898754 -0.06446633 -0.13209155 -0.022235136 0.22834408 -0.041047398 -0.05683606 0.025572384 -0.10962035 -0.6798754 -0.14893806 -0.64273226 -0.22071707 0.024332616 -0.16317672 0.23944129 0.03728643 -0.08061821 -0.087945566 0.24369308 -0.14265311 -0.15993623 -0.32145745 0.70854825 0.147575 0.11654562 -0.14570503 -0.16416948 0.13873634 -0.29938376 -0.41709673 0.21025872 -0.28864324 0.52558863 -0.089838065 -0.50430954 -0.19974425 0.25979784 -0.108287536 -0.29664725 0.13772088 0.096707985 0.24567896 0.37443876 -0.062578306 0.40955538 0.07891915 -0.1703298 0.24243137 0.23600104 -0.14173922 -0.42143586 0.01250538 -0.2226713 -0.11346842 0.5384729 0.4589817 -0.3586702 -0.32718796 0.47012585 0.078548156 0.1282681 0.08982722 -0.03034452 -0.18337178 0.14022177 0.27361444 0.01307285 -0.24393052 -0.10690425 0.1395613 0.23559627 -0.015450541 -0.08228437 0.18216787 0.20692748 0.16168338 -0.04910811 -0.07596491 0.4222583 0.022218522 0.1423969 -0.033458322
是 0.13379051 -0.11853522 0.15852566 0.42263016 0.16666433 -0.04692183 0.17491469 -0.07522097 -0.07148756 0.076057285 -0.60132957 -0.37304404 -0.13974313 -0.061615236 0.17175172 0.31878608 0.712426 0.19731976 -0.41555953 0.11766628 -0.059795372 -0.15796036 0.21369489 -0.3631876 -0.5369537 -0.024204517 -0.34798935 0.24376827 -0.0049376814 -0.24130657 -0.09560971 0.33461317 -0.1706709 -0.15663254 -0.14018877 0.14346398 0.22678904 0.07645607 -0.06667675 0.017281989 0.050488498 0.24943528 0.41892114 -0.48507172 -0.3122223 -0.3400134 0.116270006 0.10535838 -0.1871102 0.14424755 0.3588387 0.0789058 -0.008789252 -0.052518558 -0.18205892 -0.17342982 -0.30552486 0.41845754 0.0023819508 0.012084281 0.20783085 0.08458579 -0.012262478 -0.29985994 0.3897498 -0.19257534 -0.21914929 0.15398812 -0.42779422 -0.09817409 0.45106387 -0.0861386 -0.18384778 0.35600945 0.13825683 0.32937798 -0.025077064 -0.3502384 -0.49858442 0.18429635 -0.022362268 0.49391806 -0.01954528 -0.3055204 -0.04865196 0.11191177 -0.10876232 0.41470116 0.15574476 0.47825173 0.15764828 0.051521007 0.009461525 0.09617612 0.059098363 -0.029759828 0.61568195 -0.5606355 0.022375965 -0.16750693
哉 0.70094085 0.08861931 -0.021140585 -0.565013 0.39455625 -0.13966975 0.2453358 -0.02564801 0.4799957 0.0052455985 0.12419175 -0.25266716 0.27428082 0.56582296 0.09346191 0.3255826 0.31658626 -0.18546128 0.10954457 0.029842848 0.11856636 0.1569526 -0.58622086 0.043447994 -0.05459292 0.051067095 0.10586256 0.39974472 -0.2710485 -0.16663317 -0.7877976 -0.36296493 -0.4337478 -0.06489213 -0.03940869 0.18984012 -0.36205876 -0.9067248 0.2795798 -0.34491512 -0.23273647 -0.22801723 0.8479789 0.26227865 0.05022284 -0.34618154 -0.006992641 -0.47146887 -0.6953831 0.12417501 1.2456366 0.54655176 0.02526075 -0.20860256 -0.15318973 -0.17792541 -0.067675985 0.34696373 -0.12677246 0.21852706 -0.1419815 0.07837565 -0.09693462 -0.35681176 0.2155182 0.06636572 0.70044374 0.02240747 -0.15496185 -0.113064125 -0.069077656 -0.19666512 0.35463262 -0.12805945 0.41059262 0.44542152 -0.67988706 -0.12825836 0.604304 -0.45210123 -0.38668534 0.108047545 -0.29358 0.043006666 -0.01622194 -0.6801196 0.06260878 0.5206116 -0.19193467 0.23732036 0.1803289 -0.6729721 0.3664811 0.0031565065 0.08505353 0.040516656 -0.26466435 -0.48731467 -0.43809628 0.061842885
闻 0.277181 -0.014939761 0.20603214 0.3970239 0.3264032 0.09294443 -0.0024997294 0.16826226 -0.3106204 0.05139132 -0.06623415 0.23416694 -0.039453473 -0.6395774 0.06438313 -0.17301792 -0.07221169 0.43345112 -0.29563603 0.057672776 -0.32171604 -0.04619107 -0.112092644 -0.020746805 -0.120770164 0.06839763 -0.06948768 -0.00728474 -0.1814153 0.41082993 -0.23252696 0.09602995 0.4805032 0.2369525 -0.45051625 0.11461911 -0.1632607 0.2113025 0.1309117 -0.34610716 0.34136996 0.3846693 0.04639413 -0.10366739 -0.055593744 0.22451249 0.2611015 -0.37022287 0.12916714 0.24058458 0.7512087 0.045684874 -0.35366935 -0.1664599 0.20591773 -0.008915654 -0.30151924 -0.47789443 -0.18290436 -0.1381811 0.01909402 0.17642544 -0.49381068 -0.15348554 0.063897885 -0.21962526 0.1656196 -0.013295861 -0.014735245 -0.24914618 0.20221336 0.0056544933 -0.5102336 0.09094206 -0.19441952 -0.3059412 -0.019943643 -0.2685055 0.04604657 0.25806382 -0.33195335 0.3280033 -0.6402381 -0.20146072 -0.1643969 0.40846515 0.05803268 0.45066443 0.3330639 -0.035462733 0.12600641 0.45500812 -0.13370489 0.09337551 -0.196751 -0.111979485 0.032179963 -0.21599087 -0.07214742 -0.09059549
未 -0.21808596 0.024813365 0.27215046 0.33560273 -0.18700045 0.7153035 0.25328794 -0.07859655 0.23305158 0.34027466 0.053531203 0.25334942 -0.040338967 0.27101994 -0.094603576 -0.32246217 0.16851705 0.2061032 0.19586118 -0.012547699 0.14340383 -0.22958249 0.48568854 0.08662276 0.28611526 0.13458493 -0.7945625 0.001621526 -0.29646757 -0.24781467 -0.0041075125 0.34928793 -0.18875769 -0.16808282 -0.12542671 -0.36089203 -0.029430216 0.1524292 -0.1753027 0.122519314 0.32799792 -0.46720216 0.02099896 0.023097875 -0.07193898 -0.07226068 0.41910636 -0.15808849 0.1404925 0.39049762 0.71746397 -0.480179 -0.22323842 0.27582097 0.20971878 0.039476953 -0.4966607 0.0065293782 0.2211714 -0.3373433 0.18472004 0.17892304 -0.19318067 0.2383161 -0.39604586 -0.38551587 -0.18326205 0.020999309 -0.3345399 0.22935922 -0.0003834234 0.16988431 0.072830856 0.4032747 -0.0065185614 -0.20566161 -0.11989456 -0.3247022 -0.21291642 -0.26477575 -0.5920231 0.89196354 -0.0037554493 -0.009180369 -0.17629841 0.08147264 -0.14812276 -0.0482049 -0.29517686 0.26655093 -0.3710654 0.3930826 -0.152139 0.6669721 -0.22485428 0.18072382 0.06654532 -0.12262782 -0.41902965 -0.22953172
公 0.21000287 -0.8916007 -0.24060449 0.053340714 0.017729076 0.040670525 -0.033105347 -0.025028557 0.16212125 0.3341416 -0.50107545 0.14282462 -0.21737166 0.21816923 -0.23844032 0.5515068 -0.18817163 0.114073835 0.024084853 0.042470552 -0.3100387 0.30447575 0.09795799 0.20014435 -0.39532554 0.035085052 -0.15520784 -0.2058694 -0.5124408 -0.17010732 -0.3266983 -0.16030489 -0.42197528 0.45690107 0.29657364 0.22812353 0.06788153 0.3991773 0.22926752 -0.20136005 -0.121702105 0.40734282 -0.13541402 0.4789356 -0.07677874 -0.002160118 0.040741887 -0.018436464 -0.20018007 -0.10139614 1.1190408 -0.16502024 0.04707739 -0.376339 0.17275439 0.32781652 -0.041045498 -0.12517007 -0.28278345 -0.16970702 0.20180179 -0.02740152 -0.12503877 0.15890482 0.16794856 -0.2765631 -0.32300615 0.10440656 -0.039923698 -0.29651827 0.041712206 -0.12767404 0.20883618 -0.12266189 -0.064657 0.16334413 -0.41687816 -0.0047974 -0.0006579319 0.42659074 -0.38451207 0.109627835 -0.054317184 -0.12228094 0.62254643 0.02497321 -0.3772272 0.15023038 -0.008435345 0.12188498 0.11878281 0.1310675 0.24007316 0.2539945 0.027117323 -0.034338217 0.04246165 0.10543543 0.74812144 0.102786735
好 0.13119075 0.30020785 -0.09407601 0.13173096 -0.08443385 -0.120698035 0.5686668 -0.4557146 -0.4514471 -0.06250157 0.1764644 -0.4215778 0.059222687 -0.31635967 0.33965892 0.05807991 0.123098195 0.36137918 0.19996089 -0.16732717 -0.20460722 0.3438267 -0.071305946 -0.04991477 -0.0661746 0.17375273 -1.1881815 -0.052878976 0.03624943 -0.033463676 -0.15143457 -0.091862395 0.34506008 -0.2683943 -0.24690928 -0.27744403 0.34430736 0.13144474 -0.45318815 0.4533964 -0.14945483 -0.30673268 0.099038266 -0.15865135 0.10375553 0.2651712 -0.44172794 0.33969992 -0.07532117 0.12401554 0.71850723 -0.14756855 -0.29595488 -0.06414765 0.22943494 -0.31164044 0.23146048 -0.50886476 -0.06513139 0.11416463 -0.0053926585 0.119732305 0.19330795 0.11731701 -0.06353476 -0.0352333 -0.0661093 0.5875851 0.059813373 0.40047112 -0.3582967 -0.73999476 -0.1925943 0.027694723 -0.4630371 0.109431915 -0.3244438 -0.7142036 0.3050993 0.02237874 -0.42508107 -0.15428299 -0.2548396 -0.19542584 0.3830368 -0.14438307 0.050094664 0.41223976 -0.1741395 0.37945464 -0.14375874 -0.21455027 -0.06029374 0.31605214 -0.26352102 0.06672596 -0.29136124 0.23213248 -0.17429395 0.22173643
我 -0.33131123 -0.08151102 -0.1660093 0.5079627 0.36367556 -0.33505002 -0.15059721 -0.08584924 -0.15967208 0.03686815 0.2241376 -0.2122269 0.05347051 -0.20915489 0.21290472 -0.07445169 0.4506375 -0.10946106 -0.36920175 0.2685119 -0.24481712 0.20617856 0.07285153 -0.09847465 -0.28679994 -0.5651607 -0.6930436 0.06298281 0.0746396 0.054471593 0.2521754 -0.6035074 -0.086966 -0.029230567 -0.37054354 -0.07842518 -0.39507222 0.16585037 0.08871941 0.55147994 0.1336234 0.5511763 -0.08950663 -0.14425945 0.11560157 -0.31572437 0.24334593 -0.26113665 0.6451243 -0.18482915 0.656181 -0.09724314 -0.18126373 -0.54454756 0.42199266 0.19941808 0.23267643 -0.31740293 -0.048874214 -0.48164788 0.49550495 -0.07731542 -0.06772644 -0.1568114 -0.018642867 0.17825374 -0.18943454 0.11530011 -0.044059675 -0.18614845 0.27591053 -0.20161091 -0.23786204 -0.28750142 0.6277386 0.16410264 0.2615177 -0.54816884 0.097312085 0.67320967 -0.06620621 -0.17085618 -0.20788957 -0.38914776 -0.5301073 -0.4284382 0.15799055 0.04658945 -0.0058373595 0.12384607 -0.11096973 0.04265687 0.040856257 0.4506646 -0.008506269 -0.12091218 0.09567547 0.11947495 0.37062407 0.07684402
路 -0.31001034 0.11284555 -0.4590705 -0.0689124 0.36717042 0.4924882 -0.48490754 -0.20555168 0.27358058 -0.3473372 -0.17907302 0.042983662 0.03966097 -0.14374536 0.06515191 -0.31021813 0.260249 0.17905836 -0.09182154 0.3118382 -0.054952387 -0.53622645 0.28526127 0.53952503 -0.14658394 -0.0071332855 -0.008271124 -0.043269187 0.36224204 0.094466954 0.090484425 -0.15710643 -0.15295531 0.029912014 0.1114334 0.26402527 0.26998186 0.09853748 -0.28333732 -0.39523757 0.3031 0.12969206 0.03778312 -0.3737165 0.30600876 0.03132479 -0.21738508 0.20221922 -0.051788907 -0.038611274 1.453108 -0.11508354 0.2586029 -0.0038362222 0.1870243 0.068558164 0.46603534 0.104145944 0.08798449 0.17447755 0.3716113 -0.18799958 -0.3431753 -0.16750993 -0.08424609 0.29930303 0.091529354 -0.2190301 0.15203735 0.29342067 -0.110010624 0.106464304 -0.3968688 0.009028045 0.060266413 0.33410892 0.26384506 -0.45437267 -0.10761694 -0.19214259 -0.15498729 0.08836607 -0.34083188 0.123819984 0.41099563 -0.10316556 0.0022541224 -0.1081775 0.124133855 0.29339397 0.25934264 0.029935174 -0.0036010952 0.45302007 0.13982105 -0.07069413 0.053300627 0.104536295 0.31781286 -0.024290636
在 0.16803151 0.22430713 -0.15573397 -0.27651215 -0.16160487 0.44058532 -0.24432781 -0.08288865 0.14375731 -0.04673337 -0.31003687 -0.29784802 0.1392807 -0.058451593 -0.25804278 -0.25274843 -0.1984127 0.13243803 0.12141238 -0.15524225 0.6786615 0.41542244 0.042370513 -0.10357581 -0.29797313 0.428212 -0.45709825 -0.09970371 -0.046048053 0.01968031 0.111761294 0.08241316 0.31990576 -0.18710043 -0.03983557 -0.103644006 0.079285994 0.18323219 -0.36853355 -0.079865046 -0.08873811 0.37601623 0.0478837 -0.4367434 -0.65056753 0.45534062 -0.21422559 0.051986907 0.29733795 0.4704129 0.6086493 0.111395925 -0.4491865 -0.3293827 0.06188318 0.14649864 0.07736053 0.23981349 0.08163934 -0.062416032 -0.34615752 -0.16838154 -0.18879949 0.25555062 -0.44515368 -0.03651612 0.3868577 -0.0589986 0.6328822 -0.18751012 -0.028910788 -0.38483712 -0.14944899 0.14982517 0.06259633 -0.3474396 -0.06120598 0.16208999 -0.90943354 -0.38374668 0.10523548 -0.3177054 -0.58043283 -0.113253854 0.048439678 -0.11103906 0.22524118 0.092809886 0.15781927 -0.34551367 0.48266342 0.31366104 -0.056904167 -0.022364601 -0.33225322 -0.18963926 0.050359894 0.019017704 0.11815916 -0.16004097
已 0.36500722 -0.057207666 0.14504609 0.22845969 0.0021765418 0.6152076 -0.005469408 -0.023923004 0.17437 -0.5554996 0.15587212 -0.5942219 -0.120094284 -0.031279787 0.26649386 0.19553179 0.012357752 0.49420574 -0.14653829 0.5904053 0.21117577 0.17017841 0.42311034 -0.562302 0.19466129 0.43616968 -0.37513766 -0.05652659 0.08106611 -0.09040956 -0.0012268093 0.3726753 0.24507022 0.042011708 -0.041339453 -0.04511622 0.6433742 -0.12445946 -0.10399334 0.15549283 0.45721674 0.10122525 0.37844032 0.020763827 0.3897365 0.08460072 0.38193884 -0.044037685 0.9775893 0.11649856 0.8133043 0.025569633 -0.079429045 0.24131124 0.12059198 -0.18633264 -0.10221985 0.8558482 -0.6472412 0.155645 -0.13934833 -0.15249774 -0.31485924 -0.18464403 0.32573864 0.5725445 0.02629819 -0.17480725 -0.21765898 0.28889292 -0.1176598 -0.04911016 0.30537948 -0.17660455 0.5090908 -0.27007762 -0.36058578 -0.24206096 0.352837 -0.2107933 -0.13054784 0.22250809 0.14584553 0.17286113 -0.34208238 -0.23028906 0.36906072 0.13819431 0.10552789 -0.065293476 -0.14244191 -0.1834172 0.18553194 0.75920683 0.00031728554 -0.019172369 0.14534204 -0.07836235 -0.09938597 -0.06326209
得 0.057878718 0.14094917 0.084798485 -0.017861465 0.054572813 -0.08679007 0.011175718 0.44570902 0.46648672 -0.120525025 -0.5189597 -0.05863234 -0.13830583 0.051209453 -0.22017291 -0.11099751 -0.22508208 0.5375462 0.1025351 -0.7084255 0.1869025 -0.33921978 -0.16551895 -0.34710032 -0.11809567 0.093678586 -0.9872569 -0.15298636 -0.032734025 0.29577562 0.12578934 -0.26492253 -0.10632981 0.19858325 -0.60105735 -0.3268781 0.008100015 -0.14621048 -0.07564651 -0.17555337 0.15106425 -0.20061623 -0.03904657 -0.2570248 -0.28416276 0.30714306 -0.19181108 0.71165633 1.0292612 0.11582119 0.40308025 0.07683841 -0.2892933 -0.2146165 0.3767201 0.039066073 0.11721536 0.18093206 -0.41198424 -0.23319665 -0.067192055 0.15574619 -0.38110977 0.42029136 -0.27492028 0.23523054 0.20267598 -0.3052265 -0.16810855 0.2656559 0.44606197 -0.429403 -0.12256207 0.17575239 0.19745314 -0.13798237 0.17863502 -0.29033202 0.56639344 0.07723701 0.25755256 -0.22835103 -0.1745493 0.26662138 -0.23219573 -0.16423237 0.30640417 -0.078359835 -0.027303588 0.018206613 0.2611739 0.12117641 -0.15288407 0.15237719 0.014084745 -0.048656676 0.34563783 -0.14136651 -0.068763256 -0.34226105
所 0.12043549 0.012337457 -0.21325698 -0.04415273 0.44783768 0.58902025 -0.4305457 0.46265483 0.59119916 -0.12335586 0.072865255 -0.03869722 -0.2814845 -0.21685584 0.06420324 0.2754625 0.45981076 0.619709 -0.48512006 0.2370176 -0.07723555 0.07147573 0.004946621 0.109477066 -0.5368097 -0.0016931577 -1.2961022 0.30880332 -0.1489665 -0.04276294 0.07727684 0.21011464 0.20981927 -0.23341152 -0.10054035 -0.4288104 0.3704685 -0.23137413 0.11379008 -0.39041373 0.20638719 -0.15037964 -0.34035513 -0.0882308 -0.37890795 0.25388896 -0.103878275 0.33993056 0.054386064 0.07873518 0.70011395 -0.15163891 -0.20492847 0.3111038 0.16944744 -0.41055417 0.10693906 0.46903306 -0.06266473 -0.086679175 -0.04394585 0.20895843 -0.21475717 -0.14471006 -0.14464287 0.34874487 -0.17635447 0.25358632 -0.19643022 -0.2117608 0.2920417 0.12810674 -0.33631763 -0.03496387 0.09845445 -0.60464555 -0.038477533 -0.20068061 -0.25773904 0.38562533 -0.7122622 -0.47370043 0.17570579 -0.39301786 -0.029017905 0.13302629 -0.13204683 -0.0365791 0.29153794 0.23430684 0.35924175 -0.0118324505 -0.041998774 -0.18185602 0.48267955 -0.22692661 -0.47841284 0.086435325 0.69093513 -0.2736101
民 0.35480064 0.23213829 0.030127095 -0.014681288 0.18923502 0.06620189 -0.29910836 -0.025877154 -0.114421934 0.43883505 0.12101147 -0.096295826 0.200499 -0.29853827 0.45940033 0.60407734 -0.14716494 0.20417444 -0.18777649 0.15431397 -0.7083527 0.21670769 0.018574784 0.12790787 -0.2138737 -0.07389226 -1.423204 0.020474527 -0.0847271 0.039308745 0.092445895 -0.08094723 -0.5386115 -0.4143398 0.34435707 -0.07547536 -0.28824455 0.46778804 -0.34779927 0.021633754 0.077035554 -0.11335787 -0.20325568 -0.079655714 -0.11985885 -0.22541678 -0.08899274 -0.48130023 0.17370123 -0.2960437 0.110646345 0.11961394 0.21718688 0.19065604 0.25592208 -0.21499595 -0.16800235 -0.11231238 -0.10948032 0.24994372 0.23792483 0.38364026 -0.21056464 0.014854916 0.63031644 0.28175002 -0.14790726 -0.50340784 -0.3341137 -0.17599745 0.077940606 -0.21479537 0.16571689 0.36252266 -0.56154335 -0.2532288 0.17707956 0.10776599 0.16870967 0.22669302 -0.14572898 0.55413556 -0.12757388 -0.027453538 -0.41273752 0.14738919 0.010940199 -0.10674552 0.27486843 0.23369935 0.3029161 -0.016779467 -0.06924999 0.93688685 -0.0052589793 0.1669366 0.5285142 -0.13179883 0.02658801 -0.64620954
小 -0.0782667 0.12278623 0.024576444 0.16999 0.44105938 0.20734243 -0.25708503 0.31959772 0.293802 0.0035086335 -0.26885828 0.0658585 0.09283174 0.08608865 -0.034850303 -0.37253457 -0.81964254 -0.1929788 -0.97755104 -0.9096046 0.38795137 -0.2858952 -0.13235918 0.14477703 -0.061184578 0.1343146 -0.5964963 -0.043783516 -0.355308 -0.7528257 -0.17232512 -0.16677995 -0.8819913 0.16193634 -0.13772625 -0.45821705 -0.17200032 0.18497783 -0.4288544 0.09625275 0.12270525 -0.41584674 0.38065648 -0.24067658 0.10923989 0.08407399 0.064678356 0.3743804 -0.25471658 0.7649049 0.5390411 0.11925547 0.6216019 0.18080379 0.502907 0.05266154 -0.095455274 -0.5610575 0.23708192 -0.09755987 0.009066744 -0.46357626 -0.32273003 0.33657986 0.014048945 0.52284867 -0.5291124 0.0409492 0.21047758 -0.030021004 -0.21932156 0.041124064 0.11348894 0.1691624 -0.28897223 0.50077164 0.1017923 -0.6417873 -0.13864349 0.025047861 0.10075034 -0.30436468 -0.3218849 0.072583735 0.048033178 -0.40125215 0.3381677 -0.042336266 0.55345047 0.12472538 -0.26756623 0.20242046 -0.13768789 0.74066246 0.68119484 -0.24344535 0.27427548 0.0016492374 -0.61803985 0.37070668
天 0.5738534 -0.0062630577 0.12348858 -0.52633417 -0.19657284 -0.26816344 0.22054707 -0.55344623 0.021787649 0.012014745 0.12528422 0.057102006 -0.04351064 0.1944394 -0.18729231 0.2791891 -0.3281909 -0.05576344 -0.48687968 -0.009971981 -0.4349674 0.90048647 0.6276495 0.19499998 -0.53987247 0.09840704 -0.45324218 0.33019006 -0.51790076 -0.14534189 0.21892081 -0.53372526 -0.50441915 -0.25028282 -0.23634472 -0.3626264 0.5654888 0.20483701 -0.53621864 -0.37824494 -0.24462114 0.26068866 -0.33718073 0.05474428 -0.17189068 0.02780039 0.0053757755 -0.4786632 -0.4079156 -0.11042144 0.7557822 -0.04070503 -0.17526779 -0.03323605 0.10040539 0.4627946 -0.16461197 0.16596293 -0.20679227 0.059579007 -0.31996626 -0.09164047 -0.18926758 -0.16392845 -0.16855277 0.4333254 -0.4222854 0.26763904 -0.2587366 0.5115248 0.12844063 -0.4488435 -0.029523257 -0.29525316 -0.026250724 -0.103911154 0.57939136 -0.27955002 0.28084216 -0.3867126 -0.047055613 -0.14984266 -0.30511102 0.34696302 -0.0022178404 -0.23161374 0.17303261 -0.18134326 0.03251572 -0.11870049 0.17326023 -0.08268222 -0.18972486 0.03369848 0.07616514 0.15560557 0.17913766 0.2075673 -0.2717634 0.1525448
乐 0.48617372 -0.14025354 -0.31938574 0.30303246 -0.16466337 0.2932279 0.25557172 0.023629332 -0.045682445 -0.026266873 -0.11607574 -0.12338541 -0.09757622 -0.23996986 -0.19161807 -0.071676955 -0.17990923 -0.04560044 -0.15422887 0.3391712 0.3525078 0.0867533 0.33717483 0.30532375 -0.2573349 -0.16760582 -0.6177629 0.030594988 -0.34237516 0.1450532 -0.5070456 0.06625025 -0.19375993 0.3628489 -0.03913377 0.09906977 -0.017880227 0.12035863 -0.2103586 0.28893945 0.037947442 0.3694352 0.37753472 0.23749456 0.32812983 0.0499014 -0.0056170393 0.6722848 0.3743578 0.15430832 0.08352892 0.11332744 0.3971575 0.030442556 -0.3939201 -0.31462705 -0.3601194 -0.50325155 -0.44861042 0.15908201 0.5221623 -0.08376387 0.48625135 -0.2769686 -0.3450782 0.32772133 0.14738129 0.36365917 -0.17717148 0.008822231 0.2811696 -0.094472945 -0.15826224 -0.31221128 -0.24192531 0.23036972 0.24888928 -0.055584956 0.088718966 0.69162834 -0.021546075 -0.08941967 -0.024868218 0.31019148 -0.28214368 0.26820996 -0.05082291 0.25717977 0.0627712 0.13182889 0.6643608 0.03172282 0.63756895 0.12990493 -0.13988775 -0.272789 -0.30328602 -0.14641698 0.09296152 -0.20377044
邦 0.4089918 0.42009002 0.38814172 0.042971585 0.15105796 -0.14385976 0.57472223 -0.0051785517 -0.10564553 -0.22341596 -0.25288984 0.21799363 -0.0913607 0.051372573 0.22480232 0.07691202 0.13860825 0.043822598 0.009366149 0.58014303 -0.23882866 0.8694388 0.0019964038 0.58670294 0.24491394 0.056999072 -0.51262325 -0.11118661 -0.358096 0.16651398 -0.18946712 -0.4787905 0.23177592 0.36722326 0.28623307 -0.30813426 0.13779655 0.09889892 -0.4684487 -0.53101724 -0.20178492 0.15189826 0.115339786 0.5542367 0.04673282 0.20905428 -0.43187755 -0.18891671 0.503628 0.05611987 0.5615502 -0.17930555 0.0926035 -0.075476594 0.032255106 0.21806888 0.15100576 0.101425394 0.31802076 -0.48696092 0.31950068 0.5426748 -0.25888345 0.066457815 -0.1534133 -0.60441816 -0.10625623 0.1411406 -0.11081492 -0.19687368 0.25891307 -0.19891419 -0.38111687 -0.10782892 0.026944121 -0.5531453 0.19871536 -0.09642631 -0.27580538 0.304624 0.15780964 -0.1695222 -0.3136587 0.6304533 -0.09327296 0.03670617 -0.31478578 -0.09245775 0.35882127 0.025630563 -0.15448725 0.11112983 -0.24463418 0.25449622 0.14427724 0.13018088 -0.23934756 0.046877954 -0.21092716 -0.32925305
亦 -0.2510836 0.6647724 -0.22788611 0.37914547 0.5916204 0.50498414 0.2790024 0.7298765 -0.13422492 -0.02622965 0.076660916 0.0548783 -0.23331235 -0.012273159 -0.23706548 0.23721597 -0.21257739 -0.021213 -0.14508781 0.25379598 0.86452526 0.23654976 0.2054517 -0.50008535 0.07506615 -0.017525569 -0.8710819 0.30330896 -0.37488258 0.53194416 0.5484083 -0.06197178 0.20032457 0.135849 0.4118428 -0.0038234587 -0.39608356 -0.1945954 0.3791254 -0.38645205 0.38568935 -0.58947384 0.2574334 0.011471221 -0.057384662 -0.45810792 0.06939364 0.024499625 -0.3635622 0.43855557 1.0556655 0.053908017 0.21450655 -0.07154588 0.36985257 -0.4045425 -0.2887688 -0.15521707 0.31649154 0.2681771 0.3116242 0.15941365 -0.5100422 0.09935741 0.29793164 -0.04221183 -0.44964465 -0.21811943 0.024106566 0.2993142 -0.09771554 -0.03594987 0.03660988 0.14831412 0.14201824 -0.00839689 0.14597464 0.13484555 -0.14933191 0.053885717 0.031131217 -0.34016222 0.20101707 -0.25261578 0.040435057 0.3758121 -0.30772132 0.2679096 -0.11979957 -0.4804237 0.20587164 0.12217121 0.23323756 0.10448638 0.52510047 -0.4508742 0.19139627 0.2945948 -0.2757422 0.011196917
使 -0.36510804 0.37994424 0.047593947 -0.09016343 0.17368735 0.17531691 -0.16732568 0.026709497 -0.23528104 0.2427508 -0.100522816 0.069588445 -0.4148249 0.18738356 0.25606456 -0.08464015 -0.23264779 0.1560087 -0.095158 0.4580426 -0.08182872 -0.19790137 0.65218484 0.41210422 -0.19795355 -0.18094869 -0.3143786 0.46763265 0.3348354 -0.067233324 0.19940478 0.3265438 -0.4810391 0.30411488 0.095291674 -0.052162685 0.56636477 -0.48614746 0.31123516 -0.38246527 0.056400575 -0.0060584317 -0.059943974 0.16642895 0.17960286 -0.13946687 0.18162563 0.2689593 -0.4567827 -0.43415877 0.45105815 0.3659123 0.022969136 -0.09125246 0.5405553 -0.45259762 -0.31281313 -0.15043303 0.24908069 -0.050503455 0.6368582 0.369586 -0.54061216 -0.46766382 0.0008233871 -0.6498075 0.3904999 -0.11737903 -0.18004903 0.19841039 -0.098764464 0.20409977 0.17063725 0.105112545 0.17138556 0.040981438 -0.008040214 -0.08115668 0.3806796 0.28107834 0.18489742 -0.3371776 0.034220718 0.24047634 -0.08835703 -0.22225659 -0.007280118 0.17092009 0.26087582 0.12269387 0.16345367 0.036427878 0.2155322 0.59835196 0.22467479 0.1704001 -0.4874278 -0.23530942 0.35247126 -0.52139705
大 0.6643922 0.038216382 -0.17866562 0.20658258 -0.35613158 -0.11925242 -0.13644844 0.21397872 -0.035202783 -0.18098047 -0.31870487 0.03572304 -0.41527668 0.4814481 -0.02278132 0.2056204 0.40086123 -0.19020674 -0.22959411 0.16781254 0.0033536619 -0.13852698 0.30026188 0.26939997 -0.26871973 -0.32699296 -0.75334114 0.44741592 -0.62112933 0.21185084 -0.27105612 -0.09001995 -0.25750297 0.049775887 -0.20188063 -0.09672903 0.19961606 0.16096136 0.013767572 -0.093902014 0.0459828 -0.018492462 -0.3564526 -0.20396765 -0.03952069 -0.0572317 0.10709816 -0.032316897 -0.16397363 -0.34100902 0.5194787 0.54445416 -0.07582601 0.059751123 -0.2655372 -0.0457623 0.3206056 0.12334576 0.23586088 -0.2211742 0.10612139 0.45767647 0.055642806 -0.26498738 0.36230385 -0.09755715 0.089595996 0.20701262 0.13120703 0.034189567 -0.15801951 0.08288079 0.43211648 -0.15881513 -0.033739775 -0.044216953 -0.15162915 -0.506778 -0.16420582 0.092059195 -0.21280502 -0.24032614 -0.23958002 0.6028102 -0.1346058 -0.10518871 -0.197238 -0.7001024 -0.5882742 0.10887655 -0.2916494 1.0778437 -0.027322438 0.010102546 -0.06128602 0.240852 0.19579682 -0.0074594244 -0.26167613 0.12056325
下 0.6092892 -0.014998611 -0.6992532 0.9234985 -0.26271668 0.13919929 0.34919256 -0.34553957 0.27957052 0.09669781 -0.30294883 0.28331938 0.67562 -0.55483115 0.82736564 0.010496124 -0.058394272 0.16104093 -0.09824929 0.47254124 0.63084114 1.2640429 0.2377149 -0.05629874 0.08415113 0.05166623 -0.8667244 0.27370432 0.14090107 0.24402769 0.3268832 0.014796134 0.13196553 0.2606397 -0.13641748 0.24490349 0.38369998 -0.06619577 0.16610913 -0.506727 -0.19383688 -0.38550833 0.20000635 -0.034684833 -0.21775296 -0.39776498 0.12185314 -0.010911578 -0.087056935 -0.3170165 0.7471842 0.22512645 0.13089311 -0.4757853 0.07317676 0.31222305 -0.43011835 0.44745126 -0.03584054 0.21666373 -0.22908686 -0.028840926 -0.26594183 -0.10953331 -0.19898391 0.13301377 0.042567525 -0.41331908 0.3579488 0.123756684 0.109176874 0.33024308 0.092770234 0.37424397 0.020893307 -0.2710427 -0.076146305 -0.785008 0.04068582 -0.123970784 0.18370847 -0.30815327 0.14703842 -0.32565162 -0.15247148 0.093298316 -0.09539597 0.29557514 0.41471192 0.9331394 0.16745794 0.17119244 -0.5675896 0.15450628 0.49309424 0.06258868 0.09226532 0.44886035 0.0077631976 0.23289323
贡 -0.28317326 -0.21952608 0.114066966 -0.12133914 0.10629657 0.33259207 -0.71003485 0.14702667 -0.054439634 -0.044075977 -0.075316034 -0.15659846 -0.2864336 -0.2762899 -0.46498618 0.5625775 -0.35838947 0.051781952 -0.74838334 0.031379443 -0.14859502 0.41018882 0.1392693 0.4098427 0.498614 -0.27931854 0.20716523 0.10065144 -0.36798438 0.08871786 -0.057749536 0.043456543 -0.7457721 0.22459786 -0.21186844 0.36673367 0.05214347 0.10490908 -0.19944254 -0.6359919 0.35840672 -0.09424964 0.07382127 0.2819923 0.35061437 -0.7183688 0.51016736 0.37616882 0.054680433 0.20444714 2.7649748 -0.55674046 0.5206014 0.07289004 0.28306884 0.10595923 -0.019469626 -0.15140247 -0.42553812 0.3544858 0.40082926 -0.22544508 -0.25264588 -0.53713316 0.11643054 -0.36248657 0.12434128 0.1375912 0.013380524 0.133834 0.13209336 -0.64898163 0.7312985 -0.26498482 0.022031337 0.26990083 0.06446854 -0.52404106 -0.2701837 -0.13105792 -0.21303847 0.19878687 0.28955528 -0.4861261 0.42201024 0.0683966 -0.2983976 -0.09792043 -0.0038132053 0.056334626 0.069103844 0.15909569 -0.0059202462 -0.3070121 -0.11479037 0.15261155 0.0943258 -0.066066206 0.3129061 0.04286732
欲 -0.050985575 0.16747029 0.07431671 -0.19167246 -0.053222552 0.5139122 -0.22516572 -0.21264178 0.4823963 0.0562267 -0.28728926 0.25297523 0.016193189 0.18109785 -0.03312086 0.061823323 -0.213016 0.14851835 0.3242005 -0.092117235 0.29022563 -0.36540094 -0.15216011 0.2152039 -0.27024567 0.34312734 -0.3506811 -0.18446568 -0.19227369 0.40928596 0.2992859 -0.033796772 -0.20883599 -0.06495667 -0.2040288 0.08945783 -0.18281266 -0.43295813 -0.1324005 -0.3848008 0.2669433 -0.03906733 -0.14860016 0.0172975 -0.47034374 0.086692944 -0.2569965 0.47652113 0.34717476 0.06818168 0.6490736 0.08534981 0.3715187 0.21599002 0.0051208297 0.14452712 -0.5308285 -0.4380001 0.24990878 0.2994206 0.60470116 0.10736783 -0.38721395 -0.008851868 -0.06945944 -0.01835766 0.16103731 -0.09040731 0.585197 -0.12853086 0.11044686 0.037776988 0.014738737 0.3664202 0.5056252 -0.13523398 0.52954525 -0.33742717 -0.25666636 0.07107786 0.14235547 -0.20570846 -0.0027720523 0.095130965 0.015106911 -0.11562067 0.22457437 0.28550068 0.12117238 -0.19017951 -0.12419929 -0.047325935 -0.016614765 0.72681236 -0.20416221 0.039210174 0.07983661 0.064746946 0.09266077 0.032081515
诸 -0.20508616 -0.54214215 0.37829512 -0.4669702 1.0275961 -0.7746021 -0.016185317 0.52840966 0.16220331 -0.27326164 0.10160142 0.34995615 0.5683897 -0.37517545 1.1521353 0.4439791 0.1662134 0.033083655 0.6966441 0.30551714 -0.1355753 -0.011708886 0.7349299 -0.33877438 -0.3316083 -0.5738162 -0.51957566 0.12385048 -0.8092519 -0.80933636 -0.37480792 -0.30174744 0.66617054 0.2938255 -0.14231876 0.07841963 -0.18227191 -0.26406178 -0.20566155 0.08951332 0.038145147 -0.17760947 -0.00089626736 -0.35061502 -0.2474628 0.12467246 -0.3528466 0.23204735 0.2210286 -0.25236398 0.9861437 0.32164815 0.027219448 -0.14280282 0.36831206 0.40856895 0.45432958 -0.35688362 0.38789845 0.20082939 -0.53675526 -0.011680956 -0.45996317 -0.31979835 -0.62735206 -0.44637135 0.16345154 0.089559466 0.06490418 -0.35994357 -0.31826478 -0.15469953 -0.37191215 -0.27990618 0.15218933 0.06959162 -0.7232104 0.26374978 -0.1251729 0.3127837 -0.06756029 0.21699524 -0.09945002 0.5715913 0.36924765 -0.046583958 0.05573512 -0.13146916 0.38277015 0.056986436 0.054125387 -0.52632827 -0.097041264 -0.04632848 0.42887366 -0.14810367 0.21598057 0.44144654 0.42767173 -0.10827396
从 0.075857684 0.015567613 0.06750855 0.27582878 -0.049808845 0.51946354 0.15066658 -0.2295043 0.20125097 0.59451085 -0.12181955 0.13637307 -0.40111157 0.14490001 -0.16802464 0.10218051 0.2598432 0.27934033 -0.2591015 -0.28363043 0.2604275 0.1071364 -0.14183259 -0.07976183 -0.5224106 -0.17401144 -0.9250659 0.21429586 0.2005577 -0.22397906 -0.23157935 -0.051599544 0.40892786 -0.26158082 0.019690212 0.2182438 0.0056212638 0.0365712 0.24792421 -0.3634315 -0.02692803 -0.61273664 0.43512142 -0.022892352 -0.13267954 0.2162835 0.4047508 0.07115878 0.41120675 0.04376703 0.21150154 0.054635864 -0.15726778 -0.08661112 0.2933394 0.09471419 -0.010804281 0.070884064 0.20844248 -0.09699742 -0.35194838 0.2818947 -0.071509235 0.020395584 0.23466863 0.09808253 -0.33345237 -0.13972563 0.47325367 0.21626133 0.034793805 0.43519363 -0.045268014 0.4293734 0.012545153 -0.04829558 -0.36134318 0.17617214 0.29547584 0.098922655 -0.09257832 -0.21323146 0.2881197 0.54723716 0.46418056 -0.3296793 -0.50528306 0.1124592 0.021499604 0.21738447 0.40703288 0.0028261999 1.0800247 0.41881913 -0.16412054 0.23822458 -0.269038 -0.050179154 0.2655221 0.04093889
文 0.03729342 -0.058385752 -0.45852965 0.8219685 0.17067885 0.4134873 0.14226887 0.067482844 -0.2713182 -0.047604233 -0.02661837 -0.26383305 0.28733906 0.4590304 0.89637804 0.22035484 0.2411889 -0.5176795 0.1901656 0.49334618 0.020357482 0.077296086 -0.5877301 -0.01894538 -0.76720107 0.35305458 0.10441046 0.10894395 -0.28427404 0.36259955 -0.17851207 -0.041924126 -0.3158206 0.09908642 -0.33327526 0.23307437 0.034136377 0.30020812 -0.3252134 -0.22738093 0.016672151 -0.02976397 0.2536929 0.14385892 0.31260428 -1.1237901 -0.037157264 -0.06979203 -0.22076784 -0.48522645 0.67666924 -0.52171224 -0.63430184 -0.29898268 0.18158124 -0.37079087 0.20151664 0.30934706 -0.16190852 0.55935407 -0.3378482 0.193915 -1.0864806 0.014871886 -0.33546183 0.25513768 0.4371977 -0.13738509 0.39798954 0.08175663 -0.07352508 -0.40722337 -0.25280482 -0.18332428 0.045241993 -0.0032920903 0.19420291 0.011183828 0.39916438 0.4481303 -0.11494389 0.041459035 -0.8760818 -0.10178932 -0.1209881 0.03430265 0.3344889 0.38450336 0.089979135 -0.01626805 -0.13350229 0.39673674 0.08992368 0.116335966 -0.55453676 -0.6704336 0.17586334 0.35493955 0.18809156 0.19957758
政 -0.007457507 0.08056724 -0.1886319 0.5373658 -0.07758492 0.23490663 -0.32339555 -0.8018286 -0.25371784 -0.18620096 0.28867707 0.26892638 0.117940195 -0.63299775 0.6885841 0.30091256 0.04890302 0.29397982 -0.21767025 -0.032384414 0.46972367 0.41073427 -0.037366472 0.3108287 -0.263499 -0.13767469 -0.54997724 0.28117076 -0.773864 -0.31564778 -0.12883091 -0.5695977 0.123504184 0.19430725 0.21680303 0.1181692 0.34715736 -0.116256386 -0.33631217 -0.11701698 -0.2230248 -0.018804003 0.059980072 0.062786914 0.13367492 -0.12866198 0.072981566 0.22571477 0.10597655 -0.6200976 0.588286 -0.014384524 -0.111655064 -0.55842733 0.42446113 0.7151313 -0.5357905 -0.023158032 -0.005111648 -0.48052517 0.29723746 0.4350612 -0.15230636 -0.07488826 0.32333675 0.4271696 0.2659161 0.16989526 -0.52244264 -0.1908255 0.019753754 -0.34800553 0.37642688 0.11046832 0.04430449 -0.07510079 0.11152216 -0.008971137 -0.2791679 -0.03336008 0.03341423 0.15778323 -0.15565577 -0.03343131 0.12038757 -0.2936923 0.56748694 0.05058244 -0.33499804 -0.19784565 0.24766609 0.34412375 0.32937738 0.07831887 0.46198925 -0.16087894 -0.1866623 0.6970973 0.22921151 -0.604166
食 0.43134487 -0.23451358 -0.15776199 -0.5027203 0.044300884 -0.24148431 -0.6131628 -0.13884494 -0.08500144 -0.08891903 -0.25384006 0.08868949 0.41527724 -0.2348395 -0.056930676 -0.11771849 0.10687954 -0.44454494 -0.42261153 -0.53229386 -0.009714144 0.16045983 -0.00907086 -0.037988227 -0.5563096 0.07850823 -0.5885085 -0.28578594 -0.3101569 0.09874831 0.42332566 -0.113146424 0.084398836 0.3684882 -0.18681301 -0.13184944 -0.24469557 0.32588693 -0.41444394 -0.31581965 0.059325814 0.35668933 -0.222863 0.014054629 -0.13493101 0.6022241 0.36462656 0.3486578 -0.115725175 -0.14109044 0.5132237 0.23181097 0.061292462 -0.29320967 0.020879513 -0.32637432 0.049721915 -0.5112877 0.06783878 0.1774639 0.6446258 0.5405164 -0.5247112 0.16666736 -0.40207443 0.09678003 0.40165982 0.062342457 0.3401142 -0.23538381 -0.4974911 -0.30882347 -0.11693024 -0.19478622 -0.10772911 -0.07839011 0.41203788 -0.38418248 0.09402702 0.11774843 0.05205192 -0.11823205 0.12383189 -0.112102404 -0.03456702 -0.44748625 0.0743339 -0.60509217 0.20705558 -0.2757406 -0.12036743 -0.081807494 0.10291218 0.6107521 -0.22560039 0.2899131 -0.024465438 -0.06910236 0.17687888 0.020149678
善 -0.009623581 0.3392073 0.19558036 0.19637635 0.16423717 -0.05612418 0.09137669 -0.49330616 0.15756117 -0.028505132 0.44672504 0.23190926 -0.34368107 -0.034319535 0.3798211 -0.28510046 0.0614708 -0.007870699 0.017133616 -0.29090798 0.16719212 0.03310688 0.08635498 -0.40637803 0.023008524 -0.13402472 -0.5448764 0.07608483 0.6597183 -0.029925583 0.40623748 0.1107751 -0.04039616 0.08218894 -0.07295407 0.5281779 0.096867576 -0.3273007 -0.8330463 -0.2252334 -0.10325862 0.12242446 -0.4190419 -0.44347087 -0.013606647 0.042918302 0.10358334 0.48557338 -0.14676851 -0.3941665 0.19202481 0.2114475 0.13186139 -0.21701962 0.22279698 -0.10436197 -0.14837568 -0.5613688 -0.08374313 -0.114404336 0.14583671 -0.22085625 -0.26867554 -0.7301657 0.37333095 -0.55490637 0.40198225 0.1548108 0.12773648 -0.16383024 -0.076655924 -0.045200054 0.22312732 0.21848024 0.38303265 -0.084755555 0.6336057 -0.06570159 -0.012573791 -0.36067355 -0.38857716 0.053384457 -0.05091204 0.27433205 -0.11983686 -0.08168497 -0.11030274 0.20325404 -0.21303616 0.42458525 0.37126103 0.15642843 0.25581858 0.06986768 0.21840563 -0.6240061 0.51054776 0.14014572 -0.2401755 0.16795436
后 -0.31708157 0.16797255 0.65266967 0.48614684 -0.04280539 0.2535673 0.031628255 -0.057531297 -0.08982981 0.1431876 -0.26624027 0.5353428 -0.1665119 -0.28136912 -0.053098455 -0.050473712 -0.575623 0.09816931 -0.19606282 -0.16546357 0.009958733 0.35924444 0.110941656 -0.19387425 0.061736643 0.2015301 -1.1846762 0.5692637 0.057332166 -0.13599221 -0.078551464 -0.09808857 0.08210348 0.09354163 0.3165422 0.32887262 0.5126594 -0.089744836 -0.18284865 0.37784973 0.2555008 0.2652076 0.012775832 0.46404034 0.24071708 -0.090558246 -0.659046 -0.5159891 0.01891527 0.18724981 0.25491473 -0.3267346 -0.762963 -0.03912241 -0.28820267 0.15746017 0.0042300867 -0.107889555 0.16762185 -0.28669122 0.40571815 -0.18508223 -0.11977066 0.5324616 -0.17113407 0.6155381 -0.0002427884 0.14217108 -0.21180525 -0.6044565 0.14586562 -0.36715117 -0.055099152 -0.2358875 0.38376957 0.2602362 0.5278153 0.05330775 -0.07057397 -0.19374806 -0.29556447 0.35916743 -0.1247148 0.47988278 0.39353982 0.0384398 0.31172332 -0.2488798 -0.023156593 -0.3810434 0.086830355 0.40425125 0.14742658 0.1890987 0.08706631 0.17921272 -0.086521134 0.28084245 0.21888223 -0.29996184
德 0.15938473 -0.109753154 -0.64024925 0.42744654 -0.11838053 0.39972687 0.02414607 -0.3309043 0.32989672 0.33881027 0.030601209 0.11614729 -0.3547776 -0.40077057 0.17557067 -0.026111308 0.27876464 0.19108173 -0.32597166 0.25656325 -0.2582057 0.37509125 -0.033981454 -0.83018005 -0.090959035 0.33723685 -0.784604 0.42915174 0.050789926 0.0976904 -0.12766959 0.37720072 -0.16082476 0.115564644 0.12352224 0.15490538 -0.24608433 -0.29870197 -0.34546772 -0.037081994 0.11305966 0.6695678 0.081115484 -0.42479753 -0.18801221 0.10209899 0.1612028 -0.461166 0.48528248 -0.074802995 0.40941912 -0.26618716 -0.264623 -0.43603337 -0.046231385 0.07831973 -0.46967235 0.019093562 0.36177725 -0.37001386 0.13433391 0.2859376 -0.095519364 -0.3549517 0.582559 0.14914446 -0.2829088 -0.25618646 0.5691605 -0.31264094 0.21475111 0.08791123 -0.27118397 0.49732655 0.31324777 -0.122728206 0.14274426 0.038002618 0.1606504 -0.049204085 0.4847778 -0.369891 0.14244892 -0.21198057 -0.12941375 -0.34439462 -0.34451118 -0.13740298 -0.3025614 0.37015304 0.06437507 -0.3466022 -0.018488672 0.31231737 -0.012157876 0.038313173 0.2321072 -0.20137605 0.007334769 0.22162151
求 -0.119716935 0.040929355 -0.20108967 -0.38601053 0.48329154 0.25837827 0.24127215 0.06681596 0.015968058 0.27274603 0.19268687 0.008881989 0.30502096 0.24774788 0.0651584 -0.29303205 -0.36680728 0.14595431 -0.006172293 -0.21541892 0.40598086 0.7441577 -0.24494769 0.13602006 -0.3757266 0.21393871 -0.45230535 0.30061004 0.15871744 -0.17451842 0.16054098 0.1443286 -0.9756729 0.13096635 -0.5975104 -0.27381036 0.5144607 -0.1935549 -0.67714417 -0.60722744 0.3070895 -0.048894495 0.005749683 0.2891308 0.14765814 -0.13236824 -0.049562156 -0.698721 0.42308873 -0.3455811 0.36774603 0.029821524 0.2612745 -0.33395535 -0.49575973 0.16459395 0.16885531 0.16513127 0.0061839838 -0.018730035 -0.23655975 0.27619177 -0.12978984 -0.1383243 -0.16805466 -0.059049517 -0.3904055 -0.18146802 -0.1289966 -0.15586397 -0.28740057 0.0787516 0.09919557 -0.5935248 0.45431817 -0.63057667 0.006569945 0.07367422 0.3022129 -0.11078218 0.3718758 -0.4267025 -0.076167576 0.13066454 0.27229682 0.037708975 -0.20826322 0.026666332 -0.35616252 0.08692284 0.22091807 -0.06593501 -0.13657065 0.9367544 -0.14923394 -0.23172404 -0.40736482 0.08452388 -0.15304674 0.4798045
对 -0.47261772 -0.31013045 0.40130588 -0.16323206 -0.15880981 -0.1775467 0.25381178 0.14513278 0.24046752 0.14114867 -0.42160043 -0.12622958 -0.76733637 -0.4055828 -0.52458555 0.28832301 -0.08209546 0.14151908 0.19340648 -0.40563053 0.05430022 0.5665529 0.18908882 0.26460454 -0.23579708 0.26994348 0.22577281 0.63432664 0.46693918 0.08180986 -0.13857214 0.163932 0.5804972 -0.16854644 -0.20975198 -0.049239844 -0.66353625 0.26131207 -0.10797593 0.086885765 1.2358862 -0.2769389 0.24248534 0.3975052 -0.17407864 -0.18924387 -0.15141407 0.12493907 0.68229914 -0.14037515 2.0938363 0.007151773 0.5260915 -0.29130346 -0.10948432 0.12784483 -0.19970195 0.33127713 -0.36554274 0.11755037 0.03695187 -0.12033116 0.28944793 -0.117539816 -0.49905115 -0.37866828 0.36243477 -0.118709505 -0.11380274 -0.031391956 0.009764093 -0.51972526 0.14668405 -0.22012663 0.63711 -0.5482163 0.59211874 -0.5723407 0.63530093 -0.3502997 0.29783583 -0.1335155 -0.12730333 0.27000645 1.180759 0.044408765 -0.27797768 -0.4989793 0.25995237 0.34705213 0.38983342 -0.617317 0.81178856 0.72403175 0.5965266 -0.8454449 0.26749822 -0.38023838 -0.18363032 0.08248315
恶 0.08414614 -0.32533678 -0.24599743 -0.526277 0.35928172 0.48998186 0.24857251 -0.4716429 0.33415395 0.0050831074 0.010271337 0.17277734 0.11731801 -0.27540937 1.0597669 0.3907632 0.27684647 0.30495992 -0.003392131 -0.33216405 0.30125818 -0.08397298 -0.42290395 0.67927337 -0.32450157 0.25158745 -0.7738063 -0.3449419 -0.26677084 0.29929727 0.55866224 -0.39611337 0.117929235 -0.4630626 0.13919692 -0.13868879 0.14471705 -0.029446248 -0.09008871 -0.104328655 0.23646057 -0.2634914 0.15291794 0.021981604 -0.33895427 -0.034727745 -0.21274604 -0.1173894 -0.06690916 -0.08868516 0.72503906 -0.045861308 0.027023531 -0.19219652 0.2646385 -0.06918043 -0.4692497 0.060154147 0.08818317 -0.3357384 0.6131465 0.10708226 -0.07602258 -0.3643492 -0.014956612 -0.7513524 0.49887645 -0.009231527 0.038289435 0.0076766936 0.20654438 -0.11734003 0.535601 0.2030142 -0.48578387 -0.11660349 -0.20354725 -0.6475141 0.50814766 0.2917731 -0.32446298 0.15504046 0.019790627 0.37846023 -0.054973148 -0.39891276 -0.14761132 0.044194072 0.6315614 0.37117845 0.19935837 0.107157744 -0.516375 -0.0071051857 0.47037473 -0.5771205 -0.3140685 0.32155535 -0.8398815 -0.34303793
信 -0.25481254 -0.10437501 -0.06599507 0.02534075 -0.29317042 0.40092012 0.21257506 -0.34849036 -0.18662636 0.21693872 0.36242577 -0.32878396 0.058940277 -0.60765445 -0.15688784 0.2582854 0.053063814 0.086523175 0.07539943 -0.10272746 0.17531657 0.43002123 0.36700398 0.40535417 -0.3425879 0.05316758 -0.8235333 -0.023773443 0.29741776 0.012723107 -0.38625887 -0.4219348 -0.45145735 0.33519167 0.15707716 -0.14081416 0.29222694 -0.202222 -0.4124855 -0.3441499 0.19154707 -0.25622052 0.11384068 -0.10425041 0.3150596 0.53348595 -0.25891525 -0.022806935 0.63020307 0.27612278 0.30094686 -0.14460352 0.54755205 0.51120824 0.42083126 0.36410305 -0.06763249 0.08733402 -0.07232411 0.42693332 0.008797118 -0.094913475 -0.4705894 -0.3952083 0.31105927 0.20861891 0.39785165 0.20642021 -0.28961784 0.18421535 0.04890374 -0.2653997 -0.25440034 0.42419398 -0.058063205 0.00799689 0.4350472 0.33012092 -0.0477674 0.36610773 0.41021118 0.15309262 -0.5243643 -0.56898093 -0.091981776 -0.07495589 -0.06867676 0.36883965 0.2120733 0.20729294 0.15942854 -0.07138725 -0.22666694 0.30753592 -0.7866191 -0.21458746 0.1798269 -0.005110314 -0.09211988 -0.6725818
死 0.08969202 -0.04238949 0.11589646 -0.14516643 -0.25286564 0.1647163 -0.16865069 -0.2937156 0.31554186 0.34299564 0.1423532 0.044645175 -0.432526 -0.27719173 -0.17411406 0.19763704 0.009293798 0.2267138 -0.27142876 0.1544164 0.7945163 0.82544017 0.48716992 -0.11673376 -0.12714638 -0.09115091 -0.87391114 -0.124398604 0.08439047 0.056817275 0.35521036 -0.4828174 0.19145164 0.43211102 0.4277201 -0.48076323 0.3585715 -0.4537069 -0.25151178 0.01576665 0.21046482 -0.05762559 -0.26235133 0.08827625 0.06660902 0.14414984 0.30214563 -0.29686847 0.11607094 -0.023714222 0.25175422 -0.1117562 -0.32705525 -0.19426142 0.038214363 -0.36608517 0.24969898 -0.55069214 -0.33359584 -0.45705006 0.019461554 0.048929185 0.014513005 -0.28478676 -0.13605995 0.708772 0.30196273 -0.0493453 -0.2535298 -0.47333056 0.25403425 -1.0040053 0.04349584 0.073726475 0.2165361 0.47178292 0.08089792 0.268075 -0.17221902 0.22959644 -0.5327203 0.22650848 -0.19676355 0.01914746 0.11846204 -0.08939597 0.26942247 -0.6436213 -0.15701328 0.15979752 -0.398575 -0.5872658 -0.14076008 0.015038916 -0.08530571 -0.68160117 -0.06495336 0.1319605 0.21628962 -0.60407627
然 -0.046570912 0.2992743 0.24564886 -0.32427728 -0.12359953 0.4129969 -0.03502138 -0.16868663 0.71025467 0.29174018 0.12691434 -0.091387495 -0.015800817 0.16352428 0.71357554 0.19057202 0.3878657 -0.023231437 -0.22651029 0.10106162 0.38044217 -0.026262095 0.7174049 -0.14343536 -0.2047115 0.0778483 -0.09688175 -0.023364289 0.13122144 -0.35811752 0.2194237 0.258848 -0.890295 -0.037306454 -0.25664648 0.56661546 -0.1416759 -0.15849946 -0.2771948 -0.32842362 0.39997754 0.47038415 0.21510482 -0.1337099 -0.061504066 0.5502895 0.09616717 -0.041524623 -0.2722497 -0.15348203 0.49301666 0.41393238 0.1173891 0.1665833 0.031244522 -0.1855949 0.35205504 0.2062058 0.12841989 0.009164801 0.20492497 0.51548606 -0.28752583 0.36942366 -0.22002001 -0.0048484476 0.4720031 -0.50516236 -0.8569202 0.08348844 0.060644675 -0.38520592 0.09892051 -0.22314374 -0.16965629 -0.41459504 0.18484333 0.05505447 -0.03819858 0.012190774 -0.26439238 -0.028135108 -0.30933714 0.127553 -0.0026811212 -0.23052911 0.17725882 0.4329229 0.46830925 0.4901672 0.21201262 0.4902317 0.14313266 0.26804665 0.113762915 -0.68536574 0.55344766 0.14505729 0.33163223 -0.48067665
《 0.28391978 0.06297674 -0.22557688 -0.3044026 -0.013626635 -0.70144993 0.48285496 -0.7718005 -0.3026901 0.38782382 -0.09300218 0.5436254 -0.0039391136 0.12285869 -0.16560307 0.2897782 -0.048732266 -0.19239292 -0.060627114 1.0316548 -0.17613773 0.6040361 0.6769014 -0.25625768 -1.2901324 -0.5778362 -0.8517927 1.0950533 -0.20385922 -0.10814817 -0.20749123 -0.20209755 -0.31236562 0.30701247 -0.05095036 0.3603464 -0.38825387 -0.048562147 0.24534138 0.48628908 0.59303766 -0.40655154 0.13424309 -0.2008339 0.66004527 -0.51563543 -0.15347557 0.49925062 0.3841933 -0.2004333 0.7633757 -0.116419636 -0.10589311 0.13746983 -0.30127162 -0.8698155 -0.73479694 -0.2624185 0.046959497 -0.0047898577 0.28382215 -0.029179268 0.64693904 0.090236925 -0.84169024 -0.23350343 0.6190239 0.22079116 -0.2751194 0.33903274 -0.06511586 1.032352 -0.03553134 0.17400424 -0.27705318 1.2794707 -0.083185054 0.18308446 0.35384166 0.6570856 -0.3756822 -0.30574322 -0.8563711 0.36309868 0.248666 -0.5079609 0.19329137 -0.2052738 -0.63669634 0.12277959 0.5120521 0.15850337 0.2650701 -0.0829307 -0.15383081 0.25784594 0.52479297 0.20272358 0.8283747 0.21594161
