1352 100
， -0.01954147 0.0037142644 0.030633068 0.0700793 0.014800383 -0.055531733 -0.107681096 0.095923245 0.106599495 -0.03125267 0.2223286 0.10276459 0.07403845 -0.03978561 0.13402338 0.039755844 0.2456824 0.050963454 0.2879152 0.09707707 -0.052513473 -0.07611578 0.20729809 0.024401385 -0.114942245 0.039904438 -0.033761334 0.118766956 -0.09785451 0.03192067 -0.18759304 -0.04533046 0.11325233 -0.16086736 0.18296488 -0.05019677 0.20986016 0.3503201 -0.3397168 -0.19211711 0.11992166 -0.097963996 -0.036336794 0.02726846 0.15914954 -0.01047189 -0.14297386 -0.09858109 0.11023836 -0.104910254 -0.70524144 0.26892215 0.14312781 0.16319974 -0.08912006 -0.25998554 0.11439438 0.06233618 0.0148451105 0.021311615 0.35685462 0.12795903 0.074825734 -0.17143822 0.19888262 0.1341799 0.13125767 -0.07458164 -0.10023871 -0.09856453 0.11979979 -0.11821274 0.02501224 0.39117762 -0.15371902 0.09891204 0.014351572 -0.097894944 -0.15662952 -0.056463696 0.03597248 -0.07422439 -0.026159607 0.19704548 0.25599062 0.17337152 0.011555137 0.24086447 -0.23112664 -0.042031385 -0.14698014 0.09268561 0.07323872 -0.04134386 -0.06801293 0.24205567 -0.11018993 0.22946048 0.15627076 0.07741678
子 0.07495675 0.14638907 -0.10615777 0.102164015 -0.08802888 -0.11034155 -0.09876057 -0.16936122 -0.21106517 0.042662133 0.025190955 0.08397226 -0.029474914 -0.07993604 -0.0889585 -0.12505661 -0.029688109 -0.01110046 -0.07319751 -0.061030958 -0.029036269 -0.15314384 0.19572376 -0.2078389 -0.019131012 -0.13688956 0.048706252 -0.10900992 0.21648091 0.048273396 -0.013436527 0.14345375 0.11531368 -0.21374612 0.10430558 0.047363658 -0.08523912 0.101393186 -0.131924 -0.01968172 0.025135068 -0.70213306 -0.15733147 0.14728656 -0.12236787 -0.005305362 0.048872337 -0.04189613 0.18882413 0.032569554 -0.15269884 0.04506666 -0.10092603 -0.07918545 -0.05647678 -0.1587045 0.031113936 -0.17814398 -0.07863331 -0.09212956 -0.13973239 -0.020526951 0.06313085 0.028736744 0.35457462 -0.016221356 -0.039133508 0.02457194 0.003484739 -0.022654258 -0.008112828 0.06679822 0.10602581 -0.08654832 -0.113499165 -0.1364321 0.17526501 -0.02887262 0.04138038 -0.23107004 0.2009372 -0.18721747 0.05482628 0.05328522 0.10525722 0.19334134 0.22925024 0.12698719 -0.010070239 0.06631886 0.026259245 0.19044505 0.15932448 -0.12841637 -0.3085991 0.25242612 -0.067221254 -0.017420903 0.036349557 -0.09690271
。 0.06746241 -0.12707669 0.08395746 0.30589458 0.19414796 0.03847765 -0.0340492 0.082893424 -0.025771063 0.0025958496 -0.10116448 -0.22059451 0.12055226 -0.14827088 0.0048808823 -0.10096372 0.042688057 0.09807282 -0.0038045477 0.17663392 -0.043650385 -0.06815881 0.3378513 -0.079917006 0.11404607 0.32667902 -0.09123958 -0.21003546 -0.19713424 0.13575025 -0.16226766 0.20277184 0.09378906 0.059171475 0.015748382 -0.11828725 0.015137654 0.0830947 -0.14734748 -0.12501302 0.1489087 -0.4451981 -0.15603074 0.08997137 0.14001554 -0.14211681 0.09171585 0.14492872 -0.12650923 -0.3084652 -0.33046362 0.28170052 -0.05707363 0.08593457 -0.20948352 -0.41731033 0.19972172 -0.16238439 0.07877897 0.13587297 0.102636315 0.061652847 -0.021899253 -0.107289396 -0.028670164 -0.047088075 -0.2316607 0.22576287 -0.13185152 0.02252692 0.09160488 -0.11463597 0.17664644 -0.043338243 -0.13724418 0.06935034 -0.007443135 0.024225194 0.10203139 -0.1557661 0.2756867 -0.110338956 -0.0640312 -0.05637924 -0.07999353 0.23455527 0.1744602 0.022808291 0.022604223 -0.16098061 -0.30617398 0.053726062 0.25317627 -0.23323855 0.072477855 -0.04538572 0.15706499 0.09917924 0.11439129 0.0021738
： 0.23239475 0.06582626 -0.09957207 -0.06476509 -0.15755649 -0.12929894 -0.2828176 0.010520262 -0.1622632 0.024035022 -0.14121558 -0.13753611 -0.05063732 0.12546475 -0.18385813 0.04753062 -0.123781845 -0.08918684 -0.077561945 -0.0361874 0.02530165 0.12510683 0.24395154 -0.031611003 -0.118056305 -0.08812114 -0.08050778 0.049152948 0.108389825 0.16449018 0.10292923 0.22415395 0.0327084 -0.19570132 -0.2036726 -0.07809292 0.044368748 0.06662066 0.06161938 0.04919911 0.3997629 -0.6999586 -0.087671496 0.11961971 0.119739465 0.15453516 -0.02841121 -0.08451928 -0.025359802 -0.032649312 -0.16969484 0.11621701 0.042305898 0.051619016 -0.03208939 -0.16944563 0.1271887 -0.05681161 -0.049273085 0.024497861 0.13196743 0.26206824 0.24148643 0.09675621 0.09678215 -0.11152525 -0.24175647 -0.12201342 -0.048882835 0.11280704 -0.09258971 0.20539273 -0.18132642 0.17428699 -0.18424113 -0.22108984 -0.015324073 0.03132333 -0.22954221 -0.28219962 0.11818555 -0.26878792 -0.06292266 0.0037615926 -0.029096225 0.18944392 0.02921926 0.20585707 -0.15041795 -0.05556176 -0.049925096 -0.009743639 0.100590274 -0.22317033 0.07630237 0.09133834 0.07451449 -0.0894055 -0.06553305 0.07110924
曰 0.19608022 0.16477183 -0.011829627 0.043186825 -0.027292797 0.052636713 -0.15352696 -0.08792569 -0.07265687 -0.06612919 -0.11315511 -0.22304825 -0.12120279 0.13212731 -0.094122104 -0.07332768 -0.07095228 -0.22693834 0.11372731 0.08458108 -0.021138422 0.08345219 0.05144355 0.086864784 0.044036802 0.008731005 -0.10932799 -0.0134500405 0.18313223 0.2674236 0.17188425 0.1763962 0.17223188 -0.06814604 -0.025019007 -0.07927349 0.042080276 0.10617488 -0.05957278 0.06728222 0.23410441 -0.89803946 -0.15019979 -0.010233886 -0.02559411 0.25968185 -0.07346114 -0.18380964 0.013946795 -0.07563543 -0.04479717 0.086762115 -0.11760844 0.06308343 -0.112937 -0.08139866 -0.04732994 -0.109985866 -0.10741483 -0.10717195 0.043931216 0.025040714 0.08309111 0.05207367 0.01333655 -0.058601327 -0.16761088 0.14639793 -0.015406329 -0.08058133 -0.21680485 0.04107011 0.009725525 -0.08853372 -0.09545174 -0.11461105 -0.025549196 -0.039089676 -0.039217778 -0.11799568 0.03994515 -0.19445328 0.04472952 0.1751753 0.081860624 0.039340936 0.07582949 0.30206302 -0.0061588194 -0.11138726 -0.071899176 -0.05622217 0.09910323 -0.15442276 -0.07660485 -0.0749591 0.16817194 -0.029197514 -0.20982815 0.09585631
之 -0.21754977 -0.08373475 -0.2739691 0.42476356 -0.042558353 -0.1680642 0.03883256 -0.024865784 -0.026618168 0.14295678 0.09649399 0.046423096 0.17697667 -0.04587725 -0.09599997 -0.11521234 0.015964977 0.22749466 -0.1985315 0.10557099 0.109730914 0.15300214 0.10728576 -0.17696881 0.18354696 0.1479699 0.272706 0.075820275 -0.27683142 0.25383103 -0.0709583 0.10708138 -0.0065532257 0.058616884 0.0928144 -0.18836175 0.027624374 0.13493142 -0.32355225 -0.15119746 0.11739509 -0.2668526 -0.08289091 0.2238344 -0.0989857 -0.14727686 -0.17713992 0.26800606 0.3188617 -0.10724572 -0.45779034 0.24713963 -0.15749729 0.053701166 -0.11355663 -0.33661094 0.09468336 0.11531626 0.04649969 -0.06909849 -0.0006019955 -0.065264635 -0.0023421305 0.047684964 0.0021976586 -0.10009237 0.010422958 -0.13237499 -0.07355095 0.087107964 -0.2504698 -0.20083597 0.07835834 0.028144492 0.017884636 0.0673067 0.06098951 -0.13012818 -0.146662 -0.10780563 -0.008472968 -0.15004945 -0.10079558 0.19277838 0.28569812 0.015824143 0.17320079 0.41273078 -0.057272237 -0.036216356 -0.032812215 -0.0012058667 0.08846399 0.00448958 0.03532184 0.00020944478 0.17656267 0.12655225 -0.202875 0.017038198
不 0.11377908 0.11165248 -0.11555592 -0.024079645 0.28580597 -0.075769685 -0.106286384 -0.2122656 0.02319779 0.07785698 -0.07949236 -0.030519739 -0.20762429 0.039484024 -0.042529438 -0.21279205 -0.19420508 -0.16920428 0.050352834 0.22813506 0.035621323 -0.0670127 0.25723255 -0.06684496 -0.0589256 0.06070832 -0.0285674 -0.022046806 -0.0053843344 0.1343801 0.20023443 -0.008056898 -0.053304102 -0.2311529 -0.008987931 -0.1543318 -0.116417 0.15891053 0.02805096 -0.087412976 0.101057485 -0.2663917 -0.2521678 0.028489284 0.011679704 -0.060048193 -0.19636175 0.07544086 0.06520835 -0.039521962 -0.5903653 0.07221274 -0.14443463 0.15350297 0.06211956 -0.0920774 0.163512 0.1744235 0.123909466 0.14457735 -0.031429365 0.10849497 -0.091193095 -0.26822913 0.31747577 0.017691199 0.22963692 0.008915377 0.0036225042 0.12813386 0.11011484 0.12786138 0.13542429 -0.018239183 -0.011209002 0.0155593 -0.042230003 -0.039448123 0.024745084 -0.2863375 -0.16597974 -0.21818645 0.027522983 -0.25013265 -0.04662561 0.0710911 0.20218311 0.16860841 0.2201968 -0.26806685 0.06810135 -0.025674399 0.06829292 0.058219463 0.018960893 0.24107142 0.057035122 0.35816905 0.032833707 -0.103505485
也 0.33360144 -0.01696969 -0.09532075 0.075110756 0.18853241 -0.012753456 0.05489932 0.2997813 0.03130255 0.04560325 0.008419972 0.03349936 0.16162334 0.09008562 -0.057346687 -0.0009796158 0.0839041 -0.09321439 0.046619456 -0.18602462 -0.20975275 -0.05271163 0.13071765 0.1477369 -0.08817998 -0.13370456 0.07744289 -0.07780488 0.11230424 0.15449783 0.0012997426 0.14874871 -0.08159024 0.08345955 0.107461825 0.10896633 -0.19326256 0.08841631 0.29365322 -0.17101985 0.007263929 -0.32607478 0.024026094 0.005483046 -0.018438146 0.08898114 0.26839405 0.052624088 0.2230479 -0.01648653 -0.50859237 -0.055856068 -0.16641428 0.056381248 -0.05571162 -0.18569086 -0.15994132 0.108247004 0.0583415 0.36029848 -0.09318595 -0.13424234 -0.008667575 -0.03340797 0.18037674 -0.121600784 -0.15992345 -0.03902167 0.095429175 0.034738168 -0.18960416 0.15557013 -0.038478304 0.09004416 0.15087493 -0.014888048 -0.10356949 -0.00021545158 0.026738165 0.024812682 0.14027466 0.06344859 -0.06702815 0.14205201 -0.15639548 0.080187984 -0.0661221 0.12933806 -0.018701976 -0.18637466 -0.043101918 -0.3325826 -0.050404858 -0.3094002 0.010069397 0.12652636 -0.1135231 -0.101997495 -0.08392502 0.11543745
而 0.18078488 0.07753873 0.18144767 0.28776237 -0.0025421681 0.06435879 -0.17335163 -0.17365362 0.057726562 0.21143557 0.28950927 -0.101812966 -0.07963731 0.086735554 -0.17632431 -0.26345405 -0.0347809 0.10946777 -0.12654296 0.25489014 -0.06971244 0.057107035 0.23647024 0.11665412 -0.11021029 -0.16344488 0.09245751 0.029587442 0.3070974 0.34531447 0.10480058 0.13090257 0.49642342 -0.17837867 -0.003670221 -0.083652765 -0.08323535 0.017848706 -0.12829489 0.10792584 0.14185639 -0.30198026 0.09671534 0.151681 0.0407485 -0.011586484 -0.13458285 0.16955848 0.17423077 0.042582337 -0.6003267 -0.13844009 -0.1000896 -0.104025744 0.10249257 -0.090015575 -0.15534455 0.12824021 -0.02137266 0.053947028 0.049911544 0.34088513 0.13962263 -0.014827885 0.29624197 -0.10661681 0.108721346 -0.0922637 -0.024324061 0.07629092 0.15368208 0.105790146 0.104842365 0.022726746 -0.14955445 0.039617628 0.038500052 -0.2234205 -0.19832796 -0.03453485 0.12757348 -0.14155915 -0.16233589 -0.10154425 0.15328126 -0.018046308 0.15533102 0.1007972 -0.035147574 -0.1293044 0.055747833 0.15894106 0.18817711 0.032017257 -0.07188256 0.07332357 0.010680877 0.28975987 -0.13424063 0.22898148
？ -0.0036069653 0.33259988 -0.17379737 -0.21702577 -0.18233123 0.049033206 -0.097736366 0.2305962 0.0051233973 0.11800436 0.084077895 0.007654056 0.028571565 0.22929592 -0.14112975 0.0154217165 0.14081292 -0.082758985 -0.14609523 -0.05906465 -0.12984388 0.19875038 0.092769176 -0.06257613 -0.3446973 -0.2792582 0.093167625 -0.16545294 -0.07814477 0.07660144 -0.0023525315 -0.1896985 0.11707467 -0.17047462 -0.105793096 -0.1005934 0.22925764 0.15179396 0.017458016 -0.16763987 0.10234982 -0.61338705 0.114236325 -0.12290818 0.13123563 0.103810355 -0.092895195 -0.23958465 0.06566357 -0.14579073 -0.23493956 -0.0898974 -0.22426099 0.03288867 0.06139201 -0.111364156 -0.010096998 0.060537778 -0.18305461 -0.079406716 0.012145579 0.077094294 0.021619892 0.17393333 0.06889542 -0.132946 0.0920197 0.04823795 -0.10603793 -0.11089465 0.07512801 0.17505252 0.011749461 0.095132925 -0.032193836 -0.14969593 -0.04136054 -0.17270905 -0.016505938 -0.09092188 0.17736277 -0.2315872 0.120777965 -0.058273554 0.19783156 0.18715441 0.1449603 0.06308741 -0.06642035 -0.00013397913 0.061067775 0.19372447 0.043186117 -0.19686635 -0.3337195 0.2826699 0.11394084 0.216296 -0.12323094 -0.13373707
其 0.008610534 -0.0048318934 0.23948419 -0.043386705 0.041345257 -0.19382136 0.053508822 0.03184277 -0.14722799 0.0333678 0.07693473 -0.26914725 0.1225655 0.039079532 -0.040922817 0.08315448 -0.25195518 -0.122873865 -0.014334516 -0.08826004 -0.10498363 0.18373655 0.1032681 0.003288652 -0.20227298 0.19280224 -0.18236136 -0.18444729 0.121329434 0.06297476 -0.033645187 0.2130328 -0.14363706 0.18732384 0.23946473 -0.13763277 -0.26865345 0.29016635 -0.063038796 -0.19568521 0.202048 -0.22841164 -0.02118629 -0.23109652 -0.09761125 0.07889356 0.12403783 0.032219794 0.13107193 -0.45385227 -0.5502311 -0.08563081 0.04825977 -0.24274746 0.0420564 -0.09923363 -0.09322146 0.050850708 -0.09299147 -0.0717141 -0.012628423 -0.034812488 -0.076342076 -0.18044347 0.11577894 0.07614769 0.10074044 0.062932536 0.0054914514 -0.25616354 -0.014052726 0.051569544 -0.06475874 0.07154933 0.0145042995 -0.19889265 -0.12902668 -0.17347953 0.052386962 -0.021486219 -0.017993793 -0.17421877 -0.03409506 -0.030913211 0.04929121 0.23712067 0.25865322 0.13711011 -0.18106526 -0.015108562 -0.10094249 -0.10443028 0.32164305 -0.040728386 0.23384427 -0.0014540823 0.030349389 -0.04678727 -0.22798467 0.022363063
人 0.08670975 -0.036068693 0.28153014 -0.0008818256 0.13126166 -0.025794912 0.080887906 0.18333818 -0.09048946 0.05777637 0.058650125 -0.22991893 0.27046686 0.09000947 -0.025647508 -0.10338406 -0.120675996 0.034106277 -0.23332225 -0.17728691 0.017063595 0.32539463 0.1166723 -0.03339414 -0.16368167 -0.12050298 0.0629302 0.119444706 0.025815276 -0.04244576 -0.15676926 -0.047829375 0.19656868 0.014768726 0.010021144 -0.22428215 -0.23734748 0.044452332 -0.03342447 0.23734058 0.15908843 -0.30197054 -0.14697474 0.08117192 0.14681354 0.16742285 0.1611767 0.07043232 -0.034396015 0.012641477 -0.4235013 0.08404474 -0.00027519953 -0.24912259 0.03835448 0.16926955 -0.024982419 -0.13665496 0.09745008 0.07590981 0.17601393 -0.20458736 0.00450584 -0.052490145 -0.056587555 0.21865103 0.01783997 -0.15031448 0.1548689 -0.16548288 -0.15174085 0.06412835 -0.118497 0.12222188 0.17278132 0.16615188 -0.012135107 -0.10184706 -0.10561691 -0.20331092 0.120731145 0.0732299 0.0011255504 0.028998885 0.12062704 0.26631138 0.21481712 0.034424778 -0.18792434 -0.20132674 -0.11087829 -0.010013372 0.076799735 -0.0061730943 0.11819155 -0.18038659 0.110927045 -0.16402815 -0.18535367 -0.09443286
者 0.29408634 0.04421604 0.08810865 -0.13758948 0.27964982 -0.060330626 0.077390626 -0.014628902 -0.023951521 0.1407437 0.16349174 -0.0073032537 0.24303892 -0.030077415 -0.18251331 0.0102712065 0.13497451 -0.18821041 -0.044629063 -0.025710925 -0.17545845 -0.10462597 -0.23466885 0.10537099 -0.21248062 0.19562665 0.09948258 -0.039877336 -0.0008469932 -0.008411062 -0.36893427 -0.10473686 0.025173064 -0.049833935 -0.002863509 -0.19665729 0.1181789 -0.16374025 0.0063741626 0.07993907 0.062089507 -0.27092525 0.34683228 0.00095374277 -0.18594638 0.093974605 0.1255411 -0.027874777 0.1361518 -0.18989667 -0.60830176 -0.22632413 0.1779066 -0.15850809 -0.08370279 0.07392978 -0.03640146 -0.057791848 -0.03668703 -0.13041224 0.21173757 -0.09623521 0.177374 -0.1097634 -0.05143662 0.042459346 0.1331903 -0.049824663 0.2831988 0.047434047 0.10725163 -0.10041248 0.13529569 -0.14260484 0.1192808 -0.07718755 0.04981168 0.085367516 -0.15140954 -0.043271434 0.15331349 -0.29281253 -0.035426054 -0.20230797 0.054104224 -0.05932259 0.048814453 0.12954985 -0.12404048 -0.00032976968 -0.18734914 0.22999915 0.22271046 -0.19241233 -0.036307108 -0.116486035 0.15406054 0.063972846 -0.04891477 0.009069861
以 0.045581575 -0.018614365 -0.01010658 -0.17174159 0.028816411 -0.35456008 0.16329388 0.270608 0.012476317 -0.06913285 0.02324098 -0.076362304 -0.057468437 0.036433186 0.11443816 -0.24873923 -0.14775734 0.015797278 -0.065697744 0.02076389 0.15048869 -0.02972055 0.02454644 0.026006244 0.059988104 -0.089799345 -0.026056975 -0.21591295 0.03378317 -0.21234584 -0.103607506 -0.07294665 -0.060820583 -0.30088747 -0.111918636 -0.018885124 -0.080496185 -0.03152837 -0.08173951 0.09931162 -0.06972335 -0.29739094 -0.36573282 0.20654902 -0.20308344 -0.033656273 -0.17192899 -0.034768883 0.10445027 0.051821757 -0.4549371 -0.21841753 -0.15750416 -0.08199421 -0.08576241 -0.17497289 -0.121560104 -0.12314835 -0.14116336 -0.054670207 -0.006437027 -0.11344926 -0.21021782 0.2684386 0.01881918 0.04410565 -0.20259337 0.008250819 0.04026231 -0.13183971 -0.08359551 -0.10227213 0.016936451 -0.02414258 -0.15891905 -0.06881299 -0.014577523 0.21390454 -0.19588739 0.11413676 -0.11080291 -0.25094968 0.07018926 0.0187612 0.056513026 0.20932887 -0.28391945 -0.01577235 -0.039856866 -0.090645224 -0.06701776 -0.1600986 -0.18955508 -0.24043252 0.07146846 0.07987305 0.32584393 0.05948356 0.22676617 -0.037390403
有 -0.1286443 -0.13477512 0.124644436 0.010037861 0.16056749 0.16789168 -0.30658817 0.28647366 0.29017276 0.12489642 0.31623238 0.0842071 0.13482656 0.10547102 0.17616813 -0.00345989 -0.0023830961 0.31332588 0.01544805 0.23139851 -0.16302761 0.2038772 0.19726706 0.024502374 0.13375014 -0.026085457 0.10061113 0.23041117 0.05403484 -0.0044759316 -0.07853576 -0.01664924 0.021547757 -0.06823185 -0.19694087 -0.23998289 0.12179312 0.007134311 0.29990622 -0.1559895 0.2661337 -0.4335772 -0.08077888 -0.0026652112 -0.13055044 0.10605859 0.19506016 0.11238644 0.29750568 0.10485576 -0.32634085 -0.011775877 0.014789203 0.12975334 -0.020044243 -0.1640103 0.11054249 0.028162343 -0.094740316 -0.2323592 -0.022916703 0.014535475 -0.22851829 -0.097441055 -0.16162936 -0.16539618 -0.23778872 0.061168183 0.2186878 -0.17044003 0.15366468 -0.07616424 0.11632348 -0.058722198 -0.015047511 0.13835788 0.074166864 -0.008618325 0.0007285257 0.0014004889 0.14969325 -0.07493115 -0.20147607 -0.12538892 -0.24809466 0.15808396 0.050557636 0.049955394 -0.09699841 -0.20422369 -0.37002707 0.07202674 0.10299429 -0.27920884 0.11451096 -0.2621665 0.21138653 -0.085374005 0.15181422 -0.11121484
于 0.20394987 -0.011519257 0.1733427 0.114878915 -0.17412505 -0.24392584 -0.2744905 0.007668738 -0.18695274 0.19156247 0.012913808 -0.11028921 0.0942109 -0.15926892 -0.123520054 0.13917133 -0.27551106 0.05505398 -0.06218065 0.1382514 0.073895454 0.107082985 -0.085259914 0.20130393 -0.02625353 -0.056572165 0.13303718 -0.043876797 -0.053227145 0.07122841 0.07289986 0.25114676 0.3277711 0.022399742 -0.18407914 -0.3289356 -0.21876743 0.029005118 -0.14402245 -0.14502838 0.06558937 -0.50799775 0.0075436356 -0.16183464 -0.013429018 -0.217053 0.2504894 -0.27033916 0.15814485 0.12212564 -0.24243683 -0.09541145 -0.2792589 -0.0762844 0.13056323 -0.071089245 0.102037065 -0.10132919 0.036049977 0.13414964 0.044595294 -0.11807018 0.010945683 0.03524269 0.0045102863 0.32309818 -0.123171285 0.08949162 -0.25089896 -0.039493714 -0.024899649 0.024887288 -0.054303203 0.021516442 0.21473263 -0.18603612 -0.23823935 -0.09009027 -0.049455255 0.098359466 0.05738486 -0.13946515 -0.02231041 -0.19610481 0.036088005 0.038784925 0.17472468 0.007933309 -0.09283961 -0.20200859 0.22152005 -0.118260436 0.20880169 -0.010489915 -0.04749906 -0.1725855 -0.0912269 -0.10051961 0.08830359 0.1371337
矣 0.2748804 0.09514324 -0.04729208 0.092441946 -0.061115112 -0.25169972 0.041110195 0.061455138 -0.10092354 -0.26645398 -0.035747025 -0.03204588 -0.16315146 -0.07250501 -0.19067578 0.033137262 0.034585256 -0.30480102 0.12120397 0.12686594 -0.020725343 -0.044953145 0.13679518 0.07185258 0.119626224 0.014468582 0.24159983 -0.16493812 -0.25371504 0.050471593 -0.0631775 0.13309224 -0.06519444 -0.18461756 -0.16466337 0.2535787 -0.16178373 -0.016401308 -0.048188925 0.00425067 -0.20354243 -0.5330048 -0.07396537 0.101234406 0.22617234 0.024643434 0.11656017 -0.1304634 -0.106417984 -0.1318489 -0.25779852 -0.10636237 0.15945333 -0.07533623 0.28933313 -0.11239366 -0.08682187 0.042626683 0.00076031545 -0.09699945 0.057807535 -0.072200455 0.0399011 0.13084243 0.14158955 0.2240864 -0.048884977 0.03883321 -0.047248524 0.038513333 0.066655815 -0.36739188 0.18921034 -0.13294512 0.045512833 0.10994693 0.12156056 -0.09963119 -0.073664755 0.42753473 -0.13167424 -0.010361395 -0.2687574 -0.09640598 0.19106321 0.13736212 -0.18131182 -0.17336872 0.048804257 0.11316229 -0.058151092 -0.15670392 0.16581267 0.037177738 -0.046937868 0.20513141 0.20445469 0.031219091 -0.03093135 0.1760402
为 -0.07110302 0.20305331 0.17861423 0.17888047 -0.14568746 -0.096192904 -0.047299452 0.3576467 0.011260428 0.0721765 -0.29142678 -0.025619052 -0.0015668089 0.18286675 0.027772974 -0.07628062 0.21640559 0.004311899 -0.016994134 -0.01818504 -0.21313602 -0.080529965 0.20174348 0.03788976 0.11734485 -0.0764375 -0.06421019 -0.014646845 -0.0540133 -0.33062014 0.05115921 0.004355912 0.16017327 0.03051757 -0.1317074 -0.04371829 0.13739587 -0.0066090235 -0.13203353 0.07500573 0.065109424 -0.47047895 0.01199851 0.09482395 -0.02025675 -0.08253081 0.2608361 -0.14486957 -0.022040017 0.15165107 -0.28777525 0.14846997 0.040741675 -0.073936604 0.10210998 0.05360268 -0.00704466 0.25259808 0.08188236 0.03744956 -0.2657664 -0.016328603 0.08400562 -0.1674799 -0.029307654 0.22183627 -0.06623404 0.021662295 0.30197307 -0.15690267 0.09693322 0.06918835 0.0344098 0.08932849 0.043347187 0.13938862 -0.082293764 0.07048006 0.014886532 -0.24131922 0.08052017 0.055147525 -0.08447908 -0.1168526 0.0891204 -0.13308792 -0.24930887 0.2467107 0.042977158 -0.019315075 -0.1703204 0.08476491 0.02750635 -0.1848558 -0.10121037 -0.05510261 -0.15211056 0.10340018 0.07877949 -0.12329799
君 0.0964766 0.23725587 -0.0010084755 0.08415801 -0.015144053 -0.07832387 0.16619153 0.020174917 0.09395444 -0.06099716 -0.1738682 -0.030922612 0.12984757 -0.15172975 0.09537743 0.0061022863 -0.15482736 -0.123973444 -0.09548418 0.1326798 -0.22484256 0.2830684 0.20426503 0.14475085 -0.17221522 0.07596394 -0.14960279 0.05424023 -0.050728492 -0.027363079 0.10438126 0.13346224 0.090794854 -0.45336506 -0.3642587 0.21048567 0.053726498 0.11601779 -0.008248713 0.093789555 -0.18719082 -0.559737 0.110165924 -0.078001834 0.10635378 0.14873108 -0.01778118 -0.13643025 0.04657861 -0.06490466 -0.24075995 -0.06671037 -0.23553741 0.13300681 0.06944717 0.086200275 -0.09847522 -0.033241633 -0.033711955 0.0015868526 0.110305004 0.18732913 -0.19776776 0.1541914 0.19427617 0.07993008 -0.0026433952 0.03427666 0.18334001 0.06617114 0.103348814 0.12969728 0.10891644 0.022009278 -0.28266814 -0.015390815 0.09094545 -0.01100125 -0.15825272 0.12285776 0.09377629 0.0020418987 -0.10225887 0.028887073 0.22962198 0.12019098 0.059312478 -0.07624331 -0.19933337 0.077277236 0.08658737 0.038000394 -0.09680721 -0.12971884 0.063865155 0.1354037 0.14644028 0.2287958 0.14883876 0.11796801
乎 0.11016727 -0.004842758 0.14325956 -0.255823 0.037539974 0.08005225 0.09555279 0.18645978 -0.08954534 -0.027168661 -0.059222367 0.025471907 0.06998827 0.15193325 -0.19635217 0.093261495 -0.0799882 -0.1225421 -0.080071755 0.06908755 -0.26206097 -0.07580914 0.006867733 0.1184099 -0.070357144 0.030654527 -0.064575404 -0.07756074 -0.008501986 -0.018107101 0.21363991 -0.099545136 -0.041995578 -0.53287214 -0.04693193 -0.06687938 -0.11854259 0.038408868 -0.21628517 0.046955913 0.09373582 -0.5895299 0.2792299 -0.18289673 0.17402871 -0.050568543 0.046455063 -0.032854944 0.027282428 0.06620995 -0.27520326 -0.10016812 0.05648737 0.028651439 0.02943316 0.022342306 -0.06448357 -0.0643949 0.14768785 0.43428302 0.02051488 -0.17653342 -0.03819664 0.0031117033 0.13826992 0.060424708 0.21011461 0.0044204714 -0.014341777 -0.13004346 -0.19221237 -0.052953776 -0.1649684 -0.21734186 -0.27270076 -0.3274167 -0.14927666 -0.16795471 0.13728203 0.12877303 0.09582788 -0.21426836 -0.049667202 -0.34271762 -0.070274 0.057021152 0.07491628 0.1239895 -0.26599914 -0.18856826 -0.254894 -0.016979557 0.06298952 0.015272848 0.045929782 0.05372688 0.29256195 0.003926172 -0.06286547 -0.02856718
可 0.23009808 -0.14405535 0.063176125 0.15295948 0.035813607 -0.047653683 0.18153489 0.2094197 -0.039023682 0.12010899 0.08433936 0.1767631 0.09871119 0.3226236 -0.08615556 0.0616051 -0.05592742 0.080471456 -0.11258598 0.06477265 -0.2180144 -0.16995825 6.9250935e-05 0.00042444142 -0.20620894 -0.07924446 0.22906217 0.039032653 0.19061014 -0.004870306 0.08437202 0.15504332 -0.2680163 0.10285902 -0.20301062 -0.028297238 0.10603903 0.030710826 0.04633298 -0.0705455 0.11200368 -0.31242195 -0.0032150294 0.20333928 -0.019903317 -0.11813802 0.10098105 0.015098808 -0.1125431 -0.09994578 -0.56678826 -0.12223152 -0.08525747 0.05616981 -0.0011723824 -0.100168705 0.036063973 -0.15011725 -0.19968735 -0.042793076 -0.07272522 0.014269298 0.037492994 -0.26776412 -0.10073349 -0.17565532 0.056298967 0.0011067963 -0.14737847 0.0009840427 -0.003716343 -0.06985099 -0.21529101 0.16089833 -0.1275652 0.07160571 0.06514384 -0.18562563 -0.1493633 -0.13077633 0.016702125 -0.018522257 -0.31584135 0.0785393 -0.15067899 0.113986574 0.034941655 -0.042335063 -0.0807451 -0.013660267 0.022881567 -0.05361285 0.32671618 -0.17157595 -0.080644295 -0.015127176 0.12477168 -0.16110425 -0.032285243 -0.12121319
如 -0.07119507 0.14792499 -0.19898288 -0.09744588 0.074003935 -0.2275011 0.19036797 -0.07624116 0.0109281065 -0.1813719 -0.016541569 -0.21270713 0.25887907 -0.0789588 -0.045833815 0.072989866 0.17994642 0.15448134 0.006846277 -0.009850814 -0.054168385 -0.2040731 0.09151525 0.08710449 -0.288764 -0.13863388 0.205282 0.03185838 0.17950721 0.10392339 -0.10981737 -0.21707976 -0.19737048 0.0042593307 0.10057397 -0.0016789224 0.21165845 -0.1470592 -0.10649016 0.03353996 0.019266738 -0.4222202 0.01731139 -0.017308911 -0.01810679 0.016313892 0.1815544 0.033448104 -0.053829193 0.0380708 -0.4804523 -0.10168727 0.18603137 0.07431487 -0.060611654 0.1500329 0.009264324 -0.061264433 -0.024883367 -0.005598913 -0.08517119 -0.0359627 -0.036617763 -0.014506711 0.007909096 0.08515052 0.100770295 0.056058403 0.16777553 0.1899271 -0.092983626 0.116333574 0.05003694 0.24615823 -0.14561355 -0.11627177 -0.07051736 0.0066606584 -0.06313813 0.115397036 -0.17710656 -0.01638168 -0.26093826 0.006579287 -0.06728413 -0.16620615 -0.009314105 -0.09549668 0.1462229 0.14117414 -0.0031209937 -0.10627248 -0.08057384 0.13122624 0.13817726 0.030619673 0.08337409 -0.04122693 -0.31854293 -0.044262767
与 0.048265163 -0.26421177 0.03390008 0.1402292 0.065380804 -0.106140114 -0.065737195 -0.16768378 0.091159664 -0.11127329 0.056606326 -0.16599834 0.10666037 -0.057583142 0.15584175 0.29682484 -0.04410763 -0.04032961 -0.08857932 -0.05082131 -0.1895397 -0.09125153 -0.20706846 0.07094384 0.015475324 0.06573417 0.059882186 0.11976692 0.1390473 0.08073893 -0.23891452 -0.021511707 -0.14143999 0.2822873 0.0221416 0.0531001 0.14275114 -0.19265506 -0.20443143 0.042106867 -0.09117037 -0.41960028 0.3862514 0.12611623 -0.06393064 -0.07124162 -0.010737471 -0.09270193 0.23773119 0.010312878 -0.33335307 -0.023213623 0.046302512 -0.15033425 -0.13894753 -0.1139206 -0.121796526 -0.0885936 -0.11722579 0.05766218 0.20130265 0.061786186 -0.14509171 -0.21278238 -0.12971555 0.09677956 0.051750023 0.0029738322 0.28325793 -0.06480768 0.046182808 0.006629573 0.119926296 0.07516676 0.195921 -0.10890219 0.09957212 -0.07237585 0.10833398 0.2298244 0.23928244 -0.10096644 -0.06915641 -0.061926812 -0.1315074 -0.06335469 -0.17951801 -0.17574975 -0.1449678 -0.002807226 0.017125983 -0.02081842 -0.018433413 0.06305755 0.029899377 0.23775867 0.018554103 -0.059439234 0.028753355 -0.0027719268
； 0.1308188 0.02097915 0.06846565 -0.26418164 -0.1543307 -0.03977514 -0.20271356 0.06927806 -0.19008495 0.024296826 -0.28791264 0.255058 -0.12806757 0.28054294 0.09802051 0.23560809 0.014797824 0.09547533 -0.11812079 0.13090815 0.11257717 -0.060742244 0.15931611 0.1382544 -0.12573057 0.1481889 0.06642398 0.07401973 -0.2111152 0.048790853 0.17712407 -0.18804026 0.061640725 -0.0019370895 0.05470892 -0.15590927 0.12263469 -0.021525696 -0.01016784 -0.068293236 0.058627944 -0.22663866 0.3481519 0.23676956 -0.10496532 0.18165933 -0.17430031 -0.0024658525 0.10984472 -0.008012633 -0.841553 0.021506093 -0.0047451397 -0.12048053 -0.1274827 0.20664334 0.2712307 -0.2385305 -0.24153668 0.025921447 -0.058285985 -0.3756836 -0.16834998 0.20793752 -0.01831727 -0.078005016 0.12602586 -0.13716006 -0.28698778 0.3680108 -0.02607853 -0.030297562 0.06266781 -0.15758069 0.12237394 -0.07516497 0.07001749 0.30425677 -0.039822116 -0.060927786 -0.17910457 -0.04726284 -0.00034969207 -0.016376073 0.10561888 -0.09628062 0.16998345 0.05939668 -0.0688888 -0.08768818 -0.106607534 0.05182328 0.15041167 -0.01960416 -0.09998883 0.2261276 0.22671007 0.028494813 0.0629152 0.109745875
言 0.056951296 -0.18347827 0.11765422 0.10672299 0.075771935 -0.004542427 -0.1574573 0.19205001 -0.096431635 -0.02776471 -0.118227534 0.03736413 0.12978458 0.0073051658 0.09871839 0.039808195 0.08271266 -0.2055233 0.06798948 0.07541991 0.08662054 0.08872474 -0.07134246 0.2842038 -0.053817138 -0.0062681716 -0.09570939 0.18683344 0.010723924 0.03546543 0.15624733 -0.01935785 0.34615853 -0.12726991 -0.0062950435 0.011223278 -0.1860912 0.09547433 -0.13856171 0.11905607 -0.08376903 -0.3533006 0.08021623 0.15152332 0.03786892 -0.11748855 0.22417955 -0.3832239 -0.15215461 0.0399779 -0.4880715 -0.052758157 -0.06962227 -0.0092672445 0.17636645 0.0021960163 -0.006625757 -0.072600394 -0.1619136 0.21254781 0.17744231 0.23259242 -0.013425019 0.09178408 -0.20802416 -0.0865714 -0.13142699 -0.057486463 0.18856122 -0.055340856 -0.23383114 -0.12080279 0.047998447 0.17840466 0.2270799 0.08309653 -0.006560728 0.10331701 -0.08535584 -0.071509846 -0.10453882 0.062417835 -0.16251785 0.30393758 0.24772526 0.14048111 -0.0734228 -0.0041341167 0.1702071 -0.0763443 -0.21921721 -0.029493008 -0.06200895 0.0045192596 -0.111012325 0.00019882992 -0.36392865 0.0031953047 0.060597494 0.18235765
无 0.1559246 0.27461654 -0.12253532 -0.14159705 0.028798016 -0.18783855 0.16156651 -0.13984528 -0.02563247 -0.051869642 -0.0036010556 -0.10600751 -0.036703736 -0.0031929985 0.083959855 -0.035387747 0.19283463 0.19553103 -0.031079724 0.09363587 0.25981113 0.06994661 -0.006563113 0.2768869 -0.020810274 -0.09290145 -0.2702079 -0.006895747 -0.30905557 0.28074783 -0.04877791 0.06006712 0.087612875 -0.106680475 -0.086352766 0.07842882 -0.081248865 -0.037928477 0.13926831 -0.09781909 0.04498597 -0.17162909 -0.018446634 0.08546625 0.0030616391 -0.034693282 0.27760503 -0.011050433 0.21564095 -0.026833786 -0.69548523 0.114878416 -0.11241499 0.11706576 0.276916 -0.18571901 -0.13417986 -0.12823817 -0.14611155 -0.14340451 -0.07503795 -0.051840775 -0.1032333 0.053681754 -0.053436786 0.08191601 0.023690742 0.12851296 0.13413692 -0.0047254367 -0.19316256 -0.0990728 0.09187503 0.11461106 -0.20828229 -0.0061748074 -0.16003543 0.072853215 -0.3281057 0.3224947 0.18041219 0.26571292 -0.038435142 -0.00047906386 -0.23831901 0.041193165 -0.07853108 -0.05830839 0.07865073 -0.09288582 -0.09833605 0.40034884 0.100136824 -0.015557878 -0.111426584 -0.12248078 -0.019228086 0.16658783 0.15608633 -0.22676045
则 -0.18132126 -0.12694894 -0.04603715 0.14800663 -0.119074516 -0.09702522 0.1990357 0.117568865 0.1566826 0.11764137 0.122638 -0.16349372 -0.16567938 -0.11529372 0.05384645 0.022676593 -0.15303722 -0.06486289 -0.111886434 0.25853074 0.07392977 -0.23161611 0.081361614 0.10557345 -0.3099984 0.05156128 -0.038745757 -0.07263754 -0.13453925 0.046799444 -0.0375738 0.0024584332 0.16003951 0.029379942 -0.025079822 -0.0767542 -0.24959527 -0.113030255 -0.32902935 -0.040293444 -0.061199192 -0.20815174 -0.19188015 0.31060323 0.17004557 0.13233222 0.0604065 0.11216132 -0.11322901 -0.12536077 -0.7022306 0.04870928 0.08682417 -0.08592076 0.07067443 0.14022283 0.07181001 -0.12993675 0.10886629 -0.11114728 -0.07350898 0.053299658 -0.086343825 0.24653077 -0.16798458 0.33842382 0.040650167 0.009963637 -0.030733991 0.069918394 -0.16447777 -0.10459422 0.09854194 0.09228156 -0.11420827 -0.034793884 -0.039539244 -0.11546881 -0.2295627 0.14412211 0.09484354 0.15576762 -0.29958716 -0.18700074 -0.09278458 0.1229429 0.2219442 -0.07851099 0.13476126 0.19962974 0.026300926 0.12523709 0.12978934 0.070447266 -0.1774504 0.0055282796 -0.31375906 0.17274165 -0.025900183 -0.15387227
！ -0.046841007 -0.06280661 -0.15086472 -0.25788867 0.10537055 -0.08452769 -0.030324105 -0.12129998 -0.24652511 0.04743832 -0.11444242 -0.0909777 0.035046607 -0.13605863 -0.14140645 -0.092265904 -0.17929716 0.070923336 -0.0076863305 0.060525987 -0.122813374 0.07073253 -0.12784754 0.11670329 -0.2874884 -0.2907139 -0.0067893947 0.16699937 -0.24512458 -0.094359346 -0.013075961 -0.01762531 0.12902655 -0.3003477 -0.103366464 0.093008615 -0.1899403 0.020334993 0.020618407 -0.28525186 -0.0545133 -0.6946544 0.16153947 -0.10911525 0.088403195 -0.12690175 -0.12127749 -0.344584 0.15769088 0.16118102 -0.07293977 -0.19444604 -0.05751927 0.13124655 -0.15138185 0.045306597 -0.103517026 -0.07317774 0.12590744 0.120818466 0.07611463 0.1645887 -0.24680184 -0.015492759 -0.06282939 0.00784067 0.016585113 -0.18052496 -0.12467481 -0.14724757 -0.01268598 -0.04722503 -0.03164603 -0.11116875 0.09620263 0.23921451 -0.045645047 0.055012826 0.18307194 0.15327764 0.057317864 -0.08502703 -0.19116648 0.07220657 0.060035653 -0.05578109 -0.127218 0.016205503 0.038339157 -0.07041881 -0.038853377 0.052799918 -0.11318233 -0.1389395 -0.05311657 -0.03267797 0.28171238 -0.067740925 -0.2000038 -0.04620901
问 -0.03922173 0.1706475 -0.052194327 -0.17119889 0.0002841968 -0.10425909 -0.2061231 0.12739076 0.07894026 0.06537919 0.020413168 -0.28499478 0.07372972 -0.35798487 -0.120847054 0.15676756 -0.061850023 0.11222583 0.08439468 -0.019006316 0.19964819 0.01454455 0.007756071 0.18325883 0.1272752 0.03155766 -0.0028217863 -0.048937555 0.03498335 -0.1586471 0.07614008 0.057133242 -0.0059496183 0.20908403 0.051174503 -0.0920429 -0.21388087 0.035230443 -0.04895638 -0.015905906 -0.16067491 -0.6916105 0.06178666 0.015101518 0.23788127 0.13696903 0.103211686 -0.051894203 -0.13496223 -0.01647875 -0.04318062 0.23859334 -0.24407941 -0.11790562 -0.016017046 -0.00701586 -0.12874366 0.40409493 0.023279415 -0.014515161 0.20649463 0.009743627 -0.11983995 -0.14299092 -0.044145197 0.17348182 -0.06575806 0.013355748 0.04450945 0.09565161 0.03305053 -0.014107738 0.0052084615 0.0049050283 -0.0024998884 -0.01688749 -0.21965416 -0.06282692 -0.1988408 0.12798692 -0.019242417 0.09245589 -0.18535806 -0.15106384 0.29058468 -0.0036333615 0.06262078 -0.1076687 0.2303099 -0.09564699 0.08877871 -0.2582623 0.3514727 0.12762426 -0.026007948 -0.08316181 -0.16374297 -0.009214243 0.08151749 -0.060522493
知 -0.031824548 0.16323075 -0.040735476 -0.23857851 0.07263967 -0.15190159 0.15261509 0.057998344 0.009459406 0.13632599 -0.24113716 -0.04998353 0.22490281 -0.079106316 0.017825015 0.051931325 -0.20010743 -0.15209745 -0.049652606 -0.04467085 -0.1401094 -0.09406748 0.029340152 0.012798858 0.009883981 -0.0043953704 -0.17026569 0.17380418 0.032757826 -0.12419777 0.12020263 0.08579263 -0.031826664 -0.011387425 -0.09177196 0.14446247 -0.12393817 0.0036352773 0.0065984135 0.34127688 -0.03848216 -0.3738019 -0.121242516 0.17582065 -0.11683817 0.014056619 -0.03966622 -0.15137044 0.08212729 0.03152012 -0.49213317 -0.0013578963 0.1278785 0.07419965 -0.21911666 0.04385459 -0.077558696 -0.13157032 -0.04197434 -0.16104357 0.1619425 -0.1155126 -0.033902597 -0.2562303 0.09774532 0.113765985 -0.32521582 0.15636292 0.26289698 -0.059364624 0.011446765 -0.018439706 0.07385887 0.045704156 0.1601213 0.07885584 0.12370932 -0.13323073 -0.10337902 0.1390431 -0.022088382 -0.1983125 -0.122828595 0.16813478 -0.09682786 0.039469898 -0.1706165 0.07669709 -0.1181018 -0.19026016 -0.037469484 0.2846493 -0.069985 -0.13490461 -0.20369276 0.08625062 0.10438983 0.14640653 -0.14083448 -0.043802336
何 0.030010799 0.32352525 0.072538026 0.058224484 -0.14390275 0.16992001 -0.0458739 0.013098417 -0.014099408 -0.18987952 -0.18828265 0.1390557 0.008159791 0.0059003024 0.2584872 0.06336938 0.042492647 -0.156632 -0.2026671 -0.12524682 -0.0296104 -0.18268393 -0.15634261 0.11853986 0.08053475 -0.046708196 0.030862857 0.13447598 0.1453974 0.34187305 -0.23516887 -0.002847339 -0.21639434 -0.20650016 0.056866538 -0.2406247 0.0850174 -0.020970287 0.029568564 0.0031206612 -0.07579374 -0.51535076 -0.01959072 0.041524988 -0.12668486 -0.0010797441 0.046589147 0.010474695 -0.12804736 0.008704729 -0.18857329 0.055141926 -0.0027492978 0.047024395 0.058606878 -0.17602077 -0.089156926 -0.08693817 -0.09959199 -0.19400182 0.14911991 0.25478378 -0.17715634 0.013911391 0.07031691 0.07934346 0.167957 -0.013067678 -0.0024521095 0.08045957 0.050106224 0.13300684 0.1277421 0.24379462 -0.008540271 -0.10581681 -0.13308801 -0.23171146 0.053153392 0.19640416 -0.032258876 -0.06499162 0.049875423 -0.1758733 0.11260766 0.16762312 -0.1004591 0.107919686 0.018043833 0.11161479 -0.018491453 -0.04606266 -0.0020366237 -0.07827829 -0.003631491 0.07307273 0.12336743 -0.15214379 0.07611261 0.08100596
吾 0.13935292 -0.16195537 0.12396773 0.1503876 0.060235653 0.05718185 -0.083040915 -0.22991231 -0.20691206 0.20459393 0.033676565 0.1366162 0.19929789 0.13644275 0.01714186 0.21493353 0.019920759 -0.24363627 -0.0032053422 0.0031920625 0.0050628977 0.048405394 0.019119313 0.15201545 -0.24338934 0.014226709 0.059561383 -0.34441495 -0.031223763 0.18735029 0.23189941 -0.022808919 -0.064690106 0.04298094 0.123134255 -0.25955924 -0.07140719 0.09784828 -0.017069392 0.044522867 -0.05707792 -0.41351 0.03572333 0.03067303 0.118717596 0.37090436 0.040749293 -0.26998612 -0.27016172 -0.21031456 -0.37770146 -0.069897115 0.42165768 0.06203557 0.079251595 0.23838496 -0.1488993 0.17899498 -0.10501419 -0.05264221 -0.054370325 -0.12376346 0.008586315 -0.061250106 -0.028644912 0.12111694 0.15988864 0.06814077 0.093504466 -0.115290724 0.09439438 0.3649432 0.13141319 -0.1908096 0.0912639 0.20028552 -0.18863866 0.029823394 0.107726574 0.14919987 -0.11932819 0.045277968 -0.08100789 -0.03515478 -0.29797894 0.0115157785 0.11487729 0.06939182 0.20545669 -0.16991903 -0.01706526 -0.17821927 -0.050705776 -0.05625487 0.14732067 -0.24570127 0.06588916 0.14697157 -0.058504157 -0.08387657
仁 0.15000902 0.081325494 -0.11574082 -0.01853687 -0.07671314 0.030234072 -0.13050598 -0.08828617 0.1280128 0.118677534 0.0026857485 -0.10242905 -0.106450245 -0.0419858 -0.22519363 0.099203125 0.1214635 0.054632418 0.03794552 0.23798946 0.04725626 -0.06489547 -0.008105059 0.033670258 -0.06529864 -0.07989173 0.011732881 -0.20311226 0.06895389 0.21860674 0.1800001 0.045594554 -0.107302666 0.19572161 0.0026595732 0.10952309 -0.13074516 -0.02996119 0.087786496 0.029695837 0.06891363 -0.3564805 -0.10678948 0.2776053 0.12683757 0.056105915 -0.10487884 -0.14198628 -0.060683787 0.07246174 -0.3382049 -0.020853523 -0.0467289 -0.048182517 0.1041209 -0.041206192 -0.07586354 0.023724131 0.27122962 0.06363605 -0.08175353 -0.14529686 -0.109225184 0.031255156 -0.026232567 0.08121928 -0.0654669 -0.06446409 0.009331793 -0.2078153 -0.0349209 0.045745015 0.0279438 -0.019729333 0.08165276 0.0050016153 -0.07960719 -0.1186848 0.1319439 -0.033644583 0.07783619 0.21305534 -0.09476031 -0.18213499 0.020327765 0.0893022 -0.25344652 -0.17372854 0.07822024 0.15183556 -0.20914532 -0.0034762316 -0.0921653 -0.22926258 -0.10526042 -0.08660445 -0.16602045 -0.16279756 -0.022270892 -0.08389313
夫 0.027415305 -0.2230471 0.19795533 0.13685201 -0.09020001 0.114179395 0.15571901 0.06899739 0.24308 -0.07723574 -0.021748643 0.17281604 -0.18045072 0.09947453 0.14394206 0.350493 0.0635204 0.09908743 -0.07898304 -0.07019501 0.02019683 -0.10861974 -0.18137676 0.15779635 0.14084192 -0.045143437 -0.15728495 -0.10151471 0.13208726 -0.112246566 -0.17210704 -0.029924272 0.24637976 -0.20444767 -0.11422178 0.27278948 0.19764577 0.06091617 0.027440146 0.17017677 0.08933072 -0.5838375 -0.13304573 0.17564468 0.08312949 -0.023484956 0.012500775 -0.17299269 0.20363064 -0.017908016 -0.23940304 -0.06364944 0.17404552 0.2194453 -0.2114308 0.06590184 -0.112350196 -0.040302787 -0.027609434 0.1708695 -0.06845852 0.101402625 -0.026883695 0.12532912 -0.0032947448 -0.10515195 0.046466954 0.061419588 -0.054529116 -0.108643495 -0.090949066 -0.031732075 0.25837278 -0.2289321 -0.006285105 -0.18417893 -0.2121028 0.058637284 0.22528672 -0.012091365 -0.0945702 0.09672158 -0.027104773 -0.06530401 0.063999936 0.12295942 0.10007872 -0.016765527 0.14371468 -0.049493875 0.11803459 0.21046078 0.24828456 -0.2737898 -0.032273132 0.041377127 0.0074113617 -0.05596172 -0.31515035 -0.14330062
、 -0.093922615 -0.16846266 0.17352428 -0.13856573 -0.07354547 -0.16069153 -0.3950144 -0.024971703 -0.006937396 0.20715044 -0.20513749 -0.32401684 0.06592508 0.20145757 -0.014883006 0.30564186 0.13710882 0.1784258 0.22069141 0.14139643 0.009100738 -0.08023988 0.12171689 0.1830651 0.34363952 0.11094435 -0.09569152 -0.041954882 -0.043359876 0.01834702 0.026014213 -0.19867086 0.2552928 -0.11303188 -0.30150184 -0.4058526 0.13509634 -0.100826696 -0.5490469 -0.60590684 -0.0049071116 -0.71406275 0.10027915 0.09864789 0.11252526 0.11470827 -0.3546695 0.18300658 0.31379482 0.45992175 -0.41957963 -0.002982282 0.06541803 -0.067823686 0.030657575 0.33600974 -0.29783052 -0.15962236 0.0570172 -0.18406263 0.041162565 0.14597817 -0.10089125 -0.15139903 -0.16764413 -0.05133651 -0.29299945 0.24264598 -0.06863152 -0.060134105 -0.26529625 -0.06515038 0.28320315 0.3479755 0.4887553 0.00044192886 -0.081594944 0.08362427 0.35028052 -0.05418966 0.52613276 -0.038597014 0.045280296 -0.30408487 -0.168669 0.14703783 0.039502222 -0.03730693 -0.061682396 -0.3811191 -0.048508503 -0.14545937 0.22725609 0.13202924 -0.09163383 -0.07486255 -0.14650565 0.40987855 0.066157885 -0.11586847
道 -0.13660295 -0.19239502 -0.20286284 -0.05723304 0.096660435 -0.033287648 -0.04539116 0.07479814 0.4479107 -0.09464717 0.12112938 0.37946612 0.2330635 -0.039350398 -0.11744686 0.26536816 0.14920694 -0.28418288 -0.013436422 0.005757335 0.06719576 -0.22476655 -0.102827094 -0.01356066 -0.012756258 -0.070898 -0.17414814 0.07129534 -0.0880931 -0.13732886 -0.08897664 0.16482766 0.09382976 -0.11874154 -0.15891747 -0.039867707 0.03888937 -0.12967147 0.07698449 0.0016056314 -0.0018680831 -0.3549597 0.4208745 0.03510573 -0.09407145 -0.10857763 -0.08204006 -0.062454782 0.14705601 -0.08781064 -0.45303836 -0.11700067 -0.028322544 0.023008194 0.047138985 0.2100928 0.016215237 0.27684304 -0.09257874 -0.19561566 -0.013206708 0.19809993 -0.01419983 -0.21094185 -0.08512637 0.1274396 0.012990482 -0.007689691 0.007353498 0.24663779 0.0129285725 -0.17013979 0.030501394 -0.015885115 -0.09363377 0.09646747 -0.098633155 -0.06599141 -0.08261571 -0.04580743 0.22698696 0.11050777 -0.012932565 -0.067761764 0.24141301 0.04376604 -0.00042082721 0.13644186 -0.119392864 -0.22835174 0.2667779 -0.11505656 -0.10545589 0.21930334 -0.3195852 -0.06811055 0.10864323 0.08362521 0.089627825 -0.36059433
焉 0.008220647 -0.18475047 -0.16754556 -0.12693939 -0.116842926 -0.2662137 -0.04199592 0.16514476 0.060611673 -0.12260752 0.1920026 -0.05834723 0.008181537 -0.19218123 -0.2198125 0.22332986 -0.030142074 0.07750893 0.011365514 -0.15656227 0.10083043 -0.03441824 0.031326346 0.021245968 -0.0293671 -0.06989295 0.023733057 0.008361261 -0.12667166 -0.112315126 0.11977466 -0.031776488 -0.10506126 -0.05392243 -0.28113776 -0.061730213 -0.2150233 -0.19321407 0.0028430051 -0.13695927 0.116506755 -0.3917341 -0.044787716 0.22016566 0.110215105 0.056268588 0.026790526 -0.025993062 -0.047324333 -0.19221884 -0.47020292 -0.31394643 0.15215272 -0.10547761 -0.018837031 0.00015870295 -0.12263236 0.021116797 -0.019428048 0.019700289 -0.023592094 -0.26744 -0.01712472 -0.0035937484 0.114579625 -0.4000655 -0.18156554 0.007192226 -0.054657023 -0.058482934 0.005622651 0.12399547 0.16522974 -0.031028945 -0.24621058 -0.0075199427 0.076025136 -0.18376608 0.053826015 -0.16984202 0.2757444 -0.10018732 0.22893693 0.04036308 0.010174105 0.15497664 0.07152794 -0.09993879 -0.2250398 -0.0459722 -0.07293885 -0.085288435 -0.078363806 -0.18635455 -0.10879174 -0.23535174 0.3545165 -0.21663862 0.013468666 0.104194805
行 0.09767463 0.084994204 0.17297335 0.0076954262 -0.06153682 0.12984666 -0.17662461 -0.012838894 0.23775358 0.05381991 -0.19060038 -0.064063735 -0.24591379 -0.03143987 0.12685825 0.19409078 0.12356545 0.20493765 -0.00986497 0.09340003 0.1340299 0.18647508 -0.025841724 0.120194614 0.054291047 -0.11807551 0.020853154 -0.3454004 0.043560963 -0.040794246 -0.256686 0.049687207 0.15631402 0.23198362 -0.17879362 0.08081156 -0.011183966 -0.00012404099 -0.08675522 0.10327308 0.03590187 -0.4124665 0.036424264 0.15512948 0.014799294 -0.12771574 -0.020213028 -0.013372028 -0.13140197 0.10516434 -0.3868183 0.15768147 -0.1178475 0.01051582 0.22740524 0.12803827 -0.11670143 -0.033435993 0.20677203 0.10168248 -0.0073657017 -0.043120362 -0.19684355 0.13930972 -0.03653448 0.22761753 -0.04644875 -0.094798915 0.082178615 0.15824607 -0.0036701914 -0.26190817 -0.016935633 -0.0474669 -0.0695989 0.0015632249 0.05779971 -0.04481272 0.008970326 0.007744395 0.2558309 0.12255656 -0.1074681 -0.04627039 0.19400238 -0.22827253 -0.07990941 -0.15310162 0.119420685 0.051348172 -0.23304169 -0.19475436 -0.04187101 0.045724284 -0.15218389 0.046341427 0.041436564 0.0855219 0.027745577 0.051951148
谓 0.11067449 0.099970795 -0.32392558 0.13706847 0.0336361 -0.025354516 -0.13752867 0.012863385 -0.019062325 -0.006864134 -0.22270855 -0.106717296 -0.028472688 0.059265766 -0.13662224 0.21298103 -0.039350282 -0.077968135 -0.069834314 0.2078603 0.29945448 0.0561595 -0.0016028108 0.1961329 0.19295795 -0.035405755 0.1914246 0.07331295 0.0052380944 -0.08591563 0.0414916 -0.04608244 0.07087166 0.1240723 -0.063796915 0.23970118 0.10579655 -0.03961642 -0.0575896 -0.2003254 0.069542706 -0.5388404 -0.15793407 -0.036146965 0.20438099 -0.025057279 -0.13465278 0.10544241 0.10418072 0.17487505 -0.18835542 0.19946614 -0.19603351 0.10196288 0.1189283 0.09663204 0.103907496 -0.019161373 0.36845255 -0.0959326 -0.03415465 -0.0041003875 0.11406038 -0.17040306 0.046042427 0.22485313 -0.1894453 0.08094008 0.0228957 -0.037733834 -0.28259206 0.20477818 -0.05760864 0.1242624 0.27097207 0.12412926 0.17401588 0.035533085 -0.09192479 -0.16583978 -0.07878193 -0.22420985 0.24357432 -0.10216463 -0.14271647 0.039662924 0.05219646 0.1132887 -0.12409767 -0.13732652 -0.07135161 0.11416655 0.20458029 -0.075623974 0.14591101 0.031092398 0.23148285 0.34941658 -0.2821738 0.21760131
必 -0.08575369 0.23454925 0.13576679 0.019160947 -0.13423434 0.007818844 0.12115522 -0.13035879 -0.053104974 -0.049450815 0.13461034 0.23226768 0.19044322 0.060832676 -0.2238991 0.31696463 -0.1157562 0.0054452205 -0.17261681 -0.13761157 0.26554933 0.15353997 -0.11789437 -0.06364256 -0.025261682 0.026242143 -0.018527247 0.08026668 -0.09556232 0.14493302 0.04325021 -0.17383152 0.035574216 0.17619449 -0.06901448 -0.15205547 0.37169245 0.0899635 0.005151645 -0.0018419648 -0.34911543 -0.19649683 0.09543023 0.03302339 -0.055625457 0.06870518 0.0063931243 0.30134356 -0.19472799 0.28100556 -0.5795096 -0.05831086 0.15891196 -0.025319945 -0.13069934 -0.0951076 -0.04303544 0.052228313 -0.0819051 -0.073798575 0.024610361 -0.26587418 -0.12444641 0.1607344 -0.09132892 -0.20926939 0.117381014 0.07366431 0.20444958 0.13633366 0.0029243669 0.03714966 -0.032622848 0.08478067 -0.07253534 -0.33369097 0.0828336 0.0125300875 -0.099982224 0.18557413 0.19037786 0.088133305 -0.14283554 -0.062200323 -0.028248617 0.15785578 0.22973019 -0.040366996 0.074834034 -0.20937511 -0.07447786 0.14883216 0.22703755 -0.057747345 -0.060342006 -0.07091828 0.18091668 -0.23573877 -0.04774907 0.30193326
礼 -0.38466686 -0.31395817 0.1321362 0.14263038 0.060729023 0.1969539 -0.059283804 0.01290596 0.07717566 -0.030050775 0.12185972 0.43556282 -0.02216227 -0.05021486 -0.3355259 -0.19004421 -0.20506887 0.09942262 0.06434622 0.14602444 -0.059698913 -0.27854878 0.24550787 -0.23262314 -0.20545577 0.0803162 0.020962043 -0.04291086 -0.0057884143 -0.06063339 -0.08838016 0.089155704 0.010429018 -0.073136464 -0.39314973 0.17855641 0.3863662 0.27299443 0.063120045 0.14475842 -0.056484655 -0.17266473 -0.06488769 0.037898276 0.024129016 -0.020417543 0.36580414 -0.25079384 -0.030608617 0.039726093 -0.7532675 0.026385114 0.01862888 0.1692869 -0.14622146 0.007135275 0.002418344 0.2910743 -0.16813919 -0.11384541 -0.047498602 -0.06025298 -0.23509498 0.008725885 -0.18047854 -0.229783 -0.061970018 0.06749322 -0.27770707 0.01843047 0.052328777 -0.036152523 -0.05540644 0.093836285 0.09324852 0.057982787 0.08059009 -0.17451751 0.18062174 -0.085821524 -0.19916095 -0.25738955 -0.00885917 0.05142843 0.14135943 -0.03330851 0.08411225 0.057054438 0.020091372 0.21936992 0.4143083 0.16142692 -0.033820037 -0.19597368 -0.13057768 -0.20560108 -0.28239328 0.07657543 -0.10818715 -0.10441669
孔 0.14746411 -0.10630691 0.07995876 0.21065155 0.18751861 0.18328945 0.025638752 0.11488905 0.25616884 0.028663686 -0.22074321 -0.11790686 0.14435178 -0.23051484 -0.12314131 0.18498519 -0.07567484 0.1478591 0.12028453 0.091977745 0.14884846 -0.08419336 -0.23326668 -0.04140131 -0.12967268 -0.02671029 -0.030641166 0.102954194 -0.3489108 0.063908 -0.12206831 -0.114173815 -0.0018917396 -0.029832043 0.18664183 0.37347227 -0.14643209 0.11119931 0.051668912 -0.05102615 -0.022651881 -0.79621285 0.057053056 -0.1309196 0.08592176 -0.1941628 -0.032213032 -0.04810979 -0.07649029 0.17295338 -0.054979496 0.021221943 -0.19361806 -0.21823116 0.17092802 -0.2073308 -0.17760332 -0.26781166 0.05890886 0.009781711 0.17293032 0.16884069 0.16415657 0.036876567 0.04866862 0.26990837 -0.30324334 -0.15289591 0.1200333 0.15727465 0.042283542 -0.079124 0.19469857 -0.0026881061 -0.20103201 0.008108474 0.21090563 -0.3917251 -0.10724507 -0.019873144 0.25419766 -0.2504273 0.10043237 0.17292602 0.13330963 -0.15370235 0.12282482 -0.23387845 -0.021440625 -0.044778153 -0.2729916 -0.27061492 -0.020543173 0.17487562 -0.09040716 0.24615157 0.051638972 0.1552995 -0.114310294 -0.08126213
斯 0.21508616 -0.09056456 0.35069257 0.251566 -0.13847388 -0.04441778 -0.01704905 -0.1582829 -0.017084945 -0.036200557 0.074976 0.19013803 0.28662196 -0.0022167834 0.01935087 0.016728159 -0.20097984 0.21690938 -0.15536736 -0.030287143 0.011027062 0.026119754 -0.123199 -0.3235063 0.072237134 0.10962653 0.24722822 0.0049973363 0.19693476 0.26640695 -0.08504589 0.20001692 -0.22634879 0.17313465 -0.0787143 -0.0027190761 0.008243773 0.22843882 -0.11747688 -0.11195735 0.17005505 -0.3065925 -0.011840737 0.26541337 0.010210829 -0.093568034 0.18662147 -0.08490662 0.07502185 -0.22010283 -0.43629414 0.014332743 -0.1513451 0.17825215 0.0285022 0.021026073 0.21388336 0.1688818 0.06056475 -0.26254013 0.33128193 0.12620798 0.12219724 0.024822414 -0.06387744 -0.08659629 0.23645265 -0.07938361 0.025058161 -0.105927 0.096607365 0.14271979 -0.1848227 0.1432816 -0.3049783 0.25779748 0.020709295 -0.0010471942 -0.12456876 0.4234991 0.0026954485 0.13036528 0.042347245 0.14124186 0.25661707 -0.020048993 -0.07269707 0.030840594 0.10998387 0.33844167 0.061855968 -0.11438151 0.030298354 -0.2518823 -0.20660593 0.104728624 0.2921652 0.11418602 -0.1182685 -0.1595964
三 -0.0861325 0.07072275 -0.04264439 -0.010623423 -0.040064357 -0.17124254 -0.048279922 0.11968827 -0.008735534 0.121914364 0.13668919 0.17428264 0.121419914 0.0034002324 -0.09685174 -0.0011434685 0.049766395 0.19276784 0.019507118 -0.18255658 -0.20508751 -0.06591543 0.21451527 -0.152481 0.0650002 0.06268165 0.027446724 0.31424764 0.14647564 -0.10185668 0.112739615 -0.017541528 -0.2580653 -0.06543295 -0.24650483 -0.13758382 0.13563277 -0.14481913 0.08064823 0.19616482 -0.060931154 -0.4812104 0.1984051 -0.119201794 -0.019422643 -0.11841046 -0.10503966 -0.25505307 0.0328199 0.22812897 -0.2811587 -0.08797823 0.0075015184 0.24403094 0.09169585 0.20833126 -0.1245597 -0.28588974 0.1629325 -0.066099174 0.025010359 0.12525663 -0.1608423 0.0223121 -0.028570116 0.25668746 -0.32524565 0.19408117 -0.07287907 0.18874128 -0.03932371 -0.104924485 -0.039271653 -0.03698749 -0.042875025 0.06255399 -0.08916525 0.21106035 -0.1160398 0.12847885 -0.10466031 0.12285237 -0.17230493 0.06741829 0.09190708 0.06470173 0.066206664 -0.019819189 0.2544552 0.12756453 -0.09397675 -0.13245662 0.25846162 0.047509357 -0.028802004 -0.16785564 -0.2685622 -0.10413867 -0.16944237 -0.09712855
能 0.17329617 0.12088222 -0.23890969 0.33688337 -0.3558113 0.07888902 0.004784056 0.22959812 0.26624992 -0.1894124 0.070536725 0.2039479 -0.08166689 0.11402051 -0.0069714906 -0.17162003 -0.060219005 0.08299997 0.10483046 0.26754174 0.0811313 -0.0012932466 0.029212348 0.0635157 -0.04337545 -0.20684351 -0.041893862 -0.10959216 -0.0553835 0.031047069 -0.017279757 -0.28358012 -0.20290464 0.14965811 -0.025467064 -0.041958455 -0.118610926 -0.0038632927 0.006886246 -0.051158313 0.22282748 -0.26469383 -0.05497437 0.09115357 -0.23520726 -0.14967544 -0.09811819 0.28538334 -0.117241636 0.09991144 -0.6354791 -0.145499 0.13929573 -0.050192263 -0.01722397 -0.053389795 -0.05367608 -0.20583054 -0.03349014 -0.07407597 0.014055614 -0.19026187 -0.11132444 -0.20110427 -0.03114883 0.06489373 -0.13829437 -0.08444136 0.14771834 -0.027129892 0.01496404 0.12562591 -0.3092571 -0.10221724 0.21819931 -0.106680565 -0.13021804 -0.051956236 -0.12118625 -0.13450314 0.15313643 -0.00059537333 0.054999866 -0.01128021 -0.0034601907 -0.040356778 -0.013949007 0.15454634 0.20447096 0.07249609 0.009188464 0.1378899 0.024391925 0.24248914 -0.23685467 -0.013285668 -0.2278997 -0.104861565 -0.15370464 0.0730907
见 -0.086530626 -0.07874671 -0.09311536 0.03864095 0.20638797 0.03207425 -0.13526648 0.090920806 0.08757427 0.17985152 -0.37870756 -0.040527634 -0.0028656116 -0.16449943 -0.11284342 0.13072914 0.25062492 -0.0812566 -0.099835 -0.16454507 0.22333544 0.110779524 -0.14158383 0.14429387 -0.061629847 -0.03177479 0.05294948 -0.050429016 0.060062304 0.2095898 -0.015860578 -0.09746172 0.11458155 -0.048557766 0.0034302848 -0.11517469 0.13133937 0.08587647 -0.16457242 -0.12613918 -0.014373324 -0.33509552 0.18440363 0.12958525 0.011694914 -0.049425095 -0.089607075 0.05041628 0.13873243 0.109675966 -0.3897242 0.1485898 0.06492265 0.122020766 0.19577625 -0.02306485 0.20210756 0.011906935 0.0625869 -0.0788557 0.029642021 -0.21509473 0.1399359 0.069918506 -0.1987948 0.10435343 0.0136227105 -0.16829745 0.03144968 0.17295323 0.009123266 0.10432593 0.18880232 -0.41771457 -0.32933944 0.042309053 -0.20498428 -0.33860248 -0.072028935 0.0012858268 -0.11323105 -0.070210785 -0.21049288 0.2061527 0.045181382 0.07753815 -0.023304544 0.084051475 0.24662828 -0.23602651 0.056611165 -0.049013734 0.14992154 0.0038269078 0.27371198 -0.3184642 -0.03069729 0.051287733 -0.06452959 -0.035665307
学 0.0035553044 -0.09878571 0.17684267 -0.2026854 0.17706369 -0.24657586 -0.0051479433 0.0033765235 0.0633531 -0.110633284 0.061619487 0.2114703 -0.13124815 0.07571449 -0.07026724 0.11592228 -0.1924321 -0.016331682 0.121001475 0.083535895 0.17221197 -0.05617597 0.038471308 0.15545978 -0.063437976 0.0155008 -0.19141743 0.05215968 -0.18328919 0.21469271 -0.016019715 0.24244049 0.22643675 -0.1036476 -0.24894646 0.10639559 0.27112424 -0.03792999 -0.02273281 -0.057912163 0.10658796 -0.46329895 -0.13601694 0.37235636 0.29767948 0.23346652 0.15298903 -0.09539669 -0.12577093 -0.06419782 -0.55880904 -0.16000395 0.065020666 -0.15736029 -0.011658786 0.07265314 0.26262638 -0.009477861 0.12083354 -0.0035920367 0.06704544 -0.11793183 -0.12864952 0.040725388 -0.02736044 -0.061118186 -0.009828692 0.06751939 -0.044770397 0.4769004 0.056657486 -0.059544463 -0.083723105 0.13371031 0.07432686 0.0025001904 0.25813264 -0.3366155 0.11619591 -0.020525888 -0.043265257 0.053775996 0.0972828 -0.20437665 0.2598515 -0.10056358 -0.26192686 0.100405894 -0.2966787 0.21984161 -0.029103635 -0.12755921 -0.06095902 -0.2295927 -0.1947273 0.08931174 -0.10431997 0.12171062 -0.044154286 0.055444457
事 0.1846262 -0.15075518 0.018903572 -0.04376353 0.050963968 -0.0074074767 -0.01428326 -0.039973255 -0.09950621 -0.07023174 -0.08838932 -0.12881178 0.00082570117 0.014089764 0.010738985 0.07530688 0.017013665 0.17213766 0.05752402 0.004967342 0.016980207 0.34069192 0.1262029 -0.0015006259 -0.07823959 0.23294288 -0.15559843 -0.13786148 0.054948185 0.09766239 -0.2697538 0.28671527 0.27200538 0.030113894 0.03148521 -0.05123292 0.09078407 -0.21414503 -0.19503707 -0.06437522 -0.037609033 -0.32664385 0.32326016 -0.24295095 -0.040918075 0.07656242 -0.21130414 0.07066919 0.025223255 -0.05847265 -0.49124017 -0.05227173 -0.061700743 -0.12592435 -0.26373363 0.045199737 0.10969248 0.010654062 -0.010246285 0.08313272 -0.16910718 -0.22646248 -0.14745234 -0.12387323 0.039211176 -0.040687755 0.008925418 -0.16804674 -0.07288852 0.22029297 0.20513359 0.14197013 -0.060213346 -0.13537447 -0.016161976 -0.017023515 0.24253678 -0.120132424 0.05365129 0.084887825 -0.11782503 0.0047330437 -0.32397267 -0.048226457 0.06789796 -0.058679022 -0.27066854 0.17312953 0.11100953 -0.00076628104 0.059756115 -0.033043507 -0.090014845 -0.014684881 0.045086097 -0.2214383 -0.053828306 -0.23036909 0.010720094 -0.06934783
是 0.099799596 -0.077970356 -0.021628369 -0.18882485 -0.018504553 0.02412754 -0.1147122 -0.010398464 0.115501314 -0.24183707 0.19350998 -0.05649081 0.15197735 -0.22538705 -0.08991581 0.12712885 0.25168702 -0.1879739 -0.018825937 -0.06325571 -0.09610635 -0.17028019 -0.04156046 -0.028279282 -0.083837576 -0.13693199 0.04573416 -0.18846631 0.11564846 0.038567785 -0.06686717 0.07211046 -0.046598047 0.09943464 0.18745963 -0.21302575 -0.049264163 -0.11376764 0.08616717 -0.06250045 0.14650922 -0.5277632 0.38618815 -0.0031074286 -0.042125896 -0.13208061 0.33292952 -0.17436996 0.07247663 -0.05410508 -0.35936457 0.14999408 -0.029921066 -0.0039944444 0.18557522 0.07864391 -0.11752264 -0.017823435 -0.3122057 -0.12999177 0.03302573 0.014762884 -0.15819736 0.01749145 0.17905018 0.1414554 0.014565223 -0.2119008 0.13110797 -0.038730368 -0.09451727 0.06365492 0.10442108 0.18429326 0.11887897 0.16677389 0.0033892833 -0.0041573173 -0.113922276 -0.06258707 -0.13632461 0.26339754 0.17500205 0.10097769 -0.091627456 -0.20908664 -0.1483487 -0.05975468 0.18059908 0.17078462 -0.113953084 -0.025438905 -0.14228949 0.2686743 -0.023625685 0.117161416 0.1706158 0.09959412 0.026187614 -0.00057334546
哉 -0.23554096 -0.22850671 -0.0013102081 0.104687326 0.26108173 -0.019678885 0.008615666 0.10309659 -0.121394284 -0.16690725 0.12625396 -0.057991058 -0.010665976 0.3515848 -0.019264199 -0.08481353 0.2001571 0.064722866 -0.15341891 0.0656025 0.09495073 0.0004142268 0.07032869 -0.16033456 -0.15075824 -0.134457 0.35114685 -0.24393778 0.007617224 0.08348728 -0.06275233 -0.10688454 -0.013317147 -0.09506004 -0.22315313 0.23091052 0.033230245 -0.22738296 0.1754956 -0.22652838 -0.045371134 -0.9137069 0.2150094 0.08763871 -0.28347644 -0.097706884 0.19797619 -0.1699129 -0.1696725 0.35947177 -0.14713073 0.022305818 0.07284541 -0.12543556 -0.05676786 0.0042560217 -0.10597575 0.3738309 -0.24793199 0.03209831 0.10129827 -0.14464067 0.032097943 -0.12403036 -0.01696809 0.06618446 -0.12244989 0.00964167 -0.16349182 0.0011528134 0.12206916 0.1631067 0.31470484 0.09279789 0.2872977 0.10048268 -0.08206744 -0.048329763 0.009585291 0.040205013 -0.22563365 -0.2112652 -0.16243021 -0.17418054 0.2261734 -0.10163463 0.30227125 0.0693162 -0.14637011 -0.44606888 0.0045421324 0.13121459 -0.08472006 0.08614315 -0.024202082 -0.077409975 0.15618819 -0.19191876 0.08342397 0.21011876
闻 -0.030589433 -0.101005666 0.1655145 0.039422736 0.032465395 -0.24757765 -0.053458773 -0.09594704 0.36283663 -0.33820808 0.21967837 0.084164485 -0.12579606 0.09091119 -0.06342956 0.062273853 0.010986693 -0.12180729 -0.05563958 -0.10572914 -0.16871409 -0.017190935 0.28171465 0.26016396 -0.1577952 -0.082270525 0.16625927 -0.03325632 -0.025562743 0.10934591 -0.20365997 0.3070875 -0.03140475 0.109985985 0.01916659 -0.09680381 0.26428407 0.09572589 0.30932418 -0.11178895 0.017888483 -0.57190824 -0.09438165 -0.15837193 0.22307701 0.30670157 -0.047266074 -0.14391264 0.10364248 -0.012592381 -0.2964872 -0.03278555 0.20146058 0.12692004 -0.15120651 -0.038593397 -0.0409806 -0.02770779 0.2536444 0.27406746 -0.22022694 0.12896575 -0.23191223 -0.044894926 -0.3494617 -0.23975623 0.31887054 -0.031147955 -0.12800254 0.34364247 -0.030455483 -0.12956318 -0.107994 -0.18677865 -0.066971935 0.09080968 -0.034362428 -0.007504998 0.21286975 -0.055654243 -0.0511339 -0.022646451 0.05718184 0.20085298 -0.082390346 0.089078374 0.24107274 -0.1353774 -0.15240489 0.14333987 0.12938549 0.026447505 0.2131175 -0.031334624 -0.18680394 -0.05538878 0.08070329 0.050121307 -0.16287313 -0.1173109
未 0.20911108 -0.1947844 -0.045148496 0.05657015 -0.1840732 0.09820369 -0.09660099 -0.024342276 0.22250357 -0.1590784 -0.06232708 0.040703155 0.038031302 0.108058155 -0.17573197 -0.004129379 -0.3709215 0.008978527 -0.03916905 0.23234396 0.21435109 0.13417499 -0.27576205 -0.086385295 -0.30751076 -0.12978904 0.07219599 -0.15256001 -0.018626783 0.035473138 -0.17677847 -0.2210141 -0.0033376236 0.029127564 0.29434225 -0.034382284 0.06771434 0.012298938 -0.030842315 -0.047933817 -0.017938163 -0.40280122 -0.111341 -0.010854078 -0.067830026 0.29646337 0.2522785 -0.043078013 -0.07995182 0.12619992 -0.40022945 -0.046058454 0.24238013 0.08705783 0.32893205 0.3253144 0.049575042 -0.11889662 -0.03541926 -0.16647485 -0.049474068 -0.016519895 -0.17647935 -0.10502133 0.06335689 0.020224657 0.06924936 0.15735933 0.1632843 0.06541736 0.14153698 -0.18017055 0.018316995 -0.1347522 -0.1129453 -0.016196763 -0.0054918937 0.13717547 0.06888479 -0.04161081 -0.18092096 0.020975418 0.04277844 0.17462197 0.12996326 0.061841257 -0.13796243 -0.101126105 -0.009746324 -0.079244845 0.1093712 0.079873435 0.119178265 0.2763125 -0.021957522 0.096247524 -0.14375016 -0.29577905 0.002373692 0.05277971
公 0.12176726 0.1489712 0.07645413 -0.1683341 -0.055127323 -0.08376909 -0.17421854 -0.14143017 -0.050810486 0.35500902 0.043154754 -0.036958903 0.11744086 -0.099404655 0.24537525 -0.19106598 0.09898236 0.27491134 0.012821645 -0.19873504 0.08007644 0.17050001 -0.38241926 0.0152376145 0.42542797 -0.16532059 0.10039148 -0.056574352 0.0064434586 0.03161587 -0.27628806 -0.07523048 -0.14642571 0.009551867 0.23278384 -0.15910862 0.37105307 -0.1711155 -0.013789654 0.2636771 0.05309243 -0.7563236 -0.12749374 0.05982731 0.0574963 -0.057291403 0.058533352 0.043521196 -0.03338918 -0.0390121 -0.10925789 0.14003268 -0.07469317 0.07443274 -0.1902848 -0.3520944 -0.10639094 0.09131676 -0.22528166 0.3046805 -0.15005295 -0.09772998 -0.116523266 0.036618575 -0.24667656 -0.049047694 -0.18092838 -0.031269625 -0.052937604 0.21931677 -0.34507215 -0.13572358 0.1433185 -0.005860219 -0.053732824 0.016155865 -0.20020701 0.097921826 0.17750017 -0.026560629 0.04419653 0.05181108 -0.14049818 -0.22142969 -0.019804958 0.0014352594 0.031635646 -0.33802584 0.14234355 0.05605286 0.0010496904 -0.14290166 0.3689458 0.13223994 -0.10284433 -0.2272213 0.06451822 0.26433247 0.10332734 0.072170295
好 -0.16722535 -0.069508426 0.019632755 0.00092961686 0.14046302 -0.124426454 0.14122522 -0.14935799 0.11963722 0.018035345 -0.14030744 0.16329229 -0.09207191 0.07934548 -0.15925378 0.4359391 -0.04268485 0.037102517 0.034857467 -0.035535485 0.34460795 -0.07246692 0.09840874 -0.0028896285 -0.15710795 -0.079937406 0.0739993 0.24695428 -0.0074460404 0.046241384 -0.08547616 0.17900562 0.055880576 0.19422038 0.3045498 -0.1070867 0.12127451 0.10577661 -0.11954037 0.14455894 -0.074966036 -0.19408768 -0.041276667 0.25006816 -0.18725298 0.5292878 0.15311705 -0.11756397 -0.36455703 -0.022988526 -0.88522184 -0.036023326 -0.024860118 -0.09175073 0.018328847 0.35425192 0.3752634 -0.025713144 0.12328794 -0.05357611 -0.018886412 -0.40610206 -0.18748906 0.27129674 0.058228444 -0.1466697 -0.20444264 -0.040881854 0.19006862 0.28754538 0.08912327 0.008442776 0.03208159 0.10413815 -0.06742174 0.11804858 0.1887395 -0.29481763 -0.12194674 0.06253201 0.060143813 0.11294809 0.12881401 0.056428943 -0.11974993 -0.0057502952 -0.019828748 -0.18579173 -0.37088847 0.10331934 0.11718626 0.07801551 0.08300338 -0.083281055 -0.16950448 0.17986363 0.33887014 0.06946598 0.04389502 0.029191999
我 -0.04622519 0.11431268 -0.11072074 0.26716632 0.14875683 -0.07515381 -0.12752332 -0.24561046 -0.23229781 0.07424053 -0.011812049 0.15272503 0.015426026 -0.09051931 0.10726519 0.11958631 -0.07603418 0.121638425 -0.043624345 0.0237592 -0.24192925 -0.0323242 0.15130492 -0.18584262 -0.10841103 -0.054342594 0.018550279 0.09725812 0.067872554 -0.18304892 -0.19033657 -0.03015448 0.04864005 -0.20205216 0.07073439 -0.020391457 -0.07551592 0.10646785 0.072087735 0.25922227 -0.13602223 -0.5406474 0.088230886 0.08877418 0.020476338 0.2257046 -0.05803683 0.10694649 -0.15360676 -0.18313344 -0.2462266 -0.06934299 -0.025000554 0.21956468 0.026882563 0.015130987 -0.089539506 -0.11732258 0.019735632 -0.058075618 0.051217377 0.1289953 0.2805733 0.05882317 0.08504225 -0.003264347 0.030250326 -0.43731737 0.14868248 -0.05314957 -0.0123501215 -0.003533579 -0.016297895 -0.04829104 0.4219724 -0.08368577 -0.08128083 0.23102503 0.03553562 0.018892054 0.10671157 -0.05919529 -0.22803986 -0.10595988 0.26031253 0.21478194 -0.004320076 -0.053643998 0.17652278 0.025231818 -0.112522446 -0.017950434 -0.10421884 0.018147 0.0063790996 0.08214106 -0.25934482 0.14494434 -0.2316731 0.24628742
路 0.07070072 0.18905349 0.16788337 0.15220092 -0.1770308 -0.31002575 0.32178023 -0.09008576 -0.090717524 0.2672618 0.16746622 0.26542276 -0.039784547 -0.16426797 -0.41667944 0.0353786 -0.21811701 0.23612691 0.16858031 -0.011940178 0.009353924 0.035389192 0.061932825 0.0112174 0.13135299 -0.09194463 0.061404847 -0.056460287 -0.2331695 -0.03002417 -0.016028253 0.0024032951 -0.1553875 -0.32895014 0.3105519 0.05068291 -0.02102183 -0.25878617 -0.21662508 0.08524658 0.05259661 -0.8405726 0.13671343 0.1773378 -0.07309114 -0.27458116 -0.005659256 0.10068774 -0.10940894 -0.04114622 -0.12430153 -0.2352962 -0.13791962 -0.2684808 0.16798885 -0.15559058 -0.07985884 0.1781425 -0.2798379 -0.23544353 -0.15282072 0.02986076 0.056780986 -0.07674143 0.10485234 0.13147861 -0.16676758 0.055435013 0.1507235 -0.4968618 0.028302483 -0.30032974 0.052714497 0.008944203 -0.01652721 0.022204988 -0.09893885 0.034346838 -0.073810816 0.058370613 -0.052325267 0.0049364064 -0.13186972 -0.20855615 0.06470106 -0.018746257 -0.014021827 -0.019084584 0.30229095 0.30683118 0.0346098 -0.023934284 0.22353296 -0.03437987 0.023057373 0.08852315 0.15082185 0.062011875 -0.04477477 0.12616143
在 -0.0014812564 -0.12497632 0.016132183 -0.006673052 0.05629967 -0.041038185 -0.4122193 0.27354532 -0.13844383 -0.0092028845 -0.039413564 -0.21619307 0.29948512 -0.13404249 0.3489245 0.32071808 -0.17330234 -0.21974467 0.24958952 -0.021462398 -0.18598941 -0.21177548 0.04638813 -0.30679455 0.09138291 0.16514485 0.3047686 -0.13256659 -0.121947445 0.23980585 -0.21892868 0.019156659 0.19144447 0.40684718 0.18445118 -0.03987556 -0.13163383 -0.20779443 0.0094163725 -0.34126925 -0.08655069 -0.29274854 0.0022602268 0.22934747 -0.008002711 0.030269183 0.2420798 -0.058598615 0.026122097 0.22459929 -0.62834316 0.11372988 -0.09390824 0.0025149183 -0.37346452 -0.20935628 -0.16957907 0.17656535 0.14556986 -0.16871753 -0.041627195 0.06419464 0.100783214 -0.16766511 -0.13589089 -0.0765111 0.060483977 -0.26070735 0.023050437 0.35940078 -0.02509451 -0.039009124 -0.078686945 -0.14332604 -0.24960156 -0.21648446 0.11463087 -0.08770593 0.45162612 0.12451323 -0.10631159 0.12301089 -0.07015916 -0.32552773 -0.15299541 0.28120524 0.2733707 0.0069432743 0.19264102 0.46013895 -0.19179243 -0.079414085 -0.096047215 -0.015081184 -0.40652722 0.2595698 0.17699952 0.0942482 -0.055977814 -0.13743544
已 0.23064737 -0.042807315 -0.19364828 0.10997954 0.297007 -0.10201683 0.022356898 0.15755807 -0.047908098 0.21787405 -0.08662665 -0.095807195 -0.16709405 0.100962 -0.04874595 -0.13005579 0.027176958 -0.1274911 0.12840332 0.007279857 -0.04512155 0.013213346 -0.2038968 0.172391 -0.037092764 0.105394654 0.083557725 -0.22459295 0.16537417 -0.03314165 0.038367037 0.010699195 -0.270295 0.10462307 0.13308893 0.29292333 0.1894476 0.1786444 0.012118974 -0.069219865 -0.2744768 -0.6223798 0.092364386 0.23074815 -0.002943139 0.025869343 -0.07832794 0.013895771 -0.1026389 0.10816964 -0.3420684 -0.2607376 0.10628565 -0.20854309 0.056278247 0.010005573 0.10531626 0.056625724 -0.051247336 0.15344504 0.031128593 -0.1260933 0.07744587 0.21660577 0.17472391 0.05827246 -0.1900789 -0.27380893 0.049001392 -0.07659683 -0.460264 -0.016709235 -0.03306746 -0.0014253944 -0.036707968 0.2839847 0.38639525 -0.282297 0.10317934 0.17845963 0.015155829 0.021880139 0.07241673 0.0092020845 -0.0065297936 0.23098566 -0.17651105 0.2811922 -0.13690138 0.19783856 -0.076812945 0.019213444 -0.038843013 -0.1345155 0.020717738 0.44757596 -0.010203747 -0.20276763 -0.45422992 0.34586048
得 0.06713812 0.001654892 0.07776481 -0.13528834 -0.2800147 -0.081236966 -0.052663784 -0.135686 0.017134923 0.13644259 -0.11077651 -0.20467336 -0.1310882 -0.12305826 0.24144739 0.1587456 -0.1454187 -0.15616217 -0.060274523 0.13007425 0.25039893 -0.17972678 0.012970511 -0.18291473 -0.21922785 0.25030914 -0.053563513 0.16942774 -0.13053879 0.06349463 -0.041844744 -0.12838186 0.20078947 0.22418216 0.16641496 0.0025203181 -0.13596347 0.119393446 0.0012668883 -0.1328806 -0.00084279384 -0.09281172 -0.36042517 0.13286076 -0.103878394 -0.13449618 -0.35570177 0.1574255 0.05778305 -0.1559358 -0.67875445 -0.015804319 0.045105 0.063669525 -0.14648142 0.064161636 -0.1305911 -0.081909135 -0.2380746 -0.017903728 -0.07763159 0.008799368 -0.23804823 0.019031756 0.05628955 0.044755522 -0.027103059 -0.12010299 0.26504478 0.28777272 -0.19170368 -0.1137412 -0.20776305 -0.1500881 -0.1720666 -0.036883995 0.044623572 0.03358223 -0.07623733 0.03583967 0.051510274 0.1709386 0.23838718 0.1107166 -0.24729188 0.029588593 0.0570988 0.21931453 0.0770018 0.06243496 -0.034601696 -0.04195708 0.11672235 0.3291569 -0.06748461 -0.0031077615 0.06682155 0.16913857 -0.006474103 0.13662428
所 -0.026269242 0.18892866 -0.4129956 0.053864513 0.061843283 0.113560334 0.020318225 -0.26113772 0.063646026 -0.07206564 0.16739166 0.040977985 0.07314662 0.059961244 0.1391965 -0.0133278435 -0.08213498 -0.05596032 -0.019718487 -0.116072096 0.080994114 0.086581714 0.19114314 0.09452098 -0.16541074 0.2976816 0.07900467 -0.21643984 -0.027466528 -0.04215668 -0.040259138 -0.029326972 0.00918228 -0.007016992 0.04327293 0.11154053 0.01800976 0.0028252723 -0.00859591 -0.10251922 0.108269215 -0.2399524 0.088135555 0.07495252 0.08379963 -0.17233348 0.27119592 0.06803848 0.062485628 -0.013769788 -0.50738573 -0.025683094 0.19452356 0.3634855 0.12950405 -0.033666417 -0.10833197 -0.0910706 -0.04850009 -0.0921387 0.104389824 -0.2623659 0.029340796 0.057104677 -0.2177333 -0.05617144 0.09332382 -0.10415231 0.2789201 -0.078093916 0.026824977 -0.16331483 0.11032217 0.03475737 -0.06096633 0.14046931 -0.2559528 -0.074831486 -0.24974936 0.2289796 -0.044145674 -0.099805266 -0.12730832 0.2758448 0.059619293 -0.055939425 -0.061290275 -0.009379837 0.06921641 0.4167239 -0.13670862 0.051780753 -0.019481013 0.005666232 -0.07621256 -0.1444852 0.13731281 0.062085144 -0.28405702 0.031010732
民 0.13632031 -0.20987585 -0.35431513 -0.39530617 -0.068345934 0.20794937 -0.12837313 -0.13351607 0.021100964 -0.07783153 0.11969112 -0.15876853 -0.17343011 -0.13809527 0.19091314 -0.25856596 0.21788447 0.15873736 0.06722635 0.32037875 0.07892146 -0.012862293 -0.19775848 0.0377406 -0.005935553 0.041390795 -0.25157225 0.061411563 -0.18234184 -0.24847516 -0.016121857 0.050981898 -0.07854773 -0.29456666 -0.20655759 0.13972221 -0.21772435 0.01653185 -0.037306353 -0.07725162 0.17491929 -0.23331822 0.28232878 0.22374637 -0.025497196 0.0044187685 0.15448922 0.05224396 -0.036135413 0.20922554 -0.6026987 -0.15586466 -0.12917855 -0.12351326 -0.07773135 -0.016144887 0.05321004 0.0595148 0.33640164 -0.19751278 0.051369064 -0.027788676 -0.0403976 -0.02550025 0.19092935 -0.15405566 -0.2131045 -0.36320558 -0.02160116 0.10309737 0.09951287 0.075106695 0.12933585 0.25012597 -0.16041768 -0.19253668 -0.22243431 -0.021927137 0.1287681 -0.15796539 -0.4437623 -0.28659725 -0.036301374 -0.24541996 0.07753795 0.046321955 0.02885936 0.053061303 0.038103007 0.30293655 0.089480564 0.4354719 -0.050724186 0.0327525 0.1522317 0.07375257 0.066602096 0.24822289 0.14492898 -0.040430434
小 -0.03902726 0.023286395 0.014594112 -0.1480931 0.08682661 -0.16766483 -0.17637798 0.10526385 -0.115353845 0.050630767 0.07105454 -0.0819425 0.16425408 0.08294747 -0.0364512 0.0007552053 0.03760356 -0.14045459 0.09763232 0.2608146 -0.11981019 0.10213989 0.042991184 0.047372863 0.21587804 -0.36043942 -0.20813394 0.1622026 -0.13764031 0.27690178 0.038578194 -0.11767476 0.21029188 -0.17606525 -0.034990497 -0.0968572 -0.1541483 0.022846526 -0.18944794 0.107184865 0.074936844 -0.36649996 -0.20575273 -0.04058385 0.18054642 0.013194159 0.07407535 0.14365488 0.079438545 -0.06404248 -0.49215883 -0.085933015 0.12161432 0.14960206 -0.24622074 0.11873921 -0.25692686 -0.39539292 -0.07871881 0.020040981 0.15276894 -0.1816758 -0.0053785914 0.10484529 0.19323917 0.10556059 -0.034276634 0.13332427 -0.03971804 0.027285632 -0.14445634 0.087432824 0.14630097 -0.26632413 -0.0971068 0.31983182 0.2971842 -0.031596605 0.38663718 0.24047503 0.060286038 0.023065723 0.29395425 -0.21139328 0.20553932 -0.047810234 0.23252666 0.18879049 -0.1329213 0.09905265 0.068154655 0.047180057 -0.026965298 -0.063458115 -0.14902443 -0.074330136 0.00087364763 -0.054888975 0.017250204 -0.011639176
天 -0.12083468 -0.032761823 0.14133283 0.22541638 -0.048625212 -0.06709615 -0.12839489 -0.103385836 -0.14309275 -0.00027120137 -0.0841689 -0.2570936 0.08214755 0.16881062 -0.16535538 -0.15858857 -0.21098939 0.17983806 0.3413561 0.16858745 -0.12256919 -0.271214 -0.011527291 0.08058274 0.13303828 -0.12400839 0.007265442 -0.006565966 -0.14235407 -0.25154006 -0.02442002 -0.0352916 -0.23463227 -0.08504709 0.037931137 -0.47211638 -0.0831568 -0.21124803 -0.0046766866 0.18935864 0.15921068 -0.39080065 0.10792483 0.22751616 -0.12598893 -0.010763005 -0.013267631 0.110377416 0.015942242 -0.0025095872 -0.35956234 -0.12121603 0.103964135 0.2028028 -0.20467798 -0.1757909 -0.12963825 -0.124012075 0.17676473 0.12883253 0.107191 0.12848212 0.09554183 -0.020935882 -0.048538733 0.043747354 -0.056857333 0.07174061 0.056741834 0.020823158 0.006431758 0.1515005 0.19472298 -0.0930745 0.04830666 0.17136969 -0.073497996 0.06166385 -0.25335762 -0.0022454585 0.19528209 -0.24535763 -0.16092691 0.34517562 0.2206549 0.029385881 0.06767523 0.22711198 -0.2252043 0.14583601 0.050944217 0.038397457 -0.17315479 -0.1440629 0.01957964 -0.26821718 0.20393316 -0.10352022 -0.15747748 -0.12221019
乐 -0.061547738 0.1214302 0.4490842 0.03449682 -0.043624736 0.27554715 -0.020818062 -0.028752433 -0.05253365 -0.18234387 0.023242403 0.06443195 -0.15094796 0.07012198 0.05271998 -0.2866926 0.18345429 0.01637131 -0.071306154 -0.031134706 -0.03461569 -0.12617165 0.2530736 -0.18477328 0.17058735 -0.078467146 0.22786278 -0.10060575 0.2737813 0.028214406 0.040475648 -0.18365148 -0.062501885 -0.13873513 -0.42506623 -0.07757632 0.3022116 0.28669846 0.12626305 -0.09054544 -0.11505523 -0.2718498 0.2793804 -0.0017910777 0.07982632 0.067744814 0.31137532 0.27831966 -0.18274945 -0.0015480462 -0.70406586 -0.03539098 0.35965377 0.0020039962 0.14150836 -0.30371118 -0.44915855 0.26937982 -0.32179722 0.16945326 0.30197603 0.18736283 -0.17879231 -0.02659698 0.010544866 -0.3503877 0.032698415 0.041285295 0.08387935 0.01944967 0.012137601 0.16627021 0.41171142 0.027703062 0.088839896 0.13171533 0.080723464 -0.060961664 -0.24595699 -0.07700622 0.064114764 -0.1435799 0.10428239 0.0071441187 -0.059706345 0.094299234 0.19942236 -0.011081442 -0.13715471 0.17415257 0.37037286 -0.21701457 -0.1252844 -0.048547924 0.22742957 0.16170743 -0.08703735 0.0042650364 -0.09816687 -0.077457845
邦 -0.029661011 0.15822129 0.03984981 -0.13910043 -0.27655238 -0.016438529 -0.1354288 0.17218474 0.06335847 -0.19891246 -0.070910744 0.22886503 -0.061398994 0.15758033 0.006227545 0.26197225 -0.059297975 -0.17212191 -0.09229389 -0.22042397 0.12227958 -0.063253954 -0.39232534 0.17054483 0.15469664 -0.114691205 0.1790544 0.119772725 -0.042268246 0.03427662 0.009035362 -0.09592986 -0.08758859 -0.14133497 0.109246105 -0.18143272 -0.12970972 -0.06402971 -0.046744417 -0.20942089 0.110055394 -0.44497776 -0.054532703 0.12076409 0.017864816 -0.020534739 0.21629497 -0.10210444 0.11425711 -0.24652913 -0.49824324 -0.07855223 -0.11877508 0.1584237 -0.290619 -0.09601919 -0.25916666 0.2455242 -0.10612692 0.09731044 0.19149585 0.10152574 0.1884194 0.11260188 -0.0002565179 0.24906516 -0.2517712 -0.020876935 -0.061926264 0.19003282 0.078848384 -0.0063208705 0.052955035 -0.10387779 0.16526459 0.06192888 -0.014998059 -0.04436756 0.098719254 0.29730946 -0.14071849 0.4869645 0.09512242 -0.1098496 0.06113624 0.10298478 0.19489707 -0.0021562558 0.10445712 0.2712137 0.16264646 -0.3642677 -0.079578236 0.15740635 0.12769979 -0.0382544 0.17836808 -0.20789838 -0.0032166298 -0.24907586
亦 -0.043194763 -0.06397031 -0.16458416 -0.15277995 0.1539821 0.2977125 0.13787007 -0.11923581 -0.04346872 -0.020588096 -0.028269745 0.12802725 0.035436355 0.19494759 -0.07599459 -0.22449715 -0.13137211 -0.20362718 -0.112937905 -0.14348556 -0.27547762 -0.22905192 -0.27270666 -0.30059844 0.032670368 -0.14517443 0.11492476 -0.0064211204 0.23802075 0.12740594 0.24844661 0.01856147 -0.22039665 -0.36268604 -0.31714937 -0.06617775 -0.05587213 -0.3648798 -0.046840724 0.072413705 0.090271026 -0.44027188 -0.030117976 0.08047346 -0.09550021 0.005200686 -0.11666295 0.059355848 -0.010975713 0.11168394 -0.4729458 0.37009937 -0.07105411 0.00847672 0.022209913 -0.40593746 -0.10322332 0.15933649 0.07668984 0.010027111 0.023550142 0.13715746 -0.17416543 -0.23668647 0.27277225 0.2695029 0.030383568 -0.010098364 0.1293077 0.084223755 0.108597234 0.18986957 -0.06514069 0.20232368 -0.41011614 0.15329425 0.2946828 0.19318555 0.03168361 0.35453025 -0.08248397 0.03297515 -0.0799396 0.21389012 0.06733084 -0.033146285 0.37957 0.059249528 0.09781679 0.06533044 0.18588805 0.10445503 0.14383955 0.03966047 -0.102761135 -0.39765427 0.2053457 -0.03786394 0.010869578 0.15899515
使 -0.05950724 0.08481555 -0.03650587 0.23196846 0.114185974 -0.08229798 0.2981759 0.15222508 -0.13742688 -0.093812585 0.00788437 0.07907733 0.17092821 0.090096034 -0.11657813 -0.20786884 -0.082716376 -0.13189086 0.2725061 0.08499072 0.17917849 0.063295916 -0.12454688 0.11944211 -0.04723398 -0.13322185 0.29291138 0.021631658 0.003670521 -0.084930815 0.048193343 0.018360754 0.23763096 -0.1607839 0.089064576 -0.140524 -0.1982911 -0.0831507 0.13167103 -0.32068098 -0.01895272 -0.42844427 -0.077022575 0.16364034 -0.17553271 0.20775563 -0.095790714 0.00073934114 -0.19642662 -0.10592301 -0.40109405 -0.14898355 -0.2897898 0.06392474 0.2262899 0.15721552 -0.13438892 0.19440056 0.08318118 -0.009413496 0.050852638 -0.11084322 -0.117025964 -0.0068098297 0.1029443 0.11009818 -0.04164158 -0.1130087 0.055408586 0.1281907 -0.19142781 -0.19939145 0.14583653 -0.048830133 0.06859509 -0.07180571 -0.017115945 0.019004911 0.10556185 0.00970211 -0.181114 0.40990332 -0.011769576 0.20430812 0.27624047 -0.03845931 -0.061560594 0.02501151 -0.13427405 -0.08477678 0.16229846 0.029281763 -0.014051363 -0.28940263 -0.054815114 0.013440285 0.16853654 -0.09497246 0.06035728 -0.45482743
大 0.00730427 -0.23241375 0.0990162 0.1091705 0.24075818 -0.010137249 0.14003792 -0.27916104 -0.16488789 0.02576964 -0.07247192 -0.121063046 -0.21363688 -0.172058 0.0023964914 0.0115947 -0.059350647 -0.07939332 0.033368133 -0.18840224 -0.37933406 0.19271438 0.01412589 0.10021563 0.22524364 -0.04364373 -0.18355851 0.070820555 0.063037604 0.14942785 -0.31582424 -0.23710509 0.21280733 -0.3015466 0.09358247 -0.19705705 -0.3064175 -0.06945062 -0.07455336 0.19908012 -0.16868953 -0.32769272 -0.19571151 -0.36797565 0.086473234 -0.23917934 -0.33101413 -0.09410112 -0.17473644 0.0539643 -0.6001198 -0.07258871 -0.062337633 -0.010768133 0.12611431 0.22742167 -0.14884232 0.060180172 -0.18490706 0.0108715985 -0.14233164 0.14945973 -0.19681925 -0.14168012 0.03935282 0.14260122 -0.085959114 -0.18660505 -0.027389806 -0.05909151 -0.12725087 0.0007692254 0.37017184 0.18411912 0.050042406 0.15517065 -0.06325029 0.08246358 -0.035135254 0.37932074 0.31268567 -0.012968279 0.20464918 0.030947763 0.20809847 0.006071573 0.02086373 0.17985134 -0.113432266 0.12348624 0.17605872 -0.10920034 -0.013749916 -0.4452443 0.014568159 -0.09126676 0.16490959 -0.028563963 -0.17630413 -0.33715785
下 0.17723699 0.051478364 0.11079363 0.15513512 -0.16649716 0.036458023 -0.3463613 0.25466725 -0.04536385 0.17385444 -0.44013643 -0.117370576 -0.010984283 0.21908997 0.30185544 -0.13698617 -0.20324734 0.16578631 0.13870053 -0.22994816 -0.038886245 0.08427454 0.07169096 0.059393927 -0.045909002 0.17195022 -0.13690867 0.21311446 -0.19242816 -0.0772376 0.30992448 -0.135684 -0.15404019 -0.14257137 -0.19060075 -0.18199667 0.3591443 -0.17185333 -0.038041797 0.34171134 -0.025504477 -0.36274257 0.14409727 0.350285 -0.122842796 -0.09120875 0.24342941 -0.23008977 0.084976256 -0.098857984 -0.5206991 -0.1739755 0.22380944 0.12793142 0.39195868 0.010218928 0.0491482 0.06691968 0.05689413 0.16204125 -0.051873133 -0.24184328 -0.07305099 -0.02058754 -0.13278554 -0.009265792 -0.023370689 0.090546474 0.3441995 0.08029903 -0.036000572 0.23137932 0.16836317 0.19196257 0.004038723 -0.019160137 0.09805705 0.004471099 0.14622468 -0.16989714 -0.10692252 -0.22025251 -0.19176586 0.21177454 0.02889376 -0.20430101 -0.029257473 0.05855286 0.008169826 -0.34170255 -0.07501684 -0.13745701 -0.048917796 -0.16030361 -0.14546776 -0.001191169 0.004039288 -0.349041 -0.007778617 -0.1409969
贡 0.115047134 -0.14580902 -0.044176538 0.20421727 -0.06442792 0.053208888 -0.01625424 0.12744299 -0.30199632 -0.00997986 0.093046635 0.25317264 -0.14410481 -0.08151841 -0.0026225336 -0.21944453 -0.26675978 -0.08664221 0.065881826 -0.22615498 0.08883662 -0.078590624 -0.018070772 -0.057790235 0.05869481 -0.101392604 -0.16255073 -0.16199638 -0.2153976 0.10518399 0.15756392 0.13437273 0.18607153 -0.17687005 -0.19063702 -0.087577745 -0.29111335 0.058064573 -0.29310685 0.21911897 0.11999792 -1.0779072 -0.283456 0.27710894 0.25923774 0.10879685 0.09124883 0.1877056 0.1467275 -0.06611522 0.12987332 0.023777321 -0.008968291 0.18711661 0.2641844 -0.11388376 0.26278675 -0.0034569972 0.0031085936 -0.17244072 -0.081165455 -0.18800695 0.1383415 0.25500333 0.1480032 -0.043901436 0.09427286 0.09056265 0.100524984 -0.15093392 -0.074230716 -0.12445429 -0.21096578 0.280414 -0.002731496 -0.31155303 -0.11943714 0.07676441 -0.13699281 -0.09657416 0.1524203 0.17520724 0.3092878 -0.2046959 -0.18182513 -0.13734691 -0.0076526897 -0.08670503 -0.012022784 0.071261056 0.029703114 -0.02581182 0.13357975 0.0163918 -0.21568778 0.041136563 0.095887594 -0.1273262 0.062271576 0.10198675
欲 -0.17844833 -0.1519209 -0.1467903 0.05106338 -0.04116111 0.0672312 -0.07405204 0.06288548 -0.20604086 -0.17932895 -0.3566897 0.2348204 -0.20628819 -0.14155559 0.025890166 0.09131229 0.29959115 0.09908412 0.13466483 -0.2830458 0.19833381 0.06354514 0.06579911 0.006874836 -0.25645876 -0.053997558 -0.048352223 0.12675789 -0.008549252 0.19079863 -0.17995524 -0.07292782 -0.22120087 -0.17907816 -0.035263125 0.022423541 -0.25742486 0.47381148 -0.06926482 0.13144507 0.1922721 -0.35092938 -0.030158833 -0.24142283 -0.1771185 -0.25676814 -0.11357939 0.030340277 0.23200548 0.10971104 -0.49078196 -0.16438542 0.08025567 -0.092493564 -0.060386255 -0.32457924 -0.3441734 -0.06036164 -0.30568215 0.06990096 0.09054038 -0.16095269 -0.10019661 -0.292286 0.29941818 0.059309725 -0.13637488 -0.26394272 0.0054772277 -0.07747267 -0.23854232 -0.26638383 0.29063702 -0.11047102 -0.15951283 -0.081012495 -0.0141945295 -0.09619853 -0.024786837 -0.24607955 0.07487757 0.03269531 0.120963186 0.049479812 0.008644721 -0.101394504 -0.042204313 -0.18257745 0.06763857 0.035753213 0.053867757 0.23830792 -0.13805324 -0.12202089 -0.15461163 -0.4012844 -0.15621054 -0.08765064 -0.001171261 0.29248217
诸 0.06732081 -0.19635743 -0.2746153 -0.0010648472 -0.071766935 0.28451124 -0.0573337 0.13752463 -0.15007018 0.14665096 -0.02649228 0.42618078 0.0496596 -0.005349298 0.05054072 -0.05724276 0.26904047 0.029637637 0.24323006 -0.19553396 0.015413949 -0.15896463 -0.2708166 0.008512922 0.22860087 0.00074704085 -0.03967852 -0.015155009 -0.24663502 0.23267499 -0.036265887 0.2656389 -0.00529827 -0.09531618 0.2409229 -0.40158135 -0.044502936 -0.176939 0.068673 0.27986893 -0.14531048 -0.57305425 0.09706739 0.0024837072 -0.117688045 0.104305685 0.06695228 -0.12353695 -0.29981083 0.08320273 -0.29261386 -0.017364439 -0.14377758 0.14532773 0.21662077 -0.06900849 -0.053834736 0.19948053 -0.038429566 0.11534348 -0.15800178 0.09618483 0.12316363 -0.1871828 -0.1859879 0.10537172 0.15638909 -0.122261964 -0.12586854 -0.1286117 -0.16352624 -0.051105067 -0.026453696 -0.34551403 -0.17262162 0.018794449 0.116768114 0.044852503 -0.1027681 -0.24103983 0.13686137 -0.14597423 0.46981078 0.031136444 0.3467715 -0.18056417 0.060022075 0.1216455 -0.3002706 0.026388943 0.13357131 -0.40664592 0.013522429 -0.04345604 0.1859605 -0.042105477 0.056280427 -0.1823352 0.16187102 -0.07364044
从 0.45937186 -0.23650734 0.26411924 -0.086634 -0.11661306 -0.056036193 0.2587809 -0.113285035 -0.12537304 -0.12295588 -0.1310797 0.006999747 -0.0442315 -0.04299269 0.27150613 0.06713272 0.048958253 0.16717048 -0.024043841 0.0665806 -0.14548548 -0.0946599 -0.15710098 0.11425462 0.022850083 -0.21571308 0.30827397 -0.09162473 -0.0748957 -0.07481963 0.036182676 -0.09238176 -0.075419895 0.14108767 -0.13050327 -0.14229003 0.21408863 -0.0030181645 0.34443736 -0.35886282 0.14499503 -0.3186408 -0.022502908 0.010789637 0.12517656 0.0157875 0.19925675 0.1488675 -0.08914364 0.12108439 -0.4413446 0.14829452 -0.10650934 -0.123514414 -0.114270985 0.074537806 0.27710956 -0.025442734 0.19628544 -0.23662242 0.06384633 0.046786986 -0.086159974 -0.23742221 0.0040511247 0.10905913 -0.014017968 -0.1508345 0.36443868 0.08267385 0.29748064 0.08414046 0.0011528265 -0.1708546 -0.02264913 -0.20998639 -0.042766463 0.3240309 -0.008944497 0.09507654 0.28989235 -0.08526369 0.0057838424 -0.094137825 0.1077696 -0.06296067 0.08331676 -0.1428291 0.2036071 -0.09959924 0.032322064 0.16183615 0.050587285 -0.27754346 -0.260303 -0.15968288 -0.03404587 0.035896588 0.021236919 0.08893094
文 0.059522886 -0.09649409 -0.12482818 0.1076909 0.19756556 -0.15162873 -0.16415028 0.1586405 -0.14531587 0.031487487 -0.009513003 -0.0114485845 -0.26464647 0.46525708 0.036478147 0.18024735 -0.1394562 0.20729913 0.3574991 0.09758923 -0.27639285 0.017133508 -0.02775848 0.05831518 -0.18404692 -0.040815 -0.11742144 0.19616754 -0.27501342 0.028226092 -0.061616648 -0.20610711 0.0975536 -0.013289664 0.14160812 -0.03153946 -0.24947739 -0.0106251165 0.046357103 -0.021515789 -0.04856353 -0.5530793 0.27009982 -0.1428582 -0.1334595 0.059842605 0.34482527 0.14680463 -0.31082842 -0.2602265 -0.306085 0.15257588 -0.30418912 0.094786495 0.06851488 0.050741684 -0.22980691 0.2090047 -0.18550003 0.19525792 -0.13365406 0.31113854 -0.058290727 -0.17121303 -0.1328654 -0.012988675 0.03301121 0.19626276 -0.11637486 0.051166076 -0.18080729 0.20202097 -0.07191247 0.08152537 0.15128969 -0.08717379 0.14120595 0.11848831 0.066834204 -0.044987064 0.3039042 0.14145559 0.097036175 -0.08459422 -0.032827906 -0.17447063 0.10645432 -0.026281461 0.19290607 0.20632777 0.024943385 -0.009594333 -0.12869623 -0.0596497 0.33091715 -0.108002916 0.3565001 -0.20557931 -0.019346345 0.07664019
政 0.34855586 -0.05606802 0.2400981 0.28605852 0.057905495 -0.053493124 0.1115257 -0.009557593 -0.23187345 -0.24575372 -0.12201947 -0.07097685 0.2759957 -0.16543768 0.093068175 0.06607955 0.13247897 -0.051901847 0.2109802 0.11858127 0.071731135 -0.18875723 -0.15702954 -0.12237407 0.07817233 0.0946385 0.028662309 0.12795617 0.10230429 0.12991026 -0.22799245 -0.006528112 -0.06311695 -0.075507075 -0.2667661 0.13814852 0.08219908 -0.09814136 0.2987018 0.06906668 0.09367223 -0.52155024 -0.00037904154 -0.20906983 -0.03685459 0.049438506 0.006942888 0.08375395 -0.087979764 -0.049661115 -0.27873445 -0.23288894 -0.15625946 -0.0093086725 0.17338742 0.29324728 0.17915387 -0.1313642 0.15095375 -0.22666855 0.16144274 -0.025455598 -0.02888425 0.220126 -0.20917769 -0.029603977 -0.089306556 -0.34992763 0.12793885 0.05231514 -0.14381199 0.07314386 0.17162807 0.08884061 -0.003002897 0.24520333 -0.0853306 0.0855064 -0.17591992 -0.12797466 -0.112276606 0.24373828 -0.118848756 -0.32137236 0.04291855 0.08046966 0.033616394 -0.028342746 -0.09985718 0.15194748 0.2192425 -0.039936353 -0.010358244 -0.05423199 -0.26484886 -0.105964586 0.19069198 -0.13598676 -0.17051893 -0.043223005
食 0.0016871961 0.018906916 0.19672355 -0.24044299 -0.19445492 0.00056548615 0.103262 0.2695653 0.13082331 0.21443516 0.2880794 0.06882505 -0.06962535 0.061823253 -0.034046154 0.11487063 -0.0982229 0.18144405 0.22554703 -0.20915872 -0.271147 0.23051973 -0.003938129 0.23260002 0.043735184 -0.28591526 0.1853607 0.107672766 0.07107646 0.05832762 0.10189169 0.0131218415 -0.21541682 -0.31339172 0.14990973 0.43419993 -0.23044087 -0.06066801 0.101704165 -0.07856275 0.037406225 -0.40578622 0.15020159 -0.16303962 0.1597993 0.123815574 -0.22828227 -0.046367593 0.08182894 -0.093929596 -0.5815784 0.03296652 0.19503829 0.24470435 0.21097809 -0.08149361 0.15834929 -0.06777541 0.012538368 -0.04076613 -0.13440622 0.22405683 0.1398193 0.09838862 0.07103514 -0.115519375 -0.062219568 0.14403109 0.048796225 0.12431707 0.07150235 -0.047558602 -0.1655538 -0.19267987 -0.097318485 -0.041797634 0.01935757 -0.16241047 -0.017845748 0.0043498916 -0.14740099 -0.2566447 0.37549365 -0.1800749 -0.271582 -0.22961245 0.32127103 0.13188526 0.15391243 0.1800481 -0.035571497 -0.21864308 -0.07900222 0.41506943 0.12954256 -0.058867846 0.09207011 0.11253525 -0.09117955 0.046470936
善 0.015927862 0.2488098 -0.20980488 -0.044032253 -0.32817176 -0.16259272 0.19655927 0.07094758 -0.04569662 0.26334685 -0.17081451 -0.056592483 -0.14753915 0.12823978 0.15903783 0.16987522 0.21177031 0.1329888 0.020773685 0.3275367 -0.14166437 -0.099640995 -0.04248357 -0.09660905 -0.21644337 -0.036622047 0.36528274 -0.02592206 -0.0037236782 0.20613356 0.0010361271 0.08614458 -0.060591992 -0.10255198 -0.05837936 -0.23647678 0.028923243 0.12261692 -0.22362095 -0.038861938 0.12753744 -0.28204072 -0.15349372 -0.13508813 -0.11360781 0.088711224 0.13433343 0.11552047 0.26230374 -0.09450953 -0.46647218 -0.047186416 0.06600177 0.009759861 0.25612837 0.087784916 0.0791653 -0.02719213 -0.1676693 0.0064024725 0.05031901 0.3937344 -0.056740075 0.1293789 -0.14916988 0.22263989 -0.19381022 -0.04980108 0.2344083 0.046162494 0.2429326 0.30220497 -0.002390193 -0.020101883 -0.053215593 -0.18158789 -0.124543615 -0.07700156 0.02597421 -0.092118196 -0.17599912 -0.057503447 0.38122055 -0.00017309375 -0.3304473 -0.039708413 -0.041169118 -0.013169663 0.27203083 0.0058797826 -0.14367266 0.049438834 -0.23815516 0.06065216 0.0030218605 -0.1300287 -0.046748303 0.10135291 -0.040291525 0.059262704
后 0.1057146 -0.26804888 0.11123665 -0.12023755 -0.006813272 0.21557593 0.19230142 -0.025610248 -0.16309847 0.0647696 0.28294006 0.09583269 0.022173034 -0.08185554 0.034093615 -0.07562744 -0.020513698 0.025134444 0.10544631 -0.068776354 0.055767104 0.050482325 -0.22246622 0.03861995 0.44229814 -0.107246146 0.23767856 0.11233315 -0.14190449 -0.17935081 -0.1413526 0.16483247 -0.041742906 -0.016491996 -0.0481993 -0.29898444 -0.10963816 0.096698545 -0.0061184694 0.27156487 0.008933967 -0.21517244 0.005889445 -0.13824072 0.49062634 0.0070512574 -0.026194468 0.23548807 0.0071038115 -0.06809287 -0.46802416 0.07721591 0.11699441 -0.13617241 0.24040753 0.030006249 0.16048606 0.051531073 -0.017364413 0.028395483 0.23580483 -0.06305475 -0.003756402 0.26187924 0.21013652 0.12642041 -0.13130312 -0.21220298 0.076735005 -0.018081728 0.15066844 -0.0060006008 -0.057993405 -0.16704185 -0.0066498313 -0.3197514 -0.20840424 -0.10927408 -0.20025116 0.03512185 -0.18214703 0.035708662 -0.110365845 -0.04616595 -0.04325603 -0.05188697 -0.37135485 -0.017890928 -0.012486253 -0.11942736 -0.11652896 -0.094982035 0.030822981 0.073339276 0.060996287 0.34576178 -0.0048177736 0.012748208 0.08037029 0.292537
德 0.22823142 -0.029051797 0.064188235 -0.004945054 0.17185001 -0.005205948 -0.095813036 9.3361916e-05 0.056076158 -0.03548394 -0.13677056 0.15732943 0.0005087496 0.11545576 -0.011054012 0.21998516 0.29723316 -0.1831017 -0.0027607833 -0.024816342 0.37262416 -0.458217 0.0035268534 -0.21384288 0.09614401 -0.090496436 0.058694 0.19823666 -0.018329043 0.17447527 0.07839856 -0.19315448 -0.078485295 0.058483243 0.041249014 -0.38282666 0.070206605 -0.031643026 -0.01854743 0.013668202 -0.03290701 -0.43906897 -0.025704257 -0.024374694 -0.089693636 0.27191186 -0.056907747 -0.014566615 -0.14941381 0.17889464 -0.3729037 0.100035295 0.055843044 -0.1416866 0.19373536 -0.016728472 -0.12660092 -0.1758812 0.09512162 -0.2019658 -0.059506394 -0.08727785 0.24058384 0.1972765 0.22438723 0.16546716 0.13574313 0.31185806 0.068436906 0.101015896 0.2809042 -0.089912124 -0.15083373 0.28786984 0.19258237 0.1480991 0.42122936 -0.07465154 -0.06455464 0.03595561 -0.09074093 0.24619222 -0.069977105 0.29726514 0.2944506 -0.33913478 0.13621189 0.09222244 -0.00955802 0.25701883 -0.16231863 0.10540559 0.16357067 -0.13153057 0.05856596 0.12814595 -0.059202086 0.13479649 -0.058189306 -0.20173231
求 0.12876171 0.08141335 0.10275224 -0.23495764 0.15191165 0.16693296 0.11552346 0.041898653 -0.26880962 -0.30465615 -0.050600007 -0.13731986 -0.020082634 0.12829761 -0.3370155 -0.21236269 0.12953879 0.14153051 0.10414385 -0.27992025 0.05901583 0.15239596 -0.1608264 -0.060363777 0.047713842 -0.29326567 0.24162905 0.35262716 0.24186169 0.057617944 0.08678647 0.33079907 0.12346573 0.062207453 -0.17318225 -0.11469811 -0.019521173 0.2112037 0.09609242 0.03363251 0.08808644 -0.5029 -0.12039674 -0.14316122 0.05779335 0.03418381 0.24838167 -0.06962345 -0.03890897 -0.08413645 -0.3216627 0.048908867 0.066999614 -0.0445671 -0.09786983 -0.026089499 -0.18464696 0.34627116 -0.020708809 0.21776114 0.041233867 0.11543432 0.40521225 -0.003848527 0.017015846 0.084723726 -0.15690331 -0.071805276 0.30339307 -0.06795481 0.01920314 -0.06615979 -0.21541394 -0.1006237 -0.016733598 0.23945287 0.13668807 0.103382446 0.13357529 0.24320179 0.25526565 0.13269198 0.14720204 -0.028512727 -0.2129455 0.026405834 -0.060540073 0.18335898 -0.15749724 0.21535589 -0.16318066 0.33466434 -0.03825678 0.017806998 -0.23141907 -0.113132454 -0.39458892 0.04118773 0.2857412 0.1185952
对 -0.1985069 -0.115408674 0.03251503 -0.2880118 0.12032068 0.18755016 -0.2974226 -0.075264946 0.2735029 0.08276926 -0.035849914 0.17450492 -0.1717037 -0.09504226 -0.013434809 -0.09808861 -0.021409197 -0.118285604 -0.0102892555 0.2285787 -0.19052933 -0.17657623 0.037711844 0.29184943 -0.21576887 -0.074693955 0.17572652 -0.07787862 -0.20275751 0.25302777 -0.14487626 0.12696987 0.28841558 0.18913603 -0.22236183 0.3046349 0.21350333 -0.05663375 0.16103251 -0.05420269 -0.087074906 -0.9558495 0.08466316 0.06493113 0.29900482 0.00822267 -0.22412974 -0.15497324 -0.015453845 0.09167316 0.098229475 0.032771196 0.14762484 0.08212653 0.15318026 -0.08972606 -0.057128888 0.41191396 -0.06361531 -0.18704778 -0.25541863 -0.044062354 0.048634488 -0.026421258 -0.045562293 -0.095526434 0.15184435 0.19602478 -0.06718404 0.21893838 -0.02269505 -0.19619867 0.14596166 -0.09534213 0.018140357 0.09297934 0.058575854 -0.0437935 -0.30609953 -0.004556666 0.005370941 -0.047547 0.23450825 0.14117001 -0.10808984 0.102532774 0.004426361 -0.061314706 -0.017460901 0.06506659 0.1183571 0.07889372 0.27937952 0.07487371 -0.05347483 -0.29693425 -0.034623567 -0.0011321232 -0.16868742 0.0062439293
恶 -0.011765908 -0.11226726 -0.104041584 -0.27770883 -0.039715044 0.016968884 -0.29283357 0.10483747 -0.047476746 -0.2177651 -0.2459765 0.12501666 0.07496893 0.020968344 -0.11319004 -0.053330928 -0.08020228 0.12121632 -0.23537062 0.24908604 0.19445495 -0.28844553 -0.24662888 0.16920811 0.23331438 0.14250198 0.17916836 -0.117614836 0.10576044 -0.21268 -0.024084162 -0.19926055 0.13095132 -0.17975712 -0.09039944 -0.14305875 0.08185015 0.0118456185 -0.18988945 -0.11065933 0.115031704 -0.21756053 -0.10789627 -0.037497144 -0.07756715 -0.40344405 0.11368336 -0.010665654 0.07878475 0.24794346 -0.6278022 0.10862304 0.28270116 -0.19500585 -0.06751266 0.025661731 -0.37754115 0.049739078 0.11673533 0.089156725 0.06911273 0.009274895 0.089073636 0.08819181 -0.043266114 -0.07921212 0.088850506 0.20257598 0.2299678 -0.1893039 0.059818048 0.33461893 0.17511252 -0.21296728 0.13619813 -0.16949692 0.24223624 -0.12286381 -0.20645644 0.078504585 0.0017602444 0.0034415694 -0.028379897 0.109821506 0.23978202 -0.11247195 -0.0020348188 -0.06839475 -0.15453245 0.011002382 -0.078026794 -0.014482556 0.12210803 -0.037630316 -0.06067673 -0.093970716 0.008574458 0.018874474 -0.026014116 -0.1003279
信 -0.031803988 -0.1689252 0.036192697 -0.044240184 0.07705643 -0.11105444 0.015779376 -0.1395839 0.17221558 0.3355592 0.13085973 0.15086512 -0.20478174 -0.12101193 -0.03471065 0.0683467 -0.22790964 -0.020724958 -0.024805035 0.24711318 -0.18213598 -0.27319553 0.059886448 -0.020981237 -0.011399636 0.18332945 0.056672502 0.05670224 -0.02897508 0.08497207 -0.23058578 0.031222485 0.07421575 0.03741758 -0.10750144 -0.07860663 -0.014487023 -0.22425565 -0.02750938 -0.057036936 -0.01352603 -0.22528626 0.027565602 -0.20420885 0.027988894 0.34180978 0.21709481 -0.07976208 0.16163725 0.07821858 -0.6826856 0.01537041 0.16221854 -0.030819496 0.014061384 -0.038338833 -0.0642232 0.1046864 0.05579159 -0.35477522 -0.13323969 0.22883555 0.17108057 0.20623192 -0.008532722 -0.09365033 -0.11835465 -0.084154546 0.06951092 -0.038159613 0.17828749 -0.17910527 0.11899544 0.5660288 -0.25005466 -0.08979494 0.09799286 -0.0640191 -0.03641175 -0.1091334 0.16829832 -0.07240602 0.1734217 0.106495924 0.38758153 -0.25792587 -0.04877966 -0.12927504 -0.07493852 0.0057520242 -0.09039032 -0.098392546 -0.1154888 0.2227373 -0.21460955 0.1198586 -0.002646734 0.11581273 0.07052976 -0.07136944
死 -0.0062543857 0.061780877 -0.08350194 0.016921684 -0.26340044 0.13064146 0.17547281 -0.37985572 0.08347819 0.03386104 0.06856094 0.089569114 -0.15710261 0.26678067 0.07417788 -0.21127154 0.23300499 -0.025911728 0.30634844 0.1483918 0.09267476 0.12435185 0.1783415 0.1495841 -0.083823785 0.17262775 0.24876106 -0.24326509 -0.14138456 -0.043731753 -0.06179163 -0.27989906 -0.28109348 0.103874214 0.08791037 -0.20329332 -0.07188219 -0.086406454 -0.18661943 -0.14554046 -0.034055933 -0.34451577 -0.09271935 0.056703657 0.31894025 0.09898676 -0.2981724 -0.15198168 -0.011895522 -0.10466681 -0.48768473 -0.051948838 0.069289155 0.059487276 -0.059011776 0.003858801 -0.12562828 -0.08380698 -0.19787244 -0.05047082 0.17938633 -0.23633245 -0.13886315 -0.22001545 -0.13558754 0.049076684 -0.06322828 -0.045710143 -0.011575764 0.1700755 -0.28023484 0.026017949 -0.2388307 -0.07734401 0.021480532 0.22458279 -0.23968223 -0.2228239 0.045293532 -0.30005142 0.004930539 0.14843133 -0.45121658 0.17529911 0.043136798 -0.17363127 0.11708842 -0.0907646 -0.11687588 0.094532974 0.047958456 -0.2343385 -0.18611355 0.048133977 0.064187095 -0.16668811 -0.106912136 -0.015864262 -0.03446457 0.34759203
然 -0.16796616 -0.26489842 0.063324705 0.1562066 -0.12673746 0.11941414 0.048759032 0.0825467 -0.15207133 0.11633322 0.06379442 -0.07661669 -0.0825672 -0.2021574 -0.101459585 0.33563736 0.25773782 0.073933385 -0.22322951 0.22318602 0.11770231 -0.020600442 -0.028277244 -0.2302644 0.05096612 -0.046763785 0.19203943 0.26198706 -0.036876988 0.20740768 -0.015169214 -0.06599035 0.008600254 -0.04035994 0.017574117 -0.13131382 -0.16701727 -0.31376335 0.18002275 0.23380935 0.25597245 -0.5868012 0.12689935 -0.06182552 0.30747744 0.01546824 -0.2209929 -0.12889506 0.070349805 -0.10881014 -0.28493115 0.33718 0.26071644 -0.0022115107 0.004319374 0.06349008 -0.003937426 0.038416374 -0.014729836 -0.06650835 0.14606541 -0.04006438 -0.10563514 0.15680084 0.293224 -0.20702684 0.20874235 -0.39318392 0.13151959 0.1956368 0.11436211 0.047590345 -0.23424652 -0.12446103 -0.15123115 -0.13022673 0.039066907 -0.18544172 0.08651309 -0.016476518 -0.030521413 0.012706184 0.024883451 -0.16458529 -0.1778505 0.18618502 0.013682861 -0.15982796 -0.18491672 0.04358193 0.0302532 -0.3476856 0.036869492 0.23243509 -0.009919352 -0.03837166 -0.23072405 -0.16191559 0.20522928 -0.072739586
