1352 100
， -0.03657002 0.060178593 -0.23070182 -0.043674935 -0.02933355 -0.071970105 0.030334208 -0.13746107 0.2646725 0.025750514 -0.23870686 -0.11676037 0.11434668 0.019775225 -0.26356527 -0.26814607 -0.11882321 0.41776013 0.040261522 -0.04331349 -0.07600693 0.08486232 -0.039404206 -0.19561093 0.14271435 0.045058597 0.019658605 0.11531858 -0.29016325 0.10493116 -0.13408805 -0.16502112 -0.028015804 0.39365792 0.084240206 -0.32077497 0.011993242 -0.082252495 0.35141262 0.14409366 0.03469289 -0.30856144 -0.15620066 -0.279772 0.048411176 -0.32336155 -0.2319781 0.10558753 -0.10084142 0.00023971347 0.03291043 -0.15767014 -0.15538436 -0.04998426 0.1165516 -0.013162035 -0.09414622 0.04490065 0.18734077 -0.0802987 -0.1366167 0.08852681 -0.23325512 0.032666672 -0.5132312 -0.19164336 -0.22904348 0.04790999 -0.0029369602 -0.033992194 0.081229985 0.0929827 0.010222843 0.22928345 0.24133961 0.089911565 -0.05893658 0.016461587 0.22067301 -0.15398023 0.2569604 0.21461958 0.111868046 -0.24280782 -0.047628496 -0.273648 0.5882694 0.34093067 -0.13953213 0.041788816 0.0433271 0.042615406 -0.21233454 -0.020547811 -0.080679886 0.035412896 -0.1856049 0.008196233 -0.040694505 -0.10172683
子 0.017020479 -0.3216934 -0.08226792 0.060481034 -0.030982787 0.07654215 -0.03703938 -0.17684865 0.13160479 0.19950083 -0.31237903 0.254929 0.20749384 0.10017158 -0.066884436 0.14971773 -0.027253522 0.020799018 -0.241163 -0.35174075 0.008998574 -0.09645902 -0.17283314 0.13440095 0.04470136 0.09141491 -0.16963886 -0.1774148 -0.14115079 0.13403301 0.0496312 -0.071125336 -0.016571913 0.07822041 -0.10190276 0.16811934 0.019677298 -0.19328967 0.23090693 0.098721124 0.28603587 0.14349538 0.03353324 0.13609032 -0.03481517 -0.10433598 -0.09588948 -0.048379425 -0.16161875 -0.06465811 0.057049543 -0.021841826 0.1549971 -0.14734474 0.12628989 0.06458508 0.021327978 0.19036269 0.08704571 0.2026783 0.0026434644 0.17159072 -0.057069357 0.3574589 0.2785367 -0.08211456 0.098056 -0.00094494503 0.20101258 0.02677625 -0.14400887 0.04635143 0.01971877 0.0652217 0.1826901 -0.1409374 -0.05157326 -0.2397903 0.014870776 0.010860658 -0.08281084 0.13321649 0.27409792 0.29294035 0.16735964 -0.006837872 0.7851873 0.20639233 0.004652777 -0.12722854 0.06656627 0.1601338 -0.22869548 0.18626398 0.080176815 -0.054339048 0.120512515 0.0442864 -0.00048796204 0.008173475
。 0.10444126 -0.24837202 0.042375326 -0.071301065 -0.061505273 0.24573758 0.07504064 0.027374905 -0.12488301 0.12950298 -0.21609087 -0.13776992 0.4125539 -0.047040474 0.12319353 -0.35173318 -0.061753456 -0.022214731 0.09802475 -0.35985884 0.18021356 -0.0692959 -0.23533049 -0.11738946 -0.1406928 2.7725939e-05 -0.1385386 0.03328024 0.009076868 0.06764377 -0.16750334 -0.008112625 0.012227152 -0.06873475 -0.25034097 -0.022143343 0.17441112 -0.11593289 -0.116646186 -0.43803775 0.31720454 0.11744844 0.025380332 -0.21224226 -0.03672396 -0.11659194 -0.055677317 0.057847172 0.11797288 -0.08688099 -0.16161084 -0.05234829 -0.20840599 -0.27879977 -0.21182568 -0.22656414 -0.09606826 0.09084845 0.24227406 0.12410388 0.10278629 0.10154927 0.0033910712 0.2090676 -0.12995285 0.14952523 -0.2584982 -0.2729082 -0.04432393 0.2483782 -0.017133296 0.14769296 0.13178934 -0.12937203 0.04732777 0.24046361 -0.13921152 0.15602992 0.12223274 -0.18151481 0.12699232 0.39315072 -0.08341891 0.087794535 -0.018418238 -0.2933232 0.6798139 -0.129386 0.17901424 -0.11308981 0.0054884125 -0.5176794 -0.24688098 -0.016623832 0.13109781 0.026150158 0.120457575 0.064710476 -0.07856518 -0.00683055
： 0.06358258 -0.041150488 -0.19226074 -0.25101882 -0.15805236 -0.13899001 0.119401224 -0.24022508 -0.07486445 0.21746953 -0.3444894 0.28464195 0.14659278 -0.11501514 -0.09942782 0.21381658 -0.15387909 -0.07132085 -0.061397247 -0.051526096 -0.1525295 -0.13544196 -0.31337124 -0.080203526 0.05445879 -0.39200938 -0.15878144 -0.006519106 0.03446044 0.12973084 -0.017621268 -0.06012565 0.08584517 0.107630156 0.08660893 0.16240075 0.18644603 0.22821802 0.05589626 -0.22274375 0.19446275 -0.06705745 0.08195236 0.16346204 0.15114158 -0.17199126 0.27678123 0.28829718 0.2280978 -0.08969607 -0.09651805 0.106325686 0.05800091 -0.069695644 -0.15070471 -0.06786084 -0.18656224 -0.06182354 -0.0616453 0.09712641 -0.0050266366 -0.11849511 -0.007518337 0.07966445 0.22434045 -0.033674292 -0.04348077 0.12382109 -0.06508282 0.027177144 0.08666779 -0.038931187 -0.2031866 0.069586836 -0.0101695545 -0.105491176 -0.25242344 -0.1130708 -0.048280105 0.04541433 0.15032855 0.12211169 0.019872608 -0.004009757 0.078669064 -0.18291283 0.84873694 -0.0061950926 -0.090552926 -0.16810225 0.01104609 -0.0981029 0.15159465 -0.0366861 -0.01705216 -0.17856817 -0.059453964 -0.23652858 -0.27918813 -0.00042955764
曰 -0.039633214 -0.218122 -0.18912777 0.15071823 0.04696625 0.0022008624 -0.08556708 -0.2632971 -0.21718872 -0.0121900365 -0.057825413 0.14787717 0.19720568 -0.099470384 -0.1837992 0.02546762 -0.14020193 -0.011379069 0.14340694 -0.107468374 -0.17420211 -0.14620024 -0.31383097 0.11165617 -0.012757939 -0.17303467 0.03758171 0.13726775 0.008297479 -0.11816306 -0.07729228 -0.21433029 0.14420244 0.072699316 0.012401712 -0.007939853 0.2011766 0.17858304 -0.22753742 -0.3776816 0.028926391 -0.12577932 -0.0116151795 -0.015190385 0.10923337 -0.18772286 0.13451523 0.22160596 0.12336832 -0.11903547 0.052990347 0.054616768 -0.12780006 -0.18433899 -0.057457346 -0.06935412 -0.04989364 -0.2022795 -0.0053412993 0.10869755 0.11319088 0.00024385843 0.19199927 0.0864982 0.44464928 0.027057253 0.042369388 0.2734658 -0.28544873 0.14623353 0.44191748 -0.13848971 -0.0809667 0.10187704 0.23098907 -0.24150579 -0.19813232 0.016016992 0.08675422 -0.010548324 -0.11758304 -0.026488982 0.15135397 -0.00283792 0.17343415 -0.16081241 0.8641907 -0.012839312 -0.07169366 0.082654 0.15275663 0.026937105 0.06469776 0.1550554 0.11603148 -0.2599014 0.11380239 -0.27644253 0.012763862 0.018268768
之 0.16012412 -0.085094936 -0.11836802 -0.20598193 -0.10991077 0.09232121 -0.08325856 -0.32841304 0.08247133 -0.120703995 0.26441276 -0.0020061075 0.19501056 0.2135821 0.23340473 -0.12431048 -0.18402804 0.044797063 0.10198383 -0.008883668 0.23481755 0.12744208 -0.04923515 -0.04822012 -0.20335816 0.044177067 0.018218946 -0.24015146 -0.11472691 -0.09626627 0.20041254 0.0059575755 -0.12644236 0.37401995 0.23003878 0.0036640035 0.37630075 -0.027791712 0.038628526 -0.0702198 -0.06094276 0.06315399 -0.2793238 -0.017721634 0.23027547 -0.15190202 0.13006938 0.17434655 0.06401112 0.0044362633 -0.29100055 0.21441384 -0.11236404 -0.20152941 -0.12398434 -0.3262158 -0.0071756737 0.12335304 -0.22336511 -0.3733498 -0.081451856 0.048758615 -0.32285914 0.5117479 -0.27438557 0.114128314 -0.22454648 0.028778154 -0.09591154 0.1247039 -0.0044243564 -0.11739243 0.109554686 0.12999399 0.07931382 -0.105394125 -0.148425 -0.18862313 0.046616983 0.04524147 0.2552244 0.3139633 -0.105651475 0.25741503 0.18766207 -0.020324038 0.5311305 -0.0143069755 -0.11258668 -0.23755087 0.013221337 -0.18047239 -0.15299784 -0.080643505 -0.13324179 0.09524162 -0.021559112 0.06948903 -0.14079057 -0.18442228
不 -7.536239e-05 0.13559285 -0.08513777 -0.29712301 -0.28508824 0.21521582 -0.023895394 -0.2711732 0.32225233 0.09799675 -0.44146055 0.097657636 0.069066554 -0.2713561 0.02364321 0.05844173 0.110115975 -0.08029545 -0.20779432 0.010589287 -0.059870593 -0.056857456 -0.07034916 -0.0027346974 -0.24811468 0.45684373 0.07510164 -0.012727398 -0.32350945 0.06699869 0.016596498 0.08725732 -0.13126591 0.063950695 -0.11760469 -0.23227221 -0.0026733405 0.00071503036 0.0007342313 -0.17003296 0.04039805 0.07276061 0.011071653 0.0052829836 -0.10298474 -0.18380512 0.25547183 -0.007261305 0.21113825 0.15511636 -0.25839567 0.21902704 0.16172096 -0.21715179 -0.27375066 -0.13993692 0.3334807 -0.06983643 0.16668981 0.27229673 -0.19592378 0.0600582 -0.21910627 0.5338527 -0.32955003 0.034917615 0.032868464 0.12498095 0.14857538 -0.11581469 0.20169209 0.05820483 0.07622459 -0.24663588 0.14502794 -0.061620556 -0.37707102 0.042116262 0.27449754 0.18767387 0.50255364 -0.09025241 -0.03843694 0.05191478 -0.044709336 -0.121230096 0.71590346 0.06952072 0.013788743 0.010361935 0.0042307507 -0.028465355 -0.16623165 0.19276202 -0.13258 -0.11974646 0.22104229 -0.18643078 0.072197825 0.1944412
也 -0.045932777 -0.18248805 0.048203543 -0.008810052 -0.07320458 0.437943 -0.016003838 -0.1804781 0.022822525 0.093929686 -0.056109805 -0.11761743 0.06697851 -0.22446787 0.007478581 -0.24339648 -0.18093912 -0.13427293 -0.014179815 -0.24960828 0.12341219 0.10367582 0.13887472 -0.14967617 0.29580024 -0.010817623 0.20271648 -0.15080248 -0.011169878 0.02033368 0.07796154 -0.03425351 -0.105024956 -0.1425716 0.1128923 0.033731688 0.12236026 -0.088464476 -0.07180097 0.0007247024 -0.2947632 0.026097048 0.075457916 -0.086628616 0.11062283 -0.10912837 0.0001126416 -0.002717379 0.038454544 0.02729879 -0.22562502 0.30411687 -0.18269223 -0.1649263 -0.022738794 0.024462897 0.08612658 0.058509152 -0.31715783 0.17060292 0.011107283 -0.053415917 -0.024231402 0.059165042 -0.14791209 0.45639628 -0.1782545 0.13866256 0.053736497 -0.018463839 0.1264433 0.27272156 -0.27109197 0.20265023 -0.102963515 -0.04574933 -0.28974107 0.05068975 -0.08267292 0.008052386 0.028908312 0.04294848 -0.0026969884 0.033374872 -0.064220905 -0.03570298 0.70482963 -0.021880075 0.15084808 -0.11807249 0.00445152 0.062963314 -0.15155874 -0.015926456 0.099850535 -0.14225562 0.09511477 -0.13754049 0.078137636 -0.10147095
而 -0.15614271 0.10090439 -0.05024119 -0.15271506 -0.3848183 -0.09696294 0.15112466 -0.03498643 0.104564324 -0.07472772 -0.21722105 -0.10552989 0.3120952 0.061409947 -0.078751445 0.034748707 -0.20451951 -0.23339799 0.034092586 -0.3132488 0.11757355 -0.24737956 0.0062525785 0.20619665 -0.24812967 0.14005046 -0.012165867 -0.11199459 -0.18972911 -0.18901467 0.027391862 0.20294206 0.0074676974 0.060251456 0.42610398 -0.3112424 0.23085967 0.2160252 0.11760709 -0.29574522 0.15915366 0.19258842 0.07228803 0.060752064 -0.04098305 -0.10549808 0.0829032 0.22977418 0.09913879 0.11969591 0.2591013 0.2816657 -0.039691918 -0.12536296 0.04154081 0.16320315 0.0032054838 -0.09922301 0.0013390915 -0.019401237 0.0055878023 -0.09836796 -0.15396172 0.09397802 -0.18501692 0.09779396 -0.019521277 -0.07501535 -0.050337 0.107786395 0.21002662 0.26124468 0.17498058 -0.3907114 -0.016660675 -0.025406254 0.1766348 0.07064157 -0.3866044 0.122969374 0.24614587 -0.051519603 0.2465314 -0.007540888 -0.0064752577 -0.018062886 0.75977516 0.11877072 0.07545969 -0.24636386 -0.024862891 0.48099604 -0.34538668 0.104143776 0.16925462 -0.1207842 0.32778597 0.030404096 0.07150361 -0.26097378
？ 0.057816222 0.043467067 0.09030377 -0.16019769 -0.0036685814 -0.14308935 0.35377234 0.03593748 0.35295126 0.090250686 -0.16133238 -0.015022148 0.30281413 -0.052843776 -0.014844925 0.0041501257 -0.21685039 -0.21625577 -0.1184377 0.13045892 -0.0876677 0.123407006 -0.15848412 0.04834551 -0.23724307 0.1801481 -0.18243928 0.012379485 -0.29335254 -0.26271802 -0.12287207 0.06326695 0.20286445 0.019492915 0.042566113 -0.03612814 0.12483416 0.097740285 0.30998766 -0.22527307 0.0045415303 -0.20430557 0.123169914 0.17397335 0.10927927 -0.30464774 0.16783312 0.12824218 0.0067980383 -0.04456862 -0.04886919 0.13728692 -0.18782157 -0.3513853 -0.15628205 -0.07381588 -0.17287648 -0.09324753 -0.012550402 0.17911322 -0.014402617 -0.22343016 0.013935816 0.08868602 0.07046456 -0.07499449 -0.081411056 0.21942504 -0.11862152 0.059701547 -0.015691914 0.070306 0.10265217 -0.30162433 0.22926833 -0.048892558 0.025500067 0.09446818 0.12301671 0.025063429 0.15006946 -0.09482992 -0.13425359 0.08275218 0.051890608 0.13025932 0.71852463 0.06852185 -0.114247024 0.17951068 0.10161494 0.016854495 -0.102205 0.21357904 0.15558214 0.00479889 -0.03530364 -0.061378743 0.26269644 -0.065012656
其 -0.3321422 -0.10127624 -0.17682835 -0.11255207 -0.18688697 0.059234865 -0.0039023818 -0.123786986 -0.006854016 0.15979521 0.14150803 -0.13076401 0.25806248 -0.09804557 0.15833037 -0.20924452 -0.3111641 0.09235409 0.008553194 -0.035191193 -0.07276487 -0.26335365 0.0804448 0.1103354 -0.150269 0.11223017 -0.000426359 -0.2050054 0.13766846 0.09373759 -0.28148016 -0.101886906 -0.11480516 0.03603937 0.1329825 0.11130363 0.006246911 0.0129980715 -0.03373337 0.08279179 -0.0005734656 0.23221627 -0.037630662 -0.07494411 -0.08067241 0.0145936785 0.0051309145 0.1286746 -0.08727096 0.06970297 0.15476513 0.099993765 -0.20314616 -0.27211317 0.21121635 0.04880048 0.29733822 -0.030388664 0.13149916 -0.17567341 -0.06939083 0.01014293 -0.04775898 0.14414836 -0.3251061 0.30890438 -0.20675856 -0.05646068 0.094367124 -0.03336266 0.10543086 -0.089909986 -0.013901796 -0.25406918 0.19069773 -0.165252 -0.07679651 0.018281437 -0.10673679 -0.08428967 0.11744036 0.17563432 -0.12411679 0.14250375 -0.051780958 0.17115468 0.575539 0.3542268 -0.03204244 0.3917431 -0.009662697 0.17927073 -0.35806972 -0.063495405 0.390302 -0.10807056 0.0063993866 0.23241346 -0.036702495 0.17719364
人 -0.10243021 0.112970866 -0.01304023 -0.11927906 0.11075115 0.3033377 -0.01624612 -0.0922664 0.23298903 0.15335043 0.06614179 -0.09887814 0.2972643 -0.104081675 0.029671973 -0.03712979 -0.057838492 -0.38600203 0.031875078 -0.0012051612 0.009540518 -0.04237631 0.010459884 -0.045515373 0.13278873 -0.013864873 -0.21492986 -0.19475767 0.20567377 0.33728915 -0.29080385 0.08386107 0.011309651 0.18321884 0.2072196 0.16624403 0.00974634 0.047798537 0.20042232 0.10095709 0.17205223 -0.028717201 0.18100882 -0.20635389 0.011950329 -0.07810785 -0.12909955 0.08908772 0.06296316 0.09564111 0.09339421 0.19040123 0.09784639 -0.42495888 -0.015111204 -0.06439644 0.18966873 -0.25456095 0.18709512 -0.027209442 0.018253248 -0.15050702 -0.11416828 -0.22979821 -0.06818679 0.1204471 -0.03585224 0.0743906 -0.05927307 0.3318663 -0.03620204 0.17586446 -0.019190453 -0.2849154 0.013552486 -0.23565823 0.0016142854 -0.0755829 0.09954676 0.08839874 0.13824962 0.26755413 0.16040955 0.14070605 -0.11800678 0.075352795 0.47881722 -0.1953711 -0.004692683 0.0041409004 0.26347968 -0.123970255 -0.33465227 -0.24365672 0.107430905 -0.10846415 0.0810137 0.06911899 0.11591545 0.32182816
者 0.09195014 0.14404084 -0.37879792 -0.071518704 -0.10995554 -0.026899278 0.052609198 0.1604456 0.11950747 0.11097293 -0.027239474 0.02602505 0.047634616 0.17957403 -0.04616955 -0.21001294 -0.08408466 0.037460756 0.13320872 0.2598987 -0.010006203 0.17653802 0.18412162 -0.2603912 0.16777007 -0.036457393 -0.05625987 -0.089597 0.05246114 0.1287698 0.13257203 0.2765904 -0.09604525 0.26388395 0.419043 0.051973302 -0.04466805 0.17834112 0.26159692 -0.15531039 0.011944318 0.25830877 -0.079501286 -0.1601702 0.10489449 0.10793328 0.071369536 0.13605468 -0.19883925 -0.00075290515 -0.3871063 -0.024783757 -0.06894692 -0.089811355 0.070899606 0.36597112 0.0693808 0.058563158 0.19223446 0.2213927 -0.20370786 -0.03958463 -0.058592983 -0.20183255 -0.23477481 0.17796041 0.027304297 0.04268307 -0.03192153 -0.03265321 8.873727e-05 0.23416671 0.08978085 -0.033450633 0.15731077 -0.022493893 0.07314622 0.062286705 -0.18039219 0.15285544 0.10286048 -0.114030756 -0.118884884 0.08827812 0.33988735 -0.019614182 0.65574604 0.01641986 -0.1076789 -0.019387273 -0.14601897 -0.09299419 -0.0564875 -0.33498994 0.27472737 -0.18684766 -0.23904873 -0.28869647 0.031281568 0.14577581
以 0.029673949 -0.14015333 0.17880581 -0.03399015 -0.22131287 0.03196284 0.19144972 -0.08062616 -0.16149679 0.13210963 -0.18807584 0.03283579 0.05001121 0.2431335 0.06613735 -0.06092932 -0.011265538 0.16476528 0.33689204 -0.0074998373 -0.25798076 -0.080624685 -0.11989607 0.22446537 -0.04046083 -0.21423814 -0.19608043 -0.14197749 0.06156626 -0.16559902 0.14509983 -0.36649725 -0.11140189 0.22057754 -0.35592106 0.06304181 0.08317704 -0.0493767 0.33936998 -0.20755894 0.29759604 -0.033611327 -0.09365563 -0.03439807 -0.16041605 -0.024544619 -0.25437826 -0.17959474 0.11473486 0.4089216 0.014403975 0.06604171 -0.12674907 0.2256043 -0.12985583 0.081856795 -0.04261854 -0.15707815 -0.1778295 0.2751925 0.032088928 0.034343828 -0.0810152 -0.010258279 -0.30640566 0.11815395 0.08109325 0.1652052 -0.1243147 0.1255618 -0.09495183 0.14192316 0.2982493 -0.17948547 -0.34147197 -0.23149155 -0.12784803 0.026405672 -0.14202043 0.07428016 0.11485938 -0.22456998 -0.023469096 0.05365952 -0.22383349 0.035201415 0.68659127 0.10012985 -0.10512136 0.27842882 -0.07515219 -0.024718793 -0.14350004 -0.21558693 -0.1536445 -0.29009247 -0.15778992 0.22513865 -0.06522645 0.31113043
有 0.0598785 -0.30523396 -0.46225274 -0.20849004 -0.06500812 -0.030265387 -0.055671554 0.4523616 -0.19186403 0.21507625 0.022225557 -0.14856124 -0.069214 0.08822979 -0.049858954 -0.18306077 0.36565354 0.0006291983 0.028494166 0.24282202 -0.05255816 0.0823862 -0.10448813 -0.089320384 -0.06157063 -0.1986891 0.045161985 -0.21284865 -0.07749704 0.11732822 0.08989764 0.17138089 0.12498663 0.038234293 -0.08500641 -0.3563662 0.2746222 0.08824966 -0.06324669 -0.015520278 0.11925725 0.014398344 -0.1018554 -0.12835923 0.37507346 -0.31011587 -0.059931017 -0.0020265807 0.2431012 -0.033817485 -0.33824357 0.059460584 -0.25794083 -0.24285848 0.21031152 -0.0055282554 0.27625677 0.089827545 0.1323408 -0.009546567 -0.09676845 -0.003980464 -0.082372144 -0.16237499 0.05706573 0.046628837 -0.059186485 -0.05925259 0.0058977352 -0.14421748 0.1035123 -0.05602728 0.18428673 -0.29570666 0.18390869 -0.18632217 0.10616841 0.009589389 0.09772883 -0.16799292 0.09654656 0.122910835 -0.068887144 -0.02059654 0.1367029 -0.18292315 0.63144666 -0.059420805 0.08734581 0.13036007 0.15370786 -0.24991561 -0.09189975 -0.35929066 -0.0139929345 0.07374329 -0.1828374 0.0061635184 -0.16205116 0.08154173
于 -0.07791754 -0.084937654 0.032518502 0.007671125 0.16361256 0.15922554 0.06637554 0.09954929 -0.017136939 0.14665325 0.11428165 -0.15698618 -0.0039269426 -0.08082991 0.12116857 -0.05671156 -0.067243725 0.035137143 0.08739044 -0.06499349 0.0046808957 -0.071315855 -0.062973306 -0.48589846 -0.38365883 0.03666694 -0.17346191 0.03591334 -0.047060974 0.036276363 -0.18477741 -0.27726987 0.42269838 0.022008765 -0.18196093 0.24354503 0.063924216 -0.1176795 -0.18874288 -0.03852156 -0.2786396 0.066954926 -0.07408625 0.41891626 -0.11803226 0.06522592 -0.10634926 0.36310914 0.3292523 -0.09381778 0.04648127 0.32360077 0.23528369 -0.16114359 0.014429532 0.29858452 0.07725352 0.2369775 -0.014150357 0.01680509 -0.2735427 -0.20725921 -0.22856894 0.24370657 0.048162837 0.15500936 -0.0464556 0.10978493 -0.10358105 0.045541003 -0.031851627 0.18996365 0.07723556 -0.3708926 0.17864427 0.11903981 -0.06075506 -0.0795992 0.063146874 0.21581197 -0.23980688 -0.1850361 -0.17472339 -0.17493726 0.10960923 -0.008281134 0.6863588 -0.10546042 0.06111832 -0.0398233 0.17382826 0.08263989 -0.04257627 0.018612644 0.046613842 -0.40615627 0.2895884 0.48097026 0.10807057 0.09699633
矣 -0.09114011 -0.19846562 0.3756006 0.11577215 -0.115995206 -0.07180141 -0.18300302 0.118301034 -0.018623453 0.08326944 -0.14913186 0.059292253 0.044287466 -0.051395457 0.2768786 -0.036355916 -0.12929392 0.13169616 0.11946033 0.31084427 -0.032339107 -0.13376687 -0.09003854 -0.2556999 0.035830993 -0.23174843 -0.021204084 0.05154078 -0.18712409 0.011474961 0.14126536 0.026539994 -0.17691979 -0.19609907 0.048351612 0.31096253 -0.090973124 -0.14398488 0.051891178 0.29114214 -0.07037744 0.04467639 0.1378687 -0.010670008 -0.121325344 -0.16487104 -0.046188954 0.28807652 -0.054433282 -0.02840519 0.2524783 0.005584101 -0.10952088 0.1430824 0.085931905 -0.016557949 -0.2368795 -0.29453617 -0.16742955 0.15866415 -0.03671187 0.02714071 -0.04094503 -0.0060350625 0.088166386 -0.046884816 0.2881868 0.048008494 -0.046003737 0.13599376 0.05912289 0.1029117 -0.056732018 -0.003244955 -0.109663025 -0.0050043263 0.11357445 0.25464442 0.009248747 -0.026460106 0.2692112 -0.11833246 0.057673674 0.14792518 0.10012863 -0.20912413 0.68245685 0.10345635 -0.07194064 -0.1456524 -0.037787624 -0.08022641 -0.030493617 -0.08290305 0.055833768 -0.16145927 0.11750289 0.327455 -0.07779643 -0.5405149
为 -0.16237323 0.041276295 -0.09760645 0.009242467 -0.13927586 0.12831815 -0.03924095 0.20958653 -0.1605442 0.38005632 0.06916883 0.038921334 0.08022322 -0.16005382 -0.014240585 0.07279363 -0.01621893 0.020981904 0.2836139 0.025848996 0.08718219 0.11627917 0.01315333 -0.031216767 0.17976725 -0.06660945 -0.28925386 0.026666991 -0.052393958 -0.0810873 -0.15130113 0.13390014 -0.039775968 -0.058449864 0.024189476 0.071725965 -0.04227893 0.020274183 0.13495572 -0.0054312884 -0.26073688 0.021705631 0.0333421 -0.003249621 0.21962857 0.07386284 -0.21867235 -0.1589309 -0.0029989053 0.18259485 0.0037051672 0.41598755 0.12421106 -0.19669916 0.26068607 -0.010830091 -0.07776967 0.1980246 -0.12262974 0.28858674 -0.18975917 0.1953034 -0.048943605 -0.19282475 0.0053087776 0.012871168 0.07479349 0.011209834 -0.14581297 0.15854393 0.03784834 0.02651555 -0.004909694 -0.3060846 -0.024667421 -0.3055191 0.011747044 0.07465741 -0.0722581 0.2566861 -0.07312137 0.03119551 0.013494017 -0.15247993 0.17533694 -0.11467152 0.53388375 -0.20006596 0.17886963 -0.11082573 0.09894831 -0.28636116 -0.049959388 0.03384639 0.19582924 -0.27819398 0.052255142 0.16662881 0.4143547 0.30219173
君 0.1932852 -0.048969034 -0.17935169 -0.15952906 0.03500198 -0.21405807 -0.13762246 0.11306352 -0.044705253 -0.026342848 -0.2366226 0.17852157 0.24426603 -0.08917854 0.015803562 -0.096092395 0.14882393 -0.18580224 -0.22321565 0.072199404 -0.14975566 0.17508224 -0.08008491 0.26030126 0.08629522 -0.028908104 -0.06287175 0.32297674 0.119812846 0.0026102427 0.055454426 0.044575945 0.1603888 -0.13438576 0.12736678 -0.11534994 -0.068167195 -0.008047303 -0.14043091 -0.015130074 0.078072205 -0.16065219 0.22945434 0.18706252 -0.022217471 -0.24722676 -0.0902023 0.09069049 -0.18681958 0.23011257 -0.14507906 -0.10876794 -0.02812504 -0.011086107 -0.1003218 0.25221965 -0.12807703 -0.33784556 -0.06938535 -0.0053121583 0.10428369 0.1462489 -0.021095032 0.0165302 0.21833996 -0.16223936 0.1507351 0.04864003 0.060984932 -0.060010765 0.31130102 -0.024669893 0.11701925 -0.16499239 0.100768976 0.02352911 0.0944815 0.17487538 0.010367579 -0.08427879 0.106363766 -0.078866735 0.043862008 0.041282248 -0.014961005 0.011987073 0.66681236 0.06380908 -0.06760707 0.12752214 -0.106784366 -0.18951775 -0.10688329 -0.100257084 -0.14478736 0.015782028 -0.021562178 0.069691174 0.0007984312 0.17003411
乎 -0.03799442 0.20931664 0.019995354 -0.09366423 -0.18292806 0.39537233 0.25430807 0.075822994 -0.14894317 -0.09957089 -0.13233344 -0.08334481 -0.15589339 -0.19069293 0.048484787 -0.16397223 -0.3445686 -0.17166552 0.114708126 0.19576071 -0.5119625 0.1961567 -0.23490211 0.08450014 -0.10962481 0.28681463 -0.17223823 0.025664376 -0.02092432 0.18427306 0.073403426 0.20249331 0.12114967 -0.10525606 -0.055615902 0.18973334 0.2365546 -0.20331769 -0.049770053 -0.22089586 -0.097930335 0.06439867 0.20697378 0.13750184 0.29551333 -0.28576565 -0.18042994 0.1530169 0.011950485 0.023520421 -0.16366844 0.12870686 0.1457661 0.077860154 0.021797122 0.16868486 0.13367216 0.051203907 -0.14069042 -0.029817402 0.010891678 -0.12581725 0.036441207 -0.02461374 0.055607747 0.22834724 0.42553583 0.1271182 0.082222775 0.034788854 0.029053262 0.006331461 -0.05128112 -0.11788236 -0.03327358 -0.3878439 0.06927298 -0.00015057367 -0.23270687 -0.40102857 0.2995172 -0.0063469233 -0.06555875 0.002448419 0.30665958 -0.16474831 0.6334694 0.097767554 0.048300013 0.19415843 0.019476555 0.05637237 -0.034735624 0.26028842 0.06505354 -0.10610525 0.082602374 0.11906838 -0.17365769 -0.18009749
可 -0.09299997 -0.083702125 0.05878961 0.08990577 -0.06901353 -0.081649795 -0.118191466 -0.0085385535 -0.1117547 -0.12822156 -0.16257372 0.11888421 -0.02083322 -0.18014386 0.16947004 -0.23706807 0.12009136 -0.1128698 -0.063909166 0.04745494 -0.06440835 -0.029513836 -0.08525585 -0.20881449 0.060251676 0.16774175 0.1434731 -0.009717905 0.053483583 -0.19443852 0.31760675 -0.014696946 -0.0839307 0.23086153 0.015277081 0.07080716 0.09090464 0.05983647 -0.12070149 -0.1212329 -0.22083695 -0.02625109 0.11050958 -0.050182573 0.108365424 -0.16622254 0.437812 0.24747051 -0.084741116 0.08189915 -0.031143967 0.40019345 0.07581875 -0.18489729 0.094717875 0.08697995 0.15659656 0.30504265 -0.35385406 0.06406589 0.08628454 -0.13829061 -0.06853305 -0.21600035 -0.38623136 0.35750568 -0.12598044 -0.006635625 -0.09156315 0.2010072 0.024331981 -0.011273085 -0.14572383 -0.30856553 -0.17133683 -0.06467738 -0.18015338 0.08296543 -0.023834828 -0.2788223 -0.2425582 0.017679177 0.02925164 -0.11265263 0.060259268 0.025834268 0.5623959 -0.023360029 -0.09506994 -0.04225535 0.11506894 -0.012564616 -0.22826989 -0.25219664 0.18772136 -0.0027729073 0.23569822 -0.0742575 0.021751657 -0.09883416
如 -0.10618429 0.006370716 0.14308515 -0.24059856 -0.094214626 -0.14742371 -0.016224295 0.010321908 -0.07142773 0.078245506 0.08339238 -0.26332954 -0.04013983 0.079853326 0.4062176 0.22008242 -0.07314299 0.00037021725 -0.03186899 0.04554324 0.058861014 -0.08555161 -0.10888896 -0.39840087 0.15674224 0.044618517 0.19958664 0.21476659 -0.037811175 -0.1259273 0.111746244 -0.103352524 -0.048644897 0.15416044 0.23995742 0.11697066 0.16614342 -0.045104217 -0.076088 0.16718379 -0.090490125 -0.028052209 -0.08940294 -0.046451043 0.13402854 -0.02414003 0.21528007 0.22847898 0.18226619 0.020498399 -0.03692435 2.6873779e-05 0.14698316 0.14676622 -0.14568804 0.029381165 0.06157012 -0.18982776 -0.3617938 0.06708181 0.15444788 -0.08692025 -0.04394286 -0.02528622 -0.32626662 0.16571467 0.25826213 0.15481041 0.038200486 -0.13859276 -0.14013143 0.07137153 -0.19179425 0.16273299 -0.039500177 -0.4236476 -0.13051255 -0.14973217 0.20498273 -0.060642265 0.0504139 -0.14563316 0.2130157 0.012333326 -0.059561983 0.29439485 0.6077401 0.38863033 0.1653325 -0.2625215 0.069258936 -0.15549055 0.006022551 -0.008178751 -0.0790411 0.008188513 0.22000422 -0.241586 0.039090026 0.06527672
与 0.008103968 -0.13073537 -0.07145038 0.06564093 0.014141874 0.10882531 0.10100131 -0.3145474 0.3123662 -0.17206101 -0.057794683 -0.18752687 -0.011401192 -0.09471184 0.17571798 0.014954621 -0.10305316 0.16736531 0.15841463 0.18314944 -0.021262337 0.09972348 0.09214197 -0.24572702 0.23285289 -0.05881862 -0.0062635085 0.18300495 -0.27427515 -0.04810893 0.10550742 0.1840025 -0.098325536 0.145967 0.09169653 -0.12834725 0.1003163 -0.038093008 0.17177494 0.019445613 -0.09779977 0.07191099 -0.0054888087 -0.11670933 0.24417968 -0.07385757 0.038266353 0.19929379 0.046606176 0.1482793 0.010813292 -0.1415241 -0.08489237 0.03241501 0.20787796 0.16189773 0.008407012 0.14933284 -0.24856651 -0.17735517 0.035118826 -0.12553902 -0.057047606 -0.13866772 0.08234727 -0.039172053 0.21153325 0.18067671 -0.10089323 -0.12707612 -0.13602221 0.008946622 0.083183736 0.038608517 -0.09841486 -0.05642218 0.3156508 -0.25615898 -0.18544644 0.08517328 -0.29129207 -0.15038109 -0.106495336 -0.20939355 -0.012551717 -0.027065001 0.6465008 -0.007885849 0.062058225 -0.1092296 -0.03535602 -0.011552278 -0.07361658 -0.17508434 -0.028538834 -0.31006268 -0.19244632 0.018835278 0.041708518 0.21425371
； 0.16371259 0.28363708 -0.11286298 -0.07791474 0.07673249 -0.25629658 -0.1386872 -0.18219587 0.118042104 0.11765071 -0.27587342 -0.093625076 0.15729663 -0.22531645 -0.048683837 0.1178709 -0.04910171 -0.07294636 0.24062033 0.2232405 0.3476962 -0.04649684 0.0204025 -0.17154169 -0.12819274 0.058911078 0.105217576 0.19155633 0.38519657 0.1707989 0.18691598 0.23599072 0.037763797 0.2584721 0.25404572 0.0018945679 -0.08130078 0.0013680253 0.13989562 -0.3842524 -0.15129022 0.18002899 0.05579258 -0.092950344 0.0827529 -0.009442289 0.1951104 -0.29697734 -0.26828453 0.29050288 -0.0047793756 -0.114904396 0.21879834 0.45426 0.31861275 -0.20702104 0.12290357 0.14407118 -0.06341596 -0.20119773 0.38240084 -0.33381078 -0.1397153 0.03125936 -0.34878144 0.059142433 0.041704312 0.18722261 0.0326592 -0.07063193 0.044804156 0.17923434 -0.18786412 -0.26881728 -0.116658 0.5656527 -0.2813355 -0.41034186 0.21025775 0.1359716 0.13977113 0.0073548723 0.24625224 -0.16164705 0.075121544 0.047984168 0.61386395 0.16188942 0.13707563 -0.01423444 0.13132866 -0.095584944 0.12538749 0.18729334 -0.043981243 -0.0073953886 -0.06508269 0.12797369 0.1540329 -0.21567047
言 -0.34729266 0.17591126 -0.1302985 0.22564317 0.03755081 -0.0785339 0.046939764 -0.07665197 0.010245675 0.1361356 0.050185733 -0.07445967 0.06555504 -0.23454843 -0.024618743 -0.34268767 -0.1336978 -0.05636099 0.13884969 0.120343424 -0.45141897 0.1863026 0.35782757 -0.13772315 0.09315733 -0.008961248 0.091397494 0.095611975 0.2870852 0.20520876 -0.0054081203 -0.2695852 -0.0551422 0.17212237 0.092711955 0.025353326 0.10745658 0.027433017 0.046358507 -0.122330554 0.10076289 -0.0817117 0.30949983 -0.055763375 0.08754942 0.06205108 0.15586813 0.045853082 0.16513981 -0.15237458 0.055915773 0.08768697 -0.033391055 0.080857486 0.19143087 -0.1857978 -0.13810152 -0.15885113 -0.012701613 0.01155176 -0.06684205 0.2653691 -0.101633355 -0.17383286 -0.034826856 -0.1174596 0.18053451 0.091742866 0.0700893 -0.029743584 0.27677506 -0.025574798 0.20029461 -0.13048409 0.06489588 -0.20080282 0.020476332 0.14732106 -0.035753082 -0.15929423 -0.2711554 -0.1263309 0.40879995 0.23147136 0.0042607645 0.27874014 0.5598592 0.06490675 0.015823541 -0.08517236 -0.1444895 0.38020554 0.047604002 -0.06833021 0.036181983 -0.3767278 -0.03672766 -0.052445218 -0.015489822 -0.021882813
无 -0.121483065 0.17001094 -0.09929829 0.16423364 0.27576643 -0.22849579 -0.14103751 0.24302214 -0.03576667 0.12916337 -0.025479559 -0.05114952 0.18271193 -0.08907164 -0.13106935 0.08150135 -0.4411162 -0.08525349 0.22527492 -0.14689486 0.02983671 -0.062393878 -0.08411585 0.12511474 0.010427131 -0.3330754 0.07103704 0.019889558 0.012761218 -0.008628242 0.0069175856 0.07035474 -0.44465858 0.0632166 0.14347413 -0.07876517 0.2991823 -0.32407156 -0.0026177082 -0.22686222 -0.16510242 -0.1532027 -0.23580538 0.14443259 0.16970082 0.10489194 0.049935397 -0.2505247 -0.10611282 0.11777165 0.042541653 -0.26972932 -0.34872255 0.010701509 0.13698718 0.24963304 -0.17168134 0.06653905 -0.23699464 0.063941434 0.07072803 0.11752667 -0.17657766 0.06767651 -0.36414278 0.08950613 0.14730452 0.19090238 -0.02808461 0.069759235 0.16524145 -0.15183206 -0.1596387 -0.05351636 -0.073819466 -0.27325848 -0.066082306 -0.061553676 0.53122616 -0.02974773 0.04579861 0.027712274 0.10579627 -0.05488304 -0.1575157 0.19043048 0.52992713 0.21740176 0.19853272 0.0071301092 0.06768654 -0.061743513 0.055885512 -0.4325329 -0.039072383 -0.16864952 -0.06444031 -0.031149767 -0.12423251 -0.2618256
则 -0.32618916 -0.07305438 -0.18647076 -0.012415551 0.36538473 -0.12396257 -0.25911704 0.13007595 0.0465152 0.2949696 0.021912485 -0.23921724 0.1389222 0.07487584 -0.2663216 -0.038872648 -0.055044115 -0.090508714 0.047369987 -0.31946117 -0.05019425 -0.08000041 -0.14485627 0.21145606 0.009644104 -0.16754138 0.0331672 0.100076966 -0.19773304 -0.4968624 0.24040334 -0.19294348 -0.26806977 0.22260848 0.1349566 0.06382227 -0.004732123 -0.07981594 -0.19519019 -0.019489374 -0.17573597 0.2818096 -0.0992954 0.08854854 -0.22621907 0.113087445 -0.2075361 0.01657121 -0.23257524 0.13831201 0.13834417 0.15618294 0.08096139 0.014548127 0.086880274 -0.092247464 -0.1196063 -0.13003366 0.045450576 0.062251322 -0.35708696 -0.14488734 -0.268629 -0.038526934 -0.40267423 0.025706168 0.25210798 0.35149738 -0.14171676 0.07063648 0.052791234 0.15497418 0.21738519 -0.17043664 0.09693606 -0.03628653 0.120990396 0.139672 0.33061618 -0.19412854 0.15298231 0.07094785 -0.0012458256 -0.024921129 -0.11930373 0.116010636 0.57163656 -0.061740458 -0.27506796 -0.17098022 -0.058095634 0.06426517 -0.1853366 0.017094687 0.17002517 -0.065581985 0.017840208 -0.16295768 0.08524782 -0.100462675
！ -0.08074701 -0.150509 0.2859366 0.044691816 -0.032173242 0.06552278 0.24075153 0.08278109 -0.23078763 0.09745091 -0.13399246 -0.01374867 -0.24089262 0.118527845 -0.14845796 0.10203101 -0.04094408 -0.013040213 0.21150605 0.006905879 -0.092240825 -0.050009355 -0.041543 -0.3203464 0.2875538 0.29442456 -0.32319602 0.014450075 -0.1523044 0.20311587 -0.13584854 0.3544212 0.25105175 -0.04327291 0.11436113 0.082954615 0.0016076383 -0.20921494 -0.06307981 0.004012214 0.20145537 0.219588 0.1704439 0.16109219 -0.1184315 -0.18011412 -0.11486216 -0.016436385 0.07846229 0.08780433 0.03604048 -0.04371491 0.10176744 -0.30384156 -0.17338735 -0.1486232 0.14133039 0.22721149 -0.4333184 0.2115996 -0.31517294 0.113361366 -0.17552589 0.059514906 0.18712662 -0.023029236 0.26644856 0.15905035 0.11767787 -0.040206052 0.12964427 -0.07853373 -0.08110043 0.099611536 -0.21883611 0.03767152 0.15668346 -0.01534651 0.065869585 -0.26392543 0.0028089383 -0.012376709 -0.09709073 0.26094982 -0.048712898 -0.08411324 0.8129177 -0.22884843 0.16268903 -0.12454662 0.20977847 0.010349147 0.32710746 -0.13933147 -0.25737387 -0.02647677 0.036109507 0.30797055 -0.10608074 -0.06216192
问 0.02539064 -0.15967683 -0.17308179 0.15905441 0.064604655 0.2302947 0.035434477 0.24055101 -0.03227545 -0.05202051 -0.18779995 -0.19240971 0.42432964 0.20983435 -0.25415832 0.057701327 -0.0046456805 -0.03814372 0.10667895 -0.048779286 -0.020766491 -0.36938947 0.1662164 0.15567471 -0.17913939 -0.3702427 -0.07226889 0.11121982 -0.22234657 0.03368493 0.111473836 -0.020075165 0.032916516 -0.118924715 -0.12532042 0.09145763 0.09807048 0.047778897 -0.089215346 0.054535106 -0.12013306 -0.08538476 -0.078440845 -0.077595435 -0.067276396 0.051667325 -0.13020355 -0.13413687 0.08150383 0.070265174 -0.19497159 0.20525111 -0.06738129 -0.08395622 0.25118122 0.1254082 0.18414369 0.04507043 -0.004860745 -0.16082516 -0.025339175 0.18841723 0.16107343 0.03850136 0.32822657 -0.17657351 -0.013723812 -0.06940024 0.032455053 -0.12346271 0.270991 0.059240215 0.15849097 -0.4120687 0.050401125 -0.12799656 -0.06706612 0.054334633 -0.14797431 0.100408286 -0.081856795 -0.47495243 -0.13805312 0.027252728 -0.088612475 -0.046184074 0.7716053 0.00908691 -0.3025908 -0.07481715 -0.022984505 0.29627243 -0.09169164 0.141129 0.12863198 -0.07796452 0.08172547 0.43735668 0.2538443 0.046386342
知 -0.33722296 -0.18442528 -0.062460825 0.18471082 0.13470009 -0.24255703 0.05418007 0.001597032 0.03160248 0.065006 -0.106706575 0.087441064 -0.13857964 0.12211048 0.13647816 0.10753406 0.11592901 0.16765803 -0.009294461 -0.010751843 -0.06310545 0.1367039 0.09421889 0.0026061654 0.60929865 -0.14105427 -0.020400355 -0.27155218 0.12204573 -0.15995389 0.15372112 0.19565848 -9.517651e-05 0.044354096 -0.15437706 0.09730944 0.2766833 0.043801576 0.19526686 -0.021123879 -0.20261963 -0.053219598 0.04099159 -0.21566688 0.10063267 0.033450443 -0.032563645 -0.11206453 -0.053015057 0.43074542 0.07593625 0.13308367 -0.08004579 -0.19212593 0.046974402 -0.008576444 0.11412381 0.04234216 -0.17290206 0.20138848 -0.0085933 0.12036317 0.06482074 0.10164357 -0.20344114 0.10380974 -0.08950849 0.18681566 -0.10063772 0.107282326 0.07740618 -0.08719735 -0.13599233 0.038953252 0.1739443 -0.14199358 -0.14847526 -0.31748027 -0.18888848 -0.174161 -0.2486649 0.004042601 0.09934128 0.015697656 0.006091682 -0.18089522 0.5005687 0.19562797 -0.03182614 0.13935782 -0.014504647 -0.022942152 -0.082848944 -0.17318012 0.0029932675 -0.12357416 -0.18441737 -0.4010517 0.036210034 0.34641823
何 -0.13991764 0.045799315 -0.022994412 -0.28067335 -0.2644492 -0.06116829 -0.016040197 -0.26628795 -0.17523906 -0.22923228 -0.030559376 -0.13831526 0.0020255717 -0.051846836 -0.16607682 -0.28889522 0.08435323 0.0057208687 -0.007664527 0.3289304 0.07920905 -0.089607045 0.22331688 -0.09368174 -0.021804294 -0.1399089 0.048095964 -0.069022834 -0.12908317 0.066676244 0.16541632 -0.049771868 0.034513995 -0.09152174 -0.099682145 0.16445799 0.03456416 -0.06956086 0.20101629 0.19278541 -0.15525615 -0.08758539 -0.028704152 -0.10601647 2.3173168e-05 0.14675584 0.35863897 0.14579271 -0.088630475 0.058333542 -0.122916475 0.06278703 0.09844431 -0.04767047 0.028899383 0.023503367 -0.41185242 -0.15290278 0.089397274 -0.060825054 -0.023699626 0.130442 -0.01559422 -0.17940041 -0.023161173 -0.14037593 -0.047278248 0.23786464 -0.124039315 -0.17978811 0.050910916 0.09233158 0.2304905 0.0842016 0.103785835 -0.34909105 0.040708102 -0.22233923 0.092979826 -0.18003365 -0.21640946 0.17717856 0.099114224 -0.1939827 0.08927995 -0.04588099 0.60720485 -0.019226182 -0.18796363 -0.121009134 0.015406451 -0.24391584 -0.31059918 0.09959237 0.095145285 0.0505112 -0.23762958 -0.19312076 0.08792966 -0.09871027
吾 -0.02638958 0.12797648 0.37438545 -0.052657895 0.20277768 -0.08771596 -0.15853015 -0.113746576 -0.029860517 -0.017144077 0.08892632 -0.14840047 0.02178995 0.05172441 -0.093899146 0.024662936 0.21066128 -0.029101506 0.04403286 0.06902076 0.014284035 -0.0053371964 0.10716107 -0.06938937 -0.114607155 0.047121473 -0.13539116 0.26428416 -0.094750166 -0.08594042 -0.24836433 -0.112487815 -0.25674567 -0.17256518 0.37493873 0.16707589 -0.26495862 -0.2348507 -0.14511281 -0.18804516 -0.24357174 -0.06532943 0.31642786 0.0810377 -0.06642705 -0.063361175 0.32612732 -0.026613401 0.17098147 0.06287362 0.028966464 0.049837504 0.23595011 0.06185658 -0.10488317 0.25305098 0.29573447 0.08359258 0.06593555 -0.026741369 -0.028180886 0.26142275 0.4191276 -0.22947371 -0.18325026 -0.014068909 -0.053203642 0.20001028 -0.011087336 -0.08306476 -0.11583921 -0.05349678 0.018759076 0.19918513 0.10030616 0.042602092 -0.22993287 -0.10047643 0.27194968 0.09354344 0.051251233 -0.20629697 -0.0066247964 0.07537664 0.08287212 0.040528685 0.71397483 -0.13362414 0.14650719 -0.08869769 -0.031238193 0.109693125 -0.012387886 0.024605948 0.28737712 0.07776587 0.24935576 0.189479 -0.028577525 0.2853154
仁 -0.046558693 -0.10879983 0.00015487173 0.120128684 -0.098664515 -0.109613776 -0.06156971 -0.055828474 0.066163056 -0.03939203 0.009882221 0.2229856 0.1172978 -0.045086905 -0.041089024 0.09291971 0.227261 -0.13352154 0.5097986 0.0732709 -0.29462242 0.052563902 0.12339516 0.18149745 0.1168138 -0.12387374 -0.13098042 0.17469513 -0.22536387 -0.13217299 0.06176251 0.14058955 0.117633395 -0.06241446 -0.062073186 -0.1642541 0.2281249 -0.004067186 -0.09895139 -0.1357125 -0.2647577 0.13121384 0.15815865 0.006097695 -0.039074995 0.018791363 0.033009186 -0.06555372 0.1363654 0.031529583 -0.070210546 0.08475327 -0.24761604 0.032931507 0.010578554 0.037349198 -0.05502643 -0.004535838 -0.15777668 0.009485065 0.012597616 -0.06287429 0.014482615 0.19960569 -0.045929927 -0.118641 0.16082846 -0.18362191 -0.00056345575 0.08465522 -0.19508603 0.06347164 -0.12592822 -0.0131477155 0.22260505 -0.07798396 -0.23382841 -0.037506793 0.040411733 -0.08482344 0.047376484 -0.17919874 -0.11548596 0.16830167 -0.0613052 -0.27722624 0.4130742 0.084093146 -0.023369323 -0.1865674 0.0960952 0.17152376 0.18148454 0.004789753 0.11523333 -0.06669721 0.17646928 0.065585054 0.019374374 -0.01941415
夫 -0.009831651 -0.14377643 -0.12798841 -0.14910425 0.19497918 -0.13704063 0.13868947 0.11201605 -0.11241097 0.23402819 0.4424627 0.10250175 0.051771976 -0.0116348695 -0.331532 -0.07106062 -0.1223168 -0.16266514 0.21761246 -0.075997524 0.018916404 -0.08212485 0.107342064 0.037314955 0.230302 0.16249901 -0.11899509 0.43003932 -0.3684634 0.28930178 -0.05291969 -0.09143956 0.117271915 0.08190532 0.05761002 -0.25976014 0.11372122 -0.23263195 -0.34453303 0.13568749 0.02621759 -0.0054989066 0.15572561 -0.063475974 0.23235399 -0.06427693 0.26087585 -0.008509473 0.17991245 0.024331963 -0.16842428 -0.04152065 0.22228967 0.2817654 -0.21488482 0.24363641 -0.23166318 -0.008824812 0.014617358 0.10898307 0.25348312 -0.42478883 0.18769991 0.033605784 0.019332094 -0.19044343 -0.20958942 0.22683284 -0.0024623126 -0.04476709 -0.016493399 0.21013099 -0.32181454 -0.12720178 -0.09035173 -0.1208032 0.07746023 0.035552632 -0.2609911 -0.061697092 -0.12935899 0.33745033 -0.18610041 0.14939183 0.14095697 0.11318656 0.6628663 -0.050587308 0.08565875 0.2008149 0.120895684 0.08961807 -0.1519104 0.058144946 -0.23651741 0.1079179 -0.20440906 0.08097818 0.07194139 -0.065666646
、 0.17459825 -0.22220097 0.23814261 0.09837408 -0.09725246 -0.14026032 0.16661191 -0.01597495 0.123843126 0.31620735 -0.049432088 -0.21007344 -0.06624617 0.116916575 -0.5598262 0.08390699 -0.08558212 0.08726396 0.16821995 -0.07391696 0.20973878 -0.11901578 -0.49064878 -0.07675756 -0.3955282 -0.19876592 -0.520062 -0.1855096 -0.14948359 0.15000477 0.06263046 0.13666333 -0.0062421067 -0.01968756 0.2161397 -0.11715484 0.09615302 -0.014748218 -0.10806051 -0.07273053 -0.2260246 -0.2591215 -0.1533727 0.06971515 0.28203428 -0.39431334 0.21656033 0.090086386 -0.055868056 0.120677695 0.16273336 0.084313504 -0.09416494 0.0106487945 0.0153238345 0.117371 -0.11197059 0.2151114 -0.028574686 -0.0987383 -0.31068859 0.10164768 0.26801404 -0.11624918 0.07506881 0.2206595 0.16596675 0.12493567 -0.1545634 -0.14883053 -0.30668458 -0.19042392 0.35620716 -0.016342789 0.054101568 0.33780387 -0.26695856 0.1670771 -0.5898109 0.11815648 0.08587159 0.31960955 -0.03366925 0.061673723 -0.3265206 0.1587555 1.008468 -0.19862114 -0.3113927 -0.65417147 0.07530913 -0.1494191 0.009018989 0.13400452 0.38461077 -0.538671 -0.16246249 0.18390648 0.11489104 0.22095488
道 0.12806998 -0.18376175 -0.267152 -0.10338734 -0.18229768 0.088177755 -0.26270294 -0.184589 0.07776834 0.05941981 0.09613151 -0.2114625 -0.054025 0.11989691 0.3757342 -0.16606054 0.10732858 0.041694485 -0.15568933 0.05015024 -0.13484183 0.109898664 0.1758254 0.083333276 -0.07640649 -0.1356966 -0.03315002 -0.008628109 0.029999768 -0.17942661 -0.014499653 0.031709906 0.06656322 -0.11484267 0.068443924 -0.1618686 0.21535945 -0.12058559 -0.4460068 -0.30888927 0.09704667 0.17573519 0.07576627 0.34041268 -0.106978185 -0.07541707 -0.07516215 0.11210987 -0.15598375 -0.30065256 -0.20273414 -0.045857303 0.2778336 0.10243876 0.05523107 0.10505225 -0.2231336 -0.018019285 -0.16404693 0.15315305 -0.02029951 0.073239066 -0.023793727 -0.11642042 -0.13568175 0.045557886 0.117101274 0.016756741 -0.23061524 0.03506279 0.26072094 0.034406263 -0.04541797 -0.13748497 0.09789393 0.032767385 -0.093305126 -0.079384364 -0.3451754 0.161797 -0.2203603 -0.059259452 -0.07373954 -0.28566355 0.023737775 0.015791235 0.53280777 -0.017577564 0.14762801 -0.04476019 -0.14152925 -0.30796528 -0.3091613 -0.13250215 -0.035175063 -0.14857002 -0.24211927 -0.11144024 0.19122188 0.055833504
焉 0.044806175 -0.4159539 0.12972589 -0.14269187 -0.24482103 -0.1891491 -0.1995892 0.07774371 0.1495443 0.34205484 0.24378675 0.09571487 0.20641336 0.054200742 0.07442457 -0.06405875 0.06023613 -0.2044086 -0.048080213 0.28225023 0.25336105 0.25873902 0.008422347 0.11709807 -0.1420502 0.12961684 -0.024255017 -0.07919061 0.25368083 -0.22103554 -0.19885893 -0.06726262 0.09114729 0.22965014 -0.021647254 -0.13692842 0.3421207 -0.07599917 0.09079265 -0.06833531 -0.27681085 -0.19088584 0.09813124 -0.10490701 0.1877143 0.0787175 -0.102791846 -0.07603437 -0.030259054 -0.018081341 0.06780687 -0.011770016 -0.17011027 -0.20285113 0.049338512 0.22562438 -0.030213298 -0.18312283 0.013954477 -0.057712033 -0.15904556 -0.34171182 0.18957238 -0.035407968 -0.02809576 0.14642863 0.27927297 -0.16976671 0.0023711473 0.3297828 -0.151796 0.037018735 0.12877014 -0.29165328 0.14224179 -0.14124621 -0.0241277 -0.18114565 -0.071337454 -0.06794602 0.07352364 0.11745158 -0.06041344 0.033573985 0.3033249 0.23128565 0.5814665 0.040613845 0.21686994 0.11637564 0.12288067 0.23378274 -0.05307781 -0.19586553 -0.046402615 0.090973765 -0.111221515 -0.090574816 0.20074779 -0.46389818
行 0.1569004 0.09265965 -0.19029465 -0.116190806 -0.15742534 -0.13409835 -0.3706568 0.23469329 0.14899543 -0.108944505 -0.17080483 -0.14971316 -0.089762114 0.11634074 0.037018377 0.022621471 0.06873148 -0.07160413 0.08994506 0.040795606 -0.23611015 -0.114252135 0.053719997 0.18895131 0.015672155 -0.20239565 0.09489498 0.15999413 0.3276897 0.22489095 -0.0840681 -0.049359843 -0.03476962 0.10126302 0.085473344 -0.22607033 0.080733605 0.023123594 -0.15491866 -0.09282881 -0.10270453 -0.034788553 -0.09550269 0.06759941 -0.04938361 0.19466403 0.01759153 0.09584694 -0.06282024 -0.015862245 0.13187528 0.2694643 -0.0108030075 -0.016559597 0.040683925 0.19389802 -0.103536114 0.08597417 0.008621868 -0.06265658 0.230684 -0.041116662 0.26756206 -0.12322841 0.022150721 -0.0778406 0.27021503 0.31758806 0.09117159 0.23667051 0.06737041 0.18553697 0.25987017 -0.248479 -0.047668718 0.023574136 -0.07016116 -0.06401548 -0.05719815 0.034753926 -0.11053899 0.15038526 0.06074518 0.2954131 0.040507086 0.10918429 0.5385527 0.0008394718 0.08280448 -0.12610827 -0.043738633 -0.017717158 -0.106250115 -0.117907524 -0.2512825 -0.22547609 0.06868319 0.1746838 0.26346594 -0.08297436
谓 0.016685678 0.04059149 0.17457058 -0.24321073 -0.011031527 -0.022397619 -0.21426065 -0.106883824 0.22910027 -0.020207962 -0.30852422 0.0030272743 -0.060387645 0.33671615 -0.08883359 -0.10139291 -0.09946906 0.042528056 0.09747115 -0.1145827 -0.029862102 0.078799345 -0.11065837 0.05252421 -0.11276112 0.21885702 -0.19660112 0.059208114 0.10678065 0.09483319 0.16925439 0.40402672 0.008169316 0.11261743 0.187943 0.040571656 0.40068397 0.3466491 0.067088984 0.15397422 0.2773382 0.022158546 -0.09031751 -0.28928292 -0.21845075 -0.20441371 -0.11709696 -0.020797987 0.16306001 0.3870345 0.03464616 0.03007818 0.28735 -0.07628641 -0.0010835873 0.097207025 -0.03706201 0.022803217 -0.054656364 -0.09509035 0.25928435 -0.009296015 -0.035374247 0.17313774 0.07858007 0.24309938 0.010695688 0.118020415 0.04174785 -0.18818949 -0.13394867 0.24985467 0.06631891 -0.15610732 -0.32277325 -0.2695399 -0.2103373 0.12808497 0.18652628 0.059244238 -0.3939696 -0.017270008 0.07219441 -0.17853014 0.09512582 -0.115387924 0.66467714 -0.11832419 -0.15906847 -0.36207718 0.08534826 -0.062441386 0.26241806 0.06559395 0.030650724 -0.13795245 -0.23686582 -0.04367495 0.14583077 -0.19969043
必 0.3261217 0.22719568 -0.42395234 0.20468251 -0.024470849 0.030192373 0.15099102 0.030856512 0.025624681 -0.20540376 0.3067692 -0.18228479 -0.18218121 -0.019812956 -0.013605355 -0.05893592 -0.11424297 0.09424952 0.3683504 -0.10262646 0.25342223 0.16091216 -0.08930234 0.08868172 0.14474894 -0.0071532475 -0.12378228 0.21310359 -0.12804839 0.06065454 -0.090784155 -0.34524965 0.32121593 0.19605604 -0.2580669 -0.02943027 0.19919696 -0.01433283 -0.020901885 -0.25654182 -0.015014037 0.15396821 -0.07028499 -0.116644025 -0.013472832 0.24269402 -0.2458336 -0.13683124 -0.21611494 -0.10552901 -0.013134298 -0.112801984 -0.07530825 0.17061527 -0.08481691 0.2051394 0.13745745 -0.07939693 0.06065252 -0.15185288 0.4252006 -0.39811456 -0.072547704 -0.08088908 -0.23573798 0.039344873 -0.1638096 0.050216157 0.3267006 -0.19045101 -0.33437303 -0.19092512 -0.035955854 -0.199566 0.030524626 0.0571478 0.14305697 0.09867078 0.106419094 0.10753049 0.043406032 0.026336178 0.14016403 -0.011096839 -0.07946839 0.26499337 0.44544506 -0.010500906 0.11156977 0.19060086 0.24712825 0.07357197 0.012091385 -0.04713803 -0.038287055 0.030239608 -0.16919576 -0.20737271 0.09588837 -0.1968098
礼 0.3438705 0.047602773 -0.030379634 0.061076492 0.3321582 0.11612765 -0.24736506 -0.2678995 -0.021022215 -0.044770584 0.42459142 -0.030184286 -0.3095557 -0.10700898 -0.39820114 0.11792021 0.0858802 0.17078392 -0.13769771 -0.3650714 0.13615394 0.16206248 -0.3757131 0.11367947 0.028399132 0.13918716 -0.029980417 -0.082402274 0.21784213 -0.11116201 0.2069302 0.09409119 0.12117667 -0.08660612 0.34488925 -0.2145025 0.15733507 -0.014302859 0.077347256 -0.1927088 -0.031311937 -0.23128784 0.03587115 0.2322737 0.37540454 -0.035753474 -0.066700175 -0.038153216 -0.06617481 -0.04092828 -0.12032253 0.046878587 0.19647034 0.0564801 0.0074908203 0.32158345 0.0032605755 0.025756571 0.035489492 0.3108359 0.31289226 0.14952429 0.020014158 -0.09118259 -0.51761156 -0.16790853 -0.026131222 -0.24571651 0.063042834 0.067898326 -0.1044098 -0.08268054 0.10262216 -0.27500114 0.21125872 -0.13920636 -0.25976485 0.21166153 -0.19578695 -0.09600678 -0.45795432 0.23428144 0.02784377 -0.1797156 -0.0054109995 0.005894481 0.4750333 -0.08230557 -0.2801372 0.07954769 -0.19656418 -0.08234662 -0.3010725 0.17512296 0.024677034 -0.23967 -0.34484136 0.1877813 0.07411131 -0.040359832
孔 0.052583385 -0.019121993 0.03990578 -0.062270228 0.3773341 -0.0707802 0.055794068 0.24656181 0.38831586 -0.06832804 0.051035244 -0.035696894 0.35632882 0.2820921 0.0206941 0.23158939 0.28162432 -0.0683961 0.020447254 -0.2887496 -0.031420425 0.21650153 0.1473596 -0.0071298764 -0.042411122 0.041042756 -0.07531388 -0.07491187 -0.077060014 -0.049627755 -0.19151545 0.12289758 -0.09720331 0.009649844 0.27669516 0.11280466 0.04545926 -0.04602111 0.27296883 -0.096255586 0.40456787 -0.00943717 0.2693156 -0.13243315 -0.34477997 -0.19619723 0.24137816 0.102847956 0.13571012 -0.0027280203 -0.12903069 0.05244202 -0.06455694 -0.1253932 -0.17292413 0.15595748 -0.075651474 -0.27931163 0.024022797 -0.11741783 0.013182968 -0.13811103 -0.33088475 -0.07251575 0.3094231 0.015349727 0.29476982 0.059763312 0.041949004 0.086534694 0.22807398 0.076221734 -0.21385366 -0.11081003 0.25824395 -0.18151668 0.019823227 -0.030764455 -0.08437341 -0.087601215 -0.04627396 -0.21331123 0.13801844 -0.1637232 -0.119310066 0.23391028 0.9384006 -0.12467991 0.11292688 0.0547812 0.1989309 0.051692616 0.09219069 0.027901312 0.22635946 0.06535926 0.11370612 0.027567152 0.13003087 -0.4318319
斯 -0.11189366 -0.19247508 -0.12935182 0.003640255 -0.114169225 -0.12130449 0.11625508 0.0008803969 -0.17965299 0.11207967 0.1581597 0.08449764 -0.18600991 0.22433262 0.06742034 0.26303425 0.043128375 0.05822242 0.09164312 0.054355968 0.08158464 -0.11598619 0.017192017 0.049825102 0.29560977 0.07939229 -0.04052517 -0.086340085 -0.086335376 -0.05886124 0.32086453 -0.14118026 -0.17471837 0.023734324 0.43515688 0.1466115 -0.19526456 0.06652304 0.063438185 -0.1446626 -0.08448669 0.15983972 0.046717025 -0.038631007 0.46941993 -0.26187932 0.06332099 0.16795976 -0.17911609 -0.41733927 -0.13196398 0.13383687 -0.14970165 -0.1768935 -0.024004245 -0.055061363 0.02186399 0.13933921 -0.1785616 -0.18512642 0.23172893 -0.07825158 0.25833175 -0.080554605 -0.4056465 -0.3788692 -0.3103762 0.24923946 -0.10590993 -0.2076029 -0.072056964 -0.25568745 0.060332146 0.1346931 -0.1970719 -0.14610615 -0.044521876 -0.10299107 0.22849469 0.1332711 0.046948448 -0.15429837 0.1008573 0.1676908 0.0755264 -0.019461762 0.4761175 0.4107059 -0.17402789 0.1290919 -0.1829587 0.06203286 -0.158307 -0.18995553 0.025486624 0.03295827 0.4645582 0.30836782 0.40838143 0.13929637
三 -0.03586661 -0.16465165 -0.28398767 0.082985036 -0.029443895 0.27198726 -0.16896506 0.17861304 -0.34038806 0.03307012 0.28919587 0.30460733 0.10095835 -0.12334088 0.10103866 0.15377536 0.024765734 0.089101635 0.2439111 -0.084185 0.0701041 -0.14986894 -0.056798127 0.2042668 -0.013546269 -0.065260954 -0.11276189 0.22006744 0.15282167 -0.01998275 0.10664493 0.10926595 0.16340426 0.0063077146 -0.09271221 -0.28591856 0.26261124 0.060224675 -0.05058884 0.1378397 -0.16334236 -0.14288212 0.008600745 0.10081503 -0.1552411 -0.56681377 0.15779662 -0.1149403 -0.11748617 0.015075367 -0.35162255 -0.10000312 0.5731431 -0.16979781 -0.08872984 0.075478554 0.06859405 -0.33497083 0.04845732 -0.1679618 -0.38758084 0.18276145 -0.10606565 0.10586187 -0.0493985 -0.13947307 0.45721987 -0.025913723 0.019203406 -0.03892196 -0.27332968 -0.22913146 -0.004872744 -0.2601689 -0.29588345 0.031085877 0.0013086908 0.53807974 -0.40865946 0.17500724 -0.28929293 0.39597923 -0.0991193 0.027054822 0.09024288 -0.122429125 0.725019 0.07985241 0.57069236 -0.064844795 -0.17684989 0.084691085 0.39896944 -0.042409427 0.26778167 0.280958 0.009389177 0.116775155 0.097959734 0.06488396
能 -0.14526033 0.042860717 0.30198288 -0.34494627 0.05730006 0.11412779 0.12336037 0.06484124 -0.14600518 0.1433369 -0.18213013 -0.31800404 -0.14977908 0.028238812 0.022108281 -0.12826833 0.11147383 -0.17482527 0.115968354 0.38488173 0.21904403 0.328857 0.22122827 0.1684841 -0.045162674 0.50531465 -0.07625259 -0.058900613 0.06956526 -0.250935 -0.13162975 0.16494061 0.062339284 0.22797647 0.20892178 -0.2325846 -0.05534147 -0.0067209797 -0.20456891 0.037213646 0.029089484 0.05616362 -0.017891306 -0.0463179 -0.18885072 0.37003967 -0.029709604 0.2507524 -0.23011026 -0.27421772 0.07967117 0.063672364 0.0039464016 0.13110702 0.16394317 0.12198508 -0.31121352 0.10586406 -0.07943438 0.06482981 0.10898363 -0.002747392 0.17286865 0.029552564 -0.3908299 0.50539255 0.017423108 0.18556863 -0.11983949 0.08876362 0.2310135 0.18747133 -0.045701303 -0.008091591 0.14605397 -0.45405987 -0.07699429 -0.101792626 0.052156486 0.17882405 -0.15465507 -0.053729016 -0.23808183 0.0183324 -0.37285328 -0.013196809 0.520897 0.13191755 0.2435393 0.06877166 0.07268395 0.053172857 -0.13065818 -0.06826981 0.13593641 0.13742696 0.3040039 -0.2248538 0.22996745 -0.061848715
见 0.013999606 0.14034215 -0.14656733 -0.05512286 -0.08523372 0.13508043 -0.29296008 0.05398565 0.104479015 0.024824308 -0.14300656 0.11778297 -0.2822639 0.06726057 -0.11673528 -0.087312534 -0.15087768 -0.039110795 0.33797553 -0.075148225 0.16956419 -0.15864894 0.0075628953 0.036711123 -0.2767928 -0.03382796 -0.15124692 -0.27064267 -0.13417274 0.115946226 -0.32353425 0.17872123 -0.036244556 0.075615704 0.22795644 -0.059309162 0.10143823 -0.08595418 0.011033868 -0.34304237 0.22321491 0.3153158 0.1396663 -0.1015238 -0.02239937 -0.17245953 0.3486155 0.17497963 0.1498479 0.0061339037 0.029710384 0.17253864 0.20556456 -0.3353715 -0.40730757 -0.20582289 0.07549297 -0.09753385 -0.16223785 -0.18488438 -0.01653548 0.23929618 -0.077982545 -0.0842213 -0.10387398 -0.24073835 0.06812402 -0.14881936 0.024022555 0.37707865 0.03581434 0.19628671 0.14287448 -0.12710543 -0.05444655 -0.009121238 -0.063699156 -0.113172285 0.11684309 -0.12712367 -0.11033346 -0.32732344 -0.09329502 0.051124055 -0.009289719 -0.056292377 0.51114184 -0.12026826 -0.2706581 -0.27217212 -0.1026405 -0.026629053 0.05024234 -0.16099133 -0.27830786 -0.032283414 -0.20847158 0.048015103 0.01034137 0.14082941
学 -0.034166455 -0.09890239 -0.14989364 0.31131434 -0.17300911 -0.5136001 -0.29324156 -0.13704158 -0.26305366 0.1454276 0.08592142 0.23994537 0.17622477 -0.11150359 -0.056620397 0.23195028 -0.3513164 0.31986287 -0.1602146 0.40216282 -0.17594309 -0.042102024 -0.24506178 0.17854089 0.009299644 0.12381695 0.100295566 0.080565244 -0.114402354 -0.20732762 0.02675792 0.057984512 -0.21810794 -0.042360052 0.4580041 -0.4763277 -0.18432774 -0.028380325 -0.11733332 -0.19850959 0.28218386 -0.06503233 -0.038209274 0.12698068 0.15461308 0.1620313 -0.009006461 -0.25181356 0.0630334 0.100716166 -0.15898184 0.012298518 0.10336604 0.13931091 0.17545192 0.031231955 -0.05990785 0.12953986 -0.23578411 0.377027 0.08854191 -0.1958068 -0.13231726 0.10590461 -0.054724537 0.1398597 -0.1542297 0.03892992 -0.11654039 0.15913492 -0.03198135 -0.0037185112 0.09409906 -0.14897473 0.28482455 0.17533542 -0.016034024 0.002250153 -0.30798176 -0.19374306 0.00058419537 0.06539665 -0.29777545 0.08793617 -0.15435162 -0.05378695 0.6189634 0.11287402 0.053682223 0.057353247 0.15872292 -0.28652796 -0.099849 -0.023794461 -0.027893776 -0.106655605 -0.13865398 0.01813379 0.14377435 -0.31388786
事 -0.030503485 0.06882212 -0.2026256 -0.022427354 -0.027379885 -0.079866424 -0.41247687 -0.0051974393 0.14694579 -0.0544781 0.066279106 -0.14814897 -0.0151509475 0.117215976 0.14951566 0.028100898 0.095920235 -0.23305903 0.4739198 -0.034031425 0.017026158 0.064081356 0.060284007 -0.098206796 -0.12194434 -0.23487334 0.20202623 0.08592147 0.0016290001 -0.17657407 0.17269756 -0.3780514 -0.08947961 -0.19733305 -0.07634675 -0.19505732 0.099697046 -0.073672056 0.22707254 0.014244912 -0.07320123 0.28164345 0.009891469 0.036469467 0.0045110546 0.3448014 -0.14949949 -0.06911637 0.03403425 0.22621305 0.02313079 -0.08631202 0.18483664 0.18797335 -0.11391789 0.28373632 0.13558742 0.05889883 0.041232962 0.02579213 -0.14401044 0.30274865 0.100425586 -0.08354011 -0.2621538 0.14371555 -0.05761757 -0.3860675 0.047045283 0.18249074 -0.19336343 0.003923385 -0.107667685 -0.06770078 0.10641165 0.041826304 0.18693261 -0.019861562 0.083500266 0.20865977 0.14066961 0.17877316 -0.15776712 0.19595379 -0.06486375 -0.13390751 0.5264375 -0.07903547 -0.24754213 -0.29827636 0.065627925 0.047026563 -0.013752914 0.021097029 -0.39361185 0.20470086 0.061349154 -0.03843596 -0.22046006 -0.20369756
是 -0.17968881 0.0036849785 0.29832414 0.36541528 -0.0025448652 0.09453841 -0.29886243 0.1876227 -0.08821544 -0.052449107 0.18788455 -0.25812352 0.050573193 0.078722656 0.109134614 0.114255585 0.07252063 0.018833745 -0.08984349 0.426501 0.055636823 -0.26767525 0.35141966 -0.064870134 0.089735374 0.27601653 0.16646478 -0.019847652 -0.2020309 0.12674448 0.047248796 -0.102786094 -0.009098827 0.13890404 0.11049921 0.108913034 0.14861463 0.23052047 0.21606275 0.29391173 -0.1413698 0.19818349 -0.04895759 -0.056918185 -0.026324937 0.058734704 0.048080593 -0.17189735 -0.3464706 0.041258134 -0.37466228 -0.12469894 -0.21894935 -0.0365266 0.029487569 -0.068167366 0.31231216 -0.120302275 -0.20380412 -0.0622249 0.20291987 0.01885314 0.18833952 -0.2774309 -0.037325297 -0.20404828 0.42117667 -0.07438697 -0.15645964 -0.03807436 0.19361162 0.17274822 -0.4226823 -0.04174416 0.06115876 -0.17896794 -0.0018705712 0.004614733 0.0809957 -0.04958401 -0.16758195 -0.12705004 -0.0061625442 -0.061215755 0.43408924 -0.07348605 0.5776972 0.22686 0.13860123 -0.14044534 -0.4529012 -0.05895478 0.030341836 -0.0036403062 0.25178194 -0.21467313 0.23450138 0.29958984 0.055553887 -0.005319199
哉 0.44384313 0.26391223 0.31356582 -0.0072741983 -0.10853798 0.284343 0.22752622 0.01039844 -0.044454955 -0.0052775606 0.11350006 -0.062324524 -0.18127434 -0.3048659 0.28397644 0.3130752 -0.047514413 0.309978 0.18667994 -0.16336823 0.16970174 0.31957585 -0.08325397 0.30036288 0.05546313 -0.05050744 -0.18405817 -0.057617396 0.23681028 -0.16950768 0.058363795 0.14736848 -0.037932165 0.28145307 0.04814056 -0.109958544 -0.0010478068 -0.14934316 0.366593 0.19024134 -0.08182174 0.033915963 -0.06615672 -0.2453589 0.27364695 0.014031496 -0.23769747 0.23458962 0.06362397 -0.15056992 -0.13130464 -0.23392682 0.061793357 -0.034426235 -0.10528759 0.19613339 0.2722113 0.49698177 -0.16895272 0.11393033 0.10023306 0.067659914 0.01002692 -0.18886013 0.27192298 -0.071089365 0.08479478 -0.27504748 -0.24236365 0.043948334 0.02231941 -0.016992792 -0.043264754 0.014358632 -0.020348754 -0.14689732 0.050958868 0.13512681 0.17084803 -0.07966265 -0.019901892 -0.035743482 0.15487559 0.006398471 0.44277814 0.020733094 0.9647189 0.03862625 0.057138223 -0.09416389 0.3186441 0.3296637 -0.04694054 -0.25981897 -0.4148791 -0.17819506 -0.575892 -0.12231656 -0.1549185 -0.07611266
闻 -0.062307697 -0.018568834 -0.0892921 -0.16176075 -0.4650968 0.100814536 -0.1812245 0.21499224 0.04641689 0.3311602 -0.03365806 0.15848047 0.40895915 0.11003601 -0.31569424 -0.2928794 -0.19191559 0.027119726 -0.41551822 0.22512479 0.22959872 0.014669643 -0.23153377 -0.2220602 -0.044280626 0.051328946 0.3390853 0.06513483 -0.0934561 -0.11536018 0.033323016 -0.0139784375 0.27847776 0.16939491 0.21741834 -0.008229395 -0.22223902 -0.031470276 -0.3172686 -0.091540165 0.06328808 -0.040217906 -0.16375597 -0.13624263 0.064053126 0.24810037 0.29558983 0.25623918 -0.2541279 -0.18149868 -0.2195338 0.10316565 0.2682907 0.22029896 -0.09950579 0.1118872 0.071370006 0.24780211 -0.2730072 -0.019064197 0.05958712 0.16410905 0.15887907 0.011954484 0.05130002 0.008406201 0.1079876 0.09358015 -0.058427982 0.0048451074 -0.23177437 -0.22796929 0.0029708578 -0.19164942 0.22562957 -0.20103016 0.13244313 0.5131465 0.061228797 0.08917767 -0.2598895 0.1276153 0.16954084 -0.05922825 -0.10024667 0.18705262 0.6243103 -0.13707262 0.22775519 0.055141084 0.1441505 -0.2248043 0.17455079 -0.0211291 0.10767653 0.045431163 0.13615212 0.2382625 -0.4263523 0.19234952
未 -0.21813408 0.25655374 -0.18031965 -0.16307718 -0.15707292 -0.12061187 -0.1632035 0.002367951 0.24358873 -0.22803673 -0.03138979 -0.1666774 0.27812743 0.119357735 -0.3262612 -0.075199135 -0.11839338 0.15801883 -0.13121362 0.23795031 -0.00855277 -0.032711342 0.1624522 0.1884402 0.022088358 -0.003055429 -0.050695263 0.120651715 -0.20720859 0.18649904 -0.075718604 0.07632952 0.10344435 0.18386482 0.0958787 0.03309715 -0.20662178 -0.014283564 -0.22132093 -0.104045905 0.16591142 0.3483984 -0.025940808 -0.018692639 -0.18468367 -0.13832203 -0.29681543 -0.0021340507 0.021608224 -0.11432542 0.22995873 -0.03984117 0.20493132 0.016352214 -0.22533453 -0.113853894 0.062187087 0.00746647 -0.090895586 -0.089359224 -0.17760888 0.10973106 0.0961271 -0.23134196 -0.0037089535 -0.18567473 0.33072764 -0.008094616 0.28887746 -0.093201034 0.0672459 -0.04673596 -0.358734 0.02177316 0.08486482 -0.14587186 0.16762012 -0.23751488 -0.24182513 -0.005545178 0.16768423 -0.1970418 0.123587936 -0.32922474 0.10361445 -0.10270382 0.58613664 0.16485035 0.25078464 -0.05822059 -0.17076169 0.16250052 0.096262254 -0.14119637 -0.098796636 0.12079489 0.03223297 -0.18401444 0.16200039 0.11340485
公 -0.26198053 -0.4622953 0.2258304 -0.19655748 -0.03998818 0.121339165 0.02907439 0.067784786 -0.17283711 -0.15789133 -0.018433932 -0.16406837 -0.14203769 0.24074842 -0.17746106 -0.0026042932 0.00017572963 0.13855097 -0.27259514 -0.09301514 -0.057050467 -0.29599354 -0.11707137 -0.012463501 -0.5858443 -0.023936471 0.058448896 -0.06663507 0.2757174 0.12949055 -0.16351296 0.44797504 0.55175185 0.2824418 0.042024117 0.21064167 -0.06342146 -0.07821728 -0.27971005 0.19301844 0.3556152 -0.092140906 -0.034802914 0.05162498 -0.29173955 -0.071284115 -0.17851692 -0.23309359 0.40117094 -0.2513407 -0.06961553 0.14510138 -0.20150435 -0.14875494 -0.059168898 0.25079247 -0.04635285 0.051269718 -0.18477617 -0.1545612 -0.22967203 0.043321457 -0.25652888 -0.13703325 0.15032499 -0.12103227 -0.25839242 0.124461286 0.31325108 0.12660185 -0.0053530834 0.1734764 0.24983029 0.16229704 -0.18716109 -0.13834554 -0.08539683 -0.32009697 -0.2456599 0.14085221 -0.16996853 -0.09171064 0.045773886 -0.010857623 0.29899913 0.20423119 0.6723909 0.15607615 -0.1566929 0.060924307 -0.14292505 -0.007263707 0.058993123 -0.15520507 0.039737992 0.20891899 0.345395 0.11614908 0.23284595 -0.059217643
好 -0.18206808 -0.17356035 -0.41592082 0.26070657 -0.017413784 -0.4315664 0.035779804 0.090421855 -0.040805742 0.015919391 0.100581855 -0.09690276 0.016070558 0.17297474 0.12603638 0.24289021 0.064722866 0.117275916 0.015734332 -0.10592228 0.3531208 -0.18929724 0.15524673 0.3305089 0.18549386 0.07019143 0.4034615 0.16463754 0.3512172 0.060158662 0.10771476 -0.19844659 -0.023760773 -0.023177912 -0.04531651 -0.38616124 0.110741824 0.25773582 -0.010941399 -0.08851638 -0.24552536 -0.00970906 0.122768626 0.184858 0.112645015 0.12690172 -0.13634121 0.5577787 0.2702632 0.13146816 -0.055621363 -0.16873732 0.041126072 0.42450482 0.015922315 -0.053263027 -0.0995054 0.12850712 0.12855585 -0.16833115 0.20840001 -0.47820023 0.1592088 -0.11320099 -0.40211225 0.097326905 0.058914937 -0.08267082 0.05662445 0.02135056 -0.19287297 0.11214136 0.10407777 -0.2969897 0.1088212 -0.16049057 -0.23496942 -0.3211618 0.087848246 -0.02341457 -0.06930221 -0.18911679 0.28659993 -0.045684274 -0.062904485 -0.06855354 0.639291 0.2568532 -0.21465077 0.05145854 -0.042916857 0.18835151 -0.05311467 0.05910012 -0.16756038 0.3133933 0.063070595 -0.21894847 0.20802836 0.16025013
我 -0.21192862 0.060187906 -0.006551044 0.35248634 0.510282 0.0006760142 0.24066037 0.010926647 -0.23635677 0.48054487 0.17746961 0.41964763 -0.09164782 0.006246255 -0.18192832 0.037199948 0.044306226 -0.07119275 0.08734705 0.113481775 0.06686282 -0.21352431 0.27603742 -0.304078 0.07351358 0.0345856 -0.013049496 0.14565292 -0.028923413 -0.016230773 -0.05009607 -0.23217973 0.07816398 0.1699284 -0.12934998 -0.009545609 -0.09748307 0.071987316 -0.115739614 -0.04601207 -0.12421629 -0.124474876 0.21947522 -0.085669845 -0.11972234 0.07297138 -0.08132525 0.015309842 0.14817165 0.12480427 0.22549045 0.13153711 0.06186609 0.15927 0.104246825 0.05440034 0.033500366 0.05295203 0.101342134 -0.4110516 0.027551124 0.09890707 -0.22750099 -0.13334936 -0.073723294 0.094268784 0.10750186 -0.088953465 0.29114586 -0.29132473 -0.07986307 0.32383156 -0.108076185 -0.23003441 -0.08515822 -0.35868973 0.3702641 0.15760048 -0.037373833 0.3073361 -0.013500888 0.01830481 -0.20304447 0.33981043 0.16518229 0.08523139 0.6548522 0.017192908 -0.13360672 -0.117293775 0.08888958 -0.38475496 -0.077828266 0.32306048 -0.07884599 0.037082333 0.12457871 -0.2050718 0.018148277 0.29655176
路 0.08612483 -0.00013765646 0.1152693 -0.32456416 0.13839875 0.18187696 0.037978027 0.20452815 -0.18490234 0.038922805 0.04145958 -0.3188352 0.24170746 0.38056377 0.029463999 -0.053179428 0.23282751 -0.14393386 -0.065149985 0.20312393 -0.13588625 -0.3342876 0.08308049 -0.33962783 0.06374379 0.19217809 -0.10981625 0.121004954 0.20228927 -0.27520517 -0.09102094 0.19514158 -0.056283895 -0.3620793 0.16334298 0.09839585 -0.0047979015 -0.031215452 0.1570012 -0.08473255 -0.23257434 0.26200318 -0.022734676 0.21279733 0.07679305 0.08485894 -0.004582568 -0.15941164 -0.067593046 -0.034349892 0.069265395 0.13408084 0.036507737 0.008283964 -0.3607729 0.07373431 -0.20200185 0.015126358 0.25775123 0.19396341 -0.08160302 0.19399466 0.08274525 -0.20293479 0.22960235 -0.014163865 0.1332129 0.28283405 0.14804095 0.43760228 -0.055923264 -0.0995853 0.38878998 -0.16044554 -0.047655914 -0.2680145 -0.2553616 -0.22497362 -0.16588652 0.19342469 -0.0762221 -0.21409819 -0.2060528 0.003559328 -0.0038937246 0.026118908 0.8839391 0.5764994 0.25601372 0.2299813 -0.024408055 0.1790946 0.11570863 -0.25806212 0.06603427 0.033450548 0.18031803 -0.011559748 -0.1065384 -0.09144687
在 -0.29196674 0.25050232 -0.5138643 -0.07621902 -0.010995194 -0.02975421 -0.00031351112 -0.16909285 0.22901432 -0.15721166 0.02241611 -0.05174436 -0.056831595 0.22907244 -0.026855372 -0.21649925 -0.25773913 0.20131782 0.3474487 -0.06168235 0.28118983 -0.19554618 -0.12119921 -0.6290137 -0.21069945 -0.25991923 0.10913304 -0.135022 -0.051128868 -0.0074050054 -0.027250584 -0.16883062 0.035726048 0.35188642 0.02390297 0.07066724 0.03037548 -0.06281029 -0.004051224 0.12846977 0.04738611 -0.074986786 -0.1536834 -0.07565961 -0.13777176 -0.13629563 -0.096548304 0.14647114 -0.4623337 -0.5408818 -0.0005907016 -0.19955865 -0.04407431 0.20268472 0.13932393 0.22257526 0.31656334 0.08126137 0.224781 0.11463083 0.024376724 0.35758227 -0.033212572 0.33196446 0.005928682 -0.14665543 0.1889004 0.08334731 0.19163488 -0.1496709 -0.43046218 0.36119166 -0.360487 -0.2504379 0.36604166 -0.20376535 0.18359204 -0.14874575 0.1385689 0.38840672 -0.025967505 -0.030125322 0.04827867 0.32164365 -0.13136646 -0.17952898 0.61563987 0.0496774 0.3057672 -0.17566706 -0.111580454 -0.22355273 -0.18103196 -0.26012444 -0.07004394 0.09960314 0.05405836 0.016104214 0.012825169 -0.12189769
已 -0.0710479 -0.21792531 0.30318567 0.052764304 -0.23287238 -0.06863962 0.11475881 -0.0017493645 0.030186992 -0.34430635 -0.13490851 0.41643113 -0.09711831 0.18620272 -0.057274755 0.014074577 -0.12893915 0.16779844 0.19697596 -0.11105542 -0.08473521 -0.27132607 -0.14515252 -0.20072535 0.27764526 0.0025314428 -0.11694084 0.5762405 0.24800749 -0.30105647 0.47967163 0.2653589 -0.01618619 -0.07075992 0.12135123 -0.040152382 -0.015334336 0.17044222 0.030695772 0.18189669 0.08851917 -0.16114908 0.19008268 -0.26619905 -0.115411066 0.037565894 0.19696687 0.43680918 0.013912153 0.30663186 -0.11717497 -0.035669327 -0.08913406 0.24886401 -0.03272685 0.1358174 0.10582235 0.23559928 -0.13880886 0.068671525 -0.14797094 -0.09972916 0.14203396 0.10216738 -0.3096976 0.083423056 0.266794 0.41842636 0.004626603 0.06901908 -0.4461254 0.231183 0.31260675 0.022496806 -0.120723605 -0.36940858 -0.022333397 -0.067253105 -0.16951837 -0.27725032 0.15379757 0.08331619 -0.0026214896 0.0066195824 0.018953133 -0.06443892 0.7462023 0.27502465 0.21322137 -0.013343087 -0.32464293 -0.031832322 0.18449149 -0.08088881 -0.20082885 0.07351637 0.26286042 -0.10705739 0.19027476 -0.08849271
得 -0.24595058 -0.09028761 -0.17761907 0.030577118 -0.016307572 0.13704921 -0.25254506 0.05734875 0.2728315 -0.13323052 -0.10540614 0.049969528 0.14108108 -0.051355176 0.09153779 0.02905654 0.010823134 0.29124847 -0.35237148 -0.32266337 0.118527934 0.04740307 -0.09973407 -0.20755474 -0.15152329 0.068342194 -0.12538709 0.23213914 0.08040433 -0.14305292 0.064362705 -0.062647335 -0.11697918 0.05148489 -0.025345815 0.15695815 -0.093587935 -0.513412 -0.17938498 0.053332154 0.021166125 0.08296245 0.065595604 -0.12129898 0.00026863068 0.04313045 0.09075276 0.24182367 0.22948097 -0.078140266 0.2860541 0.022960633 -0.2864042 0.15901695 -0.34051225 -0.004545746 0.14609809 -0.29169 -0.19297318 0.032086533 -0.14928845 -0.25765768 0.16434266 0.1511401 -0.5206335 -0.18008043 -0.1506089 -0.06494914 -0.097357206 0.21245551 0.036640298 -0.18181057 -0.29041785 0.07032411 -0.28614768 -0.22608146 -0.13117777 -0.19417678 0.093414605 0.25868464 -0.1958029 -0.08587405 -0.020085327 0.13832417 -0.19064736 -0.048968855 0.37185505 0.16030422 0.17973925 -0.25778282 -0.5083698 0.07760612 -0.030971121 -0.19280821 -0.029096417 0.2568792 0.20337544 -0.124717735 -0.016033763 -0.15010896
所 -0.10511169 -0.16910422 -0.05255591 0.037123375 0.19568738 0.17472205 0.060311668 0.21405484 -0.3379673 0.121043116 0.24778172 0.29694545 -0.00011153333 -0.08621569 0.5390948 0.1171271 -0.31499812 0.0009982537 0.19744867 -0.16271308 0.05644846 -0.005372715 0.0637574 -0.005566092 0.08468463 -0.15158755 -0.18568547 -0.21075642 0.05997227 -0.21219087 -0.008021805 0.03507835 -0.19119762 0.23736902 0.19455425 -0.016910996 -0.0454775 0.23393339 -0.105362676 -0.06229357 -0.10251252 0.2328782 0.052930072 0.09456173 0.04871122 0.0097266715 -0.14539772 0.0796757 -0.003269928 0.059727866 0.22583577 -0.15480453 -0.035013728 0.14246365 0.047521684 -0.024478536 -0.073473595 -0.030364692 0.12738259 -0.38592994 0.27689877 0.14631636 -0.18166292 -0.025427293 -0.3302691 -0.3272411 0.021405494 0.067905195 -0.13069966 -0.13770485 -0.17997599 -0.057133827 -0.011817174 0.053082682 0.09156323 -0.4569011 -0.21980514 0.21149798 0.041881714 -0.35910562 -0.262094 0.40455258 -0.09362265 0.0585293 -0.11625684 0.22379287 0.46934998 0.07127771 -0.10320476 -0.10025312 -0.18651591 -0.12963217 0.0085838735 -0.17018282 0.17767313 -0.18894798 0.018650793 -0.14254412 -0.09664589 -0.2243155
民 0.03717451 -0.08579302 0.23296677 -0.00238684 -0.07841424 -0.5841697 -0.15446271 0.2260112 -0.21231025 0.026708726 0.14641076 -0.17432837 -0.04330814 -0.030841706 0.14055496 0.26952916 -0.040495027 0.1084068 -0.46510702 0.18697931 -0.123550594 -0.24022725 -0.16224687 0.093662605 -0.24264096 0.07241549 -0.43637392 0.13996628 -0.017422091 -0.010582324 0.15171178 0.08139078 0.09657654 -0.061985724 0.28765562 -0.0097025875 0.081850566 0.08102391 0.10485465 -0.14418489 0.012786159 -0.16807854 -0.19528651 -0.15402621 -0.06777182 0.2677199 0.09791984 -0.16473581 -0.19998279 0.18704739 -0.10291906 0.19883257 -0.10049326 0.256226 0.18609941 0.05255263 -0.016065165 0.107695684 0.10847372 0.16252673 -0.09345091 -0.087926954 -0.25192812 -0.15444596 -0.5677645 0.07283295 0.047710948 0.041217368 -0.39091015 -0.3504944 0.019004038 0.28615376 -0.26344886 -0.007458704 0.3345007 -0.0021921615 -0.13697414 -0.07622114 -0.15657099 -0.0033375225 0.2971762 0.17003989 -0.34964195 0.06279405 -0.045745365 0.027188376 0.45690197 -0.19109756 -0.100911275 -0.25033295 0.038948867 -0.2696121 -0.16535315 -0.3296113 -0.21477762 0.22568768 -0.31425294 0.089400806 -0.14334856 -0.06580882
小 -0.055559866 -0.0091202175 -0.10710241 0.26178494 -0.007876543 0.0048060445 -0.34662807 0.13772182 -0.33476365 0.26393786 -0.042130318 0.059625976 0.1290309 -0.007810591 -0.08518638 0.0065321056 -0.2904008 -0.20305663 0.032721613 -0.01619326 0.050128732 0.2126037 0.072052084 -0.3543823 0.06422487 -0.011174588 0.15714459 -0.20455895 -0.062731445 0.34745643 -0.1000361 -0.10550305 0.15127808 -0.03554841 -0.09720917 0.03523875 0.117308386 -0.0329974 0.098657206 -0.009670279 0.35450235 -0.027682452 -0.61626095 -0.058078308 0.1187238 -0.113362275 -0.11679033 -0.2487876 0.10975716 -0.1835671 0.15566076 -0.13540044 -0.0013521966 -0.022200854 -0.45151806 0.45205402 0.084500484 0.1381335 -0.19890271 0.10686385 0.009473378 -0.2401995 -0.16277957 0.0247217 -0.13563237 0.28298113 -0.24425445 -0.121066324 -0.028656935 -0.19588612 -0.036376897 0.07890345 0.23568836 -0.04884324 0.06436634 0.121065885 -0.022913672 -0.3320337 -0.16211142 0.07827077 0.12374544 -0.21747425 0.28078145 0.04318598 0.04612919 -0.20720747 0.6912801 0.073988594 0.06358374 0.11428923 0.23375213 0.027845042 -0.14092259 -0.2741982 -0.014035462 -0.0979857 -0.26102585 -0.13180116 -0.036086522 -0.06322784
天 -0.043338135 -0.12387681 0.27903628 0.19574143 -0.16376005 -0.08218551 -0.09150343 -0.1614595 -0.055910185 -0.07555363 0.22637886 0.053455018 -0.05444465 0.1397047 -0.060712304 0.2453003 0.09588206 -0.09378285 0.13137424 -0.0664016 -0.04742874 -0.15954213 -0.22533819 -0.41257322 0.15115774 -0.024782866 -0.03453877 -0.037090868 0.14360575 -0.12725478 -0.1681571 -0.041584305 -0.11422278 0.651549 0.41793615 -0.07733512 0.14094807 -0.19679771 0.11869861 -0.3876023 -0.09303509 0.03295463 -0.28120315 0.090948924 -0.22015843 -0.27853164 0.084000066 -0.28424382 0.07480009 0.13783807 0.30022725 0.08033608 -0.30277926 -0.40851173 0.35234848 0.047790926 -0.0061719343 0.14645721 0.23304743 -0.17335209 0.24604857 0.04726076 -0.098683074 0.14178945 -0.10290138 -0.051487137 -0.017035807 -0.27501738 -0.20459719 -0.31067863 -0.039978795 0.087044254 -0.010855755 0.05431419 -0.41813192 -0.17751771 -0.01668873 -0.10080573 -0.336331 -0.377733 0.0795431 -0.055459023 0.008945659 0.076354586 -0.08034552 -0.062231436 0.6272848 -0.11238787 0.07703362 -0.071020216 -0.013749419 -0.5400562 -0.16687693 -0.50349694 -0.15523952 0.19766067 -0.24577364 -0.02852188 -0.0030595355 -0.06260791
乐 -0.11703162 0.2731688 0.09793882 0.20710148 0.20665337 -0.16228284 -0.22186285 -0.2066304 -0.2793876 -0.055421762 0.2297742 -0.015457381 0.2921617 -0.39753273 -0.34556583 0.080894485 0.14262022 -0.04753746 -0.07697571 -0.0896033 0.198888 -0.03686498 -0.5145802 -0.2884536 -0.10711478 -0.0175089 0.1085959 0.018563412 -0.006125085 0.4919165 0.0952745 0.23200318 -0.1529714 0.075663984 0.20813073 -0.001428884 0.028809676 -0.13031083 0.15227023 -0.27936536 -0.40265012 -0.058652315 0.17783792 0.24575219 0.25227833 0.014488401 0.29938897 0.31265062 -0.12746948 -0.2688678 0.12710977 -0.36107177 -0.06380333 0.21865755 -0.1678226 0.24349599 -0.018855728 0.18730244 0.21789709 0.25255588 0.30911157 0.22339627 -0.2224108 -0.4003889 -0.6055811 0.16140197 0.1358752 0.15451069 0.23117968 -0.116542354 0.18956244 -0.11256076 0.20927666 -0.11576545 0.072819196 -0.4435554 -0.19883187 0.41445622 -0.4202021 0.40834576 -0.108667836 -0.09998929 0.059906404 -0.006873248 0.31865242 -0.17311607 0.49786505 -0.003904201 -0.06034202 -0.42002472 -0.06411317 -0.050833963 0.19102801 0.11985254 0.34789637 -0.0051813577 -0.13197707 -0.20821983 0.15139352 -0.042594858
邦 -0.08560043 -0.03598027 -0.13676174 -0.5028272 0.047652867 -0.14219636 -0.08667923 0.12492725 -0.08072749 -0.20979907 0.2855502 0.05076809 -0.14472233 0.02620039 -0.084346436 -0.16746779 -0.060574807 -0.25365078 0.34432566 0.16405764 0.18243182 0.013451969 -0.14508668 -0.008637805 -0.14851618 0.13663238 0.19913849 -0.004719996 0.023563389 0.2802041 -0.15744652 0.2495958 0.03803254 0.1701507 -0.0654392 0.02900975 -0.13859574 -0.09928118 -0.067192875 -0.08036713 -0.16110861 0.111148484 -0.34369206 -0.2292182 -0.09412785 0.016595116 0.17332971 -0.22433479 -0.15749696 0.027891845 -0.063433915 -0.19514257 0.08627327 0.4195586 -0.05546057 0.5361372 0.29827473 0.35250574 0.10719634 -0.09429234 -0.017433636 0.024624294 0.060256742 0.07852773 -0.07131555 -0.18360855 -0.0054463428 0.25879216 -0.041110773 -0.2160675 0.2874788 -0.04618441 0.19246306 0.16542344 -0.29836115 -0.076590665 0.2680111 -0.024703767 0.004157233 0.16110924 0.0019460032 -0.12706423 0.06927896 -0.2933612 -0.06786086 -0.00544349 0.63542783 -0.13215357 -0.20164111 -0.06841153 -0.2998648 -0.023811983 -0.34846413 0.20653394 -0.061993904 0.15933567 -0.14096415 0.71102023 -0.039372347 -0.18952526
亦 0.15278831 -0.077082925 0.30252743 0.18858708 -0.15404464 -0.015378075 -0.13756858 -0.2225863 0.22365144 -0.086160704 -0.1364182 -0.09780659 -0.2659868 -0.16789186 0.041484844 0.22780629 -0.23107353 -0.096695445 -0.028413536 0.10384716 -0.16151373 0.13972454 0.04830705 0.017754426 -0.050232295 0.14726159 -0.079337105 0.0029683877 -0.24015927 -0.22977267 0.39563692 0.14539185 0.04887862 0.29782858 -0.12306241 0.2640307 0.016004814 -0.14293928 0.081360206 0.19327676 -0.017436046 -0.045553204 0.060894582 0.05503783 0.1837462 -0.45422152 0.011702615 -0.24890938 -0.14955 0.0020819413 0.01082981 -0.11935168 0.088625066 -0.5197682 -0.1405974 0.10822409 0.0044025993 -0.13654001 0.05531491 -0.0342894 -0.14541116 -0.14593154 -0.06252064 0.12549588 -0.22938508 0.34934497 0.44689924 -0.14969364 -0.20345242 0.082045116 0.02387712 -0.09605636 -0.13690145 0.16176155 -0.113903396 -0.11459593 -0.24244148 0.12270443 -0.15932456 -0.08491663 -0.1954262 0.16930984 0.21622893 -0.04613551 0.4202 -0.08910479 0.6289847 0.22833009 0.091350675 0.39005834 -0.18576875 -0.36513138 -0.21291465 -0.109304905 -0.22926874 0.16289236 -0.39900744 0.21838668 0.11533194 0.24168138
使 0.18842238 0.14129296 0.13204391 0.12727545 0.10297732 -0.28127277 0.088672526 -0.2903193 0.05536058 -0.10475485 0.17923379 0.03292109 0.37096193 0.10881798 -0.0597391 0.24021438 -0.078647844 -0.24316156 -0.26769608 0.18714583 -0.0011583883 0.007263291 0.22217605 0.13278885 -0.04834054 -0.6381733 0.18847647 0.06943667 0.107260086 0.03960667 0.29197782 0.20164518 0.064469784 -0.05431609 -0.20543396 -0.34356356 -0.0596291 -0.24600592 0.07907321 0.09325301 0.00216458 -0.078944884 -0.11456656 0.28847584 0.037600137 -0.14546415 -0.33846095 -0.12482665 0.2776144 0.036924675 0.20766741 0.3872635 0.2568773 0.3647432 -0.2125455 -0.3991876 0.007855098 -0.04174618 -0.25754228 0.011965619 0.10112108 0.10874759 0.29033673 0.06757002 -0.45111543 0.27455714 0.15762387 -0.10207717 0.07886399 0.18376821 0.047264248 -0.025627853 0.25539193 -0.24891369 -0.20053436 -0.061518405 0.0132901035 0.35532916 -0.006603089 0.23230818 0.21083215 -0.33273292 0.107613556 -0.01326675 0.06574147 -0.03650962 0.7304509 -0.07861984 -0.15402532 0.08095982 -0.32809833 -0.12628868 -0.21897797 -0.26973486 -0.26474053 -0.42114633 0.03671161 -0.015912699 0.16436103 0.018352985
大 -0.5085485 -0.20518112 -0.23537347 -0.036651533 0.056733556 -0.22191623 -0.029002527 -0.007180622 -0.2124638 -0.39882243 0.2960776 -0.10050281 -0.076491944 0.3958272 -0.21251158 0.09285238 -0.042199638 0.05760501 0.19342992 0.10981008 -0.14649422 0.29318076 0.02503826 -0.13411461 -0.4015996 0.09699171 -0.0528078 -0.18304603 0.1238124 0.12155043 0.02253138 0.098516546 -0.15222472 0.07240009 -0.07978615 -0.004786449 -0.21306022 0.25999826 0.026244119 -0.10482668 0.40022177 -0.29349494 -0.04249283 0.08875725 0.31088436 0.20398669 0.2567308 0.101688884 0.20789689 0.093360655 -0.04126393 -0.07428618 -0.1937108 -0.13647117 0.14526446 -0.07560272 0.062446687 -0.19100353 -0.17732386 -0.0037259678 0.0059232824 0.0987573 0.273965 0.007193116 -0.24906057 0.5130063 0.017294329 0.15373498 -0.083639234 0.18066916 -0.18586709 0.22674973 -0.1033654 -0.2618401 -0.030800113 -0.062668286 0.21322435 0.027722988 0.0133205075 0.1360226 -0.03806298 0.069337696 -0.06284601 0.23606879 0.29095152 -0.12635475 0.5219182 -0.08806336 -0.10926952 -0.12947638 0.22985439 0.14364478 -0.14100823 -0.28001696 0.28919956 -0.21695352 -0.22747834 -0.21373497 -0.12914659 0.392144
下 -0.012580444 -0.39595446 -0.5304694 -0.10365329 0.06468237 -0.2070013 0.18277134 -0.3015506 -0.16084142 0.05843941 0.13907939 0.11597465 -0.15921709 -0.056522194 0.034153506 0.03407158 -0.16424592 -0.07289678 0.31209353 -0.042047944 0.056672063 -0.10026655 0.17917992 -0.05559671 0.1942221 0.075070046 -0.25807175 -0.20287673 0.13185893 0.058335647 -0.31604746 0.22477756 0.35197964 0.18508591 0.082514845 0.1350326 -0.1600596 0.11576363 0.12874691 -0.1529493 -0.4635562 0.11851787 -0.39865234 0.06063585 0.19182774 0.17213975 0.21178675 -0.13004863 -0.12847619 0.4629356 0.14302668 0.26507014 0.1377585 0.06923385 0.18958424 -0.07244977 0.11421882 -0.17051937 -0.025393695 -0.30592763 -0.079785794 0.6385649 0.11009635 -0.34461492 -0.20508659 0.09387199 0.59583116 -0.18538506 -0.21642871 -0.27399227 0.3946933 -0.013739741 -0.09366804 0.020826643 -0.0119489925 -0.12806468 -0.05699437 -0.30601037 -0.19031566 -0.22588427 -0.06604544 -0.15809466 -0.026801482 0.2082582 -0.06266301 -0.37111044 0.6055784 0.11578936 -0.071719825 0.16876186 -0.14154331 -0.28668234 -0.20762174 -0.017981475 0.071474 -0.24167717 0.17689684 0.012684843 0.005642608 -0.19877508
贡 0.14045891 -0.11387905 0.25988203 0.20192166 0.28743598 0.16849375 -0.25924015 0.2640926 -0.3238171 0.15142602 0.2023502 0.5374393 -0.044576943 0.028760415 -0.17329864 -0.26347107 -0.15773243 0.16067944 0.30051854 0.29033908 -0.04345846 -0.13792485 0.05646313 0.0680965 0.10426539 0.08615584 -0.028140837 0.40109134 -0.17779154 -0.05943074 0.012041795 -0.0963517 0.1242202 -0.21229567 -0.025765102 0.29294232 -0.019430762 0.29663187 -0.0006621126 -0.343957 -0.22031714 -0.22736275 -0.36580223 -0.04130287 0.10987786 -0.019947268 0.33723506 -0.35058662 0.043559644 0.014679267 -0.2313359 0.025629558 0.059701964 0.07213024 -0.039806213 -0.15418093 -0.37859735 -0.28463736 -0.1611123 0.007982723 -0.47600904 -0.18964423 0.09935422 -0.05106036 0.5527036 -0.11877799 0.2672446 -0.02021157 0.1710476 -0.32524613 0.29940662 0.01661777 0.22216773 -0.12290162 0.35624892 -0.25490513 -0.28409576 -0.10245134 0.10400711 0.4459873 0.033862334 -0.07472064 0.15837494 -0.08741582 -0.18031763 -0.26237276 0.93445057 0.36239907 0.1151042 0.098304704 0.124861434 -0.09165036 0.30470443 -0.0052306727 -0.031622943 -0.27093622 -0.02345069 0.05859438 0.1211094 -0.04317683
欲 -0.12976685 0.049234558 -0.007711769 0.17454477 -0.0331764 0.32198772 -0.24188788 -0.10991287 -0.07598306 -0.03628398 -0.14563206 0.028749956 -0.061830267 0.61983275 0.21377423 -0.00249263 0.5418803 -0.06588382 0.03545351 -0.09006096 -0.06518717 0.14049365 -0.2326609 -0.06415922 -0.4607315 -0.18366084 -0.21776031 0.070818886 -0.11061867 0.09167633 -0.16079134 0.2445049 -0.094518885 0.2943483 0.0886224 -0.067493126 0.11279332 -0.32841098 0.28547168 0.08560781 0.0057505365 -0.024909338 0.1324385 -0.13559447 0.017891664 -0.4454755 0.3059255 -0.08848763 -0.052915256 -0.10274522 0.39014208 -0.1792579 0.08341086 0.12699237 -0.07306789 -0.031294208 -0.112216465 -0.20864952 -0.25595328 0.00094108284 0.19475688 0.26330012 -0.13993962 -0.14961113 -0.25647724 0.03223221 -0.2468582 -0.06429764 -0.20790417 0.1453728 -0.2759573 0.3113739 -0.09745708 -0.0017060973 -0.091519006 -0.40460992 0.034006026 -0.46865234 -0.08785513 0.06129478 0.18909745 0.041907422 -0.16471641 0.35118553 -0.10030373 -0.26069263 0.49616402 0.015703 -0.2593498 0.07061247 -0.020578684 -0.0008371854 -0.14916553 0.21530114 -0.15748346 -0.20331338 0.03796883 -0.15713474 0.061263405 0.14970468
诸 0.1846039 0.18373099 0.22545369 0.17104942 -0.022876576 0.46199197 0.11762469 0.00039431127 0.04418782 -0.05650586 0.1666396 0.44289538 0.17803352 0.24805957 -0.15832965 0.13762724 0.04617578 -0.102322325 -0.0058727944 -0.02505902 -0.2629102 -0.18666881 0.13035424 -0.17230995 -0.2735375 0.046084646 0.23344636 -0.044324134 0.17330527 -0.032528155 -0.45726496 0.13662803 0.1817022 0.0611279 -0.2667533 -0.043714006 0.2707282 -0.000120900106 -0.18360217 0.111172296 0.20490707 -0.15497479 -0.026482364 0.13412918 -0.040382337 0.26035303 -0.11211249 0.1845252 -0.26226503 -0.062229447 0.18067728 0.4223989 0.0124559915 0.25972316 -0.260024 0.13049042 -0.41672564 0.030024355 0.021489386 0.6198356 0.032019313 0.117080934 0.21173714 -0.1781199 -0.06759184 0.097815566 -0.2883228 -0.0036748291 0.08424937 -0.3133933 0.017757552 -0.5178412 -0.235864 0.07436052 -0.08252026 -0.38981408 0.107804924 -0.5180397 -0.052076135 -0.32487476 -0.08298005 -0.1488837 0.052441068 -0.008453816 0.38852617 0.005037294 0.7453898 -0.3069469 0.18608174 0.35861054 0.477377 0.00060695014 -0.060934972 0.13973784 0.19135885 -0.15924108 -0.12604238 -0.24852504 0.3051022 -0.114484474
从 0.37802052 -0.020598462 -0.32142213 0.027220938 0.09496908 -0.009603502 -0.2004555 -0.24475953 -0.15679507 -0.27496344 -0.0071927058 -0.21341379 0.00947635 0.07651028 -0.1948032 -0.046303242 -0.22386913 0.06944237 -0.25890073 0.19217391 0.24096751 0.10339421 0.04191884 0.10438149 0.23271836 -0.07688422 -0.45662987 0.1658355 -0.24425109 0.22045624 0.046996195 -0.12776959 -0.08100028 0.13280159 0.0031979205 -0.08182413 -0.06023644 -0.15840909 0.20114431 -0.14420721 -0.011166451 0.08597679 -0.08218346 0.12217447 0.02634126 0.018736817 0.08529571 0.2685033 -0.103872076 -0.398295 -0.008410148 -0.012345361 0.28274533 -0.2377534 0.00065280125 0.5653137 0.06904596 0.5605356 0.053289354 0.025383504 0.0241977 -0.09842499 -0.051101018 -0.06826926 -0.20177586 0.18292561 0.1692812 0.09333822 -0.023407254 0.24612421 -0.18438737 0.1842217 -0.15692158 -0.15221666 -0.16514736 -0.23259394 0.16633286 0.10075315 0.13984598 -0.07841714 0.18762252 0.14989485 -0.32128587 -0.06318731 0.054059938 0.10344568 0.6161794 0.12237758 -0.011812609 0.044663873 -0.077785686 0.14886406 -0.1166843 0.24944387 0.0022924766 -0.14861545 0.25241232 -0.22357076 0.19586469 0.27184555
文 -0.19552116 -0.11943203 0.057590693 -0.04329775 -0.1565193 -0.067756355 0.05723114 -0.121789314 -0.06295673 -0.31402808 -0.11447849 -0.099133015 -0.1890952 0.21638864 -0.21014646 -0.012014684 -0.062021155 0.17132215 -0.14319551 0.41758764 0.04674083 -0.240029 -0.068619445 -0.10895016 0.23291382 0.1306031 0.11614674 0.009336292 0.1716982 0.22162543 0.43812475 -0.2668391 0.17980886 -0.043817066 0.11866151 -0.1696572 0.092381306 0.24719757 -0.45283857 -0.053382065 -0.1669938 0.10289967 0.19951397 -0.040504508 -0.030848175 -0.105860926 -0.058396503 0.19213945 0.05377493 0.10284917 -0.109449506 -0.0037108387 0.39842886 -0.20406702 -0.016022807 0.50473 -0.17719395 0.07307089 0.07970945 -0.22945191 -0.16220857 0.16316515 -0.1756014 0.052417804 0.07755928 0.46054572 -0.06129599 0.02920192 -0.15609945 -0.08344998 0.21729307 -0.24330567 0.005982122 0.025193885 -0.038493443 0.048152193 -0.15507516 -0.21689934 -0.13354754 0.37970495 0.052145097 0.05893018 0.21549694 0.046750724 -0.03643864 0.020087369 0.69210434 -0.08994493 -0.07427569 -0.000104710925 0.094710454 0.24708988 -0.15547846 0.09112016 0.37082362 -0.0806373 -0.19812696 0.27105272 -0.020082915 -0.0069019753
政 -0.07762684 -0.14420538 -0.27520412 0.1388808 0.118642285 0.012009645 -0.20595433 0.1043711 -0.31351918 -0.2831925 -0.20302312 -0.19068459 0.16196755 0.24743645 0.08568492 0.45634136 0.081489325 -0.16648576 0.122850776 0.082067415 0.14569488 0.029133743 0.14586088 -0.02255497 -0.05288591 -0.028168371 -0.10529398 0.40237936 0.109031476 -0.03405584 -0.03324079 -0.28761628 0.40771684 -0.11421177 0.2969074 0.4590545 -0.16320086 0.27071568 0.37004465 0.12386418 0.028362028 0.043810226 0.15861697 0.53153753 -0.0869856 0.19415909 0.15883058 -0.2064869 0.055385873 0.076796845 -0.20576914 0.10548345 -0.14730228 -0.14169197 -0.062017925 0.18376581 -0.22327821 0.37509257 0.089656696 0.11159537 0.19983996 0.00882817 -0.34201095 -0.016529024 0.076320335 -0.005678171 -0.074275866 -0.107606165 0.018798007 0.4945182 -0.18029234 0.36395276 -0.45357922 0.12936865 -0.200627 -0.32768342 0.4078412 0.356972 0.16897352 0.044693302 0.13851248 -0.011479447 -0.06549897 -0.17895223 0.15017897 0.08677031 0.44857424 -0.17482215 -0.30691656 0.15424092 0.10230003 -0.2216918 -0.24031197 0.008271987 0.27407846 -0.12777042 0.2076565 -0.1077914 -0.0315438 -0.0389059
食 -0.1943988 0.043111533 0.092313714 -0.50765866 -0.05384598 0.028303977 -0.14912614 0.24148373 9.8052435e-05 -0.19894707 -0.011538787 -0.03288352 -0.0775991 -0.009376645 0.34347898 -0.107186675 0.5300004 -0.038310096 -0.5447559 0.010778144 -0.096196495 -0.23389083 -0.08466414 0.14170182 -0.12134282 0.14070167 -0.07042883 -0.09232515 -0.31128588 0.14188975 0.12018797 -0.074658126 0.05631952 -0.30451262 -0.28618076 0.14769006 -0.27627012 0.029137777 0.1437328 -0.2482962 0.07978597 -0.076075196 -0.05879325 0.03984954 0.19117433 -0.32635134 0.117451675 0.4681985 -0.25667787 0.21253623 -0.055816445 0.17454079 -0.38643396 -0.08734911 0.04361513 -0.20626506 -0.1835306 0.26781598 -0.02414387 -0.29630306 0.16762914 0.05490143 0.37200242 -0.0701714 -0.2747124 0.027745903 0.051251933 0.27488697 0.122106835 -0.09793408 0.15938148 0.20782366 0.30572185 0.26955223 0.05112214 -0.082543716 -0.3515691 -0.24581315 -0.39441493 -0.286934 0.3764388 -0.11026873 0.017640801 -0.29917255 -0.06616021 0.20494753 0.7829501 -0.11568797 0.291614 0.37739342 -0.03873091 0.078492604 0.034056608 -0.42114177 -0.18967871 0.21036611 -0.13578616 0.051027462 0.0015548954 -0.123835936
善 -0.0043836907 0.021726418 0.1694688 -0.22937797 0.11046209 0.13140425 -0.26912707 -0.13945761 -0.22178125 -0.065090105 -0.049844317 -0.008033953 -0.15617499 -0.088597886 -0.08857288 0.0141205825 0.40159655 0.04565105 -0.033308208 0.105194785 0.026571728 -0.14720947 0.32435617 0.13492115 -0.064601295 -0.2161739 0.08832129 0.051001474 -0.29053095 -0.34740636 -0.15266016 0.105334096 -0.26974654 -0.08620855 -0.16128017 -0.2981869 -0.21075776 -0.031007096 0.1307577 0.07863914 -0.002646435 -0.0205384 0.0087633245 0.31465214 0.2952094 0.015634518 0.23740274 0.047489192 -0.10163798 0.07346085 -0.18951948 0.03706258 0.16144614 0.30087116 -0.2467996 -0.15482993 -0.1197869 -0.06514538 0.04271645 -0.207604 -0.14845845 0.07778886 -0.25541487 -0.07496501 -0.29827982 -0.26566085 0.124339305 0.1035125 0.06702539 -0.03525137 0.27329057 -0.04400249 -0.1393155 0.39825118 -0.16140935 -0.16673353 -0.67472154 0.11786104 0.016674172 -0.08277589 0.0701248 -0.15012757 -0.3383205 0.23950905 0.05566073 -0.0172797 0.5375711 0.15679003 -0.18433855 -0.21055476 0.34479073 0.3131572 -0.075252794 0.17579955 -0.040547643 -0.07539277 0.19064265 -0.03726364 -0.006354521 0.36377192
后 0.08451974 0.06656513 -0.19951259 -0.11346592 0.3457437 0.10533937 0.008337578 -0.184922 0.10204944 -0.32670242 0.21461062 -0.048082557 0.4315138 0.25504118 -0.18115169 -0.04794096 -0.3807953 0.17513418 0.16863926 0.20784922 0.20607047 0.22715108 -0.009459116 0.5491886 -0.19973272 -0.17622973 -0.06684275 -0.078857474 -0.055533912 -0.01719748 -0.13599288 -0.3321129 0.011635666 -0.057151716 -0.019119777 0.06879792 0.26274812 -0.40714404 0.04792913 0.2096345 -0.23385929 -0.26850313 0.14701611 0.0048156185 0.22340083 0.26496983 0.14958721 0.22762968 0.14354837 0.29845747 0.070334546 -0.3299909 -0.20922314 -0.1343839 0.17082748 -0.042158138 -0.19118711 0.045762002 0.088055134 0.11121635 -0.07324294 -0.4073031 0.16904357 0.003859405 -0.27093855 -0.2716527 -0.26158306 -0.21268003 0.08205863 -0.3371288 0.106160976 0.49731356 0.052956764 0.045830186 -0.21543354 0.026631512 0.41177556 0.033451267 -0.5133308 0.10580855 -0.14858168 -0.23557611 -0.022794098 0.050269216 0.2410101 0.026342876 0.49352685 0.0019320003 -0.018280528 0.22601795 0.048982855 0.21006812 0.012845166 -0.07998694 0.20120849 0.27038673 0.19548571 0.084289484 -0.18677108 -0.053817034
德 0.025628474 0.22617865 -0.045975763 0.13667375 -0.0045391805 -0.18439195 -0.14661294 0.24831438 0.1784206 0.12163594 -0.2691702 -0.22095487 -0.14784306 0.17343137 -0.012386436 0.3138078 -0.17392083 0.063738845 0.38620695 -0.016528994 0.17379068 -0.009495798 0.36287287 0.19192287 0.023076575 0.1265503 0.33538786 0.010423568 0.08047006 0.42457676 0.08187161 0.20936479 -0.20627503 -0.010277504 0.17508915 -0.24266304 -0.14288363 -0.009847518 0.05739725 0.13390653 0.038389247 0.12177124 0.04667122 -0.16265178 -0.23980966 0.25214434 -0.061017625 0.15237384 0.21619208 -0.34418383 -0.18692978 0.0856083 0.124805965 0.19604847 0.41600493 -0.2429044 -0.12675738 0.1930513 0.09267128 0.0073794946 0.15306425 -0.1598574 -0.16410685 -0.18970057 0.088463895 -0.023878459 -0.39932314 -0.18957281 0.15025346 -0.16253267 0.22327477 -0.21397579 -0.070199974 -0.044933528 0.02464163 -0.093650945 -0.34819576 -0.29525268 0.22942163 0.03953548 -0.2860864 -0.040811606 0.3695663 -0.08705744 -0.070933424 -0.23990287 0.51247483 0.12186383 -0.0803601 -0.08649044 -0.007497168 -0.10725472 -0.27419233 0.15040007 0.03052637 -0.2465085 -0.26248756 -0.061331157 0.011189418 -0.036234554
求 0.19935116 0.031087853 0.06269128 0.066541374 0.09809906 -0.1749333 -0.22249505 -0.03384442 -0.10681154 -0.02112354 -0.0433668 0.39105374 -0.17711288 -0.25430596 -0.43031606 -0.2578214 -0.11794222 -0.12127051 -0.1496752 0.20647801 -0.17852682 0.24215542 0.23356426 0.019748645 0.17856583 -0.185875 -0.02809884 -0.31530958 -0.13168056 -0.11401113 -0.17858355 -0.052738186 -0.4143214 0.062699206 -0.3188914 -0.25993374 0.11572195 -0.24640429 -0.25582293 0.11345249 0.29372013 0.26687267 -0.08724574 0.40113273 0.1472185 0.12946688 0.21761626 -0.102040656 -0.044326406 0.011756947 -0.25763088 0.18667553 -0.2185154 -0.14826511 0.07675453 0.098464794 -0.025747638 0.087048806 0.2181582 0.49445397 0.19225615 -0.06736992 0.04749996 -0.29854426 0.026520304 0.45695415 -0.4626203 -0.029242352 0.052302983 0.20835617 0.096036896 -0.13764822 0.083014816 -0.04748488 0.2459284 -0.25637203 0.6150644 0.034529544 0.047454093 0.47833517 -0.13607584 -0.30670455 0.21801142 0.087975696 -0.11480248 -0.006606672 0.49468735 -0.057350703 -0.063326426 0.005030823 0.09256923 0.19143383 0.28684235 0.044317994 -0.05700051 0.08629449 0.12622221 -0.14775981 -0.0008912665 0.06330952
对 0.4899215 0.13578835 0.13110037 -0.025892556 0.23627184 -0.33986813 0.05168016 0.021237416 -0.16162837 0.14809 0.049527973 -0.09914264 0.015083102 -0.24889411 -0.011712646 -0.18918416 -0.26407033 0.06352714 0.06690808 -0.3099102 0.16899116 0.08783333 0.006743641 0.11628533 -0.15637185 0.31021315 -0.0041557937 0.08879307 0.17657027 -0.30585307 0.057065282 0.07799502 -0.091764316 -0.11989612 0.25176406 -0.098745994 0.02608235 -0.3747748 0.022461504 -0.29232058 0.13286763 0.11267069 0.04665382 0.59577394 0.15719938 0.1206452 -0.020710595 -0.20146227 0.103928946 -0.08235039 -0.1724944 0.26198176 0.14209554 0.045812175 -0.038339786 0.06629721 0.018803902 0.07077475 0.09402801 -0.17696922 -0.0006344216 0.16544291 0.17515816 -0.006380897 0.5951101 -0.32675874 -0.182495 0.25294414 -0.21899353 0.2945056 -0.14852689 -0.021060552 -0.28750497 -0.32742068 0.21273185 -0.5507128 -0.12435923 0.4272937 0.15025836 -0.24106488 0.33031267 0.07001285 0.2637377 -0.12216694 0.35274446 0.2769992 0.90768033 -0.22731721 0.06717334 -0.1093211 0.10062508 -0.14166823 0.37309477 0.13983048 -0.15330632 0.34638146 -0.20720491 0.05275711 0.13235815 0.18203895
恶 0.726124 0.06962297 -0.5523672 -0.15518095 0.14015497 -0.41667086 -0.15244682 0.2394713 0.5904821 -0.03306298 0.14006345 -0.06251354 -0.20314397 -0.17582321 0.15729928 0.08946082 -0.32820266 0.19857706 0.013645785 0.14418878 -0.0027736444 0.07566376 -0.1398361 -0.08403127 0.12062374 0.4726724 -0.29093143 -0.062409416 -0.12814973 0.19234107 -0.3330048 -0.0070711337 0.35174245 -0.025636394 0.070008025 -0.27770805 0.36289057 0.15795577 0.06703869 -0.010716137 -0.3444423 0.058448464 0.091570914 -0.18304475 -0.12292106 -0.14744747 0.21378648 -0.25936642 0.03753148 -0.14079641 0.15261915 -0.022864414 -0.25434065 0.19864328 0.054683782 -0.05793952 -0.26324534 -0.22400428 0.036208734 0.08903917 -0.017467605 0.4142948 -0.19828732 -0.14528862 -0.3771824 0.27068812 -0.26884884 0.12907854 -0.67245144 -0.115752414 0.04142376 0.57096255 -0.10144713 -0.17860262 -0.24673656 -0.3141537 0.04181646 0.05996374 0.051113833 -0.12859757 0.012916304 -0.04142498 0.043138374 -0.15913473 -0.13592622 -0.0555268 0.5117193 0.0091017 -0.08834621 0.053072933 -0.16731727 0.09067505 -0.3793998 0.19908252 -0.2248613 -0.12680988 0.03224338 -0.12822466 -0.092659295 0.16361617
信 0.19449016 -0.3032606 -0.16805865 0.037852712 0.25555673 -0.22872524 -0.47469565 0.40325186 -0.051307835 0.10307548 0.02281024 -0.38338602 0.025405932 0.031626787 0.1467115 0.038417075 0.015586763 -0.11263354 -0.31344154 0.12883852 0.27635768 -0.17020574 0.122169286 -0.24084072 0.051695313 0.035325978 0.06553327 -0.19095461 -0.13331255 0.010213528 -0.17219733 -0.16436976 -0.005266246 0.005090561 -0.07734493 -0.21723007 -0.047969777 0.09598592 -0.18805918 -0.028903868 -0.12843564 -0.1486184 0.25330317 0.3254037 0.5519178 0.15095095 0.06382804 0.16857915 -0.3690602 0.23420261 0.058666866 -0.06187068 -0.008661509 0.21911274 0.10186189 -0.31533578 -0.2828178 -0.31065166 0.17899369 0.37152806 -0.158208 -0.35464844 0.134985 -0.2655201 -0.3993462 -0.2042108 0.15751801 -0.21464176 0.22942007 0.03299522 0.05891271 -0.02531569 -0.03870851 -0.0876764 0.010753565 0.06644717 -0.2002833 0.08234188 -0.14495105 0.34859 -0.076734155 0.20082182 0.075185046 0.15063539 0.09940438 -0.1270411 0.45992443 0.037587464 0.42855623 -0.40592 0.104499176 -0.066944666 -0.13911608 -0.16727746 -0.109540716 -0.08519882 -0.27879658 0.08286174 -0.037035454 0.17304131
死 0.18419605 -0.13022521 0.24631639 0.49330655 -0.22555959 0.05205419 -0.48877993 -0.27744606 -0.26200026 -0.059780996 0.067060396 -0.11252324 0.19864869 -0.10867735 0.040753834 -0.00543046 0.057456262 0.15475915 0.17742482 -0.10332817 0.08159436 0.1600536 -0.13473599 0.17256062 -0.12775342 -0.28754064 0.18915345 0.4636137 -0.26838073 -0.06166315 -0.16305049 -0.06276695 -0.22924109 0.4441882 0.044805605 -0.14658129 0.06742509 -0.059625696 0.09368704 0.015878756 -0.23653305 -0.18730204 0.2470687 0.07692208 0.029856969 0.17509013 -0.300621 0.21320146 0.026125228 -0.31275284 -0.14602089 0.28795382 -0.32281473 0.040364116 -0.31446916 -0.025459526 0.1302298 0.011343833 0.14685243 -0.4513891 -0.34931564 -0.04899022 0.018292883 0.06422243 -0.1934843 0.023370046 0.0027242522 -0.046052136 -0.009131567 -0.048217136 -0.20284103 0.3089833 -0.19532788 -0.21910731 0.07464382 -0.2724148 0.14714196 0.09023879 -0.057194598 0.09096426 -0.077192225 -0.26617283 -0.026113577 -0.18116018 -0.11387493 -0.16904354 0.46458393 -0.07307888 -0.20691894 0.007537702 -0.18823819 -0.059225522 0.26628572 0.13204564 -0.13750227 0.008858446 -0.1849753 0.009251423 0.27859777 0.06194595
然 0.13211018 0.5490761 0.06302295 -0.12190686 -0.10025365 0.2652134 -0.17971304 -0.03892524 0.00034456514 -0.052726768 0.3219361 -0.16337894 0.29386684 -0.046764713 0.20635246 0.122365355 -0.04870845 -0.0006949394 -0.2845909 -0.13062418 -0.17715342 0.058905445 0.3765436 -0.09848658 -0.08481911 0.0136596095 -0.06338698 -0.069065146 -0.09881393 0.09582547 -0.06963752 -0.022196453 0.27273375 0.44688204 -0.44561505 -0.11132655 0.1067087 -0.100417465 -0.011589289 -0.09482862 0.106340975 0.10018106 -0.1737181 -0.36547282 0.1768248 0.06442847 0.26901844 -0.16562678 0.046388127 0.13630259 0.15578778 -0.015834445 0.18065807 -0.0063325167 -0.3446078 0.0028351033 -0.20794325 0.09008297 -0.2433465 0.01924448 -0.004951793 0.1267927 0.21595368 0.036795292 0.104521245 -0.009183029 -0.0628916 -0.12391322 0.27977157 -0.28560838 0.20653348 0.41259143 0.12954901 -0.1012881 0.0047696684 -0.101889566 0.22300693 -0.26699302 -0.20712748 0.25946155 0.16322704 -0.23092872 0.20492598 -0.1304438 -0.24877378 -0.3653605 0.73545927 0.04437129 0.14618208 -0.1272525 -0.082996316 0.29725543 0.3077093 -0.20295511 -0.09749042 0.3075403 0.1227645 0.096277416 -0.08400599 -0.02780531
